~o
<STREAMINFO> 1 39
<VECSIZE> 39<NULLD><MFCC_E_D_A><DIAGC>
~s "silst"
<MEAN> 39
 -9.072638e+00 1.277682e+00 1.706665e+00 5.644728e-01 -1.337435e+00 -3.381022e-01 -4.378900e+00 2.171309e-01 1.030301e+00 1.918337e+00 9.494590e-01 -4.258945e-02 1.425007e+01 1.388865e-04 -1.322851e-04 -7.021613e-05 -4.732926e-05 -2.001807e-04 3.465144e-04 -2.581107e-05 -1.778940e-04 -3.336722e-04 -2.618531e-04 -1.507589e-04 5.560460e-06 -2.282173e-05 -4.086502e-05 -2.531837e-05 4.923123e-05 3.854478e-05 8.499496e-05 1.395404e-04 2.008783e-04 -5.189419e-07 -7.650148e-05 8.881266e-05 -1.491380e-05 6.710623e-06 3.677077e-06
<VARIANCE> 39
 9.111954e+01 3.745516e+01 5.172659e+01 5.315347e+01 4.543452e+01 5.174256e+01 6.418359e+01 4.177113e+01 3.928030e+01 3.482759e+01 3.789697e+01 3.330737e+01 2.276128e+01 6.442355e-01 1.080287e+00 1.304394e+00 1.898793e+00 2.217292e+00 2.699779e+00 2.975511e+00 2.752640e+00 2.875449e+00 2.927876e+00 2.729960e+00 2.319666e+00 4.162500e-02 9.906914e-02 2.048021e-01 2.604005e-01 3.879156e-01 4.587345e-01 5.556552e-01 6.146950e-01 5.767057e-01 6.011935e-01 6.138257e-01 5.735545e-01 4.895296e-01 5.749954e-03
<GCONST> 1.100894e+02
~h "@"
<BEGINHMM>
<NUMSTATES> 5
<STATE> 2
<MEAN> 39
 -8.612034e+00 1.163473e+00 1.665445e+00 3.443967e-01 -1.399651e+00 -4.909303e-01 -4.862297e+00 2.272385e-01 1.156229e+00 2.000854e+00 8.516797e-01 -6.575947e-02 1.465245e+01 -1.648637e-03 1.184075e-03 2.185557e-04 1.054955e-03 5.870473e-04 3.307884e-04 9.322834e-04 1.590237e-04 -2.284940e-04 -5.974291e-05 5.020117e-04 2.179876e-04 -1.092568e-03 -9.175565e-06 1.217106e-05 9.621105e-06 2.047028e-05 1.956768e-06 -1.037740e-06 -1.051173e-05 8.658515e-06 1.954332e-06 7.203826e-06 -1.089480e-05 -1.089747e-05 -6.408877e-06
<VARIANCE> 39
 9.338477e+01 3.867002e+01 5.336643e+01 5.397062e+01 4.688141e+01 5.359383e+01 6.682333e+01 4.319514e+01 4.056043e+01 3.549767e+01 3.869961e+01 3.407890e+01 2.242790e+01 6.782256e-01 1.102356e+00 1.300221e+00 1.900900e+00 2.218305e+00 2.699484e+00 2.993349e+00 2.700400e+00 2.864997e+00 2.884236e+00 2.662374e+00 2.284465e+00 4.181876e-02 1.016429e-01 2.062976e-01 2.569233e-01 3.857336e-01 4.575096e-01 5.542282e-01 6.152854e-01 5.620003e-01 5.962948e-01 6.012591e-01 5.562007e-01 4.800667e-01 5.566149e-03
<GCONST> 1.102873e+02
<STATE> 3
<MEAN> 39
 -8.616343e+00 1.166629e+00 1.666054e+00 3.472006e-01 -1.398136e+00 -4.900495e-01 -4.859898e+00 2.276819e-01 1.155639e+00 2.000734e+00 8.529481e-01 -6.520026e-02 1.464961e+01 -1.668025e-03 1.212961e-03 2.439366e-04 1.107255e-03 5.853426e-04 3.269380e-04 8.998942e-04 1.584870e-04 -2.400104e-04 -4.725901e-05 5.028645e-04 2.030838e-04 -1.106989e-03 -5.544707e-06 1.163183e-05 9.019896e-06 1.486308e-05 -2.561037e-06 -4.965536e-06 -1.122884e-05 -7.544684e-06 -8.635489e-06 -2.109479e-06 3.819888e-06 -3.035116e-06 -5.569111e-06
<VARIANCE> 39
 9.336973e+01 3.865534e+01 5.334059e+01 5.395676e+01 4.686404e+01 5.356902e+01 6.680559e+01 4.317994e+01 4.054570e+01 3.548858e+01 3.868586e+01 3.406866e+01 2.243217e+01 6.778682e-01 1.101673e+00 1.299874e+00 1.900243e+00 2.218103e+00 2.699069e+00 2.993255e+00 2.699983e+00 2.865178e+00 2.883734e+00 2.662210e+00 2.284508e+00 4.179503e-02 1.015861e-01 2.061746e-01 2.568653e-01 3.856275e-01 4.574990e-01 5.541773e-01 6.153248e-01 5.619386e-01 5.963858e-01 6.011517e-01 5.562023e-01 4.800769e-01 5.563916e-03
<GCONST> 1.102784e+02
<STATE> 4
<MEAN> 39
 -8.620676e+00 1.169847e+00 1.666740e+00 3.501232e-01 -1.396645e+00 -4.892088e-01 -4.857592e+00 2.280486e-01 1.154955e+00 2.000594e+00 8.543046e-01 -6.466657e-02 1.464674e+01 -1.675857e-03 1.241172e-03 2.611026e-04 1.123947e-03 5.734929e-04 3.035757e-04 8.720108e-04 1.132033e-04 -2.790400e-04 -7.318121e-05 5.373192e-04 2.092221e-04 -1.119510e-03 -1.636113e-06 1.193397e-05 4.985559e-06 3.773296e-06 -5.423070e-06 -8.706733e-06 -5.747079e-06 -1.708820e-05 -1.186181e-05 -1.404441e-05 1.214476e-05 9.879536e-06 -4.515241e-06
<VARIANCE> 39
 9.335477e+01 3.863968e+01 5.331390e+01 5.394202e+01 4.684684e+01 5.354308e+01 6.678720e+01 4.316449e+01 4.053041e+01 3.547995e+01 3.867202e+01 3.405850e+01 2.243665e+01 6.774977e-01 1.100954e+00 1.299500e+00 1.899702e+00 2.217860e+00 2.698524e+00 2.993116e+00 2.699559e+00 2.865419e+00 2.883230e+00 2.661967e+00 2.284548e+00 4.177086e-02 1.015277e-01 2.060498e-01 2.568034e-01 3.855381e-01 4.574890e-01 5.540928e-01 6.153422e-01 5.618462e-01 5.964694e-01 6.010499e-01 5.561917e-01 4.801013e-01 5.561762e-03
<GCONST> 1.102691e+02
<TRANSP> 5
 0.000000e+00 1.000000e+00 0.000000e+00 0.000000e+00 0.000000e+00
 0.000000e+00 6.162283e-01 3.837717e-01 0.000000e+00 0.000000e+00
 0.000000e+00 0.000000e+00 6.162269e-01 3.837730e-01 0.000000e+00
 0.000000e+00 0.000000e+00 0.000000e+00 6.162286e-01 3.837715e-01
 0.000000e+00 0.000000e+00 0.000000e+00 0.000000e+00 0.000000e+00
<ENDHMM>
~h "Q"
<BEGINHMM>
<NUMSTATES> 5
<STATE> 2
<MEAN> 39
 -8.968819e+00 1.227167e+00 1.709896e+00 5.255102e-01 -1.376319e+00 -3.581203e-01 -4.450421e+00 2.224232e-01 1.032390e+00 1.922153e+00 9.369482e-01 -5.463367e-02 1.433043e+01 6.601643e-05 -6.414447e-06 -4.348861e-05 2.207338e-05 -6.183252e-05 3.505594e-04 -2.845397e-05 -1.057293e-04 -3.217392e-04 -2.094190e-04 -1.093453e-04 6.646793e-05 -4.646834e-05 -3.052270e-05 -5.577785e-06 5.118113e-05 5.903988e-05 8.738427e-05 1.239256e-04 1.462678e-04 5.784345e-07 -6.680420e-05 8.540968e-05 -3.584341e-06 -9.608337e-06 3.280207e-06
<VARIANCE> 39
 9.132833e+01 3.750473e+01 5.184167e+01 5.299957e+01 4.542144e+01 5.171822e+01 6.411460e+01 4.173472e+01 3.924054e+01 3.472301e+01 3.778771e+01 3.327573e+01 2.268905e+01 6.444674e-01 1.076510e+00 1.293223e+00 1.883514e+00 2.197024e+00 2.673508e+00 2.949268e+00 2.722457e+00 2.845586e+00 2.895535e+00 2.697424e+00 2.293327e+00 4.128606e-02 9.874837e-02 2.035372e-01 2.576212e-01 3.839478e-01 4.538210e-01 5.496877e-01 6.081111e-01 5.695377e-01 5.939356e-01 6.059731e-01 5.659602e-01 4.834353e-01 5.660130e-03
<GCONST> 1.098248e+02
<STATE> 3
<MEAN> 39
 -8.968819e+00 1.227167e+00 1.709896e+00 5.255102e-01 -1.376319e+00 -3.581203e-01 -4.450421e+00 2.224232e-01 1.032390e+00 1.922153e+00 9.369482e-01 -5.463367e-02 1.433043e+01 6.601643e-05 -6.414447e-06 -4.348861e-05 2.207338e-05 -6.183252e-05 3.505594e-04 -2.845397e-05 -1.057293e-04 -3.217392e-04 -2.094190e-04 -1.093453e-04 6.646793e-05 -4.646834e-05 -3.052270e-05 -5.577785e-06 5.118113e-05 5.903988e-05 8.738427e-05 1.239256e-04 1.462678e-04 5.784345e-07 -6.680420e-05 8.540968e-05 -3.584341e-06 -9.608337e-06 3.280207e-06
<VARIANCE> 39
 9.132833e+01 3.750473e+01 5.184167e+01 5.299957e+01 4.542144e+01 5.171822e+01 6.411460e+01 4.173472e+01 3.924054e+01 3.472301e+01 3.778771e+01 3.327573e+01 2.268905e+01 6.444674e-01 1.076510e+00 1.293223e+00 1.883514e+00 2.197024e+00 2.673508e+00 2.949268e+00 2.722457e+00 2.845586e+00 2.895535e+00 2.697424e+00 2.293327e+00 4.128606e-02 9.874837e-02 2.035372e-01 2.576212e-01 3.839478e-01 4.538210e-01 5.496877e-01 6.081111e-01 5.695377e-01 5.939356e-01 6.059731e-01 5.659602e-01 4.834353e-01 5.660130e-03
<GCONST> 1.098248e+02
<STATE> 4
<MEAN> 39
 -8.968819e+00 1.227167e+00 1.709896e+00 5.255102e-01 -1.376319e+00 -3.581203e-01 -4.450421e+00 2.224232e-01 1.032390e+00 1.922153e+00 9.369482e-01 -5.463367e-02 1.433043e+01 6.601643e-05 -6.414447e-06 -4.348861e-05 2.207338e-05 -6.183252e-05 3.505594e-04 -2.845397e-05 -1.057293e-04 -3.217392e-04 -2.094190e-04 -1.093453e-04 6.646793e-05 -4.646834e-05 -3.052270e-05 -5.577785e-06 5.118113e-05 5.903988e-05 8.738427e-05 1.239256e-04 1.462678e-04 5.784345e-07 -6.680420e-05 8.540968e-05 -3.584341e-06 -9.608337e-06 3.280207e-06
<VARIANCE> 39
 9.132833e+01 3.750473e+01 5.184167e+01 5.299957e+01 4.542144e+01 5.171822e+01 6.411460e+01 4.173472e+01 3.924054e+01 3.472301e+01 3.778771e+01 3.327573e+01 2.268905e+01 6.444674e-01 1.076510e+00 1.293223e+00 1.883514e+00 2.197024e+00 2.673508e+00 2.949268e+00 2.722457e+00 2.845586e+00 2.895535e+00 2.697424e+00 2.293327e+00 4.128606e-02 9.874837e-02 2.035372e-01 2.576212e-01 3.839478e-01 4.538210e-01 5.496877e-01 6.081111e-01 5.695377e-01 5.939356e-01 6.059731e-01 5.659602e-01 4.834353e-01 5.660130e-03
<GCONST> 1.098248e+02
<TRANSP> 5
 0.000000e+00 1.000000e+00 0.000000e+00 0.000000e+00 0.000000e+00
 0.000000e+00 5.000000e-01 5.000000e-01 0.000000e+00 0.000000e+00
 0.000000e+00 0.000000e+00 5.000000e-01 5.000000e-01 0.000000e+00
 0.000000e+00 0.000000e+00 0.000000e+00 5.000000e-01 5.000000e-01
 0.000000e+00 0.000000e+00 0.000000e+00 0.000000e+00 0.000000e+00
<ENDHMM>
~h "a"
<BEGINHMM>
<NUMSTATES> 5
<STATE> 2
<MEAN> 39
 -8.033439e+00 4.629736e-01 1.208728e+00 2.997640e-01 -1.715194e+00 -4.297256e-01 -4.563925e+00 6.091929e-01 1.255955e+00 1.952641e+00 5.158351e-01 -4.396891e-01 1.496021e+01 -1.299417e-03 9.720980e-04 -2.003821e-05 5.803109e-04 3.892829e-04 3.187091e-04 8.614256e-04 -1.307167e-04 -2.913800e-04 -2.155213e-04 4.494581e-04 -1.015095e-05 -1.048504e-03 -5.460227e-06 3.381893e-06 1.824720e-05 8.777691e-07 1.255824e-06 -5.047581e-06 1.261630e-05 -6.258173e-07 -8.431291e-06 8.623548e-09 -1.127797e-07 -1.582993e-05 1.737425e-07
<VARIANCE> 39
 9.565833e+01 4.353365e+01 5.470552e+01 5.417768e+01 4.760566e+01 5.351940e+01 6.520607e+01 4.718193e+01 4.085015e+01 3.607549e+01 4.001501e+01 3.740671e+01 2.207998e+01 6.916308e-01 1.131833e+00 1.309166e+00 1.920176e+00 2.197128e+00 2.672964e+00 2.943419e+00 2.707628e+00 2.798496e+00 2.835717e+00 2.660019e+00 2.261296e+00 4.137336e-02 1.046181e-01 2.097706e-01 2.569607e-01 3.890478e-01 4.519017e-01 5.473995e-01 6.040889e-01 5.589814e-01 5.786611e-01 5.887935e-01 5.555226e-01 4.719761e-01 5.410016e-03
<GCONST> 1.105456e+02
<STATE> 3
<MEAN> 39
 -8.036777e+00 4.655135e-01 1.208758e+00 3.012864e-01 -1.714166e+00 -4.288580e-01 -4.561697e+00 6.088805e-01 1.255185e+00 1.952079e+00 5.170115e-01 -4.397593e-01 1.495754e+01 -1.309614e-03 9.955581e-04 2.211314e-05 5.916276e-04 4.024539e-04 3.486111e-04 8.975928e-04 -1.176113e-04 -2.860911e-04 -1.977815e-04 4.520359e-04 -3.311145e-05 -1.050445e-03 -4.387973e-06 1.182369e-05 1.471170e-05 3.810419e-06 3.954093e-06 1.843707e-05 1.568885e-05 7.074887e-06 4.419695e-06 9.405629e-06 3.419576e-06 -6.495758e-06 -4.122251e-07
<VARIANCE> 39
 9.563608e+01 4.351974e+01 5.467820e+01 5.417060e+01 4.759008e+01 5.349776e+01 6.518993e+01 4.716667e+01 4.084272e+01 3.606813e+01 4.000868e+01 3.739624e+01 2.208492e+01 6.912805e-01 1.131258e+00 1.308921e+00 1.920198e+00 2.197104e+00 2.672912e+00 2.943086e+00 2.707650e+00 2.798489e+00 2.835584e+00 2.659760e+00 2.261164e+00 4.134831e-02 1.045657e-01 2.096733e-01 2.569356e-01 3.890821e-01 4.519038e-01 5.474263e-01 6.040362e-01 5.590268e-01 5.786890e-01 5.887545e-01 5.554608e-01 4.719419e-01 5.407697e-03
<GCONST> 1.105388e+02
<STATE> 4
<MEAN> 39
 -8.040149e+00 4.681544e-01 1.208862e+00 3.028151e-01 -1.713106e+00 -4.278131e-01 -4.559329e+00 6.086388e-01 1.254489e+00 1.951611e+00 5.181917e-01 -4.398632e-01 1.495482e+01 -1.320388e-03 1.036772e-03 5.379642e-05 5.964196e-04 4.069483e-04 4.175425e-04 9.540748e-04 -8.447507e-05 -2.658037e-04 -1.750210e-04 4.600594e-04 -3.714562e-05 -1.052815e-03 -4.388876e-06 1.626456e-05 1.433247e-05 5.247059e-06 1.455571e-06 2.885226e-05 2.188833e-05 1.739140e-05 6.811879e-06 5.378567e-06 1.404139e-06 2.123585e-06 -1.121889e-06
<VARIANCE> 39
 9.561655e+01 4.350656e+01 5.465178e+01 5.416533e+01 4.757479e+01 5.347655e+01 6.517569e+01 4.715189e+01 4.083593e+01 3.605994e+01 4.000244e+01 3.738493e+01 2.209048e+01 6.909516e-01 1.130672e+00 1.308724e+00 1.920243e+00 2.197124e+00 2.672926e+00 2.942752e+00 2.707744e+00 2.798582e+00 2.835325e+00 2.659618e+00 2.261060e+00 4.132460e-02 1.045157e-01 2.095718e-01 2.569127e-01 3.891106e-01 4.519160e-01 5.474691e-01 6.039814e-01 5.590852e-01 5.787281e-01 5.887055e-01 5.554435e-01 4.719136e-01 5.405535e-03
<GCONST> 1.105326e+02
<TRANSP> 5
 0.000000e+00 1.000000e+00 0.000000e+00 0.000000e+00 0.000000e+00
 0.000000e+00 6.161719e-01 3.838281e-01 0.000000e+00 0.000000e+00
 0.000000e+00 0.000000e+00 6.161733e-01 3.838267e-01 0.000000e+00
 0.000000e+00 0.000000e+00 0.000000e+00 6.161736e-01 3.838264e-01
 0.000000e+00 0.000000e+00 0.000000e+00 0.000000e+00 0.000000e+00
<ENDHMM>
~h "b"
<BEGINHMM>
<NUMSTATES> 5
<STATE> 2
<MEAN> 39
 -8.042055e+00 7.225916e-01 1.703698e+00 2.238487e-01 -1.638864e+00 -4.544429e-01 -5.011641e+00 1.375841e-01 1.112530e+00 2.124100e+00 5.797125e-01 -2.084219e-01 1.494454e+01 2.196580e-04 1.351529e-03 3.335923e-04 3.529914e-04 -6.986799e-05 1.791454e-04 -2.284821e-05 -8.387025e-05 5.083540e-05 2.362679e-04 2.709335e-04 3.624446e-05 -5.737660e-05 -1.288356e-05 6.274672e-06 3.329199e-06 6.115698e-06 -5.207859e-06 -4.176747e-05 -9.657480e-06 6.693283e-06 -1.981009e-05 -1.546408e-05 -8.248822e-07 -1.047599e-05 -1.377831e-06
<VARIANCE> 39
 9.498067e+01 4.144595e+01 5.556627e+01 5.533551e+01 4.948392e+01 5.624206e+01 6.621844e+01 4.553130e+01 4.064492e+01 3.684294e+01 3.841988e+01 3.523170e+01 2.225882e+01 7.121111e-01 1.161538e+00 1.317811e+00 1.923959e+00 2.244576e+00 2.681202e+00 2.962954e+00 2.715888e+00 2.803666e+00 2.886143e+00 2.631866e+00 2.271302e+00 4.488072e-02 1.066847e-01 2.152292e-01 2.587527e-01 3.877634e-01 4.607085e-01 5.457017e-01 6.071790e-01 5.630368e-01 5.771700e-01 5.978824e-01 5.486259e-01 4.765740e-01 5.732874e-03
<GCONST> 1.108554e+02
<STATE> 3
<MEAN> 39
 -8.041513e+00 7.260936e-01 1.704590e+00 2.247655e-01 -1.639062e+00 -4.541571e-01 -5.011746e+00 1.374415e-01 1.112614e+00 2.124624e+00 5.804441e-01 -2.083986e-01 1.494445e+01 1.817905e-04 1.375646e-03 3.497766e-04 3.564250e-04 -7.514111e-05 6.341359e-05 -5.069702e-05 -4.618575e-05 4.859615e-05 1.976146e-04 2.633102e-04 -5.018447e-06 -5.966602e-05 -1.824547e-05 8.870263e-06 1.267943e-05 -3.053013e-06 -4.759504e-06 -4.289249e-05 -2.335807e-05 9.620480e-06 -1.467565e-06 -9.052836e-06 -3.403101e-06 -1.249151e-05 -1.649102e-06
<VARIANCE> 39
 9.497788e+01 4.143735e+01 5.556213e+01 5.533973e+01 4.948117e+01 5.623920e+01 6.620617e+01 4.552649e+01 4.064244e+01 3.684169e+01 3.841861e+01 3.522170e+01 2.226305e+01 7.119067e-01 1.161044e+00 1.317399e+00 1.923830e+00 2.244196e+00 2.681426e+00 2.962337e+00 2.715773e+00 2.803695e+00 2.885825e+00 2.631813e+00 2.270410e+00 4.487136e-02 1.066426e-01 2.151351e-01 2.586481e-01 3.877108e-01 4.606166e-01 5.457695e-01 6.070145e-01 5.630223e-01 5.771588e-01 5.978166e-01 5.486220e-01 4.763702e-01 5.731476e-03
<GCONST> 1.108498e+02
<STATE> 4
<MEAN> 39
 -8.041055e+00 7.296969e-01 1.705560e+00 2.256829e-01 -1.639251e+00 -4.541245e-01 -5.011952e+00 1.374150e-01 1.112791e+00 2.125107e+00 5.811279e-01 -2.084669e-01 1.494434e+01 1.367877e-04 1.405607e-03 3.981997e-04 3.438084e-04 -8.166440e-05 -4.674858e-05 -1.457171e-04 -3.183332e-05 5.444451e-05 1.961135e-04 2.475408e-04 -1.913418e-05 -6.336249e-05 -2.136966e-05 8.588726e-06 2.265746e-05 -1.086700e-05 -5.222515e-06 -3.096175e-05 -3.469855e-05 1.657216e-06 -3.174304e-06 -6.024968e-06 -2.441701e-06 -2.946091e-06 -2.664567e-06
<VARIANCE> 39
 9.497858e+01 4.142905e+01 5.555631e+01 5.534521e+01 4.947712e+01 5.623471e+01 6.619266e+01 4.552299e+01 4.063985e+01 3.683809e+01 3.841758e+01 3.521257e+01 2.226771e+01 7.117383e-01 1.160629e+00 1.316930e+00 1.923743e+00 2.243872e+00 2.681716e+00 2.961645e+00 2.715679e+00 2.803747e+00 2.885366e+00 2.631639e+00 2.269734e+00 4.486227e-02 1.066099e-01 2.150552e-01 2.585408e-01 3.876701e-01 4.605328e-01 5.458485e-01 6.068298e-01 5.630243e-01 5.771627e-01 5.977085e-01 5.485739e-01 4.762109e-01 5.730652e-03
<GCONST> 1.108447e+02
<TRANSP> 5
 0.000000e+00 1.000000e+00 0.000000e+00 0.000000e+00 0.000000e+00
 0.000000e+00 6.160508e-01 3.839492e-01 0.000000e+00 0.000000e+00
 0.000000e+00 0.000000e+00 6.160520e-01 3.839479e-01 0.000000e+00
 0.000000e+00 0.000000e+00 0.000000e+00 6.160532e-01 3.839467e-01
 0.000000e+00 0.000000e+00 0.000000e+00 0.000000e+00 0.000000e+00
<ENDHMM>
~h "d"
<BEGINHMM>
<NUMSTATES> 5
<STATE> 2
<MEAN> 39
 -8.451194e+00 9.539725e-01 1.775720e+00 5.647779e-01 -1.613164e+00 -5.654974e-01 -4.707954e+00 3.653830e-01 1.101274e+00 1.820285e+00 7.456968e-01 -1.686812e-01 1.467738e+01 -1.060675e-03 9.669968e-04 3.821516e-04 6.688404e-04 2.338129e-04 3.085505e-04 6.092285e-04 3.118532e-04 -1.342721e-04 -1.901237e-04 3.846000e-04 1.797879e-04 -7.930518e-04 -7.882139e-06 6.047926e-06 -4.706973e-06 -5.220400e-06 -9.379090e-08 1.231767e-05 1.880481e-05 7.785100e-06 -3.444498e-06 6.458371e-06 9.114842e-06 -3.959773e-06 -3.292265e-06
<VARIANCE> 39
 9.329884e+01 3.936602e+01 5.609053e+01 5.254134e+01 4.727366e+01 5.244353e+01 6.585068e+01 4.360611e+01 4.020810e+01 3.513548e+01 3.977182e+01 3.465363e+01 2.263392e+01 6.743454e-01 1.102225e+00 1.295574e+00 1.872585e+00 2.185375e+00 2.652682e+00 2.969678e+00 2.702944e+00 2.814872e+00 2.852365e+00 2.667852e+00 2.269428e+00 4.188326e-02 1.026354e-01 2.067408e-01 2.555740e-01 3.795096e-01 4.494913e-01 5.440432e-01 6.109512e-01 5.620955e-01 5.846834e-01 5.953285e-01 5.576101e-01 4.768538e-01 5.610475e-03
<GCONST> 1.101686e+02
<STATE> 3
<MEAN> 39
 -8.453918e+00 9.565032e-01 1.776719e+00 5.665042e-01 -1.612562e+00 -5.646496e-01 -4.706321e+00 3.662175e-01 1.100898e+00 1.819788e+00 7.467263e-01 -1.682116e-01 1.467535e+01 -1.082958e-03 9.872253e-04 3.655755e-04 6.582784e-04 2.384321e-04 3.380850e-04 6.713133e-04 3.223179e-04 -1.401129e-04 -1.605332e-04 4.179163e-04 1.677585e-04 -8.031990e-04 -4.827471e-06 8.726496e-06 -8.843976e-06 -3.583326e-06 -6.766462e-06 9.759144e-06 3.105215e-05 -7.368562e-07 -1.633446e-06 1.402878e-05 1.613876e-05 -5.373391e-06 -3.580806e-06
<VARIANCE> 39
 9.328162e+01 3.935297e+01 5.607423e+01 5.253088e+01 4.726297e+01 5.243188e+01 6.583954e+01 4.359395e+01 4.019878e+01 3.512721e+01 3.976515e+01 3.464503e+01 2.263756e+01 6.739666e-01 1.101666e+00 1.295357e+00 1.872130e+00 2.185348e+00 2.652820e+00 2.969261e+00 2.702484e+00 2.815081e+00 2.852310e+00 2.667709e+00 2.269727e+00 4.187071e-02 1.025719e-01 2.066317e-01 2.555489e-01 3.794312e-01 4.495084e-01 5.440875e-01 6.108635e-01 5.619988e-01 5.847498e-01 5.953397e-01 5.576020e-01 4.769447e-01 5.609756e-03
<GCONST> 1.101625e+02
<STATE> 4
<MEAN> 39
 -8.456727e+00 9.591116e-01 1.777652e+00 5.682219e-01 -1.611952e+00 -5.637283e-01 -4.704505e+00 3.670562e-01 1.100493e+00 1.819375e+00 7.478682e-01 -1.677738e-01 1.467327e+01 -1.086777e-03 1.012369e-03 3.386124e-04 6.480293e-04 2.122604e-04 3.630364e-04 7.429100e-04 3.131114e-04 -1.455658e-04 -1.361570e-04 4.525167e-04 1.522517e-04 -8.118218e-04 2.224983e-07 8.966166e-06 -1.116260e-05 -2.053878e-06 -1.221510e-05 8.364270e-06 2.259451e-05 -1.889538e-05 -3.227927e-06 -2.665496e-06 9.171255e-06 2.522863e-08 -2.931864e-06
<VARIANCE> 39
 9.326575e+01 3.934062e+01 5.605767e+01 5.252177e+01 4.725188e+01 5.242020e+01 6.583057e+01 4.358155e+01 4.018953e+01 3.511772e+01 3.975819e+01 3.463736e+01 2.264189e+01 6.735972e-01 1.101091e+00 1.295210e+00 1.871623e+00 2.185323e+00 2.652928e+00 2.968785e+00 2.702039e+00 2.815212e+00 2.852287e+00 2.667608e+00 2.270077e+00 4.185560e-02 1.025064e-01 2.065215e-01 2.555360e-01 3.793474e-01 4.495325e-01 5.441317e-01 6.107803e-01 5.619212e-01 5.848113e-01 5.953517e-01 5.575954e-01 4.770628e-01 5.609124e-03
<GCONST> 1.101567e+02
<TRANSP> 5
 0.000000e+00 1.000000e+00 0.000000e+00 0.000000e+00 0.000000e+00
 0.000000e+00 6.162261e-01 3.837740e-01 0.000000e+00 0.000000e+00
 0.000000e+00 0.000000e+00 6.162280e-01 3.837719e-01 0.000000e+00
 0.000000e+00 0.000000e+00 0.000000e+00 6.162274e-01 3.837726e-01
 0.000000e+00 0.000000e+00 0.000000e+00 0.000000e+00 0.000000e+00
<ENDHMM>
~h "e"
<BEGINHMM>
<NUMSTATES> 5
<STATE> 2
<MEAN> 39
 -8.097317e+00 8.096739e-01 1.851456e+00 -1.037596e-01 -1.766889e+00 -5.427855e-01 -5.347105e+00 3.645648e-01 1.007245e+00 1.978278e+00 7.493572e-01 -1.688456e-01 1.512928e+01 5.482681e-04 4.305941e-04 1.607490e-04 3.952546e-05 -1.425786e-04 2.698157e-04 -1.615832e-05 1.753122e-04 -2.304994e-04 1.086384e-04 2.654165e-04 -7.531201e-05 3.455319e-04 -8.696595e-06 -5.376122e-06 1.718994e-05 2.887517e-05 9.531111e-06 8.760412e-06 1.326379e-06 -1.586682e-05 3.298217e-06 1.314914e-05 -6.252522e-06 2.898385e-06 2.155253e-06
<VARIANCE> 39
 1.031765e+02 4.082425e+01 5.551795e+01 5.718380e+01 4.866223e+01 5.372643e+01 6.829977e+01 4.697269e+01 4.362550e+01 3.654363e+01 3.997842e+01 3.380429e+01 2.243653e+01 7.040341e-01 1.111494e+00 1.290066e+00 1.877018e+00 2.188027e+00 2.635691e+00 2.932044e+00 2.698497e+00 2.833572e+00 2.849643e+00 2.637895e+00 2.223996e+00 4.154760e-02 1.019340e-01 2.053678e-01 2.514035e-01 3.754372e-01 4.472127e-01 5.359002e-01 5.958862e-01 5.561767e-01 5.816267e-01 5.886570e-01 5.474801e-01 4.652969e-01 5.280491e-03
<GCONST> 1.104160e+02
<STATE> 3
<MEAN> 39
 -8.095782e+00 8.107398e-01 1.851980e+00 -1.035728e-01 -1.767249e+00 -5.420693e-01 -5.347226e+00 3.649895e-01 1.006671e+00 1.978547e+00 7.499768e-01 -1.690135e-01 1.513030e+01 5.281190e-04 4.230970e-04 2.029254e-04 1.175348e-04 -1.110844e-04 2.920990e-04 -1.720776e-05 1.437223e-04 -2.192086e-04 1.169241e-04 2.341046e-04 -5.051485e-05 3.491179e-04 -6.913846e-06 -1.450806e-06 1.446863e-05 2.837154e-05 1.271473e-05 5.004377e-06 -3.655001e-06 -1.098136e-05 -1.152719e-06 -2.416185e-06 -1.015686e-05 6.543210e-06 1.072629e-06
<VARIANCE> 39
 1.031994e+02 4.082784e+01 5.552779e+01 5.719842e+01 4.866808e+01 5.372911e+01 6.831444e+01 4.697434e+01 4.362557e+01 3.654364e+01 3.998014e+01 3.380590e+01 2.243937e+01 7.039536e-01 1.111441e+00 1.290051e+00 1.876627e+00 2.188033e+00 2.635369e+00 2.932007e+00 2.698175e+00 2.833152e+00 2.849529e+00 2.637793e+00 2.223864e+00 4.154413e-02 1.019097e-01 2.053559e-01 2.513860e-01 3.753408e-01 4.472217e-01 5.358267e-01 5.958915e-01 5.561050e-01 5.815399e-01 5.886183e-01 5.474530e-01 4.652756e-01 5.280618e-03
<GCONST> 1.104152e+02
<STATE> 4
<MEAN> 39
 -8.094371e+00 8.118492e-01 1.852585e+00 -1.031764e-01 -1.767514e+00 -5.413167e-01 -5.347326e+00 3.653424e-01 1.006096e+00 1.978814e+00 7.505279e-01 -1.691159e-01 1.513125e+01 5.168050e-04 4.353136e-04 2.251626e-04 1.731895e-04 -8.899704e-05 2.961308e-04 -3.700473e-05 1.098891e-04 -2.329426e-04 1.116030e-04 2.140945e-04 -4.748496e-05 3.492777e-04 -1.314576e-06 4.465257e-06 8.334041e-06 2.136102e-05 5.918031e-06 8.735825e-08 -9.776505e-06 -1.496846e-05 -8.370473e-06 -8.764239e-06 -4.812643e-06 1.780132e-06 8.704570e-08
<VARIANCE> 39
 1.032221e+02 4.083050e+01 5.553696e+01 5.721335e+01 4.867424e+01 5.373137e+01 6.832918e+01 4.697584e+01 4.362426e+01 3.654373e+01 3.998221e+01 3.380802e+01 2.244250e+01 7.038603e-01 1.111371e+00 1.289993e+00 1.876269e+00 2.187961e+00 2.635093e+00 2.932035e+00 2.697699e+00 2.832704e+00 2.849330e+00 2.637769e+00 2.223811e+00 4.153965e-02 1.018842e-01 2.053368e-01 2.513552e-01 3.752467e-01 4.472190e-01 5.357550e-01 5.959100e-01 5.560077e-01 5.814660e-01 5.885534e-01 5.474466e-01 4.652753e-01 5.280528e-03
<GCONST> 1.104142e+02
<TRANSP> 5
 0.000000e+00 1.000000e+00 0.000000e+00 0.000000e+00 0.000000e+00
 0.000000e+00 6.161296e-01 3.838704e-01 0.000000e+00 0.000000e+00
 0.000000e+00 0.000000e+00 6.161315e-01 3.838685e-01 0.000000e+00
 0.000000e+00 0.000000e+00 0.000000e+00 6.161311e-01 3.838689e-01
 0.000000e+00 0.000000e+00 0.000000e+00 0.000000e+00 0.000000e+00
<ENDHMM>
~h "f"
<BEGINHMM>
<NUMSTATES> 5
<STATE> 2
<MEAN> 39
 -8.818329e+00 7.979847e-01 1.446005e+00 3.402569e-01 -1.584167e+00 -4.263776e-01 -4.767559e+00 3.446428e-01 1.197619e+00 1.842611e+00 1.059489e+00 3.217193e-02 1.466721e+01 -3.176348e-04 4.984262e-04 1.019209e-04 3.229494e-04 1.506519e-04 3.546412e-04 3.317038e-04 2.207480e-04 1.790761e-04 3.585137e-05 3.153511e-04 3.992015e-05 -1.937851e-04 7.936456e-06 1.431637e-05 -1.051153e-05 8.465377e-06 1.646927e-05 1.323616e-05 1.319046e-05 1.199678e-05 -8.013380e-06 1.728040e-05 6.042360e-07 -1.020133e-05 3.117489e-06
<VARIANCE> 39
 9.820568e+01 3.956542e+01 5.326312e+01 5.478922e+01 4.605780e+01 5.298837e+01 6.599638e+01 4.131824e+01 4.094613e+01 3.538478e+01 3.906901e+01 3.521117e+01 2.234993e+01 6.914535e-01 1.081137e+00 1.289232e+00 1.880547e+00 2.186157e+00 2.644433e+00 2.940912e+00 2.688168e+00 2.861818e+00 2.891982e+00 2.667399e+00 2.295880e+00 4.205918e-02 1.005018e-01 2.030691e-01 2.543101e-01 3.793284e-01 4.500866e-01 5.432683e-01 6.034721e-01 5.621886e-01 5.924630e-01 6.031265e-01 5.556260e-01 4.815713e-01 5.597341e-03
<GCONST> 1.101650e+02
<STATE> 3
<MEAN> 39
 -8.819095e+00 7.993122e-01 1.446237e+00 3.411223e-01 -1.583710e+00 -4.254472e-01 -4.766748e+00 3.451930e-01 1.198085e+00 1.842784e+00 1.060332e+00 3.230054e-02 1.466676e+01 -2.973883e-04 5.328093e-04 7.643446e-05 3.535048e-04 1.893365e-04 3.620757e-04 3.400828e-04 2.370985e-04 1.592407e-04 6.829869e-05 3.091458e-04 2.088840e-05 -1.882577e-04 7.953504e-06 1.064963e-05 -8.075876e-06 1.626640e-05 9.723512e-06 -1.020934e-05 7.580011e-07 5.733527e-06 -2.090455e-05 7.826288e-06 -4.238593e-06 -8.548626e-06 1.051141e-07
<VARIANCE> 39
 9.821273e+01 3.956475e+01 5.325568e+01 5.479798e+01 4.605691e+01 5.299040e+01 6.599692e+01 4.131540e+01 4.094066e+01 3.538059e+01 3.906738e+01 3.521025e+01 2.235289e+01 6.912538e-01 1.080784e+00 1.288853e+00 1.880245e+00 2.186039e+00 2.644593e+00 2.940744e+00 2.687671e+00 2.860882e+00 2.891365e+00 2.666938e+00 2.295903e+00 4.205238e-02 1.004650e-01 2.029789e-01 2.542222e-01 3.792449e-01 4.500752e-01 5.432938e-01 6.034522e-01 5.620699e-01 5.922517e-01 6.029881e-01 5.554975e-01 4.815961e-01 5.597343e-03
<GCONST> 1.101603e+02
<STATE> 4
<MEAN> 39
 -8.819840e+00 8.007256e-01 1.446415e+00 3.420622e-01 -1.583188e+00 -4.245759e-01 -4.765928e+00 3.457703e-01 1.198420e+00 1.842941e+00 1.061120e+00 3.241884e-02 1.466629e+01 -2.860008e-04 5.523619e-04 6.552710e-05 3.904862e-04 2.037920e-04 3.174663e-04 3.323038e-04 2.523162e-04 7.267668e-05 6.433468e-05 2.917302e-04 6.298230e-06 -1.931197e-04 5.329241e-06 6.081347e-06 4.307688e-06 1.715206e-05 4.425143e-06 -1.685029e-05 -1.256007e-05 5.493304e-06 -3.138055e-05 3.991386e-06 -1.242249e-05 -5.854472e-06 -2.164391e-06
<VARIANCE> 39
 9.821889e+01 3.956456e+01 5.324766e+01 5.480553e+01 4.605624e+01 5.299179e+01 6.599681e+01 4.131176e+01 4.093512e+01 3.537556e+01 3.906481e+01 3.520911e+01 2.235618e+01 6.910592e-01 1.080347e+00 1.288440e+00 1.879807e+00 2.185908e+00 2.644733e+00 2.940500e+00 2.687207e+00 2.860005e+00 2.890716e+00 2.666325e+00 2.296016e+00 4.204582e-02 1.004322e-01 2.028790e-01 2.541348e-01 3.791470e-01 4.500663e-01 5.433124e-01 6.034257e-01 5.619564e-01 5.920578e-01 6.028280e-01 5.553555e-01 4.816375e-01 5.597637e-03
<GCONST> 1.101553e+02
<TRANSP> 5
 0.000000e+00 1.000000e+00 0.000000e+00 0.000000e+00 0.000000e+00
 0.000000e+00 6.161675e-01 3.838325e-01 0.000000e+00 0.000000e+00
 0.000000e+00 0.000000e+00 6.161667e-01 3.838334e-01 0.000000e+00
 0.000000e+00 0.000000e+00 0.000000e+00 6.161699e-01 3.838300e-01
 0.000000e+00 0.000000e+00 0.000000e+00 0.000000e+00 0.000000e+00
<ENDHMM>
~h "g"
<BEGINHMM>
<NUMSTATES> 5
<STATE> 2
<MEAN> 39
 -8.169326e+00 1.003032e+00 1.575495e+00 3.454646e-01 -1.506050e+00 4.813768e-02 -4.471180e+00 2.350849e-01 8.248092e-01 2.025872e+00 1.093274e+00 -4.163092e-01 1.456356e+01 -2.459427e-04 4.364062e-04 2.306309e-04 8.540270e-04 9.466748e-05 4.868438e-04 1.115944e-04 2.716062e-04 -1.350533e-05 -2.702550e-04 3.778005e-04 2.136261e-04 -4.021354e-04 -1.299626e-05 1.834685e-05 9.828360e-06 1.771797e-05 1.173899e-05 2.709148e-05 3.680442e-05 3.920696e-05 1.338828e-05 -3.624477e-05 -9.652847e-06 2.370376e-06 -5.992834e-07
<VARIANCE> 39
 9.242224e+01 3.949427e+01 5.507319e+01 5.759340e+01 4.611120e+01 5.584957e+01 6.237551e+01 4.411984e+01 4.130154e+01 3.591510e+01 4.080910e+01 3.477632e+01 2.294607e+01 6.161005e-01 1.092758e+00 1.285083e+00 1.900436e+00 2.206046e+00 2.655207e+00 2.935744e+00 2.705209e+00 2.813509e+00 2.917534e+00 2.725134e+00 2.235801e+00 4.109403e-02 9.594799e-02 2.053857e-01 2.541564e-01 3.846396e-01 4.536182e-01 5.434442e-01 6.045996e-01 5.621552e-01 5.858074e-01 6.100312e-01 5.696924e-01 4.692115e-01 5.545336e-03
<GCONST> 1.101914e+02
<STATE> 3
<MEAN> 39
 -8.169926e+00 1.004253e+00 1.576160e+00 3.477548e-01 -1.505776e+00 4.952912e-02 -4.470809e+00 2.360102e-01 8.248246e-01 2.025038e+00 1.094220e+00 -4.157536e-01 1.456256e+01 -2.773234e-04 4.954903e-04 2.628179e-04 8.945484e-04 1.318919e-04 5.449486e-04 1.828284e-04 3.782977e-04 3.249784e-05 -3.418213e-04 3.433852e-04 2.120011e-04 -4.015505e-04 -7.723355e-06 2.479270e-05 1.297697e-05 1.490587e-05 1.446444e-05 1.942114e-05 1.976704e-05 3.303733e-05 2.021231e-05 -1.959781e-05 -2.060046e-05 1.770642e-06 1.036407e-06
<VARIANCE> 39
 9.241362e+01 3.949113e+01 5.506459e+01 5.758030e+01 4.610704e+01 5.584177e+01 6.236720e+01 4.411319e+01 4.129811e+01 3.590742e+01 4.080770e+01 3.476876e+01 2.295068e+01 6.158242e-01 1.092465e+00 1.284949e+00 1.899726e+00 2.206050e+00 2.654812e+00 2.935167e+00 2.705204e+00 2.813570e+00 2.917201e+00 2.725215e+00 2.235502e+00 4.107196e-02 9.589305e-02 2.053119e-01 2.541312e-01 3.845169e-01 4.536633e-01 5.433533e-01 6.044509e-01 5.621898e-01 5.858366e-01 6.099753e-01 5.697523e-01 4.691573e-01 5.541918e-03
<GCONST> 1.101855e+02
<STATE> 4
<MEAN> 39
 -8.170650e+00 1.005662e+00 1.576893e+00 3.501503e-01 -1.505399e+00 5.100785e-02 -4.470283e+00 2.371501e-01 8.249447e-01 2.024087e+00 1.095068e+00 -4.151875e-01 1.456154e+01 -2.870922e-04 5.666408e-04 2.933057e-04 9.331760e-04 1.603354e-04 5.758489e-04 2.283334e-04 4.420438e-04 7.260258e-05 -3.770710e-04 2.912754e-04 2.258891e-04 -3.968633e-04 -2.185093e-06 2.573512e-05 1.110313e-05 1.324168e-05 7.590947e-06 1.139746e-05 7.763560e-06 1.430753e-05 1.970598e-05 -7.815329e-06 -1.901457e-05 1.318044e-05 1.607690e-06
<VARIANCE> 39
 9.240534e+01 3.948771e+01 5.505500e+01 5.756751e+01 4.610352e+01 5.583335e+01 6.236045e+01 4.410524e+01 4.129336e+01 3.590036e+01 4.080594e+01 3.476121e+01 2.295538e+01 6.155308e-01 1.092099e+00 1.284783e+00 1.899017e+00 2.206042e+00 2.654402e+00 2.934466e+00 2.705222e+00 2.813516e+00 2.916742e+00 2.725296e+00 2.235320e+00 4.105144e-02 9.583385e-02 2.052358e-01 2.541052e-01 3.843845e-01 4.537009e-01 5.432489e-01 6.042746e-01 5.622054e-01 5.858381e-01 6.099026e-01 5.697983e-01 4.691133e-01 5.538811e-03
<GCONST> 1.101791e+02
<TRANSP> 5
 0.000000e+00 1.000000e+00 0.000000e+00 0.000000e+00 0.000000e+00
 0.000000e+00 6.161656e-01 3.838344e-01 0.000000e+00 0.000000e+00
 0.000000e+00 0.000000e+00 6.161646e-01 3.838354e-01 0.000000e+00
 0.000000e+00 0.000000e+00 0.000000e+00 6.161668e-01 3.838332e-01
 0.000000e+00 0.000000e+00 0.000000e+00 0.000000e+00 0.000000e+00
<ENDHMM>
~h "h"
<BEGINHMM>
<NUMSTATES> 5
<STATE> 2
<MEAN> 39
 -7.986580e+00 6.605560e-01 1.826117e+00 2.343811e-01 -1.849825e+00 -4.937777e-01 -4.861158e+00 2.838581e-01 9.837754e-01 1.845883e+00 7.763824e-01 -1.591102e-01 1.508169e+01 9.451515e-04 7.510040e-05 3.666848e-04 1.198354e-04 -2.645238e-04 -1.195789e-04 -9.186469e-04 -2.323675e-04 -5.667521e-05 3.561839e-04 6.610610e-05 -7.983087e-05 6.450304e-04 -2.071224e-05 -4.341720e-05 -2.174895e-05 -8.993920e-07 -5.341862e-05 -6.913368e-05 3.104721e-05 -3.959076e-07 2.718240e-05 3.755421e-05 -2.959952e-05 -2.784281e-05 -2.026170e-06
<VARIANCE> 39
 9.798411e+01 4.170044e+01 5.605622e+01 5.530846e+01 4.885041e+01 5.513062e+01 6.906905e+01 4.559272e+01 4.177543e+01 3.599652e+01 3.916948e+01 3.553022e+01 2.237871e+01 7.029428e-01 1.129229e+00 1.297105e+00 1.864008e+00 2.156278e+00 2.640046e+00 2.955137e+00 2.716097e+00 2.807460e+00 2.800437e+00 2.632602e+00 2.251042e+00 4.160666e-02 1.044994e-01 2.100751e-01 2.535775e-01 3.736794e-01 4.386923e-01 5.375254e-01 6.049879e-01 5.621626e-01 5.787809e-01 5.799186e-01 5.469298e-01 4.687483e-01 5.339992e-03
<GCONST> 1.103991e+02
<STATE> 3
<MEAN> 39
 -7.984098e+00 6.605679e-01 1.826966e+00 2.346203e-01 -1.850789e+00 -4.944063e-01 -4.863511e+00 2.832242e-01 9.838624e-01 1.846938e+00 7.763772e-01 -1.594741e-01 1.508341e+01 9.466429e-04 -3.651734e-06 2.882107e-04 6.191595e-05 -4.025870e-04 -2.835406e-04 -8.600788e-04 -2.501459e-04 4.445831e-05 3.973453e-04 -1.428627e-05 -1.526173e-04 6.400308e-04 8.196207e-06 -2.494105e-05 -2.828428e-05 -3.116204e-05 -4.716968e-05 -5.862025e-05 1.501909e-05 -4.352404e-06 3.113366e-05 6.797356e-06 -1.153257e-05 -2.577595e-05 -1.105315e-06
<VARIANCE> 39
 9.800893e+01 4.170897e+01 5.607169e+01 5.533612e+01 4.885381e+01 5.514067e+01 6.907822e+01 4.560670e+01 4.178461e+01 3.600134e+01 3.917921e+01 3.553485e+01 2.238064e+01 7.030063e-01 1.129136e+00 1.297100e+00 1.864070e+00 2.155914e+00 2.639989e+00 2.955158e+00 2.716300e+00 2.807674e+00 2.800593e+00 2.632469e+00 2.250926e+00 4.160846e-02 1.044876e-01 2.100609e-01 2.535680e-01 3.736714e-01 4.385870e-01 5.374927e-01 6.049597e-01 5.621862e-01 5.788615e-01 5.799568e-01 5.468988e-01 4.687074e-01 5.339216e-03
<GCONST> 1.104012e+02
<STATE> 4
<MEAN> 39
 -7.981515e+00 6.605003e-01 1.827634e+00 2.346070e-01 -1.851995e+00 -4.953422e-01 -4.865775e+00 2.825546e-01 9.840711e-01 1.847936e+00 7.763981e-01 -1.599538e-01 1.508512e+01 9.933088e-04 -3.240659e-05 2.376897e-04 -2.558372e-05 -4.741423e-04 -3.968911e-04 -8.472564e-04 -2.677907e-04 5.915537e-05 3.463685e-04 2.998406e-05 -1.856916e-04 6.415051e-04 1.754434e-05 -8.227990e-06 -1.004766e-05 -2.833152e-05 -2.804766e-05 -4.588048e-05 -1.805188e-06 -4.658189e-06 2.346389e-06 -2.594168e-05 2.148339e-05 -8.370806e-06 1.383638e-06
<VARIANCE> 39
 9.803399e+01 4.171696e+01 5.608705e+01 5.536290e+01 4.885801e+01 5.515526e+01 6.908693e+01 4.562072e+01 4.179301e+01 3.600655e+01 3.918700e+01 3.554000e+01 2.238250e+01 7.030683e-01 1.129197e+00 1.297057e+00 1.864137e+00 2.155625e+00 2.640156e+00 2.955234e+00 2.716284e+00 2.807686e+00 2.800690e+00 2.632190e+00 2.251005e+00 4.161427e-02 1.044764e-01 2.100509e-01 2.535495e-01 3.736660e-01 4.384916e-01 5.374957e-01 6.049288e-01 5.621957e-01 5.788651e-01 5.799823e-01 5.468435e-01 4.687070e-01 5.339347e-03
<GCONST> 1.104037e+02
<TRANSP> 5
 0.000000e+00 1.000000e+00 0.000000e+00 0.000000e+00 0.000000e+00
 0.000000e+00 6.160475e-01 3.839525e-01 0.000000e+00 0.000000e+00
 0.000000e+00 0.000000e+00 6.160480e-01 3.839519e-01 0.000000e+00
 0.000000e+00 0.000000e+00 0.000000e+00 6.160484e-01 3.839516e-01
 0.000000e+00 0.000000e+00 0.000000e+00 0.000000e+00 0.000000e+00
<ENDHMM>
~h "i"
<BEGINHMM>
<NUMSTATES> 5
<STATE> 2
<MEAN> 39
 -8.133897e+00 1.018942e+00 1.904447e+00 1.745073e-01 -1.661490e+00 -6.170470e-01 -5.045160e+00 1.616468e-01 1.011786e+00 1.954277e+00 8.404818e-01 -1.068732e-01 1.495852e+01 5.342065e-04 2.793604e-04 2.715527e-04 2.377002e-04 -2.170581e-04 -4.133899e-05 -2.905661e-04 4.000721e-04 -2.428637e-04 -2.533478e-04 2.135992e-04 -7.169504e-05 4.068827e-04 7.313942e-06 -1.066605e-06 1.842641e-06 -1.080485e-05 -3.494909e-05 -3.409509e-05 -4.163048e-06 3.802850e-05 3.861589e-06 2.095120e-05 5.760620e-07 2.850466e-06 -1.917808e-06
<VARIANCE> 39
 9.634464e+01 3.950925e+01 5.527990e+01 5.569172e+01 4.901323e+01 5.675510e+01 6.878165e+01 4.428348e+01 4.154742e+01 3.649421e+01 3.900308e+01 3.460997e+01 2.241488e+01 6.964276e-01 1.127088e+00 1.306529e+00 1.897285e+00 2.190659e+00 2.694475e+00 2.957494e+00 2.707619e+00 2.844568e+00 2.859555e+00 2.649519e+00 2.259892e+00 4.158349e-02 1.038865e-01 2.098763e-01 2.554164e-01 3.827668e-01 4.471862e-01 5.478849e-01 6.038557e-01 5.614427e-01 5.891944e-01 5.938053e-01 5.509178e-01 4.734348e-01 5.366840e-03
<GCONST> 1.105143e+02
<STATE> 3
<MEAN> 39
 -8.132406e+00 1.019670e+00 1.905205e+00 1.750914e-01 -1.662232e+00 -6.173234e-01 -5.046009e+00 1.627950e-01 1.011207e+00 1.953759e+00 8.410199e-01 -1.070596e-01 1.495964e+01 5.414332e-04 2.993625e-04 2.977403e-04 2.495055e-04 -2.794572e-04 -1.180094e-04 -3.174622e-04 4.420147e-04 -1.964761e-04 -1.866777e-04 1.900808e-04 -6.429140e-05 4.041126e-04 -3.202096e-07 1.084151e-05 1.282642e-05 1.041720e-05 -1.962825e-05 -2.408969e-05 -5.006684e-06 1.211696e-05 1.446337e-05 2.374656e-05 -5.463512e-06 4.072469e-06 -1.103648e-06
<VARIANCE> 39
 9.636043e+01 3.951125e+01 5.528947e+01 5.570015e+01 4.901633e+01 5.676073e+01 6.879293e+01 4.428633e+01 4.154769e+01 3.649366e+01 3.900813e+01 3.461263e+01 2.241716e+01 6.963603e-01 1.126812e+00 1.306373e+00 1.896819e+00 2.190384e+00 2.694048e+00 2.957382e+00 2.707651e+00 2.844324e+00 2.859301e+00 2.649349e+00 2.259863e+00 4.158343e-02 1.038574e-01 2.098037e-01 2.553829e-01 3.826591e-01 4.471245e-01 5.477964e-01 6.038260e-01 5.614578e-01 5.891297e-01 5.937431e-01 5.508555e-01 4.734286e-01 5.366415e-03
<GCONST> 1.105125e+02
<STATE> 4
<MEAN> 39
 -8.130986e+00 1.020498e+00 1.906075e+00 1.758131e-01 -1.663039e+00 -6.177215e-01 -5.046878e+00 1.639586e-01 1.010744e+00 1.953383e+00 8.415144e-01 -1.072266e-01 1.496072e+01 5.251523e-04 3.332201e-04 3.403966e-04 3.035256e-04 -3.099919e-04 -1.541316e-04 -3.211575e-04 4.489970e-04 -1.683766e-04 -1.454519e-04 1.856619e-04 -5.496347e-05 4.014035e-04 -7.809952e-06 1.192892e-05 1.408563e-05 2.055104e-05 -1.026730e-05 -7.530569e-06 1.124912e-06 2.113084e-06 6.322907e-06 1.429383e-05 2.310454e-06 6.757141e-06 -1.581524e-06
<VARIANCE> 39
 9.637613e+01 3.951422e+01 5.529915e+01 5.570818e+01 4.901860e+01 5.676443e+01 6.880331e+01 4.428965e+01 4.154730e+01 3.649384e+01 3.901221e+01 3.461390e+01 2.241943e+01 6.963010e-01 1.126519e+00 1.306233e+00 1.896437e+00 2.190172e+00 2.693690e+00 2.957296e+00 2.707584e+00 2.844017e+00 2.858963e+00 2.649117e+00 2.259801e+00 4.158289e-02 1.038299e-01 2.097198e-01 2.553475e-01 3.825690e-01 4.470780e-01 5.477058e-01 6.037909e-01 5.614698e-01 5.890424e-01 5.936717e-01 5.507766e-01 4.734156e-01 5.365805e-03
<GCONST> 1.105104e+02
<TRANSP> 5
 0.000000e+00 1.000000e+00 0.000000e+00 0.000000e+00 0.000000e+00
 0.000000e+00 6.162232e-01 3.837769e-01 0.000000e+00 0.000000e+00
 0.000000e+00 0.000000e+00 6.162233e-01 3.837767e-01 0.000000e+00
 0.000000e+00 0.000000e+00 0.000000e+00 6.162271e-01 3.837729e-01
 0.000000e+00 0.000000e+00 0.000000e+00 0.000000e+00 0.000000e+00
<ENDHMM>
~h "k"
<BEGINHMM>
<NUMSTATES> 5
<STATE> 2
<MEAN> 39
 -8.190430e+00 5.055261e-01 1.637164e+00 3.721335e-01 -1.728632e+00 -5.595763e-01 -4.965945e+00 3.953388e-01 1.073073e+00 1.938975e+00 9.186350e-01 -3.737206e-01 1.494648e+01 -2.347341e-04 7.618332e-04 2.005141e-04 3.133730e-04 8.441245e-05 1.606141e-04 1.758292e-04 2.525201e-04 -1.119557e-04 -1.096776e-04 4.203962e-04 6.111874e-05 -2.346036e-04 2.395010e-06 1.417288e-05 2.024326e-06 2.192272e-05 5.727786e-06 -5.010505e-06 4.644076e-06 1.303134e-06 9.384165e-06 2.136066e-05 1.661321e-05 1.736507e-05 3.803312e-06
<VARIANCE> 39
 9.539674e+01 4.123227e+01 5.579738e+01 5.192129e+01 4.975125e+01 5.569719e+01 6.740682e+01 4.519183e+01 4.269563e+01 3.688108e+01 3.943786e+01 3.624917e+01 2.203257e+01 7.074689e-01 1.158041e+00 1.323475e+00 1.917900e+00 2.230939e+00 2.712064e+00 2.948696e+00 2.703388e+00 2.865387e+00 2.864037e+00 2.671828e+00 2.264103e+00 4.585189e-02 1.057752e-01 2.150380e-01 2.580492e-01 3.880003e-01 4.555993e-01 5.521138e-01 6.012120e-01 5.592225e-01 5.925932e-01 5.939559e-01 5.575792e-01 4.741839e-01 5.901624e-03
<GCONST> 1.109628e+02
<STATE> 3
<MEAN> 39
 -8.191004e+00 5.075768e-01 1.637735e+00 3.730068e-01 -1.728409e+00 -5.592413e-01 -4.965505e+00 3.960297e-01 1.072781e+00 1.938741e+00 9.197490e-01 -3.735107e-01 1.494591e+01 -2.332601e-04 7.943764e-04 2.092412e-04 3.584227e-04 1.056458e-04 1.539012e-04 1.929586e-04 2.526927e-04 -9.922058e-05 -7.350700e-05 4.640083e-04 1.198405e-04 -2.265045e-04 4.270581e-07 1.208698e-05 3.096096e-06 1.735078e-05 7.400162e-06 3.086030e-07 1.272734e-05 9.859023e-07 3.170086e-06 1.000521e-05 1.768238e-05 2.412821e-05 3.488150e-06
<VARIANCE> 39
 9.540370e+01 4.122351e+01 5.578307e+01 5.191942e+01 4.974324e+01 5.568272e+01 6.740504e+01 4.518559e+01 4.269400e+01 3.687531e+01 3.944149e+01 3.624294e+01 2.203696e+01 7.072899e-01 1.157249e+00 1.323035e+00 1.917540e+00 2.230865e+00 2.711312e+00 2.948611e+00 2.703190e+00 2.865592e+00 2.863554e+00 2.672023e+00 2.263717e+00 4.583326e-02 1.057405e-01 2.148744e-01 2.579546e-01 3.879394e-01 4.555942e-01 5.519835e-01 6.012269e-01 5.592068e-01 5.926817e-01 5.938462e-01 5.576208e-01 4.740822e-01 5.899280e-03
<GCONST> 1.109568e+02
<STATE> 4
<MEAN> 39
 -8.191586e+00 5.097019e-01 1.638330e+00 3.739603e-01 -1.728091e+00 -5.588154e-01 -4.965000e+00 3.967095e-01 1.072500e+00 1.938561e+00 9.209797e-01 -3.731512e-01 1.494536e+01 -2.332319e-04 8.307234e-04 2.170599e-04 3.989140e-04 1.346254e-04 1.666789e-04 2.199069e-04 2.388563e-04 -1.064880e-04 -5.411266e-05 5.018247e-04 1.766695e-04 -2.199338e-04 -8.248521e-07 1.426629e-05 3.786236e-06 1.456016e-05 4.874182e-06 -3.146288e-06 6.074123e-06 -1.036714e-07 -1.100420e-05 6.372674e-06 1.221600e-05 2.684638e-05 2.627902e-06
<VARIANCE> 39
 9.540953e+01 4.121386e+01 5.576786e+01 5.191682e+01 4.973452e+01 5.566872e+01 6.740288e+01 4.517946e+01 4.269200e+01 3.687096e+01 3.944547e+01 3.623700e+01 2.204140e+01 7.071203e-01 1.156457e+00 1.322510e+00 1.917244e+00 2.230762e+00 2.710534e+00 2.948435e+00 2.702925e+00 2.865911e+00 2.863116e+00 2.672246e+00 2.263360e+00 4.581444e-02 1.057068e-01 2.147097e-01 2.578399e-01 3.878872e-01 4.555853e-01 5.518451e-01 6.012224e-01 5.591605e-01 5.927943e-01 5.937454e-01 5.576753e-01 4.739915e-01 5.896600e-03
<GCONST> 1.109506e+02
<TRANSP> 5
 0.000000e+00 1.000000e+00 0.000000e+00 0.000000e+00 0.000000e+00
 0.000000e+00 6.161525e-01 3.838475e-01 0.000000e+00 0.000000e+00
 0.000000e+00 0.000000e+00 6.161551e-01 3.838449e-01 0.000000e+00
 0.000000e+00 0.000000e+00 0.000000e+00 6.161567e-01 3.838433e-01
 0.000000e+00 0.000000e+00 0.000000e+00 0.000000e+00 0.000000e+00
<ENDHMM>
~h "l"
<BEGINHMM>
<NUMSTATES> 5
<STATE> 2
<MEAN> 39
 -7.957619e+00 1.076609e+00 1.232730e+00 -3.959625e-01 -1.318793e+00 -1.227389e-01 -5.462158e+00 1.798382e-01 1.236243e+00 1.998550e+00 9.788907e-01 -1.749537e-01 1.496903e+01 1.042817e-03 1.298883e-04 -2.434449e-04 -2.176355e-05 -4.694647e-05 1.556673e-04 -7.415562e-04 1.380243e-04 -4.388928e-04 -5.055988e-04 3.940800e-04 -6.012542e-05 4.979500e-04 -3.680346e-07 -5.244024e-06 1.010407e-05 2.931976e-05 -3.797483e-06 7.010680e-06 -6.963719e-06 -1.290056e-05 -1.702894e-05 8.126911e-06 1.082396e-05 -1.403084e-05 -2.122177e-06
<VARIANCE> 39
 9.744382e+01 4.041864e+01 5.242494e+01 6.434626e+01 4.779846e+01 5.862065e+01 7.298151e+01 4.615202e+01 4.261649e+01 3.686631e+01 4.016313e+01 3.580806e+01 2.261501e+01 6.807460e-01 1.107965e+00 1.319157e+00 1.968940e+00 2.179142e+00 2.672063e+00 2.992580e+00 2.679564e+00 2.835508e+00 2.882432e+00 2.680622e+00 2.301427e+00 4.188994e-02 1.034900e-01 2.045807e-01 2.595699e-01 3.963794e-01 4.456554e-01 5.444102e-01 6.099369e-01 5.534661e-01 5.829095e-01 5.968279e-01 5.563392e-01 4.802431e-01 5.617635e-03
<GCONST> 1.109637e+02
<STATE> 3
<MEAN> 39
 -7.954825e+00 1.076956e+00 1.232132e+00 -3.960198e-01 -1.318956e+00 -1.222721e-01 -5.464095e+00 1.801594e-01 1.235043e+00 1.997237e+00 9.799783e-01 -1.751175e-01 1.497040e+01 1.039514e-03 1.279196e-04 -2.125396e-04 3.683691e-05 -6.271320e-05 1.760866e-04 -7.395938e-04 1.174131e-04 -4.520785e-04 -4.692529e-04 4.178263e-04 -8.809182e-05 4.928305e-04 -2.088870e-06 1.042541e-06 8.623045e-06 1.716657e-05 -3.405663e-06 9.305561e-06 2.189462e-06 -9.169314e-07 1.713040e-06 1.469999e-05 6.446458e-06 -8.594830e-06 -2.187781e-06
<VARIANCE> 39
 9.745325e+01 4.041998e+01 5.242919e+01 6.436630e+01 4.780318e+01 5.862554e+01 7.299223e+01 4.615595e+01 4.262814e+01 3.687650e+01 4.017202e+01 3.580852e+01 2.261561e+01 6.806298e-01 1.107464e+00 1.318768e+00 1.968870e+00 2.179145e+00 2.671707e+00 2.993223e+00 2.679007e+00 2.836104e+00 2.883149e+00 2.680905e+00 2.300843e+00 4.186957e-02 1.034616e-01 2.044723e-01 2.594601e-01 3.963715e-01 4.456655e-01 5.443615e-01 6.100662e-01 5.533450e-01 5.830731e-01 5.970037e-01 5.564633e-01 4.801029e-01 5.614112e-03
<GCONST> 1.109628e+02
<STATE> 4
<MEAN> 39
 -7.952074e+00 1.077329e+00 1.231632e+00 -3.959329e-01 -1.319135e+00 -1.217131e-01 -5.465943e+00 1.804655e-01 1.233868e+00 1.996036e+00 9.811108e-01 -1.753501e-01 1.497172e+01 1.032298e-03 1.410628e-04 -1.912275e-04 6.773516e-05 -6.430993e-05 2.074415e-04 -7.198500e-04 1.117502e-04 -4.451738e-04 -4.338457e-04 4.167291e-04 -1.149497e-04 4.891822e-04 -1.851927e-06 9.185263e-06 1.007075e-06 4.949162e-06 -7.234938e-07 1.345844e-05 2.221501e-06 -1.367555e-06 8.743562e-06 7.591651e-06 -1.864777e-06 -7.135500e-06 -1.631975e-06
<VARIANCE> 39
 9.746268e+01 4.042099e+01 5.243233e+01 6.438644e+01 4.780801e+01 5.862960e+01 7.300380e+01 4.615835e+01 4.263993e+01 3.688674e+01 4.018038e+01 3.580969e+01 2.261631e+01 6.805217e-01 1.106995e+00 1.318352e+00 1.968786e+00 2.179148e+00 2.671313e+00 2.993844e+00 2.678497e+00 2.836699e+00 2.883847e+00 2.681214e+00 2.300187e+00 4.184862e-02 1.034313e-01 2.043636e-01 2.593413e-01 3.963519e-01 4.456764e-01 5.443100e-01 6.101828e-01 5.532292e-01 5.832154e-01 5.971884e-01 5.565689e-01 4.799555e-01 5.610170e-03
<GCONST> 1.109615e+02
<TRANSP> 5
 0.000000e+00 1.000000e+00 0.000000e+00 0.000000e+00 0.000000e+00
 0.000000e+00 6.161214e-01 3.838786e-01 0.000000e+00 0.000000e+00
 0.000000e+00 0.000000e+00 6.161223e-01 3.838777e-01 0.000000e+00
 0.000000e+00 0.000000e+00 0.000000e+00 6.161230e-01 3.838769e-01
 0.000000e+00 0.000000e+00 0.000000e+00 0.000000e+00 0.000000e+00
<ENDHMM>
~h "m"
<BEGINHMM>
<NUMSTATES> 5
<STATE> 2
<MEAN> 39
 -8.221809e+00 9.226069e-01 1.953777e+00 4.752689e-01 -1.560206e+00 -5.786307e-01 -4.705165e+00 2.266696e-01 7.711624e-01 1.967811e+00 7.941657e-01 -2.994036e-01 1.482026e+01 -3.920732e-04 8.443178e-04 2.917685e-04 5.095284e-04 2.829545e-04 5.301028e-04 4.141612e-04 -8.503422e-06 -2.355317e-04 -5.463824e-05 3.904975e-04 9.440377e-05 -2.778896e-04 7.379816e-07 7.319522e-06 4.602156e-06 3.087914e-06 3.865408e-06 9.499686e-06 2.630333e-06 3.650291e-06 1.376880e-05 1.939854e-05 -7.179418e-06 -2.597840e-05 2.311224e-06
<VARIANCE> 39
 9.878107e+01 3.926278e+01 5.612875e+01 5.261058e+01 4.725278e+01 5.265374e+01 6.433434e+01 4.476858e+01 4.233635e+01 3.571516e+01 3.879200e+01 3.529513e+01 2.275002e+01 6.697757e-01 1.108334e+00 1.294456e+00 1.875006e+00 2.186037e+00 2.641804e+00 2.910682e+00 2.708532e+00 2.798501e+00 2.858674e+00 2.652695e+00 2.254391e+00 4.146519e-02 1.003939e-01 2.076355e-01 2.543186e-01 3.788126e-01 4.495856e-01 5.390056e-01 5.964294e-01 5.616904e-01 5.793428e-01 5.941801e-01 5.524846e-01 4.720588e-01 5.484935e-03
<GCONST> 1.101379e+02
<STATE> 3
<MEAN> 39
 -8.222772e+00 9.248288e-01 1.954565e+00 4.765787e-01 -1.559512e+00 -5.772514e-01 -4.704058e+00 2.266925e-01 7.705533e-01 1.967644e+00 7.951320e-01 -2.992374e-01 1.481960e+01 -3.871048e-04 8.688207e-04 2.985713e-04 4.999007e-04 2.764840e-04 5.242372e-04 4.371580e-04 1.907672e-05 -2.554036e-04 -4.769559e-05 3.851113e-04 4.090309e-05 -2.761367e-04 -9.684076e-07 9.270823e-06 6.374357e-06 -7.879321e-06 -1.299118e-05 -1.239437e-05 1.036144e-05 1.012424e-05 -4.195813e-06 1.072342e-05 -1.233449e-06 -1.717287e-05 8.454677e-08
<VARIANCE> 39
 9.877548e+01 3.925746e+01 5.612535e+01 5.261235e+01 4.725121e+01 5.264792e+01 6.433006e+01 4.476064e+01 4.232951e+01 3.571247e+01 3.878816e+01 3.529061e+01 2.275195e+01 6.696433e-01 1.107927e+00 1.294243e+00 1.874851e+00 2.185822e+00 2.641626e+00 2.910762e+00 2.708133e+00 2.798685e+00 2.858670e+00 2.652621e+00 2.253927e+00 4.145662e-02 1.003700e-01 2.075540e-01 2.542854e-01 3.787793e-01 4.495470e-01 5.389760e-01 5.965036e-01 5.616042e-01 5.794053e-01 5.941970e-01 5.524854e-01 4.719693e-01 5.483940e-03
<GCONST> 1.101342e+02
<STATE> 4
<MEAN> 39
 -8.223735e+00 9.271252e-01 1.955379e+00 4.778241e-01 -1.558849e+00 -5.759073e-01 -4.702850e+00 2.268199e-01 7.698199e-01 1.967509e+00 7.961490e-01 -2.991716e-01 1.481891e+01 -3.946783e-04 8.895021e-04 3.214416e-04 4.658139e-04 2.311845e-04 4.952780e-04 4.806299e-04 5.662952e-05 -2.692466e-04 3.839938e-06 3.999537e-04 -1.882351e-06 -2.763575e-04 -3.300247e-06 8.469277e-06 1.264748e-05 -1.124486e-05 -2.437771e-05 -1.729862e-05 2.250329e-05 6.829039e-06 2.915511e-06 3.162040e-05 8.073296e-06 -1.113060e-05 2.984706e-07
<VARIANCE> 39
 9.876995e+01 3.925294e+01 5.612125e+01 5.261443e+01 4.724951e+01 5.264260e+01 6.432595e+01 4.475252e+01 4.232189e+01 3.570988e+01 3.878468e+01 3.528622e+01 2.275380e+01 6.695221e-01 1.107502e+00 1.294035e+00 1.874644e+00 2.185634e+00 2.641474e+00 2.910808e+00 2.707793e+00 2.798677e+00 2.858681e+00 2.652593e+00 2.253621e+00 4.144733e-02 1.003484e-01 2.074641e-01 2.542464e-01 3.787292e-01 4.494949e-01 5.389482e-01 5.965770e-01 5.615278e-01 5.794231e-01 5.942261e-01 5.525059e-01 4.718876e-01 5.483113e-03
<GCONST> 1.101304e+02
<TRANSP> 5
 0.000000e+00 1.000000e+00 0.000000e+00 0.000000e+00 0.000000e+00
 0.000000e+00 6.160460e-01 3.839540e-01 0.000000e+00 0.000000e+00
 0.000000e+00 0.000000e+00 6.160445e-01 3.839555e-01 0.000000e+00
 0.000000e+00 0.000000e+00 0.000000e+00 6.160469e-01 3.839531e-01
 0.000000e+00 0.000000e+00 0.000000e+00 0.000000e+00 0.000000e+00
<ENDHMM>
~h "n"
<BEGINHMM>
<NUMSTATES> 5
<STATE> 2
<MEAN> 39
 -8.271070e+00 9.455079e-01 1.880449e+00 3.054428e-01 -1.571347e+00 -4.597546e-01 -4.712828e+00 2.349268e-01 1.009224e+00 2.043074e+00 7.322288e-01 -1.907298e-01 1.480915e+01 -7.337831e-04 8.718410e-04 1.642078e-04 7.202256e-04 1.811787e-04 8.056508e-05 6.523085e-04 2.245210e-04 -2.050526e-04 -5.968977e-05 6.574192e-04 9.782383e-05 -5.652781e-04 -2.581793e-06 6.637963e-06 -7.762796e-06 1.151761e-06 -4.448078e-07 -9.305229e-06 1.682206e-07 7.809112e-06 -7.747807e-07 8.315696e-06 2.327438e-06 -1.401664e-05 -3.047551e-06
<VARIANCE> 39
 9.616964e+01 3.903904e+01 5.466883e+01 5.457375e+01 4.739513e+01 5.281730e+01 6.495810e+01 4.418502e+01 4.100907e+01 3.569902e+01 3.980064e+01 3.435783e+01 2.255507e+01 6.737254e-01 1.101820e+00 1.292052e+00 1.888231e+00 2.181974e+00 2.682591e+00 2.925468e+00 2.706328e+00 2.817569e+00 2.856251e+00 2.656409e+00 2.244650e+00 4.113354e-02 1.017385e-01 2.054476e-01 2.541780e-01 3.824256e-01 4.481843e-01 5.489608e-01 6.013589e-01 5.602108e-01 5.864031e-01 5.944531e-01 5.543738e-01 4.705448e-01 5.466275e-03
<GCONST> 1.101358e+02
<STATE> 3
<MEAN> 39
 -8.272929e+00 9.478049e-01 1.880860e+00 3.072917e-01 -1.570879e+00 -4.595473e-01 -4.711159e+00 2.355512e-01 1.008691e+00 2.042959e+00 7.339104e-01 -1.905345e-01 1.480773e+01 -7.391078e-04 8.913823e-04 1.522664e-04 7.324651e-04 2.026005e-04 8.688136e-05 6.510183e-04 2.434972e-04 -2.096912e-04 -3.712241e-05 6.553069e-04 6.146371e-05 -5.717826e-04 -2.147831e-06 8.016824e-06 -1.050178e-06 6.823810e-07 8.695542e-06 2.226943e-06 -2.580844e-06 9.645297e-06 3.026080e-06 9.886729e-06 -3.797121e-06 -1.198924e-05 -2.178786e-06
<VARIANCE> 39
 9.616098e+01 3.902845e+01 5.465501e+01 5.456950e+01 4.738167e+01 5.280448e+01 6.495933e+01 4.417333e+01 4.100029e+01 3.569162e+01 3.979663e+01 3.435057e+01 2.255913e+01 6.735345e-01 1.101338e+00 1.291873e+00 1.887936e+00 2.181663e+00 2.682136e+00 2.925316e+00 2.705591e+00 2.817506e+00 2.855871e+00 2.656088e+00 2.244503e+00 4.112376e-02 1.017063e-01 2.053521e-01 2.541396e-01 3.823683e-01 4.481223e-01 5.488611e-01 6.013376e-01 5.600488e-01 5.863905e-01 5.943832e-01 5.542997e-01 4.705082e-01 5.465658e-03
<GCONST> 1.101294e+02
<STATE> 4
<MEAN> 39
 -8.274813e+00 9.501480e-01 1.881262e+00 3.091862e-01 -1.570304e+00 -4.592886e-01 -4.709491e+00 2.361929e-01 1.008143e+00 2.042888e+00 7.356071e-01 -1.903877e-01 1.480627e+01 -7.439521e-04 9.142628e-04 1.560986e-04 7.284145e-04 2.275701e-04 9.223269e-05 6.427707e-04 2.612259e-04 -1.939040e-04 -1.929635e-05 6.354802e-04 4.456544e-05 -5.766114e-04 -2.555990e-06 8.780235e-06 3.033722e-06 -6.594681e-06 5.783927e-06 4.510791e-06 -4.075025e-06 7.351676e-06 1.223678e-05 3.410946e-06 -1.306371e-05 -9.041350e-06 -1.889528e-06
<VARIANCE> 39
 9.615267e+01 3.901777e+01 5.464258e+01 5.456424e+01 4.736935e+01 5.279195e+01 6.495959e+01 4.416125e+01 4.099165e+01 3.568371e+01 3.979253e+01 3.434322e+01 2.256322e+01 6.733268e-01 1.100820e+00 1.291663e+00 1.887634e+00 2.181327e+00 2.681632e+00 2.925096e+00 2.704908e+00 2.817465e+00 2.855525e+00 2.655721e+00 2.244397e+00 4.111189e-02 1.016748e-01 2.052553e-01 2.540951e-01 3.823187e-01 4.480511e-01 5.487614e-01 6.013048e-01 5.598963e-01 5.863942e-01 5.943184e-01 5.542139e-01 4.704768e-01 5.464961e-03
<GCONST> 1.101228e+02
<TRANSP> 5
 0.000000e+00 1.000000e+00 0.000000e+00 0.000000e+00 0.000000e+00
 0.000000e+00 6.161884e-01 3.838116e-01 0.000000e+00 0.000000e+00
 0.000000e+00 0.000000e+00 6.161898e-01 3.838103e-01 0.000000e+00
 0.000000e+00 0.000000e+00 0.000000e+00 6.161908e-01 3.838092e-01
 0.000000e+00 0.000000e+00 0.000000e+00 0.000000e+00 0.000000e+00
<ENDHMM>
~h "o"
<BEGINHMM>
<NUMSTATES> 5
<STATE> 2
<MEAN> 39
 -8.968819e+00 1.227167e+00 1.709896e+00 5.255102e-01 -1.376319e+00 -3.581203e-01 -4.450421e+00 2.224232e-01 1.032390e+00 1.922153e+00 9.369482e-01 -5.463367e-02 1.433043e+01 6.601643e-05 -6.414447e-06 -4.348861e-05 2.207338e-05 -6.183252e-05 3.505594e-04 -2.845397e-05 -1.057293e-04 -3.217392e-04 -2.094190e-04 -1.093453e-04 6.646793e-05 -4.646834e-05 -3.052270e-05 -5.577785e-06 5.118113e-05 5.903988e-05 8.738427e-05 1.239256e-04 1.462678e-04 5.784345e-07 -6.680420e-05 8.540968e-05 -3.584341e-06 -9.608337e-06 3.280207e-06
<VARIANCE> 39
 9.132833e+01 3.750473e+01 5.184167e+01 5.299957e+01 4.542144e+01 5.171822e+01 6.411460e+01 4.173472e+01 3.924054e+01 3.472301e+01 3.778771e+01 3.327573e+01 2.268905e+01 6.444674e-01 1.076510e+00 1.293223e+00 1.883514e+00 2.197024e+00 2.673508e+00 2.949268e+00 2.722457e+00 2.845586e+00 2.895535e+00 2.697424e+00 2.293327e+00 4.128606e-02 9.874837e-02 2.035372e-01 2.576212e-01 3.839478e-01 4.538210e-01 5.496877e-01 6.081111e-01 5.695377e-01 5.939356e-01 6.059731e-01 5.659602e-01 4.834353e-01 5.660130e-03
<GCONST> 1.098248e+02
<STATE> 3
<MEAN> 39
 -8.968819e+00 1.227167e+00 1.709896e+00 5.255102e-01 -1.376319e+00 -3.581203e-01 -4.450421e+00 2.224232e-01 1.032390e+00 1.922153e+00 9.369482e-01 -5.463367e-02 1.433043e+01 6.601643e-05 -6.414447e-06 -4.348861e-05 2.207338e-05 -6.183252e-05 3.505594e-04 -2.845397e-05 -1.057293e-04 -3.217392e-04 -2.094190e-04 -1.093453e-04 6.646793e-05 -4.646834e-05 -3.052270e-05 -5.577785e-06 5.118113e-05 5.903988e-05 8.738427e-05 1.239256e-04 1.462678e-04 5.784345e-07 -6.680420e-05 8.540968e-05 -3.584341e-06 -9.608337e-06 3.280207e-06
<VARIANCE> 39
 9.132833e+01 3.750473e+01 5.184167e+01 5.299957e+01 4.542144e+01 5.171822e+01 6.411460e+01 4.173472e+01 3.924054e+01 3.472301e+01 3.778771e+01 3.327573e+01 2.268905e+01 6.444674e-01 1.076510e+00 1.293223e+00 1.883514e+00 2.197024e+00 2.673508e+00 2.949268e+00 2.722457e+00 2.845586e+00 2.895535e+00 2.697424e+00 2.293327e+00 4.128606e-02 9.874837e-02 2.035372e-01 2.576212e-01 3.839478e-01 4.538210e-01 5.496877e-01 6.081111e-01 5.695377e-01 5.939356e-01 6.059731e-01 5.659602e-01 4.834353e-01 5.660130e-03
<GCONST> 1.098248e+02
<STATE> 4
<MEAN> 39
 -8.968819e+00 1.227167e+00 1.709896e+00 5.255102e-01 -1.376319e+00 -3.581203e-01 -4.450421e+00 2.224232e-01 1.032390e+00 1.922153e+00 9.369482e-01 -5.463367e-02 1.433043e+01 6.601643e-05 -6.414447e-06 -4.348861e-05 2.207338e-05 -6.183252e-05 3.505594e-04 -2.845397e-05 -1.057293e-04 -3.217392e-04 -2.094190e-04 -1.093453e-04 6.646793e-05 -4.646834e-05 -3.052270e-05 -5.577785e-06 5.118113e-05 5.903988e-05 8.738427e-05 1.239256e-04 1.462678e-04 5.784345e-07 -6.680420e-05 8.540968e-05 -3.584341e-06 -9.608337e-06 3.280207e-06
<VARIANCE> 39
 9.132833e+01 3.750473e+01 5.184167e+01 5.299957e+01 4.542144e+01 5.171822e+01 6.411460e+01 4.173472e+01 3.924054e+01 3.472301e+01 3.778771e+01 3.327573e+01 2.268905e+01 6.444674e-01 1.076510e+00 1.293223e+00 1.883514e+00 2.197024e+00 2.673508e+00 2.949268e+00 2.722457e+00 2.845586e+00 2.895535e+00 2.697424e+00 2.293327e+00 4.128606e-02 9.874837e-02 2.035372e-01 2.576212e-01 3.839478e-01 4.538210e-01 5.496877e-01 6.081111e-01 5.695377e-01 5.939356e-01 6.059731e-01 5.659602e-01 4.834353e-01 5.660130e-03
<GCONST> 1.098248e+02
<TRANSP> 5
 0.000000e+00 1.000000e+00 0.000000e+00 0.000000e+00 0.000000e+00
 0.000000e+00 5.000000e-01 5.000000e-01 0.000000e+00 0.000000e+00
 0.000000e+00 0.000000e+00 5.000000e-01 5.000000e-01 0.000000e+00
 0.000000e+00 0.000000e+00 0.000000e+00 5.000000e-01 5.000000e-01
 0.000000e+00 0.000000e+00 0.000000e+00 0.000000e+00 0.000000e+00
<ENDHMM>
~h "p"
<BEGINHMM>
<NUMSTATES> 5
<STATE> 2
<MEAN> 39
 -8.076592e+00 8.660706e-01 1.392532e+00 -1.304222e-01 -1.432684e+00 -3.992841e-01 -5.230697e+00 1.681470e-01 1.194382e+00 2.066751e+00 9.007541e-01 3.125277e-03 1.512347e+01 1.290677e-03 2.413443e-04 3.765450e-04 -5.392597e-04 -3.945178e-04 3.145450e-04 -9.134930e-04 3.195996e-04 -3.116544e-04 -2.246661e-04 1.097076e-04 1.335632e-04 1.048156e-03 -3.381534e-07 -6.121765e-07 8.761138e-06 -2.201451e-06 -2.461759e-05 -1.460524e-05 2.105665e-05 -1.073766e-05 -5.764829e-06 1.687603e-05 2.922771e-05 -1.307963e-06 7.227511e-07
<VARIANCE> 39
 9.841245e+01 4.218484e+01 5.514307e+01 6.033149e+01 4.955621e+01 5.900050e+01 7.088898e+01 4.467485e+01 4.239266e+01 3.779681e+01 3.883071e+01 3.660656e+01 2.164791e+01 7.324517e-01 1.184712e+00 1.341151e+00 1.940029e+00 2.230043e+00 2.725608e+00 3.049735e+00 2.743147e+00 2.848797e+00 2.913924e+00 2.645005e+00 2.291032e+00 4.692006e-02 1.066783e-01 2.181507e-01 2.616773e-01 3.890629e-01 4.553961e-01 5.530604e-01 6.195624e-01 5.690828e-01 5.891937e-01 6.052055e-01 5.490899e-01 4.784534e-01 5.947296e-03
<GCONST> 1.115157e+02
<STATE> 3
<MEAN> 39
 -8.073121e+00 8.666623e-01 1.393563e+00 -1.318653e-01 -1.433843e+00 -3.985418e-01 -5.233046e+00 1.689573e-01 1.193541e+00 2.066221e+00 9.011797e-01 3.471158e-03 1.512628e+01 1.292317e-03 2.419124e-04 4.058602e-04 -5.557471e-04 -4.604564e-04 2.812992e-04 -8.444585e-04 3.158271e-04 -3.332257e-04 -1.937458e-04 1.939560e-04 1.324071e-04 1.050463e-03 2.436468e-06 1.859168e-06 1.048625e-05 -7.231963e-06 -2.288029e-05 -1.288596e-05 2.958813e-05 -3.187851e-06 -1.637151e-05 1.113627e-05 2.770148e-05 -6.476829e-07 8.927415e-07
<VARIANCE> 39
 9.844630e+01 4.220266e+01 5.516590e+01 6.036276e+01 4.956676e+01 5.901640e+01 7.089464e+01 4.468575e+01 4.239909e+01 3.780092e+01 3.883586e+01 3.661550e+01 2.164817e+01 7.323050e-01 1.184443e+00 1.340970e+00 1.939641e+00 2.229520e+00 2.724135e+00 3.049167e+00 2.743026e+00 2.848383e+00 2.913113e+00 2.644505e+00 2.290534e+00 4.689576e-02 1.066304e-01 2.180735e-01 2.616101e-01 3.889575e-01 4.552369e-01 5.526875e-01 6.194238e-01 5.690647e-01 5.890800e-01 6.050054e-01 5.489663e-01 4.783378e-01 5.941984e-03
<GCONST> 1.115113e+02
<STATE> 4
<MEAN> 39
 -8.069682e+00 8.672906e-01 1.394641e+00 -1.333561e-01 -1.435132e+00 -3.978466e-01 -5.235148e+00 1.697858e-01 1.192606e+00 2.065762e+00 9.017476e-01 3.806927e-03 1.512907e+01 1.300141e-03 2.515447e-04 4.168802e-04 -5.696274e-04 -5.099218e-04 2.671231e-04 -7.712779e-04 3.049636e-04 -3.944465e-04 -1.668741e-04 2.364927e-04 1.416224e-04 1.051786e-03 2.578422e-06 2.637533e-06 3.114066e-06 -4.101872e-07 -1.711931e-05 -1.006911e-05 2.358387e-05 -1.185513e-05 -2.850110e-05 5.792892e-06 1.310871e-05 5.365530e-06 2.852442e-08
<VARIANCE> 39
 9.848090e+01 4.222118e+01 5.518850e+01 6.039403e+01 4.957584e+01 5.903197e+01 7.090325e+01 4.469663e+01 4.240550e+01 3.780429e+01 3.884241e+01 3.662481e+01 2.164792e+01 7.321731e-01 1.184175e+00 1.340785e+00 1.939290e+00 2.228951e+00 2.722588e+00 3.048580e+00 2.742792e+00 2.847870e+00 2.912237e+00 2.644060e+00 2.290065e+00 4.687023e-02 1.065828e-01 2.179965e-01 2.615475e-01 3.888631e-01 4.550656e-01 5.523037e-01 6.192994e-01 5.690254e-01 5.889504e-01 6.047750e-01 5.488431e-01 4.782130e-01 5.936449e-03
<GCONST> 1.115066e+02
<TRANSP> 5
 0.000000e+00 1.000000e+00 0.000000e+00 0.000000e+00 0.000000e+00
 0.000000e+00 6.161686e-01 3.838314e-01 0.000000e+00 0.000000e+00
 0.000000e+00 0.000000e+00 6.161668e-01 3.838331e-01 0.000000e+00
 0.000000e+00 0.000000e+00 0.000000e+00 6.161699e-01 3.838301e-01
 0.000000e+00 0.000000e+00 0.000000e+00 0.000000e+00 0.000000e+00
<ENDHMM>
~h "r"
<BEGINHMM>
<NUMSTATES> 5
<STATE> 2
<MEAN> 39
 -8.096778e+00 7.492507e-01 1.613193e+00 5.564632e-01 -1.733794e+00 -5.977732e-01 -5.037740e+00 3.615248e-01 9.918788e-01 1.922794e+00 1.049980e+00 -1.337026e-01 1.487531e+01 -7.533783e-04 7.556840e-04 2.987298e-04 6.696837e-04 1.111036e-04 6.027293e-05 3.864250e-04 1.885813e-04 1.443064e-04 9.304652e-05 1.842741e-04 1.158428e-04 -5.082373e-04 1.597875e-06 1.902711e-06 -1.767916e-06 -2.813185e-06 -4.920262e-07 2.095732e-06 -3.677378e-06 -9.923550e-06 -8.767705e-07 -2.772670e-07 3.017267e-06 -9.280656e-07 -2.229374e-06
<VARIANCE> 39
 9.825686e+01 4.061474e+01 5.603447e+01 5.306074e+01 4.839454e+01 5.341253e+01 6.937347e+01 4.461211e+01 4.195164e+01 3.622770e+01 4.049769e+01 3.462251e+01 2.249895e+01 6.864975e-01 1.109699e+00 1.298161e+00 1.876551e+00 2.191759e+00 2.671712e+00 2.966188e+00 2.694643e+00 2.833270e+00 2.873576e+00 2.677742e+00 2.274227e+00 4.168985e-02 1.027562e-01 2.064330e-01 2.552677e-01 3.795823e-01 4.495656e-01 5.456597e-01 6.063384e-01 5.599197e-01 5.864580e-01 5.982262e-01 5.570384e-01 4.765182e-01 5.461162e-03
<GCONST> 1.104805e+02
<STATE> 3
<MEAN> 39
 -8.098646e+00 7.512159e-01 1.613975e+00 5.581943e-01 -1.733515e+00 -5.976256e-01 -5.036781e+00 3.620048e-01 9.922327e-01 1.923034e+00 1.050482e+00 -1.333772e-01 1.487405e+01 -7.485002e-04 7.701507e-04 2.977706e-04 6.660279e-04 1.236146e-04 6.871966e-05 3.859703e-04 1.672869e-04 1.328885e-04 9.004035e-05 2.040089e-04 1.221812e-04 -5.130256e-04 1.991365e-06 7.137256e-06 1.413080e-06 -8.944331e-07 8.114539e-06 7.606907e-06 2.758412e-06 1.566786e-06 -6.261530e-06 -1.153296e-05 9.048372e-06 7.252450e-06 -1.443469e-06
<VARIANCE> 39
 9.825556e+01 4.061095e+01 5.602232e+01 5.305256e+01 4.838354e+01 5.339860e+01 6.936271e+01 4.460463e+01 4.194415e+01 3.621963e+01 4.049274e+01 3.461769e+01 2.250329e+01 6.863011e-01 1.109278e+00 1.298047e+00 1.876240e+00 2.191513e+00 2.671358e+00 2.965517e+00 2.694215e+00 2.832874e+00 2.872891e+00 2.677490e+00 2.274070e+00 4.167646e-02 1.027198e-01 2.063462e-01 2.552504e-01 3.795244e-01 4.495023e-01 5.455970e-01 6.061904e-01 5.598410e-01 5.863823e-01 5.980889e-01 5.570080e-01 4.764898e-01 5.459461e-03
<GCONST> 1.104739e+02
<STATE> 4
<MEAN> 39
 -8.100542e+00 7.532572e-01 1.614779e+00 5.599332e-01 -1.733152e+00 -5.974034e-01 -5.035778e+00 3.624525e-01 9.925478e-01 1.923249e+00 1.051062e+00 -1.330141e-01 1.487273e+01 -7.448313e-04 7.885025e-04 2.983258e-04 6.666877e-04 1.560365e-04 1.070901e-04 4.049397e-04 1.787637e-04 1.067876e-04 5.321887e-05 2.235851e-04 1.448296e-04 -5.154571e-04 -6.056526e-07 3.267269e-06 -3.541980e-06 7.903854e-07 1.020296e-05 1.711361e-05 5.717140e-06 1.639849e-05 -1.252119e-05 -2.168826e-05 4.727970e-06 1.174123e-05 -1.158020e-06
<VARIANCE> 39
 9.825460e+01 4.060681e+01 5.600902e+01 5.304313e+01 4.837256e+01 5.338552e+01 6.935104e+01 4.459741e+01 4.193576e+01 3.621214e+01 4.048723e+01 3.461271e+01 2.250782e+01 6.861094e-01 1.108826e+00 1.297909e+00 1.875924e+00 2.191154e+00 2.670952e+00 2.964831e+00 2.693782e+00 2.832464e+00 2.872237e+00 2.677245e+00 2.273902e+00 4.166231e-02 1.026831e-01 2.062563e-01 2.552317e-01 3.794567e-01 4.494294e-01 5.455348e-01 6.060530e-01 5.597589e-01 5.863043e-01 5.979672e-01 5.569726e-01 4.764617e-01 5.457796e-03
<GCONST> 1.104671e+02
<TRANSP> 5
 0.000000e+00 1.000000e+00 0.000000e+00 0.000000e+00 0.000000e+00
 0.000000e+00 6.161211e-01 3.838789e-01 0.000000e+00 0.000000e+00
 0.000000e+00 0.000000e+00 6.161233e-01 3.838767e-01 0.000000e+00
 0.000000e+00 0.000000e+00 0.000000e+00 6.161234e-01 3.838766e-01
 0.000000e+00 0.000000e+00 0.000000e+00 0.000000e+00 0.000000e+00
<ENDHMM>
~h "s"
<BEGINHMM>
<NUMSTATES> 5
<STATE> 2
<MEAN> 39
 -8.719180e+00 1.006372e+00 1.505712e+00 8.512184e-04 -1.344368e+00 -5.879316e-01 -4.927798e+00 2.530483e-01 1.132452e+00 1.925753e+00 7.376356e-01 -6.814397e-02 1.493339e+01 1.132567e-04 6.959544e-04 2.995419e-04 2.249559e-04 -2.044025e-04 5.953126e-05 3.655290e-05 9.107094e-05 -2.249081e-04 3.486689e-05 2.039871e-04 1.241608e-04 7.963704e-05 3.690300e-06 4.432033e-06 7.582677e-06 2.273066e-06 -1.110030e-05 -1.763257e-05 -2.892622e-05 -4.413569e-06 -2.116476e-05 -1.011937e-05 2.162468e-05 1.052184e-05 1.425664e-06
<VARIANCE> 39
 1.030183e+02 3.966510e+01 5.619010e+01 5.617688e+01 4.814465e+01 5.576258e+01 6.593967e+01 4.352342e+01 4.161486e+01 3.603504e+01 3.902779e+01 3.538522e+01 2.211827e+01 7.203876e-01 1.121881e+00 1.321647e+00 1.892430e+00 2.220065e+00 2.692256e+00 2.979437e+00 2.703500e+00 2.840341e+00 2.858734e+00 2.663313e+00 2.277231e+00 4.248828e-02 1.046452e-01 2.087405e-01 2.589114e-01 3.814090e-01 4.551864e-01 5.488726e-01 6.084964e-01 5.605744e-01 5.881549e-01 5.941024e-01 5.561978e-01 4.769414e-01 5.448841e-03
<GCONST> 1.106711e+02
<STATE> 3
<MEAN> 39
 -8.718783e+00 1.008178e+00 1.506522e+00 1.391948e-03 -1.344977e+00 -5.878549e-01 -4.927886e+00 2.532886e-01 1.131824e+00 1.925861e+00 7.382220e-01 -6.782880e-02 1.493367e+01 1.317682e-04 7.032010e-04 2.967927e-04 2.176221e-04 -2.266352e-04 1.140700e-05 -1.650665e-05 1.078813e-04 -2.448329e-04 2.461915e-05 2.474918e-04 1.092854e-04 8.320899e-05 8.604458e-06 -5.260194e-07 -1.663866e-06 -6.872289e-06 -1.519306e-05 -1.998372e-05 -7.736237e-06 1.628927e-05 -5.295462e-06 -1.894604e-06 1.862926e-05 -3.399158e-06 8.004279e-07
<VARIANCE> 39
 1.030304e+02 3.966206e+01 5.619413e+01 5.617893e+01 4.814184e+01 5.575231e+01 6.593754e+01 4.351858e+01 4.161160e+01 3.603207e+01 3.902805e+01 3.538847e+01 2.212275e+01 7.202320e-01 1.121443e+00 1.321480e+00 1.892381e+00 2.219744e+00 2.691775e+00 2.979504e+00 2.703049e+00 2.839893e+00 2.858482e+00 2.663060e+00 2.277216e+00 4.247335e-02 1.046074e-01 2.086525e-01 2.588734e-01 3.814172e-01 4.551121e-01 5.487744e-01 6.085199e-01 5.604854e-01 5.880376e-01 5.940543e-01 5.561253e-01 4.769433e-01 5.446746e-03
<GCONST> 1.106669e+02
<STATE> 4
<MEAN> 39
 -8.718368e+00 1.010004e+00 1.507289e+00 1.923891e-03 -1.345615e+00 -5.878540e-01 -4.927959e+00 2.536271e-01 1.131179e+00 1.925944e+00 7.388892e-01 -6.760044e-02 1.493393e+01 1.532756e-04 6.944943e-04 2.828121e-04 1.944004e-04 -2.581624e-04 -3.051290e-05 4.240926e-06 1.621072e-04 -2.563903e-04 1.823917e-05 2.882385e-04 8.357462e-05 8.324777e-05 5.066577e-06 -3.937817e-06 -2.011702e-06 -1.022021e-05 -1.558595e-05 -1.452075e-05 1.274354e-05 2.415332e-05 -5.189932e-06 -2.669765e-06 1.423947e-05 -4.724635e-07 -7.452678e-07
<VARIANCE> 39
 1.030428e+02 3.965818e+01 5.619807e+01 5.617969e+01 4.813833e+01 5.574134e+01 6.593420e+01 4.351424e+01 4.160814e+01 3.602818e+01 3.902674e+01 3.539121e+01 2.212663e+01 7.200615e-01 1.120995e+00 1.321307e+00 1.892301e+00 2.219422e+00 2.691132e+00 2.979476e+00 2.702625e+00 2.839382e+00 2.858186e+00 2.662691e+00 2.277097e+00 4.245555e-02 1.045682e-01 2.085647e-01 2.588325e-01 3.814048e-01 4.550276e-01 5.486351e-01 6.085280e-01 5.603910e-01 5.879200e-01 5.940189e-01 5.560363e-01 4.769239e-01 5.444373e-03
<GCONST> 1.106619e+02
<TRANSP> 5
 0.000000e+00 1.000000e+00 0.000000e+00 0.000000e+00 0.000000e+00
 0.000000e+00 6.162310e-01 3.837689e-01 0.000000e+00 0.000000e+00
 0.000000e+00 0.000000e+00 6.162328e-01 3.837672e-01 0.000000e+00
 0.000000e+00 0.000000e+00 0.000000e+00 6.162336e-01 3.837664e-01
 0.000000e+00 0.000000e+00 0.000000e+00 0.000000e+00 0.000000e+00
<ENDHMM>
~h "t"
<BEGINHMM>
<NUMSTATES> 5
<STATE> 2
<MEAN> 39
 -8.297715e+00 6.964570e-01 1.770682e+00 2.573754e-01 -1.832188e+00 -7.083401e-01 -5.012511e+00 2.959960e-01 1.162036e+00 1.951548e+00 7.665696e-01 -9.416760e-02 1.495986e+01 -1.991686e-04 6.697848e-04 2.337024e-04 4.510530e-04 4.841604e-05 2.642108e-04 4.823770e-04 2.840736e-04 -4.860953e-05 1.054356e-04 2.250958e-04 1.600317e-04 -8.706426e-05 1.696421e-06 7.545030e-06 -4.010235e-06 2.420051e-06 -1.740956e-06 3.434244e-06 9.182630e-06 1.261250e-06 1.208199e-07 -4.380563e-06 2.634064e-07 1.157832e-05 4.808173e-07
<VARIANCE> 39
 9.631847e+01 4.056883e+01 5.717270e+01 5.285124e+01 4.853867e+01 5.548973e+01 6.737486e+01 4.450247e+01 4.157211e+01 3.625187e+01 3.961341e+01 3.591985e+01 2.217916e+01 7.208404e-01 1.133304e+00 1.311735e+00 1.899225e+00 2.218872e+00 2.689572e+00 2.973683e+00 2.695404e+00 2.844195e+00 2.853393e+00 2.658248e+00 2.274510e+00 4.382375e-02 1.062349e-01 2.107347e-01 2.565679e-01 3.848047e-01 4.541817e-01 5.494488e-01 6.083400e-01 5.589730e-01 5.879111e-01 5.926510e-01 5.530261e-01 4.762852e-01 5.572211e-03
<GCONST> 1.107275e+02
<STATE> 3
<MEAN> 39
 -8.298138e+00 6.982070e-01 1.771262e+00 2.585288e-01 -1.832117e+00 -7.076399e-01 -5.011234e+00 2.967395e-01 1.161858e+00 1.951775e+00 7.671437e-01 -9.376039e-02 1.495970e+01 -1.898451e-04 6.846573e-04 2.237647e-04 4.632814e-04 4.359242e-05 2.791633e-04 5.109482e-04 2.704951e-04 -5.621381e-05 7.713269e-05 2.152268e-04 1.922535e-04 -8.454193e-05 2.953030e-06 6.807231e-06 -2.538205e-07 8.473237e-06 4.977801e-06 9.308337e-06 5.545451e-06 -1.141435e-05 6.385667e-07 -1.395014e-05 -6.864352e-06 1.098460e-05 9.255049e-07
<VARIANCE> 39
 9.632836e+01 4.056687e+01 5.716586e+01 5.285159e+01 4.853249e+01 5.548158e+01 6.737650e+01 4.449768e+01 4.156932e+01 3.624952e+01 3.961239e+01 3.591877e+01 2.218195e+01 7.206365e-01 1.132787e+00 1.311494e+00 1.898839e+00 2.218573e+00 2.688773e+00 2.973047e+00 2.695126e+00 2.844114e+00 2.853261e+00 2.658033e+00 2.274462e+00 4.380745e-02 1.061922e-01 2.106270e-01 2.565172e-01 3.847330e-01 4.541201e-01 5.492897e-01 6.081921e-01 5.589295e-01 5.878896e-01 5.926198e-01 5.529942e-01 4.762717e-01 5.569998e-03
<GCONST> 1.107220e+02
<STATE> 4
<MEAN> 39
 -8.298572e+00 7.000092e-01 1.771837e+00 2.597416e-01 -1.831990e+00 -7.068564e-01 -5.009878e+00 2.974021e-01 1.161688e+00 1.951914e+00 7.676659e-01 -9.324221e-02 1.495952e+01 -1.854639e-04 7.045618e-04 2.311710e-04 4.878064e-04 6.458159e-05 3.162009e-04 5.168615e-04 2.308604e-04 -5.144761e-05 4.451245e-05 1.974980e-04 2.204271e-04 -8.188817e-05 -1.440858e-06 5.169641e-06 2.757177e-06 1.097707e-05 1.026075e-05 2.361487e-05 3.420036e-06 -1.179184e-05 -6.968514e-07 -9.943104e-06 -3.483781e-06 6.880833e-06 -9.763914e-08
<VARIANCE> 39
 9.633556e+01 4.056324e+01 5.715910e+01 5.285067e+01 4.852518e+01 5.547422e+01 6.737844e+01 4.449282e+01 4.156616e+01 3.624750e+01 3.961026e+01 3.591846e+01 2.218499e+01 7.204253e-01 1.132290e+00 1.311265e+00 1.898445e+00 2.218266e+00 2.688067e+00 2.972526e+00 2.694827e+00 2.844080e+00 2.853159e+00 2.657841e+00 2.274436e+00 4.379201e-02 1.061458e-01 2.105258e-01 2.564712e-01 3.846506e-01 4.540533e-01 5.491358e-01 6.080508e-01 5.588865e-01 5.878898e-01 5.925990e-01 5.529588e-01 4.762650e-01 5.567829e-03
<GCONST> 1.107166e+02
<TRANSP> 5
 0.000000e+00 1.000000e+00 0.000000e+00 0.000000e+00 0.000000e+00
 0.000000e+00 6.162570e-01 3.837430e-01 0.000000e+00 0.000000e+00
 0.000000e+00 0.000000e+00 6.162564e-01 3.837437e-01 0.000000e+00
 0.000000e+00 0.000000e+00 0.000000e+00 6.162595e-01 3.837405e-01
 0.000000e+00 0.000000e+00 0.000000e+00 0.000000e+00 0.000000e+00
<ENDHMM>
~h "u"
<BEGINHMM>
<NUMSTATES> 5
<STATE> 2
<MEAN> 39
 -9.099553e+00 1.125371e+00 1.667087e+00 7.512329e-01 -1.504170e+00 -3.387493e-01 -5.044390e+00 2.886809e-01 1.115656e+00 1.701117e+00 1.555251e+00 1.110670e-01 1.448520e+01 -1.898097e-03 1.352835e-03 8.422760e-04 1.108915e-03 1.229035e-03 2.390152e-04 1.286688e-03 5.056009e-04 -8.043604e-04 -2.818458e-04 5.914313e-04 1.733969e-06 -1.374071e-03 1.104659e-05 2.307429e-06 -4.486496e-06 5.316395e-05 1.816704e-05 4.903751e-06 -2.315794e-05 1.703232e-06 -2.107478e-05 -1.045387e-04 -2.324065e-05 -9.371457e-06 1.255244e-06
<VARIANCE> 39
 9.215527e+01 3.637364e+01 4.620152e+01 5.043481e+01 4.586808e+01 5.420901e+01 7.995229e+01 4.577561e+01 4.175245e+01 3.629346e+01 3.882892e+01 3.192477e+01 2.191128e+01 6.613069e-01 1.095430e+00 1.319507e+00 1.921878e+00 2.205399e+00 2.735674e+00 3.065713e+00 2.783325e+00 2.897485e+00 3.022557e+00 2.683420e+00 2.371403e+00 4.588717e-02 9.965493e-02 2.060419e-01 2.640582e-01 3.951887e-01 4.561313e-01 5.617185e-01 6.300940e-01 5.835636e-01 5.995743e-01 6.344116e-01 5.627224e-01 5.069773e-01 6.306629e-03
<GCONST> 1.107984e+02
<STATE> 3
<MEAN> 39
 -9.104470e+00 1.128945e+00 1.669284e+00 7.544876e-01 -1.500834e+00 -3.380860e-01 -5.041201e+00 2.899975e-01 1.113529e+00 1.699948e+00 1.556818e+00 1.110805e-01 1.448166e+01 -1.878049e-03 1.357485e-03 8.356958e-04 1.241408e-03 1.290440e-03 2.756802e-04 1.194226e-03 4.879994e-04 -8.168092e-04 -5.470246e-04 5.360958e-04 2.320659e-05 -1.377898e-03 5.828738e-06 1.328482e-06 8.787390e-06 4.637015e-05 2.233603e-05 1.844784e-05 -3.227015e-05 2.179263e-06 -1.363712e-05 -1.134023e-04 -2.810635e-05 2.138039e-05 -2.419421e-06
<VARIANCE> 39
 9.211015e+01 3.634642e+01 4.615049e+01 5.041534e+01 4.585616e+01 5.418694e+01 7.996060e+01 4.575909e+01 4.174626e+01 3.628265e+01 3.882308e+01 3.190257e+01 2.191021e+01 6.610178e-01 1.094835e+00 1.318583e+00 1.922021e+00 2.206000e+00 2.736108e+00 3.065848e+00 2.785156e+00 2.897618e+00 3.023401e+00 2.684250e+00 2.372230e+00 4.589396e-02 9.963762e-02 2.059317e-01 2.638425e-01 3.952359e-01 4.562845e-01 5.619527e-01 6.302022e-01 5.840227e-01 5.996411e-01 6.346326e-01 5.630055e-01 5.071647e-01 6.311455e-03
<GCONST> 1.107964e+02
<STATE> 4
<MEAN> 39
 -9.109328e+00 1.132518e+00 1.671528e+00 7.579880e-01 -1.497355e+00 -3.372193e-01 -5.038268e+00 2.912831e-01 1.111322e+00 1.698051e+00 1.558215e+00 1.113052e-01 1.447809e+01 -1.871416e-03 1.371946e-03 8.651838e-04 1.307717e-03 1.313956e-03 3.135799e-04 1.100943e-03 5.231882e-04 -8.857868e-04 -8.298151e-04 4.862500e-04 1.128239e-04 -1.391923e-03 1.450605e-06 1.140438e-05 1.156816e-05 2.162704e-05 -2.506237e-06 2.034928e-06 -3.344064e-05 2.352170e-05 -8.025639e-06 -1.095281e-04 -3.122903e-05 3.727109e-05 -6.978407e-06
<VARIANCE> 39
 9.206467e+01 3.631812e+01 4.609912e+01 5.039710e+01 4.584753e+01 5.416395e+01 7.996455e+01 4.574269e+01 4.173842e+01 3.627023e+01 3.881418e+01 3.188128e+01 2.190946e+01 6.606915e-01 1.094243e+00 1.317689e+00 1.921889e+00 2.206550e+00 2.736465e+00 3.065984e+00 2.786842e+00 2.897642e+00 3.024068e+00 2.684775e+00 2.372801e+00 4.589805e-02 9.960921e-02 2.058429e-01 2.636496e-01 3.952370e-01 4.564058e-01 5.621566e-01 6.302842e-01 5.844231e-01 5.996172e-01 6.347904e-01 5.631931e-01 5.073287e-01 6.316043e-03
<GCONST> 1.107929e+02
<TRANSP> 5
 0.000000e+00 1.000000e+00 0.000000e+00 0.000000e+00 0.000000e+00
 0.000000e+00 6.161475e-01 3.838525e-01 0.000000e+00 0.000000e+00
 0.000000e+00 0.000000e+00 6.161481e-01 3.838519e-01 0.000000e+00
 0.000000e+00 0.000000e+00 0.000000e+00 6.161497e-01 3.838503e-01
 0.000000e+00 0.000000e+00 0.000000e+00 0.000000e+00 0.000000e+00
<ENDHMM>
~h "v"
<BEGINHMM>
<NUMSTATES> 5
<STATE> 2
<MEAN> 39
 -7.964785e+00 9.976918e-01 1.710124e+00 5.777744e-02 -1.436177e+00 -4.024779e-01 -5.395176e+00 7.047827e-02 1.110298e+00 1.915403e+00 8.048838e-01 -1.170195e-01 1.495190e+01 6.585687e-05 4.642577e-04 1.632012e-04 6.281720e-04 3.350797e-04 3.487742e-04 1.626305e-04 1.612454e-04 2.572146e-04 1.183155e-04 5.073315e-04 -7.310887e-05 1.257632e-05 -3.245396e-06 1.903591e-05 -2.598419e-05 -1.157874e-05 -7.751937e-06 -5.394008e-06 9.417013e-06 -2.840119e-05 2.049132e-05 3.391154e-05 7.343690e-06 5.499392e-05 -5.437628e-06
<VARIANCE> 39
 9.552438e+01 3.945598e+01 5.751434e+01 5.799789e+01 4.858746e+01 5.544812e+01 7.024636e+01 4.327954e+01 4.233587e+01 3.640021e+01 3.919599e+01 3.486774e+01 2.253163e+01 6.831817e-01 1.102499e+00 1.305286e+00 1.911343e+00 2.191766e+00 2.647027e+00 2.992344e+00 2.655173e+00 2.830898e+00 2.864297e+00 2.638532e+00 2.271440e+00 4.042326e-02 1.039534e-01 2.051924e-01 2.563426e-01 3.866639e-01 4.494280e-01 5.412463e-01 6.125244e-01 5.492912e-01 5.843228e-01 5.929352e-01 5.475444e-01 4.767296e-01 5.365945e-03
<GCONST> 1.104619e+02
<STATE> 3
<MEAN> 39
 -7.964558e+00 9.989542e-01 1.710478e+00 5.942874e-02 -1.435302e+00 -4.014746e-01 -5.394732e+00 7.075031e-02 1.110954e+00 1.915896e+00 8.062304e-01 -1.170449e-01 1.495197e+01 6.142058e-05 5.145267e-04 1.080134e-04 6.301093e-04 3.266899e-04 3.552700e-04 1.652822e-04 8.249115e-05 2.715090e-04 2.040740e-04 5.185689e-04 1.963930e-05 2.440215e-06 -3.609984e-06 2.022045e-05 -1.857832e-05 8.302051e-07 -1.221336e-06 2.175679e-06 -9.437942e-06 -2.772366e-05 7.282865e-06 3.077995e-05 -9.072131e-06 1.727980e-05 -4.068665e-06
<VARIANCE> 39
 9.552985e+01 3.945491e+01 5.750808e+01 5.799534e+01 4.859027e+01 5.544152e+01 7.023988e+01 4.326873e+01 4.233324e+01 3.639375e+01 3.919729e+01 3.486214e+01 2.253348e+01 6.829934e-01 1.102148e+00 1.305040e+00 1.911111e+00 2.191615e+00 2.646487e+00 2.991676e+00 2.654450e+00 2.830528e+00 2.863987e+00 2.638107e+00 2.270720e+00 4.041698e-02 1.039143e-01 2.051103e-01 2.563044e-01 3.866393e-01 4.494262e-01 5.410969e-01 6.123711e-01 5.491792e-01 5.842619e-01 5.928893e-01 5.473874e-01 4.765380e-01 5.365293e-03
<GCONST> 1.104559e+02
<STATE> 4
<MEAN> 39
 -7.964356e+00 1.000372e+00 1.710746e+00 6.111745e-02 -1.434425e+00 -4.004798e-01 -5.394399e+00 7.088079e-02 1.111678e+00 1.916521e+00 8.074839e-01 -1.170491e-01 1.495202e+01 4.473690e-05 5.674863e-04 8.317485e-05 6.432568e-04 3.334261e-04 3.659182e-04 1.215435e-04 4.597195e-05 3.014544e-04 2.471784e-04 4.552575e-04 1.768977e-06 -6.741797e-06 -7.254390e-06 1.592000e-05 -8.404893e-06 3.565990e-06 4.965242e-06 6.680716e-06 -1.873840e-05 -9.592303e-06 1.229523e-05 1.580369e-05 -2.955514e-05 -1.153626e-05 -3.700336e-06
<VARIANCE> 39
 9.553588e+01 3.945388e+01 5.750105e+01 5.799271e+01 4.859200e+01 5.543428e+01 7.023272e+01 4.325815e+01 4.233043e+01 3.638605e+01 3.919717e+01 3.485557e+01 2.253569e+01 6.828089e-01 1.101775e+00 1.304769e+00 1.910915e+00 2.191445e+00 2.645884e+00 2.991115e+00 2.653615e+00 2.830301e+00 2.863619e+00 2.637552e+00 2.269857e+00 4.041053e-02 1.038735e-01 2.050238e-01 2.562568e-01 3.866134e-01 4.494145e-01 5.409318e-01 6.122369e-01 5.490444e-01 5.842667e-01 5.928164e-01 5.472046e-01 4.763215e-01 5.364638e-03
<GCONST> 1.104493e+02
<TRANSP> 5
 0.000000e+00 1.000000e+00 0.000000e+00 0.000000e+00 0.000000e+00
 0.000000e+00 6.161098e-01 3.838901e-01 0.000000e+00 0.000000e+00
 0.000000e+00 0.000000e+00 6.161110e-01 3.838890e-01 0.000000e+00
 0.000000e+00 0.000000e+00 0.000000e+00 6.161128e-01 3.838873e-01
 0.000000e+00 0.000000e+00 0.000000e+00 0.000000e+00 0.000000e+00
<ENDHMM>
~h "w"
<BEGINHMM>
<NUMSTATES> 5
<STATE> 2
<MEAN> 39
 -7.671334e+00 8.799368e-01 1.481318e+00 -3.840751e-01 -1.709747e+00 -1.147991e-02 -5.130253e+00 2.455074e-02 9.037107e-01 2.128496e+00 9.148383e-01 -3.989325e-02 1.514319e+01 2.338615e-04 2.136206e-04 3.606488e-04 3.484822e-04 -4.183449e-04 -1.044774e-04 -4.708525e-06 2.606446e-04 -2.466315e-04 -3.538356e-05 1.292059e-04 -1.557809e-05 1.198323e-04 -3.838969e-06 1.446671e-05 7.543747e-06 2.953459e-05 1.757997e-05 -3.275697e-05 -4.443882e-05 -4.043433e-05 2.060302e-05 2.043165e-05 -1.258338e-05 2.108223e-05 -3.983268e-06
<VARIANCE> 39
 1.019986e+02 4.231155e+01 5.745574e+01 6.150952e+01 5.003418e+01 5.755833e+01 6.915379e+01 4.625816e+01 4.233244e+01 3.723269e+01 4.009349e+01 3.638108e+01 2.240007e+01 6.763099e-01 1.142664e+00 1.299282e+00 1.933104e+00 2.199282e+00 2.683782e+00 2.940729e+00 2.727016e+00 2.816989e+00 2.854907e+00 2.649098e+00 2.259780e+00 4.114736e-02 1.008641e-01 2.107805e-01 2.537132e-01 3.871222e-01 4.476788e-01 5.433437e-01 5.953003e-01 5.629457e-01 5.822662e-01 5.882181e-01 5.471027e-01 4.694306e-01 5.339618e-03
<GCONST> 1.108727e+02
<STATE> 3
<MEAN> 39
 -7.670620e+00 8.805562e-01 1.482304e+00 -3.831323e-01 -1.710788e+00 -1.187467e-02 -5.130536e+00 2.501925e-02 9.031127e-01 2.128527e+00 9.152626e-01 -3.973075e-02 1.514355e+01 2.294144e-04 2.475283e-04 3.767210e-04 3.953260e-04 -3.795456e-04 -1.474862e-04 -9.877202e-05 1.809132e-04 -2.115371e-04 4.505030e-05 1.725852e-04 8.353879e-05 1.108579e-04 -1.332900e-06 8.113509e-06 -2.255411e-07 1.656306e-05 1.528561e-05 -1.507659e-05 -3.463269e-05 -2.666313e-05 7.406250e-06 2.589936e-05 2.065012e-05 3.375040e-05 -3.667088e-06
<VARIANCE> 39
 1.020090e+02 4.230906e+01 5.746794e+01 6.151114e+01 5.003267e+01 5.755991e+01 6.914804e+01 4.626151e+01 4.232893e+01 3.722509e+01 4.009464e+01 3.637844e+01 2.240375e+01 6.762437e-01 1.142341e+00 1.298976e+00 1.932767e+00 2.199088e+00 2.683505e+00 2.940410e+00 2.726907e+00 2.816729e+00 2.854011e+00 2.648965e+00 2.259369e+00 4.114844e-02 1.008492e-01 2.107089e-01 2.536218e-01 3.870403e-01 4.476342e-01 5.432631e-01 5.952669e-01 5.629293e-01 5.822110e-01 5.880489e-01 5.470718e-01 4.693554e-01 5.339638e-03
<GCONST> 1.108691e+02
<STATE> 4
<MEAN> 39
 -7.669997e+00 8.812149e-01 1.483255e+00 -3.820951e-01 -1.711719e+00 -1.225402e-02 -5.130890e+00 2.541239e-02 9.025272e-01 2.128638e+00 9.158504e-01 -3.931854e-02 1.514385e+01 2.242479e-04 2.487985e-04 3.507526e-04 4.088419e-04 -3.324989e-04 -1.399838e-04 -1.377862e-04 1.381291e-04 -2.409901e-04 4.467477e-05 2.356351e-04 1.560914e-04 1.031964e-04 -2.796299e-06 9.547367e-09 -9.919735e-06 1.055715e-05 2.680946e-05 4.490641e-06 -1.085193e-05 -2.300614e-05 -1.964737e-05 -9.131812e-06 2.435116e-05 1.644603e-05 -3.127724e-06
<VARIANCE> 39
 1.020191e+02 4.230635e+01 5.748003e+01 6.151267e+01 5.003148e+01 5.756135e+01 6.914091e+01 4.626440e+01 4.232428e+01 3.721733e+01 4.009702e+01 3.637574e+01 2.240760e+01 6.761773e-01 1.142006e+00 1.298664e+00 1.932478e+00 2.198909e+00 2.683262e+00 2.940218e+00 2.726847e+00 2.816257e+00 2.853283e+00 2.648818e+00 2.259012e+00 4.114889e-02 1.008341e-01 2.106223e-01 2.535478e-01 3.869759e-01 4.476080e-01 5.431864e-01 5.952546e-01 5.629166e-01 5.821190e-01 5.879140e-01 5.470462e-01 4.692836e-01 5.339692e-03
<GCONST> 1.108656e+02
<TRANSP> 5
 0.000000e+00 1.000000e+00 0.000000e+00 0.000000e+00 0.000000e+00
 0.000000e+00 6.160647e-01 3.839353e-01 0.000000e+00 0.000000e+00
 0.000000e+00 0.000000e+00 6.160659e-01 3.839341e-01 0.000000e+00
 0.000000e+00 0.000000e+00 0.000000e+00 6.160677e-01 3.839323e-01
 0.000000e+00 0.000000e+00 0.000000e+00 0.000000e+00 0.000000e+00
<ENDHMM>
~h "y"
<BEGINHMM>
<NUMSTATES> 5
<STATE> 2
<MEAN> 39
 -7.999933e+00 8.986118e-01 2.315919e+00 -1.034323e-01 -1.815496e+00 2.355464e-02 -5.375894e+00 7.373536e-02 8.350978e-01 1.923963e+00 9.788440e-01 -1.966553e-01 1.506474e+01 8.162957e-04 -2.309230e-04 2.394244e-04 -3.511340e-04 -5.131398e-04 2.894765e-04 -1.808262e-04 3.223369e-04 -1.226728e-04 -1.720657e-04 1.604176e-04 -1.258063e-04 6.903092e-04 -2.022330e-05 3.550101e-05 2.854063e-06 7.595787e-07 3.625202e-05 -2.387811e-05 1.943099e-05 -8.924751e-06 -3.847230e-05 -5.578351e-05 1.111945e-04 1.223696e-04 -1.196104e-05
<VARIANCE> 39
 9.496798e+01 3.747942e+01 6.271587e+01 6.175176e+01 4.820902e+01 5.807590e+01 6.768102e+01 4.409986e+01 4.360115e+01 3.646241e+01 4.072920e+01 3.613666e+01 2.232284e+01 6.929881e-01 1.116735e+00 1.332655e+00 1.931894e+00 2.230744e+00 2.676999e+00 2.995819e+00 2.673204e+00 2.796419e+00 2.870750e+00 2.632963e+00 2.243228e+00 4.134626e-02 1.045135e-01 2.111688e-01 2.620762e-01 3.878627e-01 4.561732e-01 5.432258e-01 6.085823e-01 5.520514e-01 5.779438e-01 5.954913e-01 5.465388e-01 4.680003e-01 5.315737e-03
<GCONST> 1.108033e+02
<STATE> 3
<MEAN> 39
 -7.997805e+00 8.982496e-01 2.316532e+00 -1.043286e-01 -1.816773e+00 2.416332e-02 -5.376329e+00 7.445907e-02 8.347690e-01 1.923478e+00 9.796335e-01 -1.966196e-01 1.506652e+01 7.884118e-04 -1.016127e-04 2.472758e-04 -3.105258e-04 -5.141884e-04 2.138146e-04 -1.483672e-04 2.393694e-04 -1.084491e-04 -1.478145e-04 3.095200e-04 3.140308e-05 6.546613e-04 -1.005367e-05 4.325405e-05 -7.069762e-06 7.935133e-06 -2.106678e-05 -2.456154e-05 2.454867e-05 -4.034365e-05 4.619412e-06 2.469973e-05 3.308478e-05 3.489303e-05 -1.389205e-05
<VARIANCE> 39
 9.497878e+01 3.748722e+01 6.273289e+01 6.176182e+01 4.820823e+01 5.808122e+01 6.768512e+01 4.411264e+01 4.360735e+01 3.646242e+01 4.073454e+01 3.614508e+01 2.231922e+01 6.929407e-01 1.116282e+00 1.332298e+00 1.931895e+00 2.230061e+00 2.675803e+00 2.995312e+00 2.673845e+00 2.795849e+00 2.870053e+00 2.632384e+00 2.242597e+00 4.132694e-02 1.044853e-01 2.110804e-01 2.619683e-01 3.879207e-01 4.560533e-01 5.430223e-01 6.085489e-01 5.521926e-01 5.777557e-01 5.953087e-01 5.464678e-01 4.678690e-01 5.312262e-03
<GCONST> 1.107989e+02
<STATE> 4
<MEAN> 39
 -7.995707e+00 8.981770e-01 2.317184e+00 -1.051457e-01 -1.818332e+00 2.463668e-02 -5.376637e+00 7.490683e-02 8.344985e-01 1.923288e+00 9.804588e-01 -1.966152e-01 1.506820e+01 7.738523e-04 -1.393028e-05 2.244066e-04 -2.915706e-04 -6.116025e-04 1.728767e-04 -8.825419e-05 1.339019e-04 -8.654741e-05 -2.715788e-05 2.856779e-04 2.573721e-07 6.193876e-04 -4.850315e-06 3.461926e-05 -1.049760e-05 7.929536e-06 -3.046052e-05 -1.642850e-05 8.023247e-06 -3.833860e-05 7.437630e-06 4.286173e-05 -5.179520e-06 -1.079570e-05 -1.277410e-05
<VARIANCE> 39
 9.498975e+01 3.749387e+01 6.274947e+01 6.177224e+01 4.820607e+01 5.808367e+01 6.768931e+01 4.412447e+01 4.361243e+01 3.646319e+01 4.073922e+01 3.615184e+01 2.231669e+01 6.928697e-01 1.115710e+00 1.331921e+00 1.931846e+00 2.229239e+00 2.674411e+00 2.994793e+00 2.674242e+00 2.795472e+00 2.869597e+00 2.631874e+00 2.241988e+00 4.130642e-02 1.044532e-01 2.109605e-01 2.618552e-01 3.879721e-01 4.559044e-01 5.427414e-01 6.084949e-01 5.523113e-01 5.776492e-01 5.951440e-01 5.463839e-01 4.677269e-01 5.308367e-03
<GCONST> 1.107937e+02
<TRANSP> 5
 0.000000e+00 1.000000e+00 0.000000e+00 0.000000e+00 0.000000e+00
 0.000000e+00 6.161473e-01 3.838527e-01 0.000000e+00 0.000000e+00
 0.000000e+00 0.000000e+00 6.161475e-01 3.838526e-01 0.000000e+00
 0.000000e+00 0.000000e+00 0.000000e+00 6.161496e-01 3.838504e-01
 0.000000e+00 0.000000e+00 0.000000e+00 0.000000e+00 0.000000e+00
<ENDHMM>
~h "z"
<BEGINHMM>
<NUMSTATES> 5
<STATE> 2
<MEAN> 39
 -8.170614e+00 1.156274e+00 2.010360e+00 2.031377e-01 -1.589093e+00 -7.206476e-01 -5.074580e+00 2.309328e-01 8.497188e-01 1.816885e+00 7.772311e-01 -1.931961e-03 1.502949e+01 7.582153e-05 3.892730e-04 2.002953e-04 2.548117e-04 -2.839979e-04 -9.667563e-05 -2.258041e-05 2.644766e-04 -2.061852e-04 -1.623673e-04 1.849945e-04 1.168191e-05 1.133143e-04 -1.627259e-05 1.539256e-05 9.406438e-06 1.879295e-05 1.998338e-05 3.223609e-05 1.566817e-05 9.704755e-06 -9.268633e-06 -2.666494e-05 -5.474964e-07 2.921877e-06 -6.828508e-06
<VARIANCE> 39
 9.687814e+01 4.183204e+01 6.006937e+01 5.617022e+01 5.084501e+01 5.714077e+01 6.880695e+01 4.424918e+01 4.154127e+01 3.600172e+01 3.886267e+01 3.492636e+01 2.226024e+01 7.031085e-01 1.146453e+00 1.312374e+00 1.914919e+00 2.192858e+00 2.702185e+00 2.987864e+00 2.720655e+00 2.819175e+00 2.852005e+00 2.650873e+00 2.258322e+00 4.087768e-02 1.039141e-01 2.120517e-01 2.563347e-01 3.870357e-01 4.467933e-01 5.497497e-01 6.071894e-01 5.653136e-01 5.829533e-01 5.926454e-01 5.516693e-01 4.728771e-01 5.282766e-03
<GCONST> 1.107387e+02
<STATE> 3
<MEAN> 39
 -8.170354e+00 1.157333e+00 2.010922e+00 2.037759e-01 -1.589822e+00 -7.208131e-01 -5.074613e+00 2.316729e-01 8.491434e-01 1.816384e+00 7.777321e-01 -1.909109e-03 1.502985e+01 4.358372e-05 4.351524e-04 2.270607e-04 2.923170e-04 -2.404543e-04 6.315257e-06 2.504927e-05 2.979100e-04 -2.238528e-04 -2.267880e-04 1.910770e-04 2.490532e-05 9.895481e-05 -1.056401e-05 1.558900e-05 7.591436e-06 9.496243e-06 1.351652e-05 4.352802e-05 2.717256e-05 2.103835e-05 -1.746965e-05 -3.008992e-05 6.405133e-07 3.566867e-06 -2.929735e-06
<VARIANCE> 39
 9.688764e+01 4.183372e+01 6.007850e+01 5.617257e+01 5.084321e+01 5.714551e+01 6.880040e+01 4.424886e+01 4.154170e+01 3.599705e+01 3.885992e+01 3.492503e+01 2.226373e+01 7.030455e-01 1.146222e+00 1.312198e+00 1.914572e+00 2.192555e+00 2.702061e+00 2.987193e+00 2.720564e+00 2.818705e+00 2.851387e+00 2.650543e+00 2.258087e+00 4.087352e-02 1.038953e-01 2.120047e-01 2.563008e-01 3.869767e-01 4.467169e-01 5.497518e-01 6.070266e-01 5.653020e-01 5.828484e-01 5.925364e-01 5.516205e-01 4.728332e-01 5.282100e-03
<GCONST> 1.107353e+02
<STATE> 4
<MEAN> 39
 -8.170212e+00 1.158490e+00 2.011491e+00 2.044892e-01 -1.590438e+00 -7.207016e-01 -5.074527e+00 2.325072e-01 8.484895e-01 1.815723e+00 7.782524e-01 -1.822758e-03 1.503014e+01 2.525394e-05 4.751680e-04 2.300184e-04 2.956625e-04 -2.084181e-04 1.161348e-04 9.479072e-05 3.526593e-04 -2.848779e-04 -2.955034e-04 1.851626e-04 1.957266e-05 9.426416e-05 -4.893287e-06 1.307245e-05 4.183134e-07 -1.068446e-05 6.624440e-06 3.944415e-05 4.497308e-05 2.581147e-05 -3.053485e-05 -2.250987e-05 -1.882481e-05 -2.936092e-05 -1.942282e-07
<VARIANCE> 39
 9.689921e+01 4.183460e+01 6.008614e+01 5.617310e+01 5.084077e+01 5.714838e+01 6.879435e+01 4.424675e+01 4.154133e+01 3.599183e+01 3.885671e+01 3.492332e+01 2.226706e+01 7.029732e-01 1.145972e+00 1.311949e+00 1.914194e+00 2.192221e+00 2.702033e+00 2.986583e+00 2.720388e+00 2.818288e+00 2.850688e+00 2.650200e+00 2.257955e+00 4.086653e-02 1.038730e-01 2.119511e-01 2.562526e-01 3.868937e-01 4.466414e-01 5.497580e-01 6.068642e-01 5.652667e-01 5.827612e-01 5.923968e-01 5.515702e-01 4.728040e-01 5.281001e-03
<GCONST> 1.107314e+02
<TRANSP> 5
 0.000000e+00 1.000000e+00 0.000000e+00 0.000000e+00 0.000000e+00
 0.000000e+00 6.161492e-01 3.838508e-01 0.000000e+00 0.000000e+00
 0.000000e+00 0.000000e+00 6.161488e-01 3.838512e-01 0.000000e+00
 0.000000e+00 0.000000e+00 0.000000e+00 6.161501e-01 3.838499e-01
 0.000000e+00 0.000000e+00 0.000000e+00 0.000000e+00 0.000000e+00
<ENDHMM>
~h "@r"
<BEGINHMM>
<NUMSTATES> 5
<STATE> 2
<MEAN> 39
 -8.044383e+00 8.286788e-01 1.571445e+00 6.882245e-01 -1.690705e+00 -5.962578e-01 -5.058011e+00 4.274023e-01 1.043433e+00 1.815006e+00 1.131368e+00 -1.676062e-01 1.481899e+01 -8.832433e-04 8.167176e-04 3.451387e-04 1.058446e-04 3.674947e-04 -4.649536e-05 2.129392e-04 4.595995e-05 2.591580e-04 1.054555e-04 2.410510e-04 4.392929e-04 -4.591663e-04 -9.724173e-07 6.760317e-06 1.298342e-05 -6.437725e-07 -5.852639e-06 -4.081220e-06 -1.406322e-06 -1.567987e-05 -2.688239e-05 1.803697e-05 -1.300190e-05 2.119763e-05 -7.059322e-07
<VARIANCE> 39
 9.779458e+01 3.955980e+01 5.671215e+01 5.334365e+01 4.674045e+01 5.309559e+01 6.918993e+01 4.330108e+01 4.111839e+01 3.608699e+01 4.070970e+01 3.496148e+01 2.242267e+01 6.789842e-01 1.108068e+00 1.284356e+00 1.857614e+00 2.179443e+00 2.668236e+00 2.959891e+00 2.670355e+00 2.818581e+00 2.891350e+00 2.661119e+00 2.277741e+00 4.218762e-02 1.012466e-01 2.063756e-01 2.527449e-01 3.745444e-01 4.484699e-01 5.458360e-01 6.046537e-01 5.566013e-01 5.836980e-01 6.027122e-01 5.540010e-01 4.772254e-01 5.590890e-03
<GCONST> 1.103110e+02
<STATE> 3
<MEAN> 39
 -8.046623e+00 8.308173e-01 1.572362e+00 6.884584e-01 -1.689745e+00 -5.963444e-01 -5.057447e+00 4.274530e-01 1.044007e+00 1.815348e+00 1.131946e+00 -1.663678e-01 1.481785e+01 -8.800970e-04 8.516366e-04 3.908550e-04 1.173900e-04 3.632437e-04 -6.040288e-05 2.051160e-04 -1.237972e-05 1.841020e-04 1.348356e-04 2.088228e-04 4.859177e-04 -4.591572e-04 2.215662e-06 1.214078e-05 1.389184e-05 5.318627e-06 -4.651975e-06 -1.117730e-05 -5.134260e-06 -3.183479e-05 -2.693801e-05 1.361152e-05 -1.081114e-05 1.095543e-05 -6.694489e-08
<VARIANCE> 39
 9.779420e+01 3.955471e+01 5.670525e+01 5.334261e+01 4.673130e+01 5.308268e+01 6.917525e+01 4.328714e+01 4.111082e+01 3.607991e+01 4.070479e+01 3.495797e+01 2.242570e+01 6.788408e-01 1.107728e+00 1.284289e+00 1.857434e+00 2.179232e+00 2.667574e+00 2.959507e+00 2.670157e+00 2.817916e+00 2.890343e+00 2.660513e+00 2.277554e+00 4.218654e-02 1.012108e-01 2.063009e-01 2.527454e-01 3.745323e-01 4.484525e-01 5.456897e-01 6.045775e-01 5.565699e-01 5.835368e-01 6.024919e-01 5.538866e-01 4.771975e-01 5.591070e-03
<GCONST> 1.103050e+02
<STATE> 4
<MEAN> 39
 -8.048854e+00 8.330855e-01 1.573441e+00 6.887664e-01 -1.688851e+00 -5.965274e-01 -5.056918e+00 4.273505e-01 1.044429e+00 1.815682e+00 1.132470e+00 -1.650194e-01 1.481669e+01 -8.689728e-04 8.906191e-04 4.230328e-04 1.307078e-04 3.281026e-04 -1.002486e-04 1.996854e-04 -1.021475e-04 1.290431e-04 1.584572e-04 2.034675e-04 5.105311e-04 -4.596384e-04 4.357613e-06 1.160270e-05 3.109466e-06 3.056019e-06 -1.129698e-05 -1.499213e-05 -2.299537e-07 -3.860130e-05 -6.283791e-06 1.935638e-05 1.341760e-06 2.131860e-06 -8.678886e-07
<VARIANCE> 39
 9.779387e+01 3.955102e+01 5.669957e+01 5.334176e+01 4.672148e+01 5.306981e+01 6.916233e+01 4.327377e+01 4.110394e+01 3.607221e+01 4.069968e+01 3.495449e+01 2.242944e+01 6.786931e-01 1.107398e+00 1.284347e+00 1.857222e+00 2.179037e+00 2.666811e+00 2.958999e+00 2.669842e+00 2.817259e+00 2.889306e+00 2.659897e+00 2.277373e+00 4.218474e-02 1.011782e-01 2.062393e-01 2.527631e-01 3.744998e-01 4.484363e-01 5.455331e-01 6.044652e-01 5.565107e-01 5.833929e-01 6.022568e-01 5.537986e-01 4.771595e-01 5.591231e-03
<GCONST> 1.102991e+02
<TRANSP> 5
 0.000000e+00 1.000000e+00 0.000000e+00 0.000000e+00 0.000000e+00
 0.000000e+00 6.161535e-01 3.838465e-01 0.000000e+00 0.000000e+00
 0.000000e+00 0.000000e+00 6.161541e-01 3.838459e-01 0.000000e+00
 0.000000e+00 0.000000e+00 0.000000e+00 6.161570e-01 3.838430e-01
 0.000000e+00 0.000000e+00 0.000000e+00 0.000000e+00 0.000000e+00
<ENDHMM>
~h "aa"
<BEGINHMM>
<NUMSTATES> 5
<STATE> 2
<MEAN> 39
 -8.451821e+00 8.846111e-01 1.100669e+00 9.587196e-02 -1.085120e+00 1.172622e-01 -4.741416e+00 1.427633e-01 1.490275e+00 2.158473e+00 6.944547e-01 -4.244154e-01 1.464149e+01 -4.775544e-04 6.099532e-04 3.657279e-04 5.417858e-04 -3.225753e-04 -2.879573e-04 7.718120e-05 4.027704e-04 -5.159523e-05 1.497872e-04 -1.289362e-05 2.144355e-04 -3.524781e-04 -2.461453e-05 9.766986e-06 1.706825e-06 3.660361e-05 6.471924e-05 6.034007e-05 3.062682e-05 3.339007e-05 2.150115e-05 -2.726044e-05 -2.549933e-05 -3.850303e-05 -9.433189e-06
<VARIANCE> 39
 9.222893e+01 3.988877e+01 5.440290e+01 5.662521e+01 4.412923e+01 6.063165e+01 6.486739e+01 4.126236e+01 4.028838e+01 3.653045e+01 3.812327e+01 3.653765e+01 2.246922e+01 6.696515e-01 1.128535e+00 1.326905e+00 1.940474e+00 2.200696e+00 2.705037e+00 2.933053e+00 2.700472e+00 2.891617e+00 2.960548e+00 2.672236e+00 2.284979e+00 4.325796e-02 1.015486e-01 2.104945e-01 2.614141e-01 3.930665e-01 4.513693e-01 5.503139e-01 5.987538e-01 5.599443e-01 6.017634e-01 6.167756e-01 5.605630e-01 4.801418e-01 5.745243e-03
<GCONST> 1.106156e+02
<STATE> 3
<MEAN> 39
 -8.453111e+00 8.862233e-01 1.101655e+00 9.741293e-02 -1.085774e+00 1.167001e-01 -4.741109e+00 1.439248e-01 1.490091e+00 2.158814e+00 6.944587e-01 -4.239214e-01 1.464059e+01 -5.271108e-04 6.503253e-04 3.947027e-04 6.548354e-04 -2.079292e-04 -1.697686e-04 1.826218e-04 4.846387e-04 -9.017019e-05 1.441912e-04 1.076745e-05 1.572200e-04 -3.709349e-04 -1.485109e-05 1.679627e-05 7.920321e-06 4.395800e-05 3.513901e-05 3.831045e-05 3.855927e-05 3.242765e-05 -2.327905e-05 1.160546e-06 8.209715e-06 -2.890725e-05 -5.928681e-06
<VARIANCE> 39
 9.222455e+01 3.987973e+01 5.438917e+01 5.660991e+01 4.411549e+01 6.062584e+01 6.487009e+01 4.125687e+01 4.027948e+01 3.652733e+01 3.811470e+01 3.653535e+01 2.247374e+01 6.694888e-01 1.127950e+00 1.326618e+00 1.939737e+00 2.200204e+00 2.703996e+00 2.932549e+00 2.700541e+00 2.891402e+00 2.960708e+00 2.672411e+00 2.285017e+00 4.324400e-02 1.015030e-01 2.103692e-01 2.613477e-01 3.929061e-01 4.512694e-01 5.500534e-01 5.986318e-01 5.599521e-01 6.017314e-01 6.168111e-01 5.606455e-01 4.801547e-01 5.743267e-03
<GCONST> 1.106088e+02
<STATE> 4
<MEAN> 39
 -8.454474e+00 8.880172e-01 1.102730e+00 9.930509e-02 -1.086270e+00 1.163117e-01 -4.740499e+00 1.452933e-01 1.489679e+00 2.159213e+00 6.946577e-01 -4.235642e-01 1.463963e+01 -5.341165e-04 7.100504e-04 4.085235e-04 7.629926e-04 -1.623002e-04 -1.228896e-04 2.523451e-04 5.561299e-04 -1.781050e-04 1.714383e-04 8.498749e-05 9.804216e-05 -3.754359e-04 -1.392488e-06 2.155582e-05 4.136551e-07 4.074964e-05 1.579845e-05 6.085781e-06 1.767569e-05 2.685280e-05 -2.841344e-05 1.080218e-05 2.791409e-05 -1.945062e-05 -1.055963e-06
<VARIANCE> 39
 9.221959e+01 3.986946e+01 5.437404e+01 5.659577e+01 4.410065e+01 6.061734e+01 6.487287e+01 4.125053e+01 4.027168e+01 3.652330e+01 3.810613e+01 3.653271e+01 2.247790e+01 6.692934e-01 1.127365e+00 1.326371e+00 1.938957e+00 2.199727e+00 2.702697e+00 2.932194e+00 2.700500e+00 2.891075e+00 2.960699e+00 2.672705e+00 2.285078e+00 4.323001e-02 1.014584e-01 2.102397e-01 2.612909e-01 3.927364e-01 4.511772e-01 5.497457e-01 5.985566e-01 5.599391e-01 6.016823e-01 6.168163e-01 5.607455e-01 4.801843e-01 5.741003e-03
<GCONST> 1.106016e+02
<TRANSP> 5
 0.000000e+00 1.000000e+00 0.000000e+00 0.000000e+00 0.000000e+00
 0.000000e+00 6.161551e-01 3.838449e-01 0.000000e+00 0.000000e+00
 0.000000e+00 0.000000e+00 6.161557e-01 3.838442e-01 0.000000e+00
 0.000000e+00 0.000000e+00 0.000000e+00 6.161566e-01 3.838433e-01
 0.000000e+00 0.000000e+00 0.000000e+00 0.000000e+00 0.000000e+00
<ENDHMM>
~h "ae"
<BEGINHMM>
<NUMSTATES> 5
<STATE> 2
<MEAN> 39
 -8.968819e+00 1.227167e+00 1.709896e+00 5.255102e-01 -1.376319e+00 -3.581203e-01 -4.450421e+00 2.224232e-01 1.032390e+00 1.922153e+00 9.369482e-01 -5.463367e-02 1.433043e+01 6.601643e-05 -6.414447e-06 -4.348861e-05 2.207338e-05 -6.183252e-05 3.505594e-04 -2.845397e-05 -1.057293e-04 -3.217392e-04 -2.094190e-04 -1.093453e-04 6.646793e-05 -4.646834e-05 -3.052270e-05 -5.577785e-06 5.118113e-05 5.903988e-05 8.738427e-05 1.239256e-04 1.462678e-04 5.784345e-07 -6.680420e-05 8.540968e-05 -3.584341e-06 -9.608337e-06 3.280207e-06
<VARIANCE> 39
 9.132833e+01 3.750473e+01 5.184167e+01 5.299957e+01 4.542144e+01 5.171822e+01 6.411460e+01 4.173472e+01 3.924054e+01 3.472301e+01 3.778771e+01 3.327573e+01 2.268905e+01 6.444674e-01 1.076510e+00 1.293223e+00 1.883514e+00 2.197024e+00 2.673508e+00 2.949268e+00 2.722457e+00 2.845586e+00 2.895535e+00 2.697424e+00 2.293327e+00 4.128606e-02 9.874837e-02 2.035372e-01 2.576212e-01 3.839478e-01 4.538210e-01 5.496877e-01 6.081111e-01 5.695377e-01 5.939356e-01 6.059731e-01 5.659602e-01 4.834353e-01 5.660130e-03
<GCONST> 1.098248e+02
<STATE> 3
<MEAN> 39
 -8.968819e+00 1.227167e+00 1.709896e+00 5.255102e-01 -1.376319e+00 -3.581203e-01 -4.450421e+00 2.224232e-01 1.032390e+00 1.922153e+00 9.369482e-01 -5.463367e-02 1.433043e+01 6.601643e-05 -6.414447e-06 -4.348861e-05 2.207338e-05 -6.183252e-05 3.505594e-04 -2.845397e-05 -1.057293e-04 -3.217392e-04 -2.094190e-04 -1.093453e-04 6.646793e-05 -4.646834e-05 -3.052270e-05 -5.577785e-06 5.118113e-05 5.903988e-05 8.738427e-05 1.239256e-04 1.462678e-04 5.784345e-07 -6.680420e-05 8.540968e-05 -3.584341e-06 -9.608337e-06 3.280207e-06
<VARIANCE> 39
 9.132833e+01 3.750473e+01 5.184167e+01 5.299957e+01 4.542144e+01 5.171822e+01 6.411460e+01 4.173472e+01 3.924054e+01 3.472301e+01 3.778771e+01 3.327573e+01 2.268905e+01 6.444674e-01 1.076510e+00 1.293223e+00 1.883514e+00 2.197024e+00 2.673508e+00 2.949268e+00 2.722457e+00 2.845586e+00 2.895535e+00 2.697424e+00 2.293327e+00 4.128606e-02 9.874837e-02 2.035372e-01 2.576212e-01 3.839478e-01 4.538210e-01 5.496877e-01 6.081111e-01 5.695377e-01 5.939356e-01 6.059731e-01 5.659602e-01 4.834353e-01 5.660130e-03
<GCONST> 1.098248e+02
<STATE> 4
<MEAN> 39
 -8.968819e+00 1.227167e+00 1.709896e+00 5.255102e-01 -1.376319e+00 -3.581203e-01 -4.450421e+00 2.224232e-01 1.032390e+00 1.922153e+00 9.369482e-01 -5.463367e-02 1.433043e+01 6.601643e-05 -6.414447e-06 -4.348861e-05 2.207338e-05 -6.183252e-05 3.505594e-04 -2.845397e-05 -1.057293e-04 -3.217392e-04 -2.094190e-04 -1.093453e-04 6.646793e-05 -4.646834e-05 -3.052270e-05 -5.577785e-06 5.118113e-05 5.903988e-05 8.738427e-05 1.239256e-04 1.462678e-04 5.784345e-07 -6.680420e-05 8.540968e-05 -3.584341e-06 -9.608337e-06 3.280207e-06
<VARIANCE> 39
 9.132833e+01 3.750473e+01 5.184167e+01 5.299957e+01 4.542144e+01 5.171822e+01 6.411460e+01 4.173472e+01 3.924054e+01 3.472301e+01 3.778771e+01 3.327573e+01 2.268905e+01 6.444674e-01 1.076510e+00 1.293223e+00 1.883514e+00 2.197024e+00 2.673508e+00 2.949268e+00 2.722457e+00 2.845586e+00 2.895535e+00 2.697424e+00 2.293327e+00 4.128606e-02 9.874837e-02 2.035372e-01 2.576212e-01 3.839478e-01 4.538210e-01 5.496877e-01 6.081111e-01 5.695377e-01 5.939356e-01 6.059731e-01 5.659602e-01 4.834353e-01 5.660130e-03
<GCONST> 1.098248e+02
<TRANSP> 5
 0.000000e+00 1.000000e+00 0.000000e+00 0.000000e+00 0.000000e+00
 0.000000e+00 5.000000e-01 5.000000e-01 0.000000e+00 0.000000e+00
 0.000000e+00 0.000000e+00 5.000000e-01 5.000000e-01 0.000000e+00
 0.000000e+00 0.000000e+00 0.000000e+00 5.000000e-01 5.000000e-01
 0.000000e+00 0.000000e+00 0.000000e+00 0.000000e+00 0.000000e+00
<ENDHMM>
~h "ai"
<BEGINHMM>
<NUMSTATES> 5
<STATE> 2
<MEAN> 39
