~o
<STREAMINFO> 1 39
<VECSIZE> 39<NULLD><MFCC_E_D_A><DIAGC>
~s "silst"
<NUMMIXES> 5
<MIXTURE> 1 1.372127e-01
<MEAN> 39
 -1.391854e+01 -3.687305e-02 3.541832e-02 4.106616e-01 2.958947e-01 -1.590522e+00 -1.485871e+00 -2.781720e-01 1.694548e+00 2.295046e+00 -2.294206e-02 1.478114e-01 1.142401e+01 1.434433e-01 2.910840e-01 2.710519e-01 4.070840e-01 2.783224e-01 3.209780e-01 1.501195e-01 2.492368e-01 2.247061e-01 1.279866e-01 1.995170e-01 1.222983e-01 8.192126e-03 9.597822e-02 1.387768e-01 6.934683e-02 1.253218e-01 1.064242e-01 1.706893e-01 6.142147e-02 1.218581e-02 -2.808192e-02 -9.095316e-02 -3.946729e-02 -2.443871e-02 1.547340e-02
<VARIANCE> 39
 2.200909e+01 3.514407e+01 4.090473e+01 4.119304e+01 3.856460e+01 4.905246e+01 4.130485e+01 4.075634e+01 3.620564e+01 3.567116e+01 3.643328e+01 2.949764e+01 3.107874e+00 1.160685e+00 2.100656e+00 2.320193e+00 2.969203e+00 3.077345e+00 3.444629e+00 3.691859e+00 3.658775e+00 3.326196e+00 3.621639e+00 3.436131e+00 2.843471e+00 1.229593e-01 2.442551e-01 4.909739e-01 5.854857e-01 7.523615e-01 7.411681e-01 8.444282e-01 8.732167e-01 8.707880e-01 8.121060e-01 8.542487e-01 8.143010e-01 6.980506e-01 2.070933e-02
<GCONST> 1.179753e+02
<MIXTURE> 2 1.906442e-01
<MEAN> 39
 -1.311168e+01 -8.712817e-01 -1.950927e+00 5.426000e-01 2.976522e-01 1.799528e-01 -1.586764e+00 -6.032218e-01 1.700338e+00 1.123919e+00 -9.002452e-01 -6.502463e-01 1.028319e+01 1.458570e-01 3.611174e-01 4.337228e-01 4.567785e-01 4.301133e-01 4.515960e-01 4.947971e-01 5.087537e-01 4.431011e-01 3.705350e-01 3.280878e-01 1.626375e-01 5.648898e-02 1.465523e-02 8.709356e-02 1.556335e-01 7.295123e-02 1.167779e-02 -1.572319e-02 8.876296e-03 3.078281e-02 6.778845e-02 6.724670e-02 1.070718e-01 1.977418e-02 4.059529e-02
<VARIANCE> 39
 3.937604e+00 1.775664e+01 1.772744e+01 1.734694e+01 2.338426e+01 2.664994e+01 2.754369e+01 2.927610e+01 3.489846e+01 2.978353e+01 2.603036e+01 2.218982e+01 4.700661e-01 3.488871e-01 7.977465e-01 1.246149e+00 1.816315e+00 2.386358e+00 2.805555e+00 3.059587e+00 3.195291e+00 3.812772e+00 3.755765e+00 3.279099e+00 2.827988e+00 2.280843e-02 7.092641e-02 1.654774e-01 2.535886e-01 3.919970e-01 5.161083e-01 6.089999e-01 6.708896e-01 7.332948e-01 8.520854e-01 8.363609e-01 7.068061e-01 6.220518e-01 3.870811e-03
<GCONST> 9.682317e+01
<MIXTURE> 3 3.182135e-01
<MEAN> 39
 -1.272374e+01 4.944997e-01 -2.542844e-01 9.744909e-01 -5.039547e-01 -6.821930e-01 -2.116739e+00 -6.349500e-01 2.530678e+00 2.286908e+00 5.054877e-01 -5.081292e-01 1.058694e+01 -1.885536e-01 -2.875028e-01 -3.682498e-01 -4.069847e-01 -4.049472e-01 -2.948233e-01 -2.793949e-01 -2.655104e-01 -1.802790e-01 -1.138052e-01 -2.900118e-02 3.569819e-02 -7.844408e-02 -1.084855e-01 -1.276809e-01 -6.630604e-02 -3.510087e-03 7.460284e-02 6.690773e-02 6.854641e-02 9.904812e-03 -1.227301e-01 -1.369484e-01 -1.039421e-01 1.113130e-02 -2.920266e-02
<VARIANCE> 39
 3.668984e+00 1.908360e+01 1.503298e+01 1.617876e+01 2.174649e+01 2.358434e+01 2.578944e+01 2.802789e+01 3.362309e+01 2.901517e+01 2.702921e+01 2.347036e+01 4.328003e-01 3.809650e-01 8.405411e-01 1.288428e+00 1.941674e+00 2.425850e+00 2.964535e+00 3.178024e+00 3.351896e+00 3.716992e+00 3.857322e+00 3.340721e+00 2.914441e+00 1.973530e-02 7.334971e-02 1.777114e-01 2.776585e-01 4.166596e-01 5.116874e-01 6.034625e-01 6.608753e-01 7.379521e-01 8.280072e-01 8.281028e-01 7.069386e-01 6.528547e-01 3.318025e-03
<GCONST> 9.662251e+01
<MIXTURE> 4 2.070149e-01
<MEAN> 39
 -1.338791e+01 -1.970828e+00 -2.005261e+00 4.105209e-01 6.116995e-01 9.532803e-01 -1.440674e+00 -1.059831e+00 1.594546e+00 4.786229e-02 -1.987763e+00 -1.322573e+00 1.022605e+01 8.750018e-03 6.295677e-02 6.913263e-02 9.495968e-02 5.250474e-02 -1.205163e-03 -4.585099e-02 -7.266262e-02 -1.267572e-01 -1.555087e-01 -1.979886e-01 -1.740591e-01 -1.601084e-02 1.687989e-02 7.487199e-02 8.756310e-02 -1.112401e-02 -1.282466e-01 -1.963508e-01 -1.288658e-01 1.350123e-02 1.257355e-01 2.306152e-01 2.306797e-01 7.736418e-02 1.247202e-02
<VARIANCE> 39
 3.778188e+00 1.541113e+01 1.636233e+01 1.670608e+01 2.423323e+01 2.618167e+01 2.742054e+01 2.847759e+01 3.588874e+01 3.004083e+01 2.585605e+01 2.156841e+01 3.089049e-01 3.266525e-01 7.310447e-01 1.176225e+00 1.798226e+00 2.376017e+00 2.797230e+00 3.047599e+00 3.317934e+00 3.679713e+00 3.821147e+00 3.214486e+00 2.799521e+00 1.466490e-02 7.184403e-02 1.620682e-01 2.679433e-01 4.247454e-01 5.461336e-01 6.460408e-01 6.837932e-01 7.528756e-01 8.123209e-01 8.401030e-01 7.036369e-01 6.177749e-01 2.603259e-03
<GCONST> 9.524230e+01
<MIXTURE> 5 1.468769e-01
<MEAN> 39
 -1.425495e+01 -7.005808e-01 -1.651482e-01 3.416061e-01 8.961535e-01 -1.383628e+00 -1.362906e+00 -3.427560e-01 1.227897e+00 1.746226e+00 7.489188e-02 7.437411e-02 1.138244e+01 -1.167313e-01 -4.165004e-01 -3.527738e-01 -3.916433e-01 -2.300090e-01 -3.330629e-01 -2.828136e-01 -4.029165e-01 -3.981111e-01 -2.778951e-01 -3.441322e-01 -2.070158e-01 -1.476170e-02 9.700498e-02 1.448532e-01 1.894667e-02 1.078615e-01 -4.053487e-03 7.978185e-02 -1.428209e-02 -6.093127e-03 2.411126e-02 -1.869024e-02 -5.819657e-02 -6.518791e-02 -2.970775e-02
<VARIANCE> 39
 2.190934e+01 3.695929e+01 3.687510e+01 3.995214e+01 3.836055e+01 4.344898e+01 3.972305e+01 3.831021e+01 3.329032e+01 3.223116e+01 3.254342e+01 2.495547e+01 2.060479e+00 1.498980e+00 2.727900e+00 2.632682e+00 3.396994e+00 3.367994e+00 3.924687e+00 3.767199e+00 3.763798e+00 3.495540e+00 3.638184e+00 3.435870e+00 2.892158e+00 1.518061e-01 2.913518e-01 5.529187e-01 5.903078e-01 7.871568e-01 7.812966e-01 8.423586e-01 8.887678e-01 8.248715e-01 7.858452e-01 7.993488e-01 7.741570e-01 6.354973e-01 1.903526e-02
<GCONST> 1.181461e+02
~h "@"
<BEGINHMM>
<NUMSTATES> 5
<STATE> 2
<NUMMIXES> 5
<MIXTURE> 1 1.365482e-01
<MEAN> 39
 7.282016e-01 -3.095704e+00 5.359522e+00 -3.031295e+00 -6.782657e+00 -7.447087e+00 -2.105804e+01 2.179896e+00 6.951138e+00 7.192095e+00 -2.905121e+00 3.427165e+00 2.013285e+01 -2.453064e-01 1.016989e+00 4.111242e-01 -2.843933e-03 5.301012e-03 -7.093343e-01 5.884814e-01 5.107446e-02 1.391147e+00 4.702263e-01 -3.675026e-01 6.842753e-01 -1.843911e-02 7.663199e-02 2.414688e-01 1.573719e-02 3.026939e-01 3.359944e-01 5.030246e-01 7.542295e-01 -1.814965e-02 -4.023440e-01 -3.850048e-01 -8.032197e-02 -2.761238e-01 -6.677498e-03
<VARIANCE> 39
 4.811580e+00 1.881032e+01 3.994481e+01 2.836677e+01 3.313419e+01 4.093753e+01 4.830651e+01 3.547675e+01 3.857297e+01 4.387985e+01 2.900981e+01 2.877220e+01 2.315215e-01 3.962796e-01 7.587066e-01 8.958821e-01 1.270750e+00 1.988747e+00 2.545910e+00 3.246049e+00 1.545502e+00 2.072895e+00 1.929666e+00 1.614192e+00 1.444586e+00 4.227366e-03 4.642886e-02 1.478186e-01 1.612672e-01 2.121479e-01 3.053182e-01 4.422195e-01 4.383883e-01 2.842539e-01 4.610195e-01 3.300425e-01 3.039161e-01 2.533467e-01 2.475771e-04
<GCONST> 8.430952e+01
<MIXTURE> 2 2.092235e-01
<MEAN> 39
 1.877246e+00 -2.410739e+00 4.126457e+00 -1.126938e+00 -3.510811e+00 -1.324018e+00 -1.408178e+01 1.986010e+00 1.571761e+00 2.381922e+00 -2.999962e+00 -8.298060e-01 2.006828e+01 1.682934e-01 -5.988626e-01 -1.066214e-01 -4.348576e-01 -4.466508e-01 -2.233892e-01 -1.083248e+00 1.554232e-01 -6.661082e-02 4.710562e-01 3.120304e-01 1.753376e-01 5.324566e-03 -1.463827e-01 2.032408e-01 5.606484e-02 -1.164890e-01 -5.053476e-02 -3.383969e-01 4.500497e-02 -7.297552e-02 3.253798e-01 2.326822e-01 -2.974506e-02 1.532064e-01 -1.371303e-02
<VARIANCE> 39
 9.484665e+00 3.080199e+01 3.938539e+01 3.019961e+01 4.152683e+01 3.979585e+01 6.445412e+01 3.274996e+01 2.623201e+01 2.979442e+01 3.115099e+01 2.170257e+01 4.055140e-01 7.783578e-01 8.316061e-01 1.065956e+00 1.385794e+00 1.973301e+00 2.594779e+00 3.363929e+00 2.011410e+00 2.656531e+00 2.219510e+00 1.604878e+00 1.422335e+00 9.276369e-03 8.637873e-02 1.950145e-01 2.049454e-01 2.871613e-01 4.228673e-01 4.096929e-01 7.316563e-01 3.655858e-01 4.076902e-01 4.010688e-01 3.243773e-01 2.865837e-01 5.905021e-04
<GCONST> 9.158618e+01
<MIXTURE> 3 2.935286e-01
<MEAN> 39
 3.088790e-01 3.629843e-02 6.182882e+00 -1.285821e+00 -5.665932e+00 -6.644654e+00 -1.288150e+01 3.351294e+00 7.056226e+00 3.799877e+00 -5.398128e+00 2.690502e+00 2.017969e+01 2.088960e-01 2.253050e-01 2.722175e-02 5.131335e-01 6.940094e-01 1.231528e+00 9.822999e-01 -1.513731e-01 -8.263176e-01 -7.177719e-01 -2.973548e-01 -5.480578e-01 -2.055740e-02 8.618280e-02 -2.836686e-01 -1.118031e-01 -3.079796e-02 1.821905e-03 2.146579e-01 -3.212551e-01 -4.392044e-02 -3.926495e-01 -2.284636e-02 2.256950e-01 -2.003085e-01 -5.978778e-03
<VARIANCE> 39
 7.256187e+00 1.921189e+01 3.639451e+01 2.250382e+01 3.595417e+01 3.433450e+01 5.957880e+01 2.879401e+01 3.404998e+01 3.296642e+01 3.458612e+01 2.765668e+01 2.950468e-01 2.978049e-01 6.770774e-01 8.404416e-01 1.066665e+00 1.355953e+00 1.903497e+00 2.294516e+00 1.741181e+00 1.904620e+00 1.522118e+00 1.497944e+00 1.444492e+00 2.587733e-03 1.148462e-01 1.297510e-01 1.405853e-01 1.906068e-01 2.841200e-01 4.201063e-01 4.498442e-01 2.405540e-01 2.844090e-01 2.590810e-01 2.552770e-01 1.949604e-01 2.281504e-04
<GCONST> 8.088768e+01
<MIXTURE> 4 2.205384e-01
<MEAN> 39
 1.885611e+00 -2.512399e+00 4.004647e+00 -9.018620e-01 -3.615280e+00 -9.793396e-01 -1.280236e+01 2.272938e+00 1.866196e+00 2.581153e+00 -4.137074e+00 -1.123259e+00 1.988121e+01 1.869086e-01 -8.551324e-01 -3.734124e-01 -5.363590e-01 -4.004655e-01 -9.335140e-02 -1.254732e+00 -5.382540e-02 -3.922092e-01 5.173358e-01 4.872485e-01 -1.341882e-01 2.084612e-03 -2.329810e-01 1.584967e-01 2.125805e-02 -1.839325e-01 -1.253795e-01 -4.928404e-01 -8.460912e-02 -5.157270e-02 4.953133e-01 2.463074e-01 -1.578631e-02 2.515095e-01 -2.105393e-02
<VARIANCE> 39
 8.427294e+00 2.427029e+01 3.384684e+01 2.870054e+01 3.474205e+01 3.415040e+01 5.104775e+01 2.992390e+01 2.376587e+01 2.219163e+01 2.309269e+01 1.851064e+01 6.371251e-01 6.991029e-01 8.519409e-01 1.080185e+00 1.552857e+00 1.837360e+00 2.805825e+00 2.536540e+00 1.804020e+00 2.500152e+00 1.984063e+00 1.561487e+00 1.280834e+00 1.170045e-02 9.157345e-02 2.003862e-01 2.076612e-01 2.981968e-01 3.732880e-01 4.743719e-01 6.614656e-01 3.652348e-01 4.018564e-01 4.088973e-01 3.423959e-01 3.283033e-01 1.051122e-03
<GCONST> 9.038719e+01
<MIXTURE> 5 1.401613e-01
<MEAN> 39
 9.841298e-01 -4.893707e+00 3.704309e+00 -4.650558e+00 -6.536229e+00 -5.521070e+00 -1.796643e+01 4.679099e+00 5.830657e+00 7.157527e+00 -3.186908e+00 7.148120e-01 2.008532e+01 -5.145289e-01 5.899807e-01 1.865814e-01 -1.983459e-01 -2.259606e-01 -9.994545e-01 4.743847e-01 1.370605e-02 1.403585e+00 5.387738e-01 -5.299193e-01 5.473075e-01 -2.474307e-02 -4.156146e-02 3.491294e-01 8.482315e-02 3.478332e-01 3.033576e-01 3.215239e-01 7.424624e-01 -2.182246e-01 -7.855090e-02 -3.910535e-01 -1.962615e-01 -8.283081e-02 -8.560799e-03
<VARIANCE> 39
 5.781539e+00 2.080645e+01 4.024393e+01 2.801775e+01 3.378152e+01 4.113586e+01 5.993806e+01 4.219693e+01 4.233262e+01 3.274323e+01 3.075686e+01 3.758154e+01 2.396383e-01 6.421672e-01 8.576487e-01 8.566311e-01 1.297923e+00 1.756338e+00 2.165435e+00 3.258373e+00 1.631282e+00 1.868074e+00 1.844048e+00 1.707129e+00 1.262302e+00 3.662276e-03 7.726718e-02 1.337293e-01 1.583517e-01 2.233277e-01 3.314683e-01 4.122616e-01 4.483814e-01 3.622479e-01 4.275638e-01 2.817230e-01 3.281608e-01 2.523115e-01 2.747218e-04
<GCONST> 8.580667e+01
<STATE> 3
<NUMMIXES> 5
<MIXTURE> 1 2.282917e-01
<MEAN> 39
 -1.164918e+00 2.197227e+00 5.613855e+00 -1.231656e+00 -4.247281e+00 -6.271512e+00 -1.279314e+01 -2.252578e+00 5.975546e+00 5.872520e+00 -3.450192e+00 2.288888e+00 1.889779e+01 -6.654622e-01 7.649744e-01 3.942712e-01 9.638016e-01 1.473081e+00 6.484767e-01 2.059794e+00 7.500125e-02 6.945544e-01 -5.460355e-01 -2.215137e-01 -2.765079e-01 -1.317374e-01 2.286310e-01 1.010477e-01 3.187335e-02 2.118723e-01 2.983570e-01 5.310984e-01 2.975937e-01 1.831495e-01 -4.208288e-01 -3.068417e-01 -6.426971e-02 -2.756272e-01 1.100438e-02
<VARIANCE> 39
 1.566345e+01 1.915956e+01 2.682715e+01 3.567752e+01 4.651579e+01 4.916852e+01 7.077517e+01 5.610489e+01 4.403833e+01 5.194560e+01 2.624520e+01 2.070207e+01 7.839052e-01 9.706665e-01 1.731590e+00 1.395538e+00 2.253115e+00 2.522048e+00 3.406912e+00 3.314816e+00 2.424201e+00 3.698631e+00 3.447347e+00 2.527497e+00 1.965366e+00 2.066044e-02 1.705192e-01 2.559384e-01 2.632441e-01 4.752994e-01 6.021601e-01 6.508768e-01 9.008982e-01 4.237912e-01 6.813658e-01 7.206133e-01 4.573004e-01 3.295232e-01 1.445606e-03
<GCONST> 1.039723e+02
<MIXTURE> 2 1.331108e-01
<MEAN> 39
 4.700693e+00 6.545341e+00 4.701949e+00 6.713773e-01 2.571784e+00 3.008183e+00 -1.099353e+01 -1.001875e+01 -7.660679e-01 3.839669e+00 -2.364296e+00 -1.721380e+00 1.859205e+01 -1.969503e-01 9.154626e-01 4.214363e-01 4.615837e-01 3.265140e-01 -2.313713e-01 3.867042e-01 1.240657e-01 3.445990e-01 -2.642259e-02 1.138108e-01 1.762349e-01 -1.501407e-01 1.878048e-02 -1.775236e-02 -2.442605e-02 -4.362002e-02 -1.357437e-01 -7.333191e-02 -1.082403e-01 2.198417e-01 2.304231e-01 2.260536e-01 1.108387e-01 7.784272e-02 1.525353e-02
<VARIANCE> 39
 5.785649e+00 2.217451e+01 2.770096e+01 3.115261e+01 2.710185e+01 3.887299e+01 2.891326e+01 4.544659e+01 2.852211e+01 3.816497e+01 4.007044e+01 4.007547e+01 9.671530e-01 2.928687e-01 1.067375e+00 1.048126e+00 1.426055e+00 1.811596e+00 2.104529e+00 2.693170e+00 3.543833e+00 2.911883e+00 3.844057e+00 3.488310e+00 3.649887e+00 1.042696e-02 5.905229e-02 2.249577e-01 2.641572e-01 3.734802e-01 4.999455e-01 4.523084e-01 6.345696e-01 6.519490e-01 5.794499e-01 7.589579e-01 7.177719e-01 6.477594e-01 1.319092e-03
<GCONST> 9.777797e+01
<MIXTURE> 3 2.804501e-01
<MEAN> 39
 7.183782e-01 3.071974e+00 4.879713e+00 -1.313902e+00 -4.635025e+00 -3.938815e+00 -1.146141e+01 -3.501312e-01 2.368514e+00 4.515659e+00 -3.183660e+00 5.279716e-02 1.899637e+01 1.850270e-01 1.489446e-02 -3.962595e-01 -1.019190e+00 -8.510231e-01 -1.017848e+00 -8.825052e-01 -3.342821e-01 -2.933309e-01 7.913533e-01 2.929952e-01 2.324055e-01 -4.651242e-02 -3.796013e-01 -8.851160e-02 8.642668e-02 1.801401e-01 1.402612e-01 -1.557638e-01 3.459867e-01 -5.254523e-02 2.346142e-01 -1.141972e-01 2.091401e-02 1.849696e-01 -3.691219e-02
<VARIANCE> 39
 9.475539e+00 2.540576e+01 2.790352e+01 4.278052e+01 5.429779e+01 4.686574e+01 5.860825e+01 6.741623e+01 6.419956e+01 4.091290e+01 5.383169e+01 2.898242e+01 8.187849e-01 1.028334e+00 9.989908e-01 1.148404e+00 1.636537e+00 2.093132e+00 3.260513e+00 2.331538e+00 2.163388e+00 2.576563e+00 2.345788e+00 2.165029e+00 2.031014e+00 1.908367e-02 1.261020e-01 2.800291e-01 2.643550e-01 6.211908e-01 7.428936e-01 7.796378e-01 8.207732e-01 4.885698e-01 7.629983e-01 6.979048e-01 5.791378e-01 4.600569e-01 1.086944e-03
<GCONST> 1.035259e+02
<MIXTURE> 4 2.221267e-01
<MEAN> 39
 -1.658828e+00 2.702844e+00 5.404805e+00 -3.688857e-01 -1.286235e+00 -4.041142e+00 -1.083364e+01 -8.355021e-01 7.095543e+00 4.581593e+00 -4.272402e+00 1.823723e+00 1.898799e+01 -1.800403e-01 5.182673e-01 1.459911e-01 6.323763e-01 1.305506e+00 9.096517e-01 1.481748e+00 2.518229e-02 -2.659517e-01 -6.281453e-01 -3.343809e-01 -6.438640e-01 -8.149599e-02 2.229443e-01 -4.176730e-02 -1.117175e-01 -1.323907e-01 -1.232549e-01 1.043212e-01 -1.874544e-01 -2.804128e-02 -4.725912e-01 -1.676691e-02 3.899890e-02 -2.309389e-01 4.556377e-03
<VARIANCE> 39
 1.604140e+01 2.760125e+01 2.802558e+01 4.131815e+01 4.840376e+01 5.144475e+01 5.558469e+01 5.380951e+01 5.322522e+01 3.804358e+01 2.686157e+01 2.339312e+01 8.716196e-01 1.252364e+00 1.832210e+00 1.335614e+00 2.107596e+00 2.362031e+00 2.898535e+00 3.795871e+00 2.703268e+00 3.964820e+00 3.341026e+00 2.481791e+00 1.943848e+00 2.105270e-02 1.909467e-01 2.991539e-01 2.418038e-01 5.703471e-01 6.788716e-01 8.481921e-01 8.872879e-01 4.149387e-01 6.682225e-01 6.463692e-01 4.510153e-01 3.784149e-01 9.125898e-04
<GCONST> 1.049797e+02
<MIXTURE> 5 1.360205e-01
<MEAN> 39
 4.489072e+00 5.900041e+00 4.212864e+00 5.131273e-01 2.450873e+00 3.117150e+00 -1.136238e+01 -7.977822e+00 -2.089606e-01 4.209090e+00 -1.340812e+00 -1.921407e+00 1.871709e+01 -1.850727e-01 2.087003e-01 -4.196191e-01 -2.773466e-01 8.354505e-02 1.876264e-01 1.635721e-01 -4.933531e-01 -8.554472e-01 -6.187994e-01 -3.689427e-02 -3.688565e-01 -1.583035e-01 -1.547097e-01 -4.174259e-02 -1.099322e-02 -9.024129e-02 -1.372661e-01 -2.720227e-01 -2.158774e-01 8.578470e-02 2.755949e-01 7.301182e-02 -2.190067e-02 1.984950e-01 -1.355721e-02
<VARIANCE> 39
 8.175074e+00 2.234374e+01 2.758449e+01 3.857207e+01 2.674192e+01 4.254286e+01 2.441226e+01 3.735119e+01 3.546387e+01 3.312418e+01 3.412517e+01 3.525219e+01 1.262470e+00 3.112667e-01 6.924738e-01 1.110120e+00 1.677096e+00 2.120178e+00 2.604172e+00 3.018150e+00 3.017151e+00 3.189579e+00 3.815059e+00 3.021379e+00 2.431979e+00 1.332278e-02 5.756425e-02 1.823415e-01 2.746551e-01 2.866599e-01 4.239747e-01 5.580057e-01 5.718930e-01 6.440460e-01 6.579927e-01 7.683212e-01 6.612700e-01 6.188152e-01 1.147571e-03
<GCONST> 9.739629e+01
<STATE> 4
<NUMMIXES> 5
<MIXTURE> 1 2.418819e-01
<MEAN> 39
 -3.937238e-01 -7.088829e-01 -3.497156e+00 -1.057584e+01 5.667483e-01 4.096630e+00 -1.048738e+01 2.159235e-01 7.916734e+00 1.233911e+01 -4.625605e+00 -4.904203e+00 1.864497e+01 -3.817872e-01 6.400964e-01 4.509022e-01 9.998827e-01 6.370978e-01 2.454630e-01 1.059439e+00 -3.315050e-01 1.266755e-01 -8.949716e-01 -3.297457e-01 2.593077e-01 -8.242938e-02 8.964264e-03 4.340961e-03 2.612776e-01 5.555410e-01 1.264788e-01 2.133947e-01 3.521117e-01 -1.190226e-02 -4.897824e-01 -6.693128e-01 5.451464e-04 2.702492e-01 1.024029e-02
<VARIANCE> 39
 1.306179e+01 2.368304e+01 2.787466e+01 1.020344e+02 4.561277e+01 9.359330e+01 6.834514e+01 6.087008e+01 5.601557e+01 5.616438e+01 7.326401e+01 4.085152e+01 2.837440e+00 8.690875e-01 1.350731e+00 1.441778e+00 3.218254e+00 2.448236e+00 2.976839e+00 2.888262e+00 3.023679e+00 4.340986e+00 4.219223e+00 2.783162e+00 2.821700e+00 2.856736e-02 1.365392e-01 2.824419e-01 2.586385e-01 6.833373e-01 5.142977e-01 6.977752e-01 7.417763e-01 6.154584e-01 8.171545e-01 8.401356e-01 7.548479e-01 5.782955e-01 4.446534e-03
<GCONST> 1.130015e+02
<MIXTURE> 2 1.774444e-01
<MEAN> 39
 -4.263838e-01 1.888364e-01 -3.152764e+00 -6.490774e+00 4.274162e+00 7.199729e+00 -7.569207e+00 -1.620823e+00 1.995821e+00 6.092847e+00 -3.562269e+00 -2.018352e+00 1.837222e+01 2.779082e-01 -1.183291e-01 -3.517866e-01 -9.492928e-01 -5.083256e-01 -3.301788e-01 -9.049546e-01 8.405677e-02 2.108713e-01 8.286932e-01 6.181093e-01 1.600272e-01 6.818630e-03 -8.027972e-02 5.169389e-02 7.175851e-02 -3.439336e-02 -4.416548e-02 -8.506152e-02 5.266187e-02 7.256089e-02 3.305945e-01 2.441889e-02 -6.026457e-02 -6.743552e-02 -1.272280e-02
<VARIANCE> 39
 2.014202e+01 3.377255e+01 2.174749e+01 9.351917e+01 5.584238e+01 5.058237e+01 6.324252e+01 4.325013e+01 2.693400e+01 5.397769e+01 3.608688e+01 3.059326e+01 3.581786e+00 7.963904e-01 1.142475e+00 1.623218e+00 2.760998e+00 2.841425e+00 2.747676e+00 2.757048e+00 3.111135e+00 3.140832e+00 3.447110e+00 2.184425e+00 2.349897e+00 4.543412e-02 1.242780e-01 2.850763e-01 3.312871e-01 6.847031e-01 6.481286e-01 5.566295e-01 5.834593e-01 6.369419e-01 5.356618e-01 7.657896e-01 4.650693e-01 4.779546e-01 1.539686e-03
<GCONST> 1.080737e+02
<MIXTURE> 3 2.134716e-01
<MEAN> 39
 -1.355602e+00 4.928567e-01 3.591794e+00 8.038964e-01 3.465528e-01 -1.203090e-01 -2.691012e+00 1.420730e+00 3.477458e+00 2.327389e+00 -6.249821e+00 -2.513028e+00 1.882355e+01 1.726647e-01 1.760910e-01 1.535103e-01 8.277667e-01 6.386577e-01 7.633823e-01 6.535568e-01 -2.994190e-01 -5.866852e-01 -3.910017e-01 2.537975e-01 -1.268367e-01 -2.221577e-02 2.531882e-01 -5.460347e-02 -1.831724e-01 -2.246592e-01 -1.872794e-01 -1.592239e-01 -5.101192e-01 2.145488e-02 -1.389548e-01 3.490821e-01 1.786298e-01 1.241643e-01 1.477442e-02
<VARIANCE> 39
 1.508410e+01 2.413833e+01 4.721335e+01 3.968677e+01 6.740847e+01 4.511897e+01 5.559512e+01 4.160846e+01 4.024713e+01 3.084488e+01 5.961357e+01 2.077604e+01 1.047978e+00 6.215219e-01 9.157996e-01 1.253057e+00 2.057247e+00 2.309601e+00 2.515912e+00 2.412320e+00 2.615007e+00 2.630122e+00 2.776983e+00 2.110846e+00 2.074945e+00 9.751434e-03 2.124992e-01 2.753559e-01 3.171675e-01 4.956674e-01 5.788656e-01 5.738424e-01 7.255535e-01 5.486857e-01 5.055119e-01 6.021831e-01 4.332896e-01 2.979063e-01 9.993127e-04
<GCONST> 1.011325e+02
<MIXTURE> 4 1.619425e-01
<MEAN> 39
 -1.293550e+00 -1.481751e+00 -3.301100e+00 -3.581451e+00 3.396416e+00 4.904436e+00 -4.591786e+00 2.748025e-01 2.883940e+00 6.008893e+00 -6.577789e+00 -2.417811e+00 1.730034e+01 2.173797e-02 -5.480810e-01 -5.556128e-01 -1.398418e+00 -7.563766e-01 -4.803480e-01 -1.027182e+00 1.773774e-01 3.184837e-01 1.007165e+00 3.189150e-01 -9.268528e-02 -4.687595e-02 -2.071484e-01 8.187325e-02 -6.868066e-03 2.737575e-02 3.011204e-02 -1.451019e-01 -3.481608e-02 -5.196326e-02 4.875543e-01 1.353939e-01 -1.022885e-01 -2.263879e-01 -4.395473e-02
<VARIANCE> 39
 1.527118e+01 2.572434e+01 2.011171e+01 8.654119e+01 4.548213e+01 5.632030e+01 6.470508e+01 3.019484e+01 2.889611e+01 4.303980e+01 2.613766e+01 2.656677e+01 4.790647e+00 6.644009e-01 1.356816e+00 1.482629e+00 2.997250e+00 2.729934e+00 2.814692e+00 2.703122e+00 2.635651e+00 4.084117e+00 4.334025e+00 2.733398e+00 3.071064e+00 6.469128e-02 1.433600e-01 3.495175e-01 3.480339e-01 6.886184e-01 6.103800e-01 5.333368e-01 5.656899e-01 6.053426e-01 7.685047e-01 8.839083e-01 5.605295e-01 5.886881e-01 3.955445e-03
<GCONST> 1.097833e+02
<MIXTURE> 5 2.052608e-01
<MEAN> 39
 -1.440514e+00 1.023254e+00 2.303955e+00 1.769391e+00 3.717767e+00 1.063671e+00 -5.077209e+00 1.263268e+00 4.457458e+00 2.331746e+00 -5.884195e+00 -1.312433e+00 1.859748e+01 6.794041e-02 -1.939013e-01 -2.862480e-01 3.173216e-01 4.413573e-01 3.034847e-01 4.349295e-01 -1.681726e-01 -1.175824e+00 -5.320879e-01 1.682474e-01 -1.144762e-01 -6.291563e-02 4.442083e-02 -1.717456e-01 -1.145127e-01 -3.180774e-01 -3.278989e-01 -2.820920e-01 -4.868470e-01 -5.827729e-02 -4.235773e-02 4.200674e-01 -2.497155e-02 4.950547e-03 -6.319959e-03
<VARIANCE> 39
 1.098574e+01 2.330133e+01 3.523819e+01 4.091780e+01 5.864650e+01 4.608511e+01 5.488654e+01 3.432292e+01 3.146022e+01 2.649487e+01 3.738971e+01 2.503865e+01 1.525775e+00 5.898957e-01 9.218855e-01 1.285250e+00 1.890399e+00 2.082957e+00 2.691570e+00 3.025124e+00 2.543136e+00 2.806504e+00 3.250095e+00 2.126694e+00 2.312312e+00 1.514996e-02 1.089159e-01 1.683858e-01 2.806364e-01 4.300837e-01 4.304592e-01 5.179623e-01 7.211530e-01 5.590802e-01 5.800478e-01 6.395807e-01 4.464508e-01 3.903353e-01 8.111077e-04
<GCONST> 9.920750e+01
<TRANSP> 5
 0.000000e+00 1.000000e+00 0.000000e+00 0.000000e+00 0.000000e+00
 0.000000e+00 8.635435e-01 1.364565e-01 0.000000e+00 0.000000e+00
 0.000000e+00 0.000000e+00 7.721114e-01 2.278887e-01 0.000000e+00
 0.000000e+00 0.000000e+00 0.000000e+00 7.674602e-01 2.325398e-01
 0.000000e+00 0.000000e+00 0.000000e+00 0.000000e+00 0.000000e+00
<ENDHMM>
~h "Q"
<BEGINHMM>
<NUMSTATES> 5
<STATE> 2
<NUMMIXES> 5
<MIXTURE> 1 1.250000e-01
<MEAN> 39
 -3.234866e+00 4.901633e+00 6.029965e+00 4.893558e+00 2.667407e+00 3.956803e+00 3.538748e-01 4.098568e+00 4.790926e+00 5.457726e+00 4.625250e+00 3.406473e+00 1.718841e+01 4.817384e-01 6.225236e-01 6.822762e-01 8.234693e-01 8.892800e-01 9.814025e-01 1.030377e+00 9.898865e-01 1.011810e+00 1.020767e+00 9.853208e-01 9.086906e-01 1.218674e-01 1.885150e-01 2.706850e-01 3.045896e-01 3.718402e-01 4.042849e-01 4.449695e-01 4.680352e-01 4.528068e-01 4.623364e-01 4.671512e-01 4.513784e-01 4.171674e-01 4.514359e-02
<VARIANCE> 39
 9.132833e+01 3.750473e+01 5.184167e+01 5.299957e+01 4.542144e+01 5.171822e+01 6.411460e+01 4.173472e+01 3.924054e+01 3.472301e+01 3.778771e+01 3.327573e+01 2.268905e+01 6.444674e-01 1.076510e+00 1.293223e+00 1.883514e+00 2.197024e+00 2.673508e+00 2.949268e+00 2.722457e+00 2.845586e+00 2.895535e+00 2.697424e+00 2.293327e+00 4.128606e-02 9.874837e-02 2.035372e-01 2.576212e-01 3.839478e-01 4.538210e-01 5.496877e-01 6.081111e-01 5.695377e-01 5.939356e-01 6.059731e-01 5.659602e-01 4.834353e-01 5.660130e-03
<GCONST> 1.098248e+02
<MIXTURE> 2 2.500000e-01
<MEAN> 39
 -8.968823e+00 1.227167e+00 1.709896e+00 5.255102e-01 -1.376319e+00 -3.581203e-01 -4.450421e+00 2.224233e-01 1.032390e+00 1.922153e+00 9.369481e-01 -5.463362e-02 1.433043e+01 6.596744e-05 -6.407499e-06 -4.348159e-05 2.208352e-05 -6.183982e-05 3.505945e-04 -2.843142e-05 -1.057088e-04 -3.217757e-04 -2.094507e-04 -1.093745e-04 6.639957e-05 -4.646555e-05 -3.052503e-05 -5.580485e-06 5.120039e-05 5.903840e-05 8.738041e-05 1.239628e-04 1.462549e-04 5.364418e-07 -6.675720e-05 8.545816e-05 -3.635883e-06 -9.581447e-06 3.278255e-06
<VARIANCE> 39
 9.132833e+01 3.750473e+01 5.184167e+01 5.299957e+01 4.542144e+01 5.171822e+01 6.411460e+01 4.173472e+01 3.924054e+01 3.472301e+01 3.778771e+01 3.327573e+01 2.268905e+01 6.444674e-01 1.076510e+00 1.293223e+00 1.883514e+00 2.197024e+00 2.673508e+00 2.949268e+00 2.722457e+00 2.845586e+00 2.895535e+00 2.697424e+00 2.293327e+00 4.128606e-02 9.874837e-02 2.035372e-01 2.576212e-01 3.839478e-01 4.538210e-01 5.496877e-01 6.081111e-01 5.695377e-01 5.939356e-01 6.059731e-01 5.659602e-01 4.834353e-01 5.660130e-03
<GCONST> 1.098248e+02
<MIXTURE> 3 2.500000e-01
<MEAN> 39
 -8.968818e+00 1.227167e+00 1.709896e+00 5.255100e-01 -1.376319e+00 -3.581207e-01 -4.450421e+00 2.224237e-01 1.032390e+00 1.922153e+00 9.369479e-01 -5.463338e-02 1.433043e+01 6.604195e-05 -6.392598e-06 -4.352629e-05 2.214313e-05 -6.183982e-05 3.505945e-04 -2.846122e-05 -1.056790e-04 -3.217161e-04 -2.094507e-04 -1.093149e-04 6.648898e-05 -4.647300e-05 -3.052503e-05 -5.573034e-06 5.120039e-05 5.906075e-05 8.741021e-05 1.239479e-04 1.462400e-04 5.513430e-07 -6.683171e-05 8.544326e-05 -3.561378e-06 -9.626150e-06 3.281981e-06
<VARIANCE> 39
 9.132833e+01 3.750473e+01 5.184167e+01 5.299957e+01 4.542144e+01 5.171822e+01 6.411460e+01 4.173472e+01 3.924054e+01 3.472301e+01 3.778771e+01 3.327573e+01 2.268905e+01 6.444674e-01 1.076510e+00 1.293223e+00 1.883514e+00 2.197024e+00 2.673508e+00 2.949268e+00 2.722457e+00 2.845586e+00 2.895535e+00 2.697424e+00 2.293327e+00 4.128606e-02 9.874837e-02 2.035372e-01 2.576212e-01 3.839478e-01 4.538210e-01 5.496877e-01 6.081111e-01 5.695377e-01 5.939356e-01 6.059731e-01 5.659602e-01 4.834353e-01 5.660130e-03
<GCONST> 1.098248e+02
<MIXTURE> 4 2.500000e-01
<MEAN> 39
 -1.279146e+01 -1.222477e+00 -1.170150e+00 -2.386522e+00 -4.072136e+00 -3.234735e+00 -7.653285e+00 -2.361673e+00 -1.473301e+00 -4.348964e-01 -1.521920e+00 -2.362038e+00 1.242511e+01 -3.210490e-01 -4.150264e-01 -4.549233e-01 -5.489427e-01 -5.929563e-01 -6.536840e-01 -6.869658e-01 -6.601005e-01 -6.750764e-01 -6.808603e-01 -6.570628e-01 -6.056830e-01 -8.132236e-02 -1.257275e-01 -1.804660e-01 -2.029744e-01 -2.477950e-01 -2.693776e-01 -2.964398e-01 -3.117797e-01 -3.018703e-01 -3.083356e-01 -3.112916e-01 -3.009250e-01 -2.781276e-01 -3.009026e-02
<VARIANCE> 39
 9.132833e+01 3.750473e+01 5.184167e+01 5.299957e+01 4.542144e+01 5.171822e+01 6.411460e+01 4.173472e+01 3.924054e+01 3.472301e+01 3.778771e+01 3.327573e+01 2.268905e+01 6.444674e-01 1.076510e+00 1.293223e+00 1.883514e+00 2.197024e+00 2.673508e+00 2.949268e+00 2.722457e+00 2.845586e+00 2.895535e+00 2.697424e+00 2.293327e+00 4.128606e-02 9.874837e-02 2.035372e-01 2.576212e-01 3.839478e-01 4.538210e-01 5.496877e-01 6.081111e-01 5.695377e-01 5.939356e-01 6.059731e-01 5.659602e-01 4.834353e-01 5.660130e-03
<GCONST> 1.098248e+02
<MIXTURE> 5 1.250000e-01
<MEAN> 39
 -7.057500e+00 2.451989e+00 3.149919e+00 1.981526e+00 -2.841067e-02 1.080187e+00 -2.848989e+00 1.514472e+00 2.285234e+00 3.100677e+00 2.166382e+00 1.099069e+00 1.528309e+01 1.606235e-01 2.075036e-01 2.273964e-01 2.745045e-01 2.963854e-01 3.273679e-01 3.434401e-01 3.298917e-01 3.370556e-01 3.401159e-01 3.283674e-01 3.029412e-01 4.059147e-02 6.281799e-02 9.022461e-02 1.015640e-01 1.239862e-01 1.348199e-01 1.484058e-01 1.561092e-01 1.509359e-01 1.540676e-01 1.557741e-01 1.504571e-01 1.390494e-01 1.505005e-02
<VARIANCE> 39
 9.132833e+01 3.750473e+01 5.184167e+01 5.299957e+01 4.542144e+01 5.171822e+01 6.411460e+01 4.173472e+01 3.924054e+01 3.472301e+01 3.778771e+01 3.327573e+01 2.268905e+01 6.444674e-01 1.076510e+00 1.293223e+00 1.883514e+00 2.197024e+00 2.673508e+00 2.949268e+00 2.722457e+00 2.845586e+00 2.895535e+00 2.697424e+00 2.293327e+00 4.128606e-02 9.874837e-02 2.035372e-01 2.576212e-01 3.839478e-01 4.538210e-01 5.496877e-01 6.081111e-01 5.695377e-01 5.939356e-01 6.059731e-01 5.659602e-01 4.834353e-01 5.660130e-03
<GCONST> 1.098248e+02
<STATE> 3
<NUMMIXES> 5
<MIXTURE> 1 1.250000e-01
<MEAN> 39
 -3.234866e+00 4.901633e+00 6.029965e+00 4.893558e+00 2.667407e+00 3.956803e+00 3.538748e-01 4.098568e+00 4.790926e+00 5.457726e+00 4.625250e+00 3.406473e+00 1.718841e+01 4.817384e-01 6.225236e-01 6.822762e-01 8.234693e-01 8.892800e-01 9.814025e-01 1.030377e+00 9.898865e-01 1.011810e+00 1.020767e+00 9.853208e-01 9.086906e-01 1.218674e-01 1.885150e-01 2.706850e-01 3.045896e-01 3.718402e-01 4.042849e-01 4.449695e-01 4.680352e-01 4.528068e-01 4.623364e-01 4.671512e-01 4.513784e-01 4.171674e-01 4.514359e-02
<VARIANCE> 39
 9.132833e+01 3.750473e+01 5.184167e+01 5.299957e+01 4.542144e+01 5.171822e+01 6.411460e+01 4.173472e+01 3.924054e+01 3.472301e+01 3.778771e+01 3.327573e+01 2.268905e+01 6.444674e-01 1.076510e+00 1.293223e+00 1.883514e+00 2.197024e+00 2.673508e+00 2.949268e+00 2.722457e+00 2.845586e+00 2.895535e+00 2.697424e+00 2.293327e+00 4.128606e-02 9.874837e-02 2.035372e-01 2.576212e-01 3.839478e-01 4.538210e-01 5.496877e-01 6.081111e-01 5.695377e-01 5.939356e-01 6.059731e-01 5.659602e-01 4.834353e-01 5.660130e-03
<GCONST> 1.098248e+02
<MIXTURE> 2 2.500000e-01
<MEAN> 39
 -8.968823e+00 1.227167e+00 1.709896e+00 5.255102e-01 -1.376319e+00 -3.581203e-01 -4.450421e+00 2.224233e-01 1.032390e+00 1.922153e+00 9.369481e-01 -5.463362e-02 1.433043e+01 6.596744e-05 -6.407499e-06 -4.348159e-05 2.208352e-05 -6.183982e-05 3.505945e-04 -2.843142e-05 -1.057088e-04 -3.217757e-04 -2.094507e-04 -1.093745e-04 6.639957e-05 -4.646555e-05 -3.052503e-05 -5.580485e-06 5.120039e-05 5.903840e-05 8.738041e-05 1.239628e-04 1.462549e-04 5.364418e-07 -6.675720e-05 8.545816e-05 -3.635883e-06 -9.581447e-06 3.278255e-06
<VARIANCE> 39
 9.132833e+01 3.750473e+01 5.184167e+01 5.299957e+01 4.542144e+01 5.171822e+01 6.411460e+01 4.173472e+01 3.924054e+01 3.472301e+01 3.778771e+01 3.327573e+01 2.268905e+01 6.444674e-01 1.076510e+00 1.293223e+00 1.883514e+00 2.197024e+00 2.673508e+00 2.949268e+00 2.722457e+00 2.845586e+00 2.895535e+00 2.697424e+00 2.293327e+00 4.128606e-02 9.874837e-02 2.035372e-01 2.576212e-01 3.839478e-01 4.538210e-01 5.496877e-01 6.081111e-01 5.695377e-01 5.939356e-01 6.059731e-01 5.659602e-01 4.834353e-01 5.660130e-03
<GCONST> 1.098248e+02
<MIXTURE> 3 2.500000e-01
<MEAN> 39
 -8.968818e+00 1.227167e+00 1.709896e+00 5.255100e-01 -1.376319e+00 -3.581207e-01 -4.450421e+00 2.224237e-01 1.032390e+00 1.922153e+00 9.369479e-01 -5.463338e-02 1.433043e+01 6.604195e-05 -6.392598e-06 -4.352629e-05 2.214313e-05 -6.183982e-05 3.505945e-04 -2.846122e-05 -1.056790e-04 -3.217161e-04 -2.094507e-04 -1.093149e-04 6.648898e-05 -4.647300e-05 -3.052503e-05 -5.573034e-06 5.120039e-05 5.906075e-05 8.741021e-05 1.239479e-04 1.462400e-04 5.513430e-07 -6.683171e-05 8.544326e-05 -3.561378e-06 -9.626150e-06 3.281981e-06
<VARIANCE> 39
 9.132833e+01 3.750473e+01 5.184167e+01 5.299957e+01 4.542144e+01 5.171822e+01 6.411460e+01 4.173472e+01 3.924054e+01 3.472301e+01 3.778771e+01 3.327573e+01 2.268905e+01 6.444674e-01 1.076510e+00 1.293223e+00 1.883514e+00 2.197024e+00 2.673508e+00 2.949268e+00 2.722457e+00 2.845586e+00 2.895535e+00 2.697424e+00 2.293327e+00 4.128606e-02 9.874837e-02 2.035372e-01 2.576212e-01 3.839478e-01 4.538210e-01 5.496877e-01 6.081111e-01 5.695377e-01 5.939356e-01 6.059731e-01 5.659602e-01 4.834353e-01 5.660130e-03
<GCONST> 1.098248e+02
<MIXTURE> 4 2.500000e-01
<MEAN> 39
 -1.279146e+01 -1.222477e+00 -1.170150e+00 -2.386522e+00 -4.072136e+00 -3.234735e+00 -7.653285e+00 -2.361673e+00 -1.473301e+00 -4.348964e-01 -1.521920e+00 -2.362038e+00 1.242511e+01 -3.210490e-01 -4.150264e-01 -4.549233e-01 -5.489427e-01 -5.929563e-01 -6.536840e-01 -6.869658e-01 -6.601005e-01 -6.750764e-01 -6.808603e-01 -6.570628e-01 -6.056830e-01 -8.132236e-02 -1.257275e-01 -1.804660e-01 -2.029744e-01 -2.477950e-01 -2.693776e-01 -2.964398e-01 -3.117797e-01 -3.018703e-01 -3.083356e-01 -3.112916e-01 -3.009250e-01 -2.781276e-01 -3.009026e-02
<VARIANCE> 39
 9.132833e+01 3.750473e+01 5.184167e+01 5.299957e+01 4.542144e+01 5.171822e+01 6.411460e+01 4.173472e+01 3.924054e+01 3.472301e+01 3.778771e+01 3.327573e+01 2.268905e+01 6.444674e-01 1.076510e+00 1.293223e+00 1.883514e+00 2.197024e+00 2.673508e+00 2.949268e+00 2.722457e+00 2.845586e+00 2.895535e+00 2.697424e+00 2.293327e+00 4.128606e-02 9.874837e-02 2.035372e-01 2.576212e-01 3.839478e-01 4.538210e-01 5.496877e-01 6.081111e-01 5.695377e-01 5.939356e-01 6.059731e-01 5.659602e-01 4.834353e-01 5.660130e-03
<GCONST> 1.098248e+02
<MIXTURE> 5 1.250000e-01
<MEAN> 39
 -7.057500e+00 2.451989e+00 3.149919e+00 1.981526e+00 -2.841067e-02 1.080187e+00 -2.848989e+00 1.514472e+00 2.285234e+00 3.100677e+00 2.166382e+00 1.099069e+00 1.528309e+01 1.606235e-01 2.075036e-01 2.273964e-01 2.745045e-01 2.963854e-01 3.273679e-01 3.434401e-01 3.298917e-01 3.370556e-01 3.401159e-01 3.283674e-01 3.029412e-01 4.059147e-02 6.281799e-02 9.022461e-02 1.015640e-01 1.239862e-01 1.348199e-01 1.484058e-01 1.561092e-01 1.509359e-01 1.540676e-01 1.557741e-01 1.504571e-01 1.390494e-01 1.505005e-02
<VARIANCE> 39
 9.132833e+01 3.750473e+01 5.184167e+01 5.299957e+01 4.542144e+01 5.171822e+01 6.411460e+01 4.173472e+01 3.924054e+01 3.472301e+01 3.778771e+01 3.327573e+01 2.268905e+01 6.444674e-01 1.076510e+00 1.293223e+00 1.883514e+00 2.197024e+00 2.673508e+00 2.949268e+00 2.722457e+00 2.845586e+00 2.895535e+00 2.697424e+00 2.293327e+00 4.128606e-02 9.874837e-02 2.035372e-01 2.576212e-01 3.839478e-01 4.538210e-01 5.496877e-01 6.081111e-01 5.695377e-01 5.939356e-01 6.059731e-01 5.659602e-01 4.834353e-01 5.660130e-03
<GCONST> 1.098248e+02
<STATE> 4
<NUMMIXES> 5
<MIXTURE> 1 1.250000e-01
<MEAN> 39
 -3.234866e+00 4.901633e+00 6.029965e+00 4.893558e+00 2.667407e+00 3.956803e+00 3.538748e-01 4.098568e+00 4.790926e+00 5.457726e+00 4.625250e+00 3.406473e+00 1.718841e+01 4.817384e-01 6.225236e-01 6.822762e-01 8.234693e-01 8.892800e-01 9.814025e-01 1.030377e+00 9.898865e-01 1.011810e+00 1.020767e+00 9.853208e-01 9.086906e-01 1.218674e-01 1.885150e-01 2.706850e-01 3.045896e-01 3.718402e-01 4.042849e-01 4.449695e-01 4.680352e-01 4.528068e-01 4.623364e-01 4.671512e-01 4.513784e-01 4.171674e-01 4.514359e-02
<VARIANCE> 39
 9.132833e+01 3.750473e+01 5.184167e+01 5.299957e+01 4.542144e+01 5.171822e+01 6.411460e+01 4.173472e+01 3.924054e+01 3.472301e+01 3.778771e+01 3.327573e+01 2.268905e+01 6.444674e-01 1.076510e+00 1.293223e+00 1.883514e+00 2.197024e+00 2.673508e+00 2.949268e+00 2.722457e+00 2.845586e+00 2.895535e+00 2.697424e+00 2.293327e+00 4.128606e-02 9.874837e-02 2.035372e-01 2.576212e-01 3.839478e-01 4.538210e-01 5.496877e-01 6.081111e-01 5.695377e-01 5.939356e-01 6.059731e-01 5.659602e-01 4.834353e-01 5.660130e-03
<GCONST> 1.098248e+02
<MIXTURE> 2 2.500000e-01
<MEAN> 39
 -8.968823e+00 1.227167e+00 1.709896e+00 5.255102e-01 -1.376319e+00 -3.581203e-01 -4.450421e+00 2.224233e-01 1.032390e+00 1.922153e+00 9.369481e-01 -5.463362e-02 1.433043e+01 6.596744e-05 -6.407499e-06 -4.348159e-05 2.208352e-05 -6.183982e-05 3.505945e-04 -2.843142e-05 -1.057088e-04 -3.217757e-04 -2.094507e-04 -1.093745e-04 6.639957e-05 -4.646555e-05 -3.052503e-05 -5.580485e-06 5.120039e-05 5.903840e-05 8.738041e-05 1.239628e-04 1.462549e-04 5.364418e-07 -6.675720e-05 8.545816e-05 -3.635883e-06 -9.581447e-06 3.278255e-06
<VARIANCE> 39
 9.132833e+01 3.750473e+01 5.184167e+01 5.299957e+01 4.542144e+01 5.171822e+01 6.411460e+01 4.173472e+01 3.924054e+01 3.472301e+01 3.778771e+01 3.327573e+01 2.268905e+01 6.444674e-01 1.076510e+00 1.293223e+00 1.883514e+00 2.197024e+00 2.673508e+00 2.949268e+00 2.722457e+00 2.845586e+00 2.895535e+00 2.697424e+00 2.293327e+00 4.128606e-02 9.874837e-02 2.035372e-01 2.576212e-01 3.839478e-01 4.538210e-01 5.496877e-01 6.081111e-01 5.695377e-01 5.939356e-01 6.059731e-01 5.659602e-01 4.834353e-01 5.660130e-03
<GCONST> 1.098248e+02
<MIXTURE> 3 2.500000e-01
<MEAN> 39
 -8.968818e+00 1.227167e+00 1.709896e+00 5.255100e-01 -1.376319e+00 -3.581207e-01 -4.450421e+00 2.224237e-01 1.032390e+00 1.922153e+00 9.369479e-01 -5.463338e-02 1.433043e+01 6.604195e-05 -6.392598e-06 -4.352629e-05 2.214313e-05 -6.183982e-05 3.505945e-04 -2.846122e-05 -1.056790e-04 -3.217161e-04 -2.094507e-04 -1.093149e-04 6.648898e-05 -4.647300e-05 -3.052503e-05 -5.573034e-06 5.120039e-05 5.906075e-05 8.741021e-05 1.239479e-04 1.462400e-04 5.513430e-07 -6.683171e-05 8.544326e-05 -3.561378e-06 -9.626150e-06 3.281981e-06
<VARIANCE> 39
 9.132833e+01 3.750473e+01 5.184167e+01 5.299957e+01 4.542144e+01 5.171822e+01 6.411460e+01 4.173472e+01 3.924054e+01 3.472301e+01 3.778771e+01 3.327573e+01 2.268905e+01 6.444674e-01 1.076510e+00 1.293223e+00 1.883514e+00 2.197024e+00 2.673508e+00 2.949268e+00 2.722457e+00 2.845586e+00 2.895535e+00 2.697424e+00 2.293327e+00 4.128606e-02 9.874837e-02 2.035372e-01 2.576212e-01 3.839478e-01 4.538210e-01 5.496877e-01 6.081111e-01 5.695377e-01 5.939356e-01 6.059731e-01 5.659602e-01 4.834353e-01 5.660130e-03
<GCONST> 1.098248e+02
<MIXTURE> 4 2.500000e-01
<MEAN> 39
 -1.279146e+01 -1.222477e+00 -1.170150e+00 -2.386522e+00 -4.072136e+00 -3.234735e+00 -7.653285e+00 -2.361673e+00 -1.473301e+00 -4.348964e-01 -1.521920e+00 -2.362038e+00 1.242511e+01 -3.210490e-01 -4.150264e-01 -4.549233e-01 -5.489427e-01 -5.929563e-01 -6.536840e-01 -6.869658e-01 -6.601005e-01 -6.750764e-01 -6.808603e-01 -6.570628e-01 -6.056830e-01 -8.132236e-02 -1.257275e-01 -1.804660e-01 -2.029744e-01 -2.477950e-01 -2.693776e-01 -2.964398e-01 -3.117797e-01 -3.018703e-01 -3.083356e-01 -3.112916e-01 -3.009250e-01 -2.781276e-01 -3.009026e-02
<VARIANCE> 39
 9.132833e+01 3.750473e+01 5.184167e+01 5.299957e+01 4.542144e+01 5.171822e+01 6.411460e+01 4.173472e+01 3.924054e+01 3.472301e+01 3.778771e+01 3.327573e+01 2.268905e+01 6.444674e-01 1.076510e+00 1.293223e+00 1.883514e+00 2.197024e+00 2.673508e+00 2.949268e+00 2.722457e+00 2.845586e+00 2.895535e+00 2.697424e+00 2.293327e+00 4.128606e-02 9.874837e-02 2.035372e-01 2.576212e-01 3.839478e-01 4.538210e-01 5.496877e-01 6.081111e-01 5.695377e-01 5.939356e-01 6.059731e-01 5.659602e-01 4.834353e-01 5.660130e-03
<GCONST> 1.098248e+02
<MIXTURE> 5 1.250000e-01
<MEAN> 39
 -7.057500e+00 2.451989e+00 3.149919e+00 1.981526e+00 -2.841067e-02 1.080187e+00 -2.848989e+00 1.514472e+00 2.285234e+00 3.100677e+00 2.166382e+00 1.099069e+00 1.528309e+01 1.606235e-01 2.075036e-01 2.273964e-01 2.745045e-01 2.963854e-01 3.273679e-01 3.434401e-01 3.298917e-01 3.370556e-01 3.401159e-01 3.283674e-01 3.029412e-01 4.059147e-02 6.281799e-02 9.022461e-02 1.015640e-01 1.239862e-01 1.348199e-01 1.484058e-01 1.561092e-01 1.509359e-01 1.540676e-01 1.557741e-01 1.504571e-01 1.390494e-01 1.505005e-02
<VARIANCE> 39
 9.132833e+01 3.750473e+01 5.184167e+01 5.299957e+01 4.542144e+01 5.171822e+01 6.411460e+01 4.173472e+01 3.924054e+01 3.472301e+01 3.778771e+01 3.327573e+01 2.268905e+01 6.444674e-01 1.076510e+00 1.293223e+00 1.883514e+00 2.197024e+00 2.673508e+00 2.949268e+00 2.722457e+00 2.845586e+00 2.895535e+00 2.697424e+00 2.293327e+00 4.128606e-02 9.874837e-02 2.035372e-01 2.576212e-01 3.839478e-01 4.538210e-01 5.496877e-01 6.081111e-01 5.695377e-01 5.939356e-01 6.059731e-01 5.659602e-01 4.834353e-01 5.660130e-03
<GCONST> 1.098248e+02
<TRANSP> 5
 0.000000e+00 1.000000e+00 0.000000e+00 0.000000e+00 0.000000e+00
 0.000000e+00 5.000000e-01 5.000000e-01 0.000000e+00 0.000000e+00
 0.000000e+00 0.000000e+00 5.000000e-01 5.000000e-01 0.000000e+00
 0.000000e+00 0.000000e+00 0.000000e+00 5.000000e-01 5.000000e-01
 0.000000e+00 0.000000e+00 0.000000e+00 0.000000e+00 0.000000e+00
<ENDHMM>
~h "a"
<BEGINHMM>
<NUMSTATES> 5
<STATE> 2
<NUMMIXES> 5
<MIXTURE> 1 2.518900e-01
<MEAN> 39
 -3.036431e+00 -9.677449e+00 9.722725e-01 -6.986678e+00 -1.070092e+01 -4.628460e+00 -6.781577e+00 1.555357e+01 7.282325e+00 5.531201e+00 -5.637305e+00 -4.455667e+00 1.887564e+01 -1.743305e-01 1.022842e+00 -3.195243e-01 8.194245e-01 2.183414e-01 -3.521202e-01 1.649214e+00 -2.687073e-01 8.024648e-01 -2.494568e-01 -7.864863e-01 3.741956e-01 -6.611457e-02 -1.309020e-02 2.579531e-01 -9.301967e-02 5.857288e-01 4.084947e-01 5.338068e-01 2.640641e-01 -8.314485e-01 -5.214095e-01 -3.339358e-01 2.580023e-01 2.560917e-01 -4.007063e-02
<VARIANCE> 39
 1.484241e+01 3.494319e+01 6.315396e+01 3.156092e+01 4.352959e+01 8.435270e+01 6.002819e+01 4.893724e+01 4.827943e+01 3.288350e+01 5.976094e+01 7.274789e+01 1.366491e+00 9.755461e-01 1.426684e+00 1.535999e+00 2.271655e+00 2.348072e+00 3.188685e+00 2.819590e+00 3.740643e+00 3.451538e+00 1.980645e+00 2.375544e+00 2.072003e+00 4.416944e-02 1.579871e-01 5.161201e-01 2.951054e-01 4.214112e-01 3.902014e-01 6.982852e-01 7.885999e-01 5.533368e-01 6.456022e-01 3.766264e-01 6.752893e-01 6.214628e-01 5.919965e-03
<GCONST> 1.099924e+02
<MIXTURE> 2 2.112722e-01
<MEAN> 39
 -7.756194e-01 -5.974804e+00 -6.734753e-01 -2.333825e+00 -6.849770e+00 1.392752e+00 -4.939406e+00 7.471237e+00 2.041075e+00 1.443077e+00 -2.697909e+00 -3.041119e+00 1.895931e+01 6.174626e-01 -7.866361e-01 -2.949787e-01 -1.067416e+00 -6.629069e-01 -9.382391e-02 -5.649679e-01 8.598480e-01 3.719733e-01 3.765919e-01 7.030548e-02 -3.318628e-01 2.142103e-01 -2.163368e-01 -5.043275e-02 2.290120e-02 -7.132151e-03 1.411744e-02 -5.078551e-02 1.496713e-01 8.589455e-02 2.042029e-01 5.006661e-02 -9.024680e-02 -9.872292e-02 -3.699152e-02
<VARIANCE> 39
 1.558107e+01 3.703186e+01 4.786052e+01 4.734193e+01 3.290008e+01 6.084639e+01 4.304318e+01 4.468588e+01 2.644457e+01 2.174374e+01 2.717219e+01 3.513990e+01 1.827688e+00 1.214519e+00 1.629601e+00 1.628158e+00 2.818675e+00 1.969499e+00 2.531618e+00 2.075118e+00 2.589573e+00 2.532465e+00 2.127342e+00 2.467753e+00 1.856513e+00 8.187614e-02 1.322167e-01 3.993413e-01 2.946756e-01 6.258467e-01 3.915538e-01 4.574095e-01 4.389124e-01 5.467164e-01 4.862939e-01 4.596530e-01 4.400240e-01 3.289232e-01 5.602407e-03
<GCONST> 1.045470e+02
<MIXTURE> 3 1.865418e-01
<MEAN> 39
 -7.481548e+00 -5.867177e+00 -2.417615e+00 9.258875e-01 -4.330535e+00 9.942988e-01 5.855697e-01 6.365770e+00 3.478602e+00 1.394206e+00 -5.755814e+00 -2.663452e+00 1.666355e+01 3.826168e-01 4.362793e-01 4.192299e-01 8.315223e-01 4.226061e-01 4.603528e-01 -1.765975e-02 -5.176967e-01 -5.456083e-01 -3.174488e-01 5.046160e-01 1.922641e-01 1.215893e-01 3.271608e-01 -2.992711e-01 4.793648e-02 -4.637566e-01 -2.750694e-01 5.358860e-03 -4.155820e-01 2.643821e-01 2.561533e-02 1.242672e-01 1.638180e-01 -1.378718e-01 9.721529e-02
<VARIANCE> 39
 2.803535e+01 2.187899e+01 5.801094e+01 4.585934e+01 4.495374e+01 5.724162e+01 3.593940e+01 4.502504e+01 4.039495e+01 4.124494e+01 4.642949e+01 5.034358e+01 4.787801e+00 1.295963e+00 1.665269e+00 1.686004e+00 2.356749e+00 2.341510e+00 3.054872e+00 3.147060e+00 2.927799e+00 2.414441e+00 2.182983e+00 2.829608e+00 2.817405e+00 1.468071e-01 1.866729e-01 4.280853e-01 3.344902e-01 5.875590e-01 5.332272e-01 5.740929e-01 7.159770e-01 5.875866e-01 6.052465e-01 5.030301e-01 6.569852e-01 5.143403e-01 1.328569e-02
<GCONST> 1.133235e+02
<MIXTURE> 4 1.923420e-01
<MEAN> 39
 -2.250253e+00 -1.012098e+01 -2.032741e-01 -3.547249e+00 -7.114890e+00 1.076355e+00 -6.507264e+00 8.909512e+00 1.309489e+00 1.510354e+00 -2.619207e+00 -4.487814e+00 1.874990e+01 1.183266e-01 -1.832873e+00 6.436451e-02 -1.558877e+00 -6.906983e-01 -9.705319e-02 -1.252415e+00 1.639483e+00 2.779273e-01 3.459425e-01 3.490782e-02 -1.156302e+00 2.096584e-01 -1.582513e-01 4.013563e-01 -1.311917e-01 1.168325e-01 -8.303831e-02 -4.905884e-01 4.651669e-01 1.967026e-01 5.552666e-01 1.377321e-01 -4.717625e-01 5.369987e-02 -7.287712e-02
<VARIANCE> 39
 1.471177e+01 3.720560e+01 4.850325e+01 2.458481e+01 2.902961e+01 2.945891e+01 4.258591e+01 3.367801e+01 2.365414e+01 1.922435e+01 2.075765e+01 3.254881e+01 1.379224e+00 9.822522e-01 2.623663e+00 1.928553e+00 1.844346e+00 2.117475e+00 3.133396e+00 2.825893e+00 2.960035e+00 3.639561e+00 2.006566e+00 3.542555e+00 2.255864e+00 8.960395e-02 1.850112e-01 6.439481e-01 3.187021e-01 5.173734e-01 4.544637e-01 6.002501e-01 6.067150e-01 6.316926e-01 6.791556e-01 4.106177e-01 6.416572e-01 5.640883e-01 1.035397e-02
<GCONST> 1.068772e+02
<MIXTURE> 5 1.579503e-01
<MEAN> 39
 -5.414062e+00 -6.613120e+00 -5.062865e+00 -2.288556e+00 -5.321394e+00 2.230467e+00 -1.483128e+00 6.127481e+00 6.707828e+00 3.863640e+00 -6.014002e+00 -2.984956e+00 1.773638e+01 -8.616841e-03 -1.363278e-01 -9.144113e-03 5.663059e-01 3.662968e-01 8.404549e-01 -1.411875e-01 -6.150742e-01 -1.220367e+00 -8.423700e-01 6.331711e-01 5.080885e-02 8.657662e-04 6.833933e-02 -3.450322e-01 1.334713e-01 -3.402691e-01 -1.129213e-01 -1.625523e-01 -5.244743e-01 2.655628e-01 -2.178265e-01 2.902605e-02 1.947328e-01 -2.163160e-01 3.513095e-02
<VARIANCE> 39
 3.967577e+01 2.328154e+01 5.781646e+01 4.128012e+01 4.213355e+01 7.741581e+01 4.625856e+01 7.048432e+01 4.591127e+01 3.700076e+01 5.199574e+01 5.923790e+01 4.406945e+00 8.908622e-01 1.505865e+00 1.606763e+00 2.237469e+00 1.926217e+00 2.981131e+00 2.803569e+00 4.359508e+00 2.983644e+00 2.129028e+00 3.515651e+00 2.820470e+00 5.689053e-02 1.322536e-01 3.087653e-01 3.283119e-01 4.754603e-01 3.296217e-01 4.790930e-01 5.606493e-01 7.282381e-01 5.976693e-01 4.067176e-01 6.345087e-01 4.771523e-01 5.794947e-03
<GCONST> 1.109604e+02
<STATE> 3
<NUMMIXES> 5
<MIXTURE> 1 1.938456e-01
<MEAN> 39
 1.771715e+00 -1.245330e+01 -1.147891e+01 -2.232212e+00 -5.880771e+00 5.975139e+00 -3.172778e+00 6.189125e+00 1.029179e+01 2.490229e+00 -4.898533e+00 -1.524564e+01 2.046745e+01 -3.462263e-01 9.689829e-01 3.008338e-01 5.237911e-01 5.954316e-01 5.898296e-02 8.655256e-01 -1.017736e-01 1.625147e-01 -3.171481e-01 -7.266130e-01 2.147242e-01 1.426254e-02 7.236445e-02 1.682950e-01 2.011132e-01 2.446909e-01 5.187622e-02 4.033806e-02 -2.015928e-02 -2.630645e-01 -4.577122e-01 -2.273897e-01 2.141614e-01 4.238269e-01 -1.128061e-03
<VARIANCE> 39
 4.230922e+00 2.267874e+01 1.626756e+01 2.879438e+01 1.891210e+01 3.766050e+01 3.552050e+01 4.774731e+01 1.988924e+01 3.842573e+01 2.857039e+01 3.307022e+01 3.500053e-01 4.363944e-01 6.245952e-01 7.500098e-01 9.375418e-01 9.839054e-01 1.100669e+00 1.459334e+00 1.465383e+00 1.616952e+00 1.430196e+00 1.223670e+00 1.356457e+00 1.731550e-03 5.242511e-02 1.409008e-01 1.223860e-01 1.622956e-01 1.920485e-01 1.888285e-01 2.420641e-01 2.384329e-01 2.447790e-01 2.257885e-01 2.556064e-01 2.051366e-01 1.736372e-04
<GCONST> 7.351067e+01
<MIXTURE> 2 1.436175e-01
<MEAN> 39
 -1.824292e-01 -7.132451e+00 -7.711260e+00 3.232763e+00 -3.821939e+00 4.021409e+00 1.398203e+00 3.761675e+00 5.223964e+00 -3.305968e+00 -4.977265e+00 -9.219605e+00 2.001587e+01 2.521890e-01 3.370420e-01 2.053328e-01 5.734801e-01 1.067058e-01 1.542504e-01 -9.195110e-02 -7.119852e-01 -8.377097e-01 -3.942956e-01 6.519889e-01 5.005644e-01 2.069550e-02 2.398769e-01 -3.427414e-01 -1.393107e-01 -2.708522e-01 -1.985244e-01 -2.851102e-02 -4.252381e-01 1.514608e-01 -5.061947e-02 3.058688e-01 2.095092e-01 -9.997179e-02 -1.152203e-03
<VARIANCE> 39
 7.365014e+00 1.184946e+01 3.195655e+01 2.408312e+01 1.807782e+01 3.437577e+01 3.086951e+01 3.949785e+01 2.142629e+01 2.126811e+01 1.916811e+01 2.248902e+01 4.848873e-01 4.179110e-01 8.056361e-01 1.099985e+00 1.309239e+00 1.175159e+00 1.380449e+00 1.826513e+00 1.843372e+00 1.696609e+00 1.507618e+00 1.279829e+00 1.370813e+00 3.992910e-03 1.287597e-01 1.481433e-01 1.973657e-01 2.358653e-01 2.163428e-01 2.778966e-01 3.247449e-01 2.914726e-01 2.972451e-01 2.413375e-01 2.417217e-01 2.327327e-01 3.743104e-04
<GCONST> 7.914793e+01
<MIXTURE> 3 3.173878e-01
<MEAN> 39
 3.568077e+00 -1.288880e+01 -1.029864e+01 1.865100e-01 -6.867440e+00 5.396787e+00 -4.845455e+00 3.046563e+00 3.712757e+00 -7.365875e-01 -1.274541e+00 -1.135350e+01 2.047492e+01 -1.141266e-02 -8.373617e-01 -4.746918e-01 -7.809654e-01 -4.773211e-01 -1.141254e-01 -3.716941e-01 7.291780e-01 7.235025e-01 7.067481e-01 -1.244522e-01 -7.766927e-01 -2.646226e-03 -1.835513e-01 2.265582e-01 4.959306e-02 1.764503e-02 1.655916e-01 -3.653567e-02 2.696053e-01 1.006427e-01 2.427152e-01 3.422300e-02 -3.359548e-01 -6.606739e-02 3.290218e-05
<VARIANCE> 39
 2.814292e+00 1.695656e+01 1.804745e+01 2.276217e+01 1.497127e+01 2.345864e+01 2.635110e+01 2.818038e+01 1.557174e+01 2.187635e+01 1.771191e+01 1.786892e+01 3.477374e-01 3.566933e-01 6.850592e-01 7.052657e-01 7.575049e-01 7.534516e-01 1.055211e+00 1.209133e+00 1.270943e+00 1.336097e+00 1.167714e+00 1.675068e+00 1.259439e+00 1.616942e-03 6.540847e-02 1.299061e-01 1.685314e-01 1.777920e-01 1.929564e-01 2.076849e-01 2.829748e-01 3.056391e-01 3.078790e-01 3.084191e-01 2.414066e-01 2.345216e-01 1.806667e-04
<GCONST> 6.970715e+01
<MIXTURE> 4 1.931883e-01
<MEAN> 39
 2.541308e+00 -1.223505e+01 -1.067683e+01 -1.797127e+00 -4.753882e+00 5.946086e+00 -3.951202e+00 7.535046e+00 8.149108e+00 2.759634e+00 -7.090199e+00 -1.385028e+01 2.092897e+01 -1.045192e-01 5.232568e-01 1.629888e-01 3.059351e-01 2.461007e-01 -2.323698e-02 3.842685e-01 -2.129384e-01 -6.946659e-02 -3.221816e-01 -3.127961e-01 2.667032e-01 3.930194e-03 6.034220e-03 5.037383e-02 8.612403e-02 8.875032e-02 -2.135048e-02 -9.439165e-03 -3.851603e-02 -1.880525e-01 -1.633991e-01 -1.265916e-01 2.052447e-01 1.844975e-01 -5.422419e-03
<VARIANCE> 39
 3.649475e+00 1.867821e+01 1.605923e+01 1.899160e+01 1.692040e+01 2.269147e+01 3.306619e+01 4.322201e+01 2.092692e+01 2.521823e+01 2.494636e+01 2.799557e+01 2.808522e-01 3.000687e-01 4.225884e-01 4.991065e-01 6.658698e-01 6.510590e-01 8.103712e-01 1.056227e+00 1.260116e+00 1.622742e+00 1.173690e+00 1.056743e+00 1.251624e+00 1.988844e-03 3.413869e-02 1.094453e-01 8.583575e-02 1.181251e-01 1.337570e-01 1.354988e-01 1.851798e-01 1.857415e-01 1.698903e-01 1.731314e-01 1.667063e-01 1.380429e-01 1.571106e-04
<GCONST> 6.394781e+01
<MIXTURE> 5 1.519577e-01
<MEAN> 39
 1.919619e+00 -8.270345e+00 -8.025027e+00 3.127289e+00 -4.142991e+00 5.146136e+00 -7.300616e-01 2.044872e+00 3.392685e+00 -2.542469e+00 -3.087127e+00 -8.498285e+00 2.037635e+01 5.504708e-01 -5.236315e-01 -5.298653e-02 1.120567e-01 -4.128679e-01 7.552785e-02 -6.543273e-01 -5.725123e-01 -9.725534e-01 -1.712395e-01 8.606883e-01 4.434780e-01 6.239744e-03 5.662898e-03 -3.320763e-01 -1.430282e-01 -3.571952e-01 -1.960940e-01 -6.315368e-02 -2.414170e-01 3.063306e-01 2.489539e-01 2.685980e-01 -4.604068e-02 -3.050908e-01 -6.753213e-03
<VARIANCE> 39
 6.328368e+00 1.189659e+01 2.379506e+01 2.342637e+01 1.373672e+01 2.455852e+01 2.674473e+01 2.680587e+01 1.475240e+01 1.846829e+01 1.745609e+01 1.783183e+01 3.920607e-01 4.070462e-01 7.904938e-01 1.047035e+00 1.023391e+00 1.029881e+00 1.364960e+00 1.619203e+00 1.769017e+00 1.650977e+00 1.814633e+00 1.205705e+00 1.575478e+00 2.674726e-03 5.373905e-02 9.922270e-02 1.172769e-01 1.576824e-01 1.454149e-01 1.878274e-01 1.934852e-01 2.264320e-01 2.158592e-01 1.887290e-01 2.122991e-01 1.908114e-01 2.142090e-04
<GCONST> 7.046475e+01
<STATE> 4
<NUMMIXES> 5
<MIXTURE> 1 2.880038e-01
<MEAN> 39
 7.036163e-01 -1.130419e+01 2.608520e+00 -3.293804e+00 -1.143529e+01 -4.568987e+00 -5.470195e+00 1.418796e+01 1.002944e+00 3.924385e+00 -1.339771e+00 -4.797719e+00 2.009903e+01 -1.896266e-01 7.387409e-01 1.853018e-01 -5.917219e-03 -7.921262e-02 -7.770318e-01 4.852985e-01 4.901601e-01 9.995058e-01 2.217371e-01 -6.487963e-01 1.229279e-01 1.442184e-02 2.205281e-03 3.349157e-01 3.568293e-02 3.016047e-01 3.054760e-01 2.364634e-01 3.073463e-01 -3.422703e-01 -1.632531e-02 -2.562134e-01 -1.695240e-01 -3.482711e-02 -1.464682e-03
<VARIANCE> 39
 4.395979e+00 1.479880e+01 3.418416e+01 1.726315e+01 2.197524e+01 2.362057e+01 4.762065e+01 2.138093e+01 3.547466e+01 1.992649e+01 2.251171e+01 2.232444e+01 2.355726e-01 3.943260e-01 6.993956e-01 8.050680e-01 1.141763e+00 1.139613e+00 1.505344e+00 1.526351e+00 1.847056e+00 1.320978e+00 1.209392e+00 1.138184e+00 1.081465e+00 2.149337e-03 5.385451e-02 1.124756e-01 1.358889e-01 1.593562e-01 2.657508e-01 3.172253e-01 2.269411e-01 2.709552e-01 2.714522e-01 2.154097e-01 2.221274e-01 2.040699e-01 1.821281e-04
<GCONST> 7.273788e+01
<MIXTURE> 2 2.212864e-01
<MEAN> 39
 9.726287e-01 -8.145801e+00 3.003167e+00 8.050089e-02 -8.311023e+00 -1.252634e+00 -2.340093e+00 8.920284e+00 -9.650641e-01 -2.749685e-01 -2.570459e+00 -5.102785e+00 2.019969e+01 1.355746e-01 -3.751393e-01 1.072633e-01 -5.119841e-02 4.606061e-02 5.821479e-02 -5.139216e-01 -9.740568e-02 -5.767968e-01 3.598148e-01 4.212308e-01 9.753828e-02 -5.716989e-04 3.599909e-02 -1.040695e-01 -5.899622e-02 -1.432282e-01 -1.523453e-01 -2.376753e-01 -1.713006e-01 2.537747e-01 1.062256e-01 2.299630e-01 3.348465e-02 5.343812e-02 -1.085279e-03
<VARIANCE> 39
 5.114484e+00 1.695129e+01 2.651411e+01 1.816067e+01 1.855739e+01 1.507266e+01 4.443910e+01 1.375786e+01 2.260546e+01 1.479637e+01 1.868189e+01 1.455815e+01 2.526433e-01 2.880678e-01 6.859048e-01 6.430265e-01 1.097008e+00 1.349198e+00 1.852659e+00 1.139400e+00 1.933830e+00 1.530110e+00 1.472475e+00 1.049555e+00 1.013167e+00 1.791307e-03 7.468663e-02 1.725715e-01 1.581815e-01 2.095500e-01 2.307707e-01 2.502847e-01 3.003373e-01 2.375564e-01 2.505755e-01 2.142236e-01 2.179717e-01 1.689146e-01 1.911496e-04
<GCONST> 7.065426e+01
<MIXTURE> 3 1.304825e-01
<MEAN> 39
 6.874030e-01 -6.521095e+00 1.104009e+00 -1.558827e+00 -9.515572e+00 -6.707778e+00 -4.594374e+00 1.329316e+01 6.340834e+00 3.324376e+00 -6.218531e+00 -3.301271e+00 2.031990e+01 1.175920e-02 8.951570e-01 4.126911e-01 5.287067e-01 7.310378e-01 3.495214e-01 4.003779e-01 -6.632772e-01 -3.585507e-01 -4.713781e-01 -2.477590e-01 1.453321e-01 4.379285e-03 5.770392e-02 -1.814614e-01 1.920538e-02 6.777482e-02 8.950026e-02 3.176768e-01 -1.654313e-01 -2.504494e-01 -4.676732e-01 -8.895352e-02 2.952783e-01 -5.036772e-02 -6.153420e-03
<VARIANCE> 39
 4.478658e+00 1.740332e+01 3.155993e+01 2.023510e+01 1.876024e+01 3.064361e+01 4.892786e+01 3.307737e+01 3.755814e+01 2.856842e+01 2.528938e+01 2.883576e+01 2.920973e-01 2.241950e-01 5.746444e-01 6.965050e-01 8.698599e-01 1.030789e+00 1.199973e+00 1.286633e+00 1.471452e+00 1.321357e+00 1.024542e+00 9.867785e-01 7.853525e-01 2.228817e-03 5.655859e-02 1.163462e-01 9.701305e-02 1.363360e-01 1.754806e-01 2.371461e-01 1.717235e-01 2.708359e-01 2.452085e-01 1.850110e-01 1.952716e-01 1.667202e-01 2.033564e-04
<GCONST> 7.020268e+01
<MIXTURE> 4 2.288558e-01
<MEAN> 39
 1.573209e+00 -8.484784e+00 1.556235e+00 6.317399e-01 -8.496700e+00 -1.254043e+00 -4.142463e+00 8.836657e+00 -1.658807e+00 4.390306e-01 -2.019435e+00 -4.847860e+00 2.005030e+01 1.300549e-01 -7.678482e-01 -5.267743e-02 -4.670447e-01 -4.641676e-01 -3.715796e-01 -9.930310e-01 1.531772e-01 -6.245699e-01 6.352448e-01 7.711837e-01 1.271163e-01 -1.159320e-02 -1.169041e-01 4.837788e-02 1.342913e-02 -1.832290e-01 -1.311825e-01 -3.213350e-01 7.057767e-02 2.709904e-01 3.999458e-01 1.347012e-01 -1.299658e-01 1.113293e-02 -6.397235e-03
<VARIANCE> 39
 3.986747e+00 1.536416e+01 3.049145e+01 1.740714e+01 1.821189e+01 1.564727e+01 3.431037e+01 1.781754e+01 2.399700e+01 1.542031e+01 1.769854e+01 1.479616e+01 2.857436e-01 4.035610e-01 7.699751e-01 8.591905e-01 9.945747e-01 1.478957e+00 2.209052e+00 1.418931e+00 1.925969e+00 1.754192e+00 1.416458e+00 1.153371e+00 1.293045e+00 2.707507e-03 6.966688e-02 1.620117e-01 1.552282e-01 2.004847e-01 2.408542e-01 3.169811e-01 3.281759e-01 3.478293e-01 2.902404e-01 2.590091e-01 2.781246e-01 2.245095e-01 2.399873e-04
<GCONST> 7.423160e+01
<MIXTURE> 5 1.313648e-01
<MEAN> 39
 5.108043e-01 -5.916496e+00 2.804510e-01 -1.239997e+00 -8.168569e+00 -5.191467e+00 -4.727960e+00 1.295062e+01 6.471898e+00 2.906063e+00 -7.005183e+00 -3.998706e+00 2.037180e+01 4.423435e-02 7.081869e-01 4.412425e-01 4.397580e-01 5.992749e-01 5.630294e-01 7.781000e-02 -8.981951e-01 -9.009469e-01 -5.799241e-01 -5.964056e-03 7.474828e-02 -1.768632e-02 2.799879e-02 -2.334235e-01 1.575474e-02 -4.505387e-02 6.694982e-03 1.586078e-01 -2.778141e-01 -2.065925e-01 -3.721470e-01 2.932593e-02 3.012332e-01 -2.010849e-03 -1.154356e-02
<VARIANCE> 39
 7.005833e+00 1.404434e+01 3.306025e+01 2.743215e+01 2.098321e+01 3.305509e+01 4.997950e+01 3.739867e+01 4.125702e+01 2.540049e+01 2.341382e+01 2.590335e+01 2.363009e-01 2.782179e-01 6.475581e-01 7.279847e-01 8.819071e-01 1.040764e+00 1.170864e+00 1.459389e+00 1.638924e+00 1.724261e+00 1.025380e+00 1.131119e+00 9.732519e-01 4.074051e-03 5.940093e-02 9.961681e-02 1.008096e-01 1.333447e-01 1.508171e-01 1.996555e-01 2.099216e-01 2.392621e-01 2.195492e-01 1.669487e-01 1.721419e-01 1.834179e-01 2.296052e-04
<GCONST> 7.207245e+01
<TRANSP> 5
 0.000000e+00 1.000000e+00 0.000000e+00 0.000000e+00 0.000000e+00
 0.000000e+00 9.205526e-01 7.944748e-02 0.000000e+00 0.000000e+00
 0.000000e+00 0.000000e+00 9.496778e-01 5.032222e-02 0.000000e+00
 0.000000e+00 0.000000e+00 0.000000e+00 9.370769e-01 6.292310e-02
 0.000000e+00 0.000000e+00 0.000000e+00 0.000000e+00 0.000000e+00
<ENDHMM>
~h "b"
<BEGINHMM>
<NUMSTATES> 5
<STATE> 2
<NUMMIXES> 5
<MIXTURE> 1 1.861379e-01
<MEAN> 39
 -3.185872e+00 -2.101289e+00 2.866828e-02 -3.559099e-01 2.203023e+00 4.446036e+00 -6.270930e+00 -8.064263e+00 3.084339e+00 7.332754e+00 3.775961e+00 6.535621e-01 1.706057e+01 2.672135e+00 2.790052e+00 1.535355e+00 -6.223052e-02 5.196312e-01 3.538598e+00 1.323429e+00 3.609302e-01 -6.981465e-01 2.234886e-01 -1.106039e+00 5.663589e-01 4.257542e-01 1.349559e-01 2.233476e-01 -2.591046e-01 -4.264176e-01 -6.610734e-01 -3.186249e-02 2.045472e-01 6.542298e-01 -3.944483e-01 -5.808502e-01 -3.280635e-01 2.597001e-01 8.474752e-02
<VARIANCE> 39
 5.381294e+00 1.281091e+01 1.441483e+01 2.121021e+01 2.068878e+01 5.908189e+01 2.603927e+01 2.148214e+01 2.512268e+01 1.810809e+01 2.694612e+01 2.530015e+01 4.241634e-01 8.263882e-01 1.567723e+00 1.395233e+00 3.508513e+00 2.429317e+00 6.207978e+00 2.456934e+00 3.318626e+00 2.919064e+00 2.813075e+00 2.176888e+00 1.547701e+00 3.990813e-02 1.492755e-01 2.714789e-01 2.307267e-01 4.551741e-01 4.223608e-01 1.045903e+00 6.206115e-01 3.568969e-01 6.714210e-01 3.706789e-01 5.139334e-01 3.907104e-01 4.556972e-03
<GCONST> 9.744268e+01
<MIXTURE> 2 3.303700e-01
<MEAN> 39
 -6.144680e+00 -3.565405e+00 1.061087e+01 1.091899e+01 2.492329e+00 -3.524981e+00 -4.596734e+00 3.332316e-02 -3.529311e-01 -2.358042e+00 -1.202982e+00 -1.863539e+00 1.791382e+01 2.209097e+00 1.020736e+00 1.909594e+00 1.508128e-01 -1.129995e+00 1.963921e-01 -4.387431e-01 6.792750e-01 -1.099642e+00 -2.440779e-01 2.213829e-01 6.258255e-01 5.035906e-01 2.676568e-01 1.160229e-02 -5.170978e-01 -9.821224e-01 -8.401242e-01 -2.157488e-01 -4.917421e-01 -3.319875e-02 -5.218778e-02 4.476949e-01 4.232121e-01 5.529321e-01 2.252289e-02
<VARIANCE> 39
 1.342096e+01 8.666553e+00 3.745574e+01 4.342368e+01 5.352410e+01 6.144513e+01 2.384121e+01 4.470403e+01 2.719433e+01 3.691770e+01 1.370261e+01 1.685130e+01 9.303871e-01 1.176442e+00 1.120920e+00 3.596929e+00 3.793623e+00 6.078860e+00 4.099082e+00 2.921064e+00 3.704442e+00 3.508987e+00 5.028136e+00 3.417452e+00 2.751429e+00 6.388251e-02 3.132791e-01 2.273891e-01 3.986698e-01 6.347533e-01 1.022174e+00 9.650989e-01 5.445693e-01 7.022819e-01 7.517036e-01 8.522689e-01 3.853219e-01 5.022311e-01 8.583803e-03
<GCONST> 1.101906e+02
<MIXTURE> 3 1.581504e-01
<MEAN> 39
 -6.788713e+00 -4.924572e+00 2.195770e+00 4.560705e+00 3.274522e+00 -2.783660e-01 -3.958566e+00 2.353941e-01 1.891667e+00 1.450921e+00 -2.293696e-01 -2.332794e+00 1.678699e+01 1.063397e+00 5.758778e-01 1.010730e+00 1.299932e+00 9.170104e-01 8.663201e-01 5.331411e-01 5.464326e-01 -2.059223e-01 3.010990e-02 -9.126120e-01 -2.571028e-01 2.484280e-01 3.801626e-01 -6.146407e-02 -1.355706e-01 -1.338145e-01 -3.404225e-01 3.793749e-02 -4.354569e-01 -3.890843e-01 -2.563564e-01 1.189009e-01 2.511950e-01 3.381903e-01 1.141477e-01
<VARIANCE> 39
 2.764103e+01 1.106405e+01 2.121507e+01 3.117743e+01 2.853803e+01 3.806054e+01 1.468922e+01 3.909121e+01 3.428479e+01 2.508523e+01 3.633552e+01 3.766404e+01 2.223352e+00 2.348814e+00 1.321757e+00 2.905742e+00 2.807522e+00 3.150404e+00 3.369878e+00 3.559098e+00 2.210196e+00 2.279332e+00 3.841887e+00 1.863114e+00 3.484328e+00 1.011363e-01 1.855509e-01 2.003088e-01 3.281956e-01 3.028400e-01 5.264433e-01 7.028106e-01 5.811788e-01 5.242685e-01 5.790203e-01 6.124550e-01 1.123182e+00 8.044569e-01 1.755059e-02
<GCONST> 1.084569e+02
<MIXTURE> 4 2.094132e-01
<MEAN> 39
 -2.263362e+00 -1.328760e+00 -3.644186e-01 2.256975e+00 5.020169e+00 9.533916e-01 -7.065237e+00 -7.921492e+00 2.101064e-01 3.709738e+00 5.103868e+00 1.134070e+00 1.755067e+01 2.835851e+00 2.293573e+00 3.314763e-01 -8.017044e-01 -5.870345e-01 2.382895e+00 1.289660e-01 3.385136e-02 -9.921985e-01 6.591100e-02 -1.216331e+00 -7.765459e-02 3.829606e-01 1.798397e-01 1.055442e-01 -7.597332e-02 -7.534191e-01 -8.050792e-01 3.177050e-01 1.268827e-01 5.737978e-01 -7.090231e-02 -1.988474e-01 -4.715602e-01 -5.751506e-02 5.511329e-02
<VARIANCE> 39
 1.236568e+01 1.408494e+01 1.470528e+01 2.531935e+01 2.552083e+01 2.602319e+01 3.248256e+01 1.781208e+01 2.819071e+01 4.485445e+01 3.195448e+01 2.153492e+01 5.219908e-01 1.054222e+00 1.145841e+00 2.791151e+00 2.791017e+00 1.952956e+00 5.072483e+00 5.924674e+00 4.551604e+00 2.314073e+00 2.914312e+00 5.199742e+00 2.793702e+00 5.712201e-02 2.017560e-01 3.982005e-01 4.760492e-01 3.432085e-01 2.798737e-01 6.781655e-01 5.554432e-01 4.089646e-01 5.342764e-01 6.874226e-01 7.950448e-01 3.361383e-01 2.440500e-03
<GCONST> 1.023802e+02
<MIXTURE> 5 1.159290e-01
<MEAN> 39
 -1.261414e+00 -1.643355e+00 6.777319e-01 2.834262e+00 4.060521e+00 1.685018e+00 -4.216173e+00 -2.120599e+00 8.965145e-01 2.282472e+00 4.264471e-01 -2.663270e+00 1.788000e+01 7.031172e-01 9.930235e-01 8.043892e-01 1.073584e+00 4.919865e-01 2.704010e-01 7.957227e-01 6.088113e-02 -1.151382e+00 -1.043783e+00 -1.187393e+00 -4.210373e-01 -2.414083e-02 1.652140e-01 -7.075788e-02 4.491942e-02 -3.721333e-01 -6.939359e-01 -3.094721e-02 -4.572070e-01 -2.887289e-01 -4.315561e-01 8.309020e-02 -1.788937e-02 2.219819e-01 5.194374e-02
<VARIANCE> 39
 6.510163e+01 3.965164e+01 1.678533e+01 3.126948e+01 3.147048e+01 5.095232e+01 1.642354e+01 3.822876e+01 3.769502e+01 3.940266e+01 2.518400e+01 2.868797e+01 3.223100e+00 1.096856e+00 1.537634e+00 1.192565e+00 1.744120e+00 3.541453e+00 2.877699e+00 6.708200e+00 4.027504e+00 1.693007e+00 4.398329e+00 1.895146e+00 4.108498e+00 9.158207e-02 1.985124e-01 4.994426e-01 3.958054e-01 4.264949e-01 6.546377e-01 5.991510e-01 3.045689e-01 6.410449e-01 5.033054e-01 1.072560e+00 3.944976e-01 4.734258e-01 2.143750e-02
<GCONST> 1.104211e+02
<STATE> 3
<NUMMIXES> 5
<MIXTURE> 1 2.146463e-01
<MEAN> 39
 1.831705e-01 1.835696e+00 6.168382e+00 2.572869e+00 3.203493e-01 -7.211377e-02 -5.521730e+00 -1.883996e+00 -1.428560e+00 -7.478597e-02 1.636101e-01 2.334217e+00 1.857206e+01 2.207728e+00 1.103993e+00 2.022110e-02 -1.378117e+00 -2.007366e+00 2.478263e-01 -6.717245e-01 4.337050e-01 -9.397395e-01 4.606549e-01 2.802060e-02 1.111436e+00 3.932650e-01 -2.467608e-01 -4.823540e-01 -6.812310e-01 -2.791781e-01 -2.337553e-01 -1.018304e-01 -4.489804e-01 -2.584073e-01 8.267119e-02 3.959689e-01 2.843848e-01 -9.305884e-02 -1.703357e-02
<VARIANCE> 39
 1.054751e+01 1.294097e+01 7.446725e+01 3.266027e+01 2.547093e+01 6.681519e+01 2.894429e+01 3.381027e+01 4.009395e+01 3.458780e+01 3.608619e+01 1.807077e+01 5.415931e-01 1.172640e+00 2.019210e+00 2.762072e+00 2.902009e+00 4.165472e+00 3.136634e+00 3.674768e+00 2.655471e+00 3.674359e+00 3.569900e+00 3.044486e+00 2.620109e+00 4.038146e-02 7.999940e-02 2.820780e-01 2.923248e-01 1.956248e-01 3.062358e-01 7.910527e-01 6.758205e-01 3.601921e-01 6.343302e-01 5.417912e-01 6.473096e-01 4.416769e-01 3.127061e-03
<GCONST> 1.034785e+02
<MIXTURE> 2 3.483648e-01
<MEAN> 39
 6.245102e+00 2.579921e+00 -3.907586e+00 -1.109043e+01 -3.505508e+00 1.036586e+01 -9.777474e+00 -7.770129e+00 -6.487401e-01 8.665295e+00 1.693590e+00 4.552140e+00 1.968110e+01 5.012249e-01 -2.033501e-01 -9.281639e-01 -1.218128e+00 -3.859393e-01 5.234937e-01 -1.311654e+00 -1.039390e-01 1.287514e-01 7.424676e-01 4.454275e-01 1.270934e-01 2.635815e-01 -3.922562e-01 -2.291084e-01 1.880352e-01 6.626810e-01 2.836610e-01 -3.814265e-01 1.904352e-01 1.384734e-01 1.556697e-01 -3.108054e-01 -4.935373e-02 -3.060375e-01 -6.601896e-02
<VARIANCE> 39
 5.413179e+00 2.419464e+01 2.314769e+01 7.403282e+01 2.133425e+01 5.062706e+01 2.836781e+01 4.166196e+01 3.560620e+01 4.311987e+01 4.129126e+01 4.511726e+01 5.351957e-01 7.246586e-01 1.521387e+00 1.552291e+00 3.718589e+00 1.949863e+00 2.116477e+00 1.669119e+00 2.174899e+00 2.533329e+00 3.305070e+00 2.822075e+00 2.592199e+00 2.227397e-02 1.227035e-01 2.875090e-01 2.667299e-01 6.037862e-01 4.525303e-01 5.561769e-01 5.101991e-01 3.817826e-01 6.039174e-01 5.274618e-01 4.671583e-01 3.663575e-01 2.190363e-03
<GCONST> 9.994874e+01
<MIXTURE> 3 1.206369e-01
<MEAN> 39
 2.506360e+00 4.715673e+00 1.130915e+00 -2.401894e+00 -2.008359e-01 7.952776e+00 -2.593189e+00 -4.946491e+00 3.764294e-01 3.308488e+00 -2.674062e+00 4.109611e-01 1.863439e+01 2.409483e+00 8.713254e-01 -6.958839e-01 -2.564240e+00 -1.472330e+00 1.941496e+00 -8.074309e-01 4.714781e-01 -3.814979e-01 6.833264e-01 -6.671577e-01 4.864359e-01 4.989713e-01 -5.144488e-01 -8.300989e-01 -5.676084e-01 -5.421612e-01 -2.123458e-01 -3.860628e-01 -6.072968e-01 3.032962e-02 2.575956e-01 3.125061e-01 5.575510e-01 2.222038e-01 -4.812297e-02
<VARIANCE> 39
 6.666694e+00 1.205802e+01 8.571424e+00 2.167004e+01 1.722135e+01 5.799751e+01 1.077403e+01 2.236713e+01 2.025055e+01 2.343188e+01 1.897206e+01 3.073643e+01 4.709998e-01 1.742383e+00 2.547754e+00 1.821806e+00 4.550565e+00 4.076537e+00 5.379738e+00 3.725843e+00 3.138960e+00 3.362108e+00 5.043236e+00 3.299119e+00 1.428033e+00 6.569337e-02 1.056991e-01 1.221765e-01 1.269018e-01 6.004160e-01 5.900882e-01 8.564687e-01 3.281441e-01 6.855248e-01 4.840897e-01 7.602518e-01 5.517078e-01 2.859413e-01 4.324206e-03
<GCONST> 9.887991e+01
<MIXTURE> 4 1.955219e-01
<MEAN> 39
 4.141803e+00 -3.108974e+00 -1.716006e-01 -4.327022e+00 -5.654509e+00 5.401318e+00 -9.292646e+00 -1.005299e+00 -7.527477e-01 4.408169e+00 5.616705e-02 -5.901979e-01 1.937393e+01 1.100517e+00 -1.107518e+00 -1.083964e+00 -2.046808e+00 -1.893740e+00 6.082035e-01 -2.196275e+00 7.397951e-01 1.821374e-01 1.386621e+00 1.315686e+00 4.989162e-01 3.383903e-01 -7.299032e-01 -5.087189e-02 3.368017e-02 3.001372e-01 3.171268e-01 -6.008294e-01 1.981422e-01 -9.660129e-02 3.369206e-01 -2.253996e-01 5.006119e-02 -9.869988e-02 -1.052249e-01
<VARIANCE> 39
 2.783541e+01 3.603962e+01 7.492296e+01 7.120190e+01 2.947637e+01 6.441447e+01 2.885667e+01 4.288614e+01 2.200354e+01 2.323689e+01 2.953484e+01 2.532501e+01 1.977520e+00 9.973255e-01 2.191857e+00 2.533687e+00 3.088640e+00 2.935499e+00 3.836109e+00 2.770400e+00 3.035644e+00 2.650542e+00 3.709294e+00 2.875506e+00 3.172683e+00 7.182343e-02 1.464072e-01 3.771587e-01 3.358519e-01 6.869825e-01 4.677214e-01 7.703519e-01 6.419286e-01 5.979213e-01 3.778240e-01 7.188135e-01 3.946795e-01 4.207300e-01 4.778577e-03
<GCONST> 1.098453e+02
<MIXTURE> 5 1.208302e-01
<MEAN> 39
 4.551386e+00 4.231651e+00 -8.971298e-01 -3.213069e+00 -1.055264e+00 7.616011e+00 -3.446002e+00 -5.910920e+00 -4.928611e-01 4.139774e+00 -7.836546e-01 -6.160519e-01 1.859791e+01 2.017951e+00 4.830955e-01 -1.082747e+00 -2.680497e+00 -1.955559e+00 1.778641e+00 -5.547206e-01 3.725441e-01 -6.144955e-01 2.564785e-01 -9.109241e-01 6.114856e-02 4.365748e-01 -6.309350e-01 -8.490428e-01 -3.981704e-01 -3.874703e-01 -1.526773e-01 -5.479552e-01 -7.552007e-01 1.310990e-01 4.213504e-01 1.602789e-01 4.422726e-01 9.391608e-02 -3.212297e-02
<VARIANCE> 39
 7.532621e+00 1.234327e+01 1.143344e+01 2.337639e+01 1.563397e+01 3.091719e+01 1.436691e+01 2.356836e+01 1.764423e+01 2.381044e+01 2.067632e+01 2.278919e+01 4.362568e-01 1.321865e+00 1.858028e+00 2.706108e+00 2.857911e+00 2.948173e+00 5.445918e+00 3.165812e+00 3.759891e+00 3.436315e+00 3.288559e+00 3.264217e+00 2.432239e+00 5.953936e-02 1.097057e-01 1.389377e-01 1.469866e-01 7.039072e-01 5.396655e-01 6.573753e-01 2.776542e-01 6.571129e-01 3.257417e-01 7.524509e-01 5.091762e-01 4.632678e-01 4.370161e-03
<GCONST> 9.756906e+01
<STATE> 4
<NUMMIXES> 5
<MIXTURE> 1 2.692297e-01
<MEAN> 39
 4.721651e+00 5.045805e+00 2.636885e+00 1.859013e+00 -2.527851e-01 3.034394e+00 -5.656917e+00 -9.562045e+00 -1.824376e-02 5.885839e+00 -3.896794e+00 -2.718503e+00 1.851076e+01 -2.343791e-01 2.229081e-01 7.010566e-01 5.356731e-01 3.774926e-03 -4.853503e-02 6.486065e-01 5.813442e-01 1.968442e-01 -5.881184e-01 -5.314471e-01 8.665196e-02 -1.177392e-02 9.300128e-02 -1.103976e-01 -1.384525e-01 -1.389619e-01 1.759524e-01 3.599932e-02 -1.160829e-01 1.107454e-01 -1.076130e-02 7.389268e-02 3.129492e-01 1.034238e-01 1.683582e-02
<VARIANCE> 39
 8.162004e+00 2.673323e+01 1.975057e+01 6.484650e+01 2.105941e+01 4.192311e+01 2.529821e+01 4.518438e+01 4.140649e+01 6.628310e+01 4.130950e+01 4.404374e+01 1.104849e+00 3.161481e-01 7.437571e-01 1.023574e+00 1.755604e+00 1.789424e+00 2.038648e+00 2.247394e+00 3.786005e+00 2.016328e+00 4.043762e+00 3.507365e+00 2.751578e+00 9.746470e-03 5.424513e-02 1.279863e-01 1.892989e-01 3.632095e-01 2.715153e-01 2.967242e-01 4.874723e-01 6.603017e-01 4.514282e-01 8.541954e-01 8.201620e-01 4.473584e-01 1.002608e-03
<GCONST> 9.571399e+01
<MIXTURE> 2 2.252891e-01
<MEAN> 39
 3.035870e+00 9.734313e-01 -9.743598e-01 -6.742665e-01 -2.604816e+00 4.552774e-01 -1.385739e+01 -2.948592e+00 3.282048e-01 4.426695e-01 4.567725e+00 2.263571e+00 1.925982e+01 1.668382e-01 -2.552685e-02 -2.748674e-01 9.674334e-03 -1.869375e-01 1.009993e-01 -5.669286e-02 -8.919501e-02 3.056561e-01 4.693166e-01 8.920175e-02 -2.827743e-02 7.082902e-02 -1.266504e-02 9.728846e-03 1.705886e-01 2.700104e-01 1.259406e-01 -3.530733e-02 1.905505e-01 1.101076e-01 -3.317590e-02 -1.710941e-02 -1.983197e-01 -9.059160e-02 -1.423987e-02
<VARIANCE> 39
 3.368313e+01 2.279141e+01 9.202519e+01 1.050274e+02 3.950146e+01 8.501717e+01 8.105315e+01 7.456537e+01 6.266491e+01 6.779559e+01 4.863600e+01 3.855535e+01 2.047237e+00 1.194929e+00 1.349193e+00 1.846690e+00 2.901365e+00 2.306123e+00 3.548093e+00 2.835504e+00 2.680219e+00 2.911075e+00 2.455599e+00 1.791103e+00 1.638937e+00 2.897572e-02 2.994524e-01 3.911530e-01 4.403792e-01 5.972228e-01 5.571843e-01 6.044029e-01 5.982257e-01 4.994296e-01 5.108427e-01 5.778323e-01 4.742030e-01 3.563815e-01 2.361059e-03
<GCONST> 1.118957e+02
<MIXTURE> 3 1.551954e-01
<MEAN> 39
 1.918107e+00 4.532509e+00 4.298415e+00 6.201070e+00 3.115223e+00 2.035177e+00 -3.226869e+00 -5.778560e+00 1.769521e+00 2.695888e+00 -5.751987e+00 -1.382942e+00 1.763155e+01 -3.200160e-02 9.062332e-02 9.214637e-02 4.348338e-01 5.335196e-01 -1.161574e-01 -3.865111e-01 -1.620674e-01 1.541945e-01 -5.531043e-02 3.682045e-01 -9.129904e-02 -5.349698e-02 -5.598704e-02 -3.470395e-02 6.486256e-02 2.069616e-03 -1.345756e-01 -1.387011e-01 -8.948036e-02 -8.952656e-02 7.013801e-02 4.730668e-02 5.726905e-02 3.864123e-02 -8.867306e-04
<VARIANCE> 39
 2.289059e+01 1.440271e+01 2.222367e+01 3.001579e+01 2.176966e+01 3.359117e+01 2.595754e+01 3.696768e+01 4.919760e+01 3.954957e+01 3.263713e+01 3.200536e+01 1.537771e+00 3.730474e-01 9.379432e-01 1.426467e+00 1.543837e+00 2.735178e+00 1.711869e+00 3.172729e+00 2.222843e+00 2.705508e+00 3.020849e+00 3.873370e+00 2.248742e+00 1.211721e-02 4.788806e-02 9.408006e-02 2.895194e-01 3.098119e-01 4.103956e-01 5.010999e-01 8.856143e-01 6.128196e-01 6.370016e-01 8.161098e-01 6.893802e-01 4.584749e-01 4.700955e-04
<GCONST> 9.600820e+01
<MIXTURE> 4 1.753869e-01
<MEAN> 39
 2.873422e-02 5.432318e-01 6.949922e+00 5.188940e-01 -4.261758e+00 -2.239925e+00 -1.106063e+01 3.049128e-02 -1.485020e+00 1.282722e+00 8.644322e-01 1.454154e+00 1.823092e+01 1.382064e-01 -2.320867e-01 -2.663786e-01 -7.702140e-01 -9.921534e-01 -7.900069e-01 -7.268967e-01 1.443107e-01 1.732614e-01 2.267795e-01 3.369823e-01 2.747475e-01 8.246631e-02 -2.630077e-01 2.883593e-04 -1.978035e-01 2.312415e-01 2.556980e-01 8.163006e-02 2.941940e-01 -1.618148e-01 8.057962e-02 -1.528002e-01 -1.984791e-01 -1.414598e-01 -3.705551e-02
<VARIANCE> 39
 4.040816e+01 3.713042e+01 1.039249e+02 4.662965e+01 5.708778e+01 6.073488e+01 4.864698e+01 5.098363e+01 5.937442e+01 3.968360e+01 2.926954e+01 2.965483e+01 4.339336e+00 1.428004e+00 2.497748e+00 2.214100e+00 3.379485e+00 2.752841e+00 3.071933e+00 3.066714e+00 2.383119e+00 3.253576e+00 2.270430e+00 1.860571e+00 3.029575e+00 5.786755e-02 2.477856e-01 3.780300e-01 3.636133e-01 7.100810e-01 6.057135e-01 7.464547e-01 6.665013e-01 4.850615e-01 5.916368e-01 5.635511e-01 5.168176e-01 4.606169e-01 4.047031e-03
<GCONST> 1.140417e+02
<MIXTURE> 5 1.748998e-01
<MEAN> 39
 4.313543e-01 4.961636e+00 5.027118e+00 7.202457e+00 4.289242e+00 4.778374e-01 -2.584808e+00 -5.648512e+00 -2.306599e-01 3.088539e+00 -6.067496e+00 -2.238712e+00 1.674437e+01 -2.932678e-01 -2.693928e-01 -4.089380e-01 -4.865217e-01 -8.288401e-02 -2.622315e-01 -3.752264e-01 -2.422443e-01 -4.971569e-01 5.434169e-02 -2.204303e-01 -1.475449e-01 -1.197338e-01 -1.826567e-01 -1.849016e-02 -9.964261e-03 -5.027390e-02 -1.218869e-01 1.742453e-03 2.819105e-02 5.140002e-02 5.278530e-03 -2.449116e-01 -2.074170e-01 2.860000e-02 -2.839227e-02
<VARIANCE> 39
 2.874655e+01 1.631686e+01 2.060677e+01 2.176802e+01 1.895571e+01 2.708646e+01 3.027958e+01 5.268216e+01 2.369217e+01 4.133485e+01 3.265053e+01 2.915941e+01 1.994998e+00 3.475198e-01 7.987583e-01 1.109774e+00 1.593140e+00 1.872482e+00 2.079689e+00 3.695065e+00 3.125121e+00 2.240730e+00 3.359487e+00 3.906770e+00 2.432974e+00 1.851216e-02 6.754119e-02 1.639023e-01 2.790902e-01 3.860106e-01 4.698208e-01 4.696176e-01 8.771881e-01 8.591560e-01 4.998413e-01 6.359757e-01 8.239534e-01 5.616021e-01 8.163460e-04
<GCONST> 9.780827e+01
<TRANSP> 5
 0.000000e+00 1.000000e+00 0.000000e+00 0.000000e+00 0.000000e+00
 0.000000e+00 5.032911e-01 4.967090e-01 0.000000e+00 0.000000e+00
 0.000000e+00 0.000000e+00 6.941631e-01 3.058369e-01 0.000000e+00
 0.000000e+00 0.000000e+00 0.000000e+00 8.150826e-01 1.849174e-01
 0.000000e+00 0.000000e+00 0.000000e+00 0.000000e+00 0.000000e+00
<ENDHMM>
~h "d"
<BEGINHMM>
<NUMSTATES> 5
<STATE> 2
<NUMMIXES> 5
<MIXTURE> 1 1.022806e-01
<MEAN> 39
 -4.153027e+00 7.539423e+00 9.577156e+00 -4.770815e-02 3.877035e+00 5.365811e+00 -9.007251e-01 -4.855730e+00 -1.965073e+00 -3.527858e+00 -1.160611e+00 3.610969e+00 1.790541e+01 -4.147148e-01 6.206916e-01 9.668630e-02 -4.147195e-02 5.732098e-01 2.792088e-03 5.191488e-01 4.950392e-02 2.789816e-01 -9.738826e-02 -2.956348e-02 3.486821e-01 -1.237550e-02 1.594896e-01 -1.077779e-01 9.894516e-02 2.253924e-01 -9.676073e-03 -1.348726e-01 -3.652222e-01 7.420928e-02 1.666464e-02 1.771724e-01 -3.301380e-02 -2.009062e-01 9.651206e-03
<VARIANCE> 39
 2.289751e+01 4.053351e+01 1.552538e+01 2.186871e+01 2.019822e+01 9.883936e+01 3.530904e+01 2.711822e+01 3.403843e+01 2.662474e+01 2.194460e+01 1.872105e+01 1.198511e+00 9.666204e-01 3.036565e+00 1.531976e+00 2.275134e+00 1.679524e+00 3.711159e+00 4.093764e+00 3.771200e+00 4.637374e+00 2.857211e+00 2.162966e+00 2.227000e+00 2.508315e-02 2.871648e-01 8.485137e-01 2.827890e-01 4.176021e-01 1.887063e-01 1.118223e+00 9.330024e-01 7.805981e-01 9.461226e-01 6.407178e-01 3.635409e-01 4.939137e-01 1.657381e-03
<GCONST> 1.051311e+02
<MIXTURE> 2 2.701496e-01
<MEAN> 39
 -4.719643e+00 8.325271e+00 8.353279e+00 5.659495e+00 2.489105e+00 -7.191591e-01 -4.821329e+00 -5.495217e+00 -1.305022e+00 7.476062e-02 -3.658085e+00 -2.213291e+00 1.633079e+01 -1.795959e+00 -1.452670e+00 -9.318167e-01 -1.086771e+00 8.282477e-01 5.367331e-01 1.590751e+00 3.182901e-01 -4.023089e-01 -1.564275e-01 1.276071e+00 1.004089e+00 -1.983330e-01 -1.706515e-01 -3.822128e-01 -3.372950e-01 -3.667395e-01 -2.021714e-01 -1.235445e-01 3.225961e-01 4.523081e-01 2.498153e-01 -3.880499e-02 2.688043e-01 1.896928e-01 2.097782e-02
<VARIANCE> 39
 3.188178e+01 2.140188e+01 1.734797e+01 1.744798e+01 2.729747e+01 2.972484e+01 2.684149e+01 2.727012e+01 3.452824e+01 2.369926e+01 2.837697e+01 2.323654e+01 3.541485e+00 2.087031e+00 3.567899e+00 2.024353e+00 3.213010e+00 2.992388e+00 3.522105e+00 4.735531e+00 4.218594e+00 4.110282e+00 3.162666e+00 3.860885e+00 2.384189e+00 3.568385e-02 3.541574e-01 4.339223e-01 2.662623e-01 4.414632e-01 6.184421e-01 6.154585e-01 8.834041e-01 5.896701e-01 6.857018e-01 5.473041e-01 6.281973e-01 5.472594e-01 5.168820e-03
<GCONST> 1.094097e+02
<MIXTURE> 3 2.909534e-01
<MEAN> 39
 -2.775631e-01 2.109395e+00 7.617034e+00 1.339221e+00 1.469740e+00 -4.175803e+00 -8.627954e+00 -2.310786e+00 -3.955078e-01 1.293543e+00 -3.245587e+00 -3.252741e+00 1.936214e+01 -1.177521e+00 -6.775683e-01 4.449243e-02 -5.067031e-01 5.010102e-01 -2.893151e-01 5.108514e-01 9.668278e-02 -7.817343e-01 1.126387e-01 3.370917e-01 -4.940568e-02 -3.559308e-02 1.860016e-01 4.755623e-02 -1.926668e-01 -3.233215e-02 -2.697481e-01 1.101326e-01 -3.936137e-01 1.370678e-01 2.630259e-01 1.098600e-01 1.380359e-02 1.150520e-01 5.892177e-03
<VARIANCE> 39
 2.553330e+01 3.964013e+01 4.930215e+01 3.285182e+01 4.802166e+01 4.789635e+01 7.567206e+01 4.554407e+01 3.697327e+01 3.354493e+01 3.335740e+01 1.698510e+01 9.055184e-01 2.924216e+00 2.688002e+00 2.075303e+00 2.310600e+00 4.012369e+00 6.983105e+00 4.729712e+00 4.434377e+00 3.276388e+00 2.522121e+00 2.040783e+00 2.072020e+00 1.152060e-02 4.216866e-01 3.937783e-01 3.680096e-01 4.757322e-01 6.667012e-01 8.747199e-01 7.303711e-01 4.133514e-01 6.059964e-01 4.536165e-01 4.436823e-01 3.678747e-01 9.319776e-04
<GCONST> 1.089747e+02
<MIXTURE> 4 2.425054e-01
<MEAN> 39
 -4.895850e+00 7.658505e+00 7.841350e+00 5.058031e+00 2.105960e-02 -3.517926e+00 -4.457623e+00 -4.018379e+00 -8.784803e-01 -7.163944e-01 -3.564874e+00 -2.650327e+00 1.587906e+01 -2.228626e+00 -2.087772e+00 -1.580020e+00 -1.593097e+00 9.011124e-01 3.571206e-01 9.534729e-01 -4.703650e-01 -9.894847e-01 -9.013661e-01 5.131190e-01 1.625609e-01 -2.825471e-01 -1.917562e-01 -4.119928e-01 -2.800332e-01 -2.411393e-01 -2.411548e-02 3.421963e-02 9.653535e-03 1.770455e-01 7.977211e-02 -7.648157e-02 1.525891e-01 2.947548e-01 1.994182e-03
<VARIANCE> 39
 2.768915e+01 2.507781e+01 1.660321e+01 1.552406e+01 2.968702e+01 2.900438e+01 2.790036e+01 3.125635e+01 2.716774e+01 2.779691e+01 3.314135e+01 1.941499e+01 3.609633e+00 2.354094e+00 3.157059e+00 1.748559e+00 2.803933e+00 4.012584e+00 2.974657e+00 4.383699e+00 4.326416e+00 3.742948e+00 3.531913e+00 3.742560e+00 2.577984e+00 4.334261e-02 3.127115e-01 4.781836e-01 3.259845e-01 4.526922e-01 5.568594e-01 4.740750e-01 7.398173e-01 7.182438e-01 6.835665e-01 7.210448e-01 7.024521e-01 4.748436e-01 8.437986e-03
<GCONST> 1.100480e+02
<MIXTURE> 5 9.411065e-02
<MEAN> 39
 -4.941467e+00 7.115861e+00 7.670584e+00 -1.081408e+00 3.070660e+00 2.295479e+00 -3.691304e+00 -5.082770e+00 -7.560868e-01 -3.123280e+00 -9.784179e-01 3.810821e+00 1.798028e+01 -1.120979e+00 -5.476158e-03 -3.528475e-01 3.212615e-02 9.152055e-01 -4.930290e-01 1.268799e+00 3.245074e-01 1.131107e-01 -5.795880e-01 -5.831379e-01 4.498111e-01 -1.104865e-01 5.764240e-02 -2.359101e-01 4.050145e-02 2.773426e-01 -1.644036e-01 -3.173893e-01 -1.311541e-01 2.724045e-01 1.531040e-01 3.822321e-01 -1.471462e-01 -4.002324e-01 3.388043e-03
<VARIANCE> 39
 5.874286e+01 2.543957e+01 2.465230e+01 3.016706e+01 2.919695e+01 1.282191e+02 5.152387e+01 4.248725e+01 2.977727e+01 4.821844e+01 3.267296e+01 2.069270e+01 2.067327e+00 1.330905e+00 2.333375e+00 1.499286e+00 1.682149e+00 2.382413e+00 4.494472e+00 4.304664e+00 4.899388e+00 3.881528e+00 5.312052e+00 2.698700e+00 1.872671e+00 2.407170e-02 4.545739e-01 4.226702e-01 2.577638e-01 2.118462e-01 2.999165e-01 1.366186e+00 8.278276e-01 7.650996e-01 6.195143e-01 1.059258e+00 4.408925e-01 3.392290e-01 1.251309e-03
<GCONST> 1.095161e+02
<STATE> 3
<NUMMIXES> 5
<MIXTURE> 1 2.428189e-01
<MEAN> 39
 -8.237386e+00 1.990883e+00 5.178904e+00 1.461324e+00 4.238193e+00 -2.099641e+00 -1.662875e+00 -4.034212e+00 -1.776363e+00 -1.075231e+00 -1.245239e+00 -1.105056e+00 1.790593e+01 -2.188267e-02 1.391240e-01 -4.333137e-01 -3.179615e-01 -2.836590e-01 -6.074599e-01 -5.155976e-01 5.887696e-01 6.193755e-01 3.119086e-01 1.537124e-01 3.206214e-01 5.915263e-02 6.188924e-01 5.127026e-01 3.887302e-01 1.666930e-01 -5.132114e-01 -2.209541e-01 -6.467817e-01 1.058980e-01 4.463724e-01 1.228200e-01 -1.827769e-01 4.215964e-02 4.048087e-02
<VARIANCE> 39
 3.505985e+01 2.209352e+01 2.311682e+01 1.602098e+01 2.586781e+01 3.457565e+01 3.028544e+01 2.468062e+01 3.186705e+01 2.787850e+01 2.477882e+01 1.905612e+01 2.279226e+00 1.290994e+00 2.592669e+00 2.331477e+00 1.777500e+00 1.979818e+00 3.368384e+00 3.063078e+00 3.084172e+00 2.722531e+00 2.529375e+00 2.990650e+00 2.498333e+00 1.356089e-02 4.590391e-01 7.954670e-01 6.035835e-01 3.622431e-01 5.113534e-01 8.852063e-01 7.129295e-01 5.733852e-01 7.867046e-01 6.847616e-01 5.985230e-01 5.675318e-01 1.232338e-03
<GCONST> 1.052284e+02
<MIXTURE> 2 2.523195e-01
<MEAN> 39
 -8.105506e+00 2.406370e+00 2.966739e+00 3.272662e+00 4.030515e+00 1.732617e+00 1.803834e+00 -2.697684e-01 5.635458e-01 5.575163e-02 -4.286883e+00 -1.206311e+00 1.476509e+01 -6.825469e-01 -5.476825e-01 -6.582326e-01 -4.750995e-01 -2.189834e-01 -9.317458e-02 5.134611e-01 3.772183e-01 2.698261e-02 -1.568885e-01 6.629860e-01 5.395016e-01 -2.762356e-01 1.309022e-01 1.789621e-01 2.147675e-01 1.645240e-01 -2.287241e-01 -2.963122e-01 -3.539172e-01 -1.983714e-01 -8.593252e-04 1.349451e-03 3.854633e-02 4.089223e-02 3.895137e-02
<VARIANCE> 39
 1.751213e+01 2.188251e+01 1.867277e+01 1.718214e+01 2.749877e+01 3.555460e+01 2.951709e+01 2.738137e+01 3.289147e+01 3.204487e+01 3.541544e+01 2.182718e+01 3.957452e+00 8.149344e-01 1.450344e+00 1.456490e+00 2.141930e+00 2.233605e+00 2.604893e+00 2.754528e+00 3.361533e+00 3.231412e+00 2.783854e+00 3.070900e+00 2.770419e+00 4.806302e-02 2.200840e-01 5.279233e-01 3.322567e-01 4.664407e-01 7.700371e-01 6.898730e-01 6.554704e-01 7.659352e-01 8.329706e-01 7.174887e-01 8.320168e-01 5.642312e-01 1.001115e-02
<GCONST> 1.073434e+02
<MIXTURE> 3 1.310055e-01
<MEAN> 39
 -5.072014e+00 2.136437e+00 5.994268e+00 8.358183e-01 -1.516971e+00 -5.008395e+00 -9.169297e+00 3.143247e-01 7.365448e-01 1.186720e+00 -1.157777e+00 5.037411e-01 1.718764e+01 -6.598728e-02 2.766922e-01 -5.783097e-02 1.628125e-01 3.075958e-01 2.139041e-01 3.996429e-01 2.378089e-01 -1.586549e-02 2.244625e-01 9.666354e-02 2.599272e-01 -3.172399e-02 1.612524e-01 -3.404070e-02 -1.143154e-01 -4.110637e-02 3.388027e-02 1.878474e-01 7.269800e-02 7.559808e-04 9.466050e-03 9.239802e-02 8.860097e-03 -1.538366e-01 1.834694e-02
<VARIANCE> 39
 6.996623e+01 3.609201e+01 4.128973e+01 3.231791e+01 4.111129e+01 4.259762e+01 1.059847e+02 4.839122e+01 4.773427e+01 5.917101e+01 3.780297e+01 3.697271e+01 1.145788e+01 6.122115e-01 7.852033e-01 1.082680e+00 1.552378e+00 1.591374e+00 2.860889e+00 2.212152e+00 1.880352e+00 2.677229e+00 3.191309e+00 2.374231e+00 1.655823e+00 1.160843e-02 8.983117e-02 1.383848e-01 1.580612e-01 3.059566e-01 2.876370e-01 4.391629e-01 5.619692e-01 3.963050e-01 5.261024e-01 6.627266e-01 4.906963e-01 4.897053e-01 1.193961e-03
<GCONST> 1.019342e+02
<MIXTURE> 4 2.432799e-01
<MEAN> 39
 -9.042543e+00 2.479528e+00 2.603198e+00 2.538013e+00 2.547013e+00 -3.716229e-02 -2.841860e-01 -1.273924e+00 1.300161e-01 -9.781180e-02 -3.019557e+00 -5.282475e-01 1.419236e+01 -9.407296e-01 -9.956947e-01 -1.162414e+00 -1.228178e+00 -9.980297e-01 -9.875993e-01 -1.902117e-01 2.004432e-01 -9.941535e-02 -1.072202e-01 6.580307e-01 5.838625e-01 -3.231460e-01 1.859943e-01 2.387379e-01 1.931584e-01 1.651355e-01 -1.531550e-01 -2.142075e-01 -2.516771e-01 -8.408882e-02 -6.192499e-02 6.122552e-02 1.067425e-02 -2.629978e-02 2.500460e-02
<VARIANCE> 39
 1.841703e+01 2.075782e+01 1.691211e+01 1.765234e+01 2.337892e+01 2.534513e+01 2.929773e+01 3.549450e+01 2.863844e+01 2.363584e+01 3.925802e+01 1.744977e+01 3.950568e+00 1.177237e+00 2.251972e+00 1.834929e+00 2.792397e+00 3.117459e+00 2.757585e+00 3.413976e+00 3.672181e+00 2.639266e+00 3.692349e+00 3.820660e+00 2.453661e+00 5.715854e-02 2.009454e-01 3.369881e-01 2.704752e-01 4.396279e-01 5.803776e-01 5.010183e-01 5.966800e-01 7.444617e-01 6.369227e-01 7.518017e-01 9.526939e-01 4.946700e-01 7.421859e-03
<GCONST> 1.067557e+02
<MIXTURE> 5 1.305755e-01
<MEAN> 39
 -9.230341e+00 4.562572e+00 5.090784e+00 3.891727e+00 7.894586e-01 -3.697261e+00 -3.065419e+00 -8.741050e-01 -2.051928e+00 -2.509095e+00 -2.569250e+00 6.559705e-01 1.438124e+01 -3.316964e-01 2.964434e-02 -2.505670e-01 2.124412e-01 7.725736e-02 -9.330896e-02 1.184532e-01 8.850044e-02 -1.770475e-01 -1.489851e-01 -1.818107e-01 -2.885963e-01 -1.245653e-01 4.482944e-02 -6.649223e-02 -2.552291e-01 -2.288118e-01 -8.460292e-02 4.710784e-02 -8.256755e-02 -1.780393e-02 3.360111e-01 4.294240e-01 7.465518e-02 -8.321420e-02 1.356934e-02
<VARIANCE> 39
 5.288903e+01 2.021499e+01 2.425514e+01 3.839626e+01 4.312148e+01 3.350397e+01 4.709749e+01 3.715332e+01 4.213800e+01 3.696524e+01 3.230889e+01 2.569023e+01 9.039316e+00 4.782659e-01 5.863327e-01 1.094178e+00 2.628739e+00 2.301507e+00 2.931178e+00 2.544235e+00 2.463535e+00 3.363179e+00 3.759653e+00 2.816399e+00 2.134211e+00 1.452251e-02 1.077392e-01 1.311270e-01 2.322926e-01 6.033245e-01 5.400952e-01 5.889425e-01 6.180687e-01 5.015331e-01 7.342026e-01 7.991615e-01 6.412182e-01 4.807878e-01 1.766875e-03
<GCONST> 1.035437e+02
<STATE> 4
<NUMMIXES> 5
<MIXTURE> 1 2.139348e-01
<MEAN> 39
 -1.708844e+01 3.900608e+00 6.415048e+00 1.744146e+00 9.505187e-01 -4.350424e+00 -6.026337e-01 -1.145919e+00 4.418793e+00 -3.009166e+00 -3.930552e-01 1.924627e+00 1.685852e+01 7.434344e-01 1.015662e+00 1.666354e+00 1.279495e+00 2.433821e-01 1.376812e-01 -4.028612e-01 -8.900554e-02 3.299016e-01 -3.299344e-01 -8.792301e-01 -2.587894e-01 2.451323e-01 5.090159e-01 -2.066843e-01 -1.642549e-01 -2.132416e-01 -4.139161e-01 -1.601152e-01 -4.095939e-01 -1.730033e-01 -2.269784e-01 2.076374e-01 1.444679e-01 -3.086837e-02 5.295751e-02
<VARIANCE> 39
 3.118009e+01 4.421003e+01 5.220221e+01 3.978615e+01 2.816565e+01 3.226880e+01 3.932894e+01 3.861971e+01 3.337577e+01 2.797241e+01 3.350700e+01 1.768900e+01 1.173354e+00 2.227115e+00 1.826688e+00 2.631223e+00 2.128113e+00 3.841591e+00 3.984298e+00 4.895690e+00 2.820206e+00 3.415452e+00 3.470930e+00 3.115752e+00 3.078552e+00 7.619538e-02 1.997610e-01 4.682876e-01 6.049960e-01 5.676931e-01 6.217217e-01 7.543444e-01 1.075022e+00 5.465283e-01 5.743386e-01 7.194251e-01 8.651601e-01 5.226659e-01 4.781877e-03
<GCONST> 1.129572e+02
<MIXTURE> 2 2.154787e-01
<MEAN> 39
 -1.347023e+01 5.894027e-01 -6.152894e-02 -3.691361e+00 -5.014851e+00 -7.523014e+00 -4.388057e+00 -2.316403e+00 2.919773e+00 1.701400e+00 1.558209e+00 2.327341e+00 1.486225e+01 -4.857377e-01 4.915226e-01 2.285234e-01 1.411978e-01 7.641014e-02 -1.322843e-01 2.360472e-01 4.718348e-01 7.882298e-01 2.397570e-01 3.810985e-01 4.507763e-01 1.260889e-02 5.951381e-02 1.733373e-01 3.886566e-01 5.126815e-01 5.738919e-01 4.967337e-01 2.634604e-01 1.076808e-01 -1.002915e-01 -2.550999e-01 -2.932534e-01 -2.505288e-01 5.072405e-02
<VARIANCE> 39
 4.773228e+01 3.399529e+01 3.245965e+01 3.406884e+01 6.202771e+01 4.535856e+01 4.385654e+01 4.954143e+01 4.956527e+01 4.694071e+01 2.321313e+01 2.082997e+01 6.432729e+00 1.528178e+00 3.457828e+00 2.415985e+00 2.894396e+00 3.800680e+00 4.464139e+00 4.456498e+00 3.066170e+00 3.673603e+00 3.112987e+00 2.503627e+00 2.631862e+00 1.793687e-01 3.058061e-01 6.630929e-01 5.860531e-01 6.619765e-01 6.571588e-01 7.932857e-01 8.790167e-01 8.095878e-01 8.010522e-01 7.669721e-01 5.321248e-01 5.609223e-01 3.063858e-02
<GCONST> 1.204418e+02
<MIXTURE> 3 2.271257e-01
<MEAN> 39
 -4.801614e+00 5.796268e+00 7.917766e+00 2.501300e+00 -7.508698e-01 -7.877580e+00 -9.556547e+00 -3.352372e+00 4.093023e+00 -7.949445e-01 -1.683789e+00 1.505598e+00 1.919835e+01 1.259066e+00 -2.897565e-01 -5.870360e-02 -2.999178e-01 -6.635267e-01 -3.107405e-01 -1.233804e+00 3.927828e-01 1.855071e-02 2.443200e-01 5.169893e-03 1.981882e-01 2.053118e-01 -9.774462e-03 -2.395216e-01 -1.378031e-01 -5.977482e-02 1.655677e-02 2.758224e-01 6.192815e-02 1.571196e-01 -1.692412e-01 6.809402e-03 4.353983e-02 -1.059094e-01 -1.442395e-02
<VARIANCE> 39
 3.475494e+01 2.295035e+01 4.528231e+01 2.867652e+01 3.730589e+01 3.504079e+01 5.981592e+01 3.745482e+01 2.723266e+01 3.687717e+01 2.835531e+01 2.828961e+01 8.941483e-01 1.077863e+00 1.434784e+00 1.576037e+00 1.596503e+00 2.577036e+00 3.224358e+00 4.314401e+00 2.794758e+00 2.284903e+00 2.068138e+00 2.465564e+00 1.912735e+00 2.533793e-02 1.233178e-01 1.836354e-01 2.393993e-01 2.701008e-01 4.894072e-01 4.730512e-01 7.071390e-01 4.833208e-01 4.414728e-01 4.089921e-01 4.611611e-01 3.822799e-01 1.525640e-03
<GCONST> 1.003039e+02
<MIXTURE> 4 1.975302e-01
<MEAN> 39
 -1.438775e+01 -1.405499e+00 -1.571584e-01 -1.954943e+00 -1.153363e+00 -3.843211e+00 -1.665393e+00 -2.161745e+00 6.995255e-01 -4.452915e-02 1.286672e+00 9.156879e-01 1.461227e+01 -5.280890e-01 -8.467696e-01 -7.685485e-01 -7.705817e-01 -1.431270e-01 -4.165243e-01 -1.993048e-01 -2.366074e-01 -3.920754e-02 -4.657681e-01 -1.043192e-01 -1.834262e-01 3.239930e-01 5.938027e-02 3.583263e-01 1.632063e-01 2.109282e-01 -3.742606e-02 -1.906907e-01 -2.534269e-01 -6.997586e-02 2.069504e-01 4.810542e-02 -1.459095e-01 4.343536e-02 -1.991538e-02
<VARIANCE> 39
 3.412743e+01 5.361180e+01 2.717198e+01 3.425385e+01 4.153193e+01 4.081560e+01 3.481454e+01 4.696804e+01 3.437100e+01 2.936641e+01 2.117670e+01 1.952977e+01 5.290411e+00 2.240449e+00 5.572697e+00 2.357605e+00 3.732644e+00 3.317607e+00 4.481982e+00 4.509180e+00 4.609113e+00 3.305063e+00 3.655781e+00 2.794367e+00 2.731667e+00 3.616961e-01 4.131970e-01 1.191877e+00 5.211991e-01 6.551616e-01 6.082085e-01 9.162385e-01 9.451528e-01 7.918440e-01 6.741748e-01 7.091727e-01 5.956402e-01 6.161977e-01 5.494341e-02
<GCONST> 1.221090e+02
<MIXTURE> 5 1.459296e-01
<MEAN> 39
 -7.990190e+00 4.743096e+00 6.245976e+00 1.826033e+00 -5.356240e-01 -5.541377e+00 -6.667766e+00 -1.413781e+00 3.215506e+00 -2.891099e-01 -1.556132e+00 4.086267e-01 1.775734e+01 1.173299e+00 -3.839890e-01 -5.011192e-01 -8.730996e-01 -8.385603e-01 -3.319622e-01 -1.357984e+00 1.325353e-01 -8.716068e-02 6.803730e-01 2.116560e-01 -8.895735e-02 1.511958e-01 -8.547772e-02 -2.566521e-01 -1.460222e-01 -2.160222e-01 -2.104333e-01 -3.011323e-02 -8.962419e-02 4.864939e-02 8.973732e-02 1.374687e-01 3.113318e-02 8.665937e-03 -3.359748e-02
<VARIANCE> 39
 7.983492e+01 2.805220e+01 4.316886e+01 3.173651e+01 4.659521e+01 3.963478e+01 5.226318e+01 3.749036e+01 3.914502e+01 3.158407e+01 2.530264e+01 2.893565e+01 6.207899e+00 1.923036e+00 1.374914e+00 1.612214e+00 2.037598e+00 2.448193e+00 3.190217e+00 3.682437e+00 2.403934e+00 2.254479e+00 2.822125e+00 2.707268e+00 2.242217e+00 7.675097e-02 1.951544e-01 1.901171e-01 3.368147e-01 3.652128e-01 5.575307e-01 6.469358e-01 7.389472e-01 5.216156e-01 5.671921e-01 4.429190e-01 6.359968e-01 6.410317e-01 3.063214e-03
<GCONST> 1.093119e+02
<TRANSP> 5
 0.000000e+00 1.000000e+00 0.000000e+00 0.000000e+00 0.000000e+00
 0.000000e+00 4.724895e-01 5.275105e-01 0.000000e+00 0.000000e+00
 0.000000e+00 0.000000e+00 6.372861e-01 3.627140e-01 0.000000e+00
 0.000000e+00 0.000000e+00 0.000000e+00 8.124321e-01 1.875680e-01
 0.000000e+00 0.000000e+00 0.000000e+00 0.000000e+00 0.000000e+00
<ENDHMM>
~h "e"
<BEGINHMM>
<NUMSTATES> 5
<STATE> 2
<NUMMIXES> 5
<MIXTURE> 1 3.744299e-01
<MEAN> 39
 7.520483e-01 -5.800002e+00 3.917994e+00 -2.335714e+00 -1.040912e+01 -5.596419e+00 -1.067972e+01 8.216925e+00 5.328265e+00 3.595452e+00 -1.076144e+00 -6.180590e-01 2.034942e+01 1.577632e-01 -4.298559e-01 -2.516006e-01 1.228418e-01 6.455833e-02 1.820256e-02 2.361374e-01 1.366946e-01 -1.430333e-01 4.922136e-02 -2.717094e-01 -1.167536e-01 6.164913e-02 -5.968963e-02 -4.408557e-02 7.372224e-02 2.066060e-02 1.436416e-01 1.875844e-01 -1.042029e-02 1.344293e-02 -1.693270e-01 -1.698075e-01 4.131451e-03 -1.346965e-01 -1.749653e-02
<VARIANCE> 39
 7.286631e+00 2.702321e+01 5.498955e+01 2.967187e+01 4.469705e+01 5.451377e+01 3.440900e+01 4.273541e+01 4.715651e+01 4.556033e+01 6.154846e+01 3.292199e+01 4.220718e-01 4.179300e-01 1.377253e+00 1.228429e+00 1.469052e+00 2.351044e+00 2.189847e+00 1.753022e+00 2.015547e+00 2.166773e+00 2.142829e+00 1.629217e+00 1.331637e+00 5.227212e-03 5.523000e-02 1.570376e-01 1.711974e-01 2.488507e-01 3.555084e-01 3.869672e-01 3.719089e-01 3.547509e-01 4.151983e-01 3.640250e-01 3.222970e-01 2.753702e-01 6.294405e-04
<GCONST> 9.027324e+01
<MIXTURE> 2 1.760269e-01
<MEAN> 39
 -2.948208e+00 -1.494900e+00 1.463139e+00 -2.063089e+00 -6.640078e+00 -6.944948e+00 -6.409449e+00 7.213870e+00 7.395254e+00 4.660567e+00 -7.543013e+00 3.185479e-02 1.837933e+01 8.121049e-01 -2.197233e-01 -2.866954e-01 1.700629e-02 -4.792159e-01 1.080776e+00 -1.441382e-02 -3.802070e-01 -4.333413e-01 1.414361e-01 4.116826e-01 2.453094e-01 1.721217e-01 -2.547054e-01 -5.594563e-01 1.117410e-01 -2.680088e-01 -1.248113e-02 2.854781e-01 -3.382849e-01 2.883947e-01 -4.526701e-02 -9.574313e-02 4.506822e-01 -1.861909e-01 -3.455246e-02
<VARIANCE> 39
 1.018987e+01 3.496785e+01 2.407063e+01 3.091368e+01 4.317780e+01 5.104785e+01 5.805803e+01 5.514080e+01 3.480156e+01 2.859156e+01 2.631201e+01 3.085192e+01 1.809319e+00 1.894294e+00 3.082423e+00 1.525588e+00 4.016680e+00 4.157514e+00 3.438747e+00 5.751495e+00 4.718657e+00 4.052627e+00 3.049767e+00 2.428328e+00 2.281951e+00 1.225624e-01 3.076504e-01 4.755189e-01 2.965181e-01 6.552563e-01 6.767199e-01 8.930275e-01 6.516224e-01 8.053430e-01 1.070178e+00 6.206021e-01 4.831342e-01 5.173366e-01 1.095274e-02
<GCONST> 1.147767e+02
<MIXTURE> 3 1.490205e-01
<MEAN> 39
 -3.883790e-01 -8.161562e+00 3.336142e+00 -6.349476e+00 -9.039795e+00 -3.498972e+00 -1.381538e+01 1.130469e+01 7.713243e+00 4.892632e+00 -4.036880e+00 -3.263568e+00 1.964679e+01 3.004463e-01 1.705734e-01 -4.148185e-01 -5.053856e-02 -5.232024e-01 -8.591157e-01 -5.497808e-02 8.441942e-01 1.232011e+00 4.559961e-01 -4.998620e-01 2.172979e-01 7.988774e-02 -1.171391e-01 3.487802e-01 -9.087286e-02 4.751936e-01 3.560135e-01 -1.619566e-03 6.689240e-01 -5.260986e-01 -3.492363e-01 -1.716150e-01 -7.974660e-02 2.039332e-01 -3.797097e-02
<VARIANCE> 39
 1.089997e+01 4.563775e+01 1.851984e+01 3.996901e+01 3.436057e+01 8.917305e+01 4.921133e+01 5.195626e+01 4.857233e+01 3.719619e+01 2.410457e+01 3.167064e+01 6.113759e-01 3.413740e-01 2.658463e+00 1.092725e+00 1.933117e+00 2.361951e+00 2.509986e+00 3.239217e+00 2.841791e+00 2.745982e+00 2.462131e+00 2.145037e+00 1.952865e+00 1.642554e-02 1.093677e-01 3.942897e-01 2.592597e-01 4.778347e-01 6.391864e-01 7.437205e-01 5.779920e-01 6.033784e-01 6.750864e-01 5.184457e-01 3.522411e-01 4.200250e-01 2.788143e-03
<GCONST> 1.020254e+02
<MIXTURE> 4 1.479715e-01
<MEAN> 39
 -5.067881e+00 -6.432628e+00 -4.609269e-01 -4.109380e+00 -8.944698e+00 -4.617194e+00 -3.164136e+00 1.217169e+01 8.708104e+00 3.800141e+00 -8.407845e+00 -2.907046e+00 1.725210e+01 1.252024e-01 -5.572942e-01 1.233952e-01 -7.947122e-02 3.937374e-02 3.800046e-01 -1.158484e-01 -2.328306e-02 -3.945705e-01 -1.876967e-01 1.234471e-01 -4.231635e-02 8.424003e-02 -1.196510e-02 -1.373780e-01 3.717704e-02 -1.118282e-01 -1.408518e-01 -3.317924e-02 -2.609792e-01 1.135681e-01 1.202585e-01 4.663492e-02 4.249550e-02 -7.853588e-03 2.412037e-03
<VARIANCE> 39
 1.520498e+01 3.837263e+01 2.199319e+01 4.555222e+01 5.765595e+01 3.800033e+01 4.539976e+01 7.399643e+01 4.285445e+01 2.784308e+01 2.963330e+01 2.240664e+01 2.157677e+00 2.153524e+00 3.922522e+00 1.769297e+00 4.163331e+00 2.743350e+00 4.044550e+00 4.186779e+00 6.559067e+00 5.257136e+00 3.240399e+00 3.568635e+00 2.935509e+00 1.265707e-01 3.558147e-01 6.985821e-01 2.988941e-01 7.646559e-01 5.623372e-01 8.531407e-01 6.773480e-01 1.556033e+00 1.303459e+00 6.126211e-01 7.268353e-01 6.473975e-01 1.488803e-02
<GCONST> 1.193505e+02
<MIXTURE> 5 1.525497e-01
<MEAN> 39
 -9.263182e-01 -8.893443e+00 2.927624e+00 -5.454007e+00 -9.211527e+00 -7.719497e-01 -1.312971e+01 9.257175e+00 4.989571e+00 2.689381e+00 -3.092136e+00 -3.357935e+00 1.946745e+01 9.418834e-02 -1.072214e+00 -9.249243e-02 -1.119329e+00 -1.033835e+00 -4.896649e-01 -1.436458e+00 1.296840e+00 1.101705e+00 6.536802e-01 -1.045576e-01 -4.438962e-01 8.779714e-02 -1.113681e-01 5.633715e-01 -1.595817e-01 2.447225e-01 1.582619e-01 -5.662668e-01 5.674132e-01 -6.022229e-02 3.177296e-01 2.135590e-01 -3.538852e-01 1.768158e-01 -4.653978e-02
<VARIANCE> 39
 1.062945e+01 4.137447e+01 1.728696e+01 3.118855e+01 3.388666e+01 5.592957e+01 3.913150e+01 3.419006e+01 2.888065e+01 2.664182e+01 1.634973e+01 1.591726e+01 7.091978e-01 3.641379e-01 2.171654e+00 1.294610e+00 1.782451e+00 2.037830e+00 4.442862e+00 3.071608e+00 2.877421e+00 3.691536e+00 2.018728e+00 2.153739e+00 2.696343e+00 1.862664e-02 1.322743e-01 4.567682e-01 2.809985e-01 4.955727e-01 6.439862e-01 5.787128e-01 6.113707e-01 6.074235e-01 5.779317e-01 5.310004e-01 3.822226e-01 4.378521e-01 2.675923e-03
<GCONST> 9.978342e+01
<STATE> 3
<NUMMIXES> 5
<MIXTURE> 1 1.230510e-01
<MEAN> 39
 1.696999e+00 -1.161786e+01 4.148833e-01 -3.971539e+00 -1.050257e+01 -1.307636e+00 -1.342375e+01 1.272650e+01 7.994856e+00 7.283065e+00 -2.408303e+00 -6.038667e+00 2.072183e+01 2.607231e-02 6.121389e-01 8.966659e-02 1.142171e-02 -7.883073e-02 -7.521712e-01 3.247587e-01 5.405562e-01 9.823015e-01 2.743273e-01 -4.982391e-01 2.802610e-01 2.303292e-02 5.258029e-02 2.002099e-01 5.686640e-02 1.433830e-01 1.622626e-01 5.805743e-02 1.717460e-01 -2.315691e-01 -2.223981e-01 -2.145488e-01 -1.002357e-01 1.063215e-01 -1.525413e-04
<VARIANCE> 39
 4.008221e+00 1.299495e+01 3.766689e+01 2.295111e+01 2.935182e+01 1.800651e+01 3.582206e+01 2.836884e+01 4.076169e+01 2.610839e+01 2.280068e+01 2.986813e+01 2.268905e-01 1.087370e-01 3.444592e-01 2.889464e-01 5.773935e-01 6.948724e-01 8.869741e-01 8.263229e-01 9.142020e-01 1.461740e+00 1.047888e+00 8.534134e-01 6.926431e-01 7.160754e-04 1.815900e-02 4.854080e-02 6.797776e-02 1.068266e-01 1.444826e-01 1.259746e-01 1.524709e-01 1.737018e-01 2.121392e-01 1.991143e-01 1.690042e-01 1.146217e-01 9.441029e-05
<GCONST> 5.844291e+01
<MIXTURE> 2 1.957110e-01
<MEAN> 39
 2.700235e+00 -8.204202e+00 4.286965e-01 -1.397055e-01 -8.469177e+00 -5.265524e-01 -1.089985e+01 8.809814e+00 1.726979e+00 9.340681e-01 -3.423522e+00 -4.971930e+00 2.079729e+01 3.414135e-02 -4.814857e-01 8.481604e-02 -2.714609e-02 -1.192970e-01 1.717626e-01 -3.633190e-01 2.270743e-02 -5.685934e-01 -1.530469e-02 4.018021e-01 9.768375e-02 -1.251281e-02 -1.798531e-02 -3.476441e-02 2.395775e-02 -1.322630e-01 -3.456965e-02 -1.095929e-01 -6.714386e-02 1.222380e-01 1.651269e-01 1.963275e-01 -2.818735e-02 6.034720e-02 -3.071082e-04
<VARIANCE> 39
 4.949126e+00 1.476162e+01 2.969257e+01 1.811479e+01 2.236471e+01 1.451966e+01 3.978140e+01 2.015683e+01 2.084788e+01 1.315901e+01 1.315924e+01 1.626018e+01 2.268905e-01 1.753912e-01 4.279471e-01 5.219005e-01 6.954103e-01 7.964817e-01 9.515495e-01 9.203753e-01 1.308321e+00 1.693031e+00 1.423751e+00 8.710285e-01 7.688401e-01 9.935769e-04 2.430906e-02 7.373403e-02 7.118137e-02 8.233086e-02 1.147948e-01 1.154316e-01 1.677916e-01 1.832527e-01 2.066540e-01 1.444468e-01 1.463068e-01 1.434854e-01 9.112523e-05
<GCONST> 5.814539e+01
<MIXTURE> 3 3.161633e-01
<MEAN> 39
 1.455079e+00 -7.408885e+00 2.797386e+00 -2.455808e+00 -1.076290e+01 -5.543363e+00 -1.047958e+01 1.353836e+01 7.534348e+00 3.779807e+00 -4.433683e+00 -2.566050e+00 2.084243e+01 5.296800e-02 6.080654e-01 4.711386e-02 4.939306e-01 4.952607e-01 1.095286e-01 4.383338e-01 -4.951127e-01 -5.579819e-01 -5.005459e-01 -2.311148e-01 6.380452e-02 -2.789286e-03 1.977035e-02 -1.085748e-01 2.436843e-02 6.375775e-02 5.204908e-02 2.431258e-01 -9.265240e-02 -1.654383e-01 -3.026772e-01 -9.383243e-02 1.521356e-01 -8.673112e-02 -7.558138e-03
<VARIANCE> 39
 5.137745e+00 1.660518e+01 3.075508e+01 1.808079e+01 3.325687e+01 2.209257e+01 4.757719e+01 2.467364e+01 4.545291e+01 2.555400e+01 3.296601e+01 3.667326e+01 2.268905e-01 1.879931e-01 4.209409e-01 5.933162e-01 6.387245e-01 9.278899e-01 9.644194e-01 1.025197e+00 1.102842e+00 1.427890e+00 9.575902e-01 9.821837e-01 9.686174e-01 1.450970e-03 3.713475e-02 7.240620e-02 7.297385e-02 8.878560e-02 1.244712e-01 1.238042e-01 1.458208e-01 1.488963e-01 1.760007e-01 1.388782e-01 1.358978e-01 1.151530e-01 1.220680e-04
<GCONST> 6.317584e+01
<MIXTURE> 4 2.035560e-01
<MEAN> 39
