~o
<STREAMINFO> 1 39
<VECSIZE> 39<NULLD><MFCC_E_D_A><DIAGC>
~h "5states"
<BEGINHMM>
<NUMSTATES> 5
<STATE> 2
<MEAN> 39
 -8.968819e+00 1.227167e+00 1.709896e+00 5.255102e-01 -1.376319e+00 -3.581203e-01 -4.450421e+00 2.224232e-01 1.032390e+00 1.922153e+00 9.369482e-01 -5.463367e-02 1.433043e+01 6.601643e-05 -6.414447e-06 -4.348861e-05 2.207338e-05 -6.183252e-05 3.505594e-04 -2.845397e-05 -1.057293e-04 -3.217392e-04 -2.094190e-04 -1.093453e-04 6.646793e-05 -4.646834e-05 -3.052270e-05 -5.577785e-06 5.118113e-05 5.903988e-05 8.738427e-05 1.239256e-04 1.462678e-04 5.784345e-07 -6.680420e-05 8.540968e-05 -3.584341e-06 -9.608337e-06 3.280207e-06
<VARIANCE> 39
 9.132833e+01 3.750473e+01 5.184167e+01 5.299957e+01 4.542144e+01 5.171822e+01 6.411460e+01 4.173472e+01 3.924054e+01 3.472301e+01 3.778771e+01 3.327573e+01 2.268905e+01 6.444674e-01 1.076510e+00 1.293223e+00 1.883514e+00 2.197024e+00 2.673508e+00 2.949268e+00 2.722457e+00 2.845586e+00 2.895535e+00 2.697424e+00 2.293327e+00 4.128606e-02 9.874838e-02 2.035372e-01 2.576212e-01 3.839478e-01 4.538210e-01 5.496877e-01 6.081111e-01 5.695377e-01 5.939356e-01 6.059731e-01 5.659602e-01 4.834353e-01 5.660130e-03
<GCONST> 1.098248e+02
<STATE> 3
<MEAN> 39
 -8.968819e+00 1.227167e+00 1.709896e+00 5.255102e-01 -1.376319e+00 -3.581203e-01 -4.450421e+00 2.224232e-01 1.032390e+00 1.922153e+00 9.369482e-01 -5.463367e-02 1.433043e+01 6.601643e-05 -6.414447e-06 -4.348861e-05 2.207338e-05 -6.183252e-05 3.505594e-04 -2.845397e-05 -1.057293e-04 -3.217392e-04 -2.094190e-04 -1.093453e-04 6.646793e-05 -4.646834e-05 -3.052270e-05 -5.577785e-06 5.118113e-05 5.903988e-05 8.738427e-05 1.239256e-04 1.462678e-04 5.784345e-07 -6.680420e-05 8.540968e-05 -3.584341e-06 -9.608337e-06 3.280207e-06
<VARIANCE> 39
 9.132833e+01 3.750473e+01 5.184167e+01 5.299957e+01 4.542144e+01 5.171822e+01 6.411460e+01 4.173472e+01 3.924054e+01 3.472301e+01 3.778771e+01 3.327573e+01 2.268905e+01 6.444674e-01 1.076510e+00 1.293223e+00 1.883514e+00 2.197024e+00 2.673508e+00 2.949268e+00 2.722457e+00 2.845586e+00 2.895535e+00 2.697424e+00 2.293327e+00 4.128606e-02 9.874838e-02 2.035372e-01 2.576212e-01 3.839478e-01 4.538210e-01 5.496877e-01 6.081111e-01 5.695377e-01 5.939356e-01 6.059731e-01 5.659602e-01 4.834353e-01 5.660130e-03
<GCONST> 1.098248e+02
<STATE> 4
<MEAN> 39
 -8.968819e+00 1.227167e+00 1.709896e+00 5.255102e-01 -1.376319e+00 -3.581203e-01 -4.450421e+00 2.224232e-01 1.032390e+00 1.922153e+00 9.369482e-01 -5.463367e-02 1.433043e+01 6.601643e-05 -6.414447e-06 -4.348861e-05 2.207338e-05 -6.183252e-05 3.505594e-04 -2.845397e-05 -1.057293e-04 -3.217392e-04 -2.094190e-04 -1.093453e-04 6.646793e-05 -4.646834e-05 -3.052270e-05 -5.577785e-06 5.118113e-05 5.903988e-05 8.738427e-05 1.239256e-04 1.462678e-04 5.784345e-07 -6.680420e-05 8.540968e-05 -3.584341e-06 -9.608337e-06 3.280207e-06
<VARIANCE> 39
 9.132833e+01 3.750473e+01 5.184167e+01 5.299957e+01 4.542144e+01 5.171822e+01 6.411460e+01 4.173472e+01 3.924054e+01 3.472301e+01 3.778771e+01 3.327573e+01 2.268905e+01 6.444674e-01 1.076510e+00 1.293223e+00 1.883514e+00 2.197024e+00 2.673508e+00 2.949268e+00 2.722457e+00 2.845586e+00 2.895535e+00 2.697424e+00 2.293327e+00 4.128606e-02 9.874838e-02 2.035372e-01 2.576212e-01 3.839478e-01 4.538210e-01 5.496877e-01 6.081111e-01 5.695377e-01 5.939356e-01 6.059731e-01 5.659602e-01 4.834353e-01 5.660130e-03
<GCONST> 1.098248e+02
<TRANSP> 5
 0.000000e+00 1.000000e+00 0.000000e+00 0.000000e+00 0.000000e+00
 0.000000e+00 5.000000e-01 5.000000e-01 0.000000e+00 0.000000e+00
 0.000000e+00 0.000000e+00 5.000000e-01 5.000000e-01 0.000000e+00
 0.000000e+00 0.000000e+00 0.000000e+00 5.000000e-01 5.000000e-01
 0.000000e+00 0.000000e+00 0.000000e+00 0.000000e+00 0.000000e+00
<ENDHMM>
