~o
<STREAMINFO> 1 39
<VECSIZE> 39<NULLD><MFCC_E_D_A><DIAGC>
~s "silst"
<MEAN> 39
 -1.371425e+01 1.018654e-01 -5.349895e-01 8.883883e-01 2.361843e-01 -4.570007e-01 -1.597163e+00 -6.295283e-01 1.664919e+00 1.483992e+00 -2.753834e-01 -2.518730e-01 1.068157e+01 -1.118381e-02 -1.118646e-02 -1.287016e-02 -2.043088e-03 -6.576593e-03 1.174705e-02 2.490986e-03 -1.443968e-02 -2.687756e-02 -2.130258e-02 -5.838145e-03 -5.809463e-03 -1.640558e-02 4.252599e-02 8.145046e-02 7.798402e-02 8.637087e-02 5.095043e-02 5.490522e-02 4.246171e-02 3.695476e-02 1.231503e-02 1.068102e-02 3.423611e-02 1.240255e-02 8.023400e-03
<VARIANCE> 39
 1.174570e+01 2.646657e+01 2.627379e+01 2.750136e+01 3.070335e+01 3.488987e+01 3.304895e+01 3.343586e+01 3.492844e+01 3.226399e+01 3.208599e+01 2.526321e+01 1.815387e+00 6.848042e-01 1.402480e+00 1.823579e+00 2.481359e+00 2.839876e+00 3.294646e+00 3.419895e+00 3.530875e+00 3.583309e+00 3.706421e+00 3.410312e+00 2.885057e+00 7.113642e-02 1.439200e-01 3.012828e-01 4.150941e-01 5.732353e-01 6.585770e-01 7.562287e-01 7.874409e-01 8.049643e-01 8.266725e-01 8.522943e-01 7.810418e-01 6.633311e-01 1.149459e-02
<GCONST> 1.095303e+02
~h "@"
<BEGINHMM>
<NUMSTATES> 5
<STATE> 2
<MEAN> 39
 1.467297e-01 3.351935e-02 5.200392e+00 -1.449931e+00 -4.635642e+00 -5.001369e+00 -1.352132e+01 2.715780e+00 3.759373e+00 4.021570e+00 -2.832257e+00 1.144634e+00 1.963216e+01 -6.479327e-02 2.036252e-01 -3.970601e-02 6.000757e-03 2.448052e-01 -4.294468e-03 2.478320e-01 -1.577096e-01 3.249672e-02 4.327730e-02 6.384346e-03 -3.354517e-02 -4.607448e-02 -5.029741e-02 4.510546e-02 1.833533e-02 4.630684e-02 7.258160e-02 4.438863e-02 1.129658e-01 -3.856583e-02 -2.521997e-02 -4.495520e-02 -7.703689e-03 -3.759337e-02 -1.279517e-02
<VARIANCE> 39
 1.084552e+01 2.397346e+01 4.065224e+01 3.248470e+01 4.952756e+01 4.334681e+01 5.723700e+01 4.469835e+01 4.997126e+01 4.717328e+01 4.530267e+01 2.370042e+01 7.559236e-01 7.446736e-01 1.293916e+00 1.178195e+00 2.028108e+00 2.594267e+00 3.388487e+00 4.192318e+00 2.353803e+00 3.439083e+00 2.832500e+00 1.957727e+00 1.823724e+00 1.402088e-02 1.345145e-01 2.307907e-01 2.288056e-01 4.162391e-01 4.880746e-01 6.968561e-01 8.406228e-01 4.494031e-01 7.064454e-01 5.766892e-01 3.832544e-01 3.629145e-01 1.033149e-03
<GCONST> 1.013643e+02
<STATE> 3
<MEAN> 39
 4.669830e-01 6.416783e+00 4.512210e+00 1.116218e+00 1.644392e+00 -1.818539e+00 -9.523799e+00 -4.156500e+00 1.868787e+00 3.072724e+00 -1.990281e+00 -1.027512e-01 1.822958e+01 -2.368475e-01 3.203991e-01 -1.904520e-02 1.861434e-01 2.391623e-01 -9.390122e-03 4.135533e-01 -1.667136e-01 -1.095192e-01 -1.593881e-01 7.831865e-02 -7.749296e-02 -1.373546e-01 -1.072933e-02 -9.489653e-02 1.209148e-03 -9.006008e-03 -5.332671e-02 2.447131e-02 -9.714678e-02 5.540226e-02 -4.307442e-02 2.010411e-02 6.290327e-03 9.394364e-03 -1.519899e-03
<VARIANCE> 39
 2.197607e+01 2.864564e+01 2.742203e+01 3.439464e+01 3.835228e+01 5.159096e+01 4.432038e+01 5.937080e+01 4.387405e+01 3.352078e+01 4.495223e+01 2.722214e+01 1.533299e+00 8.019507e-01 9.222233e-01 1.201807e+00 2.224205e+00 2.612763e+00 3.066401e+00 3.713636e+00 3.027520e+00 2.927180e+00 3.314284e+00 2.902212e+00 2.409342e+00 2.069494e-02 1.382541e-01 1.913900e-01 2.569233e-01 4.664566e-01 5.354525e-01 6.429623e-01 7.769828e-01 6.453297e-01 6.808053e-01 6.857849e-01 6.282910e-01 4.772507e-01 1.454539e-03
<GCONST> 1.047793e+02
<STATE> 4
<MEAN> 39
 -3.548912e+00 3.073631e+00 8.320543e-01 1.769226e+00 3.222404e+00 -9.739237e-01 -5.515999e+00 -2.220188e+00 2.671709e+00 2.889128e+00 -3.269196e+00 -1.050672e+00 1.650217e+01 -2.926805e-01 -8.995932e-02 -8.838160e-02 -1.804315e-02 -2.740012e-02 1.354323e-01 1.424571e-01 3.091010e-03 -1.681323e-01 -1.254570e-01 1.261441e-01 -5.262391e-02 -1.479764e-01 -1.458717e-02 -3.955997e-02 1.925177e-02 -6.432995e-02 -6.553552e-02 -4.120865e-02 -7.294840e-02 3.836137e-02 -4.086697e-02 4.268039e-02 3.590669e-03 1.076272e-02 2.512481e-03
<VARIANCE> 39
 3.443976e+01 4.215868e+01 4.463025e+01 4.359724e+01 6.178879e+01 6.163778e+01 7.026611e+01 4.471387e+01 4.199201e+01 4.590849e+01 4.998740e+01 3.434021e+01 5.351888e+00 9.082569e-01 8.831196e-01 1.309353e+00 2.252094e+00 2.801009e+00 2.844051e+00 3.583939e+00 3.699235e+00 3.336997e+00 3.383474e+00 2.852517e+00 2.661355e+00 3.794174e-02 1.149347e-01 1.773495e-01 2.596182e-01 4.700749e-01 6.002844e-01 5.539464e-01 7.618299e-01 7.988657e-01 7.013704e-01 6.599113e-01 6.124178e-01 5.810091e-01 2.955931e-03
<GCONST> 1.109968e+02
<TRANSP> 5
 0.000000e+00 1.000000e+00 0.000000e+00 0.000000e+00 0.000000e+00
 0.000000e+00 8.671095e-01 1.328905e-01 0.000000e+00 0.000000e+00
 0.000000e+00 0.000000e+00 7.435143e-01 2.564858e-01 0.000000e+00
 0.000000e+00 0.000000e+00 0.000000e+00 7.170320e-01 2.829680e-01
 0.000000e+00 0.000000e+00 0.000000e+00 0.000000e+00 0.000000e+00
<ENDHMM>
~h "Q"
<BEGINHMM>
<NUMSTATES> 5
<STATE> 2
<MEAN> 39
 -8.968819e+00 1.227167e+00 1.709896e+00 5.255102e-01 -1.376319e+00 -3.581203e-01 -4.450421e+00 2.224232e-01 1.032390e+00 1.922153e+00 9.369482e-01 -5.463367e-02 1.433043e+01 6.601643e-05 -6.414447e-06 -4.348861e-05 2.207338e-05 -6.183252e-05 3.505594e-04 -2.845397e-05 -1.057293e-04 -3.217392e-04 -2.094190e-04 -1.093453e-04 6.646793e-05 -4.646834e-05 -3.052270e-05 -5.577785e-06 5.118113e-05 5.903988e-05 8.738427e-05 1.239256e-04 1.462678e-04 5.784345e-07 -6.680420e-05 8.540968e-05 -3.584341e-06 -9.608337e-06 3.280207e-06
<VARIANCE> 39
 9.132833e+01 3.750473e+01 5.184167e+01 5.299957e+01 4.542144e+01 5.171822e+01 6.411460e+01 4.173472e+01 3.924054e+01 3.472301e+01 3.778771e+01 3.327573e+01 2.268905e+01 6.444674e-01 1.076510e+00 1.293223e+00 1.883514e+00 2.197024e+00 2.673508e+00 2.949268e+00 2.722457e+00 2.845586e+00 2.895535e+00 2.697424e+00 2.293327e+00 4.128606e-02 9.874837e-02 2.035372e-01 2.576212e-01 3.839478e-01 4.538210e-01 5.496877e-01 6.081111e-01 5.695377e-01 5.939356e-01 6.059731e-01 5.659602e-01 4.834353e-01 5.660130e-03
<GCONST> 1.098248e+02
<STATE> 3
<MEAN> 39
 -8.968819e+00 1.227167e+00 1.709896e+00 5.255102e-01 -1.376319e+00 -3.581203e-01 -4.450421e+00 2.224232e-01 1.032390e+00 1.922153e+00 9.369482e-01 -5.463367e-02 1.433043e+01 6.601643e-05 -6.414447e-06 -4.348861e-05 2.207338e-05 -6.183252e-05 3.505594e-04 -2.845397e-05 -1.057293e-04 -3.217392e-04 -2.094190e-04 -1.093453e-04 6.646793e-05 -4.646834e-05 -3.052270e-05 -5.577785e-06 5.118113e-05 5.903988e-05 8.738427e-05 1.239256e-04 1.462678e-04 5.784345e-07 -6.680420e-05 8.540968e-05 -3.584341e-06 -9.608337e-06 3.280207e-06
<VARIANCE> 39
 9.132833e+01 3.750473e+01 5.184167e+01 5.299957e+01 4.542144e+01 5.171822e+01 6.411460e+01 4.173472e+01 3.924054e+01 3.472301e+01 3.778771e+01 3.327573e+01 2.268905e+01 6.444674e-01 1.076510e+00 1.293223e+00 1.883514e+00 2.197024e+00 2.673508e+00 2.949268e+00 2.722457e+00 2.845586e+00 2.895535e+00 2.697424e+00 2.293327e+00 4.128606e-02 9.874837e-02 2.035372e-01 2.576212e-01 3.839478e-01 4.538210e-01 5.496877e-01 6.081111e-01 5.695377e-01 5.939356e-01 6.059731e-01 5.659602e-01 4.834353e-01 5.660130e-03
<GCONST> 1.098248e+02
<STATE> 4
<MEAN> 39
 -8.968819e+00 1.227167e+00 1.709896e+00 5.255102e-01 -1.376319e+00 -3.581203e-01 -4.450421e+00 2.224232e-01 1.032390e+00 1.922153e+00 9.369482e-01 -5.463367e-02 1.433043e+01 6.601643e-05 -6.414447e-06 -4.348861e-05 2.207338e-05 -6.183252e-05 3.505594e-04 -2.845397e-05 -1.057293e-04 -3.217392e-04 -2.094190e-04 -1.093453e-04 6.646793e-05 -4.646834e-05 -3.052270e-05 -5.577785e-06 5.118113e-05 5.903988e-05 8.738427e-05 1.239256e-04 1.462678e-04 5.784345e-07 -6.680420e-05 8.540968e-05 -3.584341e-06 -9.608337e-06 3.280207e-06
<VARIANCE> 39
 9.132833e+01 3.750473e+01 5.184167e+01 5.299957e+01 4.542144e+01 5.171822e+01 6.411460e+01 4.173472e+01 3.924054e+01 3.472301e+01 3.778771e+01 3.327573e+01 2.268905e+01 6.444674e-01 1.076510e+00 1.293223e+00 1.883514e+00 2.197024e+00 2.673508e+00 2.949268e+00 2.722457e+00 2.845586e+00 2.895535e+00 2.697424e+00 2.293327e+00 4.128606e-02 9.874837e-02 2.035372e-01 2.576212e-01 3.839478e-01 4.538210e-01 5.496877e-01 6.081111e-01 5.695377e-01 5.939356e-01 6.059731e-01 5.659602e-01 4.834353e-01 5.660130e-03
<GCONST> 1.098248e+02
<TRANSP> 5
 0.000000e+00 1.000000e+00 0.000000e+00 0.000000e+00 0.000000e+00
 0.000000e+00 5.000000e-01 5.000000e-01 0.000000e+00 0.000000e+00
 0.000000e+00 0.000000e+00 5.000000e-01 5.000000e-01 0.000000e+00
 0.000000e+00 0.000000e+00 0.000000e+00 5.000000e-01 5.000000e-01
 0.000000e+00 0.000000e+00 0.000000e+00 0.000000e+00 0.000000e+00
<ENDHMM>
~h "a"
<BEGINHMM>
<NUMSTATES> 5
<STATE> 2
<MEAN> 39
 -3.514560e+00 -7.464158e+00 -1.432881e+00 -2.775565e+00 -6.298233e+00 4.163818e-01 -3.928509e+00 8.868792e+00 5.181719e+00 2.514508e+00 -5.340052e+00 -3.763522e+00 1.832724e+01 2.374827e-01 -2.134061e-01 -2.107128e-02 -9.028930e-02 -1.348174e-01 1.117277e-01 2.861792e-03 2.659083e-01 3.718835e-02 -1.045897e-01 5.625626e-02 -1.496085e-01 1.015437e-01 -1.185625e-02 1.815697e-02 -1.403924e-02 2.619843e-02 2.227178e-02 4.455201e-04 6.504238e-03 -4.548164e-02 -2.030802e-02 -2.175434e-02 1.755114e-02 -5.693205e-03 -1.004772e-02
<VARIANCE> 39
 2.512046e+01 3.761240e+01 5.590956e+01 4.924362e+01 4.337899e+01 6.559010e+01 5.901883e+01 5.678241e+01 4.474868e+01 3.610508e+01 3.749246e+01 4.541938e+01 3.032230e+00 1.126806e+00 2.765140e+00 1.708280e+00 3.551053e+00 2.523465e+00 3.092628e+00 4.044003e+00 3.935429e+00 3.742397e+00 2.504403e+00 3.234367e+00 2.646438e+00 9.246200e-02 1.964142e-01 5.520450e-01 3.219725e-01 7.421745e-01 4.937756e-01 6.724800e-01 8.587347e-01 7.906564e-01 8.135301e-01 5.306225e-01 6.989842e-01 5.464504e-01 1.096729e-02
<GCONST> 1.167630e+02
<STATE> 3
<MEAN> 39
 2.284652e+00 -1.155850e+01 -9.123639e+00 1.712228e-01 -5.921415e+00 4.906447e+00 -3.010739e+00 5.096233e+00 5.767309e+00 2.960235e-03 -3.732016e+00 -1.151208e+01 2.054156e+01 3.119338e-02 -2.708443e-02 -5.634381e-02 2.709460e-03 -5.796175e-02 2.988533e-03 -8.341213e-03 2.516338e-02 -6.333088e-03 2.155523e-02 -1.369475e-02 -4.237159e-02 8.615999e-03 -1.284293e-02 2.641802e-02 3.260040e-02 -1.264318e-02 9.079213e-03 -2.400105e-02 -8.191383e-03 -4.632832e-03 -9.211432e-03 2.474839e-02 -1.461335e-03 3.633817e-02 -3.146626e-03
<VARIANCE> 39
 5.914763e+00 2.098430e+01 2.900482e+01 2.650301e+01 1.999557e+01 2.873042e+01 3.540297e+01 4.455382e+01 2.568039e+01 3.058569e+01 2.689636e+01 3.123351e+01 4.124241e-01 3.942320e-01 1.126021e+00 8.082294e-01 1.128962e+00 9.965314e-01 1.073859e+00 1.566705e+00 1.740829e+00 1.860445e+00 1.529240e+00 1.556761e+00 1.503020e+00 2.301468e-03 6.983071e-02 1.679918e-01 1.367036e-01 1.881341e-01 1.845682e-01 1.861971e-01 2.751851e-01 2.877562e-01 3.029318e-01 2.635988e-01 2.677370e-01 2.376615e-01 2.273053e-04
<GCONST> 7.767888e+01
<STATE> 4
<MEAN> 39
 1.138544e+00 -7.257071e+00 1.958194e+00 -4.836583e-01 -9.087986e+00 -3.589057e+00 -5.098284e+00 1.043915e+01 1.626207e+00 2.219824e+00 -3.002808e+00 -3.684038e+00 2.003661e+01 6.900314e-03 1.720235e-01 1.604011e-01 3.387213e-02 1.018905e-01 -1.250495e-01 -5.426291e-02 -7.514386e-02 -1.574252e-01 1.376143e-01 2.595402e-02 9.889308e-02 -1.055636e-02 -9.440890e-03 2.041295e-02 6.916562e-03 1.602197e-02 3.830858e-02 1.835922e-02 1.749164e-02 -4.306930e-02 -7.420217e-03 -5.811930e-03 1.192755e-03 -4.633121e-03 -4.996776e-03
<VARIANCE> 39
 7.560429e+00 2.151875e+01 4.724415e+01 2.917421e+01 2.701796e+01 3.239673e+01 5.704477e+01 3.830529e+01 4.549559e+01 2.610259e+01 2.879725e+01 2.905646e+01 3.855029e-01 4.676526e-01 1.164362e+00 9.730860e-01 1.304346e+00 1.566636e+00 2.137025e+00 2.018662e+00 2.204633e+00 2.239718e+00 1.560744e+00 1.440388e+00 1.138472e+00 4.467666e-03 9.367303e-02 1.903778e-01 1.738877e-01 2.510166e-01 3.034760e-01 4.006279e-01 3.848058e-01 3.992978e-01 3.991957e-01 2.896060e-01 2.702457e-01 2.068155e-01 3.355021e-04
<GCONST> 8.580446e+01
<TRANSP> 5
 0.000000e+00 1.000000e+00 0.000000e+00 0.000000e+00 0.000000e+00
 0.000000e+00 9.053036e-01 9.469642e-02 0.000000e+00 0.000000e+00
 0.000000e+00 0.000000e+00 9.446178e-01 5.538215e-02 0.000000e+00
 0.000000e+00 0.000000e+00 0.000000e+00 9.453351e-01 5.466491e-02
 0.000000e+00 0.000000e+00 0.000000e+00 0.000000e+00 0.000000e+00
<ENDHMM>
~h "b"
<BEGINHMM>
<NUMSTATES> 5
<STATE> 2
<MEAN> 39
 -5.360019e+00 -2.459460e+00 2.092489e+00 2.722457e+00 3.213812e+00 2.043329e-02 -5.375104e+00 -5.502972e+00 6.271141e-01 2.034692e+00 1.563578e+00 -1.130921e+00 1.725842e+01 1.884956e+00 1.107175e+00 8.423108e-01 1.165918e-01 -2.070302e-01 1.171822e+00 2.308267e-01 2.752922e-01 -3.271737e-01 4.446793e-01 -7.105620e-01 -2.455783e-01 3.565882e-01 4.978592e-01 3.405099e-01 -8.165750e-02 -4.194523e-01 -5.772095e-01 1.501678e-01 -1.396931e-01 3.063850e-01 -9.639582e-02 -1.204784e-02 -7.918211e-02 2.261415e-01 5.450908e-02
<VARIANCE> 39
 2.587863e+01 2.143961e+01 2.836448e+01 3.961829e+01 2.985531e+01 4.866988e+01 2.573065e+01 2.834836e+01 2.925757e+01 3.275246e+01 3.319333e+01 2.542909e+01 1.135202e+00 2.935399e+00 3.524284e+00 3.202009e+00 4.193210e+00 2.867374e+00 6.588566e+00 3.109400e+00 3.095968e+00 3.413142e+00 3.226811e+00 3.078510e+00 2.942149e+00 9.002882e-02 4.543356e-01 7.444485e-01 5.248016e-01 7.279409e-01 6.932337e-01 9.268782e-01 7.334449e-01 6.520042e-01 6.748165e-01 7.380847e-01 7.314812e-01 5.651265e-01 5.189806e-03
<GCONST> 1.148884e+02
<STATE> 3
<MEAN> 39
 8.726056e-02 7.086142e-01 3.694666e+00 1.408453e+00 5.211213e-01 2.282217e+00 -5.050108e+00 -3.106363e+00 -1.785231e-01 2.270849e+00 -1.123696e+00 -7.894676e-01 1.833440e+01 2.120172e+00 7.075367e-01 -2.069041e-01 -1.564337e+00 -1.638923e+00 1.034088e+00 -9.015278e-01 6.156835e-01 -3.446991e-01 6.425903e-01 -9.527978e-02 7.564798e-01 4.133711e-01 -2.979792e-01 -3.741944e-01 -3.914540e-01 -3.979628e-01 -2.654657e-01 -1.970061e-01 -4.364707e-01 8.922962e-03 1.249311e-01 7.343409e-02 3.711854e-01 2.369442e-01 -3.328722e-02
<VARIANCE> 39
 2.718691e+01 2.291934e+01 5.802880e+01 6.161176e+01 2.273528e+01 7.123372e+01 2.833527e+01 3.805661e+01 3.682697e+01 3.749631e+01 2.653237e+01 2.838474e+01 1.222999e+00 1.661781e+00 2.960670e+00 4.174065e+00 4.786798e+00 4.191147e+00 6.440330e+00 3.725176e+00 3.696965e+00 3.173273e+00 3.964624e+00 3.839483e+00 2.483021e+00 7.420724e-02 3.309464e-01 4.128723e-01 3.509316e-01 6.880398e-01 6.259858e-01 9.286665e-01 5.689552e-01 6.422316e-01 7.223108e-01 7.299913e-01 5.946335e-01 4.935410e-01 6.474573e-03
<GCONST> 1.155486e+02
<STATE> 4
<MEAN> 39
 2.894115e+00 1.277487e+00 3.916180e-01 -4.389264e+00 -1.117502e+00 6.061652e+00 -8.974266e+00 -5.093194e+00 2.385092e+00 5.874363e+00 -1.799528e+00 -8.140592e-01 1.886382e+01 2.058616e-01 -9.545182e-02 -2.097485e-01 -3.408778e-01 -4.131403e-01 -2.666270e-02 -4.739383e-01 9.648633e-02 8.890604e-02 1.684431e-01 1.256046e-01 1.319373e-01 1.025694e-01 -1.572234e-01 -9.722824e-02 3.465699e-04 1.529277e-01 1.023029e-01 -1.239618e-01 8.934514e-02 4.294343e-03 -9.160048e-03 -7.875864e-02 -3.795608e-03 -6.444203e-02 -2.518327e-02
<VARIANCE> 39
 2.226490e+01 3.130778e+01 4.753783e+01 1.147525e+02 3.486749e+01 6.543334e+01 4.271593e+01 5.051014e+01 4.257424e+01 5.399314e+01 4.873964e+01 4.788232e+01 2.782705e+00 9.665741e-01 1.469896e+00 1.870178e+00 3.533474e+00 3.299386e+00 2.219076e+00 2.977004e+00 2.443700e+00 3.283196e+00 3.710639e+00 3.030903e+00 2.376032e+00 5.343249e-02 1.656485e-01 2.853633e-01 3.421779e-01 6.130110e-01 5.672815e-01 5.066220e-01 5.884446e-01 4.930174e-01 6.347145e-01 6.760886e-01 6.358178e-01 4.270651e-01 4.528192e-03
<GCONST> 1.118710e+02
<TRANSP> 5
 0.000000e+00 1.000000e+00 0.000000e+00 0.000000e+00 0.000000e+00
 0.000000e+00 4.472542e-01 5.527459e-01 0.000000e+00 0.000000e+00
 0.000000e+00 0.000000e+00 5.118953e-01 4.881047e-01 0.000000e+00
 0.000000e+00 0.000000e+00 0.000000e+00 8.225466e-01 1.774534e-01
 0.000000e+00 0.000000e+00 0.000000e+00 0.000000e+00 0.000000e+00
<ENDHMM>
~h "d"
<BEGINHMM>
<NUMSTATES> 5
<STATE> 2
<MEAN> 39
 -3.268237e+00 6.694995e+00 7.522604e+00 4.086663e+00 1.932547e+00 -1.148817e+00 -5.379901e+00 -2.998452e+00 2.655836e-01 2.620279e-01 -3.618404e+00 -1.250619e+00 1.708218e+01 -8.993722e-01 -3.792084e-01 -4.243292e-01 -3.984195e-01 2.497217e-01 7.111996e-02 5.428376e-01 2.078323e-02 -2.847891e-01 -4.442599e-02 3.401366e-01 1.988073e-01 -1.759519e-01 -4.071441e-02 -1.952385e-01 -1.109499e-01 -1.154232e-01 -9.291133e-02 4.294351e-03 -1.113248e-03 7.606607e-02 -3.347592e-02 -4.051697e-02 9.037213e-02 4.386488e-02 -1.350383e-03
<VARIANCE> 39
 2.656608e+01 3.230579e+01 2.545223e+01 3.885979e+01 4.262066e+01 5.802464e+01 5.713749e+01 4.106425e+01 3.689384e+01 3.476662e+01 3.534949e+01 2.500983e+01 3.673821e+00 1.748163e+00 2.272125e+00 1.678825e+00 2.245432e+00 2.859262e+00 3.497291e+00 4.139745e+00 3.524018e+00 3.392118e+00 3.376770e+00 3.183939e+00 2.599488e+00 3.500973e-02 2.853707e-01 4.399185e-01 3.131628e-01 4.576529e-01 5.823016e-01 6.078814e-01 8.636744e-01 7.233232e-01 6.658455e-01 7.085239e-01 6.306543e-01 4.873497e-01 3.376811e-03
<GCONST> 1.118852e+02
<STATE> 3
<MEAN> 39
 -6.475257e+00 4.151762e+00 5.706735e+00 2.771964e+00 2.037242e+00 -1.860900e+00 -3.326994e+00 -2.832783e+00 -3.809976e-01 1.103703e-01 -2.672426e+00 -9.812337e-01 1.640450e+01 -8.634945e-01 -6.919677e-01 -6.252040e-01 -5.858492e-01 -5.393878e-03 -1.183941e-01 3.862393e-01 2.344417e-01 -8.803093e-02 -5.121038e-02 5.860743e-01 2.912001e-01 -1.633742e-01 1.990379e-01 2.754637e-02 1.282825e-02 2.539997e-03 -1.989561e-01 -1.063377e-01 -2.005879e-01 8.360275e-02 1.612464e-01 3.318215e-02 1.096660e-03 2.455532e-02 2.496147e-02
<VARIANCE> 39
 3.175403e+01 2.926935e+01 2.540613e+01 2.953757e+01 3.430600e+01 4.562004e+01 5.547770e+01 3.838417e+01 3.954675e+01 3.460861e+01 3.521916e+01 2.248702e+01 5.229243e+00 2.299730e+00 3.122486e+00 2.089113e+00 2.814276e+00 2.564324e+00 3.137119e+00 3.540582e+00 3.689240e+00 3.159939e+00 3.306265e+00 3.529363e+00 2.200909e+00 5.937379e-02 3.438937e-01 5.211233e-01 3.993700e-01 4.882253e-01 5.552853e-01 6.450127e-01 7.499710e-01 6.789828e-01 6.969114e-01 7.641676e-01 7.428340e-01 4.725362e-01 4.908984e-03
<GCONST> 1.136228e+02
<STATE> 4
<MEAN> 39
 -1.188283e+01 1.873989e+00 3.163606e+00 4.863122e-02 -1.240743e+00 -5.289286e+00 -3.710531e+00 -1.364186e+00 3.004183e+00 -1.191320e-01 -5.647134e-01 1.018077e+00 1.625374e+01 2.088364e-01 -3.748170e-03 7.378865e-02 -7.618056e-02 -2.178197e-01 -1.972553e-01 -3.490901e-01 1.052376e-01 2.668369e-01 4.641787e-02 -4.534468e-02 1.363069e-01 1.479402e-01 1.635146e-01 3.182863e-02 5.569292e-02 3.670150e-02 -5.815387e-02 7.892434e-03 -1.451174e-01 -1.261200e-02 -2.132275e-03 1.361800e-02 -5.485368e-02 -2.051668e-02 1.937483e-02
<VARIANCE> 39
 5.737038e+01 4.480440e+01 4.856999e+01 4.152725e+01 4.929311e+01 4.779433e+01 5.259095e+01 5.340236e+01 4.408841e+01 3.822733e+01 3.463386e+01 2.401264e+01 6.000777e+00 2.763399e+00 3.426376e+00 3.150609e+00 3.368665e+00 3.293526e+00 4.201773e+00 4.757581e+00 3.767722e+00 3.518236e+00 3.274639e+00 3.281387e+00 2.598963e+00 1.419334e-01 3.473461e-01 6.844657e-01 5.736214e-01 6.031839e-01 6.696255e-01 8.727171e-01 9.213495e-01 7.618242e-01 7.534798e-01 6.762100e-01 7.325511e-01 5.480517e-01 1.875305e-02
<GCONST> 1.225951e+02
<TRANSP> 5
 0.000000e+00 1.000000e+00 0.000000e+00 0.000000e+00 0.000000e+00
 0.000000e+00 4.853930e-01 5.146070e-01 0.000000e+00 0.000000e+00
 0.000000e+00 0.000000e+00 5.711687e-01 4.288313e-01 0.000000e+00
 0.000000e+00 0.000000e+00 0.000000e+00 8.154598e-01 1.845402e-01
 0.000000e+00 0.000000e+00 0.000000e+00 0.000000e+00 0.000000e+00
<ENDHMM>
~h "e"
<BEGINHMM>
<NUMSTATES> 5
<STATE> 2
<MEAN> 39
 -3.722408e-02 -4.862079e+00 2.482920e-01 -2.631199e+00 -7.536706e+00 -3.365147e+00 -8.772171e+00 8.444703e+00 6.120245e+00 3.001000e+00 -4.877008e+00 -1.832412e+00 1.962652e+01 1.467718e-01 -3.448325e-01 -1.723191e-01 -4.717302e-02 -1.635963e-01 -2.151181e-02 -1.659874e-01 3.003922e-01 1.117039e-01 1.707399e-01 -4.696097e-02 -1.283749e-01 5.823055e-02 -6.445099e-02 3.139835e-02 2.786976e-02 7.499536e-02 7.442294e-02 -9.512302e-03 7.286641e-02 -4.281069e-02 -5.418953e-02 -4.897131e-02 -1.102026e-02 7.216528e-04 -1.876863e-02
<VARIANCE> 39
 1.013006e+01 3.342981e+01 3.644600e+01 2.768631e+01 3.104725e+01 4.642461e+01 5.239551e+01 4.225871e+01 3.552884e+01 3.221677e+01 3.689384e+01 3.132853e+01 7.251890e-01 8.561691e-01 1.905109e+00 1.460888e+00 2.478637e+00 2.482238e+00 3.113401e+00 4.019631e+00 2.659173e+00 3.324569e+00 2.710781e+00 2.002859e+00 1.649324e+00 1.774518e-02 1.971955e-01 3.615848e-01 2.803300e-01 4.897963e-01 5.119522e-01 6.529140e-01 8.176907e-01 4.743852e-01 6.617758e-01 5.583053e-01 4.043994e-01 3.294111e-01 2.541021e-03
<GCONST> 1.030651e+02
<STATE> 3
<MEAN> 39
 1.680372e+00 -9.204160e+00 1.889658e+00 -2.046294e+00 -9.616033e+00 -1.971926e+00 -1.097252e+01 1.063165e+01 4.709696e+00 2.949626e+00 -3.437992e+00 -4.027786e+00 2.070164e+01 1.421388e-02 -5.022536e-03 3.516158e-02 1.467113e-02 6.118766e-03 -6.003729e-02 -4.072120e-02 1.095553e-01 -7.425644e-02 4.192079e-02 -5.278739e-02 4.140938e-02 1.490219e-03 -1.579557e-04 4.206913e-02 4.632710e-03 3.101585e-03 2.571972e-02 -3.768565e-03 2.875785e-03 -4.459735e-02 -1.129048e-02 3.483629e-03 1.614070e-02 1.405360e-02 -2.641828e-03
<VARIANCE> 39
 4.937636e+00 2.007964e+01 3.410633e+01 2.178686e+01 2.826661e+01 2.669742e+01 4.161862e+01 2.956188e+01 4.060661e+01 2.570948e+01 2.697584e+01 2.755602e+01 2.268905e-01 2.482009e-01 9.292521e-01 5.286800e-01 8.010424e-01 1.025334e+00 1.383152e+00 1.370611e+00 1.423991e+00 2.193592e+00 1.398509e+00 1.067579e+00 8.537630e-01 1.365881e-03 3.918945e-02 1.150430e-01 8.162707e-02 1.254506e-01 1.596701e-01 2.051336e-01 2.177283e-01 2.151305e-01 2.980112e-01 2.115385e-01 1.715257e-01 1.444581e-01 1.335526e-04
<GCONST> 6.998304e+01
<STATE> 4
<MEAN> 39
 2.600126e+00 -4.502109e+00 1.763284e+00 -2.097103e-01 -6.608999e+00 -3.838589e+00 -1.206901e+01 7.403389e+00 2.732126e+00 3.968398e+00 -2.785700e+00 -1.228900e+00 2.025257e+01 -4.369572e-02 3.659354e-01 9.466255e-02 1.721970e-01 2.732013e-01 2.268478e-02 6.628404e-02 -4.469065e-01 -2.247608e-01 -2.884907e-03 1.723734e-01 8.921572e-02 -4.928141e-02 -3.518352e-02 1.487419e-02 2.404950e-02 5.399252e-03 3.735971e-02 1.750382e-02 7.819379e-02 -6.159629e-02 -4.899072e-03 -3.913100e-02 4.737802e-02 -1.279430e-02 -9.483051e-03
<VARIANCE> 39
 1.155505e+01 2.050906e+01 4.126424e+01 2.858899e+01 3.001391e+01 5.048769e+01 4.796123e+01 3.712786e+01 5.371198e+01 2.866721e+01 3.946141e+01 2.526469e+01 2.448604e-01 3.345888e-01 1.081092e+00 8.091187e-01 1.259492e+00 1.480137e+00 2.503051e+00 2.264142e+00 1.934101e+00 2.958787e+00 2.147187e+00 1.782544e+00 1.570099e+00 5.151359e-03 6.158868e-02 1.690192e-01 1.403846e-01 2.105415e-01 2.717714e-01 4.285721e-01 4.193823e-01 3.367359e-01 5.066597e-01 3.600823e-01 3.261553e-01 2.777924e-01 3.309138e-04
<GCONST> 8.695129e+01
<TRANSP> 5
 0.000000e+00 1.000000e+00 0.000000e+00 0.000000e+00 0.000000e+00
 0.000000e+00 8.773578e-01 1.226422e-01 0.000000e+00 0.000000e+00
 0.000000e+00 0.000000e+00 9.430431e-01 5.695691e-02 0.000000e+00
 0.000000e+00 0.000000e+00 0.000000e+00 8.251849e-01 1.748151e-01
 0.000000e+00 0.000000e+00 0.000000e+00 0.000000e+00 0.000000e+00
<ENDHMM>
~h "f"
<BEGINHMM>
<NUMSTATES> 5
<STATE> 2
<MEAN> 39
 -1.817444e+01 -3.965425e+00 1.557827e+00 2.451344e+00 -4.375079e-01 -2.293291e+00 -3.373734e+00 -1.129396e+00 2.535690e+00 -3.427301e-01 2.476571e-01 1.004994e+00 1.574925e+01 -5.312812e-01 -3.223268e-01 -2.433851e-01 -2.058161e-02 -1.216590e-01 -5.078122e-03 3.742072e-02 -4.929679e-02 -1.151191e-01 -7.738295e-02 5.279772e-02 -4.099990e-02 -1.485698e-01 5.711143e-02 -5.306134e-03 -3.687616e-02 -3.605314e-02 -8.243083e-03 1.026476e-02 -1.162028e-02 -5.089631e-03 -3.613133e-03 4.614585e-02 1.555891e-02 2.578361e-03 1.054083e-02
<VARIANCE> 39
 3.731586e+01 1.705687e+01 2.781796e+01 3.501974e+01 4.119204e+01 4.164653e+01 3.455830e+01 3.012437e+01 3.086669e+01 3.092862e+01 3.227882e+01 2.845108e+01 2.015548e+00 7.355751e-01 8.389336e-01 1.406783e+00 2.114697e+00 2.403617e+00 3.030580e+00 3.232883e+00 2.996855e+00 3.205957e+00 3.790429e+00 3.364043e+00 2.601002e+00 2.318398e-02 8.948747e-02 1.485537e-01 2.808821e-01 4.188857e-01 4.815443e-01 6.202633e-01 7.127114e-01 6.359770e-01 7.013406e-01 8.409085e-01 7.253613e-01 5.776654e-01 1.735488e-03
<GCONST> 1.033470e+02
<STATE> 3
<MEAN> 39
 -2.157154e+01 -8.942396e+00 -4.287881e+00 1.011809e+00 -1.224441e+00 -2.007670e+00 -3.169595e+00 -1.273114e+00 3.235467e+00 1.631125e+00 2.689973e+00 1.164062e+00 1.445858e+01 1.483021e-01 -4.413091e-02 -4.485172e-02 -5.412868e-02 1.093471e-02 -1.613721e-02 8.009829e-03 1.504524e-02 8.766670e-02 9.485710e-02 4.250175e-02 3.183494e-02 1.597929e-02 6.618216e-02 6.573422e-02 6.058702e-02 6.394012e-03 2.233718e-02 1.235873e-02 8.620551e-03 -4.083897e-03 -8.396277e-03 -3.262742e-02 -3.747678e-02 -1.409395e-02 5.174565e-03
<VARIANCE> 39
 1.297644e+01 1.207183e+01 2.240992e+01 2.427433e+01 3.027408e+01 3.391690e+01 3.094871e+01 3.350038e+01 3.394966e+01 2.925618e+01 2.865658e+01 2.537239e+01 1.035029e+00 5.215834e-01 8.021852e-01 1.356361e+00 1.754683e+00 2.768213e+00 3.275315e+00 3.632299e+00 3.325135e+00 3.480593e+00 3.342739e+00 3.162875e+00 3.070706e+00 1.753423e-02 8.883086e-02 1.678636e-01 2.771861e-01 3.769546e-01 5.919769e-01 7.088817e-01 8.117378e-01 7.248434e-01 7.390909e-01 7.195020e-01 7.006910e-01 6.737912e-01 2.107793e-03
<GCONST> 1.004010e+02
<STATE> 4
<MEAN> 39
 -9.550471e+00 -3.361330e+00 -1.687816e+00 7.933676e-01 -8.686593e-01 -2.046895e-01 -3.500201e+00 -1.535643e+00 2.273949e+00 1.840550e+00 1.276084e+00 -4.690365e-01 1.604975e+01 2.146331e+00 9.523373e-01 1.654521e-01 -4.856805e-02 -2.821187e-01 3.643567e-01 -3.476010e-01 1.155651e-01 -5.959405e-01 -2.770592e-02 -1.140510e-01 3.190300e-03 4.274086e-01 5.296107e-02 -8.192819e-02 -1.678602e-01 -9.483106e-02 -1.783223e-01 -9.751242e-02 -1.754347e-01 7.361065e-02 -3.654144e-02 6.110379e-02 1.242300e-01 1.262778e-01 3.541266e-02
<VARIANCE> 39
 6.464226e+01 2.713959e+01 6.906782e+01 3.860019e+01 3.932929e+01 5.749409e+01 3.414912e+01 3.183753e+01 3.553140e+01 4.000938e+01 2.944446e+01 3.437863e+01 5.283141e+00 2.388600e+00 2.527048e+00 3.074639e+00 3.823458e+00 4.191935e+00 4.241248e+00 3.959893e+00 3.214289e+00 3.423946e+00 4.146911e+00 3.711565e+00 3.269948e+00 2.145270e-01 4.114730e-01 4.842331e-01 5.120395e-01 6.987121e-01 7.919232e-01 8.516273e-01 7.303691e-01 6.072804e-01 7.014475e-01 8.383561e-01 8.161234e-01 6.431170e-01 3.324064e-02
<GCONST> 1.224610e+02
<TRANSP> 5
 0.000000e+00 1.000000e+00 0.000000e+00 0.000000e+00 0.000000e+00
 0.000000e+00 9.425966e-01 5.740334e-02 0.000000e+00 0.000000e+00
 0.000000e+00 0.000000e+00 9.496442e-01 5.035580e-02 0.000000e+00
 0.000000e+00 0.000000e+00 0.000000e+00 8.716463e-01 1.283537e-01
 0.000000e+00 0.000000e+00 0.000000e+00 0.000000e+00 0.000000e+00
<ENDHMM>
~h "g"
<BEGINHMM>
<NUMSTATES> 5
<STATE> 2
<MEAN> 39
 -5.202075e+00 1.460414e+00 4.685162e+00 -8.373821e-01 -2.600272e+00 -1.546419e+00 -8.159937e+00 5.021715e-01 -4.125996e+00 3.398934e+00 4.032287e+00 -2.504964e+00 1.687374e+01 -3.614274e-01 1.235676e-01 3.199659e-03 -1.174775e-01 1.254051e-01 1.347866e-01 3.064549e-01 -2.181909e-01 -9.619293e-02 -8.993911e-03 1.595447e-01 2.466966e-01 -8.616382e-02 -2.147116e-02 -1.433969e-01 8.539962e-02 2.075278e-01 8.232312e-02 -8.809479e-02 -3.036872e-03 -8.773375e-02 5.976039e-02 -2.504547e-02 -6.184468e-02 4.283163e-02 1.312793e-02
<VARIANCE> 39
 4.974598e+01 3.660011e+01 9.293522e+01 5.369804e+01 4.873325e+01 5.445074e+01 5.466433e+01 3.691739e+01 6.327856e+01 4.027370e+01 3.917886e+01 3.065178e+01 3.940031e+00 1.205553e+00 2.095850e+00 2.400159e+00 3.099838e+00 2.587665e+00 3.020774e+00 3.789314e+00 2.470953e+00 3.675618e+00 2.906022e+00 2.932498e+00 2.430968e+00 6.327394e-02 1.246350e-01 3.545796e-01 4.473661e-01 6.728637e-01 4.800503e-01 5.402407e-01 6.725564e-01 5.365158e-01 7.956861e-01 5.603833e-01 7.179688e-01 4.407339e-01 3.841866e-03
<GCONST> 1.140887e+02
<STATE> 3
<MEAN> 39
 -7.222386e+00 6.321656e-01 3.173347e+00 -1.790371e+00 -1.685692e+00 -1.335317e+00 -8.717560e+00 -1.224303e-01 -3.565907e+00 2.744994e+00 3.831081e+00 -1.582401e+00 1.611954e+01 -2.505797e-01 -8.013423e-02 3.125640e-02 -2.669332e-02 2.940062e-01 -2.861958e-01 1.569974e-01 -2.353984e-01 2.236339e-01 1.826289e-01 3.792529e-02 2.687808e-01 -2.365002e-03 5.801727e-02 -4.638891e-02 2.974740e-02 4.296243e-02 1.044915e-01 8.876306e-03 7.523182e-03 -5.836488e-02 1.592780e-01 7.895114e-02 -1.390360e-01 -4.641350e-02 5.163616e-02
<VARIANCE> 39
 6.665479e+01 3.067972e+01 9.128736e+01 4.315482e+01 4.721323e+01 5.077738e+01 5.410423e+01 3.177516e+01 5.589331e+01 5.140657e+01 4.102742e+01 3.050923e+01 5.948912e+00 1.143900e+00 2.008304e+00 2.426964e+00 3.376519e+00 2.623434e+00 3.644009e+00 2.807961e+00 2.306815e+00 3.300782e+00 2.686790e+00 3.031590e+00 2.446230e+00 5.691383e-02 1.231483e-01 2.723080e-01 3.414943e-01 5.454807e-01 4.273958e-01 7.138828e-01 5.747935e-01 3.804112e-01 6.891727e-01 6.139593e-01 7.303486e-01 4.972278e-01 6.567010e-03
<GCONST> 1.133889e+02
<STATE> 4
<MEAN> 39
 -7.401478e+00 -1.069300e+00 1.282729e+00 -1.915420e+00 1.235704e+00 -4.800831e-01 -6.355281e+00 -2.524374e+00 -2.294282e+00 3.318967e+00 3.671741e+00 4.505848e-01 1.698246e+01 7.006410e-01 3.920133e-01 5.239757e-01 3.670113e-01 -1.415447e-01 -2.010135e-01 -3.309685e-01 -2.861797e-02 2.901155e-01 2.508064e-03 -1.627139e-02 9.632943e-02 2.838967e-01 1.184567e-01 -2.592960e-02 -7.985237e-02 -1.028986e-01 -2.084948e-01 -4.681440e-02 -1.384100e-01 1.003238e-01 -4.359748e-02 -5.585681e-02 4.116975e-02 2.105332e-02 1.834711e-02
<VARIANCE> 39
 5.046577e+01 5.337724e+01 1.138638e+02 5.785360e+01 7.094852e+01 5.391952e+01 6.807416e+01 4.461220e+01 3.485503e+01 3.651569e+01 4.498296e+01 2.588195e+01 3.474659e+00 2.279229e+00 3.743431e+00 2.762563e+00 4.542975e+00 5.378630e+00 4.038207e+00 3.716921e+00 3.682945e+00 3.798973e+00 3.455825e+00 4.043714e+00 2.436124e+00 1.080668e-01 2.821974e-01 6.049737e-01 4.450062e-01 8.298768e-01 9.469278e-01 7.607828e-01 7.174637e-01 6.837541e-01 7.483996e-01 7.120622e-01 8.051781e-01 5.541203e-01 1.899297e-02
<GCONST> 1.238928e+02
<TRANSP> 5
 0.000000e+00 1.000000e+00 0.000000e+00 0.000000e+00 0.000000e+00
 0.000000e+00 4.889928e-01 5.110072e-01 0.000000e+00 0.000000e+00
 0.000000e+00 0.000000e+00 5.521156e-01 4.478845e-01 0.000000e+00
 0.000000e+00 0.000000e+00 0.000000e+00 8.324909e-01 1.675091e-01
 0.000000e+00 0.000000e+00 0.000000e+00 0.000000e+00 0.000000e+00
<ENDHMM>
~h "h"
<BEGINHMM>
<NUMSTATES> 5
<STATE> 2
<MEAN> 39
 -1.406694e+01 -7.158526e+00 1.259094e+00 -3.661082e+00 -4.086336e+00 -6.959341e-01 -4.446306e-01 1.215302e+00 2.482590e+00 -1.011549e+00 5.593696e-01 2.871696e+00 1.507608e+01 2.099160e-01 3.073707e-02 1.338290e-01 1.538378e-01 -4.599905e-02 1.496004e-01 -4.593031e-03 4.018713e-02 -7.504140e-02 -9.167022e-02 -5.325089e-02 -8.553994e-02 1.081067e-01 5.547877e-02 5.185625e-02 1.373283e-02 2.610419e-02 -2.278227e-02 -1.399413e-02 -4.841234e-02 -2.360680e-03 -1.133623e-02 2.172078e-02 1.180225e-02 -1.802603e-02 1.512742e-02
<VARIANCE> 39
 3.679299e+01 4.828615e+01 8.573563e+01 5.330489e+01 5.362261e+01 5.288393e+01 3.692003e+01 4.874191e+01 3.514473e+01 3.696800e+01 3.089607e+01 3.247370e+01 3.662080e+00 8.075683e-01 1.282274e+00 1.656060e+00 2.577786e+00 2.943140e+00 3.581598e+00 3.600489e+00 3.810698e+00 3.637761e+00 3.721179e+00 3.245670e+00 2.881083e+00 7.722419e-02 9.975876e-02 1.948260e-01 3.097353e-01 4.818928e-01 6.435450e-01 7.760308e-01 7.972112e-01 8.317268e-01 7.835972e-01 7.863945e-01 7.048548e-01 6.130823e-01 5.628821e-03
<GCONST> 1.137003e+02
<STATE> 3
<MEAN> 39
 -7.406184e+00 -8.329793e+00 5.007534e-01 2.768927e+00 -3.490411e+00 3.793801e+00 3.954612e+00 4.827677e+00 1.260222e+00 -3.950752e+00 -6.352064e-01 -8.955139e-01 1.798507e+01 3.269284e-01 1.346146e-01 -2.033348e-02 9.317572e-02 -1.353334e-01 -1.392803e-01 -9.530928e-02 3.409363e-02 -5.869531e-02 -9.345441e-02 9.258153e-02 2.792436e-02 9.347957e-02 -2.822638e-02 -4.319821e-02 -6.665992e-02 -9.605677e-02 -4.879526e-02 -7.478484e-02 -2.875509e-02 7.694071e-03 2.675679e-02 1.191778e-01 4.886125e-02 3.528023e-02 -1.157293e-02
<VARIANCE> 39
 1.685078e+01 7.320156e+01 8.347827e+01 3.984718e+01 4.874522e+01 3.641283e+01 5.656890e+01 3.197985e+01 2.718949e+01 2.860244e+01 2.572018e+01 3.055959e+01 9.110412e-01 6.886954e-01 1.149941e+00 1.083512e+00 2.228321e+00 2.765194e+00 2.771829e+00 3.084299e+00 2.550487e+00 3.059820e+00 3.129545e+00 2.736591e+00 2.767217e+00 4.048285e-02 9.025185e-02 2.233621e-01 2.019237e-01 4.291280e-01 5.343988e-01 5.690567e-01 6.103923e-01 5.348012e-01 6.874062e-01 6.748657e-01 5.332863e-01 6.070798e-01 3.484746e-03
<GCONST> 1.047259e+02
<STATE> 4
<MEAN> 39
 -3.866257e+00 -3.805489e+00 3.860148e+00 3.676705e+00 -6.116234e+00 3.637287e-03 2.655906e+00 6.049848e+00 7.991581e-01 -1.870831e+00 -1.374871e+00 -1.451065e+00 1.910189e+01 2.504438e-01 -1.140114e-02 -1.873823e-01 -2.233583e-01 -2.075660e-01 -2.101329e-01 -2.502612e-01 2.867468e-02 7.564586e-02 2.403298e-01 6.132110e-02 -8.393999e-02 5.935903e-02 -2.340267e-02 -2.504347e-02 -1.855529e-02 -1.649027e-02 3.903105e-02 4.221281e-02 -4.831887e-02 -2.517962e-02 -2.970455e-03 -1.623185e-02 -2.866971e-02 -1.825576e-02 -1.007658e-02
<VARIANCE> 39
 8.879066e+00 2.194229e+01 4.247775e+01 2.828077e+01 4.314558e+01 2.865442e+01 4.869455e+01 2.994825e+01 3.145598e+01 2.271400e+01 2.892949e+01 3.283027e+01 5.215793e-01 3.819777e-01 7.096692e-01 8.919697e-01 2.228019e+00 1.981171e+00 2.547321e+00 2.750934e+00 2.309370e+00 2.611710e+00 2.543361e+00 2.009058e+00 2.029069e+00 1.064902e-02 7.132183e-02 1.198467e-01 1.744829e-01 4.709271e-01 3.924974e-01 5.127239e-01 5.701666e-01 4.717565e-01 5.307475e-01 5.286108e-01 4.165746e-01 4.312518e-01 1.241474e-03
<GCONST> 9.297118e+01
<TRANSP> 5
 0.000000e+00 1.000000e+00 0.000000e+00 0.000000e+00 0.000000e+00
 0.000000e+00 9.301485e-01 6.985141e-02 0.000000e+00 0.000000e+00
 0.000000e+00 0.000000e+00 8.217437e-01 1.782562e-01 0.000000e+00
 0.000000e+00 0.000000e+00 0.000000e+00 8.269758e-01 1.730241e-01
 0.000000e+00 0.000000e+00 0.000000e+00 0.000000e+00 0.000000e+00
<ENDHMM>
~h "i"
<BEGINHMM>
<NUMSTATES> 5
<STATE> 2
<MEAN> 39
 -3.936852e+00 9.290453e-01 8.858848e+00 1.114751e+00 -7.199862e+00 -4.643585e+00 -8.858404e+00 1.316468e+00 2.903857e-01 1.347769e+00 4.571601e-01 1.380867e+00 1.841666e+01 3.706595e-01 -2.462692e-01 1.727566e-01 -2.114003e-01 -4.124821e-01 -2.050443e-01 -4.323217e-01 2.779410e-01 -8.607240e-02 5.944089e-02 2.124220e-01 5.142705e-02 1.260592e-01 -6.779350e-02 -5.558674e-04 -4.567246e-02 -2.551976e-03 3.681175e-02 3.392606e-02 3.617329e-02 2.540671e-03 -1.220213e-02 -1.948338e-02 -7.093627e-03 -1.043000e-02 -1.998919e-02
<VARIANCE> 39
 6.071437e+01 3.324350e+01 6.159630e+01 3.524415e+01 5.135181e+01 6.466898e+01 6.348142e+01 4.264798e+01 4.252512e+01 3.433560e+01 3.610968e+01 3.831677e+01 4.252378e+00 1.360835e+00 2.174355e+00 1.638422e+00 2.636277e+00 2.571271e+00 3.522387e+00 3.968294e+00 2.742178e+00 2.588380e+00 2.613360e+00 2.603188e+00 2.468262e+00 9.854427e-02 1.966601e-01 4.248710e-01 2.952423e-01 5.265560e-01 4.820647e-01 7.305081e-01 7.539750e-01 5.568554e-01 5.387056e-01 5.163073e-01 5.298807e-01 5.081120e-01 7.310904e-03
<GCONST> 1.137760e+02
<STATE> 3
<MEAN> 39
 5.224832e-01 -2.839948e+00 1.079095e+01 5.730587e-01 -9.893552e+00 -7.588295e+00 -1.443580e+01 3.806612e+00 8.784037e-01 -5.549320e-02 1.754206e+00 1.939926e+00 2.038213e+01 4.913339e-03 5.343968e-02 -1.838666e-02 2.831309e-02 6.920274e-02 -6.011458e-03 9.841620e-03 4.084617e-02 -4.643248e-02 5.737694e-03 -5.480455e-02 -1.588604e-02 -2.159882e-03 -2.536940e-02 4.858349e-02 -2.722701e-02 1.212063e-02 6.831270e-02 1.668936e-02 6.831318e-02 -5.510925e-02 7.217398e-03 1.908658e-02 -2.538847e-02 -1.771906e-02 -8.313339e-03
<VARIANCE> 39
 7.040425e+00 2.383468e+01 3.800824e+01 2.826026e+01 4.501073e+01 3.464598e+01 5.564581e+01 2.888241e+01 4.028265e+01 2.541386e+01 3.574107e+01 2.748839e+01 5.268132e-01 3.342885e-01 9.601635e-01 7.582459e-01 9.107445e-01 1.510764e+00 2.249726e+00 2.228524e+00 1.522803e+00 1.678826e+00 1.303873e+00 1.356845e+00 1.470967e+00 4.847952e-03 5.622326e-02 1.520545e-01 1.301852e-01 1.691152e-01 2.602275e-01 3.900279e-01 3.953633e-01 2.814845e-01 2.889178e-01 2.384359e-01 2.537607e-01 2.548522e-01 2.921163e-04
<GCONST> 8.216463e+01
<STATE> 4
<MEAN> 39
 -2.036767e+00 2.285026e+00 7.653113e+00 1.962699e+00 -4.204968e+00 -8.185183e+00 -9.862660e+00 1.488798e+00 1.894703e+00 1.967209e+00 -9.681192e-01 1.309326e+00 1.892338e+01 -3.740839e-01 4.402101e-01 -1.561144e-01 1.125851e-01 5.879320e-01 1.179774e-01 6.022406e-01 -3.379303e-01 1.831976e-02 1.365137e-02 -1.380413e-01 -1.367248e-01 -1.321462e-01 -5.732260e-02 -4.092184e-02 -2.326413e-03 -2.654810e-02 2.490125e-02 8.430381e-02 -1.152647e-03 -1.898563e-02 -3.546296e-02 -2.497422e-02 3.600721e-02 -1.517226e-02 -1.039077e-02
<VARIANCE> 39
 2.706596e+01 2.959141e+01 2.957920e+01 3.518902e+01 5.333303e+01 4.593376e+01 6.742807e+01 4.046659e+01 5.909722e+01 3.357871e+01 4.792584e+01 3.670434e+01 2.041788e+00 9.922161e-01 1.257800e+00 1.136919e+00 1.686704e+00 2.849556e+00 3.169004e+00 3.939648e+00 2.613786e+00 3.218765e+00 2.189501e+00 2.332728e+00 2.309262e+00 2.147787e-02 1.282522e-01 2.353515e-01 2.233528e-01 3.340440e-01 5.325140e-01 5.897447e-01 7.613528e-01 5.050659e-01 6.440578e-01 4.419981e-01 4.641171e-01 4.501662e-01 1.218552e-03
<GCONST> 1.042644e+02
<TRANSP> 5
 0.000000e+00 1.000000e+00 0.000000e+00 0.000000e+00 0.000000e+00
 0.000000e+00 8.225626e-01 1.774375e-01 0.000000e+00 0.000000e+00
 0.000000e+00 0.000000e+00 9.126706e-01 8.732940e-02 0.000000e+00
 0.000000e+00 0.000000e+00 0.000000e+00 7.304868e-01 2.695132e-01
 0.000000e+00 0.000000e+00 0.000000e+00 0.000000e+00 0.000000e+00
<ENDHMM>
~h "k"
<BEGINHMM>
<NUMSTATES> 5
<STATE> 2
<MEAN> 39
 -1.548251e+01 -6.362328e+00 1.220744e+00 -4.394531e+00 -3.962967e+00 -5.693955e+00 -4.412370e+00 1.589209e+00 1.493451e-01 4.292681e+00 1.437603e+00 1.507273e+00 1.530311e+01 -2.079550e-01 3.538242e-02 -2.599752e-02 -4.824335e-02 1.398201e-01 -9.082332e-02 1.994327e-01 -4.347750e-02 3.701751e-01 1.492996e-02 1.118357e-01 1.886150e-01 -2.360930e-02 3.031507e-02 -3.253745e-02 -9.082256e-03 7.360691e-02 7.180703e-02 5.685196e-02 -5.107230e-03 -2.075808e-02 -9.483887e-03 -5.699388e-02 -2.375707e-02 -2.129326e-02 8.242095e-03
<VARIANCE> 39
 2.326920e+01 2.331495e+01 3.807938e+01 4.291789e+01 4.561040e+01 5.400084e+01 4.095020e+01 4.265225e+01 3.861688e+01 4.071358e+01 3.350074e+01 3.004801e+01 2.433856e+00 8.370331e-01 1.318394e+00 1.541788e+00 1.986887e+00 2.734366e+00 3.547953e+00 2.999219e+00 3.096042e+00 3.300865e+00 3.672911e+00 3.428514e+00 3.311786e+00 3.831657e-02 1.569540e-01 2.507451e-01 3.217756e-01 4.015126e-01 5.730907e-01 7.598861e-01 6.335506e-01 6.791312e-01 6.780217e-01 8.129376e-01 7.274766e-01 7.218191e-01 6.667602e-03
<GCONST> 1.099862e+02
<STATE> 3
<MEAN> 39
 -1.326872e+01 -8.074780e+00 -7.482407e+00 -3.498787e+00 2.823756e+00 -1.380901e+00 -4.820252e+00 -4.406154e+00 2.074511e+00 4.675726e+00 3.531592e+00 1.195869e+00 1.570538e+01 1.652011e-01 2.528691e-01 2.729265e-01 4.753101e-01 4.931728e-01 5.960233e-01 3.561178e-01 -1.136365e-01 1.044714e-01 -2.854919e-01 -1.774327e-01 -2.092839e-02 6.856661e-02 1.464828e-01 1.304559e-01 1.404100e-01 1.162477e-01 1.023725e-02 5.487588e-02 -1.024908e-02 8.225545e-02 -7.474342e-02 -4.796512e-02 -6.968912e-02 -3.603118e-02 4.584237e-02
<VARIANCE> 39
 2.116269e+01 3.300480e+01 6.154931e+01 5.237333e+01 5.290898e+01 5.886645e+01 4.732570e+01 6.593147e+01 5.552621e+01 4.477728e+01 4.162261e+01 3.235929e+01 1.238720e+00 1.096797e+00 1.120619e+00 1.998085e+00 2.833320e+00 2.733024e+00 4.227965e+00 3.809964e+00 4.332273e+00 3.810008e+00 3.714516e+00 3.744061e+00 3.005642e+00 5.552317e-02 1.758121e-01 1.934671e-01 3.421284e-01 5.409015e-01 5.135647e-01 7.982819e-01 8.051114e-01 8.787664e-01 8.349981e-01 7.933916e-01 8.244909e-01 6.147171e-01 1.192218e-02
<GCONST> 1.151759e+02
<STATE> 4
<MEAN> 39
 -5.857413e+00 -1.169505e+00 2.118134e+00 1.523301e+00 8.936890e-01 2.325797e+00 -4.539778e+00 -8.014329e-02 1.055008e-01 1.238806e+00 9.219870e-01 2.818110e-01 1.763079e+01 1.455468e+00 9.559321e-01 6.333082e-01 2.543598e-01 -6.578505e-01 -7.466524e-02 -8.053791e-01 1.865030e-01 -2.804361e-01 -4.356713e-01 -2.763499e-03 -2.109816e-01 4.482815e-01 -2.786566e-02 -2.081826e-01 -2.512297e-01 -3.693515e-01 -3.645201e-01 -2.496128e-01 -2.137017e-01 4.426924e-02 3.574372e-02 1.417040e-01 2.249209e-01 4.586511e-02 -2.050379e-02
<VARIANCE> 39
 4.142592e+01 3.993974e+01 8.442000e+01 7.269521e+01 7.951980e+01 9.641110e+01 4.876956e+01 6.249805e+01 4.101492e+01 4.940116e+01 3.874567e+01 2.849450e+01 3.095119e+00 1.862481e+00 2.252517e+00 2.418476e+00 4.144667e+00 4.403261e+00 3.585520e+00 3.728352e+00 3.421489e+00 3.301177e+00 3.789086e+00 3.687500e+00 2.487413e+00 1.268337e-01 2.314805e-01 3.929401e-01 3.517730e-01 6.782005e-01 8.197328e-01 7.579235e-01 7.482820e-01 7.215839e-01 6.815074e-01 7.863796e-01 6.673696e-01 5.364904e-01 1.557158e-02
<GCONST> 1.215140e+02
<TRANSP> 5
 0.000000e+00 1.000000e+00 0.000000e+00 0.000000e+00 0.000000e+00
 0.000000e+00 8.881628e-01 1.118373e-01 0.000000e+00 0.000000e+00
 0.000000e+00 0.000000e+00 8.570762e-01 1.429238e-01 0.000000e+00
 0.000000e+00 0.000000e+00 0.000000e+00 7.696131e-01 2.303868e-01
 0.000000e+00 0.000000e+00 0.000000e+00 0.000000e+00 0.000000e+00
<ENDHMM>
~h "l"
<BEGINHMM>
<NUMSTATES> 5
<STATE> 2
<MEAN> 39
 -1.365224e+00 8.496087e+00 -1.613776e+00 -1.158426e+01 2.690981e+00 7.876457e+00 -1.032685e+01 -4.868204e+00 -1.195907e+00 2.063145e+00 3.610978e+00 3.168344e+00 1.816504e+01 5.876631e-01 1.919886e-01 -3.017970e-01 -1.003551e+00 -3.630776e-02 6.095834e-01 -8.374634e-01 -5.813244e-02 -2.615349e-01 -5.767959e-02 4.228022e-01 2.645582e-01 1.674054e-01 -1.280053e-01 -7.692486e-02 -1.348951e-02 1.527534e-01 -1.937416e-03 -4.515375e-02 7.373805e-02 5.273992e-03 3.674725e-03 -3.366163e-02 6.807117e-02 -3.182945e-02 -3.735181e-02
<VARIANCE> 39
 1.966755e+01 3.248000e+01 3.380977e+01 1.043988e+02 2.752941e+01 6.249913e+01 8.142067e+01 5.321077e+01 5.858443e+01 4.596019e+01 3.390497e+01 3.449669e+01 3.519891e+00 1.413649e+00 1.460765e+00 1.989822e+00 5.889403e+00 2.711446e+00 3.912175e+00 5.951305e+00 4.020409e+00 3.082224e+00 3.206776e+00 3.429109e+00 2.872369e+00 7.769404e-02 2.257646e-01 2.762721e-01 4.157011e-01 1.134517e+00 5.794566e-01 8.715023e-01 1.121149e+00 7.454827e-01 6.556374e-01 6.865417e-01 6.989382e-01 5.628327e-01 8.601317e-03
<GCONST> 1.182216e+02
<STATE> 3
<MEAN> 39
 3.103808e+00 1.020128e+01 -2.378084e+00 -1.564289e+01 2.323972e+00 1.031390e+01 -1.659485e+01 -6.867478e+00 -3.756569e+00 -7.412576e-01 7.867863e+00 4.325874e+00 1.998438e+01 8.462719e-04 -5.806164e-02 -9.447719e-02 -8.039062e-02 -2.189311e-02 7.315869e-02 -1.185503e-02 -1.297122e-03 2.352176e-02 7.259946e-02 5.119891e-02 -3.694218e-03 1.230509e-02 -7.202800e-03 -3.469527e-02 -1.702089e-03 2.819118e-02 -1.141563e-02 -1.568387e-02 1.657869e-02 2.233492e-02 4.211267e-02 2.676457e-02 -5.120008e-02 -3.120948e-02 6.600086e-04
<VARIANCE> 39
 4.306398e+00 2.380660e+01 2.187031e+01 4.315539e+01 2.050525e+01 3.059467e+01 6.123289e+01 4.963015e+01 4.708374e+01 4.978084e+01 3.032828e+01 3.313383e+01 6.040210e-01 3.774412e-01 8.130278e-01 7.169146e-01 2.179570e+00 1.395093e+00 2.094390e+00 3.389096e+00 2.307614e+00 2.506182e+00 2.245600e+00 2.137092e+00 2.258035e+00 4.245614e-03 7.572476e-02 1.137499e-01 1.303501e-01 3.954159e-01 2.724972e-01 3.996427e-01 6.356325e-01 4.343390e-01 4.338915e-01 3.847271e-01 3.917769e-01 3.808351e-01 2.852496e-04
<GCONST> 8.894095e+01
<STATE> 4
<MEAN> 39
 2.420856e+00 -1.673730e+00 -6.685408e+00 -1.227201e+01 -3.381298e-01 1.036035e+01 -1.779165e+01 -1.338220e+00 7.581445e+00 6.311562e+00 8.977811e-02 -5.649388e+00 2.056598e+01 -6.351025e-02 -4.940181e-01 7.566491e-02 4.023422e-01 -1.904430e-01 -2.217169e-01 1.695529e-01 2.969306e-01 4.030937e-01 2.168698e-02 -5.831878e-01 -4.255317e-01 9.975561e-03 -1.056083e-02 3.536441e-02 4.242933e-02 1.920041e-02 1.941277e-03 -3.673153e-02 5.948508e-02 -1.132336e-03 -7.884455e-02 -6.196895e-02 3.027039e-02 5.712451e-02 -4.096291e-03
<VARIANCE> 39
 4.473692e+00 2.679024e+01 3.973919e+01 3.959647e+01 2.161541e+01 4.412840e+01 6.319263e+01 3.846604e+01 3.586552e+01 3.593015e+01 4.465853e+01 3.284933e+01 3.936458e-01 3.848044e-01 9.438034e-01 9.521970e-01 2.025143e+00 1.442740e+00 1.597240e+00 2.288777e+00 1.745301e+00 2.491466e+00 2.530005e+00 1.942639e+00 1.467344e+00 1.727333e-03 7.619138e-02 1.455840e-01 1.718592e-01 3.541270e-01 2.631008e-01 2.800967e-01 4.141567e-01 3.276569e-01 4.137590e-01 4.037882e-01 3.190849e-01 2.470202e-01 2.106723e-04
<GCONST> 8.569106e+01
<TRANSP> 5
 0.000000e+00 1.000000e+00 0.000000e+00 0.000000e+00 0.000000e+00
 0.000000e+00 8.100746e-01 1.899254e-01 0.000000e+00 0.000000e+00
 0.000000e+00 0.000000e+00 9.651129e-01 3.488711e-02 0.000000e+00
 0.000000e+00 0.000000e+00 0.000000e+00 9.253439e-01 7.465605e-02
 0.000000e+00 0.000000e+00 0.000000e+00 0.000000e+00 0.000000e+00
<ENDHMM>
~h "m"
<BEGINHMM>
<NUMSTATES> 5
<STATE> 2
<MEAN> 39
 2.817002e+00 3.446813e+00 6.628078e+00 1.154434e+00 2.721611e+00 3.507169e-01 -2.363912e+00 -4.548513e+00 -4.840454e+00 6.711877e+00 -2.794409e+00 -3.031723e+00 1.891380e+01 4.024527e-01 1.780242e-01 4.642747e-01 1.888613e-01 -8.858690e-03 -3.760915e-01 3.211221e-01 -5.771356e-01 -7.754835e-01 5.984684e-01 -3.806210e-01 7.034084e-02 1.153130e-01 -9.016813e-02 -4.842348e-02 -4.011884e-02 -6.033432e-02 -8.432458e-02 -2.796360e-02 -4.403198e-02 3.080671e-02 6.045160e-03 -5.125425e-02 4.537234e-02 1.907484e-02 -1.819434e-02
<VARIANCE> 39
 1.392246e+01 4.023476e+01 3.113713e+01 5.953988e+01 2.475247e+01 3.940434e+01 3.713462e+01 4.051126e+01 3.568379e+01 3.685471e+01 3.275142e+01 2.608285e+01 1.658353e+00 9.347383e-01 1.873112e+00 1.787126e+00 2.923338e+00 2.059144e+00 2.731072e+00 3.033871e+00 2.730637e+00 2.842876e+00 2.867701e+00 3.426261e+00 1.858119e+00 5.757129e-02 1.315614e-01 3.596527e-01 2.897335e-01 5.217279e-01 3.992589e-01 5.385103e-01 6.032382e-01 4.896228e-01 5.137488e-01 5.613438e-01 6.005777e-01 3.486132e-01 4.237917e-03
<GCONST> 1.053488e+02
<STATE> 3
<MEAN> 39
 5.587047e+00 1.157469e+00 9.786477e+00 2.495824e+00 7.130924e-01 -2.140669e+00 -3.501559e+00 -6.708218e+00 -8.178325e+00 7.039916e+00 -3.608043e+00 -3.556427e+00 1.999420e+01 -3.856796e-03 1.994559e-02 1.567312e-02 6.579265e-02 -2.512019e-02 -5.244051e-02 2.959083e-02 -8.576628e-02 -2.849659e-02 -3.299100e-02 -4.706463e-02 -1.891349e-02 7.572590e-04 -1.960987e-02 -1.216608e-02 -5.107724e-02 -3.096165e-02 1.524973e-03 1.888392e-02 -1.630857e-02 3.992817e-02 6.724391e-02 -3.888921e-02 3.339896e-02 6.412224e-03 -9.286316e-04
<VARIANCE> 39
 4.096470e+00 2.250305e+01 1.560625e+01 2.926830e+01 2.043308e+01 4.029745e+01 2.907987e+01 3.552254e+01 3.757613e+01 3.886943e+01 3.925843e+01 2.788377e+01 2.307847e-01 2.947874e-01 8.956191e-01 6.792728e-01 9.365622e-01 1.035222e+00 1.434638e+00 1.427233e+00 1.850181e+00 1.450598e+00 1.719701e+00 1.327122e+00 1.031030e+00 1.493853e-03 5.734070e-02 1.553012e-01 1.424347e-01 1.816344e-01 2.117402e-01 2.803171e-01 2.771874e-01 3.552523e-01 2.926460e-01 3.178189e-01 2.662208e-01 1.973615e-01 1.214164e-04
<GCONST> 7.524570e+01
<STATE> 4
<MEAN> 39
 2.843780e+00 2.327018e+00 7.494501e+00 8.465106e-01 2.859288e+00 -8.020330e-01 -2.295932e+00 -6.085072e+00 -5.220365e+00 5.421359e+00 -4.725003e+00 -1.577180e+00 1.924053e+01 -1.278518e-01 -2.716995e-01 -5.360217e-01 -3.179625e-01 -1.282477e-01 2.862226e-01 -3.173490e-01 4.653035e-01 7.033583e-01 -4.556213e-01 3.470134e-01 -4.676240e-02 -1.212831e-02 5.885886e-02 -8.977368e-02 -6.750043e-03 -6.900044e-02 -1.021244e-01 6.080348e-02 -7.642508e-02 1.183474e-01 3.280268e-02 3.613876e-02 5.747866e-03 2.822615e-03 -2.092828e-03
<VARIANCE> 39
 1.355167e+01 2.271193e+01 3.223694e+01 5.275282e+01 3.393792e+01 5.133202e+01 3.623572e+01 3.712529e+01 4.218270e+01 4.683502e+01 4.890114e+01 3.184602e+01 1.146204e+00 1.210243e+00 1.572196e+00 2.163446e+00 2.542228e+00 2.505856e+00 2.922482e+00 2.967637e+00 3.168190e+00 3.523936e+00 3.642557e+00 3.062497e+00 2.212513e+00 8.779936e-03 2.413837e-01 2.920589e-01 3.260178e-01 4.919072e-01 5.007533e-01 5.748880e-01 5.693935e-01 6.306759e-01 6.619791e-01 7.524219e-01 5.760812e-01 4.133713e-01 5.996840e-04
<GCONST> 1.045959e+02
<TRANSP> 5
 0.000000e+00 1.000000e+00 0.000000e+00 0.000000e+00 0.000000e+00
 0.000000e+00 7.908461e-01 2.091538e-01 0.000000e+00 0.000000e+00
 0.000000e+00 0.000000e+00 9.429851e-01 5.701487e-02 0.000000e+00
 0.000000e+00 0.000000e+00 0.000000e+00 8.699115e-01 1.300885e-01
 0.000000e+00 0.000000e+00 0.000000e+00 0.000000e+00 0.000000e+00
<ENDHMM>
~h "n"
<BEGINHMM>
<NUMSTATES> 5
<STATE> 2
<MEAN> 39
 4.135081e+00 -1.858035e+00 5.993763e+00 1.144378e+00 -3.468393e+00 -2.295923e+00 -5.489953e+00 6.495565e-01 -2.798255e+00 6.490124e+00 -3.450605e+00 -5.573763e+00 2.015868e+01 1.455268e-01 8.972756e-02 1.475155e-01 2.376372e-01 1.248002e-01 1.359506e-01 2.536772e-02 -5.436151e-01 1.739735e-05 1.074481e-01 -1.841189e-01 -1.068023e-01 -4.766801e-03 -2.134087e-02 2.241798e-03 1.255180e-02 -2.082021e-02 -1.389592e-02 2.011348e-02 -1.632754e-02 -2.796980e-02 5.971983e-02 -4.572536e-02 5.369569e-03 1.978631e-02 -6.117485e-04
<VARIANCE> 39
 7.496208e+00 2.269741e+01 4.192537e+01 3.045510e+01 3.037983e+01 4.458249e+01 3.935713e+01 5.143717e+01 3.717033e+01 3.497042e+01 3.891768e+01 2.784936e+01 2.316562e-01 3.722220e-01 1.084019e+00 1.074154e+00 1.307520e+00 1.561621e+00 2.401761e+00 1.796767e+00 2.666125e+00 1.900209e+00 2.191102e+00 1.559237e+00 1.428684e+00 2.476788e-03 6.309170e-02 1.738539e-01 1.744630e-01 2.259225e-01 2.820593e-01 4.006357e-01 3.323949e-01 3.769142e-01 3.240677e-01 3.673592e-01 2.643078e-01 2.466086e-01 2.105115e-04
<GCONST> 8.470446e+01
<STATE> 3
<MEAN> 39
 5.665553e+00 1.479851e+00 8.502747e+00 4.354834e+00 -2.660983e-01 -2.991496e-01 -7.296381e+00 -8.110378e+00 1.879220e-01 6.197037e+00 -8.038420e+00 -5.865215e+00 1.987783e+01 -6.484403e-02 1.747425e-01 -4.647805e-02 -1.270547e-02 6.075443e-02 -3.854735e-02 -7.943286e-03 -8.094928e-02 4.781901e-02 -8.143519e-02 -2.491825e-02 1.383570e-01 -1.419931e-02 -5.213801e-02 1.593405e-02 -2.869299e-02 -4.423625e-02 6.458138e-03 -5.331049e-02 2.279965e-02 1.094017e-01 -4.006298e-02 -1.590966e-02 4.994071e-02 3.559663e-02 -2.979283e-03
<VARIANCE> 39
 5.413393e+00 1.494604e+01 1.637552e+01 1.838499e+01 1.714178e+01 2.823606e+01 4.219315e+01 3.267284e+01 3.290126e+01 3.204033e+01 2.313472e+01 2.553279e+01 2.268905e-01 4.862184e-01 9.508311e-01 8.780269e-01 9.663131e-01 1.307822e+00 1.972915e+00 2.511755e+00 2.154459e+00 1.730666e+00 1.948832e+00 1.535846e+00 1.338357e+00 2.423171e-03 9.461299e-02 1.699013e-01 1.654588e-01 1.928653e-01 2.666143e-01 3.840379e-01 4.940240e-01 4.292350e-01 3.405803e-01 3.698519e-01 2.951383e-01 2.588497e-01 1.716116e-04
<GCONST> 7.994238e+01
<STATE> 4
<MEAN> 39
 4.787190e-01 4.200703e+00 7.524537e+00 3.991730e+00 1.900588e+00 -1.963605e+00 -1.485873e+00 -4.388473e+00 -1.020465e+00 5.629886e+00 -7.373618e+00 -2.973777e+00 1.852803e+01 -3.065034e-01 4.492789e-02 -7.756167e-02 -6.242565e-02 1.189954e-01 -1.409544e-02 8.580787e-02 2.236880e-01 3.965677e-02 -2.094196e-01 1.116333e-01 1.132968e-01 -5.861569e-02 4.693309e-03 -5.563871e-02 -1.297514e-02 -6.897742e-03 -3.322709e-02 3.635763e-02 -4.927660e-02 2.697031e-02 1.965189e-02 1.234246e-03 2.352576e-02 -2.882967e-02 -5.621230e-03
<VARIANCE> 39
 1.538467e+01 1.866457e+01 2.849699e+01 3.921544e+01 2.888394e+01 4.231614e+01 4.601373e+01 5.751117e+01 3.425879e+01 4.169609e+01 3.157538e+01 2.400448e+01 1.466378e+00 1.098622e+00 1.269920e+00 1.559732e+00 2.233803e+00 2.688566e+00 3.421442e+00 3.561668e+00 3.949360e+00 3.010811e+00 3.582421e+00 2.774590e+00 2.002212e+00 1.246800e-02 2.027065e-01 2.566960e-01 3.061343e-01 4.495219e-01 5.821788e-01 7.063372e-01 7.712517e-01 7.627548e-01 6.309386e-01 7.719159e-01 5.975890e-01 4.053082e-01 1.246329e-03
<GCONST> 1.045924e+02
<TRANSP> 5
 0.000000e+00 1.000000e+00 0.000000e+00 0.000000e+00 0.000000e+00
 0.000000e+00 9.133591e-01 8.664089e-02 0.000000e+00 0.000000e+00
 0.000000e+00 0.000000e+00 9.171596e-01 8.284044e-02 0.000000e+00
 0.000000e+00 0.000000e+00 0.000000e+00 8.977345e-01 1.022655e-01
 0.000000e+00 0.000000e+00 0.000000e+00 0.000000e+00 0.000000e+00
<ENDHMM>
~h "o"
<BEGINHMM>
<NUMSTATES> 5
<STATE> 2
<MEAN> 39
 -8.968819e+00 1.227167e+00 1.709896e+00 5.255102e-01 -1.376319e+00 -3.581203e-01 -4.450421e+00 2.224232e-01 1.032390e+00 1.922153e+00 9.369482e-01 -5.463367e-02 1.433043e+01 6.601643e-05 -6.414447e-06 -4.348861e-05 2.207338e-05 -6.183252e-05 3.505594e-04 -2.845397e-05 -1.057293e-04 -3.217392e-04 -2.094190e-04 -1.093453e-04 6.646793e-05 -4.646834e-05 -3.052270e-05 -5.577785e-06 5.118113e-05 5.903988e-05 8.738427e-05 1.239256e-04 1.462678e-04 5.784345e-07 -6.680420e-05 8.540968e-05 -3.584341e-06 -9.608337e-06 3.280207e-06
<VARIANCE> 39
 9.132833e+01 3.750473e+01 5.184167e+01 5.299957e+01 4.542144e+01 5.171822e+01 6.411460e+01 4.173472e+01 3.924054e+01 3.472301e+01 3.778771e+01 3.327573e+01 2.268905e+01 6.444674e-01 1.076510e+00 1.293223e+00 1.883514e+00 2.197024e+00 2.673508e+00 2.949268e+00 2.722457e+00 2.845586e+00 2.895535e+00 2.697424e+00 2.293327e+00 4.128606e-02 9.874837e-02 2.035372e-01 2.576212e-01 3.839478e-01 4.538210e-01 5.496877e-01 6.081111e-01 5.695377e-01 5.939356e-01 6.059731e-01 5.659602e-01 4.834353e-01 5.660130e-03
<GCONST> 1.098248e+02
<STATE> 3
<MEAN> 39
 -8.968819e+00 1.227167e+00 1.709896e+00 5.255102e-01 -1.376319e+00 -3.581203e-01 -4.450421e+00 2.224232e-01 1.032390e+00 1.922153e+00 9.369482e-01 -5.463367e-02 1.433043e+01 6.601643e-05 -6.414447e-06 -4.348861e-05 2.207338e-05 -6.183252e-05 3.505594e-04 -2.845397e-05 -1.057293e-04 -3.217392e-04 -2.094190e-04 -1.093453e-04 6.646793e-05 -4.646834e-05 -3.052270e-05 -5.577785e-06 5.118113e-05 5.903988e-05 8.738427e-05 1.239256e-04 1.462678e-04 5.784345e-07 -6.680420e-05 8.540968e-05 -3.584341e-06 -9.608337e-06 3.280207e-06
<VARIANCE> 39
 9.132833e+01 3.750473e+01 5.184167e+01 5.299957e+01 4.542144e+01 5.171822e+01 6.411460e+01 4.173472e+01 3.924054e+01 3.472301e+01 3.778771e+01 3.327573e+01 2.268905e+01 6.444674e-01 1.076510e+00 1.293223e+00 1.883514e+00 2.197024e+00 2.673508e+00 2.949268e+00 2.722457e+00 2.845586e+00 2.895535e+00 2.697424e+00 2.293327e+00 4.128606e-02 9.874837e-02 2.035372e-01 2.576212e-01 3.839478e-01 4.538210e-01 5.496877e-01 6.081111e-01 5.695377e-01 5.939356e-01 6.059731e-01 5.659602e-01 4.834353e-01 5.660130e-03
<GCONST> 1.098248e+02
<STATE> 4
<MEAN> 39
 -8.968819e+00 1.227167e+00 1.709896e+00 5.255102e-01 -1.376319e+00 -3.581203e-01 -4.450421e+00 2.224232e-01 1.032390e+00 1.922153e+00 9.369482e-01 -5.463367e-02 1.433043e+01 6.601643e-05 -6.414447e-06 -4.348861e-05 2.207338e-05 -6.183252e-05 3.505594e-04 -2.845397e-05 -1.057293e-04 -3.217392e-04 -2.094190e-04 -1.093453e-04 6.646793e-05 -4.646834e-05 -3.052270e-05 -5.577785e-06 5.118113e-05 5.903988e-05 8.738427e-05 1.239256e-04 1.462678e-04 5.784345e-07 -6.680420e-05 8.540968e-05 -3.584341e-06 -9.608337e-06 3.280207e-06
<VARIANCE> 39
 9.132833e+01 3.750473e+01 5.184167e+01 5.299957e+01 4.542144e+01 5.171822e+01 6.411460e+01 4.173472e+01 3.924054e+01 3.472301e+01 3.778771e+01 3.327573e+01 2.268905e+01 6.444674e-01 1.076510e+00 1.293223e+00 1.883514e+00 2.197024e+00 2.673508e+00 2.949268e+00 2.722457e+00 2.845586e+00 2.895535e+00 2.697424e+00 2.293327e+00 4.128606e-02 9.874837e-02 2.035372e-01 2.576212e-01 3.839478e-01 4.538210e-01 5.496877e-01 6.081111e-01 5.695377e-01 5.939356e-01 6.059731e-01 5.659602e-01 4.834353e-01 5.660130e-03
<GCONST> 1.098248e+02
<TRANSP> 5
 0.000000e+00 1.000000e+00 0.000000e+00 0.000000e+00 0.000000e+00
 0.000000e+00 5.000000e-01 5.000000e-01 0.000000e+00 0.000000e+00
 0.000000e+00 0.000000e+00 5.000000e-01 5.000000e-01 0.000000e+00
 0.000000e+00 0.000000e+00 0.000000e+00 5.000000e-01 5.000000e-01
 0.000000e+00 0.000000e+00 0.000000e+00 0.000000e+00 0.000000e+00
<ENDHMM>
~h "p"
<BEGINHMM>
<NUMSTATES> 5
<STATE> 2
<MEAN> 39
 -1.297731e+01 -9.363461e+00 -2.807529e+00 -8.862195e-01 1.540900e+00 -2.019350e+00 -3.459192e+00 -1.323350e+00 3.852984e+00 4.910467e+00 5.738739e+00 3.891134e+00 1.583356e+01 2.773375e-02 3.568282e-02 -3.213650e-02 8.801664e-02 1.423029e-01 3.639819e-01 3.123366e-01 2.682409e-01 1.868330e-01 1.159589e-01 -2.075313e-02 3.004311e-02 -1.082661e-04 7.958724e-02 7.554115e-02 2.024255e-03 1.574149e-02 7.430362e-03 1.286931e-01 6.108966e-02 2.566351e-02 -3.688489e-02 -1.153566e-01 -5.440598e-02 -5.790967e-02 2.022871e-02
<VARIANCE> 39
 2.728236e+01 3.023425e+01 5.927428e+01 5.745176e+01 4.970005e+01 3.823616e+01 4.091326e+01 3.460580e+01 3.808918e+01 3.833953e+01 2.823369e+01 2.396147e+01 9.792625e-01 6.206287e-01 1.450033e+00 1.795326e+00 2.446199e+00 3.094552e+00 4.019244e+00 3.654735e+00 3.917164e+00 4.049120e+00 4.174195e+00 3.130080e+00 2.364148e+00 3.601555e-02 1.022244e-01 2.695636e-01 3.409674e-01 4.712012e-01 5.651392e-01 8.793432e-01 7.980203e-01 8.117464e-01 8.181488e-01 9.306945e-01 7.037452e-01 5.145698e-01 6.795833e-03
<GCONST> 1.103416e+02
<STATE> 3
<MEAN> 39
 -1.008139e+01 -8.750571e+00 -2.395672e+00 -1.236676e+00 3.603908e-01 5.303331e+00 4.794931e+00 5.086454e+00 5.960432e+00 3.371007e+00 4.506260e+00 2.824847e+00 1.670125e+01 2.530396e-01 3.174555e-01 1.323147e-01 3.031349e-01 2.230253e-01 6.220663e-01 2.536693e-01 8.763953e-02 -2.123875e-01 -4.547815e-01 -3.122370e-01 -3.366341e-01 1.154414e-01 1.140330e-01 1.261566e-01 4.946558e-02 4.642066e-02 -6.891210e-02 -9.888913e-02 -1.847482e-01 -1.420751e-01 -1.233136e-01 -4.916575e-02 -6.389232e-02 -7.531387e-02 3.396199e-02
<VARIANCE> 39
 1.778830e+01 5.258483e+01 4.359188e+01 4.764117e+01 7.393000e+01 5.955511e+01 4.996627e+01 4.652707e+01 3.850346e+01 4.241118e+01 2.838960e+01 2.519322e+01 1.587632e+00 6.974434e-01 1.357415e+00 1.832698e+00 2.431873e+00 3.139020e+00 4.371828e+00 4.033167e+00 3.646726e+00 3.572640e+00 3.807053e+00 3.369948e+00 2.775744e+00 6.944676e-02 1.018106e-01 2.168312e-01 3.309855e-01 4.375504e-01 7.147426e-01 8.060426e-01 7.932031e-01 7.452851e-01 7.980804e-01 7.613809e-01 7.028497e-01 6.024601e-01 1.149416e-02
<GCONST> 1.130110e+02
<STATE> 4
<MEAN> 39
 -3.165931e+00 -2.109987e-01 -1.155562e-01 3.589746e+00 1.336626e+00 4.083904e+00 -1.284346e+00 1.323354e+00 2.284595e+00 -4.479769e-01 1.264428e+00 2.975660e-01 1.847255e+01 1.640821e+00 1.247818e+00 2.236663e-01 -1.303029e-01 -1.097609e+00 -2.369856e-01 -1.106401e+00 -2.775976e-02 -7.037163e-01 -1.925884e-01 -1.591621e-01 -3.581704e-02 4.212163e-01 -7.311285e-02 -2.555435e-01 -3.298882e-01 -4.458024e-01 -2.373398e-01 -2.255035e-01 -1.377950e-01 3.162462e-02 1.173302e-01 2.212103e-01 2.172712e-01 2.620009e-01 -2.075416e-02
<VARIANCE> 39
 3.073436e+01 3.914931e+01 7.084270e+01 7.738477e+01 4.690799e+01 7.437169e+01 1.017889e+02 3.642870e+01 5.111207e+01 2.915626e+01 2.975398e+01 3.230314e+01 2.019598e+00 1.318566e+00 2.059805e+00 2.767011e+00 3.830150e+00 3.183132e+00 3.499955e+00 4.197293e+00 3.483722e+00 3.066491e+00 3.734026e+00 3.226547e+00 2.968889e+00 1.064931e-01 1.958062e-01 3.416458e-01 4.305857e-01 6.393067e-01 7.465631e-01 6.260526e-01 7.747681e-01 6.655930e-01 5.846670e-01 7.503616e-01 6.700075e-01 5.548972e-01 1.284293e-02
<GCONST> 1.179576e+02
<TRANSP> 5
 0.000000e+00 1.000000e+00 0.000000e+00 0.000000e+00 0.000000e+00
 0.000000e+00 8.573386e-01 1.426614e-01 0.000000e+00 0.000000e+00
 0.000000e+00 0.000000e+00 8.591826e-01 1.408174e-01 0.000000e+00
 0.000000e+00 0.000000e+00 0.000000e+00 7.802920e-01 2.197080e-01
 0.000000e+00 0.000000e+00 0.000000e+00 0.000000e+00 0.000000e+00
<ENDHMM>
~h "r"
<BEGINHMM>
<NUMSTATES> 5
<STATE> 2
<MEAN> 39
 6.586423e+00 -9.423875e-01 -6.683654e+00 3.684040e+00 -2.625936e+00 -1.979855e+00 -1.504267e+01 1.194862e+00 -2.272699e+00 1.729443e+00 6.125530e+00 3.605275e+00 1.968288e+01 2.065424e-01 -2.813128e-01 -1.481794e-01 9.612265e-02 -2.300656e-01 -2.469077e-01 -3.550462e-01 2.053220e-01 3.979499e-02 1.427842e-02 8.728582e-02 4.803339e-02 4.381113e-02 -8.470476e-02 -3.783866e-02 7.882279e-02 8.608049e-03 1.736687e-02 -1.057665e-02 7.656036e-02 -1.000006e-02 6.479628e-02 1.113739e-02 -1.696208e-02 -7.360476e-02 -1.397107e-02
<VARIANCE> 39
 1.146788e+01 2.508858e+01 4.916747e+01 3.134331e+01 3.002932e+01 3.590112e+01 6.018991e+01 4.182636e+01 6.089523e+01 3.750554e+01 5.955852e+01 3.809212e+01 6.257150e-01 5.798495e-01 1.191836e+00 1.469680e+00 1.932068e+00 1.627086e+00 2.431849e+00 3.766522e+00 2.452965e+00 2.531736e+00 2.552675e+00 3.510900e+00 2.225772e+00 1.251368e-02 1.044037e-01 1.997605e-01 2.782427e-01 3.846753e-01 3.055913e-01 4.920439e-01 7.019033e-01 4.754114e-01 4.862403e-01 5.019102e-01 6.482762e-01 4.105002e-01 1.197563e-03
<GCONST> 9.974060e+01
<STATE> 3
<MEAN> 39
 6.386699e+00 -6.654321e+00 -3.539210e+00 5.823395e+00 -7.293431e+00 -3.762502e+00 -1.748602e+01 6.410295e+00 9.194497e-01 1.442500e+00 4.773331e+00 4.353492e-01 2.052499e+01 -8.293778e-02 -2.270406e-02 2.238543e-01 -4.525713e-02 -3.119450e-02 -4.805912e-02 5.699745e-02 7.326267e-02 4.299227e-03 -3.339584e-03 -1.223718e-01 1.512021e-02 -5.814688e-03 -2.199010e-02 3.079801e-02 2.237256e-02 -2.085365e-02 2.757784e-02 2.289951e-02 4.985723e-02 -3.294984e-02 -6.224598e-03 -3.177068e-03 -1.305078e-02 4.839878e-04 -3.245474e-03
<VARIANCE> 39
 6.239971e+00 2.307828e+01 4.707219e+01 3.556242e+01 3.188022e+01 5.491896e+01 5.514217e+01 4.856799e+01 4.848024e+01 4.054772e+01 6.016360e+01 4.118869e+01 3.615625e-01 2.530486e-01 8.743231e-01 7.143998e-01 8.446090e-01 1.127295e+00 2.176407e+00 2.199068e+00 1.338254e+00 2.101761e+00 1.726367e+00 1.905157e+00 1.267340e+00 2.551964e-03 4.158035e-02 1.240749e-01 1.057740e-01 1.414764e-01 1.836494e-01 3.544352e-01 3.646343e-01 2.170797e-01 3.278598e-01 2.837983e-01 2.825017e-01 2.071076e-01 1.672247e-04
<GCONST> 8.132813e+01
<STATE> 4
<MEAN> 39
 2.733361e+00 -2.077334e+00 2.468514e-01 7.993554e+00 -1.829811e+00 -6.635696e+00 -1.144386e+01 7.005077e+00 2.065239e+00 -1.558866e+00 -3.733499e-01 3.034583e+00 1.872275e+01 -3.421325e-01 1.902985e-01 3.689080e-01 -1.101228e-01 2.336061e-01 1.610536e-01 5.107675e-01 -2.892887e-01 3.565398e-02 -7.707729e-02 -1.063347e-01 -7.781120e-02 -9.350699e-02 -3.384475e-02 1.432461e-02 -1.471971e-02 -2.435467e-02 -8.119626e-04 2.787055e-02 9.991489e-03 -3.734464e-02 6.149869e-03 7.784374e-03 3.015962e-02 -2.228915e-02 -7.318866e-03
<VARIANCE> 39
 1.361723e+01 2.948013e+01 5.591303e+01 5.029160e+01 6.625106e+01 5.616191e+01 7.693526e+01 4.710813e+01 4.511247e+01 4.895708e+01 4.580327e+01 3.759234e+01 1.949757e+00 6.282304e-01 1.095500e+00 1.345153e+00 2.207242e+00 2.515616e+00 3.772678e+00 4.007590e+00 2.445788e+00 3.166743e+00 2.950539e+00 2.531718e+00 2.250519e+00 1.254679e-02 1.101898e-01 2.019415e-01 2.547966e-01 4.633294e-01 5.404759e-01 8.368877e-01 8.557298e-01 5.107359e-01 6.741493e-01 6.368778e-01 5.380902e-01 4.717033e-01 1.114971e-03
<GCONST> 1.061153e+02
<TRANSP> 5
 0.000000e+00 1.000000e+00 0.000000e+00 0.000000e+00 0.000000e+00
 0.000000e+00 7.775294e-01 2.224706e-01 0.000000e+00 0.000000e+00
 0.000000e+00 0.000000e+00 9.160609e-01 8.393908e-02 0.000000e+00
 0.000000e+00 0.000000e+00 0.000000e+00 8.366424e-01 1.633576e-01
 0.000000e+00 0.000000e+00 0.000000e+00 0.000000e+00 0.000000e+00
<ENDHMM>
~h "s"
<BEGINHMM>
<NUMSTATES> 5
<STATE> 2
<MEAN> 39
 -2.149024e+01 6.160004e+00 2.569129e+00 -2.325617e+00 4.504381e+00 -7.089117e+00 -2.423646e+00 1.902162e+00 2.489525e+00 -1.902916e+00 -3.989290e-01 3.798602e+00 1.796748e+01 -1.121666e+00 5.036348e-02 -5.078951e-01 -3.850331e-01 1.776804e-01 -5.141327e-02 1.934166e-01 -3.775734e-02 -2.113256e-01 -1.757871e-01 1.711510e-01 2.538267e-02 -6.699510e-02 8.723660e-02 -4.456531e-02 -5.971224e-02 -1.940368e-02 -8.611933e-02 9.572509e-03 -7.076430e-02 -3.927488e-02 -1.003503e-02 7.476939e-02 2.010235e-03 -2.253863e-02 8.745924e-03
<VARIANCE> 39
 5.543437e+01 3.200587e+01 3.799695e+01 2.591428e+01 3.662039e+01 4.184842e+01 4.191510e+01 3.757843e+01 3.033749e+01 2.768794e+01 2.986460e+01 2.656481e+01 9.368289e-01 1.070573e+00 9.183770e-01 1.456761e+00 1.876726e+00 2.753451e+00 3.026380e+00 3.479818e+00 3.027828e+00 2.911470e+00 3.289289e+00 2.884064e+00 2.721392e+00 1.893092e-02 1.270937e-01 1.596514e-01 2.489258e-01 3.676729e-01 5.484109e-01 6.162369e-01 7.100685e-01 6.524811e-01 6.172754e-01 6.942578e-01 6.156961e-01 5.912669e-01 1.593667e-03
<GCONST> 1.034658e+02
<STATE> 3
<MEAN> 39
 -2.901690e+01 5.086000e+00 -5.670432e+00 -7.070118e+00 4.640312e+00 -6.801035e+00 -1.627842e+00 6.918240e-04 2.055810e+00 -4.949594e-02 1.477883e+00 3.181748e+00 1.694949e+01 2.056621e-03 -1.330635e-01 8.193856e-02 -7.016385e-02 -4.385403e-02 6.601428e-02 -1.291012e-02 2.262056e-02 1.057072e-01 9.072576e-02 2.439992e-02 -2.585253e-02 -3.367406e-02 5.345998e-02 -6.967695e-03 6.207386e-02 4.388034e-02 6.284514e-03 1.902619e-02 -6.675583e-03 9.987518e-03 1.421590e-02 -1.190001e-02 -2.542357e-02 -8.454222e-03 -6.424568e-03
<VARIANCE> 39
 8.201982e+00 1.604729e+01 2.584494e+01 2.251254e+01 2.751988e+01 3.453870e+01 3.240102e+01 2.812921e+01 2.707254e+01 2.638204e+01 2.394035e+01 2.233854e+01 1.923354e+00 4.341250e-01 7.713423e-01 1.208202e+00 1.661572e+00 2.188897e+00 2.932325e+00 2.947090e+00 2.938260e+00 2.833117e+00 2.942012e+00 2.884871e+00 2.497948e+00 1.604663e-02 7.927504e-02 1.411348e-01 2.306946e-01 3.592508e-01 4.661725e-01 6.193734e-01 6.373693e-01 6.458054e-01 6.175075e-01 6.416137e-01 6.302007e-01 5.439488e-01 1.443430e-03
<GCONST> 9.603596e+01
<STATE> 4
<MEAN> 39
 -1.849754e+01 2.738605e+00 1.654637e+00 -3.026944e+00 3.795606e+00 -4.681676e+00 -3.935188e+00 3.731906e-01 2.625798e+00 1.517701e+00 -2.506970e-01 2.075052e+00 1.517526e+01 1.283037e+00 1.822270e-01 2.595062e-01 4.080229e-01 -1.353965e-01 1.428850e-01 -2.275531e-01 -2.196921e-01 -1.393920e-01 1.057294e-01 -2.575601e-01 -1.851185e-01 3.594774e-02 2.731752e-02 -3.246978e-02 -1.212152e-01 -9.338381e-02 -9.116001e-02 -3.130679e-02 -3.156423e-02 -1.027969e-02 -1.874109e-02 4.125219e-02 4.037230e-02 2.555557e-02 3.529796e-02
<VARIANCE> 39
 5.245866e+01 4.049203e+01 3.830339e+01 3.829991e+01 4.632115e+01 5.603762e+01 5.116634e+01 4.092557e+01 3.558696e+01 3.807770e+01 3.336483e+01 2.949098e+01 5.478610e+00 2.334045e+00 2.312776e+00 2.603270e+00 3.066370e+00 3.432257e+00 3.751875e+00 3.897377e+00 3.597589e+00 3.419844e+00 3.800733e+00 3.332962e+00 2.894017e+00 1.912569e-01 2.733129e-01 4.364222e-01 4.592155e-01 6.003128e-01 6.793609e-01 7.392735e-01 7.689026e-01 7.593035e-01 7.209015e-01 8.060610e-01 7.090353e-01 6.156972e-01 1.745962e-02
<GCONST> 1.200171e+02
<TRANSP> 5
 0.000000e+00 1.000000e+00 0.000000e+00 0.000000e+00 0.000000e+00
 0.000000e+00 9.209210e-01 7.907896e-02 0.000000e+00 0.000000e+00
 0.000000e+00 0.000000e+00 9.617368e-01 3.826317e-02 0.000000e+00
 0.000000e+00 0.000000e+00 0.000000e+00 9.147389e-01 8.526105e-02
 0.000000e+00 0.000000e+00 0.000000e+00 0.000000e+00 0.000000e+00
<ENDHMM>
~h "t"
<BEGINHMM>
<NUMSTATES> 5
<STATE> 2
<MEAN> 39
 -1.749100e+01 -6.769786e+00 5.461460e-01 -2.661996e+00 -6.478541e+00 -8.823629e+00 -4.413080e+00 1.459689e+00 4.553857e+00 -3.640385e-01 1.579993e+00 3.746663e+00 1.591181e+01 3.831853e-01 -3.743229e-02 -7.550226e-02 3.884119e-01 1.434589e-01 1.181291e-01 1.031577e-02 1.353612e-01 1.773232e-01 7.044707e-02 -2.461683e-01 -1.530723e-01 -8.600212e-02 8.239104e-02 1.181969e-01 9.208015e-02 1.079312e-01 1.445741e-01 1.503725e-01 4.595650e-02 1.575754e-02 -3.399479e-02 -1.932445e-02 -4.696566e-02 -5.181535e-02 1.595179e-02
<VARIANCE> 39
 6.335178e+01 3.432772e+01 4.256973e+01 4.177862e+01 6.156449e+01 5.473747e+01 4.814053e+01 6.041577e+01 5.038023e+01 4.049718e+01 4.065905e+01 3.783337e+01 2.936854e+00 6.819925e-01 1.150572e+00 1.595354e+00 2.210634e+00 2.714493e+00 3.568425e+00 3.579232e+00 3.837305e+00 3.815040e+00 3.349061e+00 3.481957e+00 2.662128e+00 2.992453e-02 1.219996e-01 1.987313e-01 3.111992e-01 4.608653e-01 5.905714e-01 7.684779e-01 7.126068e-01 8.267755e-01 7.893122e-01 7.078719e-01 7.358026e-01 5.965627e-01 4.434370e-03
<GCONST> 1.123494e+02
<STATE> 3
<MEAN> 39
 -1.134386e+01 -3.185920e+00 1.387211e+00 -3.593929e-01 -3.967536e+00 -5.348559e+00 -3.950896e+00 4.692792e+00 5.544113e+00 7.836910e-01 -2.082502e+00 1.627697e+00 1.628431e+01 1.023463e+00 9.746065e-01 9.422302e-01 1.269775e+00 8.489867e-01 7.998018e-01 1.261265e-01 7.611658e-02 -2.296410e-01 -3.749607e-01 -5.005199e-01 -4.395944e-01 1.792499e-01 2.743649e-01 1.104694e-01 6.093573e-03 -8.092677e-02 -1.519641e-01 -2.561248e-02 -2.151108e-01 -2.186562e-01 -3.014621e-01 -4.185103e-02 8.747740e-02 -7.197720e-02 9.872781e-02
<VARIANCE> 39
 5.892633e+01 4.230026e+01 6.462659e+01 3.806043e+01 6.537933e+01 5.162571e+01 6.497993e+01 7.089811e+01 5.374105e+01 4.188992e+01 4.189574e+01 4.737109e+01 4.420388e+00 2.186181e+00 1.811416e+00 2.350317e+00 2.896492e+00 2.957443e+00 3.417860e+00 3.798931e+00 4.368135e+00 4.146190e+00 3.291079e+00 3.055488e+00 3.099882e+00 1.590910e-01 2.348496e-01 3.251099e-01 3.699690e-01 4.936892e-01 6.122772e-01 7.101368e-01 8.354157e-01 9.286247e-01 8.950093e-01 6.869459e-01 6.313714e-01 6.701796e-01 1.637784e-02
<GCONST> 1.212868e+02
<STATE> 4
<MEAN> 39
 -5.360690e+00 2.089959e+00 5.705293e+00 2.860339e+00 -1.473006e+00 -3.791649e+00 -6.365881e+00 1.375071e+00 1.843782e+00 -7.761969e-01 -2.154688e+00 9.448099e-01 1.818107e+01 1.642852e+00 1.801630e-01 -1.391647e-01 -1.945098e-01 -7.785254e-01 9.857339e-02 -1.117507e+00 -1.337373e-01 -3.843192e-01 4.131003e-01 2.789290e-01 -5.005992e-02 3.613099e-01 -2.971499e-01 -3.919323e-01 -3.215788e-01 -3.842692e-01 -2.383202e-01 -8.517061e-02 -6.107434e-02 9.513638e-02 1.555136e-01 1.931410e-01 2.020541e-01 2.013455e-01 -6.766380e-02
<VARIANCE> 39
 3.572842e+01 3.054331e+01 6.946864e+01 4.330758e+01 4.436556e+01 4.594019e+01 6.177276e+01 3.923440e+01 4.380215e+01 3.972960e+01 3.197341e+01 2.523436e+01 4.133819e+00 2.706560e+00 2.448676e+00 2.313582e+00 2.603757e+00 2.990992e+00 3.108418e+00 3.858432e+00 3.052807e+00 3.314863e+00 2.914548e+00 2.637934e+00 2.871198e+00 1.409456e-01 2.044601e-01 3.700039e-01 4.335897e-01 5.345425e-01 5.640738e-01 6.294696e-01 6.920215e-01 5.836909e-01 6.396558e-01 6.363149e-01 5.113199e-01 5.240226e-01 8.031873e-03
<GCONST> 1.153591e+02
<TRANSP> 5
 0.000000e+00 1.000000e+00 0.000000e+00 0.000000e+00 0.000000e+00
 0.000000e+00 8.143366e-01 1.856634e-01 0.000000e+00 0.000000e+00
 0.000000e+00 0.000000e+00 6.602130e-01 3.397870e-01 0.000000e+00
 0.000000e+00 0.000000e+00 0.000000e+00 6.466448e-01 3.533552e-01
 0.000000e+00 0.000000e+00 0.000000e+00 0.000000e+00 0.000000e+00
<ENDHMM>
~h "u"
<BEGINHMM>
<NUMSTATES> 5
<STATE> 2
<MEAN> 39
 4.851778e-01 -4.404549e+00 3.449368e+00 9.566262e-02 -4.983378e+00 1.889809e+00 -1.594455e+01 -3.511606e+00 4.983721e+00 5.937132e+00 2.819416e+00 -1.830707e+00 1.953421e+01 1.324855e-01 3.923403e-01 6.757123e-01 9.990368e-01 5.811916e-01 3.661724e-02 -1.237238e-02 1.335886e+00 -4.329471e-01 -1.513199e+00 -5.409456e-01 7.513162e-01 -6.304185e-02 8.145371e-02 3.005401e-01 -6.167802e-02 2.915077e-02 3.928403e-02 -8.227085e-02 -3.547689e-02 -1.238560e-01 4.417754e-02 -1.835379e-02 -1.097674e-01 6.639484e-02 1.474212e-02
<VARIANCE> 39
 5.269275e+01 1.242418e+01 3.253393e+01 3.139601e+01 1.654763e+01 1.855459e+01 1.049655e+02 5.721541e+01 2.993788e+01 7.718198e+01 5.119911e+01 3.612094e+01 4.474383e+00 8.209780e-01 9.135393e-01 1.252925e+00 2.486745e+00 2.198916e+00 3.186010e+00 4.171107e+00 3.177521e+00 3.394166e+00 3.603913e+00 2.133271e+00 1.993041e+00 8.538232e-02 7.925961e-02 1.793210e-01 3.317792e-01 3.258537e-01 2.612150e-01 2.633477e-01 7.499515e-01 5.136567e-01 4.707467e-01 4.588255e-01 2.660036e-01 5.145550e-01 1.509872e-02
<GCONST> 1.053313e+02
<STATE> 3
<MEAN> 39
 -3.479647e+00 -1.252483e+00 3.301475e+00 4.999106e+00 -4.688745e-01 1.377072e-01 -1.122374e+01 9.135210e-01 5.365057e+00 -6.237761e-01 1.305997e+00 3.232694e+00 1.794290e+01 1.378675e+00 1.912703e+00 2.872830e-01 8.527291e-01 4.096061e-01 -1.280950e-02 -5.638786e-01 -9.222494e-01 6.557301e-02 1.449347e-01 -3.293494e-01 -1.001997e-01 2.734458e-01 1.904898e-02 1.105634e-01 -1.853969e-01 -7.338916e-01 -4.378461e-01 -3.169967e-01 -8.912601e-03 -2.163579e-01 -3.169379e-02 5.935891e-01 1.653936e-01 -4.496955e-01 4.258527e-02
<VARIANCE> 39
 5.558103e+01 8.391061e+00 3.784095e+01 3.205544e+01 3.216730e+01 5.607455e+01 1.387227e+02 2.712985e+01 5.224805e+01 5.286958e+01 1.544226e+01 1.394720e+01 2.210646e+00 1.941013e+00 1.338232e+00 4.571425e+00 4.935590e+00 2.690376e+00 3.655301e+00 5.386107e+00 2.063409e+00 4.104882e+00 5.958297e+00 2.988705e+00 3.159173e+00 3.479869e-01 1.146455e-01 2.053680e-01 6.663478e-01 6.104615e-01 6.138774e-01 7.853674e-01 1.747898e+00 8.408022e-01 6.814458e-01 8.039738e-01 3.895988e-01 2.707020e-01 1.652170e-02
<GCONST> 1.159477e+02
<STATE> 4
<MEAN> 39
 -5.043086e-01 2.963558e+00 -1.072284e+00 -3.840127e-01 -1.456320e+00 9.532887e-01 -1.283750e+01 -2.162589e+00 3.575068e+00 6.364035e+00 3.335101e+00 -2.815016e-02 1.778528e+01 2.532049e-01 9.038926e-02 -2.865687e-02 -5.820924e-01 -2.027049e-01 -2.906735e-01 -1.482295e-01 3.584515e-01 -5.844665e-01 7.232666e-02 4.395119e-01 -1.472825e-02 1.147992e-01 -2.035309e-01 -4.489187e-01 -3.715474e-02 -8.690515e-02 5.414030e-02 -1.859076e-01 -3.359460e-02 2.113412e-01 3.111500e-02 -4.011995e-02 1.800757e-01 1.312729e-01 -2.358189e-02
<VARIANCE> 39
 1.390762e+01 2.303968e+01 3.613765e+01 8.008941e+01 2.512373e+01 5.612955e+01 5.077985e+01 2.076513e+01 4.833006e+01 7.443990e+01 2.598720e+01 3.126799e+01 2.065583e+00 2.222406e+00 2.955490e+00 1.642063e+00 4.935640e+00 1.610912e+00 5.881408e+00 5.211000e+00 3.082820e+00 3.783084e+00 4.731726e+00 4.486879e+00 2.988027e+00 1.497688e-01 1.832177e-01 6.394886e-01 2.556741e-01 1.162831e+00 3.532087e-01 9.753662e-01 7.689096e-01 6.693398e-01 1.024865e+00 1.317692e+00 1.081627e+00 7.195085e-01 9.749453e-03
<GCONST> 1.181572e+02
<TRANSP> 5
 0.000000e+00 1.000000e+00 0.000000e+00 0.000000e+00 0.000000e+00
 0.000000e+00 6.971096e-01 3.028904e-01 0.000000e+00 0.000000e+00
 0.000000e+00 0.000000e+00 5.390300e-01 4.609700e-01 0.000000e+00
 0.000000e+00 0.000000e+00 0.000000e+00 8.163436e-01 1.836564e-01
 0.000000e+00 0.000000e+00 0.000000e+00 0.000000e+00 0.000000e+00
<ENDHMM>
~h "v"
<BEGINHMM>
<NUMSTATES> 5
<STATE> 2
<MEAN> 39
 2.107657e-01 2.145732e+00 2.878407e+00 -9.986216e-01 6.986852e-01 3.064046e+00 -8.616164e+00 -4.750413e+00 1.468190e+00 2.072121e+00 6.205575e-01 -2.784253e-01 1.868908e+01 2.502682e-01 1.677951e-01 -1.687663e-01 -9.997804e-02 3.047920e-02 2.066226e-01 -7.653746e-02 -4.625111e-01 -1.052707e-01 -1.022804e-01 3.308641e-01 -8.975831e-02 -5.193258e-03 -8.167470e-02 -2.439238e-02 3.375125e-02 2.839633e-03 -7.671396e-02 -8.840730e-02 -1.135741e-01 2.397652e-02 -2.105673e-02 1.067314e-01 -3.342881e-02 2.152193e-02 -5.675147e-03
<VARIANCE> 39
 2.569480e+01 1.993421e+01 3.133405e+01 5.394403e+01 4.424059e+01 5.042943e+01 5.531521e+01 3.378508e+01 3.359735e+01 4.820234e+01 3.408609e+01 1.632769e+01 1.250629e+00 1.804108e+00 9.203722e-01 2.025136e+00 3.295935e+00 3.604076e+00 3.600142e+00 4.107979e+00 2.738388e+00 2.687363e+00 5.369311e+00 3.314084e+00 1.756052e+00 6.596644e-02 2.728927e-01 1.827283e-01 3.775074e-01 6.799316e-01 6.061998e-01 7.256146e-01 8.429831e-01 5.672956e-01 4.804746e-01 1.027787e+00 7.997426e-01 2.718169e-01 2.828687e-03
<GCONST> 1.096109e+02
<STATE> 3
<MEAN> 39
 3.516027e+00 -3.336957e-01 3.443929e-02 -4.042788e+00 -1.826639e+00 5.543402e+00 -1.081453e+01 -8.358712e+00 4.801818e-01 5.760192e+00 3.037451e+00 1.313441e-01 1.959017e+01 -3.179503e-01 2.105706e-01 1.292648e-01 2.490670e-01 2.818224e-01 -1.760345e-01 2.560869e-01 -6.719108e-02 -9.694437e-02 -9.466084e-02 -1.549524e-01 3.309282e-02 -6.921842e-02 -9.277598e-02 1.976057e-02 5.115359e-02 4.876604e-02 3.580299e-02 -1.094194e-01 6.545815e-02 1.249764e-01 2.651840e-02 -3.084493e-02 -3.713031e-02 -1.755300e-02 -2.231191e-04
<VARIANCE> 39
 1.158586e+01 2.620174e+01 2.221268e+01 5.292721e+01 3.966953e+01 4.636320e+01 5.370119e+01 4.708349e+01 4.628119e+01 5.391687e+01 3.866739e+01 2.173430e+01 1.061322e+00 5.649256e-01 1.421249e+00 8.615605e-01 1.731395e+00 1.841349e+00 1.886635e+00 3.113372e+00 2.593296e+00 2.144581e+00 3.370271e+00 2.352396e+00 1.618765e+00 1.282365e-02 7.623234e-02 2.183623e-01 1.579396e-01 2.980134e-01 3.557084e-01 3.521104e-01 5.285189e-01 4.923093e-01 4.047133e-01 6.367466e-01 4.417588e-01 3.401740e-01 5.990663e-04
<GCONST> 9.565643e+01
<STATE> 4
<MEAN> 39
 -4.036457e+00 4.051200e+00 5.101079e+00 4.996385e+00 2.104309e+00 2.383842e-02 -6.231513e+00 -5.178981e+00 2.015074e-01 -2.674813e-01 3.026578e-01 -1.069499e+00 1.788864e+01 -3.489535e-01 6.246962e-02 2.632608e-02 2.259132e-01 -5.009727e-03 -2.906517e-01 2.213189e-01 2.429859e-01 3.067918e-02 -1.290919e-01 -2.728094e-02 -1.300822e-02 -5.314178e-02 5.753871e-02 -4.896064e-02 -3.962269e-02 -6.956322e-02 -9.404996e-02 9.897216e-03 -7.317562e-02 1.476424e-02 1.650284e-02 4.467530e-02 2.455507e-02 2.208671e-02 8.631515e-03
<VARIANCE> 39
 2.170374e+01 1.982071e+01 2.172173e+01 2.551469e+01 2.362533e+01 3.294931e+01 2.986393e+01 2.341929e+01 3.073047e+01 2.874654e+01 2.843982e+01 2.054024e+01 1.103565e+00 1.447005e+00 1.088771e+00 1.369642e+00 2.028931e+00 2.246385e+00 2.479843e+00 3.393657e+00 2.508484e+00 2.806737e+00 2.944100e+00 2.464093e+00 2.529629e+00 2.231183e-02 1.763213e-01 1.955958e-01 2.515035e-01 4.016329e-01 4.092856e-01 5.024264e-01 6.837516e-01 5.047781e-01 5.875727e-01 6.015430e-01 4.869640e-01 5.682245e-01 8.358015e-04
<GCONST> 9.827675e+01
<TRANSP> 5
 0.000000e+00 1.000000e+00 0.000000e+00 0.000000e+00 0.000000e+00
 0.000000e+00 6.403553e-01 3.596446e-01 0.000000e+00 0.000000e+00
 0.000000e+00 0.000000e+00 7.413254e-01 2.586746e-01 0.000000e+00
 0.000000e+00 0.000000e+00 0.000000e+00 8.706251e-01 1.293749e-01
 0.000000e+00 0.000000e+00 0.000000e+00 0.000000e+00 0.000000e+00
<ENDHMM>
~h "w"
<BEGINHMM>
<NUMSTATES> 5
<STATE> 2
<MEAN> 39
 4.431034e+00 8.088153e+00 1.180218e+00 -8.463022e+00 -3.853198e+00 6.069111e+00 -6.271095e+00 -4.287721e+00 -3.768129e+00 1.387159e+00 -6.141443e-01 2.658489e+00 1.848364e+01 4.401192e-01 1.457069e-01 -1.122401e-01 -4.880365e-01 -4.706396e-01 2.231634e-01 2.342919e-02 -1.086923e-01 -8.306523e-02 -1.751148e-01 -3.763678e-02 1.516666e-01 8.913200e-02 -5.683346e-02 -4.837221e-02 -7.104147e-03 2.000094e-02 2.210172e-04 -3.882230e-03 8.118232e-03 -1.898781e-02 3.153458e-02 -5.486410e-03 9.572685e-03 -7.135386e-03 -1.078762e-02
<VARIANCE> 39
 1.544935e+01 4.015482e+01 2.718900e+01 6.415236e+01 5.432127e+01 4.309626e+01 6.576686e+01 4.036825e+01 4.789984e+01 4.393181e+01 3.454515e+01 2.942084e+01 1.538004e+00 7.773897e-01 1.572173e+00 1.639295e+00 3.367612e+00 2.885408e+00 3.170219e+00 3.479781e+00 3.000489e+00 2.980501e+00 2.818850e+00 2.630832e+00 2.535242e+00 4.242191e-02 1.240461e-01 2.829014e-01 3.278855e-01 6.575698e-01 5.704870e-01 6.247799e-01 6.384785e-01 6.230891e-01 5.709585e-01 5.473184e-01 5.284951e-01 4.815840e-01 2.781959e-03
<GCONST> 1.083010e+02
<STATE> 3
<MEAN> 39
 7.726991e+00 7.642402e+00 -1.150594e+00 -1.538470e+01 -9.639552e+00 1.089218e+01 -7.118133e+00 -4.772040e+00 -2.840931e+00 -5.580167e-01 4.240545e-01 4.701109e+00 2.003865e+01 -1.515877e-03 -2.116643e-01 -1.201916e-01 -8.370534e-02 1.461810e-02 2.440812e-01 -5.155482e-02 -1.922511e-01 -9.603649e-02 9.491141e-02 2.288718e-01 1.427967e-01 2.892298e-02 -2.438487e-02 -3.544983e-02 1.214205e-02 5.418374e-02 5.287282e-02 -4.245517e-02 -4.601594e-02 1.523538e-02 3.633776e-02 6.078143e-02 -1.758173e-03 -4.530180e-02 -1.315525e-03
<VARIANCE> 39
 5.983927e+00 3.271988e+01 3.334555e+01 7.015562e+01 3.939055e+01 4.916456e+01 5.233810e+01 4.185877e+01 4.650389e+01 3.529991e+01 4.315462e+01 4.112433e+01 4.134485e-01 2.892237e-01 9.892646e-01 9.870378e-01 2.740124e+00 2.238503e+00 1.975601e+00 2.301780e+00 1.970882e+00 1.909182e+00 1.852070e+00 1.965482e+00 2.449207e+00 3.982609e-03 5.238231e-02 1.429630e-01 1.697312e-01 4.778725e-01 3.937021e-01 3.553946e-01 3.690577e-01 3.796744e-01 3.495260e-01 3.050000e-01 3.340903e-01 4.252512e-01 2.207162e-04
<GCONST> 9.007841e+01
<STATE> 4
<MEAN> 39
 5.332670e+00 -1.816169e+00 -1.531892e-01 -7.856044e+00 -5.185754e+00 9.662434e+00 -1.659361e+01 -7.020946e+00 -7.593102e-01 7.901751e+00 3.189461e+00 3.213740e-01 2.065667e+01 -1.467255e-01 -1.467084e-01 1.472378e-01 2.328557e-01 1.972820e-01 -3.726157e-01 -3.505078e-01 2.468098e-01 3.429405e-01 1.580404e-01 -1.679909e-01 -2.871421e-01 6.147943e-03 -7.062110e-03 2.785935e-02 1.982056e-02 -2.683532e-03 -2.762100e-03 -3.638183e-02 4.869009e-02 5.306960e-02 -1.686789e-02 -7.387349e-02 -4.209208e-02 2.533549e-02 -2.600556e-03
<VARIANCE> 39
 7.215215e+00 2.527819e+01 3.376810e+01 8.658504e+01 3.033783e+01 7.716621e+01 8.274025e+01 5.580536e+01 5.755652e+01 5.919631e+01 5.138316e+01 4.408707e+01 2.452101e-01 2.596415e-01 8.867719e-01 6.901761e-01 1.610713e+00 1.292785e+00 1.610964e+00 2.101870e+00 2.428747e+00 2.117756e+00 2.895010e+00 1.995390e+00 1.635361e+00 1.792276e-03 4.292077e-02 1.191531e-01 1.115229e-01 2.189254e-01 2.054101e-01 2.300026e-01 3.012594e-01 3.503194e-01 3.300610e-01 4.009702e-01 3.074054e-01 2.279989e-01 1.178601e-04
<GCONST> 8.517046e+01
<TRANSP> 5
 0.000000e+00 1.000000e+00 0.000000e+00 0.000000e+00 0.000000e+00
 0.000000e+00 9.071631e-01 9.283682e-02 0.000000e+00 0.000000e+00
 0.000000e+00 0.000000e+00 9.406444e-01 5.935561e-02 0.000000e+00
 0.000000e+00 0.000000e+00 0.000000e+00 9.463152e-01 5.368483e-02
 0.000000e+00 0.000000e+00 0.000000e+00 0.000000e+00 0.000000e+00
<ENDHMM>
~h "y"
<BEGINHMM>
<NUMSTATES> 5
<STATE> 2
<MEAN> 39
 -9.968446e+00 5.356289e+00 1.604196e+01 3.674530e+00 -3.172234e+00 2.403474e-01 -6.568399e+00 3.290920e-02 -2.299927e+00 -1.371880e+00 1.653409e+00 1.090178e+00 1.720723e+01 8.146380e-01 1.900676e-01 7.538568e-01 -7.563097e-02 -8.413775e-01 -3.180202e-01 -7.502550e-01 2.043163e-01 -4.709170e-01 -2.394785e-02 3.539677e-01 2.991814e-01 3.283861e-01 4.245996e-03 -1.248917e-01 -1.121062e-01 -1.713966e-02 -1.652912e-01 -5.505964e-03 -1.549364e-02 2.618390e-02 -3.117858e-02 1.966914e-02 5.309474e-02 3.033081e-02 -1.847454e-02
<VARIANCE> 39
 5.701824e+01 4.450630e+01 3.025379e+01 3.832545e+01 4.013649e+01 7.389863e+01 3.998006e+01 2.736882e+01 2.664516e+01 2.838222e+01 3.084487e+01 1.950294e+01 5.891506e+00 1.858066e+00 2.359760e+00 1.439683e+00 2.731745e+00 3.266514e+00 4.670940e+00 2.914116e+00 2.164751e+00 3.040837e+00 2.706819e+00 3.402706e+00 2.327482e+00 1.124955e-01 2.663673e-01 4.417745e-01 2.106016e-01 4.911147e-01 6.084356e-01 8.447597e-01 5.462001e-01 4.010365e-01 5.855734e-01 5.690548e-01 7.106035e-01 4.308292e-01 8.031725e-03
<GCONST> 1.120732e+02
<STATE> 3
<MEAN> 39
 -3.893174e+00 5.869957e+00 2.076648e+01 1.538542e+00 -1.051461e+01 -5.029369e+00 -9.699117e+00 3.965736e-01 -4.513924e+00 -4.547736e+00 4.553689e+00 4.839664e+00 1.932186e+01 1.707588e-01 -1.913607e-01 4.926400e-03 1.706021e-02 -2.707905e-01 -3.859289e-02 -8.118954e-02 1.058529e-01 -2.217423e-01 -5.097974e-02 3.902179e-02 6.773670e-03 3.850563e-02 3.679953e-03 -3.951914e-03 -5.128621e-02 3.485717e-02 4.952052e-02 1.531547e-03 6.052474e-03 9.513523e-03 3.644199e-02 2.258931e-02 -3.161955e-02 -3.853267e-02 -3.661885e-03
<VARIANCE> 39
 1.343791e+01 2.479123e+01 1.491894e+01 2.308394e+01 3.348457e+01 3.454116e+01 3.929559e+01 2.719182e+01 2.376620e+01 2.212571e+01 2.050580e+01 1.755135e+01 4.385610e-01 5.716059e-01 1.040364e+00 1.056933e+00 1.297323e+00 2.114741e+00 2.607065e+00 3.215953e+00 1.984293e+00 2.262292e+00 1.870815e+00 1.449847e+00 1.317361e+00 5.425970e-03 1.042500e-01 1.917017e-01 2.110987e-01 2.704135e-01 4.042853e-01 5.203743e-01 6.415639e-01 3.981189e-01 4.566262e-01 3.685389e-01 2.948477e-01 2.735065e-01 4.728138e-04
<GCONST> 8.725482e+01
<STATE> 4
<MEAN> 39
 1.002263e+00 -4.983805e-01 1.695725e+01 2.617915e+00 -1.374214e+01 1.098922e+00 -1.547891e+01 4.318624e+00 -7.939625e+00 5.119228e-01 5.985459e+00 -1.752509e+00 2.066444e+01 6.208442e-02 -9.850872e-02 -1.265519e-01 7.418557e-02 -3.334091e-02 -5.002392e-02 -5.797951e-02 7.221950e-02 1.206844e-01 -1.883820e-02 1.744262e-02 -6.953990e-02 8.022570e-03 -7.840439e-03 1.178321e-02 -1.925744e-02 -6.638452e-03 4.540642e-02 -1.473288e-02 2.383922e-02 -2.956195e-02 3.554115e-02 -3.392271e-04 -1.973603e-02 5.292592e-03 -1.596521e-03
<VARIANCE> 39
 9.501849e+00 1.936994e+01 3.348166e+01 5.171595e+01 3.829613e+01 5.634907e+01 4.966795e+01 3.247084e+01 3.882347e+01 4.046476e+01 3.618378e+01 4.976859e+01 2.268905e-01 1.954220e-01 4.888903e-01 7.780473e-01 8.273767e-01 1.476302e+00 1.719046e+00 1.866841e+00 1.292545e+00 1.473186e+00 1.321404e+00 1.240299e+00 1.075168e+00 1.377416e-03 3.021037e-02 6.860361e-02 9.546199e-02 1.249049e-01 2.141712e-01 2.598303e-01 2.907922e-01 2.267387e-01 2.393319e-01 2.144867e-01 1.890817e-01 1.789850e-01 1.010234e-04
<GCONST> 7.440225e+01
<TRANSP> 5
 0.000000e+00 1.000000e+00 0.000000e+00 0.000000e+00 0.000000e+00
 0.000000e+00 8.256137e-01 1.743863e-01 0.000000e+00 0.000000e+00
 0.000000e+00 0.000000e+00 9.279860e-01 7.201400e-02 0.000000e+00
 0.000000e+00 0.000000e+00 0.000000e+00 9.663136e-01 3.368641e-02
 0.000000e+00 0.000000e+00 0.000000e+00 0.000000e+00 0.000000e+00
<ENDHMM>
~h "z"
<BEGINHMM>
<NUMSTATES> 5
<STATE> 2
<MEAN> 39
 -7.353390e+00 9.018688e+00 6.547313e+00 -9.454648e-01 4.209490e+00 -1.005900e+01 -1.183098e+01 -1.825189e+00 4.547798e+00 1.052196e+00 -3.269047e+00 2.410321e+00 1.944977e+01 -9.594720e-01 7.754744e-01 -6.192032e-02 -7.041427e-02 6.661493e-01 -2.231303e-01 5.996187e-01 1.477706e-02 1.760502e-01 -1.871252e-01 -2.696974e-03 2.838993e-02 -1.095888e-01 -3.237801e-02 -5.201942e-02 3.441107e-02 5.150447e-02 -3.511094e-02 1.570512e-01 -1.990017e-02 8.002089e-02 -8.933147e-02 1.227173e-02 3.963385e-02 -5.762973e-02 -5.878262e-03
<VARIANCE> 39
 2.011484e+01 2.281474e+01 1.990040e+01 2.652973e+01 4.210262e+01 3.645797e+01 5.579899e+01 3.371655e+01 3.247216e+01 2.860183e+01 2.758129e+01 2.266654e+01 4.270747e-01 1.295688e+00 1.286151e+00 1.031899e+00 1.459365e+00 2.532147e+00 2.403351e+00 4.599961e+00 2.921423e+00 2.825150e+00 2.180658e+00 2.187939e+00 1.744951e+00 6.027133e-03 1.629573e-01 1.857653e-01 1.905636e-01 2.620579e-01 4.602166e-01 4.286867e-01 8.195794e-01 5.520235e-01 5.292993e-01 4.380722e-01 4.461567e-01 3.486996e-01 3.001295e-04
<GCONST> 9.439851e+01
<STATE> 3
<MEAN> 39
 -1.707656e+01 1.312277e+01 5.975734e+00 -3.784091e-01 8.714873e+00 -7.180315e+00 -5.721959e+00 -1.036031e+00 1.756187e+00 -5.285678e-01 -1.809823e+00 1.999472e+00 1.804002e+01 -4.399631e-01 -1.302033e-01 -9.089722e-02 -1.794780e-02 5.678878e-02 2.944523e-01 1.619799e-01 -6.106545e-03 -1.395411e-01 -3.972819e-02 7.891233e-02 -8.641984e-03 -6.870782e-02 1.013802e-01 -9.521259e-02 -4.844155e-02 -3.800274e-02 -9.606416e-02 -1.396733e-02 -5.795193e-02 -5.007897e-02 1.609525e-02 2.368564e-02 -2.350305e-03 1.544240e-02 7.410808e-03
<VARIANCE> 39
 4.743249e+01 2.194172e+01 2.888428e+01 2.820726e+01 2.809762e+01 3.515524e+01 3.967252e+01 3.264481e+01 2.715864e+01 3.199863e+01 2.873736e+01 2.299348e+01 6.019956e-01 1.248836e+00 8.195993e-01 1.106860e+00 1.576976e+00 2.343750e+00 2.947706e+00 3.276729e+00 2.887290e+00 2.459200e+00 2.833038e+00 2.974325e+00 2.140662e+00 1.278865e-02 1.501672e-01 1.484978e-01 2.232983e-01 3.176342e-01 4.895309e-01 5.997671e-01 6.949466e-01 5.917336e-01 5.060845e-01 6.030239e-01 6.314476e-01 4.493333e-01 7.839552e-04
<GCONST> 9.817506e+01
<STATE> 4
<MEAN> 39
 -2.052359e+01 5.719494e+00 1.498791e+00 -3.857664e+00 5.561536e+00 -5.366148e+00 -4.820120e+00 -1.539767e+00 2.203756e+00 3.713987e-01 -9.418530e-01 1.784584e+00 1.618701e+01 3.744537e-01 -2.748960e-01 -1.158833e-01 -8.940735e-02 -2.354687e-01 -8.785369e-02 -4.425793e-02 -4.902689e-02 -4.268761e-02 1.456154e-01 -4.905958e-02 -5.958017e-03 -6.883878e-02 4.210651e-02 8.412747e-03 9.710590e-03 1.467530e-02 -4.738078e-03 -1.708625e-02 2.011959e-03 2.306807e-02 -1.776321e-02 1.468887e-02 -9.125510e-03 -1.121206e-02 6.318759e-05
<VARIANCE> 39
 7.026739e+01 3.284676e+01 4.763633e+01 4.869426e+01 4.229652e+01 4.921493e+01 5.838309e+01 3.493219e+01 3.502958e+01 3.441572e+01 3.124738e+01 2.431418e+01 3.026710e+00 1.308721e+00 1.646396e+00 1.795634e+00 2.190598e+00 2.824543e+00 3.443551e+00 3.606696e+00 3.180706e+00 3.447835e+00 3.479313e+00 3.261661e+00 2.639643e+00 5.235873e-02 1.422711e-01 3.082690e-01 3.215909e-01 4.324950e-01 5.909889e-01 7.330741e-01 7.459701e-01 6.713120e-01 7.352054e-01 7.391660e-01 7.277152e-01 5.814269e-01 3.542170e-03
<GCONST> 1.120663e+02
<TRANSP> 5
 0.000000e+00 1.000000e+00 0.000000e+00 0.000000e+00 0.000000e+00
 0.000000e+00 8.914475e-01 1.085525e-01 0.000000e+00 0.000000e+00
 0.000000e+00 0.000000e+00 9.251890e-01 7.481100e-02 0.000000e+00
 0.000000e+00 0.000000e+00 0.000000e+00 9.392244e-01 6.077557e-02
 0.000000e+00 0.000000e+00 0.000000e+00 0.000000e+00 0.000000e+00
<ENDHMM>
~h "@r"
<BEGINHMM>
<NUMSTATES> 5
<STATE> 2
<MEAN> 39
 3.655233e+00 -7.711037e-01 -4.977757e+00 2.783607e+00 -4.318961e-01 -4.864417e+00 -1.314657e+01 1.704908e+00 1.082855e+00 9.736136e-01 3.494493e+00 2.989234e+00 1.960674e+01 5.578133e-01 -6.448119e-02 -5.466183e-01 4.012590e-02 -2.825553e-01 -3.060334e-01 -8.792743e-01 4.405314e-01 -9.464978e-02 2.308479e-02 5.254827e-01 1.810435e-01 8.990191e-02 -1.456666e-01 -7.021204e-03 1.088496e-01 4.723633e-02 2.814238e-02 6.863411e-02 4.506063e-02 -2.143107e-02 3.869672e-02 2.277354e-02 -4.924614e-02 -1.697972e-01 -2.257025e-02
<VARIANCE> 39
 3.251151e+01 2.359589e+01 6.421519e+01 5.550999e+01 4.078915e+01 3.284239e+01 5.584697e+01 4.308501e+01 4.932343e+01 4.055982e+01 4.741345e+01 4.194501e+01 7.964216e-01 8.160159e-01 9.388603e-01 1.462379e+00 1.791753e+00 2.122964e+00 2.252302e+00 3.705137e+00 1.854707e+00 2.453829e+00 2.592637e+00 2.690827e+00 2.160839e+00 1.584617e-02 1.537493e-01 1.751771e-01 2.770142e-01 3.881754e-01 4.090865e-01 4.618286e-01 6.638710e-01 3.427494e-01 4.833032e-01 4.886990e-01 5.220734e-01 4.416457e-01 2.468252e-03
<GCONST> 1.022026e+02
<STATE> 3
<MEAN> 39
 7.410260e+00 -3.268851e+00 -6.354487e+00 3.990638e+00 -3.779300e+00 -3.740301e+00 -1.961541e+01 6.382018e+00 -1.272986e+00 5.633931e-01 8.140279e+00 9.908391e-01 2.067235e+01 2.443794e-02 -4.729154e-02 -4.689679e-03 1.225460e-02 -6.463557e-02 -1.428552e-02 -6.536170e-02 7.544354e-02 4.051486e-02 -1.022186e-02 1.529967e-02 -5.418631e-02 5.597857e-03 -1.355812e-02 2.329531e-03 2.356885e-02 -3.547349e-03 6.799323e-03 8.685824e-03 4.306997e-02 -2.777680e-02 1.456150e-02 -8.713178e-03 -1.734378e-02 7.641253e-03 -2.264586e-03
<VARIANCE> 39
 6.396604e+00 1.540738e+01 4.317509e+01 2.994263e+01 2.693960e+01 3.238681e+01 5.439505e+01 3.206332e+01 6.088671e+01 3.361458e+01 4.604757e+01 4.137330e+01 3.022627e-01 1.501764e-01 4.882548e-01 5.738775e-01 6.054299e-01 6.679524e-01 1.154981e+00 1.471862e+00 1.066557e+00 1.392330e+00 1.322993e+00 1.769328e+00 1.160779e+00 1.601278e-03 2.420528e-02 6.355168e-02 8.303485e-02 1.038615e-01 1.161544e-01 1.848712e-01 2.270838e-01 1.926310e-01 2.092627e-01 2.133837e-01 2.611758e-01 1.740837e-01 1.172852e-04
<GCONST> 6.961152e+01
<STATE> 4
<MEAN> 39
 6.282143e+00 -1.956533e+00 -5.110941e+00 5.220317e+00 -3.562910e+00 -5.487202e+00 -1.846037e+01 5.659948e+00 1.318505e+00 3.478577e-01 6.681316e+00 4.859121e-02 1.991450e+01 -1.114877e-01 6.682535e-02 4.330982e-01 3.481049e-02 9.004206e-02 4.906552e-01 5.507761e-01 -2.899818e-01 -5.211531e-02 -2.150068e-01 -3.071592e-01 4.506785e-02 -5.966877e-02 -2.271201e-02 -2.542469e-02 3.881494e-02 -5.725218e-03 2.995904e-02 7.202574e-02 6.396182e-02 2.298316e-02 -7.216436e-02 -5.846046e-02 -7.898841e-02 -1.481370e-02 -2.644497e-03
<VARIANCE> 39
 8.506460e+00 2.010514e+01 7.577273e+01 3.032137e+01 2.790472e+01 4.250675e+01 7.544550e+01 3.394769e+01 5.818096e+01 3.717677e+01 4.560736e+01 3.931248e+01 8.322025e-01 3.015631e-01 8.768020e-01 1.417740e+00 1.185771e+00 1.563750e+00 3.596440e+00 3.380574e+00 1.702038e+00 2.789223e+00 2.289824e+00 2.432359e+00 1.732190e+00 8.233665e-03 4.436840e-02 1.540184e-01 2.455565e-01 2.066181e-01 2.623452e-01 7.000926e-01 6.832842e-01 2.984540e-01 4.435101e-01 4.275858e-01 4.332996e-01 2.743681e-01 5.604031e-04
<GCONST> 9.310081e+01
<TRANSP> 5
 0.000000e+00 1.000000e+00 0.000000e+00 0.000000e+00 0.000000e+00
 0.000000e+00 7.829946e-01 2.170055e-01 0.000000e+00 0.000000e+00
 0.000000e+00 0.000000e+00 9.510064e-01 4.899357e-02 0.000000e+00
 0.000000e+00 0.000000e+00 0.000000e+00 5.799263e-01 4.200738e-01
 0.000000e+00 0.000000e+00 0.000000e+00 0.000000e+00 0.000000e+00
<ENDHMM>
~h "aa"
<BEGINHMM>
<NUMSTATES> 5
<STATE> 2
<MEAN> 39
 -2.853131e+00 -3.865779e+00 -8.501196e+00 -9.821044e+00 3.401885e+00 1.037527e+01 -5.881219e+00 -3.595311e+00 5.116954e+00 6.202811e+00 1.274590e-01 -5.776746e+00 1.827169e+01 1.957844e-01 -5.563705e-02 -1.830439e-01 -2.008192e-01 -6.398410e-02 3.051461e-01 -1.077223e-02 1.770030e-02 4.883938e-02 5.305546e-02 6.296503e-02 -2.093086e-01 7.938431e-02 -2.640707e-02 1.869078e-03 2.765906e-02 4.615378e-02 1.333548e-02 -1.112528e-02 2.526649e-02 1.472882e-02 -4.675718e-02 -6.043673e-02 2.611745e-02 -7.673437e-03 -7.524330e-03
<VARIANCE> 39
 3.285533e+01 3.023342e+01 3.043151e+01 5.756250e+01 4.156285e+01 7.157383e+01 7.793241e+01 3.467464e+01 3.824599e+01 6.205370e+01 5.103757e+01 4.539298e+01 3.939133e+00 1.059409e+00 2.254361e+00 1.933347e+00 3.665768e+00 2.409897e+00 3.030293e+00 3.136149e+00 2.252492e+00 3.175594e+00 3.624421e+00 2.847638e+00 2.925859e+00 7.247362e-02 1.911435e-01 4.414490e-01 3.887534e-01 7.182149e-01 5.055550e-01 6.260628e-01 6.391944e-01 4.463798e-01 6.035423e-01 7.159693e-01 6.172593e-01 6.372649e-01 8.138916e-03
<GCONST> 1.148123e+02
<STATE> 3
<MEAN> 39
 2.826375e+00 -7.102469e+00 -1.004893e+01 -1.112955e+01 6.248707e-01 1.520321e+01 -8.216624e+00 -1.454612e+00 5.146865e+00 3.344662e+00 7.858837e-02 -1.105994e+01 2.084448e+01 3.217779e-02 -8.902873e-02 -2.904328e-02 4.996053e-02 -5.707811e-02 4.135137e-02 2.315617e-02 -3.652497e-03 6.234797e-02 -1.449277e-02 -2.568200e-02 -1.231554e-01 6.515258e-03 -3.180587e-03 1.539101e-02 1.476780e-02 1.577269e-02 9.146349e-04 -3.306948e-02 -6.224965e-03 8.946386e-03 -2.166793e-03 1.901203e-02 -1.040814e-02 1.945611e-02 -2.351971e-03
<VARIANCE> 39
 5.063852e+00 2.432681e+01 1.851275e+01 4.218400e+01 2.439300e+01 4.175959e+01 3.223523e+01 2.993541e+01 2.649425e+01 3.566190e+01 3.488201e+01 3.798923e+01 2.922599e-01 2.769442e-01 8.955831e-01 7.988156e-01 1.502002e+00 1.165759e+00 1.558519e+00 1.209642e+00 1.185148e+00 1.541483e+00 1.819930e+00 1.150164e+00 1.231871e+00 1.902827e-03 5.088680e-02 1.365106e-01 1.320411e-01 2.384938e-01 2.024610e-01 2.335153e-01 2.124337e-01 2.137386e-01 2.566679e-01 2.757933e-01 1.948027e-01 1.987067e-01 1.641527e-04
<GCONST> 7.543487e+01
<STATE> 4
<MEAN> 39
 1.508427e+00 -5.029594e+00 -7.693791e+00 -5.264972e+00 8.799289e-01 6.667017e+00 -6.706363e+00 1.430483e+00 6.259172e+00 5.134741e+00 -5.884368e+00 -8.462505e+00 1.922041e+01 -1.221325e-01 2.325065e-01 2.050062e-01 2.017975e-01 4.720313e-02 -4.826832e-01 4.182599e-02 2.262918e-01 -1.901867e-01 5.422334e-02 -1.893929e-01 2.726251e-01 -9.431270e-02 -2.394966e-02 -4.655332e-04 4.103513e-02 7.639729e-03 1.937049e-02 -5.059430e-03 1.221624e-02 -9.877327e-03 -4.802012e-02 -2.645928e-02 1.075256e-02 4.485359e-02 -4.684615e-03
<VARIANCE> 39
 1.307864e+01 2.401963e+01 1.936694e+01 2.867213e+01 2.840673e+01 3.743919e+01 4.185415e+01 4.483448e+01 3.590263e+01 4.323041e+01 3.894057e+01 3.697091e+01 4.601455e+00 4.255582e-01 8.684732e-01 1.086258e+00 1.648111e+00 1.279811e+00 1.867646e+00 2.267193e+00 2.309501e+00 2.705630e+00 2.865489e+00 2.541423e+00 2.540741e+00 1.740781e-02 8.130414e-02 1.586626e-01 2.010396e-01 3.120921e-01 2.639172e-01 3.344298e-01 4.423200e-01 4.422522e-01 5.377029e-01 5.488791e-01 4.855228e-01 5.032248e-01 1.236676e-03
<GCONST> 9.587215e+01
<TRANSP> 5
 0.000000e+00 1.000000e+00 0.000000e+00 0.000000e+00 0.000000e+00
 0.000000e+00 9.182401e-01 8.175991e-02 0.000000e+00 0.000000e+00
 0.000000e+00 0.000000e+00 9.728995e-01 2.710053e-02 0.000000e+00
 0.000000e+00 0.000000e+00 0.000000e+00 9.191519e-01 8.084809e-02
 0.000000e+00 0.000000e+00 0.000000e+00 0.000000e+00 0.000000e+00
<ENDHMM>
~h "ae"
<BEGINHMM>
<NUMSTATES> 5
<STATE> 2
<MEAN> 39
 -8.968819e+00 1.227167e+00 1.709896e+00 5.255102e-01 -1.376319e+00 -3.581203e-01 -4.450421e+00 2.224232e-01 1.032390e+00 1.922153e+00 9.369482e-01 -5.463367e-02 1.433043e+01 6.601643e-05 -6.414447e-06 -4.348861e-05 2.207338e-05 -6.183252e-05 3.505594e-04 -2.845397e-05 -1.057293e-04 -3.217392e-04 -2.094190e-04 -1.093453e-04 6.646793e-05 -4.646834e-05 -3.052270e-05 -5.577785e-06 5.118113e-05 5.903988e-05 8.738427e-05 1.239256e-04 1.462678e-04 5.784345e-07 -6.680420e-05 8.540968e-05 -3.584341e-06 -9.608337e-06 3.280207e-06
<VARIANCE> 39
 9.132833e+01 3.750473e+01 5.184167e+01 5.299957e+01 4.542144e+01 5.171822e+01 6.411460e+01 4.173472e+01 3.924054e+01 3.472301e+01 3.778771e+01 3.327573e+01 2.268905e+01 6.444674e-01 1.076510e+00 1.293223e+00 1.883514e+00 2.197024e+00 2.673508e+00 2.949268e+00 2.722457e+00 2.845586e+00 2.895535e+00 2.697424e+00 2.293327e+00 4.128606e-02 9.874837e-02 2.035372e-01 2.576212e-01 3.839478e-01 4.538210e-01 5.496877e-01 6.081111e-01 5.695377e-01 5.939356e-01 6.059731e-01 5.659602e-01 4.834353e-01 5.660130e-03
<GCONST> 1.098248e+02
<STATE> 3
<MEAN> 39
 -8.968819e+00 1.227167e+00 1.709896e+00 5.255102e-01 -1.376319e+00 -3.581203e-01 -4.450421e+00 2.224232e-01 1.032390e+00 1.922153e+00 9.369482e-01 -5.463367e-02 1.433043e+01 6.601643e-05 -6.414447e-06 -4.348861e-05 2.207338e-05 -6.183252e-05 3.505594e-04 -2.845397e-05 -1.057293e-04 -3.217392e-04 -2.094190e-04 -1.093453e-04 6.646793e-05 -4.646834e-05 -3.052270e-05 -5.577785e-06 5.118113e-05 5.903988e-05 8.738427e-05 1.239256e-04 1.462678e-04 5.784345e-07 -6.680420e-05 8.540968e-05 -3.584341e-06 -9.608337e-06 3.280207e-06
<VARIANCE> 39
 9.132833e+01 3.750473e+01 5.184167e+01 5.299957e+01 4.542144e+01 5.171822e+01 6.411460e+01 4.173472e+01 3.924054e+01 3.472301e+01 3.778771e+01 3.327573e+01 2.268905e+01 6.444674e-01 1.076510e+00 1.293223e+00 1.883514e+00 2.197024e+00 2.673508e+00 2.949268e+00 2.722457e+00 2.845586e+00 2.895535e+00 2.697424e+00 2.293327e+00 4.128606e-02 9.874837e-02 2.035372e-01 2.576212e-01 3.839478e-01 4.538210e-01 5.496877e-01 6.081111e-01 5.695377e-01 5.939356e-01 6.059731e-01 5.659602e-01 4.834353e-01 5.660130e-03
<GCONST> 1.098248e+02
<STATE> 4
<MEAN> 39
 -8.968819e+00 1.227167e+00 1.709896e+00 5.255102e-01 -1.376319e+00 -3.581203e-01 -4.450421e+00 2.224232e-01 1.032390e+00 1.922153e+00 9.369482e-01 -5.463367e-02 1.433043e+01 6.601643e-05 -6.414447e-06 -4.348861e-05 2.207338e-05 -6.183252e-05 3.505594e-04 -2.845397e-05 -1.057293e-04 -3.217392e-04 -2.094190e-04 -1.093453e-04 6.646793e-05 -4.646834e-05 -3.052270e-05 -5.577785e-06 5.118113e-05 5.903988e-05 8.738427e-05 1.239256e-04 1.462678e-04 5.784345e-07 -6.680420e-05 8.540968e-05 -3.584341e-06 -9.608337e-06 3.280207e-06
<VARIANCE> 39
 9.132833e+01 3.750473e+01 5.184167e+01 5.299957e+01 4.542144e+01 5.171822e+01 6.411460e+01 4.173472e+01 3.924054e+01 3.472301e+01 3.778771e+01 3.327573e+01 2.268905e+01 6.444674e-01 1.076510e+00 1.293223e+00 1.883514e+00 2.197024e+00 2.673508e+00 2.949268e+00 2.722457e+00 2.845586e+00 2.895535e+00 2.697424e+00 2.293327e+00 4.128606e-02 9.874837e-02 2.035372e-01 2.576212e-01 3.839478e-01 4.538210e-01 5.496877e-01 6.081111e-01 5.695377e-01 5.939356e-01 6.059731e-01 5.659602e-01 4.834353e-01 5.660130e-03
<GCONST> 1.098248e+02
<TRANSP> 5
 0.000000e+00 1.000000e+00 0.000000e+00 0.000000e+00 0.000000e+00
 0.000000e+00 5.000000e-01 5.000000e-01 0.000000e+00 0.000000e+00
 0.000000e+00 0.000000e+00 5.000000e-01 5.000000e-01 0.000000e+00
 0.000000e+00 0.000000e+00 0.000000e+00 5.000000e-01 5.000000e-01
 0.000000e+00 0.000000e+00 0.000000e+00 0.000000e+00 0.000000e+00
<ENDHMM>
~h "ai"
<BEGINHMM>
<NUMSTATES> 5
<STATE> 2
<MEAN> 39
