~o
<STREAMINFO> 1 39
<VECSIZE> 39<NULLD><MFCC_E_D_A><DIAGC>
~s "silst"
<NUMMIXES> 8
<MIXTURE> 1 1.149702e-01
<MEAN> 39
 -1.289309e+01 -1.139515e+00 -1.806573e+00 -9.998757e-01 2.045266e-01 -2.582267e+00 -2.802428e+00 -8.557147e-01 2.961009e+00 3.689673e+00 -9.622319e-01 -5.453965e-01 1.165509e+01 4.519942e-02 3.668825e-01 2.051948e-01 4.247375e-01 1.501471e-01 2.451777e-01 -1.012521e-01 7.725762e-02 -1.361090e-02 -1.198899e-01 -1.486521e-02 -1.086177e-01 -8.948122e-02 5.334801e-03 1.481876e-01 1.399601e-01 2.225537e-01 1.725408e-01 3.274071e-01 2.202661e-01 7.858722e-02 -1.869615e-01 -2.961727e-01 -1.962688e-02 3.922126e-02 -1.513135e-02
<VARIANCE> 39
 2.229737e+01 3.422037e+01 4.572346e+01 4.498371e+01 4.175780e+01 5.979205e+01 4.713089e+01 4.814488e+01 3.978735e+01 3.849771e+01 4.363805e+01 3.527644e+01 2.552322e+00 8.931484e-01 1.743925e+00 1.961104e+00 2.790205e+00 2.739009e+00 3.356097e+00 3.590239e+00 3.545310e+00 3.237587e+00 3.654252e+00 3.444765e+00 2.797407e+00 7.612161e-02 2.414211e-01 4.813482e-01 5.478614e-01 8.065394e-01 7.398263e-01 8.806670e-01 9.433292e-01 9.472238e-01 8.127420e-01 8.505613e-01 9.002354e-01 7.705213e-01 1.815019e-02
<GCONST> 1.179153e+02
<MIXTURE> 2 6.658588e-02
<MEAN> 39
 -1.339616e+01 -8.400825e-01 -2.808147e+00 -7.436519e-01 -1.096670e+00 -1.329840e+00 -2.581681e+00 -5.207329e-01 2.012896e+00 1.961808e+00 1.721074e-01 -1.123977e-01 1.002975e+01 2.458518e-01 5.637443e-01 7.177634e-01 6.809787e-01 5.482707e-01 5.399109e-01 5.963384e-01 5.030656e-01 3.861398e-01 2.836834e-01 2.300691e-01 3.452684e-02 7.911931e-02 5.175990e-02 1.515321e-01 3.267524e-01 3.011077e-01 2.392711e-01 1.963581e-01 1.536791e-01 4.594889e-03 -2.339542e-02 -7.505532e-02 -6.088615e-02 -8.724618e-02 7.374310e-02
<VARIANCE> 39
 3.690834e+00 1.532393e+01 1.482978e+01 1.324524e+01 1.801819e+01 2.130902e+01 2.488424e+01 2.774252e+01 3.155300e+01 2.626312e+01 2.260818e+01 2.095842e+01 3.935395e-01 4.137484e-01 8.941582e-01 1.384836e+00 1.987681e+00 2.518382e+00 2.955194e+00 3.042454e+00 3.206119e+00 3.553858e+00 3.691301e+00 3.398366e+00 2.737339e+00 3.007863e-02 7.903308e-02 1.711815e-01 2.462975e-01 3.111334e-01 4.097991e-01 5.114473e-01 6.300051e-01 7.176810e-01 7.856854e-01 7.663469e-01 6.289133e-01 5.794049e-01 5.059909e-03
<GCONST> 9.500076e+01
<MIXTURE> 3 1.646207e-01
<MEAN> 39
 -1.237950e+01 1.818319e+00 9.340786e-01 1.855355e+00 -8.186890e-01 -1.546766e+00 -2.100991e+00 -9.980443e-03 2.859842e+00 3.312288e+00 1.863263e+00 4.117971e-01 1.073718e+01 -4.557499e-02 -4.948518e-03 -1.074364e-02 -1.923481e-02 -5.334469e-02 7.462174e-02 1.454198e-01 1.853879e-01 2.781783e-01 2.976364e-01 3.327034e-01 1.849991e-01 5.535678e-03 -1.377021e-01 -2.102793e-01 -1.554659e-01 -8.254612e-02 1.186429e-01 1.913022e-01 1.153522e-01 -5.714352e-02 -2.239142e-01 -3.025163e-01 -2.864320e-01 -1.031055e-01 -1.967827e-02
<VARIANCE> 39
 3.330660e+00 1.931943e+01 1.347807e+01 1.456479e+01 1.846494e+01 2.095354e+01 2.521173e+01 2.771561e+01 3.141595e+01 2.468683e+01 2.130457e+01 2.273180e+01 6.829385e-01 3.657001e-01 8.265843e-01 1.199281e+00 1.841171e+00 2.326681e+00 2.929535e+00 3.179010e+00 3.392345e+00 3.937540e+00 3.939781e+00 3.233703e+00 3.022360e+00 2.513976e-02 6.388906e-02 1.465059e-01 2.158891e-01 3.599686e-01 4.399063e-01 5.134515e-01 6.474286e-01 7.271888e-01 7.986381e-01 7.230040e-01 5.828240e-01 6.359082e-01 3.731508e-03
<GCONST> 9.471490e+01
<MIXTURE> 4 1.342017e-01
<MEAN> 39
 -1.344667e+01 -8.506007e-01 -1.278075e+00 2.191629e+00 2.920322e+00 3.161617e+00 2.503658e-01 -1.041445e+00 -5.957407e-01 -1.872367e+00 -3.423268e+00 -1.974470e+00 1.027087e+01 6.607797e-02 2.073773e-01 2.627273e-01 2.849959e-01 2.401365e-01 1.990977e-01 2.191702e-01 2.873266e-01 2.925001e-01 2.209574e-01 1.857926e-01 8.893647e-02 1.531986e-02 3.260853e-02 6.516320e-02 8.614737e-04 -2.420165e-01 -4.426265e-01 -5.103400e-01 -2.923307e-01 1.118897e-01 4.457881e-01 5.819133e-01 5.513259e-01 2.417464e-01 2.241092e-02
<VARIANCE> 39
 4.353375e+00 1.570659e+01 1.688240e+01 1.650413e+01 2.041590e+01 2.370260e+01 2.776640e+01 2.967693e+01 3.155194e+01 2.505237e+01 2.352022e+01 2.081586e+01 3.919097e-01 3.695873e-01 8.501779e-01 1.299983e+00 1.945125e+00 2.514451e+00 3.000903e+00 3.356690e+00 3.373732e+00 4.032833e+00 3.832259e+00 3.366314e+00 2.840559e+00 2.253394e-02 7.772141e-02 1.851412e-01 2.669865e-01 3.784305e-01 4.320156e-01 5.323743e-01 6.759208e-01 7.439675e-01 7.593268e-01 6.851080e-01 6.011559e-01 5.948830e-01 3.732709e-03
<GCONST> 9.581554e+01
<MIXTURE> 5 1.204326e-01
<MEAN> 39
 -1.494494e+01 -1.177690e-01 1.314193e+00 1.712339e+00 2.152347e+00 -6.057950e-02 -2.268164e-01 -1.419488e-01 -2.875947e-02 3.655680e-01 -8.887346e-03 -7.193616e-02 1.132907e+01 -2.596375e-02 -5.289327e-01 -3.364606e-01 -4.595191e-01 -1.035638e-01 -3.208793e-01 -1.068946e-01 -2.717558e-01 -1.842319e-01 -5.173468e-02 -1.651218e-01 -3.897398e-02 9.173961e-02 1.554633e-01 1.181491e-01 -1.279882e-01 -7.480439e-02 -1.991853e-01 -1.444871e-01 -1.930038e-01 -3.792211e-02 2.164584e-01 2.291800e-01 1.817377e-02 -2.647404e-02 -2.267842e-02
<VARIANCE> 39
 2.156054e+01 3.805207e+01 3.219377e+01 3.608299e+01 3.239494e+01 3.675082e+01 3.370166e+01 3.442774e+01 2.708582e+01 2.669485e+01 2.783473e+01 1.889933e+01 2.065832e+00 1.974995e+00 3.368197e+00 3.214663e+00 3.825344e+00 3.915724e+00 4.318264e+00 4.031425e+00 4.112410e+00 3.738451e+00 3.737605e+00 3.597875e+00 2.987684e+00 2.009892e-01 3.276726e-01 6.327328e-01 5.993097e-01 7.436477e-01 7.041787e-01 7.464232e-01 7.645293e-01 7.910784e-01 6.889887e-01 6.690156e-01 6.885349e-01 5.477104e-01 2.389716e-02
<GCONST> 1.175941e+02
<MIXTURE> 6 1.242571e-01
<MEAN> 39
 -1.258889e+01 8.497884e-01 -1.535220e-03 7.060349e-01 -1.253736e+00 -1.519392e+00 -2.718910e+00 -9.229730e-01 2.784068e+00 2.833880e+00 9.561678e-01 -6.218023e-01 1.051536e+01 -2.469288e-01 -4.153713e-01 -4.978930e-01 -5.518563e-01 -4.729429e-01 -3.561346e-01 -3.820334e-01 -4.127563e-01 -3.478661e-01 -2.601586e-01 -1.736820e-01 -4.961775e-02 -8.610328e-02 -1.645127e-01 -2.249246e-01 -1.377272e-01 2.133067e-03 1.547029e-01 1.644899e-01 1.094284e-01 7.578032e-03 -1.808723e-01 -2.261056e-01 -1.765033e-01 1.432868e-02 -4.289525e-02
<VARIANCE> 39
 2.855224e+00 1.695717e+01 1.218671e+01 1.343528e+01 1.845489e+01 1.981439e+01 2.282763e+01 2.715200e+01 3.200911e+01 2.517445e+01 2.346899e+01 2.240225e+01 3.367421e-01 3.830323e-01 8.158377e-01 1.279712e+00 2.014094e+00 2.541113e+00 2.923950e+00 3.198918e+00 3.436751e+00 3.645823e+00 3.753969e+00 3.252658e+00 2.756819e+00 1.676968e-02 6.673607e-02 1.609077e-01 2.492980e-01 3.775100e-01 4.713438e-01 5.285537e-01 6.082910e-01 7.326289e-01 7.766659e-01 7.093151e-01 6.234248e-01 6.217464e-01 2.663564e-03
<GCONST> 9.319572e+01
<MIXTURE> 7 1.159170e-01
<MEAN> 39
 -1.338105e+01 -1.381849e+00 -1.226536e+00 1.805668e+00 2.302497e+00 2.528975e+00 -7.049342e-01 -1.211210e+00 5.444437e-01 -1.573033e+00 -3.478681e+00 -2.200447e+00 1.038108e+01 -1.792299e-01 -2.629198e-01 -3.148724e-01 -2.726702e-01 -3.167027e-01 -3.323194e-01 -3.049271e-01 -3.077846e-01 -3.204841e-01 -3.327979e-01 -3.045391e-01 -1.216100e-01 -8.291667e-02 1.302392e-02 5.407211e-02 -3.242828e-02 -2.206248e-01 -3.906989e-01 -4.589121e-01 -2.070550e-01 9.299462e-02 2.914853e-01 5.329115e-01 5.271035e-01 2.639305e-01 -1.219091e-02
<VARIANCE> 39
 4.264153e+00 1.581790e+01 1.575275e+01 1.507273e+01 1.966994e+01 2.164851e+01 2.772185e+01 2.786965e+01 3.239402e+01 2.482213e+01 2.239834e+01 2.085774e+01 3.179244e-01 3.426946e-01 7.571507e-01 1.171271e+00 1.848136e+00 2.400131e+00 2.866363e+00 3.042997e+00 3.130902e+00 3.514334e+00 3.844663e+00 3.205584e+00 2.968403e+00 1.469678e-02 7.251978e-02 1.606741e-01 2.609662e-01 3.841446e-01 4.309666e-01 5.367636e-01 6.805206e-01 7.280008e-01 7.227010e-01 6.837182e-01 5.739833e-01 5.947147e-01 2.584978e-03
<GCONST> 9.333852e+01
<MIXTURE> 8 1.589840e-01
<MEAN> 39
 -1.363164e+01 -2.619339e+00 -3.299499e+00 -2.177756e+00 -2.542289e+00 -1.828510e+00 -3.072278e+00 -6.962863e-01 3.805026e+00 3.051666e+00 7.798787e-01 1.757363e-01 1.012230e+01 4.669521e-02 8.195922e-02 4.470292e-02 7.718595e-02 7.380459e-02 5.687851e-02 -5.260521e-02 -1.320117e-01 -1.967870e-01 -1.301804e-01 -1.689788e-01 -1.072877e-01 -2.405838e-02 6.408472e-02 2.143766e-01 3.798194e-01 4.692431e-01 4.254577e-01 2.959271e-01 1.468792e-01 -5.818189e-02 -2.396612e-01 -2.993643e-01 -2.416383e-01 -1.896635e-01 3.219542e-02
<VARIANCE> 39
 3.410873e+00 1.556978e+01 1.488079e+01 1.260533e+01 1.962075e+01 2.093643e+01 2.422455e+01 2.842026e+01 3.311192e+01 2.528522e+01 2.265059e+01 2.180677e+01 2.845367e-01 3.326165e-01 7.509716e-01 1.245055e+00 1.809452e+00 2.414320e+00 2.705513e+00 2.932030e+00 3.259699e+00 3.409360e+00 3.597865e+00 3.158758e+00 2.753684e+00 1.643335e-02 6.882322e-02 1.446552e-01 2.291071e-01 3.190295e-01 4.433269e-01 5.299888e-01 6.347719e-01 7.471188e-01 7.590051e-01 7.036977e-01 6.076197e-01 5.996828e-01 2.320582e-03
<GCONST> 9.210980e+01
~h "@"
<BEGINHMM>
<NUMSTATES> 5
<STATE> 2
<NUMMIXES> 8
<MIXTURE> 1 1.667577e-01
<MEAN> 39
 1.232606e-01 -2.767093e+00 7.652684e+00 -1.039290e+00 -9.005057e+00 -1.028705e+01 -2.074181e+01 4.136051e+00 6.416462e+00 4.337610e+00 -2.635426e+00 5.984967e+00 2.026748e+01 -2.056442e-01 1.004502e+00 3.643220e-01 2.156422e-02 3.394088e-01 -3.966619e-01 9.910459e-01 1.350675e-01 1.007863e+00 2.036937e-01 -4.500973e-01 5.614986e-01 -2.686171e-02 1.022651e-01 1.245188e-01 -6.595792e-02 2.025482e-01 3.664070e-01 6.037486e-01 5.731817e-01 -4.425924e-02 -4.122727e-01 -2.915682e-01 1.054986e-02 -4.673995e-01 -9.442758e-03
<VARIANCE> 39
 3.916456e+00 1.430702e+01 3.651090e+01 2.254739e+01 3.199734e+01 2.092796e+01 4.793344e+01 2.793279e+01 3.697701e+01 3.978278e+01 3.414790e+01 2.010470e+01 2.268905e-01 3.737592e-01 6.682090e-01 7.991188e-01 1.059579e+00 1.699768e+00 2.624157e+00 2.498543e+00 1.319713e+00 1.605518e+00 1.446812e+00 1.582745e+00 1.483624e+00 3.942762e-03 5.174863e-02 1.339799e-01 1.421907e-01 1.704176e-01 2.289802e-01 3.154487e-01 3.662674e-01 2.225178e-01 3.100793e-01 2.838228e-01 2.711703e-01 1.907928e-01 2.483019e-04
<GCONST> 7.824081e+01
<MIXTURE> 2 1.171032e-01
<MEAN> 39
 1.910448e+00 -4.767160e+00 7.301758e+00 1.137172e+00 -8.465584e+00 -3.383225e+00 -1.554435e+01 4.539754e+00 -7.440727e-01 -1.319996e-01 7.400960e-01 -9.320540e-01 2.049322e+01 -3.960592e-02 -4.108516e-01 2.572064e-01 -4.005973e-01 -6.417496e-01 -4.134831e-01 -1.069637e+00 5.127380e-01 9.549420e-02 2.323099e-01 4.313261e-01 4.092944e-01 5.524692e-04 -8.638879e-02 2.353387e-01 6.476751e-02 -8.299877e-02 9.157557e-02 -2.091926e-01 1.363053e-01 -6.940144e-02 2.458001e-01 1.825501e-01 -1.702259e-01 2.159182e-01 -8.580470e-03
<VARIANCE> 39
 7.140432e+00 2.378374e+01 5.448259e+01 2.228149e+01 3.413828e+01 3.084555e+01 4.486560e+01 2.001915e+01 2.418979e+01 2.736133e+01 3.338018e+01 2.368036e+01 2.303170e-01 3.537386e-01 5.770573e-01 7.198660e-01 7.988644e-01 1.499240e+00 2.177619e+00 1.738052e+00 1.350918e+00 2.116429e+00 1.486171e+00 1.051559e+00 1.457608e+00 2.918713e-03 4.147062e-02 1.109835e-01 1.503246e-01 1.541474e-01 3.008896e-01 3.168251e-01 3.329716e-01 3.112864e-01 3.003007e-01 2.923937e-01 2.595854e-01 2.483637e-01 2.885514e-04
<GCONST> 7.791573e+01
<MIXTURE> 3 1.363128e-01
<MEAN> 39
 3.107235e-01 -2.137013e-01 4.170792e+00 -2.488841e+00 -5.704252e+00 -7.029028e+00 -1.370738e+01 3.273762e+00 8.882202e+00 5.719610e+00 -6.716372e+00 1.651902e+00 2.032362e+01 1.101766e-01 3.467775e-01 2.193387e-01 5.511523e-01 6.029761e-01 9.728360e-01 1.130612e+00 -1.738963e-01 -6.921756e-01 -8.276330e-01 -1.940650e-01 -3.335293e-01 -8.071371e-03 1.504453e-01 -3.053229e-01 -6.821629e-02 1.045824e-01 7.352574e-02 3.840959e-01 -1.843388e-01 -3.219303e-03 -4.983597e-01 -1.711141e-01 2.593696e-01 -1.917731e-01 -6.473190e-03
<VARIANCE> 39
 7.388276e+00 2.069158e+01 3.851016e+01 2.645782e+01 2.893498e+01 3.098158e+01 6.822663e+01 3.232162e+01 3.190035e+01 3.372057e+01 3.118243e+01 2.889943e+01 2.961830e-01 2.835776e-01 5.537652e-01 7.619579e-01 1.028608e+00 1.105636e+00 1.583306e+00 1.884841e+00 1.787508e+00 1.480964e+00 1.347099e+00 1.278649e+00 1.162208e+00 2.190606e-03 1.181213e-01 1.215388e-01 1.462818e-01 1.778956e-01 2.481451e-01 3.355595e-01 3.099734e-01 2.415990e-01 2.414135e-01 2.455703e-01 2.095641e-01 1.559459e-01 2.019958e-04
<GCONST> 7.761736e+01
<MIXTURE> 4 8.875944e-02
<MEAN> 39
 2.066075e+00 -4.898069e-01 2.401340e+00 -8.371502e-01 -1.473149e+00 -8.390697e-01 -1.064708e+01 4.385772e-01 2.383955e+00 3.502124e+00 -4.946444e+00 -2.812331e-01 1.995897e+01 5.325601e-01 -1.070921e+00 -4.161398e-01 2.275269e-01 -2.506350e-01 4.071372e-01 -6.117061e-01 -2.903643e-01 -9.789681e-01 2.211969e-01 6.341960e-01 -3.457868e-01 -4.490923e-03 -1.782521e-01 6.080563e-03 -2.257802e-02 -3.158219e-01 -1.688739e-01 -3.910181e-01 -4.214427e-01 2.774671e-02 4.079714e-01 2.938711e-01 7.111614e-02 7.579056e-02 -1.899178e-02
<VARIANCE> 39
 6.752402e+00 1.965448e+01 2.463870e+01 2.822104e+01 2.603421e+01 3.608366e+01 5.082959e+01 3.501251e+01 1.997881e+01 1.605964e+01 2.123441e+01 1.590213e+01 2.470860e-01 6.349800e-01 8.276824e-01 1.302280e+00 1.665989e+00 2.201762e+00 2.607151e+00 3.439490e+00 2.644299e+00 2.662152e+00 2.555790e+00 2.167225e+00 1.258112e+00 8.069603e-03 5.801092e-02 1.168088e-01 1.696205e-01 2.647344e-01 3.327327e-01 3.215474e-01 5.906851e-01 4.027596e-01 3.444996e-01 4.053933e-01 2.710535e-01 2.680098e-01 6.065217e-04
<GCONST> 8.605468e+01
<MIXTURE> 5 1.481752e-01
<MEAN> 39
 1.795834e+00 -5.723100e+00 1.564953e+00 -5.018017e+00 -5.088479e+00 -2.513402e+00 -1.798719e+01 3.740936e+00 6.013917e+00 8.535542e+00 -3.488809e+00 -1.691310e+00 2.017053e+01 -4.032224e-01 5.514768e-01 7.330423e-02 -3.464914e-01 -3.740700e-01 -1.115657e+00 -1.996156e-01 -1.502188e-02 1.564675e+00 9.149149e-01 -6.686534e-01 5.023264e-01 -1.017431e-02 -7.153867e-02 4.056804e-01 1.084202e-01 3.258449e-01 2.020868e-01 1.287704e-01 7.247177e-01 -2.157351e-01 -2.409274e-03 -3.694780e-01 -2.260130e-01 5.224890e-02 -7.034321e-03
<VARIANCE> 39
 5.739300e+00 2.146888e+01 3.665714e+01 2.302315e+01 2.726048e+01 3.770967e+01 5.947833e+01 4.782577e+01 3.883959e+01 2.611318e+01 2.696086e+01 3.226754e+01 2.268905e-01 5.107796e-01 7.946215e-01 7.842183e-01 1.208996e+00 1.403262e+00 1.658880e+00 3.114082e+00 1.666666e+00 1.720324e+00 1.893330e+00 1.604177e+00 1.058909e+00 2.836182e-03 7.065617e-02 1.254284e-01 1.794654e-01 2.082616e-01 2.835733e-01 3.805173e-01 4.363117e-01 3.963315e-01 4.916054e-01 2.881249e-01 3.106393e-01 2.138467e-01 2.022916e-04
<GCONST> 8.254099e+01
<MIXTURE> 6 1.418270e-01
<MEAN> 39
 1.068668e+00 -3.512209e-01 5.900829e+00 -8.708405e-02 -4.250848e+00 -4.056343e+00 -1.099988e+01 3.448596e+00 5.597748e+00 2.935757e+00 -5.707921e+00 1.637447e+00 2.015176e+01 4.088366e-01 -2.428278e-01 -1.292625e-01 4.786223e-01 7.404081e-01 1.542506e+00 6.386026e-01 -1.147978e-01 -1.454427e+00 -8.229029e-01 -9.314371e-02 -9.095628e-01 -2.929818e-02 9.622357e-03 -3.368848e-01 -1.403830e-01 -1.465965e-01 -2.209991e-01 -1.316027e-01 -6.180235e-01 -5.994901e-02 -1.790253e-01 1.591140e-01 2.834777e-01 -4.436339e-02 -6.369924e-03
<VARIANCE> 39
 5.912523e+00 1.417539e+01 3.064026e+01 2.003258e+01 3.099134e+01 3.246211e+01 4.568493e+01 2.127604e+01 2.521663e+01 2.793468e+01 3.269857e+01 3.030888e+01 2.268905e-01 2.808079e-01 7.197635e-01 9.979063e-01 1.153142e+00 1.392829e+00 1.849040e+00 2.461939e+00 1.855643e+00 1.457545e+00 1.653362e+00 1.616963e+00 1.512502e+00 2.150432e-03 9.449433e-02 1.254222e-01 1.380157e-01 1.576374e-01 2.689964e-01 3.831569e-01 3.779992e-01 2.454922e-01 2.662330e-01 2.679189e-01 2.697401e-01 1.951906e-01 1.408591e-04
<GCONST> 7.756477e+01
<MIXTURE> 7 1.424038e-01
<MEAN> 39
 2.103299e+00 -4.528530e+00 4.872620e+00 -4.742903e-01 -4.938339e+00 -1.759329e+00 -1.524373e+01 3.332025e+00 1.087244e+00 2.021624e+00 -4.103493e+00 -9.081503e-01 2.014802e+01 -1.246495e-01 -8.766851e-01 -1.984164e-01 -6.240862e-01 -4.574404e-01 -4.596483e-01 -1.641385e+00 -1.908290e-02 -9.086586e-02 6.651874e-01 4.928145e-01 1.136983e-01 -2.612022e-02 -2.010156e-01 3.257084e-01 6.709673e-02 -1.187940e-01 -1.604093e-01 -5.915249e-01 5.538236e-02 -5.925383e-02 6.453246e-01 2.596843e-01 -4.923808e-02 3.108672e-01 -8.560106e-03
<VARIANCE> 39
 4.108150e+00 1.352773e+01 3.083234e+01 2.178287e+01 2.588341e+01 2.682492e+01 3.965000e+01 2.269480e+01 2.080292e+01 2.136632e+01 1.963059e+01 2.177870e+01 2.268905e-01 4.286650e-01 5.916730e-01 8.026875e-01 9.299319e-01 1.267999e+00 2.115114e+00 1.519236e+00 1.391621e+00 1.701206e+00 1.307318e+00 1.171618e+00 9.493234e-01 2.216937e-03 6.587285e-02 1.503939e-01 1.728426e-01 2.078101e-01 2.929431e-01 4.171116e-01 5.031990e-01 3.242535e-01 2.956807e-01 3.264644e-01 3.178903e-01 3.006606e-01 2.517292e-04
<GCONST> 7.625729e+01
<MIXTURE> 8 5.866100e-02
<MEAN> 39
 7.645347e-01 1.002694e+00 2.310919e+00 -1.154844e+00 -1.757743e+00 2.587609e-01 -1.136279e+01 6.111228e-01 1.965359e+00 3.052780e+00 -2.980784e+00 -1.135324e+00 1.921374e+01 5.805807e-01 -8.460633e-01 -4.537515e-01 -9.131213e-01 -4.735237e-01 -2.391028e-01 -9.889489e-01 -1.348415e-01 -1.867531e-01 6.768086e-01 1.585300e-01 -1.732281e-01 9.602077e-02 -3.585949e-01 4.870808e-02 -5.375905e-03 -9.306598e-02 -4.441208e-02 -3.349166e-01 6.855064e-02 -1.706763e-01 3.046962e-01 2.266779e-01 -6.396470e-03 2.382252e-01 -5.984768e-02
<VARIANCE> 39
 1.756773e+01 3.572161e+01 4.431258e+01 5.394823e+01 5.517960e+01 5.616682e+01 4.738445e+01 3.870522e+01 3.009948e+01 2.375502e+01 2.464391e+01 2.084668e+01 1.707452e+00 1.029741e+00 1.369025e+00 1.820125e+00 2.759061e+00 2.960427e+00 2.396046e+00 3.618242e+00 2.434362e+00 2.326901e+00 2.510939e+00 1.871971e+00 1.839801e+00 3.963588e-02 1.072637e-01 3.416480e-01 2.648992e-01 4.475877e-01 4.925520e-01 5.321478e-01 6.661760e-01 4.386666e-01 5.193889e-01 5.263002e-01 3.928327e-01 3.652535e-01 2.711466e-03
<GCONST> 1.035097e+02
<STATE> 3
<NUMMIXES> 8
<MIXTURE> 1 1.207092e-01
<MEAN> 39
 -2.912762e-01 1.853987e+00 6.322616e+00 -2.217934e+00 -6.044686e+00 -7.890466e+00 -1.714069e+01 -1.864151e+00 7.268476e+00 8.152195e+00 -3.146005e+00 2.335678e+00 1.917149e+01 -6.306816e-01 1.199911e+00 5.225021e-01 8.162813e-01 1.035709e+00 4.433627e-01 2.336561e+00 8.820781e-02 8.006641e-01 -1.949902e-01 7.490285e-02 -1.254121e-01 -1.662649e-01 1.190853e-01 3.813571e-02 -7.469258e-03 5.001598e-01 5.725173e-01 7.785442e-01 8.238481e-01 2.318536e-01 -6.228428e-01 -6.072214e-01 -1.579753e-01 -3.060610e-01 -3.849478e-03
<VARIANCE> 39
 1.347425e+01 1.743892e+01 2.947585e+01 3.201807e+01 3.794167e+01 4.975245e+01 5.349509e+01 4.610086e+01 3.545524e+01 6.039797e+01 2.723840e+01 2.740023e+01 6.604823e-01 8.055704e-01 1.315081e+00 1.773064e+00 2.177014e+00 3.102499e+00 3.742162e+00 3.043775e+00 2.250832e+00 3.888376e+00 3.309539e+00 2.245557e+00 2.162197e+00 1.887490e-02 1.204926e-01 2.013108e-01 2.702510e-01 2.872828e-01 4.003350e-01 5.398057e-01 6.767510e-01 3.905861e-01 6.280608e-01 6.527466e-01 4.258083e-01 3.195195e-01 1.487481e-03
<GCONST> 1.006249e+02
<MIXTURE> 2 9.871451e-02
<MEAN> 39
 4.253336e+00 6.330839e+00 4.585470e+00 1.224295e+00 3.550411e+00 3.399930e+00 -1.051226e+01 -9.471051e+00 6.475835e-01 3.914737e+00 -2.513319e+00 -6.854018e-01 1.843316e+01 -1.737064e-01 1.124882e+00 4.220231e-01 6.348375e-01 3.842982e-01 -3.428613e-01 5.393175e-01 2.025220e-01 2.419458e-01 -5.208465e-01 -1.792689e-01 -8.684795e-02 -1.789673e-01 4.607128e-02 -5.184513e-02 -1.011263e-01 -1.711552e-01 -3.154433e-01 -1.344545e-01 -2.879649e-01 1.707541e-01 1.374522e-01 2.919204e-01 7.830007e-02 -2.425689e-02 2.498659e-02
<VARIANCE> 39
 5.472970e+00 2.023138e+01 1.996386e+01 2.569825e+01 2.267295e+01 4.055141e+01 2.491421e+01 4.399072e+01 2.846539e+01 4.092010e+01 3.535949e+01 3.428147e+01 6.147551e-01 2.855918e-01 1.332311e+00 1.124919e+00 1.707756e+00 2.338109e+00 2.374077e+00 3.252606e+00 3.235187e+00 3.148031e+00 5.182509e+00 3.997069e+00 3.900495e+00 1.302483e-02 4.950508e-02 2.392693e-01 2.521865e-01 3.934998e-01 4.607724e-01 6.300337e-01 8.956953e-01 5.749469e-01 7.569271e-01 1.004387e+00 7.773500e-01 6.930941e-01 1.327935e-03
<GCONST> 9.891041e+01
<MIXTURE> 3 1.413573e-01
<MEAN> 39
 1.900612e+00 -1.396588e+00 5.929827e+00 -9.606190e-01 -7.864272e+00 -4.021220e+00 -1.447481e+01 2.332509e+00 -1.110093e+00 3.301934e+00 1.638742e+00 6.114398e-01 1.970467e+01 -2.018909e-01 2.601001e-01 -3.113871e-01 -6.576566e-01 -3.250561e-01 -9.149031e-01 -5.386684e-01 -4.205615e-01 7.934319e-01 6.852551e-01 1.636866e-01 3.159492e-01 -8.155030e-02 -2.415902e-01 3.174699e-01 1.154668e-01 2.381471e-01 3.721748e-01 4.875659e-02 6.679288e-01 -2.977009e-02 4.750873e-01 -6.443977e-02 -3.438492e-01 1.581112e-02 -3.218553e-02
<VARIANCE> 39
 1.166836e+01 2.847723e+01 5.263713e+01 7.040795e+01 5.386120e+01 6.294084e+01 7.662229e+01 6.559765e+01 4.452823e+01 5.713478e+01 4.568224e+01 3.425681e+01 6.871719e-01 6.527201e-01 7.941942e-01 1.125935e+00 1.488849e+00 2.066056e+00 2.952226e+00 2.524944e+00 2.459871e+00 3.032429e+00 2.501584e+00 1.751244e+00 2.211075e+00 1.483068e-02 1.041540e-01 2.720432e-01 2.923396e-01 6.009834e-01 6.215543e-01 6.024506e-01 6.488572e-01 5.479530e-01 6.884034e-01 7.346761e-01 4.215171e-01 3.782082e-01 1.132945e-03
<GCONST> 1.032171e+02
<MIXTURE> 4 1.253486e-01
<MEAN> 39
 -4.204367e+00 2.229046e+00 6.587924e+00 1.487530e+00 -2.086657e+00 -4.780234e+00 -5.678558e+00 -1.749758e-01 5.294623e+00 1.273271e+00 -4.499971e+00 1.854763e+00 1.847040e+01 -1.438494e-01 4.145210e-01 2.597250e-01 1.155466e+00 1.418144e+00 1.403542e+00 1.590126e+00 2.582117e-01 1.613037e-01 -1.001151e+00 -6.086816e-01 -6.688585e-01 -3.919363e-02 6.087031e-01 1.168115e-01 -1.701775e-01 -4.622165e-01 -4.064521e-01 4.383136e-02 -7.302501e-01 1.769713e-02 -4.132294e-01 4.432498e-01 1.054823e-01 -1.184459e-01 3.250453e-02
<VARIANCE> 39
 7.969348e+00 2.039722e+01 2.943635e+01 3.990805e+01 5.684212e+01 4.242054e+01 4.285860e+01 5.565498e+01 4.598258e+01 2.264158e+01 2.962528e+01 2.053140e+01 8.481627e-01 9.299382e-01 6.595610e-01 9.623431e-01 2.037572e+00 2.435398e+00 3.013030e+00 2.812289e+00 2.242145e+00 2.931835e+00 2.701780e+00 2.566632e+00 1.927260e+00 1.724899e-02 1.649152e-01 3.544729e-01 2.924919e-01 5.304915e-01 5.266140e-01 7.688392e-01 5.560749e-01 4.499770e-01 5.835962e-01 4.547416e-01 4.582558e-01 3.613422e-01 1.119454e-03
<GCONST> 9.931120e+01
<MIXTURE> 5 1.005767e-01
<MEAN> 39
 4.076725e+00 4.427573e+00 2.086746e+00 -6.115724e-01 1.749125e+00 2.275700e+00 -1.303118e+01 -6.838418e+00 1.528889e+00 7.021894e+00 -1.742845e+00 -2.896566e+00 1.902330e+01 -1.252168e-01 7.197378e-03 -1.816840e-01 7.770935e-02 4.382840e-01 4.200058e-01 7.685082e-01 -5.832333e-01 -1.576662e+00 -7.570026e-01 1.880595e-01 -1.890592e-01 -1.459476e-01 -2.618967e-01 -6.869254e-02 9.328447e-02 -3.062505e-02 -3.676763e-02 -2.116781e-01 -4.734007e-02 6.896283e-02 2.313602e-01 -2.320005e-01 8.092672e-02 3.265738e-01 -1.353435e-02
<VARIANCE> 39
 8.002358e+00 1.872887e+01 2.898209e+01 3.536993e+01 2.404544e+01 3.743565e+01 1.814769e+01 4.132710e+01 3.794260e+01 3.073771e+01 3.329603e+01 3.564353e+01 1.313934e+00 4.774854e-01 8.104882e-01 1.160731e+00 1.687728e+00 2.125736e+00 2.994482e+00 3.925076e+00 2.915360e+00 2.763182e+00 3.420303e+00 2.525495e+00 2.608977e+00 1.559973e-02 6.540392e-02 2.135890e-01 2.123812e-01 3.451436e-01 4.361557e-01 5.690479e-01 4.940617e-01 7.097773e-01 6.907026e-01 6.134750e-01 5.077662e-01 5.856534e-01 1.099904e-03
<GCONST> 9.722871e+01
<MIXTURE> 6 1.430583e-01
<MEAN> 39
 7.197527e-01 3.820037e+00 4.050493e+00 -2.987752e+00 -4.472040e+00 -4.024794e+00 -1.084493e+01 -2.431047e-01 3.102638e+00 5.280869e+00 -6.145332e+00 -1.253148e-01 1.878698e+01 3.379452e-01 -2.027014e-01 -6.165031e-01 -1.409543e+00 -1.387615e+00 -1.630169e+00 -1.495295e+00 -3.898505e-01 -5.615106e-01 1.251793e+00 6.043946e-01 3.459163e-01 -2.507403e-02 -5.138796e-01 -2.151166e-01 1.185571e-01 3.126241e-01 8.459044e-02 -2.612224e-01 3.558246e-01 -7.077975e-02 3.809379e-01 -1.625323e-01 1.619793e-01 2.202908e-01 -3.868563e-02
<VARIANCE> 39
 5.068785e+00 1.883534e+01 2.158087e+01 2.188926e+01 5.150250e+01 3.745737e+01 4.707515e+01 5.629782e+01 5.811118e+01 2.915837e+01 3.109803e+01 2.376100e+01 4.278199e-01 8.497110e-01 8.408574e-01 9.638087e-01 1.279972e+00 1.612994e+00 2.329769e+00 2.154092e+00 1.959588e+00 2.010909e+00 1.785327e+00 2.233119e+00 1.414196e+00 1.352229e-02 1.116133e-01 2.739152e-01 2.668667e-01 4.572271e-01 6.933595e-01 8.398041e-01 7.841842e-01 5.001579e-01 7.171221e-01 6.281468e-01 5.732230e-01 4.900593e-01 1.140615e-03
<GCONST> 9.588345e+01
<MIXTURE> 7 1.313822e-01
<MEAN> 39
 -8.579949e-01 1.593259e+00 3.708736e+00 -3.575138e+00 -5.342148e+00 -7.628307e+00 -1.322605e+01 -1.109847e+00 7.079841e+00 6.931886e+00 -3.551911e+00 2.611536e+00 1.908100e+01 -1.078814e+00 2.385990e-01 3.174896e-01 8.219645e-01 1.124925e+00 4.044883e-01 1.905006e+00 -1.036654e-01 8.776872e-01 -6.487788e-01 -3.099881e-01 6.563003e-02 -1.155242e-01 -1.486311e-02 1.210257e-01 2.007776e-01 4.811325e-01 6.095905e-01 7.250466e-01 5.216153e-01 1.417432e-01 -1.116083e-01 -4.738815e-01 -2.190787e-01 -3.511145e-01 1.363319e-03
<VARIANCE> 39
 9.492881e+00 1.935836e+01 2.120457e+01 2.729366e+01 4.001160e+01 3.836879e+01 4.398555e+01 5.561975e+01 4.244975e+01 3.126189e+01 2.595381e+01 1.982762e+01 5.453774e-01 8.237214e-01 2.383627e+00 1.254599e+00 2.000264e+00 2.759359e+00 2.656006e+00 3.460319e+00 2.291589e+00 3.277820e+00 2.876075e+00 2.148360e+00 1.745040e+00 1.675412e-02 1.420479e-01 1.978296e-01 1.797426e-01 3.200117e-01 4.011724e-01 4.581228e-01 5.452532e-01 3.627883e-01 6.665928e-01 4.241482e-01 4.083221e-01 2.776530e-01 8.409336e-04
<GCONST> 9.608828e+01
<MIXTURE> 8 1.388541e-01
<MEAN> 39
 -1.976145e+00 4.243200e+00 6.716393e+00 1.140841e+00 -3.983308e-02 -3.166073e+00 -8.321445e+00 7.243910e-01 8.109442e+00 2.834650e+00 -5.914915e+00 1.196661e+00 1.904693e+01 6.590298e-01 5.164044e-01 -1.440262e-01 -1.657602e-01 4.414339e-01 9.724175e-01 1.225527e-02 -7.592537e-02 -8.838137e-01 5.193164e-02 -6.448471e-02 -7.624458e-01 -3.137944e-03 1.524274e-01 -2.279287e-01 -2.655158e-01 -5.116685e-01 -5.512405e-01 -5.097837e-01 -6.943604e-01 -1.648885e-01 -5.456774e-01 3.974044e-01 2.767873e-01 4.093117e-02 -9.160527e-03
<VARIANCE> 39
 7.094384e+00 1.856481e+01 1.644137e+01 1.992051e+01 3.711284e+01 3.500378e+01 3.873509e+01 4.689260e+01 4.998736e+01 2.670111e+01 2.636123e+01 2.132728e+01 5.051892e-01 8.416367e-01 1.185553e+00 1.294983e+00 2.277143e+00 2.932583e+00 3.014809e+00 3.710678e+00 2.592572e+00 2.866370e+00 3.167785e+00 2.531910e+00 2.179789e+00 1.120459e-02 1.114340e-01 1.603743e-01 1.672732e-01 3.159517e-01 4.217897e-01 6.220742e-01 5.044278e-01 3.284192e-01 4.778188e-01 5.374776e-01 4.558826e-01 3.700437e-01 6.142992e-04
<GCONST> 9.417958e+01
<STATE> 4
<NUMMIXES> 8
<MIXTURE> 1 1.137891e-01
<MEAN> 39
 -6.750181e-04 -3.713124e-01 -3.963847e+00 -1.362626e+01 1.231051e+00 6.729193e+00 -1.267823e+01 -1.961624e+00 8.779897e+00 1.419357e+01 -4.291578e+00 -3.283786e+00 1.922142e+01 -2.082405e-01 7.438818e-01 6.743277e-01 1.189866e+00 1.054123e+00 2.806168e-01 1.050047e+00 -7.916970e-02 3.061084e-01 -1.042608e+00 -2.432005e-01 -3.429409e-02 -5.063813e-02 6.875236e-02 -4.825023e-02 2.701870e-01 5.776888e-01 5.686981e-02 1.676985e-01 3.563431e-01 1.105668e-01 -6.339691e-01 -7.680610e-01 2.778549e-04 1.448371e-01 6.633741e-03
<VARIANCE> 39
 9.496588e+00 1.885110e+01 2.361393e+01 6.677455e+01 2.970942e+01 7.436442e+01 4.514156e+01 4.952146e+01 4.030207e+01 4.666173e+01 6.587122e+01 2.561214e+01 1.483355e+00 6.484078e-01 1.315588e+00 1.117975e+00 2.910880e+00 2.287276e+00 2.865965e+00 3.130514e+00 2.371406e+00 3.297320e+00 3.723424e+00 2.088704e+00 1.694320e+00 1.549841e-02 7.985324e-02 2.686149e-01 2.587817e-01 4.837591e-01 5.167672e-01 6.271792e-01 5.121275e-01 5.073380e-01 5.085071e-01 5.644425e-01 6.832480e-01 3.265781e-01 1.800793e-03
<GCONST> 1.020533e+02
<MIXTURE> 2 2.020539e-01
<MEAN> 39
 1.732710e+00 -1.391205e-01 -2.941787e+00 -9.368309e+00 6.504979e-01 6.994559e+00 -9.537847e+00 -1.285257e+00 1.858229e+00 7.086042e+00 -2.514885e+00 -2.437665e+00 1.952930e+01 3.146066e-01 -2.672456e-01 -3.964278e-01 -9.346842e-01 -6.961941e-01 -4.208864e-01 -9.966711e-01 -1.173258e-02 -1.320433e-01 8.214005e-01 5.939574e-01 -3.763904e-02 1.794550e-02 -1.621262e-01 4.909317e-02 4.847450e-02 -2.145673e-02 1.379730e-01 -6.372073e-02 6.822804e-02 -2.650316e-02 4.286508e-01 7.172611e-02 -1.129289e-01 -4.511596e-02 -2.055787e-02
<VARIANCE> 39
 9.445354e+00 3.075458e+01 2.390986e+01 5.310345e+01 3.293003e+01 4.462825e+01 4.978364e+01 4.029777e+01 2.555211e+01 3.917491e+01 3.682545e+01 2.881692e+01 6.455374e-01 6.511140e-01 1.341384e+00 1.522919e+00 3.001140e+00 2.286567e+00 2.698006e+00 2.398282e+00 2.662188e+00 2.671819e+00 3.549076e+00 1.739407e+00 1.582438e+00 9.915222e-03 1.195949e-01 2.947692e-01 2.859592e-01 5.705050e-01 5.459604e-01 5.727233e-01 5.901468e-01 5.105157e-01 5.305027e-01 6.963295e-01 3.564417e-01 3.288329e-01 7.413271e-04
<GCONST> 9.866893e+01
<MIXTURE> 3 9.878124e-02
<MEAN> 39
 -7.272209e-01 -1.733749e+00 1.568269e-01 -1.065190e+00 -5.988370e-01 -1.143914e+00 8.981025e-01 1.609311e+00 4.577895e+00 4.323149e+00 -8.544134e+00 -4.253344e+00 1.870393e+01 -1.751817e-01 1.296561e-01 5.446580e-01 1.357360e+00 1.059646e+00 9.698609e-01 1.070172e+00 -5.610086e-01 -2.103391e-01 -4.662917e-01 -2.047730e-01 -1.723084e-02 -1.655196e-02 3.779966e-01 2.059950e-01 -9.632500e-02 -1.845665e-01 -1.036633e-01 8.109280e-02 -4.540128e-01 8.415817e-02 -1.208593e-01 2.606892e-01 2.989711e-01 8.731070e-02 2.769613e-02
<VARIANCE> 39
 7.023102e+00 2.144566e+01 2.143280e+01 3.435761e+01 4.175610e+01 3.595500e+01 2.615473e+01 4.112591e+01 3.157880e+01 3.103425e+01 3.537751e+01 1.096509e+01 4.772123e-01 9.509415e-01 1.526488e+00 1.122285e+00 2.514457e+00 1.792936e+00 2.132960e+00 2.441586e+00 1.426046e+00 1.913031e+00 2.553749e+00 1.774281e+00 1.580123e+00 3.967290e-03 1.717175e-01 3.830698e-01 3.451273e-01 6.647989e-01 6.385441e-01 5.773386e-01 5.194862e-01 4.483153e-01 4.303851e-01 5.221830e-01 3.747729e-01 2.219533e-01 7.664775e-04
<GCONST> 9.298166e+01
<MIXTURE> 4 1.584643e-01
<MEAN> 39
 -4.110541e+00 -1.464518e+00 -4.819666e+00 -4.251908e-03 8.403840e+00 6.970216e+00 -8.025965e-01 -8.988022e-01 3.265440e+00 4.734979e+00 -7.437571e+00 -2.582709e+00 1.583419e+01 1.222954e-02 -3.724086e-01 -1.746069e-01 -7.521274e-01 -3.641826e-01 2.863416e-02 -4.368101e-01 6.204604e-02 7.078327e-02 1.205318e-01 2.259021e-01 1.874746e-01 -2.710721e-02 2.473533e-02 -4.820456e-03 -3.802949e-02 -2.089481e-01 -1.869441e-01 -1.796006e-01 -1.925260e-01 6.427553e-02 2.745759e-01 2.588443e-01 4.859978e-02 -2.463256e-01 -7.671998e-03
<VARIANCE> 39
 1.505858e+01 2.087951e+01 1.564572e+01 8.451535e+01 3.975959e+01 4.977229e+01 4.676038e+01 2.977977e+01 3.023396e+01 4.861626e+01 2.678926e+01 2.810629e+01 3.590378e+00 7.957792e-01 1.365954e+00 1.882178e+00 3.807775e+00 2.978493e+00 2.867346e+00 3.178623e+00 3.130823e+00 4.607450e+00 5.242964e+00 3.391633e+00 3.694119e+00 1.036814e-01 1.471830e-01 2.724421e-01 3.730387e-01 8.002039e-01 5.906321e-01 5.273889e-01 5.235947e-01 7.321218e-01 7.867981e-01 1.035587e+00 7.390566e-01 7.819247e-01 6.836936e-03
<GCONST> 1.122918e+02
<MIXTURE> 5 1.285628e-01
<MEAN> 39
 -7.536538e-01 8.627917e-01 1.091829e+00 2.298914e+00 5.398700e+00 1.608536e+00 -5.961030e+00 3.585878e-01 5.758174e+00 2.968328e+00 -8.191917e+00 -2.046491e+00 1.851721e+01 1.912344e-01 6.697568e-03 -2.352857e-01 2.785796e-01 4.551256e-01 6.152759e-01 3.768366e-01 1.588806e-01 -6.286232e-01 -5.068482e-01 4.699519e-01 -7.241761e-03 -5.563941e-02 -3.503562e-02 -1.530542e-01 -7.454019e-02 -2.998033e-01 -1.828599e-01 -2.640690e-01 -2.571916e-01 7.872110e-02 -1.832101e-01 2.599034e-01 1.687976e-01 1.579085e-01 4.081838e-03
<VARIANCE> 39
 1.171065e+01 2.350994e+01 2.333693e+01 4.563566e+01 4.153442e+01 4.067767e+01 5.620924e+01 3.948701e+01 2.793441e+01 2.205382e+01 3.912195e+01 2.367498e+01 1.226054e+00 3.250126e-01 6.469862e-01 1.378455e+00 1.320996e+00 1.998145e+00 2.235309e+00 2.737672e+00 2.601949e+00 3.030868e+00 3.370967e+00 2.557283e+00 1.873595e+00 7.957692e-03 6.309459e-02 1.362746e-01 2.472731e-01 3.552876e-01 4.312783e-01 5.332048e-01 6.884547e-01 5.628838e-01 6.624088e-01 4.813561e-01 4.424091e-01 4.032547e-01 5.481233e-04
<GCONST> 9.443673e+01
<MIXTURE> 6 8.461246e-02
<MEAN> 39
 -5.384325e-01 -3.271626e+00 -3.598610e+00 -1.103714e+01 -1.676415e+00 9.557222e-01 -1.075500e+01 4.743426e+00 9.234278e+00 1.399457e+01 -5.989353e+00 -8.848106e+00 1.823713e+01 -4.428920e-01 6.555326e-01 -2.199388e-01 1.319005e-01 -1.103360e-01 9.657178e-03 7.840196e-01 -2.659450e-01 7.591531e-01 1.225004e-01 -3.053132e-01 3.344332e-02 -1.567209e-01 -1.455152e-01 2.336023e-01 2.860239e-01 8.456247e-01 3.349294e-01 3.056982e-01 6.299948e-01 -2.804922e-01 -5.277125e-01 -8.994039e-01 -3.941095e-02 6.003273e-01 -1.611955e-02
<VARIANCE> 39
 1.205534e+01 3.408194e+01 2.686008e+01 1.187392e+02 5.122233e+01 1.034403e+02 8.213364e+01 5.161407e+01 6.443988e+01 4.851750e+01 6.722327e+01 4.183796e+01 2.828693e+00 9.970409e-01 1.337032e+00 1.388734e+00 3.649892e+00 2.575587e+00 2.586586e+00 2.755644e+00 3.279777e+00 6.148423e+00 5.206351e+00 3.305780e+00 4.853058e+00 3.289550e-02 1.616933e-01 3.690766e-01 2.818211e-01 5.685478e-01 4.869689e-01 7.803949e-01 7.076893e-01 7.254031e-01 1.149467e+00 7.902668e-01 7.462023e-01 7.508839e-01 7.367495e-03
<GCONST> 1.166848e+02
<MIXTURE> 7 1.124794e-01
<MEAN> 39
 -1.298219e+00 1.757948e+00 1.535178e+00 2.316592e+00 5.076859e+00 -3.883516e-01 -5.367088e+00 8.402520e-01 4.273667e+00 3.123709e+00 -6.133353e+00 -4.369057e-01 1.833916e+01 -1.434302e-01 -2.356334e-01 -4.563422e-01 -1.582191e-01 4.410073e-01 -2.011648e-01 1.377900e-01 -6.853081e-02 -9.740933e-01 -2.400102e-01 -6.965277e-02 3.133743e-02 -8.849231e-02 -5.759675e-02 -1.312544e-01 6.758811e-04 -2.358389e-01 -3.844728e-01 -2.204507e-01 -3.824160e-01 -1.166245e-01 9.365664e-02 3.028081e-01 -1.785039e-01 -1.006640e-01 -2.104312e-02
<VARIANCE> 39
 8.959012e+00 2.003245e+01 2.389538e+01 2.904032e+01 3.447478e+01 3.980198e+01 5.628946e+01 3.369636e+01 2.409588e+01 2.236364e+01 2.448140e+01 3.026350e+01 1.253663e+00 5.248197e-01 7.104839e-01 1.127811e+00 1.643641e+00 1.953155e+00 2.587902e+00 4.026771e+00 2.301508e+00 2.983900e+00 3.216708e+00 2.277509e+00 2.544695e+00 1.738225e-02 1.014660e-01 1.190676e-01 2.296957e-01 4.583669e-01 3.759971e-01 5.171963e-01 7.667985e-01 5.043235e-01 5.887969e-01 7.347126e-01 4.614779e-01 5.975518e-01 5.462678e-04
<GCONST> 9.585556e+01
<MIXTURE> 8 1.012562e-01
<MEAN> 39
 -4.019759e-01 7.370456e-02 7.410846e+00 1.452378e+00 -5.648879e+00 -2.799512e+00 -5.466539e+00 3.964522e+00 1.097725e+00 1.274674e+00 -2.628809e-01 -1.270648e+00 1.935641e+01 2.063815e-01 9.177268e-02 -1.585558e-01 7.013751e-01 5.743536e-01 6.831051e-01 5.586199e-01 -4.251511e-01 -8.943186e-01 -2.310481e-01 9.647150e-02 -5.542607e-01 -3.449166e-02 1.680561e-01 -2.099556e-01 -2.317194e-01 -1.646932e-01 -8.190590e-03 -1.401535e-01 -5.252018e-01 -6.691464e-02 -6.363131e-02 1.844875e-01 -5.826965e-02 3.025365e-02 6.265033e-03
<VARIANCE> 39
 1.666171e+01 2.410140e+01 4.413601e+01 3.233101e+01 9.010464e+01 5.040916e+01 6.700252e+01 4.139549e+01 4.339711e+01 3.740401e+01 5.115704e+01 2.179146e+01 1.194062e+00 5.214543e-01 8.217093e-01 1.064758e+00 1.855730e+00 2.356555e+00 2.681652e+00 2.318518e+00 3.103611e+00 2.777119e+00 2.380500e+00 2.123334e+00 1.870296e+00 1.068911e-02 1.897770e-01 2.501017e-01 3.452430e-01 3.794431e-01 5.990065e-01 4.985250e-01 7.872889e-01 6.209451e-01 3.913181e-01 5.679367e-01 3.320348e-01 2.119527e-01 1.124785e-03
<GCONST> 1.002982e+02
<TRANSP> 5
 0.000000e+00 1.000000e+00 0.000000e+00 0.000000e+00 0.000000e+00
 0.000000e+00 8.433701e-01 1.566299e-01 0.000000e+00 0.000000e+00
 0.000000e+00 0.000000e+00 7.909420e-01 2.090581e-01 0.000000e+00
 0.000000e+00 0.000000e+00 0.000000e+00 7.635878e-01 2.364123e-01
 0.000000e+00 0.000000e+00 0.000000e+00 0.000000e+00 0.000000e+00
<ENDHMM>
~h "Q"
<BEGINHMM>
<NUMSTATES> 5
<STATE> 2
<NUMMIXES> 8
<MIXTURE> 1 1.250000e-01
<MEAN> 39
 -3.234866e+00 4.901633e+00 6.029965e+00 4.893558e+00 2.667407e+00 3.956803e+00 3.538748e-01 4.098568e+00 4.790926e+00 5.457726e+00 4.625250e+00 3.406473e+00 1.718841e+01 4.817384e-01 6.225236e-01 6.822762e-01 8.234693e-01 8.892800e-01 9.814025e-01 1.030377e+00 9.898865e-01 1.011810e+00 1.020767e+00 9.853208e-01 9.086906e-01 1.218674e-01 1.885150e-01 2.706850e-01 3.045896e-01 3.718402e-01 4.042849e-01 4.449695e-01 4.680352e-01 4.528068e-01 4.623364e-01 4.671512e-01 4.513784e-01 4.171674e-01 4.514359e-02
<VARIANCE> 39
 9.132833e+01 3.750473e+01 5.184167e+01 5.299957e+01 4.542144e+01 5.171822e+01 6.411460e+01 4.173472e+01 3.924054e+01 3.472301e+01 3.778771e+01 3.327573e+01 2.268905e+01 6.444674e-01 1.076510e+00 1.293223e+00 1.883514e+00 2.197024e+00 2.673508e+00 2.949268e+00 2.722457e+00 2.845586e+00 2.895535e+00 2.697424e+00 2.293327e+00 4.128606e-02 9.874837e-02 2.035372e-01 2.576212e-01 3.839478e-01 4.538210e-01 5.496877e-01 6.081111e-01 5.695377e-01 5.939356e-01 6.059731e-01 5.659602e-01 4.834353e-01 5.660130e-03
<GCONST> 1.098248e+02
<MIXTURE> 2 1.250000e-01
<MEAN> 39
 -7.057506e+00 2.451989e+00 3.149919e+00 1.981526e+00 -2.841043e-02 1.080187e+00 -2.848989e+00 1.514472e+00 2.285235e+00 3.100678e+00 2.166382e+00 1.099069e+00 1.528309e+01 1.606234e-01 2.075036e-01 2.273964e-01 2.745045e-01 2.963854e-01 3.273679e-01 3.434402e-01 3.298917e-01 3.370555e-01 3.401160e-01 3.283674e-01 3.029411e-01 4.059148e-02 6.281798e-02 9.022462e-02 1.015640e-01 1.239861e-01 1.348199e-01 1.484058e-01 1.561092e-01 1.509360e-01 1.540677e-01 1.557740e-01 1.504570e-01 1.390494e-01 1.505005e-02
<VARIANCE> 39
 9.132833e+01 3.750473e+01 5.184167e+01 5.299957e+01 4.542144e+01 5.171822e+01 6.411460e+01 4.173472e+01 3.924054e+01 3.472301e+01 3.778771e+01 3.327573e+01 2.268905e+01 6.444674e-01 1.076510e+00 1.293223e+00 1.883514e+00 2.197024e+00 2.673508e+00 2.949268e+00 2.722457e+00 2.845586e+00 2.895535e+00 2.697424e+00 2.293327e+00 4.128606e-02 9.874837e-02 2.035372e-01 2.576212e-01 3.839478e-01 4.538210e-01 5.496877e-01 6.081111e-01 5.695377e-01 5.939356e-01 6.059731e-01 5.659602e-01 4.834353e-01 5.660130e-03
<GCONST> 1.098248e+02
<MIXTURE> 3 1.250000e-01
<MEAN> 39
 -7.057500e+00 2.451989e+00 3.149919e+00 1.981526e+00 -2.841043e-02 1.080187e+00 -2.848989e+00 1.514472e+00 2.285235e+00 3.100678e+00 2.166382e+00 1.099069e+00 1.528309e+01 1.606235e-01 2.075036e-01 2.273964e-01 2.745045e-01 2.963854e-01 3.273679e-01 3.434402e-01 3.298917e-01 3.370556e-01 3.401160e-01 3.283674e-01 3.029412e-01 4.059147e-02 6.281798e-02 9.022462e-02 1.015640e-01 1.239861e-01 1.348199e-01 1.484058e-01 1.561092e-01 1.509360e-01 1.540676e-01 1.557740e-01 1.504571e-01 1.390494e-01 1.505005e-02
<VARIANCE> 39
 9.132833e+01 3.750473e+01 5.184167e+01 5.299957e+01 4.542144e+01 5.171822e+01 6.411460e+01 4.173472e+01 3.924054e+01 3.472301e+01 3.778771e+01 3.327573e+01 2.268905e+01 6.444674e-01 1.076510e+00 1.293223e+00 1.883514e+00 2.197024e+00 2.673508e+00 2.949268e+00 2.722457e+00 2.845586e+00 2.895535e+00 2.697424e+00 2.293327e+00 4.128606e-02 9.874837e-02 2.035372e-01 2.576212e-01 3.839478e-01 4.538210e-01 5.496877e-01 6.081111e-01 5.695377e-01 5.939356e-01 6.059731e-01 5.659602e-01 4.834353e-01 5.660130e-03
<GCONST> 1.098248e+02
<MIXTURE> 4 1.250000e-01
<MEAN> 39
 -1.088014e+01 2.345204e-03 2.698731e-01 -9.305060e-01 -2.724227e+00 -1.796427e+00 -6.051853e+00 -1.069625e+00 -2.204556e-01 7.436283e-01 -2.924858e-01 -1.208336e+00 1.337777e+01 -1.604915e-01 -2.075164e-01 -2.274834e-01 -2.744603e-01 -2.965091e-01 -3.266667e-01 -3.434972e-01 -3.301031e-01 -3.376991e-01 -3.405348e-01 -3.285861e-01 -3.028083e-01 -4.068441e-02 -6.287900e-02 -9.023580e-02 -1.014616e-01 -1.238680e-01 -1.346451e-01 -1.481579e-01 -1.558167e-01 -1.509348e-01 -1.542012e-01 -1.556031e-01 -1.504643e-01 -1.390686e-01 -1.504349e-02
<VARIANCE> 39
 9.132833e+01 3.750473e+01 5.184167e+01 5.299957e+01 4.542144e+01 5.171822e+01 6.411460e+01 4.173472e+01 3.924054e+01 3.472301e+01 3.778771e+01 3.327573e+01 2.268905e+01 6.444674e-01 1.076510e+00 1.293223e+00 1.883514e+00 2.197024e+00 2.673508e+00 2.949268e+00 2.722457e+00 2.845586e+00 2.895535e+00 2.697424e+00 2.293327e+00 4.128606e-02 9.874837e-02 2.035372e-01 2.576212e-01 3.839478e-01 4.538210e-01 5.496877e-01 6.081111e-01 5.695377e-01 5.939356e-01 6.059731e-01 5.659602e-01 4.834353e-01 5.660130e-03
<GCONST> 1.098248e+02
<MIXTURE> 5 1.250000e-01
<MEAN> 39
 -7.057500e+00 2.451989e+00 3.149919e+00 1.981526e+00 -2.841067e-02 1.080187e+00 -2.848989e+00 1.514472e+00 2.285234e+00 3.100677e+00 2.166382e+00 1.099069e+00 1.528309e+01 1.606235e-01 2.075036e-01 2.273964e-01 2.745045e-01 2.963854e-01 3.273679e-01 3.434401e-01 3.298917e-01 3.370556e-01 3.401159e-01 3.283674e-01 3.029412e-01 4.059147e-02 6.281799e-02 9.022461e-02 1.015640e-01 1.239862e-01 1.348199e-01 1.484058e-01 1.561092e-01 1.509359e-01 1.540676e-01 1.557741e-01 1.504571e-01 1.390494e-01 1.505005e-02
<VARIANCE> 39
 9.132833e+01 3.750473e+01 5.184167e+01 5.299957e+01 4.542144e+01 5.171822e+01 6.411460e+01 4.173472e+01 3.924054e+01 3.472301e+01 3.778771e+01 3.327573e+01 2.268905e+01 6.444674e-01 1.076510e+00 1.293223e+00 1.883514e+00 2.197024e+00 2.673508e+00 2.949268e+00 2.722457e+00 2.845586e+00 2.895535e+00 2.697424e+00 2.293327e+00 4.128606e-02 9.874837e-02 2.035372e-01 2.576212e-01 3.839478e-01 4.538210e-01 5.496877e-01 6.081111e-01 5.695377e-01 5.939356e-01 6.059731e-01 5.659602e-01 4.834353e-01 5.660130e-03
<GCONST> 1.098248e+02
<MIXTURE> 6 1.250000e-01
<MEAN> 39
 -1.088014e+01 2.344847e-03 2.698728e-01 -9.305059e-01 -2.724228e+00 -1.796428e+00 -6.051853e+00 -1.069625e+00 -2.204554e-01 7.436283e-01 -2.924860e-01 -1.208336e+00 1.337777e+01 -1.604915e-01 -2.075164e-01 -2.274834e-01 -2.744603e-01 -2.965091e-01 -3.266667e-01 -3.434971e-01 -3.301031e-01 -3.376991e-01 -3.405349e-01 -3.285861e-01 -3.028083e-01 -4.068441e-02 -6.287903e-02 -9.023578e-02 -1.014616e-01 -1.238680e-01 -1.346451e-01 -1.481579e-01 -1.558167e-01 -1.509349e-01 -1.542012e-01 -1.556031e-01 -1.504643e-01 -1.390686e-01 -1.504349e-02
<VARIANCE> 39
 9.132833e+01 3.750473e+01 5.184167e+01 5.299957e+01 4.542144e+01 5.171822e+01 6.411460e+01 4.173472e+01 3.924054e+01 3.472301e+01 3.778771e+01 3.327573e+01 2.268905e+01 6.444674e-01 1.076510e+00 1.293223e+00 1.883514e+00 2.197024e+00 2.673508e+00 2.949268e+00 2.722457e+00 2.845586e+00 2.895535e+00 2.697424e+00 2.293327e+00 4.128606e-02 9.874837e-02 2.035372e-01 2.576212e-01 3.839478e-01 4.538210e-01 5.496877e-01 6.081111e-01 5.695377e-01 5.939356e-01 6.059731e-01 5.659602e-01 4.834353e-01 5.660130e-03
<GCONST> 1.098248e+02
<MIXTURE> 7 1.250000e-01
<MEAN> 39
 -1.088013e+01 2.344847e-03 2.698728e-01 -9.305061e-01 -2.724228e+00 -1.796428e+00 -6.051853e+00 -1.069625e+00 -2.204554e-01 7.436283e-01 -2.924863e-01 -1.208336e+00 1.337777e+01 -1.604914e-01 -2.075164e-01 -2.274835e-01 -2.744602e-01 -2.965091e-01 -3.266667e-01 -3.434971e-01 -3.301031e-01 -3.376990e-01 -3.405349e-01 -3.285860e-01 -3.028082e-01 -4.068442e-02 -6.287903e-02 -9.023577e-02 -1.014616e-01 -1.238680e-01 -1.346451e-01 -1.481579e-01 -1.558167e-01 -1.509349e-01 -1.542013e-01 -1.556031e-01 -1.504642e-01 -1.390686e-01 -1.504349e-02
<VARIANCE> 39
 9.132833e+01 3.750473e+01 5.184167e+01 5.299957e+01 4.542144e+01 5.171822e+01 6.411460e+01 4.173472e+01 3.924054e+01 3.472301e+01 3.778771e+01 3.327573e+01 2.268905e+01 6.444674e-01 1.076510e+00 1.293223e+00 1.883514e+00 2.197024e+00 2.673508e+00 2.949268e+00 2.722457e+00 2.845586e+00 2.895535e+00 2.697424e+00 2.293327e+00 4.128606e-02 9.874837e-02 2.035372e-01 2.576212e-01 3.839478e-01 4.538210e-01 5.496877e-01 6.081111e-01 5.695377e-01 5.939356e-01 6.059731e-01 5.659602e-01 4.834353e-01 5.660130e-03
<GCONST> 1.098248e+02
<MIXTURE> 8 1.250000e-01
<MEAN> 39
 -1.470278e+01 -2.447299e+00 -2.610173e+00 -3.842538e+00 -5.420044e+00 -4.673043e+00 -9.254717e+00 -3.653721e+00 -2.726146e+00 -1.613421e+00 -2.751354e+00 -3.515740e+00 1.147245e+01 -4.816065e-01 -6.225364e-01 -6.823632e-01 -8.234251e-01 -8.894036e-01 -9.807013e-01 -1.030434e+00 -9.900979e-01 -1.012454e+00 -1.021186e+00 -9.855396e-01 -9.085578e-01 -1.219603e-01 -1.885760e-01 -2.706962e-01 -3.044872e-01 -3.717220e-01 -4.041101e-01 -4.447216e-01 -4.677427e-01 -4.528057e-01 -4.624701e-01 -4.669802e-01 -4.513856e-01 -4.171866e-01 -4.513703e-02
<VARIANCE> 39
 9.132833e+01 3.750473e+01 5.184167e+01 5.299957e+01 4.542144e+01 5.171822e+01 6.411460e+01 4.173472e+01 3.924054e+01 3.472301e+01 3.778771e+01 3.327573e+01 2.268905e+01 6.444674e-01 1.076510e+00 1.293223e+00 1.883514e+00 2.197024e+00 2.673508e+00 2.949268e+00 2.722457e+00 2.845586e+00 2.895535e+00 2.697424e+00 2.293327e+00 4.128606e-02 9.874837e-02 2.035372e-01 2.576212e-01 3.839478e-01 4.538210e-01 5.496877e-01 6.081111e-01 5.695377e-01 5.939356e-01 6.059731e-01 5.659602e-01 4.834353e-01 5.660130e-03
<GCONST> 1.098248e+02
<STATE> 3
<NUMMIXES> 8
<MIXTURE> 1 1.250000e-01
<MEAN> 39
 -3.234866e+00 4.901633e+00 6.029965e+00 4.893558e+00 2.667407e+00 3.956803e+00 3.538748e-01 4.098568e+00 4.790926e+00 5.457726e+00 4.625250e+00 3.406473e+00 1.718841e+01 4.817384e-01 6.225236e-01 6.822762e-01 8.234693e-01 8.892800e-01 9.814025e-01 1.030377e+00 9.898865e-01 1.011810e+00 1.020767e+00 9.853208e-01 9.086906e-01 1.218674e-01 1.885150e-01 2.706850e-01 3.045896e-01 3.718402e-01 4.042849e-01 4.449695e-01 4.680352e-01 4.528068e-01 4.623364e-01 4.671512e-01 4.513784e-01 4.171674e-01 4.514359e-02
<VARIANCE> 39
 9.132833e+01 3.750473e+01 5.184167e+01 5.299957e+01 4.542144e+01 5.171822e+01 6.411460e+01 4.173472e+01 3.924054e+01 3.472301e+01 3.778771e+01 3.327573e+01 2.268905e+01 6.444674e-01 1.076510e+00 1.293223e+00 1.883514e+00 2.197024e+00 2.673508e+00 2.949268e+00 2.722457e+00 2.845586e+00 2.895535e+00 2.697424e+00 2.293327e+00 4.128606e-02 9.874837e-02 2.035372e-01 2.576212e-01 3.839478e-01 4.538210e-01 5.496877e-01 6.081111e-01 5.695377e-01 5.939356e-01 6.059731e-01 5.659602e-01 4.834353e-01 5.660130e-03
<GCONST> 1.098248e+02
<MIXTURE> 2 1.250000e-01
<MEAN> 39
 -7.057506e+00 2.451989e+00 3.149919e+00 1.981526e+00 -2.841043e-02 1.080187e+00 -2.848989e+00 1.514472e+00 2.285235e+00 3.100678e+00 2.166382e+00 1.099069e+00 1.528309e+01 1.606234e-01 2.075036e-01 2.273964e-01 2.745045e-01 2.963854e-01 3.273679e-01 3.434402e-01 3.298917e-01 3.370555e-01 3.401160e-01 3.283674e-01 3.029411e-01 4.059148e-02 6.281798e-02 9.022462e-02 1.015640e-01 1.239861e-01 1.348199e-01 1.484058e-01 1.561092e-01 1.509360e-01 1.540677e-01 1.557740e-01 1.504570e-01 1.390494e-01 1.505005e-02
<VARIANCE> 39
 9.132833e+01 3.750473e+01 5.184167e+01 5.299957e+01 4.542144e+01 5.171822e+01 6.411460e+01 4.173472e+01 3.924054e+01 3.472301e+01 3.778771e+01 3.327573e+01 2.268905e+01 6.444674e-01 1.076510e+00 1.293223e+00 1.883514e+00 2.197024e+00 2.673508e+00 2.949268e+00 2.722457e+00 2.845586e+00 2.895535e+00 2.697424e+00 2.293327e+00 4.128606e-02 9.874837e-02 2.035372e-01 2.576212e-01 3.839478e-01 4.538210e-01 5.496877e-01 6.081111e-01 5.695377e-01 5.939356e-01 6.059731e-01 5.659602e-01 4.834353e-01 5.660130e-03
<GCONST> 1.098248e+02
<MIXTURE> 3 1.250000e-01
<MEAN> 39
 -7.057500e+00 2.451989e+00 3.149919e+00 1.981526e+00 -2.841043e-02 1.080187e+00 -2.848989e+00 1.514472e+00 2.285235e+00 3.100678e+00 2.166382e+00 1.099069e+00 1.528309e+01 1.606235e-01 2.075036e-01 2.273964e-01 2.745045e-01 2.963854e-01 3.273679e-01 3.434402e-01 3.298917e-01 3.370556e-01 3.401160e-01 3.283674e-01 3.029412e-01 4.059147e-02 6.281798e-02 9.022462e-02 1.015640e-01 1.239861e-01 1.348199e-01 1.484058e-01 1.561092e-01 1.509360e-01 1.540676e-01 1.557740e-01 1.504571e-01 1.390494e-01 1.505005e-02
<VARIANCE> 39
 9.132833e+01 3.750473e+01 5.184167e+01 5.299957e+01 4.542144e+01 5.171822e+01 6.411460e+01 4.173472e+01 3.924054e+01 3.472301e+01 3.778771e+01 3.327573e+01 2.268905e+01 6.444674e-01 1.076510e+00 1.293223e+00 1.883514e+00 2.197024e+00 2.673508e+00 2.949268e+00 2.722457e+00 2.845586e+00 2.895535e+00 2.697424e+00 2.293327e+00 4.128606e-02 9.874837e-02 2.035372e-01 2.576212e-01 3.839478e-01 4.538210e-01 5.496877e-01 6.081111e-01 5.695377e-01 5.939356e-01 6.059731e-01 5.659602e-01 4.834353e-01 5.660130e-03
<GCONST> 1.098248e+02
<MIXTURE> 4 1.250000e-01
<MEAN> 39
 -1.088014e+01 2.345204e-03 2.698731e-01 -9.305060e-01 -2.724227e+00 -1.796427e+00 -6.051853e+00 -1.069625e+00 -2.204556e-01 7.436283e-01 -2.924858e-01 -1.208336e+00 1.337777e+01 -1.604915e-01 -2.075164e-01 -2.274834e-01 -2.744603e-01 -2.965091e-01 -3.266667e-01 -3.434972e-01 -3.301031e-01 -3.376991e-01 -3.405348e-01 -3.285861e-01 -3.028083e-01 -4.068441e-02 -6.287900e-02 -9.023580e-02 -1.014616e-01 -1.238680e-01 -1.346451e-01 -1.481579e-01 -1.558167e-01 -1.509348e-01 -1.542012e-01 -1.556031e-01 -1.504643e-01 -1.390686e-01 -1.504349e-02
<VARIANCE> 39
 9.132833e+01 3.750473e+01 5.184167e+01 5.299957e+01 4.542144e+01 5.171822e+01 6.411460e+01 4.173472e+01 3.924054e+01 3.472301e+01 3.778771e+01 3.327573e+01 2.268905e+01 6.444674e-01 1.076510e+00 1.293223e+00 1.883514e+00 2.197024e+00 2.673508e+00 2.949268e+00 2.722457e+00 2.845586e+00 2.895535e+00 2.697424e+00 2.293327e+00 4.128606e-02 9.874837e-02 2.035372e-01 2.576212e-01 3.839478e-01 4.538210e-01 5.496877e-01 6.081111e-01 5.695377e-01 5.939356e-01 6.059731e-01 5.659602e-01 4.834353e-01 5.660130e-03
<GCONST> 1.098248e+02
<MIXTURE> 5 1.250000e-01
<MEAN> 39
 -7.057500e+00 2.451989e+00 3.149919e+00 1.981526e+00 -2.841067e-02 1.080187e+00 -2.848989e+00 1.514472e+00 2.285234e+00 3.100677e+00 2.166382e+00 1.099069e+00 1.528309e+01 1.606235e-01 2.075036e-01 2.273964e-01 2.745045e-01 2.963854e-01 3.273679e-01 3.434401e-01 3.298917e-01 3.370556e-01 3.401159e-01 3.283674e-01 3.029412e-01 4.059147e-02 6.281799e-02 9.022461e-02 1.015640e-01 1.239862e-01 1.348199e-01 1.484058e-01 1.561092e-01 1.509359e-01 1.540676e-01 1.557741e-01 1.504571e-01 1.390494e-01 1.505005e-02
<VARIANCE> 39
 9.132833e+01 3.750473e+01 5.184167e+01 5.299957e+01 4.542144e+01 5.171822e+01 6.411460e+01 4.173472e+01 3.924054e+01 3.472301e+01 3.778771e+01 3.327573e+01 2.268905e+01 6.444674e-01 1.076510e+00 1.293223e+00 1.883514e+00 2.197024e+00 2.673508e+00 2.949268e+00 2.722457e+00 2.845586e+00 2.895535e+00 2.697424e+00 2.293327e+00 4.128606e-02 9.874837e-02 2.035372e-01 2.576212e-01 3.839478e-01 4.538210e-01 5.496877e-01 6.081111e-01 5.695377e-01 5.939356e-01 6.059731e-01 5.659602e-01 4.834353e-01 5.660130e-03
<GCONST> 1.098248e+02
<MIXTURE> 6 1.250000e-01
<MEAN> 39
 -1.088014e+01 2.344847e-03 2.698728e-01 -9.305059e-01 -2.724228e+00 -1.796428e+00 -6.051853e+00 -1.069625e+00 -2.204554e-01 7.436283e-01 -2.924860e-01 -1.208336e+00 1.337777e+01 -1.604915e-01 -2.075164e-01 -2.274834e-01 -2.744603e-01 -2.965091e-01 -3.266667e-01 -3.434971e-01 -3.301031e-01 -3.376991e-01 -3.405349e-01 -3.285861e-01 -3.028083e-01 -4.068441e-02 -6.287903e-02 -9.023578e-02 -1.014616e-01 -1.238680e-01 -1.346451e-01 -1.481579e-01 -1.558167e-01 -1.509349e-01 -1.542012e-01 -1.556031e-01 -1.504643e-01 -1.390686e-01 -1.504349e-02
<VARIANCE> 39
 9.132833e+01 3.750473e+01 5.184167e+01 5.299957e+01 4.542144e+01 5.171822e+01 6.411460e+01 4.173472e+01 3.924054e+01 3.472301e+01 3.778771e+01 3.327573e+01 2.268905e+01 6.444674e-01 1.076510e+00 1.293223e+00 1.883514e+00 2.197024e+00 2.673508e+00 2.949268e+00 2.722457e+00 2.845586e+00 2.895535e+00 2.697424e+00 2.293327e+00 4.128606e-02 9.874837e-02 2.035372e-01 2.576212e-01 3.839478e-01 4.538210e-01 5.496877e-01 6.081111e-01 5.695377e-01 5.939356e-01 6.059731e-01 5.659602e-01 4.834353e-01 5.660130e-03
<GCONST> 1.098248e+02
<MIXTURE> 7 1.250000e-01
<MEAN> 39
 -1.088013e+01 2.344847e-03 2.698728e-01 -9.305061e-01 -2.724228e+00 -1.796428e+00 -6.051853e+00 -1.069625e+00 -2.204554e-01 7.436283e-01 -2.924863e-01 -1.208336e+00 1.337777e+01 -1.604914e-01 -2.075164e-01 -2.274835e-01 -2.744602e-01 -2.965091e-01 -3.266667e-01 -3.434971e-01 -3.301031e-01 -3.376990e-01 -3.405349e-01 -3.285860e-01 -3.028082e-01 -4.068442e-02 -6.287903e-02 -9.023577e-02 -1.014616e-01 -1.238680e-01 -1.346451e-01 -1.481579e-01 -1.558167e-01 -1.509349e-01 -1.542013e-01 -1.556031e-01 -1.504642e-01 -1.390686e-01 -1.504349e-02
<VARIANCE> 39
 9.132833e+01 3.750473e+01 5.184167e+01 5.299957e+01 4.542144e+01 5.171822e+01 6.411460e+01 4.173472e+01 3.924054e+01 3.472301e+01 3.778771e+01 3.327573e+01 2.268905e+01 6.444674e-01 1.076510e+00 1.293223e+00 1.883514e+00 2.197024e+00 2.673508e+00 2.949268e+00 2.722457e+00 2.845586e+00 2.895535e+00 2.697424e+00 2.293327e+00 4.128606e-02 9.874837e-02 2.035372e-01 2.576212e-01 3.839478e-01 4.538210e-01 5.496877e-01 6.081111e-01 5.695377e-01 5.939356e-01 6.059731e-01 5.659602e-01 4.834353e-01 5.660130e-03
<GCONST> 1.098248e+02
<MIXTURE> 8 1.250000e-01
<MEAN> 39
 -1.470278e+01 -2.447299e+00 -2.610173e+00 -3.842538e+00 -5.420044e+00 -4.673043e+00 -9.254717e+00 -3.653721e+00 -2.726146e+00 -1.613421e+00 -2.751354e+00 -3.515740e+00 1.147245e+01 -4.816065e-01 -6.225364e-01 -6.823632e-01 -8.234251e-01 -8.894036e-01 -9.807013e-01 -1.030434e+00 -9.900979e-01 -1.012454e+00 -1.021186e+00 -9.855396e-01 -9.085578e-01 -1.219603e-01 -1.885760e-01 -2.706962e-01 -3.044872e-01 -3.717220e-01 -4.041101e-01 -4.447216e-01 -4.677427e-01 -4.528057e-01 -4.624701e-01 -4.669802e-01 -4.513856e-01 -4.171866e-01 -4.513703e-02
<VARIANCE> 39
 9.132833e+01 3.750473e+01 5.184167e+01 5.299957e+01 4.542144e+01 5.171822e+01 6.411460e+01 4.173472e+01 3.924054e+01 3.472301e+01 3.778771e+01 3.327573e+01 2.268905e+01 6.444674e-01 1.076510e+00 1.293223e+00 1.883514e+00 2.197024e+00 2.673508e+00 2.949268e+00 2.722457e+00 2.845586e+00 2.895535e+00 2.697424e+00 2.293327e+00 4.128606e-02 9.874837e-02 2.035372e-01 2.576212e-01 3.839478e-01 4.538210e-01 5.496877e-01 6.081111e-01 5.695377e-01 5.939356e-01 6.059731e-01 5.659602e-01 4.834353e-01 5.660130e-03
<GCONST> 1.098248e+02
<STATE> 4
<NUMMIXES> 8
<MIXTURE> 1 1.250000e-01
<MEAN> 39
 -3.234866e+00 4.901633e+00 6.029965e+00 4.893558e+00 2.667407e+00 3.956803e+00 3.538748e-01 4.098568e+00 4.790926e+00 5.457726e+00 4.625250e+00 3.406473e+00 1.718841e+01 4.817384e-01 6.225236e-01 6.822762e-01 8.234693e-01 8.892800e-01 9.814025e-01 1.030377e+00 9.898865e-01 1.011810e+00 1.020767e+00 9.853208e-01 9.086906e-01 1.218674e-01 1.885150e-01 2.706850e-01 3.045896e-01 3.718402e-01 4.042849e-01 4.449695e-01 4.680352e-01 4.528068e-01 4.623364e-01 4.671512e-01 4.513784e-01 4.171674e-01 4.514359e-02
<VARIANCE> 39
 9.132833e+01 3.750473e+01 5.184167e+01 5.299957e+01 4.542144e+01 5.171822e+01 6.411460e+01 4.173472e+01 3.924054e+01 3.472301e+01 3.778771e+01 3.327573e+01 2.268905e+01 6.444674e-01 1.076510e+00 1.293223e+00 1.883514e+00 2.197024e+00 2.673508e+00 2.949268e+00 2.722457e+00 2.845586e+00 2.895535e+00 2.697424e+00 2.293327e+00 4.128606e-02 9.874837e-02 2.035372e-01 2.576212e-01 3.839478e-01 4.538210e-01 5.496877e-01 6.081111e-01 5.695377e-01 5.939356e-01 6.059731e-01 5.659602e-01 4.834353e-01 5.660130e-03
<GCONST> 1.098248e+02
<MIXTURE> 2 1.250000e-01
<MEAN> 39
 -7.057506e+00 2.451989e+00 3.149919e+00 1.981526e+00 -2.841043e-02 1.080187e+00 -2.848989e+00 1.514472e+00 2.285235e+00 3.100678e+00 2.166382e+00 1.099069e+00 1.528309e+01 1.606234e-01 2.075036e-01 2.273964e-01 2.745045e-01 2.963854e-01 3.273679e-01 3.434402e-01 3.298917e-01 3.370555e-01 3.401160e-01 3.283674e-01 3.029411e-01 4.059148e-02 6.281798e-02 9.022462e-02 1.015640e-01 1.239861e-01 1.348199e-01 1.484058e-01 1.561092e-01 1.509360e-01 1.540677e-01 1.557740e-01 1.504570e-01 1.390494e-01 1.505005e-02
<VARIANCE> 39
 9.132833e+01 3.750473e+01 5.184167e+01 5.299957e+01 4.542144e+01 5.171822e+01 6.411460e+01 4.173472e+01 3.924054e+01 3.472301e+01 3.778771e+01 3.327573e+01 2.268905e+01 6.444674e-01 1.076510e+00 1.293223e+00 1.883514e+00 2.197024e+00 2.673508e+00 2.949268e+00 2.722457e+00 2.845586e+00 2.895535e+00 2.697424e+00 2.293327e+00 4.128606e-02 9.874837e-02 2.035372e-01 2.576212e-01 3.839478e-01 4.538210e-01 5.496877e-01 6.081111e-01 5.695377e-01 5.939356e-01 6.059731e-01 5.659602e-01 4.834353e-01 5.660130e-03
<GCONST> 1.098248e+02
<MIXTURE> 3 1.250000e-01
<MEAN> 39
 -7.057500e+00 2.451989e+00 3.149919e+00 1.981526e+00 -2.841043e-02 1.080187e+00 -2.848989e+00 1.514472e+00 2.285235e+00 3.100678e+00 2.166382e+00 1.099069e+00 1.528309e+01 1.606235e-01 2.075036e-01 2.273964e-01 2.745045e-01 2.963854e-01 3.273679e-01 3.434402e-01 3.298917e-01 3.370556e-01 3.401160e-01 3.283674e-01 3.029412e-01 4.059147e-02 6.281798e-02 9.022462e-02 1.015640e-01 1.239861e-01 1.348199e-01 1.484058e-01 1.561092e-01 1.509360e-01 1.540676e-01 1.557740e-01 1.504571e-01 1.390494e-01 1.505005e-02
<VARIANCE> 39
 9.132833e+01 3.750473e+01 5.184167e+01 5.299957e+01 4.542144e+01 5.171822e+01 6.411460e+01 4.173472e+01 3.924054e+01 3.472301e+01 3.778771e+01 3.327573e+01 2.268905e+01 6.444674e-01 1.076510e+00 1.293223e+00 1.883514e+00 2.197024e+00 2.673508e+00 2.949268e+00 2.722457e+00 2.845586e+00 2.895535e+00 2.697424e+00 2.293327e+00 4.128606e-02 9.874837e-02 2.035372e-01 2.576212e-01 3.839478e-01 4.538210e-01 5.496877e-01 6.081111e-01 5.695377e-01 5.939356e-01 6.059731e-01 5.659602e-01 4.834353e-01 5.660130e-03
<GCONST> 1.098248e+02
<MIXTURE> 4 1.250000e-01
<MEAN> 39
 -1.088014e+01 2.345204e-03 2.698731e-01 -9.305060e-01 -2.724227e+00 -1.796427e+00 -6.051853e+00 -1.069625e+00 -2.204556e-01 7.436283e-01 -2.924858e-01 -1.208336e+00 1.337777e+01 -1.604915e-01 -2.075164e-01 -2.274834e-01 -2.744603e-01 -2.965091e-01 -3.266667e-01 -3.434972e-01 -3.301031e-01 -3.376991e-01 -3.405348e-01 -3.285861e-01 -3.028083e-01 -4.068441e-02 -6.287900e-02 -9.023580e-02 -1.014616e-01 -1.238680e-01 -1.346451e-01 -1.481579e-01 -1.558167e-01 -1.509348e-01 -1.542012e-01 -1.556031e-01 -1.504643e-01 -1.390686e-01 -1.504349e-02
<VARIANCE> 39
 9.132833e+01 3.750473e+01 5.184167e+01 5.299957e+01 4.542144e+01 5.171822e+01 6.411460e+01 4.173472e+01 3.924054e+01 3.472301e+01 3.778771e+01 3.327573e+01 2.268905e+01 6.444674e-01 1.076510e+00 1.293223e+00 1.883514e+00 2.197024e+00 2.673508e+00 2.949268e+00 2.722457e+00 2.845586e+00 2.895535e+00 2.697424e+00 2.293327e+00 4.128606e-02 9.874837e-02 2.035372e-01 2.576212e-01 3.839478e-01 4.538210e-01 5.496877e-01 6.081111e-01 5.695377e-01 5.939356e-01 6.059731e-01 5.659602e-01 4.834353e-01 5.660130e-03
<GCONST> 1.098248e+02
<MIXTURE> 5 1.250000e-01
<MEAN> 39
 -7.057500e+00 2.451989e+00 3.149919e+00 1.981526e+00 -2.841067e-02 1.080187e+00 -2.848989e+00 1.514472e+00 2.285234e+00 3.100677e+00 2.166382e+00 1.099069e+00 1.528309e+01 1.606235e-01 2.075036e-01 2.273964e-01 2.745045e-01 2.963854e-01 3.273679e-01 3.434401e-01 3.298917e-01 3.370556e-01 3.401159e-01 3.283674e-01 3.029412e-01 4.059147e-02 6.281799e-02 9.022461e-02 1.015640e-01 1.239862e-01 1.348199e-01 1.484058e-01 1.561092e-01 1.509359e-01 1.540676e-01 1.557741e-01 1.504571e-01 1.390494e-01 1.505005e-02
<VARIANCE> 39
 9.132833e+01 3.750473e+01 5.184167e+01 5.299957e+01 4.542144e+01 5.171822e+01 6.411460e+01 4.173472e+01 3.924054e+01 3.472301e+01 3.778771e+01 3.327573e+01 2.268905e+01 6.444674e-01 1.076510e+00 1.293223e+00 1.883514e+00 2.197024e+00 2.673508e+00 2.949268e+00 2.722457e+00 2.845586e+00 2.895535e+00 2.697424e+00 2.293327e+00 4.128606e-02 9.874837e-02 2.035372e-01 2.576212e-01 3.839478e-01 4.538210e-01 5.496877e-01 6.081111e-01 5.695377e-01 5.939356e-01 6.059731e-01 5.659602e-01 4.834353e-01 5.660130e-03
<GCONST> 1.098248e+02
<MIXTURE> 6 1.250000e-01
<MEAN> 39
 -1.088014e+01 2.344847e-03 2.698728e-01 -9.305059e-01 -2.724228e+00 -1.796428e+00 -6.051853e+00 -1.069625e+00 -2.204554e-01 7.436283e-01 -2.924860e-01 -1.208336e+00 1.337777e+01 -1.604915e-01 -2.075164e-01 -2.274834e-01 -2.744603e-01 -2.965091e-01 -3.266667e-01 -3.434971e-01 -3.301031e-01 -3.376991e-01 -3.405349e-01 -3.285861e-01 -3.028083e-01 -4.068441e-02 -6.287903e-02 -9.023578e-02 -1.014616e-01 -1.238680e-01 -1.346451e-01 -1.481579e-01 -1.558167e-01 -1.509349e-01 -1.542012e-01 -1.556031e-01 -1.504643e-01 -1.390686e-01 -1.504349e-02
<VARIANCE> 39
 9.132833e+01 3.750473e+01 5.184167e+01 5.299957e+01 4.542144e+01 5.171822e+01 6.411460e+01 4.173472e+01 3.924054e+01 3.472301e+01 3.778771e+01 3.327573e+01 2.268905e+01 6.444674e-01 1.076510e+00 1.293223e+00 1.883514e+00 2.197024e+00 2.673508e+00 2.949268e+00 2.722457e+00 2.845586e+00 2.895535e+00 2.697424e+00 2.293327e+00 4.128606e-02 9.874837e-02 2.035372e-01 2.576212e-01 3.839478e-01 4.538210e-01 5.496877e-01 6.081111e-01 5.695377e-01 5.939356e-01 6.059731e-01 5.659602e-01 4.834353e-01 5.660130e-03
<GCONST> 1.098248e+02
<MIXTURE> 7 1.250000e-01
<MEAN> 39
 -1.088013e+01 2.344847e-03 2.698728e-01 -9.305061e-01 -2.724228e+00 -1.796428e+00 -6.051853e+00 -1.069625e+00 -2.204554e-01 7.436283e-01 -2.924863e-01 -1.208336e+00 1.337777e+01 -1.604914e-01 -2.075164e-01 -2.274835e-01 -2.744602e-01 -2.965091e-01 -3.266667e-01 -3.434971e-01 -3.301031e-01 -3.376990e-01 -3.405349e-01 -3.285860e-01 -3.028082e-01 -4.068442e-02 -6.287903e-02 -9.023577e-02 -1.014616e-01 -1.238680e-01 -1.346451e-01 -1.481579e-01 -1.558167e-01 -1.509349e-01 -1.542013e-01 -1.556031e-01 -1.504642e-01 -1.390686e-01 -1.504349e-02
<VARIANCE> 39
 9.132833e+01 3.750473e+01 5.184167e+01 5.299957e+01 4.542144e+01 5.171822e+01 6.411460e+01 4.173472e+01 3.924054e+01 3.472301e+01 3.778771e+01 3.327573e+01 2.268905e+01 6.444674e-01 1.076510e+00 1.293223e+00 1.883514e+00 2.197024e+00 2.673508e+00 2.949268e+00 2.722457e+00 2.845586e+00 2.895535e+00 2.697424e+00 2.293327e+00 4.128606e-02 9.874837e-02 2.035372e-01 2.576212e-01 3.839478e-01 4.538210e-01 5.496877e-01 6.081111e-01 5.695377e-01 5.939356e-01 6.059731e-01 5.659602e-01 4.834353e-01 5.660130e-03
<GCONST> 1.098248e+02
<MIXTURE> 8 1.250000e-01
<MEAN> 39
 -1.470278e+01 -2.447299e+00 -2.610173e+00 -3.842538e+00 -5.420044e+00 -4.673043e+00 -9.254717e+00 -3.653721e+00 -2.726146e+00 -1.613421e+00 -2.751354e+00 -3.515740e+00 1.147245e+01 -4.816065e-01 -6.225364e-01 -6.823632e-01 -8.234251e-01 -8.894036e-01 -9.807013e-01 -1.030434e+00 -9.900979e-01 -1.012454e+00 -1.021186e+00 -9.855396e-01 -9.085578e-01 -1.219603e-01 -1.885760e-01 -2.706962e-01 -3.044872e-01 -3.717220e-01 -4.041101e-01 -4.447216e-01 -4.677427e-01 -4.528057e-01 -4.624701e-01 -4.669802e-01 -4.513856e-01 -4.171866e-01 -4.513703e-02
<VARIANCE> 39
 9.132833e+01 3.750473e+01 5.184167e+01 5.299957e+01 4.542144e+01 5.171822e+01 6.411460e+01 4.173472e+01 3.924054e+01 3.472301e+01 3.778771e+01 3.327573e+01 2.268905e+01 6.444674e-01 1.076510e+00 1.293223e+00 1.883514e+00 2.197024e+00 2.673508e+00 2.949268e+00 2.722457e+00 2.845586e+00 2.895535e+00 2.697424e+00 2.293327e+00 4.128606e-02 9.874837e-02 2.035372e-01 2.576212e-01 3.839478e-01 4.538210e-01 5.496877e-01 6.081111e-01 5.695377e-01 5.939356e-01 6.059731e-01 5.659602e-01 4.834353e-01 5.660130e-03
<GCONST> 1.098248e+02
<TRANSP> 5
 0.000000e+00 1.000000e+00 0.000000e+00 0.000000e+00 0.000000e+00
 0.000000e+00 5.000000e-01 5.000000e-01 0.000000e+00 0.000000e+00
 0.000000e+00 0.000000e+00 5.000000e-01 5.000000e-01 0.000000e+00
 0.000000e+00 0.000000e+00 0.000000e+00 5.000000e-01 5.000000e-01
 0.000000e+00 0.000000e+00 0.000000e+00 0.000000e+00 0.000000e+00
<ENDHMM>
~h "a"
<BEGINHMM>
<NUMSTATES> 5
<STATE> 2
<NUMMIXES> 8
<MIXTURE> 1 1.291625e-01
<MEAN> 39
 -2.286100e+00 -9.573503e+00 3.160062e+00 -7.930015e+00 -1.060814e+01 -4.572802e+00 -7.970204e+00 1.777409e+01 6.132534e+00 5.111012e+00 -4.256076e+00 -3.368220e+00 1.923715e+01 5.599658e-02 8.974496e-01 -8.451953e-02 9.189854e-01 2.498890e-01 -2.234333e-01 1.477361e+00 -3.287098e-01 5.554383e-01 -1.765745e-01 -8.611496e-01 2.377257e-01 1.329280e-02 7.746531e-02 1.920061e-01 -1.027603e-01 5.752189e-01 2.981259e-01 4.412339e-01 3.044223e-01 -8.090468e-01 -3.817597e-01 -2.199021e-01 6.158309e-02 1.137646e-01 -2.033302e-02
<VARIANCE> 39
 9.210878e+00 2.699946e+01 4.712233e+01 2.347729e+01 3.755400e+01 6.213354e+01 5.337534e+01 3.231697e+01 3.580386e+01 3.019766e+01 4.090788e+01 4.882548e+01 4.423564e-01 7.711949e-01 1.125291e+00 1.260158e+00 1.843796e+00 1.634690e+00 2.292036e+00 2.969649e+00 2.731933e+00 2.347066e+00 1.709874e+00 1.302333e+00 1.472072e+00 1.900023e-02 1.114856e-01 2.868731e-01 2.237673e-01 3.113225e-01 2.928309e-01 5.469810e-01 5.996891e-01 3.695199e-01 4.059213e-01 3.655849e-01 4.149148e-01 3.999245e-01 1.362092e-03
<GCONST> 9.562491e+01
<MIXTURE> 2 9.827841e-02
<MEAN> 39
 1.012958e+00 -5.067279e+00 -1.722525e+00 -5.051550e+00 -7.475899e+00 9.072574e-01 -7.386973e+00 7.153030e+00 3.460970e+00 3.412107e+00 -2.878541e+00 -1.899068e+00 1.957218e+01 3.170329e-01 -6.050728e-01 -4.115410e-01 -4.543336e-01 -5.098696e-01 -4.022893e-02 -1.381404e-01 7.965882e-01 6.743354e-01 3.929215e-01 -2.467982e-01 -4.867083e-01 9.929398e-02 -2.790596e-01 5.953446e-02 1.894490e-01 1.935646e-01 1.748770e-01 4.012841e-02 1.999971e-01 -9.833182e-02 -4.454450e-02 -1.438789e-01 5.916796e-02 -1.322007e-01 -3.562988e-02
<VARIANCE> 39
 1.341060e+01 3.821541e+01 4.809234e+01 6.608687e+01 3.437842e+01 1.125585e+02 4.763064e+01 4.482611e+01 3.049868e+01 2.685182e+01 3.556222e+01 3.757410e+01 1.028571e+00 7.440917e-01 1.056402e+00 1.158917e+00 2.670345e+00 1.894757e+00 2.459533e+00 2.116272e+00 2.084961e+00 1.875638e+00 2.330892e+00 1.857567e+00 1.663937e+00 2.454090e-02 1.341329e-01 2.237048e-01 2.239425e-01 5.844753e-01 4.215572e-01 4.713832e-01 4.160590e-01 4.158296e-01 4.997366e-01 4.607819e-01 2.856793e-01 2.601614e-01 4.255923e-03
<GCONST> 1.002129e+02
<MIXTURE> 3 9.585475e-02
<MEAN> 39
 -9.708843e+00 -6.107601e+00 -1.413372e+00 4.328638e+00 -3.061002e+00 1.929484e+00 2.202092e+00 7.458555e+00 2.408523e+00 -4.102997e-01 -6.803674e+00 -2.934426e+00 1.547653e+01 5.308362e-01 6.493883e-01 7.175359e-01 7.030156e-01 2.574739e-01 2.456579e-02 -2.334893e-01 -4.924856e-01 -4.185903e-01 -1.801933e-01 4.901372e-01 1.507305e-01 1.823317e-01 4.126661e-01 -1.582177e-01 3.913971e-02 -6.080504e-01 -4.753984e-01 -1.567262e-01 -2.328638e-01 1.735969e-01 1.501791e-01 2.386180e-01 1.390552e-01 -6.567070e-02 1.379918e-01
<VARIANCE> 39
 1.638035e+01 1.684922e+01 3.351043e+01 2.971099e+01 4.181347e+01 3.202591e+01 2.623514e+01 2.689451e+01 3.782318e+01 4.507817e+01 2.952436e+01 4.114813e+01 2.685684e+00 1.245102e+00 1.221684e+00 1.604845e+00 2.468250e+00 2.716074e+00 3.087889e+00 3.069751e+00 3.054992e+00 2.734294e+00 2.361687e+00 2.863097e+00 2.955586e+00 1.660336e-01 1.700546e-01 4.202887e-01 3.201796e-01 5.479164e-01 6.069108e-01 5.745877e-01 6.699623e-01 6.775656e-01 6.559032e-01 5.318918e-01 7.092663e-01 6.885239e-01 1.217037e-02
<GCONST> 1.094570e+02
<MIXTURE> 4 1.487618e-01
<MEAN> 39
 -3.409723e+00 -1.155386e+01 3.445764e+00 -5.711735e+00 -8.983353e+00 -2.536869e-01 -7.967459e+00 1.170812e+01 -1.787441e-01 2.533511e+00 -2.352466e+00 -3.612028e+00 1.867109e+01 -1.888009e-05 -1.787756e+00 5.175326e-01 -1.790243e+00 -1.000008e+00 -4.653895e-01 -1.326726e+00 2.292745e+00 4.524229e-01 5.075151e-01 -7.007929e-03 -1.093405e+00 1.866670e-01 -7.924832e-02 6.547554e-01 -2.748981e-01 3.400397e-01 -1.212038e-02 -6.069894e-01 6.511021e-01 4.773666e-02 6.932535e-01 1.003990e-01 -5.497643e-01 2.262699e-01 -8.435405e-02
<VARIANCE> 39
 8.922531e+00 2.554270e+01 3.886323e+01 1.895697e+01 2.608012e+01 2.210999e+01 3.633249e+01 2.725082e+01 2.157354e+01 1.732063e+01 2.127549e+01 2.392633e+01 7.493479e-01 9.512140e-01 2.246555e+00 1.002980e+00 1.488753e+00 1.520389e+00 3.417291e+00 2.723876e+00 2.407175e+00 3.286725e+00 1.841652e+00 3.286478e+00 2.292541e+00 4.809524e-02 1.884783e-01 4.775672e-01 2.517817e-01 5.153798e-01 4.674829e-01 5.567390e-01 5.118699e-01 6.315987e-01 5.877023e-01 4.008379e-01 6.185296e-01 5.004430e-01 9.245042e-03
<GCONST> 1.000776e+02
<MIXTURE> 5 1.915093e-01
<MEAN> 39
 -3.479331e+00 -6.214890e+00 -2.236286e+00 -2.983780e+00 -8.218649e+00 -2.085665e+00 -1.168600e+00 1.033227e+01 7.905501e+00 4.847641e+00 -7.714221e+00 -3.162550e+00 1.837331e+01 -2.271604e-01 2.527546e-01 1.580011e-01 9.315422e-01 7.871321e-01 1.069811e+00 3.317118e-01 -7.496956e-01 -1.131743e+00 -7.718850e-01 4.998505e-01 3.009838e-01 -6.736985e-02 1.073145e-01 -3.768187e-01 1.730675e-01 -2.683372e-01 -1.946361e-02 4.609399e-02 -7.047392e-01 1.696156e-01 -4.197303e-01 -8.941332e-02 3.382512e-01 -1.894211e-01 3.380564e-02
<VARIANCE> 39
 1.862980e+01 1.570619e+01 5.884620e+01 2.779592e+01 3.084632e+01 4.906198e+01 4.958841e+01 4.494621e+01 3.926994e+01 3.103694e+01 3.848367e+01 5.505027e+01 1.921342e+00 8.973769e-01 1.741556e+00 1.538714e+00 2.517078e+00 1.548596e+00 2.447796e+00 3.260839e+00 4.186076e+00 2.903724e+00 1.827824e+00 2.907702e+00 2.482636e+00 4.550057e-02 1.795879e-01 2.782874e-01 2.883455e-01 4.796279e-01 3.076999e-01 5.217745e-01 4.929681e-01 7.239187e-01 5.466325e-01 3.142638e-01 5.122901e-01 3.433178e-01 3.000610e-03
<GCONST> 1.043644e+02
<MIXTURE> 6 8.947176e-02
<MEAN> 39
 -4.107624e+00 -1.124594e+01 6.270006e-02 -7.390302e+00 -1.201860e+01 -6.660515e+00 -7.136781e+00 1.598854e+01 7.864468e+00 5.860077e+00 -7.085330e+00 -6.228724e+00 1.844004e+01 -4.775692e-01 1.346096e+00 -7.884094e-01 5.564847e-01 -7.020404e-02 -9.091693e-01 2.077906e+00 4.283086e-02 1.670079e+00 -1.143536e-01 -1.102776e+00 6.257572e-01 -2.013154e-01 -1.476919e-01 6.228592e-01 -1.054074e-01 8.643104e-01 6.186236e-01 7.767981e-01 6.393955e-01 -1.108683e+00 -6.396504e-01 -4.315320e-01 4.248149e-01 5.758892e-01 -8.788858e-02
<VARIANCE> 39
 1.422120e+01 3.974239e+01 6.643208e+01 2.716300e+01 5.213881e+01 8.111329e+01 7.102592e+01 4.832102e+01 6.630961e+01 3.975874e+01 8.674075e+01 9.004963e+01 1.201997e+00 9.373957e-01 1.251534e+00 1.467219e+00 2.674295e+00 3.065979e+00 4.131091e+00 2.967414e+00 5.328038e+00 4.223539e+00 2.312145e+00 3.697880e+00 2.707903e+00 3.368658e-02 1.669837e-01 6.246311e-01 3.515036e-01 3.404164e-01 4.596925e-01 8.350862e-01 9.068817e-01 6.482285e-01 9.852498e-01 4.578025e-01 1.001007e+00 8.078249e-01 8.620014e-03
<GCONST> 1.154115e+02
<MIXTURE> 7 1.468266e-01
<MEAN> 39
 3.000223e-01 -7.477110e+00 -4.359772e+00 -2.303253e-01 -5.060700e+00 2.433766e+00 -3.164834e+00 6.826702e+00 3.359936e+00 -5.178597e-01 -3.232444e+00 -5.482983e+00 1.940778e+01 4.011024e-01 -9.183021e-01 -7.740921e-01 -5.673034e-01 -2.440353e-01 3.976266e-02 -6.722585e-01 3.757741e-01 -6.290569e-02 -1.152368e-01 1.419200e-01 -5.603478e-01 1.061097e-01 -1.882066e-01 -3.232648e-02 9.386383e-02 -1.327712e-01 -1.558170e-01 -1.494051e-01 1.167409e-01 1.469336e-01 1.709582e-01 1.137134e-01 -1.616376e-01 -1.739092e-01 -2.596570e-02
<VARIANCE> 39
 9.537550e+00 2.272540e+01 3.164970e+01 1.827023e+01 1.955725e+01 2.874104e+01 3.377342e+01 3.176688e+01 1.938350e+01 1.814341e+01 1.593412e+01 3.152403e+01 7.769747e-01 5.310039e-01 1.011704e+00 1.827100e+00 2.045323e+00 1.678299e+00 1.660340e+00 2.233887e+00 2.587465e+00 2.714929e+00 2.090667e+00 2.096043e+00 1.715598e+00 1.655108e-02 8.959552e-02 1.532595e-01 2.647049e-01 3.861044e-01 2.865489e-01 3.252643e-01 4.291463e-01 4.613532e-01 4.485969e-01 4.045093e-01 3.545250e-01 3.280311e-01 1.709608e-03
<GCONST> 9.015500e+01
<MIXTURE> 8 1.001337e-01
<MEAN> 39
 -6.146825e+00 -2.052869e+00 1.489057e+00 2.948807e+00 -5.341331e+00 -1.207864e-01 7.649868e-02 6.037850e+00 8.905357e-01 -1.187987e-01 -3.442316e+00 -8.091282e-01 1.655445e+01 1.193521e+00 -9.887033e-01 -3.859779e-02 -9.735965e-01 -4.466380e-01 6.688697e-01 -6.246161e-01 7.361337e-04 -4.872721e-01 -1.802451e-01 6.279628e-01 -3.481849e-01 4.502050e-01 -1.291850e-02 -7.707869e-01 -1.672777e-01 -6.710321e-01 -1.968814e-01 -3.787272e-02 -3.101321e-01 6.381910e-01 3.742482e-01 3.191033e-01 -7.458319e-02 -3.055477e-01 3.779076e-02
<VARIANCE> 39
 1.617674e+01 2.926606e+01 3.577456e+01 2.772817e+01 4.747417e+01 3.582371e+01 2.996544e+01 2.791589e+01 3.186987e+01 2.795782e+01 3.457444e+01 3.626482e+01 3.762837e+00 1.654565e+00 4.085669e+00 1.785685e+00 3.925966e+00 3.447145e+00 3.343761e+00 2.811572e+00 2.658035e+00 3.448863e+00 2.847214e+00 3.796329e+00 3.551706e+00 1.974485e-01 2.280277e-01 5.209380e-01 4.152662e-01 4.839642e-01 5.321851e-01 7.226919e-01 6.345052e-01 6.220377e-01 5.660786e-01 5.574491e-01 7.219465e-01 7.266216e-01 2.175371e-02
<GCONST> 1.144877e+02
<STATE> 3
<NUMMIXES> 8
<MIXTURE> 1 8.593071e-02
<MEAN> 39
 1.425097e+00 -1.253260e+01 -1.076326e+01 -4.357365e+00 -6.000076e+00 7.618017e+00 -4.522444e+00 5.303472e+00 1.150705e+01 4.075099e+00 -4.402920e+00 -1.656437e+01 2.048153e+01 -2.550846e-01 1.288337e+00 1.251528e-01 6.378187e-01 9.339631e-01 -1.954630e-01 1.114805e+00 -1.802566e-01 1.200892e-01 -2.545411e-01 -8.766289e-01 2.863190e-01 1.261778e-02 1.240543e-01 1.655463e-01 1.615257e-01 3.241527e-01 4.515658e-02 -3.071481e-02 8.474568e-03 -2.732187e-01 -5.993418e-01 -3.194695e-01 2.057957e-01 5.731315e-01 -8.495493e-04
<VARIANCE> 39
 4.245142e+00 2.759789e+01 1.231708e+01 3.324362e+01 2.066883e+01 4.647952e+01 3.843008e+01 5.221776e+01 1.580679e+01 4.679417e+01 3.156060e+01 3.456889e+01 2.268905e-01 3.517550e-01 5.292079e-01 7.513487e-01 9.539649e-01 9.078016e-01 1.089892e+00 1.257284e+00 1.301062e+00 1.590061e+00 1.450756e+00 1.218736e+00 1.312654e+00 9.982068e-04 5.002085e-02 1.574091e-01 1.124734e-01 1.313503e-01 1.844733e-01 2.093149e-01 2.123945e-01 2.164172e-01 2.019150e-01 2.146096e-01 2.827027e-01 1.978503e-01 1.338676e-04
<GCONST> 7.157440e+01
<MIXTURE> 2 1.513348e-01
<MEAN> 39
 -8.152044e-01 -6.738811e+00 -6.736870e+00 2.793155e+00 -3.840219e+00 3.655831e+00 1.771425e+00 5.081036e+00 5.690949e+00 -3.034307e+00 -5.749268e+00 -9.048284e+00 1.982638e+01 2.621602e-01 4.935178e-01 3.035691e-01 7.739813e-01 2.384652e-01 2.323125e-01 7.956163e-02 -8.936200e-01 -8.728334e-01 -4.084753e-01 6.193088e-01 4.823465e-01 2.409571e-02 3.085469e-01 -3.676332e-01 -1.905009e-01 -2.585029e-01 -2.271457e-01 -7.377421e-02 -4.726032e-01 7.187528e-02 -1.250030e-01 2.964022e-01 2.979105e-01 -6.293184e-02 -3.370303e-04
<VARIANCE> 39
 5.444308e+00 1.314900e+01 3.947264e+01 2.619003e+01 2.019419e+01 3.836098e+01 3.085627e+01 4.253932e+01 2.651466e+01 2.459734e+01 2.428969e+01 2.663691e+01 3.794146e-01 4.975000e-01 8.649237e-01 1.015295e+00 1.246597e+00 1.258912e+00 1.492577e+00 1.992767e+00 2.117847e+00 1.798995e+00 1.606057e+00 1.424028e+00 1.344756e+00 3.546066e-03 1.298152e-01 1.634258e-01 2.346122e-01 2.842710e-01 2.422884e-01 3.025350e-01 3.319824e-01 3.506430e-01 3.355323e-01 2.647712e-01 2.786279e-01 2.502061e-01 4.990121e-04
<GCONST> 8.222499e+01
<MIXTURE> 3 1.527487e-01
<MEAN> 39
 3.322318e+00 -1.506286e+01 -1.004561e+01 -1.538796e+00 -7.582107e+00 5.782784e+00 -6.004273e+00 4.582583e+00 4.392933e+00 1.553960e+00 -1.983575e+00 -1.205155e+01 2.069334e+01 -2.477362e-01 -3.464042e-01 -3.671869e-01 -6.279730e-01 -5.707084e-02 5.390883e-02 1.931393e-01 8.921224e-01 1.215948e+00 8.464636e-01 -6.219342e-01 -1.162335e+00 1.325523e-02 -7.389753e-02 3.725202e-01 2.564637e-02 1.261417e-01 2.385367e-01 -7.433688e-02 2.569660e-01 -3.850127e-02 1.121238e-01 -6.233190e-02 -2.420032e-01 3.164399e-02 4.231173e-03
<VARIANCE> 39
 3.474591e+00 1.342523e+01 2.153665e+01 2.393055e+01 1.419525e+01 2.470843e+01 2.615008e+01 2.502476e+01 1.393580e+01 2.445637e+01 1.827645e+01 1.882586e+01 2.268905e-01 1.717461e-01 5.586321e-01 3.898367e-01 6.192458e-01 5.875384e-01 8.049620e-01 9.406349e-01 1.089899e+00 9.246268e-01 1.049922e+00 1.221072e+00 1.119761e+00 1.605266e-03 3.949900e-02 9.909245e-02 1.193027e-01 1.345431e-01 1.627634e-01 1.906174e-01 2.233475e-01 2.289050e-01 2.541994e-01 2.720169e-01 2.229184e-01 1.651302e-01 1.439788e-04
<GCONST> 6.271608e+01
<MIXTURE> 4 1.136778e-01
<MEAN> 39
 2.393506e+00 -1.311941e+01 -1.135230e+01 -6.308283e-01 -5.132030e+00 6.421556e+00 -2.034162e+00 8.068606e+00 9.763260e+00 3.450380e+00 -6.692028e+00 -1.604546e+01 2.105815e+01 5.958991e-02 6.502304e-01 2.777945e-01 3.494110e-01 2.796801e-01 4.549887e-02 2.109225e-01 -2.257082e-01 -2.102710e-01 -3.569752e-01 -3.653953e-01 3.277272e-01 2.417768e-02 4.026789e-02 -1.698590e-02 9.396501e-02 9.373026e-03 -3.888123e-02 -3.653096e-02 -1.639125e-01 -1.684258e-01 -2.412285e-01 -1.036602e-01 1.850008e-01 2.659697e-01 -5.221651e-03
<VARIANCE> 39
 3.021054e+00 1.482863e+01 1.868940e+01 1.858725e+01 1.712887e+01 1.952847e+01 2.899644e+01 4.657689e+01 1.535316e+01 2.348240e+01 2.583903e+01 2.886645e+01 2.268905e-01 1.131052e-01 3.004407e-01 3.825190e-01 4.839634e-01 5.183227e-01 7.279708e-01 8.691556e-01 1.003719e+00 1.271904e+00 1.154112e+00 9.904188e-01 1.014337e+00 1.420142e-03 1.572355e-02 5.723319e-02 4.477581e-02 7.426986e-02 8.167374e-02 7.855442e-02 1.321873e-01 1.438572e-01 1.207872e-01 1.166024e-01 1.354372e-01 1.110143e-01 1.294360e-04
<GCONST> 5.387801e+01
<MIXTURE> 5 1.663104e-01
<MEAN> 39
 2.557577e+00 -9.164198e+00 -9.391742e+00 3.406610e+00 -4.541093e+00 5.725402e+00 -1.228910e+00 1.083915e+00 3.295477e+00 -2.680053e+00 -2.148549e+00 -9.323071e+00 2.048372e+01 4.838022e-01 -7.061340e-01 -8.374877e-02 -8.209702e-02 -5.396779e-01 3.342412e-02 -7.489417e-01 -4.214560e-01 -7.721815e-01 -6.586172e-02 9.768109e-01 4.356298e-01 -4.542022e-04 -4.166983e-02 -3.095202e-01 -1.153797e-01 -3.477213e-01 -1.407276e-01 -3.938850e-02 -1.487668e-01 3.268396e-01 3.079345e-01 2.956494e-01 -1.473448e-01 -3.285157e-01 -4.225513e-03
<VARIANCE> 39
 4.628014e+00 1.192338e+01 1.268633e+01 2.032367e+01 1.311491e+01 1.848745e+01 2.076006e+01 2.165219e+01 1.318063e+01 1.687605e+01 1.537182e+01 1.353030e+01 2.933750e-01 4.049646e-01 7.131225e-01 1.132362e+00 9.750487e-01 8.485309e-01 1.279834e+00 1.418454e+00 1.557230e+00 1.634635e+00 1.693108e+00 9.775819e-01 1.454384e+00 2.194185e-03 3.527475e-02 7.891916e-02 9.919922e-02 1.355825e-01 1.349681e-01 1.689066e-01 1.738418e-01 2.107819e-01 2.034977e-01 1.779683e-01 2.112851e-01 1.688174e-01 1.127291e-04
<GCONST> 6.431216e+01
<MIXTURE> 6 1.189948e-01
<MEAN> 39
 3.744755e+00 -1.112532e+01 -1.121922e+01 1.318008e+00 -6.347566e+00 4.952323e+00 -3.308098e+00 2.087655e+00 4.022267e+00 -2.181275e+00 -1.848820e-01 -1.174294e+01 2.004924e+01 2.201405e-01 -1.234005e+00 -7.836908e-01 -1.095400e+00 -7.590014e-01 -3.460462e-01 -7.274081e-01 8.210254e-01 6.926657e-01 7.388872e-01 -7.554393e-02 -8.342921e-01 -3.959870e-03 -3.365261e-01 2.212636e-01 1.092775e-01 1.342418e-03 1.207623e-01 -3.273001e-04 3.609630e-01 1.593334e-01 3.309492e-01 1.610876e-02 -4.941987e-01 -7.493228e-02 -3.590016e-03
<VARIANCE> 39
 2.438469e+00 1.726999e+01 1.471776e+01 2.216103e+01 1.689104e+01 2.841310e+01 2.845546e+01 3.568012e+01 1.975410e+01 2.029315e+01 1.698041e+01 1.992634e+01 2.810625e-01 4.691373e-01 7.435201e-01 9.203803e-01 8.013329e-01 8.670382e-01 1.306949e+00 1.356058e+00 1.251482e+00 1.253612e+00 1.312054e+00 1.995077e+00 1.005182e+00 1.758494e-03 7.404980e-02 1.273070e-01 2.388604e-01 2.302513e-01 2.616839e-01 2.689270e-01 3.989644e-01 4.259933e-01 4.041430e-01 4.032211e-01 2.647193e-01 3.434239e-01 2.468984e-04
<GCONST> 7.448706e+01
<MIXTURE> 7 1.284922e-01
<MEAN> 39
 3.337441e+00 -1.174441e+01 -8.848383e+00 -1.182153e+00 -5.131207e+00 4.834486e+00 -6.087736e+00 6.793202e+00 4.686772e+00 6.483268e-01 -6.336656e+00 -1.053570e+01 2.119498e+01 8.339342e-03 3.554080e-02 4.972670e-03 1.228784e-01 -1.148766e-01 -3.410998e-02 -5.690800e-02 -2.313948e-01 -3.165031e-01 -5.188965e-02 1.965365e-01 2.618531e-01 -1.864953e-02 -2.142841e-02 -4.365076e-02 -9.287166e-03 -4.036830e-03 -5.132802e-02 3.939569e-03 -4.711087e-03 -5.354670e-03 5.154224e-02 3.040206e-02 8.491074e-02 -2.715283e-02 -3.769077e-03
<VARIANCE> 39
 2.244506e+00 1.347354e+01 1.588816e+01 1.261874e+01 1.287450e+01 1.249009e+01 2.497100e+01 3.925588e+01 1.901477e+01 1.381055e+01 1.884421e+01 1.639662e+01 2.268905e-01 1.053990e-01 2.708645e-01 2.851069e-01 4.700671e-01 4.426199e-01 5.313506e-01 8.072292e-01 1.212584e+00 1.086964e+00 8.581935e-01 6.164567e-01 8.797675e-01 1.305149e-03 1.547226e-02 3.764763e-02 4.882139e-02 5.907653e-02 7.573640e-02 8.619024e-02 1.099818e-01 1.396199e-01 1.320368e-01 1.096878e-01 1.145507e-01 9.015588e-02 1.107107e-04
<GCONST> 4.739731e+01
<MIXTURE> 8 8.251211e-02
<MEAN> 39
 1.890516e+00 -1.157887e+01 -1.317038e+01 -1.283415e+00 -5.362118e+00 4.491877e+00 -1.487621e+00 5.634388e+00 9.023065e+00 6.497586e-01 -5.343865e+00 -1.412956e+01 1.998371e+01 -8.670648e-01 8.540868e-01 6.024488e-01 4.693667e-01 4.220127e-01 1.647056e-01 1.095422e+00 2.512371e-02 3.721973e-01 -6.004981e-01 -9.661702e-01 2.905475e-01 -1.375757e-02 -4.643922e-02 3.720453e-01 4.197739e-01 3.940935e-01 1.618158e-01 1.438958e-01 9.727675e-02 -3.855156e-01 -4.000221e-01 -2.948517e-01 3.218004e-01 3.920469e-01 -5.863061e-03
<VARIANCE> 39
 4.853171e+00 1.733477e+01 1.221917e+01 1.948169e+01 2.116315e+01 3.351783e+01 3.098122e+01 4.625296e+01 2.336049e+01 3.289835e+01 2.316328e+01 2.597305e+01 2.775106e-01 6.405934e-01 7.252179e-01 1.043061e+00 1.289225e+00 1.142929e+00 1.412473e+00 1.740253e+00 1.925732e+00 1.967750e+00 1.332821e+00 1.236718e+00 1.531384e+00 2.645070e-03 1.058727e-01 1.652233e-01 1.554164e-01 2.040450e-01 2.721436e-01 2.457694e-01 3.808048e-01 3.696562e-01 3.076379e-01 2.990241e-01 2.453547e-01 2.099554e-01 2.762442e-04
<GCONST> 7.835300e+01
<STATE> 4
<NUMMIXES> 8
<MIXTURE> 1 1.319377e-01
<MEAN> 39
 3.382815e-01 -1.098341e+01 3.081881e+00 -4.063904e+00 -1.055058e+01 -4.996695e+00 -6.636274e+00 1.483651e+01 1.893284e+00 5.320459e+00 -2.014801e+00 -4.035004e+00 2.013809e+01 -6.476551e-02 1.022540e+00 6.548466e-02 2.796734e-01 4.329743e-02 -7.629527e-01 5.925055e-01 3.410002e-01 1.174721e+00 1.110962e-01 -7.149994e-01 2.547957e-01 1.900734e-02 5.956086e-02 2.933435e-01 8.032247e-03 3.301866e-01 2.746918e-01 2.811830e-01 2.854487e-01 -4.149218e-01 -8.114252e-02 -3.222210e-01 -1.388078e-01 -5.041226e-02 -1.986272e-03
<VARIANCE> 39
 3.364055e+00 1.283661e+01 3.438515e+01 1.550878e+01 2.187284e+01 2.107186e+01 4.583931e+01 2.343425e+01 3.559045e+01 1.993017e+01 2.096911e+01 2.247507e+01 2.268905e-01 3.521534e-01 6.066706e-01 6.260160e-01 9.129285e-01 1.131647e+00 1.364122e+00 1.254273e+00 1.635127e+00 1.314879e+00 1.193766e+00 9.952025e-01 1.060356e+00 1.964279e-03 3.692313e-02 8.260935e-02 1.043422e-01 1.511149e-01 2.882598e-01 2.658752e-01 2.288067e-01 2.858597e-01 2.285949e-01 1.930815e-01 1.752288e-01 1.892920e-01 1.882331e-04
<GCONST> 6.904974e+01
<MIXTURE> 2 8.450806e-02
<MEAN> 39
 -5.440927e-01 -6.585557e+00 4.185547e+00 6.489909e-01 -9.784458e+00 -1.124366e+00 3.129423e+00 9.466617e+00 3.920612e-01 -2.073040e+00 -2.282202e+00 -6.482185e+00 1.995196e+01 2.743283e-01 1.752743e-01 8.475719e-02 7.172388e-01 6.020669e-01 6.840158e-01 -3.235579e-02 -6.513885e-01 -6.620113e-01 -2.534091e-02 1.519295e-01 -5.094905e-02 6.182147e-03 2.457032e-01 -3.220704e-01 -2.305729e-01 -1.701666e-01 -1.893535e-01 -2.265753e-01 -5.394770e-01 2.448580e-01 -2.400717e-01 4.043005e-01 2.365761e-01 1.061803e-01 9.135431e-04
<VARIANCE> 39
 5.992920e+00 1.837300e+01 1.984770e+01 2.318357e+01 2.046553e+01 1.243721e+01 2.838198e+01 1.497957e+01 2.769427e+01 1.234758e+01 2.370275e+01 1.316847e+01 2.881103e-01 4.627330e-01 6.274958e-01 1.089983e+00 9.444653e-01 1.305127e+00 1.521485e+00 1.378598e+00 2.079437e+00 1.551880e+00 1.418981e+00 1.042935e+00 9.016366e-01 1.131452e-03 1.192986e-01 1.855063e-01 2.326793e-01 2.896611e-01 2.617633e-01 3.222578e-01 2.427471e-01 2.417867e-01 1.755426e-01 1.752690e-01 2.125012e-01 1.872319e-01 1.777313e-04
<GCONST> 7.175411e+01
<MIXTURE> 3 1.568213e-01
<MEAN> 39
 7.163135e-01 -6.850614e+00 3.084501e+00 -2.615481e+00 -1.083581e+01 -8.863387e+00 -5.533749e+00 1.400639e+01 5.277451e+00 4.141727e+00 -4.930722e+00 -2.526785e+00 2.033044e+01 1.099745e-02 9.682006e-01 3.256636e-01 5.883452e-01 7.517661e-01 3.709053e-01 5.264889e-01 -6.582497e-01 -2.924731e-01 -5.349284e-01 -3.440640e-01 -8.486828e-04 5.815799e-03 4.685728e-02 -1.429126e-01 2.086059e-02 1.354161e-01 1.858439e-01 4.733278e-01 -9.058821e-02 -2.708676e-01 -4.483757e-01 -1.483120e-01 2.085912e-01 -1.454787e-01 -7.256566e-03
<VARIANCE> 39
 4.950005e+00 1.445743e+01 2.450656e+01 1.837524e+01 2.006096e+01 1.862188e+01 4.934210e+01 2.539466e+01 4.281875e+01 2.507210e+01 2.329066e+01 2.656343e+01 2.345308e-01 2.770744e-01 5.334851e-01 6.940552e-01 7.808341e-01 9.238265e-01 1.006827e+00 1.451817e+00 1.411735e+00 1.178521e+00 1.042294e+00 9.327317e-01 6.779138e-01 1.810803e-03 5.546978e-02 9.464068e-02 8.133671e-02 1.084970e-01 1.646943e-01 2.055811e-01 1.559411e-01 2.295651e-01 2.337759e-01 1.407562e-01 1.545417e-01 1.455605e-01 1.761660e-04
<GCONST> 6.607664e+01
<MIXTURE> 4 1.471684e-01
<MEAN> 39
 1.712855e+00 -1.038535e+01 2.834326e+00 -1.246349e+00 -8.468557e+00 -1.648286e+00 -6.821049e+00 9.776557e+00 -2.382130e+00 1.454925e+00 -2.681997e+00 -4.442570e+00 2.029507e+01 -5.253444e-02 -8.061865e-01 2.347185e-01 -6.953284e-01 -6.170934e-01 -6.479971e-01 -1.040788e+00 6.238378e-01 -2.366495e-01 9.720677e-01 5.623562e-01 3.244117e-01 -7.779081e-03 -4.807494e-02 2.218551e-01 -7.425452e-02 1.662992e-02 -7.194449e-02 -2.781512e-01 1.951110e-01 1.464775e-01 4.697449e-01 4.450125e-02 -9.872445e-02 -2.047095e-02 -1.733013e-03
<VARIANCE> 39
 3.279104e+00 1.187673e+01 3.083616e+01 1.432364e+01 1.633685e+01 1.795428e+01 2.901580e+01 1.086023e+01 1.937380e+01 1.454008e+01 1.509515e+01 1.384857e+01 2.268905e-01 2.110443e-01 6.329554e-01 5.255761e-01 6.449687e-01 1.011283e+00 1.725739e+00 1.000137e+00 1.217489e+00 1.565302e+00 1.001836e+00 9.291176e-01 1.054082e+00 1.788025e-03 3.229507e-02 9.080772e-02 1.130284e-01 1.547418e-01 1.980028e-01 2.457290e-01 2.118242e-01 2.375527e-01 2.392249e-01 2.028800e-01 2.246761e-01 1.885661e-01 1.691012e-04
<GCONST> 6.336341e+01
<MIXTURE> 5 1.229148e-01
<MEAN> 39
 5.906643e-01 -4.891342e+00 -2.582196e+00 8.155775e-02 -6.141936e+00 -2.420595e+00 -3.889632e+00 1.109473e+01 7.209787e+00 2.329988e+00 -8.287881e+00 -4.502510e+00 2.027708e+01 3.827154e-02 6.499922e-01 6.095760e-01 3.908688e-01 4.854583e-01 5.350757e-01 -1.095138e-01 -8.708229e-01 -1.038973e+00 -5.037204e-01 1.796722e-01 3.099088e-01 -2.977336e-02 -4.580640e-03 -2.564984e-01 2.840989e-02 -1.183196e-01 -4.111150e-02 2.144730e-02 -3.016076e-01 -1.864044e-01 -3.732529e-01 9.194947e-02 3.539644e-01 7.835062e-02 -1.148147e-02
<VARIANCE> 39
 6.130862e+00 1.317581e+01 2.836430e+01 2.601092e+01 1.917448e+01 3.537721e+01 3.906551e+01 4.902726e+01 3.700164e+01 2.355601e+01 2.296945e+01 2.943369e+01 2.956645e-01 2.558841e-01 7.147146e-01 7.806488e-01 1.124962e+00 1.470508e+00 1.586714e+00 1.475656e+00 1.872039e+00 1.931090e+00 1.097015e+00 1.184798e+00 1.449732e+00 5.451431e-03 5.428741e-02 1.037536e-01 1.178702e-01 1.738755e-01 2.246907e-01 2.572543e-01 2.549136e-01 3.089393e-01 2.775922e-01 2.180186e-01 2.323560e-01 2.490071e-01 3.049815e-04
<GCONST> 7.672358e+01
<MIXTURE> 6 1.316291e-01
<MEAN> 39
 1.431920e+00 -1.264975e+01 1.289183e+00 -2.143738e+00 -1.207261e+01 -2.884702e+00 -4.338687e+00 1.333703e+01 6.557144e-01 2.287044e+00 -7.673623e-01 -6.113002e+00 2.018968e+01 -3.359832e-01 3.382105e-01 2.441236e-01 -4.734309e-01 -3.153902e-01 -9.592028e-01 2.926317e-01 8.925068e-01 9.471585e-01 4.214763e-01 -5.922575e-01 -4.494711e-02 9.595706e-03 -8.081239e-02 4.284768e-01 7.268132e-02 2.291992e-01 3.244780e-01 8.714233e-02 3.042056e-01 -2.123105e-01 6.542169e-02 -2.180227e-01 -2.078812e-01 1.467936e-03 -1.982835e-03
<VARIANCE> 39
 4.428851e+00 1.406333e+01 3.632529e+01 1.638630e+01 1.992941e+01 2.138397e+01 4.087326e+01 1.657895e+01 3.196448e+01 1.893284e+01 2.411305e+01 1.618154e+01 2.268905e-01 3.287500e-01 6.443695e-01 7.936506e-01 9.023413e-01 9.610700e-01 1.232059e+00 1.257094e+00 1.411368e+00 1.245956e+00 1.075917e+00 1.113772e+00 8.977959e-01 1.953994e-03 5.562685e-02 1.161567e-01 1.749505e-01 1.752337e-01 2.478696e-01 2.890744e-01 2.062197e-01 2.318435e-01 2.364857e-01 2.246097e-01 2.278223e-01 1.542001e-01 1.283217e-04
<GCONST> 6.912371e+01
<MIXTURE> 7 9.752246e-02
<MEAN> 39
 1.779254e+00 -7.777326e+00 2.397457e-02 9.771846e-01 -8.869389e+00 -2.279339e+00 -3.507026e+00 8.704296e+00 -1.692019e+00 1.258215e+00 -1.474227e+00 -4.853493e+00 1.975454e+01 2.354964e-01 -7.892829e-01 -3.997698e-01 -6.849506e-01 -8.388063e-01 -1.175091e+00 -1.139276e+00 3.110899e-01 -3.724553e-01 9.696106e-01 7.748848e-01 3.301238e-01 -6.595025e-03 -2.373083e-01 1.396256e-01 1.666096e-01 -2.380827e-01 -6.818461e-02 -2.014212e-01 1.808211e-01 2.779813e-01 5.315973e-01 1.657781e-02 -2.933147e-01 3.395575e-02 -8.886750e-03
<VARIANCE> 39
 3.339553e+00 1.262633e+01 3.377413e+01 1.754432e+01 2.099889e+01 1.728445e+01 2.976252e+01 2.211086e+01 2.677069e+01 1.824123e+01 1.972839e+01 1.757940e+01 2.521382e-01 5.882264e-01 8.038924e-01 9.670780e-01 9.669738e-01 1.531884e+00 1.659071e+00 1.468061e+00 1.949077e+00 1.679726e+00 1.427464e+00 1.384657e+00 1.440094e+00 3.328458e-03 9.411231e-02 1.674522e-01 2.117638e-01 2.485297e-01 2.989951e-01 4.547714e-01 3.879425e-01 5.261782e-01 3.379135e-01 3.469252e-01 3.292529e-01 2.899890e-01 3.471957e-04
<GCONST> 7.873917e+01
<MIXTURE> 8 1.274927e-01
<MEAN> 39
 1.539403e+00 -7.140618e+00 3.216635e+00 1.430189e+00 -7.198858e+00 -8.614902e-01 -2.177794e+00 7.791268e+00 -1.379387e+00 -8.762155e-01 -2.483956e+00 -4.964744e+00 2.027785e+01 2.071329e-01 -5.966491e-01 8.515226e-02 4.174048e-03 2.851617e-01 6.620823e-01 -5.961545e-01 -6.203800e-01 -1.149339e+00 -2.057515e-02 7.083776e-01 -2.135420e-01 -7.808321e-03 -1.573626e-02 -2.538477e-01 -7.746710e-03 -2.981406e-01 -2.881800e-01 -3.295598e-01 -2.616099e-01 4.029930e-01 1.113345e-01 3.176882e-01 4.880828e-02 4.921540e-02 -5.197385e-03
<VARIANCE> 39
 3.035050e+00 1.067524e+01 1.900599e+01 1.331609e+01 1.285514e+01 1.345520e+01 2.594476e+01 1.211386e+01 1.824545e+01 1.271696e+01 1.394767e+01 1.252501e+01 2.268905e-01 2.618184e-01 5.852223e-01 6.413296e-01 7.651543e-01 1.239591e+00 1.282627e+00 1.062813e+00 1.625446e+00 1.345576e+00 1.168432e+00 1.073558e+00 9.447775e-01 1.621750e-03 2.989863e-02 7.145093e-02 7.670743e-02 1.111666e-01 1.473955e-01 1.966988e-01 1.594948e-01 1.879598e-01 1.615499e-01 1.426200e-01 1.514045e-01 1.318782e-01 1.133879e-04
<GCONST> 5.845412e+01
<TRANSP> 5
 0.000000e+00 1.000000e+00 0.000000e+00 0.000000e+00 0.000000e+00
 0.000000e+00 9.184886e-01 8.151146e-02 0.000000e+00 0.000000e+00
 0.000000e+00 0.000000e+00 9.493161e-01 5.068399e-02 0.000000e+00
 0.000000e+00 0.000000e+00 0.000000e+00 9.365760e-01 6.342401e-02
 0.000000e+00 0.000000e+00 0.000000e+00 0.000000e+00 0.000000e+00
<ENDHMM>
~h "b"
<BEGINHMM>
<NUMSTATES> 5
<STATE> 2
<NUMMIXES> 8
<MIXTURE> 1 9.011608e-02
<MEAN> 39
 -3.482375e+00 -2.500618e+00 -2.258068e+00 -2.798854e+00 2.236126e+00 7.571162e+00 -6.999384e+00 -9.448305e+00 3.659770e+00 7.987669e+00 3.578927e+00 2.282715e+00 1.673827e+01 2.476032e+00 3.172225e+00 2.067677e+00 3.006287e-02 1.190047e+00 4.269423e+00 1.535186e+00 2.787718e-01 -8.770910e-01 3.334818e-01 -7.294648e-01 8.005248e-01 3.984261e-01 2.168771e-01 4.306877e-01 -3.279075e-02 -3.104363e-02 -6.956382e-01 -3.311152e-01 3.654653e-01 6.895497e-01 -4.720798e-01 -7.218108e-01 -4.362041e-01 1.393761e-01 1.130267e-01
<VARIANCE> 39
 3.838443e+00 1.223505e+01 1.434094e+01 1.595043e+01 1.750765e+01 5.930578e+01 2.988128e+01 1.839943e+01 1.980208e+01 1.439426e+01 3.480200e+01 1.955347e+01 2.921019e-01 6.726822e-01 1.435905e+00 4.233218e-01 1.685542e+00 1.637503e+00 4.131822e+00 1.642430e+00 3.530436e+00 2.328048e+00 2.479038e+00 2.120594e+00 8.942010e-01 3.629317e-02 8.858902e-02 1.481656e-01 1.578919e-01 3.021700e-01 3.377718e-01 1.127074e+00 7.685223e-01 3.538962e-01 5.924197e-01 3.357180e-01 5.542690e-01 3.474745e-01 3.666618e-03
<GCONST> 8.901854e+01
<MIXTURE> 2 1.651833e-01
<MEAN> 39
 -6.226453e+00 -3.514826e+00 1.100009e+01 1.177944e+01 2.507226e+00 -5.226150e+00 -4.922714e+00 -1.038401e-01 1.311456e+00 -1.998145e+00 -1.739329e+00 -1.022280e+00 1.807800e+01 2.185985e+00 1.577158e+00 2.283337e+00 2.583824e-01 -1.207051e+00 2.490181e-01 2.595237e-01 1.203291e+00 -1.343665e+00 -4.372776e-01 2.011230e-01 7.990936e-01 4.029455e-01 4.051599e-01 2.346747e-01 -3.822873e-01 -1.006305e+00 -8.716713e-01 1.625865e-01 -2.978530e-01 -1.110718e-02 -2.245084e-01 3.939081e-01 4.212843e-01 4.376765e-01 2.814444e-02
<VARIANCE> 39
 9.007621e+00 1.165176e+01 3.534954e+01 4.272534e+01 5.473758e+01 7.141650e+01 3.296558e+01 3.538511e+01 3.689102e+01 5.253702e+01 1.195652e+01 1.116932e+01 3.651963e-01 9.600723e-01 9.711222e-01 3.427518e+00 5.333926e+00 6.836188e+00 3.903226e+00 2.518036e+00 4.742834e+00 2.780700e+00 6.763235e+00 4.781528e+00 2.748344e+00 4.279818e-02 2.909529e-01 3.005265e-01 4.741864e-01 6.104612e-01 1.276477e+00 1.019994e+00 6.235672e-01 9.055714e-01 9.809365e-01 9.832722e-01 3.329558e-01 3.799331e-01 2.347372e-03
<GCONST> 1.092568e+02
<MIXTURE> 3 1.458210e-01
<MEAN> 39
 -9.547093e+00 -6.454701e+00 2.615087e+00 4.265955e+00 4.189871e+00 -4.100420e-01 -2.983336e+00 -1.195034e+00 1.419247e+00 6.092355e-02 7.736119e-01 -9.696447e-01 1.615667e+01 9.798691e-01 9.443120e-01 2.142103e+00 1.568035e+00 1.793666e+00 1.884136e+00 1.123087e+00 2.547066e-01 -7.789587e-01 -5.675244e-01 -1.006360e+00 -1.098366e+00 3.382939e-01 5.171714e-01 -4.380993e-02 -1.570396e-01 -1.943774e-01 -6.289726e-01 -1.636416e-03 -4.097555e-01 -4.128837e-01 -1.122503e-01 2.170073e-01 1.905994e-01 1.019068e-01 1.804623e-01
<VARIANCE> 39
 9.123307e+00 6.351510e+00 2.862077e+01 2.819677e+01 3.406059e+01 2.070611e+01 1.403935e+01 1.775158e+01 2.244810e+01 3.084914e+01 2.416229e+01 1.967857e+01 9.033440e-01 2.713154e+00 5.546231e-01 1.853416e+00 2.310455e+00 2.561056e+00 2.558030e+00 2.706002e+00 3.241534e+00 2.058759e+00 3.802287e+00 1.520569e+00 1.610211e+00 1.389202e-01 2.180624e-01 2.377742e-01 3.425800e-01 4.389893e-01 7.637749e-01 6.492044e-01 7.146934e-01 5.664837e-01 6.088367e-01 9.144042e-01 7.296352e-01 4.159762e-01 1.109858e-02
<GCONST> 1.012650e+02
<MIXTURE> 4 9.814602e-02
<MEAN> 39
 -2.707820e+00 -1.439761e+00 8.282879e-01 2.463015e+00 6.288373e+00 9.240812e-01 -5.429389e+00 -7.216747e+00 -2.564334e+00 2.400011e+00 4.514850e+00 2.283244e+00 1.781156e+01 3.092479e+00 2.526887e+00 -3.929003e-01 -1.409431e+00 -1.047183e+00 1.976525e+00 -5.683606e-01 1.295631e-01 -4.930527e-01 5.706709e-01 -9.682634e-02 9.515224e-02 3.999212e-01 3.156118e-01 1.506044e-01 -2.165142e-01 -6.573741e-01 -7.408376e-01 3.410049e-01 -2.585145e-01 3.480012e-01 9.564915e-02 -1.278433e-01 -1.562817e-02 -1.904465e-01 4.695221e-02
<VARIANCE> 39
 8.341412e+00 1.194140e+01 8.176033e+00 2.975851e+01 1.978692e+01 1.179003e+01 2.053855e+01 1.176222e+01 1.709933e+01 2.216991e+01 3.195993e+01 1.708306e+01 5.154903e-01 1.016324e+00 1.106714e+00 2.294236e+00 1.823072e+00 1.550615e+00 5.046434e+00 7.181398e+00 4.599037e+00 2.292513e+00 1.835929e+00 5.969521e+00 1.545303e+00 5.861292e-02 1.362374e-01 4.742504e-01 4.443884e-01 2.589133e-01 2.042674e-01 5.492552e-01 2.872019e-01 4.731288e-01 2.773158e-01 4.768565e-01 1.119951e+00 2.823851e-01 3.226328e-03
<GCONST> 9.421951e+01
<MIXTURE> 5 1.475431e-01
<MEAN> 39
 3.104422e+00 1.330226e-01 -7.939129e-01 1.452801e+00 4.169054e+00 3.298410e+00 -5.099599e+00 -3.914314e+00 8.590057e-01 4.179538e+00 7.822080e-01 -2.551621e+00 1.819550e+01 5.700983e-01 1.385725e+00 6.880159e-01 1.007233e+00 7.896600e-01 4.704256e-01 1.160247e+00 3.331192e-01 -1.140708e+00 -1.468173e+00 -1.189126e+00 -1.743021e-01 -1.070224e-01 1.531004e-02 -9.955052e-02 1.138176e-01 -3.945605e-01 -6.876929e-01 -1.026974e-01 -3.958934e-01 -2.064721e-01 -4.627681e-01 3.747923e-02 -1.111483e-01 -1.145493e-03 3.735563e-02
<VARIANCE> 39
 2.845930e+01 2.919708e+01 1.252177e+01 2.857191e+01 2.331352e+01 3.686374e+01 1.671418e+01 2.973352e+01 2.654692e+01 3.079589e+01 2.211558e+01 3.304975e+01 1.172968e+00 6.682519e-01 1.492328e+00 1.277709e+00 1.259095e+00 2.906934e+00 2.547246e+00 7.419804e+00 5.701556e+00 2.098779e+00 4.083657e+00 3.324356e+00 4.286198e+00 4.047955e-02 8.070953e-02 4.735669e-01 2.053787e-01 2.304171e-01 6.806175e-01 5.484509e-01 5.327236e-01 7.105224e-01 6.091001e-01 1.118055e+00 4.036275e-01 8.497791e-01 1.002954e-02
<GCONST> 1.041939e+02
<MIXTURE> 6 1.557515e-01
<MEAN> 39
 -4.415344e+00 -3.595810e+00 7.665586e+00 9.330849e+00 3.513915e+00 -1.118253e+00 -5.828997e+00 -9.353313e-01 -2.841443e-01 6.024383e-01 -1.363898e+00 -4.188539e+00 1.782202e+01 2.232395e+00 1.055006e-01 7.063346e-01 2.758868e-01 -1.209208e+00 -6.573044e-01 -1.153168e+00 8.645796e-01 -9.233147e-02 3.155650e-01 -8.669924e-01 6.343741e-01 5.204086e-01 1.285322e-01 -1.753689e-01 -5.890403e-01 -7.549378e-01 -6.786649e-01 -3.308942e-01 -4.130547e-01 1.356329e-02 -6.770176e-02 1.262440e-01 4.309664e-01 8.661942e-01 -6.982827e-03
<VARIANCE> 39
 8.851211e+00 3.576002e+00 2.526564e+01 3.423469e+01 3.428545e+01 4.960489e+01 2.549501e+01 5.564364e+01 2.848438e+01 2.889935e+01 2.195005e+01 3.069062e+01 7.876762e-01 2.040457e+00 1.409181e+00 4.573176e+00 3.306936e+00 2.640538e+00 2.951714e+00 2.440975e+00 2.877959e+00 3.913235e+00 2.577676e+00 2.058708e+00 3.375471e+00 5.763891e-02 2.025050e-01 1.538392e-01 4.398047e-01 8.765451e-01 4.631718e-01 1.085523e+00 5.646943e-01 6.375318e-01 6.461881e-01 6.388309e-01 8.897251e-01 7.158774e-01 4.327350e-03
<GCONST> 1.058398e+02
<MIXTURE> 7 8.122244e-02
<MEAN> 39
 -1.256132e+00 7.988993e-02 -1.958789e+00 1.312402e+00 5.624649e+00 1.325117e+00 -6.834221e+00 -8.264436e+00 -1.583222e+00 1.250706e+00 5.237116e+00 1.292058e+00 1.773526e+01 2.706861e+00 2.556858e+00 1.347986e-01 -1.412295e+00 -9.946107e-01 2.541659e+00 4.648207e-01 7.233404e-01 -9.896369e-01 -1.195868e-01 -2.119629e+00 -3.875071e-01 3.573489e-01 1.368123e-01 -6.873225e-02 1.009158e-01 -8.639950e-01 -9.880826e-01 2.787712e-01 6.256162e-02 5.344686e-01 2.382617e-01 -4.040128e-02 -5.977114e-01 -9.415880e-02 4.193665e-02
<VARIANCE> 39
 1.471162e+01 1.443175e+01 1.794373e+01 2.815248e+01 1.630276e+01 2.620878e+01 4.795425e+01 1.479487e+01 2.263960e+01 5.659210e+01 3.992741e+01 1.412492e+01 6.634398e-01 7.028472e-01 1.000965e+00 3.291697e+00 1.854685e+00 1.390931e+00 4.365028e+00 3.136186e+00 4.689505e+00 1.893764e+00 2.638843e+00 2.874809e+00 2.241912e+00 3.442928e-02 2.521290e-01 5.177045e-01 5.832403e-01 3.503561e-01 9.013106e-02 6.928150e-01 6.380244e-01 4.429038e-01 4.918960e-01 8.515515e-01 9.980057e-01 1.565411e-01 2.034625e-03
<GCONST> 9.842969e+01
<MIXTURE> 8 1.162164e-01
<MEAN> 39
 -1.944465e+00 -3.926138e-01 8.645799e-01 -2.319369e-04 1.413038e+00 2.735833e+00 -6.117522e+00 -7.655864e+00 4.505621e+00 7.495517e+00 4.105305e+00 -8.688484e-01 1.732324e+01 2.934402e+00 2.251225e+00 8.140429e-01 -2.633848e-01 1.558769e-01 3.289171e+00 1.133910e+00 5.289616e-02 -9.120864e-01 7.270696e-02 -1.283027e+00 -4.832811e-02 4.963090e-01 -1.165884e-02 -1.745683e-01 -5.393879e-01 -7.773089e-01 -6.014802e-01 1.926747e-01 1.523536e-01 5.895265e-01 -4.357348e-01 -4.915077e-01 -2.842560e-01 3.124864e-01 7.833709e-02
<VARIANCE> 39
 4.590336e+00 6.788055e+00 7.905075e+00 1.163288e+01 2.115564e+01 4.360711e+01 1.834145e+01 1.862515e+01 2.967076e+01 2.009717e+01 2.089049e+01 3.164677e+01 3.262963e-01 6.043713e-01 1.509144e+00 1.015082e+00 3.953757e+00 1.280103e+00 4.833074e+00 2.221429e+00 1.708572e+00 2.725553e+00 2.209349e+00 1.877973e+00 2.835477e+00 3.706407e-02 8.334754e-02 2.631564e-01 1.235640e-01 2.514530e-01 4.153504e-01 7.724696e-01 4.553206e-01 1.938046e-01 7.141379e-01 3.859410e-01 2.833984e-01 4.777122e-01 5.749511e-03
<GCONST> 8.938698e+01
<STATE> 3
<NUMMIXES> 8
<MIXTURE> 1 1.030752e-01
<MEAN> 39
 2.288695e+00 1.344290e+00 1.207221e+00 3.109305e+00 2.338149e+00 -6.250234e-01 -7.662506e+00 -4.080452e+00 -2.945475e+00 1.591765e+00 2.617943e+00 2.165933e+00 1.873281e+01 1.842771e+00 1.083635e+00 -7.452542e-01 -1.256909e+00 -1.081673e+00 1.880435e-02 -1.080479e+00 3.303191e-02 -9.106165e-01 1.655542e-01 6.522786e-01 8.398023e-01 3.280088e-01 -2.751774e-01 -3.502695e-01 -3.749386e-01 -5.947952e-02 -8.529421e-03 9.265319e-02 -1.420645e-01 -7.730427e-02 1.476319e-01 3.483865e-01 2.006919e-01 -1.592571e-01 -1.937271e-02
<VARIANCE> 39
 1.120484e+01 1.065795e+01 7.308881e+01 1.534490e+01 1.653861e+01 2.643695e+01 3.432922e+01 2.019567e+01 2.626289e+01 3.525271e+01 5.548395e+01 2.248131e+01 4.439704e-01 8.776011e-01 9.612509e-01 2.906523e+00 1.301347e+00 2.906263e+00 2.318311e+00 2.774500e+00 1.713814e+00 2.311572e+00 1.742381e+00 2.185452e+00 3.475851e+00 3.245543e-02 4.272874e-02 3.820221e-01 5.931131e-01 2.022750e-01 3.532749e-01 5.512393e-01 7.723409e-01 2.619721e-01 5.011286e-01 5.192072e-01 8.895531e-01 4.773445e-01 3.034572e-03
