~o
<STREAMINFO> 1 39
<VECSIZE> 39<NULLD><MFCC_E_D_A><DIAGC>
~s "silst"
<NUMMIXES> 2
<MIXTURE> 1 4.708199e-01
<MEAN> 39
 -1.388120e+01 -2.749771e-01 -9.667987e-01 4.889676e-01 -6.690414e-02 -7.403034e-01 -1.594593e+00 -4.831973e-01 1.734764e+00 1.806675e+00 2.690440e-02 -1.096295e-01 1.061201e+01 1.038125e-01 1.970212e-01 2.360907e-01 2.930739e-01 2.663266e-01 2.871425e-01 2.682103e-01 2.975259e-01 2.553503e-01 2.050563e-01 2.054943e-01 1.326254e-01 2.082650e-02 7.585533e-02 1.464494e-01 1.603263e-01 1.563452e-01 1.141435e-01 1.111910e-01 6.437792e-02 3.421969e-02 4.666581e-03 -2.578706e-02 1.143359e-03 -1.377377e-02 3.219425e-02
<VARIANCE> 39
 1.219980e+01 2.460230e+01 2.595649e+01 2.651974e+01 2.975866e+01 3.529307e+01 3.302441e+01 3.349348e+01 3.441489e+01 3.171851e+01 3.075356e+01 2.494867e+01 1.953609e+00 7.074433e-01 1.387357e+00 1.728491e+00 2.384758e+00 2.713998e+00 3.176465e+00 3.388602e+00 3.444813e+00 3.567348e+00 3.736660e+00 3.401294e+00 2.843720e+00 7.691068e-02 1.565142e-01 3.158167e-01 4.157151e-01 5.725731e-01 6.383506e-01 7.324685e-01 7.797608e-01 7.999039e-01 8.327984e-01 8.516545e-01 7.684614e-01 6.548029e-01 1.325151e-02
<GCONST> 1.094636e+02
<MIXTURE> 2 5.291348e-01
<MEAN> 39
 -1.336356e+01 -7.955855e-01 -1.015841e+00 5.826044e-01 1.568216e-01 -2.441873e-01 -1.810126e+00 -8.226305e-01 1.990320e+00 1.344429e+00 -5.637540e-01 -6.724274e-01 1.061053e+01 -1.548961e-01 -2.717457e-01 -3.229099e-01 -3.479496e-01 -3.247724e-01 -2.820082e-01 -2.768638e-01 -3.147393e-01 -2.848963e-01 -2.275545e-01 -1.894316e-01 -9.652260e-02 -7.873835e-02 -1.208009e-02 2.644194e-02 3.538827e-02 4.506594e-02 6.874788e-03 -6.881093e-03 6.869101e-03 2.515244e-02 -1.725737e-03 2.195910e-02 3.341167e-02 2.474914e-02 -1.303128e-02
<VARIANCE> 39
 7.949113e+00 2.213613e+01 2.130630e+01 2.136513e+01 2.702142e+01 2.976729e+01 2.951330e+01 3.088198e+01 3.477374e+01 3.124633e+01 2.981460e+01 2.382827e+01 8.306229e-01 5.705332e-01 1.224395e+00 1.617402e+00 2.243269e+00 2.664855e+00 3.127059e+00 3.273978e+00 3.447436e+00 3.607377e+00 3.749069e+00 3.358868e+00 2.889529e+00 4.239293e-02 1.180006e-01 2.624475e-01 3.594398e-01 5.055812e-01 5.986641e-01 6.908967e-01 7.266806e-01 7.677083e-01 8.175814e-01 8.494713e-01 7.558827e-01 6.450503e-01 5.883902e-03
<GCONST> 1.041698e+02
~h "@"
<BEGINHMM>
<NUMSTATES> 5
<STATE> 2
<NUMMIXES> 2
<MIXTURE> 1 5.050851e-01
<MEAN> 39
 3.439484e-01 -1.716007e+00 4.665069e+00 -3.001844e+00 -5.782511e+00 -6.349526e+00 -1.517197e+01 3.392237e+00 6.436397e+00 5.435267e+00 -4.065507e+00 1.490488e+00 1.998292e+01 -1.717792e-01 4.557443e-01 2.281212e-01 2.324601e-01 3.253372e-01 9.378859e-02 7.740245e-01 3.263828e-02 4.127791e-01 -1.380602e-01 -3.510982e-01 1.069546e-01 -1.915725e-02 6.570387e-02 5.815825e-02 -4.001592e-03 1.783628e-01 2.092927e-01 3.231819e-01 2.233800e-01 -5.473284e-02 -2.999506e-01 -1.987710e-01 1.366436e-02 -1.557351e-01 -5.003665e-03
<VARIANCE> 39
 8.122244e+00 2.668292e+01 4.107934e+01 2.922304e+01 3.832817e+01 4.117117e+01 7.811240e+01 3.868274e+01 4.220166e+01 4.168382e+01 3.769416e+01 3.123438e+01 4.229169e-01 6.210349e-01 1.067758e+00 9.555616e-01 1.433389e+00 2.064882e+00 2.944906e+00 3.292266e+00 1.850831e+00 2.794573e+00 2.243374e+00 1.751965e+00 1.488547e+00 4.809019e-03 1.096377e-01 2.144220e-01 1.897343e-01 2.764005e-01 3.622960e-01 4.739341e-01 6.954316e-01 3.260824e-01 4.388265e-01 3.814706e-01 3.267519e-01 2.444776e-01 3.925283e-04
<GCONST> 9.207816e+01
<MIXTURE> 2 4.949169e-01
<MEAN> 39
 1.229655e+00 -1.627899e+00 3.456379e+00 -1.668807e+00 -3.504760e+00 -2.286076e+00 -1.193451e+01 3.185827e+00 3.535695e+00 3.541067e+00 -4.982051e+00 -7.906121e-01 1.976666e+01 2.076863e-01 -4.405194e-01 -2.794970e-01 -3.112040e-01 -2.478612e-01 -9.182329e-02 -7.619423e-01 5.416709e-03 -3.359672e-01 3.678639e-01 2.740215e-01 -1.032666e-01 -5.846876e-03 -1.456940e-01 6.393468e-02 1.510433e-02 -1.109462e-01 -8.779271e-02 -2.817204e-01 -3.011159e-02 -7.806370e-02 2.524277e-01 1.577114e-01 3.326464e-02 1.008695e-01 -1.526772e-02
<VARIANCE> 39
 9.530092e+00 2.549693e+01 3.338285e+01 2.811449e+01 3.711167e+01 3.807380e+01 6.939536e+01 3.361613e+01 3.595206e+01 2.728448e+01 3.013036e+01 2.283245e+01 5.872678e-01 7.336354e-01 1.084669e+00 1.089243e+00 1.734750e+00 2.126899e+00 3.168093e+00 3.288563e+00 2.029790e+00 2.713141e+00 2.404597e+00 1.790225e+00 1.432391e+00 7.829336e-03 1.437575e-01 2.458218e-01 2.294846e-01 3.499677e-01 4.543194e-01 5.601735e-01 8.418515e-01 3.943051e-01 4.969336e-01 4.741542e-01 3.986983e-01 2.929086e-01 7.484311e-04
<GCONST> 9.496779e+01
<STATE> 3
<NUMMIXES> 2
<MIXTURE> 1 5.037412e-01
<MEAN> 39
 1.069550e+00 4.966090e+00 4.564340e+00 2.751550e-01 5.174841e-02 -1.871554e+00 -1.230589e+01 -5.166097e+00 3.601526e+00 4.648825e+00 -2.800561e+00 4.803444e-01 1.864261e+01 -3.541704e-01 7.439135e-01 3.490220e-01 6.581401e-01 9.309840e-01 3.488325e-01 1.268872e+00 -4.650626e-03 2.140310e-01 -2.290355e-01 -2.465207e-02 -9.959455e-02 -1.472864e-01 9.254376e-02 -2.764023e-02 1.589333e-02 5.574581e-02 3.564661e-02 2.086550e-01 1.226512e-01 1.388346e-01 -2.057713e-01 -7.250666e-02 3.680703e-02 -1.545810e-01 7.532543e-03
<VARIANCE> 39
 1.680794e+01 3.027075e+01 2.832376e+01 3.790511e+01 3.884442e+01 5.314955e+01 4.800097e+01 5.988917e+01 5.136944e+01 4.908689e+01 3.230687e+01 2.960888e+01 1.297467e+00 7.458464e-01 1.304629e+00 1.303243e+00 1.853124e+00 2.460637e+00 2.810859e+00 3.702914e+00 2.932946e+00 3.711030e+00 3.683687e+00 2.749850e+00 2.701260e+00 1.880307e-02 1.201081e-01 2.437981e-01 2.658060e-01 4.146082e-01 5.599902e-01 6.316067e-01 8.184358e-01 5.540604e-01 8.169320e-01 7.671773e-01 5.622593e-01 4.710555e-01 1.308367e-03
<GCONST> 1.052599e+02
<MIXTURE> 2 4.962572e-01
<MEAN> 39
 1.744351e+00 5.684215e+00 4.569217e+00 9.414929e-01 5.931419e-01 -6.615554e-01 -1.112199e+01 -4.068774e+00 1.754629e+00 3.970841e+00 -2.284752e+00 -9.815970e-01 1.849919e+01 -1.392278e-01 7.646365e-02 -3.091715e-01 -3.056183e-01 -5.362771e-02 -1.581751e-01 3.825526e-03 -4.100738e-01 -6.767722e-01 -1.644425e-01 1.235140e-01 -1.499463e-01 -1.334988e-01 -1.909126e-01 -9.044434e-02 1.788647e-02 1.787267e-03 -6.283300e-02 -1.742456e-01 -8.919896e-02 -1.024326e-02 9.426789e-02 -3.873629e-02 -1.832851e-02 1.373983e-01 -2.253795e-02
<VARIANCE> 39
 1.348749e+01 2.953235e+01 2.738217e+01 3.710566e+01 3.817859e+01 4.302503e+01 3.601457e+01 5.509018e+01 4.354444e+01 3.301622e+01 3.318601e+01 2.776439e+01 1.626971e+00 6.249826e-01 8.692671e-01 1.128170e+00 1.730993e+00 2.501023e+00 3.001150e+00 3.477749e+00 2.789733e+00 3.274203e+00 3.326686e+00 2.536667e+00 2.455003e+00 1.994130e-02 1.111356e-01 2.034942e-01 2.797948e-01 4.044033e-01 5.488221e-01 5.902329e-01 7.127014e-01 5.931973e-01 8.057210e-01 6.589627e-01 5.566196e-01 5.334326e-01 1.288685e-03
<GCONST> 1.023599e+02
<STATE> 4
<NUMMIXES> 2
<MIXTURE> 1 5.330103e-01
<MEAN> 39
 -2.125182e+00 1.087752e+00 3.556606e-01 -2.715353e+00 2.192679e+00 1.563453e+00 -5.840296e+00 -4.717456e-01 4.049826e+00 5.988682e+00 -4.820274e+00 -1.924105e+00 1.822356e+01 -8.165172e-02 1.799646e-01 3.068921e-01 6.474980e-01 4.929921e-01 4.101501e-01 4.938737e-01 -1.370250e-01 -1.569659e-01 -5.031487e-01 1.666575e-01 5.775564e-02 -3.506567e-02 1.107670e-01 -2.662043e-02 2.552818e-02 -3.003465e-02 -4.858301e-02 3.225713e-02 -1.606918e-01 5.069271e-02 -1.237900e-01 -2.515415e-02 4.796361e-02 9.235053e-02 1.432773e-02
<VARIANCE> 39
 1.861549e+01 2.434544e+01 5.138267e+01 9.789870e+01 6.085458e+01 8.967988e+01 6.508558e+01 4.966010e+01 5.212567e+01 5.938715e+01 5.967084e+01 3.693909e+01 2.765861e+00 9.915834e-01 9.174384e-01 1.477903e+00 3.114756e+00 2.507805e+00 3.302677e+00 3.086698e+00 2.880558e+00 3.403505e+00 3.491208e+00 2.344144e+00 2.594698e+00 3.204735e-02 1.846772e-01 2.083631e-01 3.307407e-01 7.489126e-01 5.753326e-01 7.515985e-01 8.004782e-01 6.223500e-01 6.917638e-01 8.401824e-01 5.423438e-01 5.130368e-01 2.814333e-03
<GCONST> 1.124436e+02
<MIXTURE> 2 4.669888e-01
<MEAN> 39
 -2.257791e+00 5.749716e-01 -4.925243e-01 -1.787031e+00 3.166403e+00 1.946313e+00 -5.753319e+00 -4.121504e-01 2.879500e+00 5.003922e+00 -5.322521e+00 -2.291012e+00 1.754378e+01 -4.587711e-02 -2.460540e-01 -3.148989e-01 -6.452537e-01 -3.813365e-01 -3.226391e-01 -2.774214e-01 1.492394e-02 -1.575098e-01 3.163427e-01 2.295222e-01 -2.348766e-02 -8.698430e-02 -9.809030e-02 -1.736694e-02 -1.394042e-02 -2.354555e-02 -1.195724e-01 -1.112346e-01 -1.092557e-01 -3.806880e-02 1.835917e-01 1.138194e-01 7.008743e-03 -5.840839e-03 -2.659491e-02
<VARIANCE> 39
 2.657859e+01 3.339063e+01 4.061777e+01 8.406640e+01 5.936869e+01 6.818593e+01 7.415070e+01 3.913436e+01 4.111546e+01 6.019632e+01 3.771955e+01 3.775606e+01 3.905547e+00 1.050687e+00 1.407869e+00 1.485911e+00 2.824903e+00 2.755290e+00 3.024620e+00 3.317366e+00 3.024658e+00 4.513524e+00 4.392650e+00 2.698898e+00 2.926742e+00 4.505292e-02 1.748561e-01 2.960546e-01 3.026246e-01 6.963450e-01 6.128957e-01 6.318017e-01 7.807223e-01 6.571352e-01 8.958752e-01 9.940755e-01 5.611939e-01 6.196361e-01 2.760994e-03
<GCONST> 1.143257e+02
<TRANSP> 5
 0.000000e+00 1.000000e+00 0.000000e+00 0.000000e+00 0.000000e+00
 0.000000e+00 8.779874e-01 1.220126e-01 0.000000e+00 0.000000e+00
 0.000000e+00 0.000000e+00 7.626660e-01 2.373340e-01 0.000000e+00
 0.000000e+00 0.000000e+00 0.000000e+00 7.491743e-01 2.508257e-01
 0.000000e+00 0.000000e+00 0.000000e+00 0.000000e+00 0.000000e+00
<ENDHMM>
~h "Q"
<BEGINHMM>
<NUMSTATES> 5
<STATE> 2
<NUMMIXES> 2
<MIXTURE> 1 5.000000e-01
<MEAN> 39
 -7.057501e+00 2.451989e+00 3.149919e+00 1.981526e+00 -2.841043e-02 1.080187e+00 -2.848989e+00 1.514472e+00 2.285235e+00 3.100678e+00 2.166382e+00 1.099069e+00 1.528309e+01 1.606235e-01 2.075036e-01 2.273964e-01 2.745045e-01 2.963854e-01 3.273679e-01 3.434402e-01 3.298917e-01 3.370556e-01 3.401160e-01 3.283674e-01 3.029412e-01 4.059147e-02 6.281798e-02 9.022462e-02 1.015640e-01 1.239861e-01 1.348199e-01 1.484058e-01 1.561092e-01 1.509360e-01 1.540676e-01 1.557740e-01 1.504571e-01 1.390494e-01 1.505005e-02
<VARIANCE> 39
 9.132833e+01 3.750473e+01 5.184167e+01 5.299957e+01 4.542144e+01 5.171822e+01 6.411460e+01 4.173472e+01 3.924054e+01 3.472301e+01 3.778771e+01 3.327573e+01 2.268905e+01 6.444674e-01 1.076510e+00 1.293223e+00 1.883514e+00 2.197024e+00 2.673508e+00 2.949268e+00 2.722457e+00 2.845586e+00 2.895535e+00 2.697424e+00 2.293327e+00 4.128606e-02 9.874837e-02 2.035372e-01 2.576212e-01 3.839478e-01 4.538210e-01 5.496877e-01 6.081111e-01 5.695377e-01 5.939356e-01 6.059731e-01 5.659602e-01 4.834353e-01 5.660130e-03
<GCONST> 1.098248e+02
<MIXTURE> 2 5.000000e-01
<MEAN> 39
 -1.088014e+01 2.344847e-03 2.698728e-01 -9.305059e-01 -2.724228e+00 -1.796428e+00 -6.051853e+00 -1.069625e+00 -2.204554e-01 7.436283e-01 -2.924860e-01 -1.208336e+00 1.337777e+01 -1.604915e-01 -2.075164e-01 -2.274834e-01 -2.744603e-01 -2.965091e-01 -3.266667e-01 -3.434971e-01 -3.301031e-01 -3.376991e-01 -3.405349e-01 -3.285861e-01 -3.028083e-01 -4.068441e-02 -6.287903e-02 -9.023578e-02 -1.014616e-01 -1.238680e-01 -1.346451e-01 -1.481579e-01 -1.558167e-01 -1.509349e-01 -1.542012e-01 -1.556031e-01 -1.504643e-01 -1.390686e-01 -1.504349e-02
<VARIANCE> 39
 9.132833e+01 3.750473e+01 5.184167e+01 5.299957e+01 4.542144e+01 5.171822e+01 6.411460e+01 4.173472e+01 3.924054e+01 3.472301e+01 3.778771e+01 3.327573e+01 2.268905e+01 6.444674e-01 1.076510e+00 1.293223e+00 1.883514e+00 2.197024e+00 2.673508e+00 2.949268e+00 2.722457e+00 2.845586e+00 2.895535e+00 2.697424e+00 2.293327e+00 4.128606e-02 9.874837e-02 2.035372e-01 2.576212e-01 3.839478e-01 4.538210e-01 5.496877e-01 6.081111e-01 5.695377e-01 5.939356e-01 6.059731e-01 5.659602e-01 4.834353e-01 5.660130e-03
<GCONST> 1.098248e+02
<STATE> 3
<NUMMIXES> 2
<MIXTURE> 1 5.000000e-01
<MEAN> 39
 -7.057501e+00 2.451989e+00 3.149919e+00 1.981526e+00 -2.841043e-02 1.080187e+00 -2.848989e+00 1.514472e+00 2.285235e+00 3.100678e+00 2.166382e+00 1.099069e+00 1.528309e+01 1.606235e-01 2.075036e-01 2.273964e-01 2.745045e-01 2.963854e-01 3.273679e-01 3.434402e-01 3.298917e-01 3.370556e-01 3.401160e-01 3.283674e-01 3.029412e-01 4.059147e-02 6.281798e-02 9.022462e-02 1.015640e-01 1.239861e-01 1.348199e-01 1.484058e-01 1.561092e-01 1.509360e-01 1.540676e-01 1.557740e-01 1.504571e-01 1.390494e-01 1.505005e-02
<VARIANCE> 39
 9.132833e+01 3.750473e+01 5.184167e+01 5.299957e+01 4.542144e+01 5.171822e+01 6.411460e+01 4.173472e+01 3.924054e+01 3.472301e+01 3.778771e+01 3.327573e+01 2.268905e+01 6.444674e-01 1.076510e+00 1.293223e+00 1.883514e+00 2.197024e+00 2.673508e+00 2.949268e+00 2.722457e+00 2.845586e+00 2.895535e+00 2.697424e+00 2.293327e+00 4.128606e-02 9.874837e-02 2.035372e-01 2.576212e-01 3.839478e-01 4.538210e-01 5.496877e-01 6.081111e-01 5.695377e-01 5.939356e-01 6.059731e-01 5.659602e-01 4.834353e-01 5.660130e-03
<GCONST> 1.098248e+02
<MIXTURE> 2 5.000000e-01
<MEAN> 39
 -1.088014e+01 2.344847e-03 2.698728e-01 -9.305059e-01 -2.724228e+00 -1.796428e+00 -6.051853e+00 -1.069625e+00 -2.204554e-01 7.436283e-01 -2.924860e-01 -1.208336e+00 1.337777e+01 -1.604915e-01 -2.075164e-01 -2.274834e-01 -2.744603e-01 -2.965091e-01 -3.266667e-01 -3.434971e-01 -3.301031e-01 -3.376991e-01 -3.405349e-01 -3.285861e-01 -3.028083e-01 -4.068441e-02 -6.287903e-02 -9.023578e-02 -1.014616e-01 -1.238680e-01 -1.346451e-01 -1.481579e-01 -1.558167e-01 -1.509349e-01 -1.542012e-01 -1.556031e-01 -1.504643e-01 -1.390686e-01 -1.504349e-02
<VARIANCE> 39
 9.132833e+01 3.750473e+01 5.184167e+01 5.299957e+01 4.542144e+01 5.171822e+01 6.411460e+01 4.173472e+01 3.924054e+01 3.472301e+01 3.778771e+01 3.327573e+01 2.268905e+01 6.444674e-01 1.076510e+00 1.293223e+00 1.883514e+00 2.197024e+00 2.673508e+00 2.949268e+00 2.722457e+00 2.845586e+00 2.895535e+00 2.697424e+00 2.293327e+00 4.128606e-02 9.874837e-02 2.035372e-01 2.576212e-01 3.839478e-01 4.538210e-01 5.496877e-01 6.081111e-01 5.695377e-01 5.939356e-01 6.059731e-01 5.659602e-01 4.834353e-01 5.660130e-03
<GCONST> 1.098248e+02
<STATE> 4
<NUMMIXES> 2
<MIXTURE> 1 5.000000e-01
<MEAN> 39
 -7.057501e+00 2.451989e+00 3.149919e+00 1.981526e+00 -2.841043e-02 1.080187e+00 -2.848989e+00 1.514472e+00 2.285235e+00 3.100678e+00 2.166382e+00 1.099069e+00 1.528309e+01 1.606235e-01 2.075036e-01 2.273964e-01 2.745045e-01 2.963854e-01 3.273679e-01 3.434402e-01 3.298917e-01 3.370556e-01 3.401160e-01 3.283674e-01 3.029412e-01 4.059147e-02 6.281798e-02 9.022462e-02 1.015640e-01 1.239861e-01 1.348199e-01 1.484058e-01 1.561092e-01 1.509360e-01 1.540676e-01 1.557740e-01 1.504571e-01 1.390494e-01 1.505005e-02
<VARIANCE> 39
 9.132833e+01 3.750473e+01 5.184167e+01 5.299957e+01 4.542144e+01 5.171822e+01 6.411460e+01 4.173472e+01 3.924054e+01 3.472301e+01 3.778771e+01 3.327573e+01 2.268905e+01 6.444674e-01 1.076510e+00 1.293223e+00 1.883514e+00 2.197024e+00 2.673508e+00 2.949268e+00 2.722457e+00 2.845586e+00 2.895535e+00 2.697424e+00 2.293327e+00 4.128606e-02 9.874837e-02 2.035372e-01 2.576212e-01 3.839478e-01 4.538210e-01 5.496877e-01 6.081111e-01 5.695377e-01 5.939356e-01 6.059731e-01 5.659602e-01 4.834353e-01 5.660130e-03
<GCONST> 1.098248e+02
<MIXTURE> 2 5.000000e-01
<MEAN> 39
 -1.088014e+01 2.344847e-03 2.698728e-01 -9.305059e-01 -2.724228e+00 -1.796428e+00 -6.051853e+00 -1.069625e+00 -2.204554e-01 7.436283e-01 -2.924860e-01 -1.208336e+00 1.337777e+01 -1.604915e-01 -2.075164e-01 -2.274834e-01 -2.744603e-01 -2.965091e-01 -3.266667e-01 -3.434971e-01 -3.301031e-01 -3.376991e-01 -3.405349e-01 -3.285861e-01 -3.028083e-01 -4.068441e-02 -6.287903e-02 -9.023578e-02 -1.014616e-01 -1.238680e-01 -1.346451e-01 -1.481579e-01 -1.558167e-01 -1.509349e-01 -1.542012e-01 -1.556031e-01 -1.504643e-01 -1.390686e-01 -1.504349e-02
<VARIANCE> 39
 9.132833e+01 3.750473e+01 5.184167e+01 5.299957e+01 4.542144e+01 5.171822e+01 6.411460e+01 4.173472e+01 3.924054e+01 3.472301e+01 3.778771e+01 3.327573e+01 2.268905e+01 6.444674e-01 1.076510e+00 1.293223e+00 1.883514e+00 2.197024e+00 2.673508e+00 2.949268e+00 2.722457e+00 2.845586e+00 2.895535e+00 2.697424e+00 2.293327e+00 4.128606e-02 9.874837e-02 2.035372e-01 2.576212e-01 3.839478e-01 4.538210e-01 5.496877e-01 6.081111e-01 5.695377e-01 5.939356e-01 6.059731e-01 5.659602e-01 4.834353e-01 5.660130e-03
<GCONST> 1.098248e+02
<TRANSP> 5
 0.000000e+00 1.000000e+00 0.000000e+00 0.000000e+00 0.000000e+00
 0.000000e+00 5.000000e-01 5.000000e-01 0.000000e+00 0.000000e+00
 0.000000e+00 0.000000e+00 5.000000e-01 5.000000e-01 0.000000e+00
 0.000000e+00 0.000000e+00 0.000000e+00 5.000000e-01 5.000000e-01
 0.000000e+00 0.000000e+00 0.000000e+00 0.000000e+00 0.000000e+00
<ENDHMM>
~h "a"
<BEGINHMM>
<NUMSTATES> 5
<STATE> 2
<NUMMIXES> 2
<MIXTURE> 1 5.093381e-01
<MEAN> 39
 -4.065514e+00 -6.889982e+00 -9.618297e-01 -3.088468e+00 -7.363865e+00 -1.383823e+00 -3.574619e+00 9.995326e+00 5.217870e+00 3.327921e+00 -5.076632e+00 -3.239869e+00 1.815370e+01 2.137488e-01 4.446323e-01 -2.138744e-02 4.886172e-01 1.249938e-01 9.498439e-02 5.859284e-01 -2.463467e-01 8.839831e-02 -2.249539e-01 -5.103587e-02 2.619712e-01 6.585015e-02 6.700891e-02 -9.069179e-02 -6.474894e-03 3.664658e-02 7.258549e-02 2.550338e-01 -1.101000e-01 -2.115359e-01 -2.278388e-01 -1.196963e-01 1.863993e-01 1.124645e-02 9.461953e-03
<VARIANCE> 39
 2.627595e+01 3.261905e+01 6.585600e+01 5.578067e+01 4.943191e+01 8.442230e+01 5.661272e+01 6.541521e+01 4.607780e+01 3.882114e+01 5.125058e+01 5.844230e+01 3.491776e+00 1.333575e+00 2.134497e+00 1.712916e+00 3.111041e+00 2.498921e+00 3.190157e+00 3.735420e+00 3.596957e+00 3.249438e+00 2.245760e+00 2.904044e+00 2.394997e+00 1.143829e-01 2.016394e-01 4.901277e-01 3.190939e-01 7.592552e-01 5.024745e-01 6.633943e-01 7.716520e-01 7.767665e-01 6.753657e-01 4.683363e-01 6.415965e-01 5.362257e-01 1.130919e-02
<GCONST> 1.170468e+02
<MIXTURE> 2 4.906633e-01
<MEAN> 39
 -2.724754e+00 -8.515967e+00 -1.831452e+00 -2.605175e+00 -6.579739e+00 1.465948e+00 -4.547353e+00 8.206980e+00 3.238276e+00 1.803455e+00 -3.684627e+00 -4.049567e+00 1.851038e+01 2.125117e-01 -9.332563e-01 -1.310119e-01 -6.878615e-01 -3.476396e-01 7.071808e-02 -5.939086e-01 7.827055e-01 -1.031342e-03 4.709947e-02 1.168773e-01 -5.884175e-01 1.358321e-01 -1.003052e-01 1.260965e-01 -2.521672e-02 2.009472e-03 -3.600526e-02 -2.585610e-01 1.366960e-01 1.161745e-01 2.286467e-01 8.214625e-02 -1.887406e-01 -2.950022e-02 -3.106070e-02
<VARIANCE> 39
 2.603387e+01 3.777071e+01 5.360167e+01 3.441842e+01 3.437185e+01 4.963495e+01 5.002933e+01 5.274278e+01 3.497478e+01 2.650431e+01 3.290969e+01 4.415891e+01 2.753968e+00 1.011407e+00 2.734432e+00 1.810054e+00 2.985337e+00 2.136487e+00 3.053916e+00 3.191776e+00 4.010187e+00 3.787398e+00 2.217239e+00 3.484685e+00 2.535377e+00 8.193862e-02 1.795878e-01 6.154009e-01 3.203694e-01 6.043294e-01 4.211288e-01 5.585741e-01 7.722449e-01 7.603328e-01 7.261562e-01 4.205818e-01 6.593584e-01 5.421694e-01 1.122704e-02
<GCONST> 1.129407e+02
<STATE> 3
<NUMMIXES> 2
<MIXTURE> 1 5.055644e-01
<MEAN> 39
 1.906992e+00 -1.177868e+01 -1.041517e+01 -1.242890e+00 -5.446820e+00 5.517567e+00 -3.146538e+00 6.410689e+00 8.339180e+00 1.681898e+00 -5.601873e+00 -1.347756e+01 2.061582e+01 -1.558793e-01 5.994389e-01 1.968271e-01 3.628146e-01 3.329325e-01 5.440350e-02 4.868520e-01 -1.656951e-01 1.731356e-02 -2.392239e-01 -3.780886e-01 1.693083e-01 1.178777e-02 5.938619e-02 5.468892e-02 1.043373e-01 1.027208e-01 1.734106e-03 1.187514e-02 -6.474648e-02 -1.565839e-01 -2.497035e-01 -9.177931e-02 1.805802e-01 2.252024e-01 -2.277241e-03
<VARIANCE> 39
 5.202036e+00 2.275430e+01 2.049004e+01 2.702172e+01 1.817859e+01 2.965663e+01 3.846562e+01 4.644790e+01 2.389905e+01 3.427443e+01 2.733278e+01 3.181695e+01 3.888781e-01 3.492130e-01 6.749920e-01 6.820319e-01 9.550163e-01 8.932727e-01 1.009565e+00 1.350661e+00 1.604005e+00 1.798257e+00 1.391929e+00 1.314038e+00 1.448830e+00 2.114104e-03 5.867356e-02 1.610776e-01 1.185925e-01 1.670489e-01 1.749716e-01 1.775109e-01 2.424572e-01 2.313146e-01 2.525801e-01 2.356382e-01 2.285709e-01 2.075709e-01 1.972031e-04
<GCONST> 7.393874e+01
<MIXTURE> 2 4.944245e-01
<MEAN> 39
 2.748356e+00 -1.074547e+01 -9.322792e+00 1.584965e+00 -5.637881e+00 5.149442e+00 -2.936614e+00 2.773959e+00 3.666519e+00 -1.590457e+00 -2.304518e+00 -1.018754e+01 2.041217e+01 2.068350e-01 -6.386648e-01 -2.682912e-01 -3.598109e-01 -4.443617e-01 -4.375588e-02 -5.128072e-01 1.486028e-01 -1.610226e-02 3.017331e-01 3.422310e-01 -2.058789e-01 -9.839510e-04 -8.482952e-02 -1.670791e-02 -3.287917e-02 -1.421492e-01 1.241095e-02 -5.429562e-02 4.285356e-02 1.753938e-01 2.315292e-01 1.406595e-01 -1.899875e-01 -1.555764e-01 -3.065663e-03
<VARIANCE> 39
 5.644294e+00 1.929084e+01 2.232215e+01 2.386100e+01 1.680024e+01 2.306612e+01 3.335024e+01 3.049149e+01 1.664593e+01 2.186386e+01 2.012523e+01 2.015411e+01 4.196660e-01 4.310354e-01 8.626127e-01 9.067402e-01 1.108645e+00 9.278821e-01 1.188223e+00 1.386629e+00 1.828332e+00 2.053237e+00 1.551525e+00 1.615411e+00 1.671012e+00 2.182922e-03 8.356830e-02 1.852291e-01 1.664249e-01 2.045404e-01 2.147302e-01 2.083126e-01 3.368149e-01 2.980921e-01 2.801882e-01 2.728229e-01 2.612553e-01 2.381006e-01 2.232938e-04
<GCONST> 7.592236e+01
<STATE> 4
<NUMMIXES> 2
<MIXTURE> 1 5.087855e-01
<MEAN> 39
 5.973636e-01 -8.814530e+00 2.284592e+00 -2.408718e+00 -1.007996e+01 -5.074764e+00 -4.802953e+00 1.336820e+01 2.952542e+00 3.195403e+00 -3.556502e+00 -4.252167e+00 2.018484e+01 -6.538844e-02 6.369024e-01 2.769396e-01 2.469953e-01 2.686644e-01 -1.975927e-01 3.785049e-01 -7.591891e-02 2.151277e-01 -4.139376e-02 -3.725217e-01 1.302448e-01 1.054179e-02 4.064806e-02 6.283455e-02 7.423773e-03 1.579587e-01 1.540120e-01 2.063063e-01 4.607170e-02 -2.392671e-01 -1.888927e-01 -1.038253e-01 4.907307e-02 -1.960282e-02 -3.071524e-03
<VARIANCE> 39
 4.939284e+00 2.091563e+01 3.216645e+01 2.038536e+01 2.250619e+01 2.685474e+01 5.071309e+01 2.797668e+01 4.353002e+01 2.448026e+01 2.965256e+01 2.269880e+01 2.857997e-01 3.405760e-01 8.201916e-01 7.820613e-01 1.106437e+00 1.236274e+00 1.729685e+00 1.486123e+00 2.088391e+00 1.859791e+00 1.328524e+00 1.173426e+00 9.497508e-01 2.408256e-03 5.921133e-02 1.757003e-01 1.277974e-01 1.866272e-01 2.493053e-01 3.074668e-01 2.796041e-01 3.044562e-01 2.902522e-01 2.385357e-01 2.486327e-01 1.779726e-01 2.059925e-04
<GCONST> 7.654036e+01
<MIXTURE> 2 4.912085e-01
<MEAN> 39
 1.202072e+00 -8.053131e+00 1.361091e+00 2.145431e-01 -8.358708e+00 -1.914678e+00 -3.646420e+00 9.660764e+00 -1.243784e-01 7.682241e-01 -2.889163e+00 -4.967389e+00 2.012264e+01 8.496276e-02 -3.427552e-01 9.522901e-02 -2.503411e-01 -1.327270e-01 -1.535557e-01 -6.007527e-01 5.245543e-03 -5.540922e-01 3.584678e-01 4.578495e-01 9.087969e-02 -1.055446e-02 -5.268600e-02 -1.054445e-02 2.193114e-03 -1.292053e-01 -9.453734e-02 -1.941554e-01 -3.272025e-02 1.602057e-01 1.865365e-01 1.161342e-01 -3.010099e-02 1.723699e-02 -5.628323e-03
<VARIANCE> 39
 5.359755e+00 1.773364e+01 3.335588e+01 2.078253e+01 2.008258e+01 2.048169e+01 4.118705e+01 2.319221e+01 3.330709e+01 1.768593e+01 2.185699e+01 1.666829e+01 2.767694e-01 4.046167e-01 9.955236e-01 8.701521e-01 1.164522e+00 1.489995e+00 2.126708e+00 1.542727e+00 2.121237e+00 2.001407e+00 1.547223e+00 1.324947e+00 1.169306e+00 3.019515e-03 8.169626e-02 1.850033e-01 1.672237e-01 2.177484e-01 2.555389e-01 3.200125e-01 3.383957e-01 3.407066e-01 3.379470e-01 2.580017e-01 2.702833e-01 2.048172e-01 2.464618e-04
<GCONST> 7.804362e+01
<TRANSP> 5
 0.000000e+00 1.000000e+00 0.000000e+00 0.000000e+00 0.000000e+00
 0.000000e+00 9.180786e-01 8.192138e-02 0.000000e+00 0.000000e+00
 0.000000e+00 0.000000e+00 9.482408e-01 5.175924e-02 0.000000e+00
 0.000000e+00 0.000000e+00 0.000000e+00 9.409214e-01 5.907858e-02
 0.000000e+00 0.000000e+00 0.000000e+00 0.000000e+00 0.000000e+00
<ENDHMM>
~h "b"
<BEGINHMM>
<NUMSTATES> 5
<STATE> 2
<NUMMIXES> 2
<MIXTURE> 1 4.925955e-01
<MEAN> 39
 -4.201484e+00 -2.639429e+00 2.527327e+00 3.030674e+00 2.716105e+00 5.372627e-02 -6.138958e+00 -5.136187e+00 2.052938e+00 3.514121e+00 2.484741e+00 -3.956766e-02 1.738910e+01 2.534566e+00 2.204894e+00 1.593700e+00 2.169563e-01 6.354861e-02 2.282534e+00 8.647240e-01 7.150449e-01 -8.920737e-01 -6.406013e-02 -8.278245e-01 3.497255e-01 4.059045e-01 2.601394e-01 1.970296e-01 -1.952907e-01 -5.891016e-01 -7.048240e-01 1.329759e-01 6.522535e-03 3.996757e-01 -2.892496e-01 -1.762341e-01 -1.302683e-01 2.391294e-01 6.460417e-02
<VARIANCE> 39
 1.212876e+01 1.368316e+01 3.864839e+01 4.488533e+01 2.809676e+01 7.828437e+01 2.435504e+01 4.457767e+01 3.288248e+01 3.868397e+01 3.153438e+01 2.284791e+01 6.740944e-01 1.261552e+00 1.662962e+00 2.813631e+00 4.255330e+00 3.541538e+00 6.853938e+00 3.284159e+00 3.511428e+00 3.014582e+00 4.217602e+00 3.249707e+00 2.315162e+00 6.323924e-02 2.312600e-01 3.472837e-01 3.648635e-01 5.007958e-01 4.752072e-01 1.135475e+00 6.301542e-01 5.817806e-01 6.668887e-01 6.427243e-01 6.281759e-01 4.764054e-01 4.703667e-03
<GCONST> 1.096705e+02
<MIXTURE> 2 5.074039e-01
<MEAN> 39
 -5.529788e+00 -2.454676e+00 4.376040e+00 5.088445e+00 4.705994e+00 1.059884e+00 -4.808438e+00 -2.977584e+00 2.149761e-01 1.922026e-01 4.936964e-01 -2.004238e+00 1.755378e+01 1.807289e+00 1.239360e+00 1.260175e+00 3.903517e-01 -2.099204e-01 8.871607e-01 1.047302e-01 4.229576e-03 -8.782995e-01 -3.117971e-01 -8.772404e-01 -3.184783e-01 3.124546e-01 3.168386e-01 -6.248476e-03 -3.253279e-01 -6.736608e-01 -8.417054e-01 -1.845989e-01 -3.615620e-01 -7.068694e-02 -1.037915e-01 2.348271e-01 1.260789e-01 4.296153e-01 6.223658e-02
<VARIANCE> 39
 4.891373e+01 2.339471e+01 4.549774e+01 5.763835e+01 3.689865e+01 4.526232e+01 2.582551e+01 3.774257e+01 3.187566e+01 4.510176e+01 2.308489e+01 2.509391e+01 1.676331e+00 2.177835e+00 1.608390e+00 2.750883e+00 3.688809e+00 5.327017e+00 3.886160e+00 4.578784e+00 4.368989e+00 2.720559e+00 3.324965e+00 2.904236e+00 3.615231e+00 1.378085e-01 2.479317e-01 3.430040e-01 5.245057e-01 6.641304e-01 8.045441e-01 7.836191e-01 6.069919e-01 7.702657e-01 6.721385e-01 8.884495e-01 6.059160e-01 6.087205e-01 1.314142e-02
<GCONST> 1.166266e+02
<STATE> 3
<NUMMIXES> 2
<MIXTURE> 1 5.221180e-01
<MEAN> 39
 2.015674e+00 2.978338e+00 2.692889e+00 1.515655e-02 -1.320225e-01 3.413214e+00 -4.939965e+00 -3.957507e+00 -9.726558e-01 1.899517e+00 8.024743e-02 2.124287e+00 1.873137e+01 2.165630e+00 8.912646e-01 -4.713616e-01 -1.732885e+00 -1.561959e+00 1.016379e+00 -8.542001e-01 2.979462e-01 -5.939318e-01 6.239700e-01 -1.404887e-01 7.846009e-01 4.237882e-01 -3.868726e-01 -6.202670e-01 -4.961731e-01 -2.854859e-01 -1.423419e-01 -2.043091e-01 -4.657803e-01 -4.700045e-02 1.575157e-01 2.702036e-01 3.343977e-01 -5.553132e-02 -3.472863e-02
<VARIANCE> 39
 1.334382e+01 1.571322e+01 5.740955e+01 4.446238e+01 2.154989e+01 6.764802e+01 2.644489e+01 2.997985e+01 3.168671e+01 3.280666e+01 3.807474e+01 3.076795e+01 5.921614e-01 1.352476e+00 2.262680e+00 2.805315e+00 3.963924e+00 4.094813e+00 4.316197e+00 3.297626e+00 2.932310e+00 3.176776e+00 3.812093e+00 3.071772e+00 2.222910e+00 5.136756e-02 1.214946e-01 2.377109e-01 3.205515e-01 4.906707e-01 4.885142e-01 7.273364e-01 5.309768e-01 4.558893e-01 6.081455e-01 5.694530e-01 5.983607e-01 4.426440e-01 3.651269e-03
<GCONST> 1.065820e+02
<MIXTURE> 2 4.778819e-01
<MEAN> 39
 3.084486e+00 3.768034e-01 2.134495e+00 -2.403034e+00 -3.229151e+00 4.565375e+00 -6.932596e+00 -2.868089e+00 -9.827651e-01 2.919530e+00 -2.318762e-01 1.489221e-01 1.894138e+01 1.630902e+00 -1.870520e-01 -7.397903e-01 -2.195008e+00 -1.904195e+00 7.689246e-01 -1.729845e+00 4.330265e-01 -4.134952e-01 1.040109e+00 5.332584e-01 8.896645e-01 3.866431e-01 -6.772519e-01 -4.121002e-01 -2.495902e-01 8.453055e-03 1.655299e-01 -4.881240e-01 -2.185750e-01 -4.639206e-02 2.528945e-01 1.168566e-02 2.047979e-01 9.557770e-03 -7.537361e-02
<VARIANCE> 39
 2.658256e+01 3.055866e+01 7.042236e+01 6.642715e+01 2.746251e+01 7.099088e+01 2.947618e+01 4.806926e+01 2.108823e+01 2.860338e+01 2.383385e+01 2.832977e+01 9.665182e-01 1.152999e+00 2.513363e+00 3.155640e+00 3.516682e+00 3.492384e+00 5.562504e+00 3.531683e+00 3.289897e+00 3.323856e+00 3.358204e+00 3.798241e+00 2.923153e+00 6.976505e-02 1.345965e-01 3.152535e-01 3.237761e-01 7.282181e-01 6.472592e-01 8.658565e-01 6.304590e-01 6.455627e-01 4.640294e-01 7.498256e-01 4.637990e-01 4.480349e-01 5.656824e-03
<GCONST> 1.117051e+02
<STATE> 4
<NUMMIXES> 2
<MIXTURE> 1 5.272546e-01
<MEAN> 39
 3.541590e+00 3.782743e+00 6.311135e-01 -1.078735e+00 3.814725e-01 4.214137e+00 -8.188657e+00 -7.743436e+00 1.444885e+00 5.315854e+00 -1.956747e+00 -1.281629e-01 1.867720e+01 -9.040344e-02 1.375242e-01 2.359699e-01 3.521357e-01 6.950396e-02 9.087560e-02 1.448185e-01 1.366290e-01 2.628993e-01 -1.431987e-01 -1.932135e-01 -8.931568e-02 1.119554e-02 1.953916e-02 -7.591360e-02 3.558876e-02 1.244569e-01 3.480335e-02 -3.733834e-02 3.639568e-02 1.409159e-01 -3.522725e-02 -9.034351e-02 6.847325e-02 3.502973e-04 -3.137302e-03
<VARIANCE> 39
 1.789277e+01 2.772653e+01 4.231296e+01 1.280444e+02 2.873498e+01 6.806117e+01 5.451478e+01 5.630244e+01 5.162063e+01 6.993371e+01 5.680417e+01 5.177807e+01 1.982520e+00 5.902789e-01 8.652480e-01 1.373717e+00 2.387782e+00 2.220421e+00 2.451622e+00 3.103756e+00 2.941371e+00 2.538739e+00 3.742689e+00 3.302157e+00 2.118942e+00 2.224265e-02 1.187910e-01 1.915110e-01 2.884862e-01 5.229541e-01 3.947138e-01 4.771558e-01 6.327125e-01 5.623592e-01 5.322895e-01 8.517502e-01 7.880852e-01 4.394254e-01 1.507055e-03
<GCONST> 1.070383e+02
<MIXTURE> 2 4.727457e-01
<MEAN> 39
 1.610803e+00 2.326908e+00 2.953034e+00 1.829893e-01 -7.238575e-01 2.158997e+00 -8.439473e+00 -3.403784e+00 -3.119945e-01 3.013467e+00 -1.313238e+00 7.889218e-01 1.815480e+01 7.746521e-02 -3.222809e-01 -4.608546e-01 -5.932575e-01 -4.641637e-01 -2.616312e-01 -6.149430e-01 5.295895e-02 2.321905e-02 3.699871e-01 1.709508e-01 -4.325752e-03 3.190473e-02 -2.207449e-01 -2.669562e-02 -2.706703e-02 1.106039e-01 1.079886e-01 -7.190178e-02 1.330188e-01 -7.975926e-02 9.224147e-02 -8.362620e-02 -1.086416e-01 -1.109862e-01 -2.938719e-02
<VARIANCE> 39
 3.869946e+01 3.126858e+01 7.206620e+01 9.456851e+01 4.784847e+01 6.971113e+01 5.926797e+01 5.891850e+01 3.896659e+01 4.328230e+01 4.498272e+01 3.507902e+01 4.022897e+00 7.868119e-01 1.634906e+00 1.825142e+00 2.926702e+00 2.774677e+00 2.606416e+00 3.074703e+00 2.850287e+00 2.808946e+00 3.106012e+00 3.192805e+00 2.634800e+00 5.119496e-02 1.645017e-01 2.890720e-01 3.523495e-01 6.532841e-01 5.831925e-01 6.415427e-01 7.523314e-01 6.454482e-01 5.229357e-01 6.178218e-01 6.201396e-01 4.949730e-01 3.436174e-03
<GCONST> 1.132551e+02
<TRANSP> 5
 0.000000e+00 1.000000e+00 0.000000e+00 0.000000e+00 0.000000e+00
 0.000000e+00 4.688895e-01 5.311105e-01 0.000000e+00 0.000000e+00
 0.000000e+00 0.000000e+00 5.868093e-01 4.131907e-01 0.000000e+00
 0.000000e+00 0.000000e+00 0.000000e+00 8.475437e-01 1.524564e-01
 0.000000e+00 0.000000e+00 0.000000e+00 0.000000e+00 0.000000e+00
<ENDHMM>
~h "d"
<BEGINHMM>
<NUMSTATES> 5
<STATE> 2
<NUMMIXES> 2
<MIXTURE> 1 5.280280e-01
<MEAN> 39
 -2.434319e+00 5.856206e+00 7.998913e+00 1.924415e+00 1.936335e+00 -1.407317e+00 -5.673912e+00 -3.410896e+00 -6.394305e-01 -5.925055e-01 -1.980157e+00 -5.947652e-01 1.820108e+01 -1.118648e+00 -5.095120e-01 -2.590455e-01 -4.335903e-01 6.856452e-01 -4.858867e-03 1.066764e+00 2.159665e-01 -4.341160e-01 -5.153353e-02 3.570824e-01 3.303039e-01 -8.408324e-02 7.060114e-02 -1.533272e-01 -1.053860e-01 -3.770266e-02 -1.586623e-01 -2.551752e-02 -1.623589e-01 2.174107e-01 1.290980e-01 9.319691e-02 2.757115e-03 -1.499956e-02 1.111786e-02
<VARIANCE> 39
 3.174826e+01 4.284527e+01 3.350827e+01 3.191600e+01 4.121807e+01 7.686925e+01 5.346561e+01 3.932955e+01 3.682693e+01 3.570779e+01 3.226227e+01 3.077998e+01 2.888442e+00 2.472583e+00 3.496531e+00 2.170952e+00 2.299130e+00 3.225067e+00 5.880198e+00 5.254565e+00 4.302545e+00 3.389029e+00 2.802273e+00 3.184316e+00 2.473031e+00 2.596541e-02 4.244889e-01 4.816764e-01 3.196277e-01 4.701280e-01 6.188651e-01 9.375328e-01 1.067352e+00 6.226785e-01 6.869726e-01 6.547200e-01 5.249238e-01 5.281297e-01 1.930409e-03
<GCONST> 1.144443e+02
<MIXTURE> 2 4.719715e-01
<MEAN> 39
 -4.518439e+00 7.596954e+00 8.054154e+00 4.872703e+00 5.136193e-01 -3.327761e+00 -5.126599e+00 -4.019204e+00 -1.074184e+00 -2.873751e-01 -3.336710e+00 -2.067437e+00 1.635033e+01 -2.034990e+00 -1.784577e+00 -1.323295e+00 -1.302216e+00 8.839716e-01 3.552493e-01 1.091311e+00 -9.396827e-02 -8.542939e-01 -7.114159e-01 6.348782e-01 3.685767e-01 -2.322565e-01 -1.702361e-01 -3.860723e-01 -2.991195e-01 -2.432897e-01 -3.209635e-02 4.500212e-02 9.511888e-02 1.977562e-01 1.653703e-01 -6.654270e-02 1.093552e-01 1.957676e-01 -8.479247e-04
<VARIANCE> 39
 3.422601e+01 2.546916e+01 2.358089e+01 2.017884e+01 3.634246e+01 3.436427e+01 3.323587e+01 3.295918e+01 3.078887e+01 2.937740e+01 3.340309e+01 2.262153e+01 4.358928e+00 2.413334e+00 3.299836e+00 2.022880e+00 3.260134e+00 4.101501e+00 3.878830e+00 4.345837e+00 4.775295e+00 3.704947e+00 3.971494e+00 3.563800e+00 2.705805e+00 4.341247e-02 3.841710e-01 4.385396e-01 3.434098e-01 4.691013e-01 6.286862e-01 5.404625e-01 7.959889e-01 6.825659e-01 6.728512e-01 6.892037e-01 6.953686e-01 4.794788e-01 6.882060e-03
<GCONST> 1.130857e+02
<STATE> 3
<NUMMIXES> 2
<MIXTURE> 1 5.203103e-01
<MEAN> 39
 -7.890927e+00 2.541280e+00 4.862969e+00 1.934645e+00 2.610960e+00 -1.250136e+00 -1.770250e+00 -1.811704e+00 -8.566130e-01 -6.762751e-01 -1.636175e+00 -9.616214e-02 1.659003e+01 -2.578990e-01 1.188285e-01 -2.328438e-01 -1.183516e-02 1.000950e-01 -1.499021e-01 1.010266e-01 2.987466e-01 2.545148e-01 1.919015e-01 1.152203e-01 2.736722e-01 -6.178749e-02 3.060699e-01 2.323153e-01 1.676617e-01 1.184481e-01 -2.505752e-01 -1.538214e-01 -3.605535e-01 -2.381326e-02 2.232301e-01 9.415595e-02 -8.437102e-02 -4.252580e-02 3.682527e-02
<VARIANCE> 39
 3.901068e+01 2.721203e+01 2.729808e+01 2.354305e+01 3.552365e+01 4.562532e+01 5.718748e+01 3.622755e+01 3.916137e+01 4.118255e+01 3.424921e+01 2.415379e+01 6.591160e+00 9.939194e-01 1.896302e+00 1.606908e+00 2.098706e+00 1.837726e+00 2.965842e+00 2.640270e+00 2.999675e+00 3.277426e+00 3.182534e+00 2.957398e+00 2.500526e+00 3.800746e-02 3.063782e-01 5.903367e-01 4.298860e-01 4.270275e-01 5.517887e-01 7.246874e-01 7.044004e-01 6.277300e-01 8.266589e-01 7.952433e-01 6.389296e-01 5.538743e-01 2.982958e-03
<GCONST> 1.104059e+02
<MIXTURE> 2 4.796900e-01
<MEAN> 39
 -8.182294e+00 2.436569e+00 3.326638e+00 2.477945e+00 2.279101e+00 -9.989659e-01 -6.742079e-01 -9.112593e-01 -8.837258e-01 -7.326244e-01 -2.759197e+00 -6.031001e-01 1.513392e+01 -7.468179e-01 -7.870312e-01 -9.525884e-01 -8.375046e-01 -5.191956e-01 -4.658065e-01 1.269906e-01 3.289744e-01 4.811765e-02 -4.720198e-02 5.469558e-01 5.081028e-01 -2.418271e-01 2.004112e-01 2.609340e-01 1.693392e-01 1.267067e-01 -2.052385e-01 -1.925571e-01 -3.374126e-01 -1.523439e-01 1.541208e-01 1.481390e-01 -2.696751e-02 5.058686e-03 2.200434e-02
<VARIANCE> 39
 3.557354e+01 2.340515e+01 1.868474e+01 2.450088e+01 3.292043e+01 3.642995e+01 4.141594e+01 3.945643e+01 3.426223e+01 3.013674e+01 3.643412e+01 2.032803e+01 6.152874e+00 1.094298e+00 1.919775e+00 1.748766e+00 2.722508e+00 2.475752e+00 2.488471e+00 2.814730e+00 3.588021e+00 2.864847e+00 3.382147e+00 3.220238e+00 2.398900e+00 6.419002e-02 2.824530e-01 4.657195e-01 3.504701e-01 5.671476e-01 6.329287e-01 5.833663e-01 6.566178e-01 7.664278e-01 7.768922e-01 8.059530e-01 7.730776e-01 4.840810e-01 5.360096e-03
<GCONST> 1.103769e+02
<STATE> 4
<NUMMIXES> 2
<MIXTURE> 1 5.305585e-01
<MEAN> 39
 -1.251248e+01 3.758845e+00 5.035550e+00 4.681051e-01 -5.032483e-01 -6.354950e+00 -4.584760e+00 -2.092367e+00 3.739683e+00 -8.341370e-01 -3.164333e-01 1.731305e+00 1.697407e+01 6.878118e-01 5.966486e-01 8.103456e-01 4.491007e-01 -1.407616e-01 -5.620500e-02 -6.024261e-01 2.011963e-01 4.709462e-01 1.648589e-01 -2.201885e-01 9.091499e-02 1.632426e-01 2.330199e-01 -1.394036e-01 -2.043755e-03 -8.634539e-03 -2.855509e-02 1.796109e-01 -6.213745e-02 2.108238e-02 -1.525030e-01 7.125997e-03 -3.074118e-02 -1.080480e-01 2.665459e-02
<VARIANCE> 39
 6.260003e+01 3.699344e+01 5.659685e+01 4.185178e+01 4.188589e+01 4.222725e+01 5.570098e+01 4.085823e+01 3.627938e+01 3.439363e+01 3.137681e+01 2.146747e+01 4.815376e+00 2.335125e+00 2.409346e+00 3.095851e+00 2.867789e+00 3.655551e+00 3.868441e+00 4.990975e+00 3.029793e+00 3.392252e+00 2.938869e+00 3.064699e+00 2.458981e+00 8.499886e-02 2.793635e-01 4.468030e-01 6.020495e-01 6.004021e-01 7.536351e-01 7.596653e-01 9.321772e-01 6.400356e-01 6.264881e-01 6.213686e-01 6.821159e-01 5.030470e-01 9.162996e-03
<GCONST> 1.178685e+02
<MIXTURE> 2 4.694403e-01
<MEAN> 39
 -1.238636e+01 4.772144e-01 1.662602e+00 -8.142975e-01 -1.554708e+00 -4.846133e+00 -3.615080e+00 -1.581923e+00 2.054223e+00 5.358258e-01 1.639133e-01 8.521224e-01 1.544564e+01 -6.016909e-02 -4.975035e-01 -4.278769e-01 -5.828114e-01 -3.344867e-01 -3.863497e-01 -4.906505e-01 -1.291846e-01 1.234960e-01 2.784023e-02 -5.548586e-03 -3.418368e-02 2.082720e-01 1.670055e-02 1.247500e-01 8.896003e-02 8.487611e-02 -3.921584e-02 -6.530185e-02 -1.065955e-01 -1.111304e-02 1.105286e-01 5.264543e-03 -7.088255e-02 7.693716e-03 -6.977944e-04
<VARIANCE> 39
 5.955151e+01 4.844046e+01 3.710059e+01 3.935276e+01 5.464853e+01 4.507591e+01 4.895957e+01 4.771463e+01 3.989636e+01 3.794590e+01 2.590519e+01 2.243813e+01 7.638417e+00 2.670343e+00 3.925113e+00 2.246970e+00 3.252378e+00 3.491915e+00 4.442758e+00 4.651748e+00 3.790830e+00 3.264466e+00 3.601965e+00 2.817867e+00 2.840185e+00 2.682527e-01 3.412998e-01 8.528940e-01 5.021533e-01 6.365693e-01 6.776282e-01 8.779297e-01 9.176323e-01 7.486925e-01 7.052022e-01 6.573936e-01 6.096913e-01 6.199659e-01 3.920570e-02
<GCONST> 1.231457e+02
<TRANSP> 5
 0.000000e+00 1.000000e+00 0.000000e+00 0.000000e+00 0.000000e+00
 0.000000e+00 4.825779e-01 5.174221e-01 0.000000e+00 0.000000e+00
 0.000000e+00 0.000000e+00 6.352872e-01 3.647128e-01 0.000000e+00
 0.000000e+00 0.000000e+00 0.000000e+00 7.998636e-01 2.001364e-01
 0.000000e+00 0.000000e+00 0.000000e+00 0.000000e+00 0.000000e+00
<ENDHMM>
~h "e"
<BEGINHMM>
<NUMSTATES> 5
<STATE> 2
<NUMMIXES> 2
<MIXTURE> 1 5.344729e-01
<MEAN> 39
 -3.416709e-01 -5.147643e+00 3.237015e+00 -3.733395e+00 -9.061196e+00 -5.084530e+00 -1.146610e+01 8.398224e+00 7.117774e+00 4.558496e+00 -3.309112e+00 -1.429344e+00 1.967881e+01 3.308119e-01 -1.046669e-01 -3.942676e-01 9.847579e-02 -2.963999e-01 -1.598890e-01 1.083557e-01 2.643124e-01 3.593306e-01 2.173197e-01 -1.466024e-01 5.286840e-02 8.430237e-02 -1.158237e-01 -7.599391e-03 4.576958e-02 1.837117e-01 2.229996e-01 2.125557e-01 2.213137e-01 -1.744339e-01 -3.466825e-01 -2.062569e-01 8.002637e-02 -6.214527e-02 -3.027763e-02
<VARIANCE> 39
 1.210682e+01 4.140434e+01 4.400139e+01 3.554009e+01 4.135546e+01 6.758284e+01 5.481027e+01 6.609363e+01 4.725286e+01 4.743573e+01 5.376868e+01 4.012893e+01 1.152739e+00 5.945581e-01 2.060612e+00 1.218166e+00 2.465008e+00 2.702148e+00 2.944962e+00 3.401476e+00 3.119704e+00 3.261032e+00 2.780052e+00 2.137552e+00 1.761971e+00 2.574885e-02 1.250462e-01 3.662707e-01 2.478334e-01 4.881370e-01 5.142039e-01 6.286756e-01 6.115860e-01 6.363345e-01 6.171078e-01 5.196845e-01 4.259185e-01 4.136795e-01 2.648646e-03
<GCONST> 1.064478e+02
<MIXTURE> 2 4.655272e-01
<MEAN> 39
 -2.390772e+00 -6.509246e+00 1.434053e+00 -3.884897e+00 -8.447067e+00 -2.822691e+00 -7.702586e+00 9.417641e+00 6.367579e+00 3.405606e+00 -5.461086e+00 -2.492994e+00 1.861242e+01 2.006719e-01 -8.669513e-01 -2.841475e-02 -4.435266e-01 -3.532973e-01 2.706488e-01 -6.202015e-01 4.151481e-01 8.087794e-02 1.395638e-01 1.685007e-01 -2.500747e-01 1.020890e-01 -1.012395e-01 2.616911e-02 -1.307222e-02 -2.319614e-02 -7.869271e-04 -2.397130e-01 -1.801028e-02 1.426743e-01 2.158852e-01 1.004348e-01 -7.170344e-02 1.551912e-03 -2.156828e-02
<VARIANCE> 39
 1.702855e+01 4.275667e+01 2.644368e+01 3.723967e+01 4.311712e+01 4.782948e+01 6.008806e+01 5.636791e+01 3.819773e+01 2.849783e+01 3.074559e+01 2.311466e+01 2.617176e+00 1.193783e+00 2.808534e+00 1.557088e+00 3.260692e+00 2.932257e+00 4.010273e+00 3.975360e+00 4.987759e+00 4.714204e+00 2.916029e+00 2.657099e+00 2.555668e+00 6.944555e-02 2.452157e-01 6.681743e-01 3.000528e-01 6.316264e-01 5.863115e-01 7.126334e-01 7.689006e-01 9.352611e-01 8.601792e-01 5.365075e-01 5.613241e-01 4.985007e-01 9.056318e-03
<GCONST> 1.141699e+02
<STATE> 3
<NUMMIXES> 2
<MIXTURE> 1 5.110115e-01
<MEAN> 39
 1.687419e+00 -9.864545e+00 2.112024e+00 -3.266153e+00 -1.089505e+01 -2.958013e+00 -1.247570e+01 1.302438e+01 6.469418e+00 5.047208e+00 -2.698738e+00 -4.429905e+00 2.081199e+01 -5.717754e-03 4.400007e-01 5.038522e-02 1.013459e-01 5.195841e-02 -3.892686e-01 2.767109e-01 1.941204e-01 3.530595e-01 2.933621e-02 -3.109435e-01 1.848989e-01 9.555279e-03 2.619686e-02 8.773968e-02 1.802463e-02 9.545042e-02 1.157033e-01 9.708944e-02 8.384293e-02 -1.864707e-01 -1.709575e-01 -1.308190e-01 -1.424101e-02 4.004787e-03 -2.772660e-03
<VARIANCE> 39
 4.475154e+00 2.065074e+01 3.788358e+01 1.911989e+01 3.158912e+01 2.656484e+01 3.982903e+01 2.689780e+01 4.293377e+01 2.489603e+01 3.008880e+01 3.310715e+01 2.268905e-01 1.703148e-01 5.154716e-01 4.053890e-01 6.645326e-01 8.388149e-01 1.037774e+00 9.723800e-01 1.234121e+00 1.842109e+00 1.210252e+00 9.306274e-01 7.811784e-01 1.140969e-03 2.525566e-02 8.873982e-02 7.019628e-02 9.666429e-02 1.330999e-01 1.551934e-01 1.647886e-01 1.679076e-01 2.211591e-01 1.629966e-01 1.700459e-01 1.268501e-01 1.201616e-04
<GCONST> 6.415218e+01
<MIXTURE> 2 4.889895e-01
<MEAN> 39
 1.983729e+00 -8.773115e+00 2.614559e+00 -9.805462e-01 -9.027822e+00 -8.490437e-01 -9.505362e+00 9.092003e+00 1.837924e+00 8.445277e-01 -3.349422e+00 -4.375069e+00 2.070278e+01 1.768622e-02 -4.637514e-01 6.333414e-02 -4.158534e-02 -3.736873e-02 2.476231e-01 -3.336437e-01 4.609506e-03 -5.922894e-01 -7.729341e-04 2.924960e-01 -5.831591e-02 -1.309170e-02 -2.759001e-02 -1.175590e-02 -1.877610e-02 -9.205872e-02 -7.578684e-02 -1.098003e-01 -7.868197e-02 1.096293e-01 1.783270e-01 1.437515e-01 3.440542e-02 1.618380e-02 -2.792107e-03
<VARIANCE> 39
 4.704423e+00 1.728979e+01 3.091362e+01 1.683929e+01 2.446284e+01 2.287148e+01 3.736646e+01 2.190416e+01 2.742399e+01 1.712510e+01 1.846948e+01 2.054740e+01 2.268905e-01 2.271289e-01 8.210375e-01 6.025846e-01 8.179525e-01 1.075069e+00 1.210492e+00 1.146518e+00 1.484332e+00 1.879903e+00 1.423671e+00 1.039424e+00 8.615419e-01 1.336459e-03 3.284512e-02 1.070694e-01 7.142097e-02 1.097514e-01 1.392015e-01 1.774873e-01 1.845012e-01 1.921090e-01 2.546078e-01 1.735972e-01 1.635845e-01 1.463272e-01 1.315555e-04
<GCONST> 6.531045e+01
<STATE> 4
<NUMMIXES> 2
<MIXTURE> 1 4.991536e-01
<MEAN> 39
 3.958288e-01 -4.468320e+00 -6.275084e-01 -1.959597e+00 -7.179483e+00 -6.881352e+00 -9.686644e+00 1.014236e+01 7.575089e+00 4.400530e+00 -6.431976e+00 -3.119893e-01 2.000342e+01 -2.192432e-01 8.132207e-01 4.115157e-01 5.294818e-01 4.321731e-01 3.264206e-01 9.491994e-01 -4.708896e-01 2.583009e-01 -4.817984e-01 -2.698040e-01 4.233308e-02 -2.587860e-02 1.322498e-01 -1.003726e-02 3.725710e-02 1.906348e-01 1.997850e-01 3.364523e-01 6.838778e-02 -2.636438e-01 -4.590684e-01 -1.380081e-01 1.212495e-01 -1.197083e-01 -3.164736e-03
<VARIANCE> 39
 6.873470e+00 2.016615e+01 2.681213e+01 1.709352e+01 2.345777e+01 3.116800e+01 5.518823e+01 2.978241e+01 3.875393e+01 2.531845e+01 2.384634e+01 2.921922e+01 2.705341e-01 6.089349e-01 8.898594e-01 8.962491e-01 1.523349e+00 1.879360e+00 2.516087e+00 2.554252e+00 2.170673e+00 3.672699e+00 2.048929e+00 1.455432e+00 1.333099e+00 3.247020e-03 1.220969e-01 2.709058e-01 2.104886e-01 2.644606e-01 2.830255e-01 4.559200e-01 7.061921e-01 3.556156e-01 4.688532e-01 4.051102e-01 2.996807e-01 2.516111e-01 3.419213e-04
<GCONST> 8.682604e+01
<MIXTURE> 2 5.008438e-01
<MEAN> 39
 1.527698e+00 -4.421505e+00 -1.641270e+00 -1.286527e-01 -4.816570e+00 -2.669251e+00 -8.518543e+00 7.675236e+00 2.990631e+00 2.031932e+00 -6.004126e+00 -1.778547e+00 1.987496e+01 2.033850e-01 -4.460888e-01 -3.323692e-01 -3.385373e-01 -4.124434e-02 -3.430010e-01 -8.150975e-01 -6.872063e-02 -4.216485e-01 4.933074e-01 2.753393e-01 -1.010399e-02 -1.616990e-02 -1.557008e-01 2.776586e-02 4.348642e-02 -1.766841e-01 -1.703802e-01 -3.151617e-01 -2.594341e-02 1.544216e-01 4.262470e-01 1.268242e-01 -4.354196e-02 1.066640e-01 -7.049432e-03
<VARIANCE> 39
 5.364532e+00 1.846708e+01 2.194175e+01 1.685181e+01 1.915761e+01 2.200378e+01 3.745432e+01 2.756689e+01 2.851253e+01 2.064272e+01 2.087947e+01 1.978417e+01 2.268905e-01 7.188051e-01 1.289209e+00 1.055704e+00 1.538830e+00 1.743910e+00 3.021204e+00 2.934045e+00 2.102194e+00 3.376232e+00 2.105942e+00 1.720194e+00 1.406795e+00 3.955558e-03 1.262730e-01 2.746951e-01 2.353332e-01 3.408007e-01 3.670689e-01 4.789985e-01 6.849508e-01 3.385145e-01 5.384562e-01 4.782213e-01 3.499858e-01 2.621025e-01 3.421524e-04
<GCONST> 8.648011e+01
<TRANSP> 5
 0.000000e+00 1.000000e+00 0.000000e+00 0.000000e+00 0.000000e+00
 0.000000e+00 8.613000e-01 1.387000e-01 0.000000e+00 0.000000e+00
 0.000000e+00 0.000000e+00 9.511513e-01 4.884872e-02 0.000000e+00
 0.000000e+00 0.000000e+00 0.000000e+00 8.926638e-01 1.073362e-01
 0.000000e+00 0.000000e+00 0.000000e+00 0.000000e+00 0.000000e+00
<ENDHMM>
~h "f"
<BEGINHMM>
<NUMSTATES> 5
<STATE> 2
<NUMMIXES> 2
<MIXTURE> 1 4.776762e-01
<MEAN> 39
 -1.194812e+01 -1.146727e+00 3.079330e+00 2.993855e+00 8.296222e-01 -1.289512e+00 -4.179796e+00 -1.209165e+00 4.481731e+00 1.561749e+00 1.187516e+00 1.851896e+00 1.696184e+01 -1.067454e+00 -1.133814e-01 2.216655e-01 4.254690e-01 1.607883e-01 -3.291538e-02 4.031710e-01 1.021857e-01 1.292927e-01 4.650735e-02 1.016577e-01 -9.343415e-02 -2.020372e-01 2.647266e-02 -3.569762e-02 -6.967713e-02 -5.118061e-02 -2.991120e-02 5.117134e-02 9.005959e-03 2.642320e-02 -9.690557e-02 -5.273344e-02 -1.149999e-01 -6.710584e-02 5.199083e-03
<VARIANCE> 39
 5.372440e+01 1.568662e+01 3.568063e+01 3.538661e+01 5.286508e+01 6.280611e+01 4.290381e+01 3.197848e+01 3.106280e+01 2.923701e+01 3.573016e+01 3.295306e+01 2.733590e+00 1.186388e+00 1.035272e+00 1.386287e+00 2.138843e+00 2.464324e+00 2.922610e+00 3.286435e+00 2.844730e+00 3.067202e+00 3.527463e+00 3.002595e+00 2.484830e+00 2.772862e-02 1.471168e-01 1.557108e-01 2.607672e-01 4.040171e-01 4.962192e-01 5.906668e-01 6.907878e-01 5.351458e-01 6.670889e-01 7.582534e-01 6.047704e-01 5.231197e-01 2.595960e-03
<GCONST> 1.060474e+02
<MIXTURE> 2 5.223215e-01
<MEAN> 39
 -1.650988e+01 -2.057148e+00 3.016559e+00 3.680984e+00 5.698868e-02 -2.601644e+00 -3.866889e+00 -2.219336e+00 1.955977e+00 -5.699735e-01 -5.268062e-01 4.220461e-02 1.573365e+01 -7.366060e-01 -4.989896e-01 -4.459352e-01 -3.376581e-01 -3.775956e-01 -2.603898e-01 -1.377237e-01 -1.927798e-01 -3.297120e-01 -2.748736e-01 -1.490097e-03 -2.267621e-01 -2.004701e-01 8.320113e-02 -3.396982e-02 -9.632111e-02 -1.070539e-01 -5.534793e-02 1.470993e-03 -6.535267e-02 6.683344e-03 3.479772e-02 6.616788e-02 6.862427e-02 7.982901e-02 1.554804e-02
<VARIANCE> 39
 2.774352e+01 1.508707e+01 3.095545e+01 3.255538e+01 3.585239e+01 3.643181e+01 3.060034e+01 2.711547e+01 3.160916e+01 3.223967e+01 3.068958e+01 2.602716e+01 2.579235e+00 6.205968e-01 8.052825e-01 1.309100e+00 2.223629e+00 2.265823e+00 3.109742e+00 3.163018e+00 2.952713e+00 3.541194e+00 3.920844e+00 3.152908e+00 2.619737e+00 2.312993e-02 9.293337e-02 1.441275e-01 2.918866e-01 4.679596e-01 4.572771e-01 6.321360e-01 6.648517e-01 6.538460e-01 7.629802e-01 8.804080e-01 6.844144e-01 5.795249e-01 1.552521e-03
<GCONST> 1.024514e+02
<STATE> 3
<NUMMIXES> 2
<MIXTURE> 1 5.006866e-01
<MEAN> 39
 -2.194057e+01 -8.636750e+00 -3.104635e+00 1.389756e+00 -1.162820e+00 -1.914309e+00 -2.864465e+00 -5.864313e-01 3.409294e+00 1.457320e+00 2.520625e+00 1.814674e+00 1.480710e+01 1.623629e-01 9.657226e-02 1.664295e-01 2.479025e-01 3.862436e-01 3.066667e-01 2.725106e-01 2.939014e-01 3.336424e-01 3.457001e-01 2.270183e-01 1.306607e-01 1.366319e-03 1.088578e-01 1.008707e-01 1.026486e-01 2.871653e-02 -3.460628e-03 6.598662e-03 3.618621e-02 -7.919302e-03 -1.020961e-02 -5.250759e-02 -4.177036e-02 -4.894889e-02 9.284120e-03
<VARIANCE> 39
 1.157385e+01 1.255094e+01 2.880495e+01 2.277952e+01 3.062179e+01 3.531339e+01 3.376615e+01 3.145847e+01 3.332334e+01 3.096703e+01 2.999976e+01 2.709699e+01 9.720809e-01 4.990475e-01 7.541545e-01 1.262796e+00 1.695019e+00 2.581260e+00 3.178289e+00 3.274037e+00 3.092935e+00 3.343647e+00 3.400201e+00 3.254414e+00 2.978610e+00 1.714101e-02 8.428948e-02 1.726376e-01 2.839290e-01 3.650380e-01 5.649346e-01 6.927971e-01 7.787788e-01 6.613836e-01 7.184733e-01 7.938411e-01 7.281162e-01 6.573165e-01 2.179230e-03
<GCONST> 1.000219e+02
<MIXTURE> 2 4.993163e-01
<MEAN> 39
 -2.177507e+01 -8.579092e+00 -3.159326e+00 1.321575e+00 -1.847654e+00 -2.767183e+00 -3.338844e+00 -1.383037e+00 2.659715e+00 5.617173e-01 1.797869e+00 7.017788e-01 1.472874e+01 -4.146832e-02 -2.789347e-01 -3.416702e-01 -3.224858e-01 -3.682557e-01 -2.437036e-01 -2.218015e-01 -2.168323e-01 -1.891653e-01 -1.476171e-01 -7.458365e-02 -9.038741e-03 -1.800376e-02 2.326128e-02 1.268421e-02 -6.549470e-04 -8.812808e-03 6.026179e-02 2.709372e-02 -1.413390e-02 -1.388617e-02 2.144987e-03 2.808138e-02 -3.406466e-03 3.603146e-02 1.201000e-03
<VARIANCE> 39
 8.391761e+00 1.143852e+01 2.181255e+01 2.683563e+01 3.069562e+01 3.289288e+01 3.081748e+01 3.172510e+01 3.314815e+01 3.022002e+01 3.114664e+01 2.542472e+01 8.080023e-01 3.993279e-01 7.029946e-01 1.237345e+00 1.693236e+00 2.555660e+00 3.093929e+00 3.583064e+00 3.050370e+00 3.281619e+00 3.531983e+00 3.402918e+00 3.023040e+00 1.524698e-02 7.131512e-02 1.464898e-01 2.379160e-01 3.871868e-01 5.814871e-01 6.879653e-01 8.031124e-01 7.101791e-01 7.308488e-01 7.612330e-01 7.502866e-01 6.610680e-01 1.328934e-03
<GCONST> 9.797840e+01
<STATE> 4
<NUMMIXES> 2
<MIXTURE> 1 4.777488e-01
<MEAN> 39
 -1.269526e+01 -5.447479e+00 -1.529178e+00 1.229811e+00 4.279168e-01 -7.299514e-01 -2.505778e+00 -1.583252e+00 3.370285e+00 2.117202e+00 1.941903e+00 5.456052e-01 1.561097e+01 2.357109e+00 1.725614e+00 1.080369e+00 7.523864e-01 6.614823e-01 1.185359e+00 4.273861e-01 2.449570e-01 -5.790283e-01 -2.553880e-01 -4.502285e-01 -4.209127e-01 4.935991e-01 4.568134e-01 1.992369e-01 -1.003608e-01 -2.879808e-02 -3.450983e-01 -3.285774e-02 -2.751861e-01 7.981895e-03 -3.228952e-01 -6.688670e-02 -3.982253e-02 -1.697312e-02 1.578262e-01
<VARIANCE> 39
 2.725599e+01 1.660397e+01 6.022812e+01 2.816941e+01 4.178838e+01 6.682323e+01 3.283691e+01 3.496401e+01 3.152004e+01 3.301941e+01 3.355502e+01 2.880594e+01 1.777435e+00 1.856627e+00 1.444203e+00 2.086020e+00 3.273574e+00 3.541272e+00 3.804146e+00 3.479613e+00 3.365131e+00 3.746993e+00 3.238180e+00 3.433970e+00 2.277000e+00 1.925047e-01 2.045824e-01 3.583193e-01 4.696310e-01 7.149377e-01 9.022977e-01 1.010460e+00 7.752980e-01 7.031000e-01 6.656833e-01 7.793320e-01 8.000408e-01 5.522714e-01 1.969489e-02
<GCONST> 1.156749e+02
<MIXTURE> 2 5.222514e-01
<MEAN> 39
 -6.834402e+00 -2.032350e+00 -1.653923e+00 1.196133e+00 -1.876952e+00 1.368132e-02 -4.835364e+00 -1.998430e+00 7.985813e-01 1.713885e+00 7.184744e-01 -9.277536e-01 1.713868e+01 2.322948e+00 3.240092e-01 -7.269818e-01 -1.106595e+00 -1.281298e+00 -4.757661e-01 -1.308550e+00 -3.019552e-02 -6.198808e-01 2.067882e-01 1.726157e-01 4.518893e-01 4.153304e-01 -3.081686e-01 -3.268403e-01 -2.803568e-01 -1.692899e-01 -1.882428e-02 -1.443524e-01 -8.435477e-02 1.763375e-01 2.309742e-01 1.844939e-01 3.258985e-01 2.632839e-01 -8.036086e-02
<VARIANCE> 39
 8.990038e+01 2.979560e+01 7.510304e+01 4.659581e+01 3.365340e+01 4.279391e+01 3.289954e+01 3.083638e+01 3.632393e+01 4.928307e+01 2.654257e+01 2.747401e+01 4.642851e+00 2.149099e+00 2.258840e+00 2.496095e+00 2.881285e+00 2.908098e+00 3.351656e+00 3.065461e+00 3.331134e+00 3.336750e+00 4.791420e+00 3.829355e+00 3.287097e+00 1.906051e-01 3.491338e-01 4.466778e-01 5.115408e-01 6.603241e-01 6.537402e-01 6.564725e-01 6.567884e-01 5.743818e-01 5.956949e-01 8.155648e-01 7.234821e-01 5.549250e-01 1.767849e-02
<GCONST> 1.189087e+02
<TRANSP> 5
 0.000000e+00 1.000000e+00 0.000000e+00 0.000000e+00 0.000000e+00
 0.000000e+00 9.223916e-01 7.760845e-02 0.000000e+00 0.000000e+00
 0.000000e+00 0.000000e+00 9.591632e-01 4.083672e-02 0.000000e+00
 0.000000e+00 0.000000e+00 0.000000e+00 8.628107e-01 1.371893e-01
 0.000000e+00 0.000000e+00 0.000000e+00 0.000000e+00 0.000000e+00
<ENDHMM>
~h "g"
<BEGINHMM>
<NUMSTATES> 5
<STATE> 2
<NUMMIXES> 2
<MIXTURE> 1 4.468298e-01
<MEAN> 39
 -5.465476e-01 6.551375e-01 -1.252820e+00 -4.105381e+00 1.458143e+00 3.719696e+00 -7.519769e+00 -1.435180e+00 -1.212807e+01 5.724994e+00 5.635335e+00 -5.547132e+00 1.709977e+01 -4.436175e-01 1.849100e-01 -4.705064e-02 -1.694631e-01 7.052124e-01 4.263869e-01 7.103220e-01 -1.681779e-01 3.499731e-01 3.272657e-01 -8.461118e-02 2.770118e-01 -1.518647e-01 -1.435395e-02 -1.204657e-01 2.045819e-01 4.456822e-01 -1.682978e-03 -1.318858e-01 -6.290293e-02 5.846408e-02 4.570796e-01 -1.645482e-01 -2.663057e-01 7.476176e-02 3.737254e-02
<VARIANCE> 39
 2.257868e+01 4.097483e+01 8.809490e+01 4.286383e+01 4.061997e+01 6.554414e+01 6.092886e+01 2.918455e+01 6.413071e+01 7.272945e+01 4.915043e+01 4.787302e+01 1.859762e+00 6.117722e-01 2.202706e+00 3.290931e+00 4.099906e+00 2.219770e+00 3.866208e+00 4.329613e+00 3.959763e+00 3.535959e+00 3.712424e+00 2.923820e+00 4.910676e+00 4.175903e-02 1.117346e-01 5.696564e-01 5.419195e-01 6.386843e-01 5.117234e-01 6.097364e-01 9.747562e-01 6.456997e-01 6.887298e-01 6.562957e-01 7.318541e-01 7.351936e-01 5.961416e-03
<GCONST> 1.169211e+02
<MIXTURE> 2 5.531701e-01
<MEAN> 39
 -2.925405e+00 1.469249e+00 3.308510e+00 1.585388e+00 -2.476104e+00 -8.014033e-02 -5.311716e+00 -1.171530e+00 -6.183244e+00 7.773973e-01 9.780712e-01 -1.017649e+00 1.587346e+01 -9.325970e-01 -1.761316e+00 -1.618845e+00 -1.549073e+00 6.827291e-01 1.051911e+00 -3.385502e-01 1.658203e-01 4.365370e-02 2.227915e-01 -4.242215e-01 4.972710e-03 -1.343393e-01 -1.611680e-01 -3.894384e-01 -8.030543e-02 -7.968982e-02 2.700833e-02 -1.686665e-01 -2.005082e-01 5.147342e-02 1.380475e-01 1.198221e-01 8.321656e-02 -9.452790e-02 7.153791e-02
<VARIANCE> 39
 2.443749e+01 4.462284e+01 8.246805e+01 3.602799e+01 3.749767e+01 3.776259e+01 4.865277e+01 2.817658e+01 4.383128e+01 3.377985e+01 2.348872e+01 3.501370e+01 1.552307e+00 9.419560e-01 5.829193e+00 4.720257e+00 3.622600e+00 3.829789e+00 5.253609e+00 5.338655e+00 3.108675e+00 5.973322e+00 4.061728e+00 2.629305e+00 2.540712e+00 5.679136e-02 1.313442e-01 1.080385e+00 7.115659e-01 6.424755e-01 4.633872e-01 9.375516e-01 7.886999e-01 4.908034e-01 7.364312e-01 6.312492e-01 4.725575e-01 6.550961e-01 7.565110e-03
<GCONST> 1.168312e+02
<STATE> 3
<NUMMIXES> 2
<MIXTURE> 1 5.124180e-01
<MEAN> 39
 -1.303683e+01 6.816497e-01 6.284569e+00 -4.117258e+00 -2.383525e+00 -1.579491e+00 -5.150586e+00 -2.498755e+00 -1.741355e+00 3.114542e+00 1.735296e+00 1.736954e+00 1.615986e+01 -1.443901e-02 6.696825e-01 8.481055e-01 5.162454e-01 7.396165e-01 4.993229e-01 1.294294e-01 -2.975166e-01 4.371008e-01 -1.109185e-01 -1.520196e-01 9.933463e-02 1.032469e-01 2.767775e-01 1.099534e-01 1.644487e-01 2.357997e-01 -2.651379e-02 -6.458445e-02 -3.031274e-02 1.374794e-01 -8.598679e-02 -1.632096e-01 -5.971398e-02 -8.091574e-02 5.843989e-02
<VARIANCE> 39
 3.698267e+01 3.409917e+01 8.502948e+01 4.520996e+01 3.308646e+01 3.025538e+01 3.729940e+01 2.113635e+01 3.668240e+01 2.900413e+01 2.758477e+01 1.778053e+01 2.420730e+00 1.214347e+00 2.402704e+00 2.493688e+00 4.047926e+00 2.876300e+00 3.327043e+00 2.871955e+00 2.286317e+00 3.437702e+00 3.192279e+00 2.518970e+00 1.831651e+00 5.297308e-02 1.289257e-01 4.381835e-01 4.787445e-01 6.162063e-01 5.534193e-01 6.365213e-01 6.233698e-01 3.978986e-01 6.932420e-01 6.091320e-01 6.143622e-01 3.936984e-01 1.076663e-02
<GCONST> 1.098644e+02
<MIXTURE> 2 4.875815e-01
<MEAN> 39
 -1.157850e+01 -2.470742e-01 -1.024228e+00 -4.277930e+00 -1.021172e+00 -3.308371e+00 -5.513257e+00 -2.379144e+00 -2.007649e+00 1.483057e+00 -6.406625e-01 2.997328e-01 1.521173e+01 -7.716363e-01 -7.890475e-01 -4.104188e-01 -1.091749e+00 -1.013986e-01 -5.868664e-02 6.659245e-02 -4.593132e-02 1.970008e-01 1.105158e-01 -8.294828e-02 1.590246e-01 9.305178e-02 7.973297e-02 1.061854e-01 4.495402e-02 4.119965e-02 -7.444640e-03 7.909746e-02 3.518465e-02 -6.540383e-04 2.978641e-02 -5.382952e-02 4.374383e-02 1.405317e-02 4.869193e-02
<VARIANCE> 39
 4.685989e+01 5.862992e+01 8.687204e+01 6.097449e+01 3.707287e+01 3.531402e+01 6.410156e+01 3.355496e+01 3.534364e+01 4.354051e+01 2.511284e+01 1.907388e+01 2.958685e+00 1.529545e+00 5.405407e+00 3.349640e+00 3.669132e+00 2.636744e+00 3.783696e+00 3.072824e+00 1.861216e+00 2.782649e+00 3.106869e+00 2.792665e+00 2.838938e+00 9.712984e-02 2.361748e-01 8.829151e-01 5.492098e-01 8.033593e-01 5.510940e-01 6.534047e-01 6.919892e-01 3.908587e-01 6.780702e-01 5.907921e-01 5.866460e-01 5.083817e-01 2.050375e-02
<GCONST> 1.174508e+02
<STATE> 4
<NUMMIXES> 2
<MIXTURE> 1 5.754642e-01
<MEAN> 39
 -5.398018e+00 -1.533355e+00 2.388448e+00 1.105767e+00 4.198645e+00 -8.936213e-01 -8.780007e+00 -1.415210e+00 -1.826531e+00 5.256427e+00 3.256355e+00 -1.427676e+00 1.779787e+01 1.281326e+00 1.126508e+00 9.846160e-01 5.078844e-01 -4.802026e-01 -5.137187e-01 -5.305832e-01 3.946619e-01 2.704542e-01 -2.566841e-01 2.315731e-01 -9.005881e-02 3.506752e-01 1.625640e-01 -1.083615e-01 -1.629992e-01 -2.532032e-01 -4.712223e-01 -1.064870e-01 -1.365869e-01 1.641801e-01 -1.634199e-01 -1.139129e-01 1.331479e-01 9.196692e-02 7.560535e-03
<VARIANCE> 39
 3.972272e+01 4.666026e+01 1.008250e+02 4.247131e+01 7.297989e+01 6.622022e+01 5.915615e+01 5.503902e+01 4.649321e+01 4.523237e+01 5.814740e+01 3.589033e+01 1.587841e+00 1.470554e+00 2.113302e+00 2.065058e+00 4.019559e+00 5.615762e+00 4.050229e+00 3.564554e+00 4.029514e+00 4.277932e+00 3.632715e+00 4.866288e+00 2.440706e+00 7.011914e-02 2.487718e-01 6.136357e-01 4.941478e-01 8.348861e-01 1.005343e+00 8.902553e-01 7.006020e-01 8.612800e-01 8.797684e-01 8.088466e-01 9.128062e-01 5.226681e-01 1.026565e-02
<GCONST> 1.224521e+02
<MIXTURE> 2 4.245358e-01
<MEAN> 39
 -5.820581e+00 -6.353798e+00 -2.519425e+00 -2.824082e+00 7.603073e-01 -9.115621e-01 -1.005573e+01 9.445640e-01 -3.569950e+00 3.090080e+00 3.186355e+00 -6.629575e-01 1.720925e+01 1.783014e-01 -4.501373e-01 -4.706793e-01 -2.522012e-01 -3.384840e-01 -2.751652e-01 -4.074559e-01 1.003046e-01 -7.530475e-02 2.195995e-01 2.904537e-01 -9.736117e-02 2.118321e-01 2.672595e-04 2.414507e-01 8.790131e-02 1.529277e-01 1.927920e-02 -1.408648e-01 -5.551259e-03 -1.489365e-01 6.968440e-02 1.481649e-01 6.125426e-03 -1.223859e-02 -3.319317e-02
<VARIANCE> 39
 3.477502e+01 5.809865e+01 9.544587e+01 4.401432e+01 5.225051e+01 6.939061e+01 5.576487e+01 3.612208e+01 3.747300e+01 3.771781e+01 6.279960e+01 2.229618e+01 2.982782e+00 2.316654e+00 3.553184e+00 2.689679e+00 3.304110e+00 4.480354e+00 4.849104e+00 4.005702e+00 3.544288e+00 2.905947e+00 3.621683e+00 4.254583e+00 2.141644e+00 1.369650e-01 3.059355e-01 7.409516e-01 5.724060e-01 6.678662e-01 7.163783e-01 1.003142e+00 7.524150e-01 7.248829e-01 5.353451e-01 7.133514e-01 8.123303e-01 4.394712e-01 1.950587e-02
<GCONST> 1.223134e+02
<TRANSP> 5
 0.000000e+00 1.000000e+00 0.000000e+00 0.000000e+00 0.000000e+00
 0.000000e+00 6.231357e-01 3.768643e-01 0.000000e+00 0.000000e+00
 0.000000e+00 0.000000e+00 8.014616e-01 1.985384e-01 0.000000e+00
 0.000000e+00 0.000000e+00 0.000000e+00 8.363434e-01 1.636566e-01
 0.000000e+00 0.000000e+00 0.000000e+00 0.000000e+00 0.000000e+00
<ENDHMM>
~h "h"
<BEGINHMM>
<NUMSTATES> 5
<STATE> 2
<NUMMIXES> 2
<MIXTURE> 1 4.437543e-01
<MEAN> 39
 -1.526849e+01 -6.025853e+00 1.074000e+00 -5.195059e+00 -3.342989e+00 -1.380821e+00 -1.407409e+00 -8.792467e-02 3.794212e+00 -7.094292e-02 8.911563e-01 3.569665e+00 1.513336e+01 2.325251e-01 1.682590e-01 3.578851e-01 3.816876e-01 3.551511e-01 5.992485e-01 5.813292e-01 6.616590e-01 2.766016e-01 3.052566e-02 9.546068e-02 2.707747e-02 6.717039e-02 1.144392e-01 1.386612e-01 1.491016e-01 1.583997e-01 1.181213e-01 2.090162e-01 1.140612e-01 1.509937e-02 -1.351317e-01 -7.481470e-02 1.162493e-02 -2.073747e-02 3.006189e-02
<VARIANCE> 39
 4.832919e+01 3.317225e+01 8.471763e+01 5.084893e+01 5.271502e+01 6.177611e+01 3.738231e+01 3.748930e+01 3.271539e+01 3.742750e+01 3.011998e+01 3.143470e+01 4.007426e+00 6.989675e-01 1.035548e+00 1.717643e+00 2.171721e+00 2.427779e+00 3.164287e+00 3.631253e+00 3.534426e+00 3.351284e+00 3.855493e+00 2.908418e+00 2.623311e+00 4.129266e-02 1.085720e-01 1.859750e-01 3.141323e-01 4.802209e-01 6.096760e-01 7.425285e-01 7.832739e-01 6.840625e-01 6.859610e-01 8.438002e-01 6.395385e-01 5.934874e-01 7.227732e-03
<GCONST> 1.114426e+02
<MIXTURE> 2 5.562469e-01
<MEAN> 39
 -1.602447e+01 -8.120247e+00 8.296393e-01 -5.302631e+00 -4.319132e+00 -1.056543e+00 -2.922631e-01 7.287122e-01 2.650122e+00 -1.179506e+00 1.070274e+00 3.258287e+00 1.453203e+01 -7.093485e-02 -3.358446e-01 -2.392124e-01 -2.801774e-01 -3.509615e-01 -1.955152e-01 -3.971372e-01 -4.126689e-01 -3.045123e-01 -2.392505e-01 -1.778147e-01 -1.047233e-01 3.059846e-02 -9.949671e-04 1.765521e-02 -5.528030e-02 -1.306895e-02 -1.529817e-02 -7.714862e-02 -6.432407e-02 1.065104e-02 5.715964e-02 4.851608e-02 -5.336384e-02 -3.157680e-02 3.293816e-03
<VARIANCE> 39
 3.539211e+01 3.543047e+01 7.166965e+01 4.517443e+01 4.450116e+01 5.023852e+01 3.471251e+01 4.856943e+01 3.408846e+01 3.341529e+01 2.704070e+01 3.018023e+01 3.227119e+00 4.291653e-01 9.349580e-01 1.117871e+00 2.195441e+00 2.483350e+00 3.313476e+00 3.273865e+00 3.513016e+00 3.465564e+00 3.713228e+00 3.281561e+00 2.987282e+00 2.279802e-02 8.055582e-02 1.615257e-01 2.438665e-01 4.231330e-01 4.804609e-01 6.790519e-01 7.873347e-01 8.988440e-01 7.692380e-01 7.727324e-01 6.800171e-01 6.166314e-01 2.042316e-03
<GCONST> 1.068795e+02
<STATE> 3
<NUMMIXES> 2
<MIXTURE> 1 4.539574e-01
<MEAN> 39
 -7.855153e+00 -3.572782e+00 3.073781e+00 2.577055e+00 -1.123868e+00 4.057681e+00 -4.187397e-01 1.887021e+00 2.190641e+00 -1.548924e+00 -1.219088e+00 -8.486392e-01 1.754264e+01 1.020706e+00 7.901925e-01 6.560510e-01 8.018585e-01 -6.223078e-04 5.124440e-02 -5.384070e-01 -1.740460e-01 -2.287876e-01 -1.571657e-01 -7.915372e-02 -1.701710e-01 3.533325e-01 4.702511e-02 -8.802017e-02 -1.242068e-01 -2.628765e-01 -2.722417e-01 -1.656598e-01 -1.538084e-01 -1.890694e-02 -6.171636e-02 4.000342e-02 1.827835e-01 1.188199e-01 2.991110e-04
<VARIANCE> 39
 2.168574e+01 7.651202e+01 1.206151e+02 4.173690e+01 6.152883e+01 5.059021e+01 4.969447e+01 4.367145e+01 3.810503e+01 3.200483e+01 3.300912e+01 3.043705e+01 1.790392e+00 1.121023e+00 1.675088e+00 1.672402e+00 2.976009e+00 3.752133e+00 2.912850e+00 3.245880e+00 3.150235e+00 3.305433e+00 2.854886e+00 3.391711e+00 2.662346e+00 1.461823e-01 1.091093e-01 2.896623e-01 2.846760e-01 4.978404e-01 7.181776e-01 6.125942e-01 7.473361e-01 6.510184e-01 7.578233e-01 5.754116e-01 6.890796e-01 5.313742e-01 1.037876e-02
<GCONST> 1.140632e+02
<MIXTURE> 2 5.460427e-01
<MEAN> 39
 -9.239393e+00 -1.269237e+01 -4.287530e+00 -9.878771e-01 -3.790424e+00 5.912163e+00 4.056088e+00 4.835697e+00 1.863274e+00 -2.538150e+00 -4.960345e-01 -1.953638e+00 1.737613e+01 1.027690e-01 -7.197058e-02 -1.403494e-01 -1.051946e-01 -1.253563e-01 -4.563826e-02 1.415324e-01 9.191323e-02 -3.944825e-02 5.146759e-03 5.730153e-02 -9.094955e-02 3.706123e-02 -8.248465e-03 1.803187e-02 1.305496e-02 2.087912e-02 1.255319e-04 -7.071465e-02 -6.324163e-02 7.171295e-03 7.351611e-02 7.827283e-02 4.513461e-03 -2.151907e-02 -2.033330e-03
<VARIANCE> 39
 1.510049e+01 5.619048e+01 4.755947e+01 3.730246e+01 8.273145e+01 4.177497e+01 5.505504e+01 4.208889e+01 3.568767e+01 3.569532e+01 2.653578e+01 2.930876e+01 7.984785e-01 5.660413e-01 1.213220e+00 1.399733e+00 1.980535e+00 2.869133e+00 3.069412e+00 2.768639e+00 3.018677e+00 3.420212e+00 3.141290e+00 2.823728e+00 2.617997e+00 3.056490e-02 9.267968e-02 2.352547e-01 3.085553e-01 4.382336e-01 6.399753e-01 6.736978e-01 5.788122e-01 6.747708e-01 7.713684e-01 6.973893e-01 5.752885e-01 5.847248e-01 2.983639e-03
<GCONST> 1.060762e+02
<STATE> 4
<NUMMIXES> 2
<MIXTURE> 1 5.127405e-01
<MEAN> 39
 -4.513194e+00 -3.963006e+00 3.687320e+00 4.574389e+00 -4.932019e+00 1.447472e-01 3.437706e+00 5.755829e+00 8.868864e-01 -1.990209e+00 -2.787450e+00 -1.312020e+00 1.884597e+01 1.489087e-01 2.064452e-01 8.362090e-02 2.548331e-01 1.413593e-02 7.723731e-02 8.729511e-02 -6.758656e-02 2.527575e-02 -1.293260e-01 5.526490e-02 8.785687e-02 5.938721e-02 6.497403e-02 -9.400355e-03 -5.827757e-02 -1.429673e-01 -7.236882e-05 9.306530e-02 -1.782002e-01 2.511106e-02 4.616806e-02 5.212720e-02 1.049980e-01 4.402064e-02 -3.160064e-04
<VARIANCE> 39
 8.341557e+00 2.027628e+01 3.931099e+01 2.777800e+01 4.447349e+01 3.139299e+01 4.318475e+01 3.165297e+01 3.076974e+01 3.072015e+01 2.841066e+01 3.396091e+01 3.915663e-01 5.440505e-01 6.352296e-01 9.595839e-01 2.363018e+00 2.101847e+00 2.392023e+00 2.857482e+00 2.362423e+00 2.349509e+00 2.857099e+00 1.909285e+00 2.094851e+00 9.632558e-03 9.499171e-02 1.349079e-01 2.096144e-01 5.263793e-01 4.245138e-01 5.415285e-01 6.065162e-01 5.279296e-01 5.340473e-01 6.419067e-01 3.848833e-01 4.396180e-01 7.614050e-04
<GCONST> 9.378175e+01
<MIXTURE> 2 4.872597e-01
<MEAN> 39
 -3.257641e+00 -4.485246e+00 2.529128e+00 3.645651e+00 -5.827584e+00 1.381803e+00 2.462859e+00 6.271661e+00 9.010595e-01 -2.030214e+00 -1.241543e+00 -1.694672e+00 1.897273e+01 3.123915e-01 -1.411875e-01 -4.349524e-01 -5.780549e-01 -3.460345e-01 -3.670048e-01 -3.609873e-01 1.296675e-01 3.022503e-02 4.793502e-01 -1.688921e-02 -1.350894e-01 5.975645e-02 -1.112790e-01 -2.355623e-02 -1.112974e-02 1.019092e-01 1.907184e-02 -7.636557e-02 1.601315e-01 -7.716804e-02 -5.733240e-02 7.958799e-03 -1.130785e-01 -6.673814e-02 -1.312098e-02
<VARIANCE> 39
 1.095746e+01 1.940595e+01 4.461685e+01 2.532457e+01 4.137918e+01 2.705353e+01 3.821401e+01 2.732722e+01 2.482729e+01 2.683175e+01 2.738519e+01 2.879553e+01 3.848175e-01 4.786006e-01 7.985302e-01 8.998896e-01 2.395756e+00 1.778422e+00 2.676464e+00 2.676790e+00 2.461481e+00 2.696568e+00 2.821075e+00 1.892010e+00 1.868441e+00 9.838420e-03 9.878574e-02 1.410279e-01 2.069527e-01 5.130196e-01 3.867654e-01 5.282186e-01 5.523837e-01 4.557213e-01 5.061580e-01 6.025103e-01 4.090322e-01 4.108259e-01 1.270323e-03
<GCONST> 9.305400e+01
<TRANSP> 5
 0.000000e+00 1.000000e+00 0.000000e+00 0.000000e+00 0.000000e+00
 0.000000e+00 9.209861e-01 7.901388e-02 0.000000e+00 0.000000e+00
 0.000000e+00 0.000000e+00 8.856942e-01 1.143057e-01 0.000000e+00
 0.000000e+00 0.000000e+00 0.000000e+00 8.772602e-01 1.227398e-01
 0.000000e+00 0.000000e+00 0.000000e+00 0.000000e+00 0.000000e+00
<ENDHMM>
~h "i"
<BEGINHMM>
<NUMSTATES> 5
<STATE> 2
<NUMMIXES> 2
<MIXTURE> 1 4.904369e-01
<MEAN> 39
 -6.866387e+00 2.153586e+00 1.068596e+01 2.113423e+00 -7.396932e+00 -6.556136e+00 -6.873338e+00 1.761396e+00 -2.847200e-02 1.297077e+00 2.456225e-01 2.682904e+00 1.733388e+01 5.648042e-01 2.847945e-01 3.651647e-01 2.442702e-01 -9.050886e-02 9.001976e-02 1.024278e-01 2.174050e-01 4.921254e-02 4.168821e-02 -9.687380e-02 1.441511e-02 1.992170e-01 9.186146e-02 -6.849123e-02 -1.261887e-01 -3.500058e-02 9.394854e-02 1.624187e-01 -9.658032e-03 -1.788455e-02 -6.282225e-02 -2.060829e-02 -6.280961e-02 -1.266857e-01 1.060527e-02
<VARIANCE> 39
 4.246422e+01 3.303195e+01 4.751542e+01 3.965453e+01 6.880674e+01 5.757811e+01 6.465913e+01 4.528495e+01 4.307569e+01 3.471402e+01 4.741876e+01 3.925283e+01 5.853193e+00 1.276047e+00 1.413230e+00 1.769474e+00 2.378368e+00 2.818271e+00 3.757124e+00 3.514975e+00 2.909481e+00 2.762426e+00 2.452540e+00 2.840108e+00 2.708446e+00 1.292446e-01 1.660853e-01 3.465840e-01 3.396624e-01 6.030048e-01 5.847738e-01 7.648634e-01 7.850208e-01 6.409903e-01 5.598814e-01 5.091013e-01 6.693622e-01 5.314244e-01 8.272621e-03
<GCONST> 1.149407e+02
<MIXTURE> 2 5.095678e-01
<MEAN> 39
 -5.257601e+00 1.252216e+00 9.359949e+00 6.375806e-01 -5.876255e+00 -5.592932e+00 -8.264585e+00 1.127657e+00 8.522391e-02 6.306173e-01 -2.778566e-01 1.317686e+00 1.858196e+01 5.335065e-01 -8.172044e-01 6.120457e-02 -7.030761e-01 -8.258088e-01 -4.324150e-01 -1.073258e+00 4.797434e-01 -3.388526e-01 1.290537e-01 5.262614e-01 -4.245035e-02 1.591198e-01 -2.146761e-01 1.456662e-02 9.135469e-03 2.231954e-03 -1.484852e-02 -7.999434e-02 5.766458e-02 1.604198e-02 5.026637e-02 1.436317e-03 5.649855e-02 9.380153e-02 -5.205740e-02
<VARIANCE> 39
 7.287872e+01 4.494356e+01 5.127717e+01 3.349821e+01 6.405368e+01 4.762446e+01 5.400720e+01 3.801574e+01 3.898110e+01 2.742630e+01 3.148173e+01 3.084311e+01 2.622206e+00 1.584496e+00 2.210043e+00 1.657365e+00 2.731695e+00 2.323688e+00 3.525554e+00 3.396095e+00 2.751079e+00 2.674750e+00 2.827693e+00 2.760057e+00 2.527933e+00 7.158965e-02 1.804124e-01 4.779090e-01 3.059953e-01 5.184727e-01 4.452105e-01 6.644816e-01 6.710160e-01 5.232585e-01 5.567953e-01 5.287177e-01 5.286995e-01 5.313300e-01 5.318733e-03
<GCONST> 1.118321e+02
<STATE> 3
<NUMMIXES> 2
<MIXTURE> 1 5.217893e-01
<MEAN> 39
 6.990476e-01 -3.113434e+00 1.091112e+01 3.077269e-01 -1.058396e+01 -8.893330e+00 -1.601700e+01 4.544949e+00 1.357911e+00 4.549594e-01 2.229561e+00 2.283398e+00 2.061175e+01 1.225055e-02 3.580035e-01 7.440949e-02 4.509438e-02 -4.597742e-03 -2.421338e-01 1.643300e-01 1.475517e-01 2.762750e-01 1.014615e-01 -1.310643e-01 2.731004e-01 9.245266e-03 1.713778e-02 5.634601e-02 -7.239187e-02 6.959070e-02 1.576214e-01 1.718657e-01 1.837064e-01 -1.095166e-01 -2.714817e-02 -2.437398e-02 -6.651074e-02 -1.289767e-01 -7.100109e-03
<VARIANCE> 39
 5.346717e+00 2.276238e+01 4.031234e+01 2.064782e+01 3.949515e+01 2.744902e+01 5.575466e+01 2.900973e+01 4.166637e+01 2.860982e+01 3.431019e+01 3.227909e+01 3.184761e-01 2.377884e-01 6.501138e-01 5.603442e-01 7.148181e-01 1.208929e+00 1.724238e+00 1.810655e+00 1.291378e+00 1.435968e+00 1.232320e+00 1.181920e+00 1.219057e+00 2.780965e-03 4.000488e-02 1.197428e-01 9.795024e-02 1.335557e-01 1.920685e-01 2.517366e-01 2.665105e-01 2.265459e-01 2.195351e-01 2.176232e-01 2.091754e-01 1.956068e-01 1.630333e-04
<GCONST> 7.390913e+01
<MIXTURE> 2 4.782135e-01
<MEAN> 39
 9.548975e-01 -2.538377e+00 1.014163e+01 1.536581e+00 -8.474684e+00 -5.815436e+00 -1.263964e+01 3.076902e+00 7.587226e-02 -8.456621e-01 1.156352e+00 1.907637e-01 2.038441e+01 1.195084e-02 -3.596562e-01 -6.810927e-02 -2.432275e-02 5.721344e-02 2.456429e-01 -2.998356e-01 -5.305145e-02 -3.765257e-01 -9.100784e-02 -1.427738e-02 -2.491588e-01 -6.444340e-03 -8.127437e-02 5.115129e-02 2.000983e-02 -6.295485e-02 -2.202201e-02 -1.869403e-01 -6.465703e-02 -1.143883e-02 7.538403e-02 8.698457e-02 2.181578e-02 1.339577e-01 -8.564738e-03
<VARIANCE> 39
 8.341312e+00 2.166851e+01 3.363000e+01 2.109527e+01 3.648280e+01 2.788532e+01 4.720449e+01 2.471963e+01 3.454005e+01 2.307849e+01 2.781760e+01 2.254393e+01 5.201309e-01 3.100824e-01 7.977923e-01 7.108642e-01 8.961697e-01 1.416788e+00 2.035393e+00 1.876620e+00 1.555291e+00 1.409977e+00 1.336206e+00 1.234044e+00 1.346476e+00 4.407828e-03 4.730065e-02 1.401516e-01 1.142778e-01 1.504508e-01 2.381042e-01 3.309414e-01 3.312239e-01 2.833058e-01 2.762153e-01 2.462528e-01 2.357349e-01 2.296144e-01 2.888149e-04
<GCONST> 7.815295e+01
<STATE> 4
<NUMMIXES> 2
<MIXTURE> 1 5.208631e-01
<MEAN> 39
 -8.041168e-02 2.046746e-01 8.299421e+00 -1.471481e+00 -6.015191e+00 -9.216731e+00 -1.157123e+01 2.389328e+00 2.524042e+00 4.046726e+00 -1.817990e+00 2.154010e+00 1.964916e+01 -2.588644e-01 7.161738e-01 7.043180e-02 3.951124e-01 6.492229e-01 1.487660e-01 1.142928e+00 -3.260783e-01 4.395939e-01 -8.547530e-02 -3.521124e-01 -6.191418e-02 -4.679013e-02 5.875143e-02 -2.027999e-03 -4.716104e-02 1.421484e-01 2.219663e-01 4.095626e-01 2.074800e-01 -1.037779e-02 -2.245514e-01 -1.248952e-01 -1.897932e-02 -2.266362e-01 -2.768880e-03
<VARIANCE> 39
 1.026746e+01 2.552884e+01 2.858321e+01 3.037654e+01 4.316972e+01 4.808543e+01 8.564307e+01 4.831132e+01 4.596648e+01 3.436921e+01 3.533424e+01 3.529296e+01 4.352511e-01 7.815821e-01 1.289940e+00 1.375700e+00 1.728707e+00 2.306784e+00 3.335753e+00 3.381883e+00 2.534628e+00 3.055461e+00 2.094619e+00 2.119893e+00 2.057112e+00 1.000853e-02 1.156145e-01 2.508753e-01 2.376413e-01 3.573737e-01 4.475797e-01 6.075004e-01 8.085527e-01 5.003194e-01 5.139855e-01 3.838942e-01 3.770745e-01 3.206290e-01 6.024278e-04
<GCONST> 9.806454e+01
<MIXTURE> 2 4.791341e-01
<MEAN> 39
 2.769141e-01 5.272205e-01 7.394498e+00 1.397537e-01 -3.766040e+00 -6.185112e+00 -1.022709e+01 2.378804e+00 8.587801e-01 2.548183e+00 -2.871547e+00 8.708192e-01 1.948212e+01 -6.832656e-02 -1.781051e-02 -2.530201e-01 -2.525253e-01 1.310533e-01 -1.133440e-01 -4.021693e-01 -1.621014e-01 -3.701853e-01 2.347240e-01 9.785466e-02 -1.809531e-01 -5.485611e-02 -1.589611e-01 4.662290e-02 4.850280e-02 -8.505563e-02 -1.010588e-01 -3.003029e-01 -3.087370e-02 -7.827492e-02 1.756780e-01 1.055684e-01 7.339748e-02 1.277759e-01 -1.480959e-02
<VARIANCE> 39
 1.335588e+01 2.801238e+01 2.573283e+01 3.252283e+01 4.451484e+01 4.027528e+01 7.334283e+01 3.726173e+01 4.175296e+01 2.631874e+01 2.652607e+01 2.648303e+01 6.072277e-01 7.550417e-01 1.118595e+00 1.095928e+00 1.760033e+00 2.717269e+00 4.019555e+00 4.137486e+00 2.598487e+00 2.682526e+00 1.944961e+00 1.756231e+00 1.902298e+00 1.094104e-02 1.287700e-01 2.570612e-01 2.380410e-01 3.692928e-01 5.292081e-01 6.516625e-01 9.895288e-01 5.365864e-01 6.114101e-01 4.099327e-01 3.878856e-01 3.972280e-01 7.179707e-04
<GCONST> 9.836044e+01
<TRANSP> 5
 0.000000e+00 1.000000e+00 0.000000e+00 0.000000e+00 0.000000e+00
 0.000000e+00 8.048887e-01 1.951114e-01 0.000000e+00 0.000000e+00
 0.000000e+00 0.000000e+00 8.952854e-01 1.047146e-01 0.000000e+00
 0.000000e+00 0.000000e+00 0.000000e+00 7.952851e-01 2.047149e-01
 0.000000e+00 0.000000e+00 0.000000e+00 0.000000e+00 0.000000e+00
<ENDHMM>
~h "k"
<BEGINHMM>
<NUMSTATES> 5
<STATE> 2
<NUMMIXES> 2
<MIXTURE> 1 4.876195e-01
<MEAN> 39
 -1.635238e+01 -6.775482e+00 2.798717e+00 -5.766762e+00 -6.088267e+00 -4.950994e+00 -3.694420e+00 1.365979e-01 -1.433655e+00 3.654562e+00 1.573055e+00 5.575364e-01 1.570562e+01 -6.995978e-02 3.709373e-01 4.700118e-01 2.803921e-01 4.001772e-01 1.971198e-01 5.965750e-01 3.296137e-01 8.001611e-01 2.287146e-01 2.153191e-01 3.435487e-01 -3.029285e-03 8.598574e-02 7.060169e-02 9.164105e-02 1.725973e-01 1.346115e-01 5.233740e-02 -2.661011e-02 1.115331e-01 1.256441e-01 4.441639e-02 7.013505e-02 1.383994e-01 2.296699e-02
<VARIANCE> 39
 2.257028e+01 2.183679e+01 2.710200e+01 3.473116e+01 3.723051e+01 5.262363e+01 3.990016e+01 4.004256e+01 3.281969e+01 3.582774e+01 3.078733e+01 2.839844e+01 1.353812e+00 9.094025e-01 1.349657e+00 1.390112e+00 2.246925e+00 2.889083e+00 3.679946e+00 3.625177e+00 2.899723e+00 3.421080e+00 3.461568e+00 3.234272e+00 2.986739e+00 3.655992e-02 1.967130e-01 2.811389e-01 3.442263e-01 4.307108e-01 5.655587e-01 7.301952e-01 7.099869e-01 6.821561e-01 6.707768e-01 7.514336e-01 6.544549e-01 6.546715e-01 9.618470e-03
<GCONST> 1.087286e+02
<MIXTURE> 2 5.123803e-01
<MEAN> 39
 -1.740932e+01 -5.145451e+00 4.278931e+00 -6.887528e+00 -6.509360e+00 -4.590611e+00 -4.081841e+00 -7.377961e-02 6.103328e-01 4.904115e+00 2.220583e+00 2.558559e+00 1.558681e+01 -3.485475e-01 -1.024314e-01 -2.093391e-01 -2.190581e-01 8.538444e-02 -3.175776e-01 -4.887778e-02 -1.510826e-01 1.028520e-01 -5.070137e-01 -1.021072e-01 1.526602e-01 -3.740897e-02 4.566399e-02 -1.629187e-01 -1.160864e-01 5.304494e-02 1.122380e-01 6.115666e-02 9.375229e-03 -3.007041e-02 -1.767022e-01 -1.691595e-01 -1.282169e-01 -1.578619e-01 1.234617e-02
<VARIANCE> 39
 2.202600e+01 2.190086e+01 2.012251e+01 2.967026e+01 3.413126e+01 5.195405e+01 3.827708e+01 4.359761e+01 3.011482e+01 3.408269e+01 2.756669e+01 2.767848e+01 1.062479e+00 1.025332e+00 1.665589e+00 1.540792e+00 1.962127e+00 2.882096e+00 3.593990e+00 2.810208e+00 3.084219e+00 3.064961e+00 3.839725e+00 3.073184e+00 3.359637e+00 4.382534e-02 1.632402e-01 2.625389e-01 3.098537e-01 3.822660e-01 5.890713e-01 8.331915e-01 6.256983e-01 6.908001e-01 6.333520e-01 8.491187e-01 6.450546e-01 6.893418e-01 5.107252e-03
<GCONST> 1.070498e+02
<STATE> 3
<NUMMIXES> 2
<MIXTURE> 1 4.187585e-01
<MEAN> 39
 -1.203801e+01 -7.615839e+00 -6.719149e+00 -4.017977e+00 2.732668e+00 9.846910e-01 -3.070445e+00 -2.729683e+00 1.701951e+00 3.908288e+00 2.599367e+00 8.624657e-01 1.578580e+01 5.971455e-01 7.300580e-01 8.774372e-01 1.185348e+00 1.121968e+00 1.280681e+00 5.602441e-01 2.297567e-01 8.780385e-02 -2.041028e-01 -2.556481e-01 2.347685e-02 1.572141e-01 2.414918e-01 2.423278e-01 2.469423e-01 3.255266e-01 4.641344e-02 -3.630978e-02 -1.472271e-01 2.766661e-02 -8.374869e-02 -6.272125e-02 -8.682384e-02 -1.850169e-02 8.991503e-02
<VARIANCE> 39
 1.942785e+01 3.097339e+01 6.024808e+01 5.564139e+01 4.874242e+01 8.554762e+01 4.164076e+01 6.452708e+01 5.652937e+01 4.306284e+01 3.818394e+01 3.430975e+01 1.202429e+00 8.546991e-01 9.834743e-01 1.581097e+00 2.481590e+00 2.304234e+00 3.630956e+00 2.923310e+00 3.605188e+00 4.038964e+00 4.018106e+00 3.429153e+00 3.168013e+00 5.759039e-02 1.464665e-01 1.825263e-01 3.140475e-01 5.215368e-01 5.636640e-01 8.392145e-01 7.242814e-01 7.941055e-01 8.171944e-01 8.116369e-01 7.236963e-01 6.634468e-01 1.274351e-02
<GCONST> 1.133366e+02
<MIXTURE> 2 5.812400e-01
<MEAN> 39
 -1.336076e+01 -9.433089e+00 -9.191513e+00 -2.918685e+00 4.738826e+00 -2.446645e+00 -6.473311e+00 -3.971274e+00 3.287637e+00 6.605898e+00 3.134277e+00 1.011442e+00 1.583494e+01 -1.349470e-01 -1.909385e-01 -4.067391e-01 -2.173093e-01 -6.878145e-02 1.297385e-01 1.067962e-01 -4.245947e-01 2.474593e-02 -2.816082e-01 -9.751439e-02 -2.309854e-02 -1.271722e-02 4.943612e-02 3.575452e-02 -7.014762e-04 -6.282027e-02 -4.173620e-02 1.290440e-01 2.348070e-02 9.362841e-03 -1.028994e-01 -2.270256e-02 -2.996422e-02 -6.546202e-02 5.214621e-03
<VARIANCE> 39
 1.435201e+01 2.899426e+01 2.756774e+01 4.421816e+01 3.081938e+01 5.464971e+01 4.702408e+01 6.729690e+01 5.195325e+01 4.840617e+01 4.164063e+01 3.416402e+01 7.569845e-01 7.281995e-01 9.751590e-01 1.340356e+00 2.206537e+00 2.552074e+00 3.697181e+00 3.870816e+00 4.172575e+00 3.840991e+00 4.152975e+00 4.007359e+00 3.329943e+00 2.431497e-02 1.155508e-01 1.881965e-01 3.024980e-01 4.665932e-01 4.762012e-01 7.296762e-01 8.135974e-01 8.466886e-01 8.532709e-01 8.959076e-01 8.901618e-01 6.851711e-01 3.644259e-03
<GCONST> 1.089335e+02
<STATE> 4
<NUMMIXES> 2
<MIXTURE> 1 4.359066e-01
<MEAN> 39
 -7.997297e+00 -2.781555e+00 2.764966e+00 3.341822e+00 4.057125e+00 2.863135e+00 -2.350246e+00 -5.700818e-01 -4.584625e-01 1.255186e+00 1.000406e+00 8.763915e-01 1.722922e+01 1.960120e+00 1.742502e+00 1.397137e+00 1.194879e+00 -2.374469e-01 3.033449e-01 -4.974146e-01 9.373745e-02 -5.259127e-01 -7.501441e-01 -5.795384e-01 -4.486881e-01 6.225203e-01 2.016231e-01 -6.255257e-02 -2.032889e-01 -5.453617e-01 -7.542501e-01 -5.161566e-01 -4.965300e-01 -3.720888e-03 4.180743e-02 1.152571e-01 2.234037e-01 -8.658934e-02 4.955838e-02
<VARIANCE> 39
 3.046503e+01 3.430488e+01 6.869810e+01 6.117025e+01 5.994487e+01 9.073435e+01 4.374877e+01 5.853582e+01 4.031706e+01 4.018532e+01 3.419170e+01 2.588646e+01 2.135189e+00 9.640033e-01 1.396590e+00 2.156300e+00 3.594077e+00 3.949546e+00 3.959644e+00 3.405764e+00 3.300306e+00 3.394917e+00 4.103419e+00 3.340021e+00 2.443863e+00 8.603001e-02 1.950830e-01 3.598217e-01 2.943793e-01 5.492079e-01 6.300413e-01 7.437994e-01 6.829224e-01 7.771563e-01 6.880223e-01 8.856415e-01 5.596361e-01 4.962735e-01 1.776200e-02
<GCONST> 1.164741e+02
<MIXTURE> 2 5.640926e-01
<MEAN> 39
 -4.604066e+00 4.211569e-01 5.598809e+00 2.726081e+00 -8.609275e-01 -8.885482e-01 -5.691177e+00 7.335571e-01 -1.705479e+00 -6.085975e-01 8.783436e-01 -1.139972e-01 1.848929e+01 1.312933e+00 3.775253e-01 2.036887e-02 -2.225859e-01 -1.235417e+00 -5.193115e-01 -1.268964e+00 3.784363e-01 -5.506049e-02 -2.729776e-01 4.498514e-01 -1.662517e-01 3.566089e-01 -2.459984e-01 -4.091157e-01 -4.164111e-01 -3.791429e-01 -1.589870e-01 -7.803978e-02 1.789590e-02 6.228643e-02 1.449747e-01 3.047158e-01 2.570434e-01 1.229747e-01 -8.060793e-02
<VARIANCE> 39
 4.608667e+01 3.356091e+01 8.629118e+01 5.249920e+01 7.253956e+01 1.101512e+02 4.374589e+01 5.904511e+01 4.187091e+01 3.728648e+01 4.087901e+01 2.561991e+01 2.732646e+00 2.005392e+00 2.362895e+00 2.222283e+00 3.234697e+00 3.599189e+00 2.917840e+00 3.115070e+00 3.108467e+00 2.963682e+00 3.242016e+00 3.565049e+00 2.335794e+00 1.084000e-01 1.543010e-01 3.747178e-01 3.810567e-01 6.521449e-01 7.972624e-01 7.479116e-01 6.353901e-01 6.850426e-01 6.276350e-01 6.716536e-01 7.299664e-01 5.080838e-01 6.531222e-03
<GCONST> 1.174268e+02
<TRANSP> 5
 0.000000e+00 1.000000e+00 0.000000e+00 0.000000e+00 0.000000e+00
 0.000000e+00 8.603392e-01 1.396608e-01 0.000000e+00 0.000000e+00
 0.000000e+00 0.000000e+00 8.575323e-01 1.424677e-01 0.000000e+00
 0.000000e+00 0.000000e+00 0.000000e+00 7.480640e-01 2.519360e-01
 0.000000e+00 0.000000e+00 0.000000e+00 0.000000e+00 0.000000e+00
<ENDHMM>
~h "l"
<BEGINHMM>
<NUMSTATES> 5
<STATE> 2
<NUMMIXES> 2
<MIXTURE> 1 5.046500e-01
<MEAN> 39
 -1.957929e+00 9.583009e+00 3.491125e-01 -1.056590e+01 3.282438e+00 7.258161e+00 -9.036774e+00 -6.423261e+00 -4.402598e+00 2.362335e+00 4.073432e+00 4.253595e+00 1.785797e+01 4.639202e-01 4.515802e-01 6.801265e-03 -2.113805e-01 1.456363e-01 3.747807e-01 -7.143507e-02 6.228745e-03 -1.172312e-01 -3.638348e-01 8.599521e-02 2.364046e-01 1.461241e-01 6.534470e-02 1.689258e-02 -4.933148e-02 1.136252e-01 -2.161355e-02 2.243019e-02 -3.115119e-02 9.871620e-02 1.247919e-01 -7.229422e-02 -1.126328e-01 -1.125103e-01 -6.562954e-03
<VARIANCE> 39
 2.376378e+01 2.688497e+01 4.047306e+01 1.250969e+02 2.417261e+01 7.194540e+01 8.351865e+01 5.099184e+01 7.222706e+01 5.800511e+01 4.512006e+01 3.353629e+01 4.126113e+00 1.333299e+00 1.054670e+00 1.648214e+00 5.211269e+00 2.467635e+00 3.578990e+00 6.023199e+00 3.709642e+00 3.482175e+00 2.942465e+00 3.151360e+00 2.646934e+00 8.675729e-02 1.790195e-01 2.229950e-01 3.425438e-01 1.102512e+00 4.989859e-01 8.645443e-01 1.267280e+00 6.890535e-01 7.210517e-01 5.960762e-01 6.335510e-01 5.098888e-01 4.673736e-03
<GCONST> 1.168328e+02
<MIXTURE> 2 4.953501e-01
<MEAN> 39
 2.786155e-01 8.851305e+00 -9.735515e-01 -9.705036e+00 2.385653e+00 7.313042e+00 -9.883373e+00 -4.863101e+00 -2.761264e-01 1.878280e+00 1.117414e+00 1.373725e+00 1.865116e+01 7.733565e-01 -1.712208e-01 -5.645382e-01 -1.427648e+00 -3.377611e-01 6.315341e-01 -1.521312e+00 -4.663815e-02 -3.269743e-01 1.069465e-01 5.954611e-01 2.353161e-01 1.897781e-01 -2.902698e-01 -1.698647e-01 -3.550776e-02 1.307921e-02 4.518482e-02 -8.892670e-02 8.265126e-02 -1.111191e-01 -9.199519e-02 8.949977e-02 2.595933e-01 1.300251e-01 -5.593170e-02
<VARIANCE> 39
 1.789410e+01 3.010453e+01 2.867365e+01 7.173377e+01 2.502606e+01 5.790278e+01 6.558145e+01 4.494373e+01 5.198354e+01 4.415127e+01 2.996158e+01 3.503040e+01 2.442611e+00 1.230146e+00 1.462696e+00 1.990217e+00 4.438077e+00 2.411100e+00 3.854837e+00 4.554671e+00 4.560149e+00 2.889574e+00 3.156779e+00 3.109398e+00 2.817705e+00 6.029998e-02 1.962180e-01 3.010641e-01 4.450351e-01 8.477497e-01 5.965503e-01 6.604445e-01 8.711219e-01 8.159057e-01 5.671118e-01 6.678517e-01 5.422701e-01 5.806911e-01 9.585254e-03
<GCONST> 1.142013e+02
<STATE> 3
<NUMMIXES> 2
<MIXTURE> 1 5.069781e-01
<MEAN> 39
 2.990628e+00 9.980850e+00 -3.393058e+00 -1.792942e+01 1.906469e+00 1.123090e+01 -1.827830e+01 -7.396173e+00 -4.339749e+00 -6.462095e-01 1.044061e+01 5.596714e+00 2.011674e+01 -1.001135e-01 1.479743e-01 3.287205e-03 1.212571e-01 1.956518e-01 -6.324384e-02 4.707561e-01 -7.043627e-02 3.911827e-01 2.573560e-01 4.189217e-02 1.729923e-01 1.433530e-02 3.057437e-02 -5.118649e-02 6.475789e-02 2.450713e-01 4.778901e-02 -5.605261e-02 1.628512e-01 2.248141e-01 1.273610e-01 -4.778981e-02 -2.805631e-01 -2.501056e-01 1.974693e-03
<VARIANCE> 39
 3.865194e+00 2.601751e+01 2.011035e+01 4.465591e+01 2.037644e+01 2.932425e+01 6.132418e+01 4.842206e+01 5.026735e+01 5.391049e+01 2.851534e+01 3.738375e+01 5.572926e-01 3.247478e-01 7.229730e-01 5.647914e-01 1.839393e+00 1.192050e+00 1.681782e+00 2.817587e+00 2.068030e+00 2.099749e+00 1.838698e+00 2.131864e+00 2.101436e+00 3.936191e-03 5.908529e-02 9.783529e-02 1.221398e-01 2.888733e-01 2.322438e-01 3.389263e-01 5.196687e-01 3.087835e-01 3.532210e-01 3.268024e-01 3.187915e-01 3.057671e-01 2.223261e-04
<GCONST> 8.436104e+01
<MIXTURE> 2 4.930213e-01
<MEAN> 39
 3.277359e+00 9.511023e+00 -2.460881e+00 -1.384961e+01 2.369742e+00 1.019720e+01 -1.450908e+01 -4.925845e+00 -2.906356e+00 -1.088845e+00 5.788688e+00 1.852651e+00 1.995527e+01 9.175867e-02 -3.172927e-01 -2.009212e-01 -3.136824e-01 -2.063723e-01 1.904889e-01 -5.535361e-01 1.141139e-01 -3.020659e-01 -3.582396e-02 7.722362e-03 -2.379104e-01 1.027599e-02 -4.870141e-02 -1.782418e-02 -6.283627e-02 -1.884588e-01 -7.199643e-02 1.772265e-02 -1.246079e-01 -1.838179e-01 -4.854522e-02 1.033627e-01 1.805728e-01 1.884168e-01 -8.970539e-04
<VARIANCE> 39
 4.675814e+00 3.119894e+01 1.954314e+01 4.344041e+01 2.078434e+01 3.267999e+01 5.691125e+01 3.905265e+01 3.884830e+01 4.475680e+01 2.393753e+01 2.774003e+01 5.231385e-01 3.914306e-01 8.627601e-01 8.943598e-01 2.315519e+00 1.502980e+00 2.263701e+00 3.045790e+00 2.100414e+00 2.182265e+00 2.490887e+00 2.218307e+00 2.213718e+00 4.172360e-03 8.016257e-02 1.325081e-01 1.390788e-01 3.590176e-01 2.946334e-01 4.046614e-01 6.180767e-01 3.690344e-01 3.971946e-01 4.119280e-01 3.675690e-01 3.145655e-01 2.680608e-04
<GCONST> 8.813203e+01
<STATE> 4
<NUMMIXES> 2
<MIXTURE> 1 5.147913e-01
<MEAN> 39
 2.095747e+00 -2.328884e+00 -7.553158e+00 -1.420271e+01 -1.090307e-01 1.061146e+01 -1.943522e+01 -7.833379e-01 1.000101e+01 9.026325e+00 1.617593e-01 -6.659663e+00 2.064696e+01 -1.960928e-01 -1.477488e-02 1.664521e-01 6.706749e-01 1.358158e-01 -1.355996e-01 6.202868e-01 1.531988e-05 6.331421e-01 -9.066173e-02 -8.637142e-01 -1.988785e-01 1.051478e-02 4.250104e-02 3.425711e-02 1.601368e-01 2.546395e-01 -3.227831e-02 -6.500699e-02 2.044412e-01 2.530434e-02 -3.460701e-01 -3.403293e-01 2.788551e-02 1.920911e-01 -3.702187e-03
<VARIANCE> 39
 5.306728e+00 2.436770e+01 3.435329e+01 3.876424e+01 2.057972e+01 4.137733e+01 5.872306e+01 3.705331e+01 3.327774e+01 3.599308e+01 5.839234e+01 3.538935e+01 2.880491e-01 3.628140e-01 6.621273e-01 9.179693e-01 1.651483e+00 1.291834e+00 1.510700e+00 1.878489e+00 1.484454e+00 2.270145e+00 2.428791e+00 1.672411e+00 1.130606e+00 1.634992e-03 6.706154e-02 1.193450e-01 1.389644e-01 2.957655e-01 2.266392e-01 2.211062e-01 3.485241e-01 2.881736e-01 3.240897e-01 3.412828e-01 3.045767e-01 2.201198e-01 2.150508e-04
<GCONST> 8.159512e+01
<MIXTURE> 2 4.852077e-01
<MEAN> 39
 2.175508e+00 -2.377557e+00 -8.113179e+00 -1.028432e+01 4.111280e-01 1.087870e+01 -1.282005e+01 -6.848822e-01 5.371811e+00 3.738353e+00 -2.521054e+00 -6.230870e+00 2.028791e+01 5.354828e-02 -8.909802e-01 -4.551947e-02 2.132652e-01 -5.551523e-01 -2.419514e-01 -2.292032e-01 5.278298e-01 5.841289e-02 9.030054e-02 -3.517454e-01 -5.489108e-01 1.824670e-03 -5.056302e-02 1.907185e-02 -7.607154e-02 -2.297405e-01 2.611923e-02 2.163749e-02 -1.337076e-01 -4.279388e-02 2.408478e-01 1.947487e-01 5.554979e-02 -7.819723e-02 -3.243720e-03
<VARIANCE> 39
 5.099197e+00 2.386804e+01 3.042395e+01 2.864572e+01 2.208584e+01 3.214997e+01 4.574303e+01 2.626143e+01 2.360281e+01 2.024725e+01 2.575343e+01 2.457216e+01 2.988092e-01 5.506417e-01 8.493859e-01 1.214905e+00 2.468681e+00 1.378601e+00 1.575553e+00 2.396108e+00 1.738617e+00 2.790182e+00 2.444721e+00 2.316366e+00 2.082283e+00 1.553651e-03 1.146001e-01 1.973963e-01 2.320199e-01 3.614089e-01 3.273428e-01 3.323485e-01 4.421147e-01 3.684444e-01 4.215956e-01 3.369632e-01 3.634652e-01 3.306271e-01 2.222650e-04
<GCONST> 8.510213e+01
<TRANSP> 5
 0.000000e+00 1.000000e+00 0.000000e+00 0.000000e+00 0.000000e+00
 0.000000e+00 8.427525e-01 1.572476e-01 0.000000e+00 0.000000e+00
 0.000000e+00 0.000000e+00 9.638623e-01 3.613770e-02 0.000000e+00
 0.000000e+00 0.000000e+00 0.000000e+00 9.218053e-01 7.819465e-02
 0.000000e+00 0.000000e+00 0.000000e+00 0.000000e+00 0.000000e+00
<ENDHMM>
~h "m"
<BEGINHMM>
<NUMSTATES> 5
<STATE> 2
<NUMMIXES> 2
<MIXTURE> 1 4.829548e-01
<MEAN> 39
 -1.582202e+00 5.140659e+00 7.631082e+00 3.254275e+00 4.335591e+00 1.141582e+00 -1.418712e+00 -5.245066e+00 -4.596674e+00 4.591429e+00 -2.904508e+00 -1.594328e+00 1.733864e+01 8.443744e-01 7.077295e-01 5.641668e-01 6.476544e-01 9.901140e-02 -1.025359e-01 1.995322e-01 -2.807598e-01 -3.391897e-01 1.661704e-01 -3.291306e-01 -9.166859e-02 3.038470e-01 9.030889e-02 -1.271008e-01 -4.998008e-02 -9.814756e-02 -1.894310e-01 -1.403581e-01 -8.823822e-02 1.497020e-01 7.069206e-02 3.710433e-02 9.480832e-02 1.516878e-02 1.153900e-02
<VARIANCE> 39
 3.645860e+01 3.386377e+01 2.128965e+01 7.085953e+01 2.887576e+01 4.243330e+01 3.635776e+01 4.200924e+01 3.497445e+01 4.472153e+01 3.560603e+01 2.660935e+01 5.128038e+00 1.278295e+00 1.761027e+00 1.819103e+00 2.514022e+00 2.232913e+00 3.155927e+00 3.200107e+00 2.722387e+00 2.401720e+00 2.593342e+00 3.586818e+00 1.938937e+00 1.395350e-01 1.350621e-01 3.456556e-01 3.414448e-01 5.668228e-01 4.902524e-01 6.461480e-01 6.805466e-01 5.787287e-01 4.833959e-01 6.082419e-01 7.488151e-01 4.005237e-01 7.349022e-03
<GCONST> 1.105190e+02
<MIXTURE> 2 5.170455e-01
<MEAN> 39
 2.930269e+00 3.541155e+00 7.257590e+00 1.743192e+00 2.140935e+00 -3.047824e-01 -2.151997e+00 -4.167586e+00 -5.149269e+00 5.876750e+00 -2.234924e+00 -2.527410e+00 1.883981e+01 6.895902e-01 -2.986454e-01 -5.323382e-02 -3.563042e-01 -3.211770e-01 -3.578513e-01 1.270120e-01 -6.659909e-01 -8.750461e-01 8.416791e-01 -9.795766e-02 -8.112668e-03 1.545809e-01 -2.327145e-01 -3.525358e-02 -6.394806e-02 -9.321505e-02 -2.607671e-03 3.038597e-02 -7.648694e-02 -7.890125e-02 3.169958e-02 -3.551631e-02 1.055656e-02 5.882754e-02 -4.751909e-02
<VARIANCE> 39
 1.869885e+01 4.394044e+01 3.033260e+01 5.089436e+01 2.119389e+01 3.167910e+01 3.052349e+01 3.091165e+01 3.413720e+01 3.174076e+01 2.782038e+01 2.384826e+01 1.762251e+00 1.273833e+00 2.279459e+00 2.592228e+00 3.144107e+00 2.357629e+00 2.809866e+00 3.170329e+00 2.858355e+00 3.109544e+00 2.840276e+00 3.685910e+00 2.040984e+00 6.267782e-02 1.602696e-01 4.943166e-01 3.750484e-01 5.298324e-01 4.219043e-01 4.873806e-01 6.479390e-01 5.034903e-01 5.669196e-01 5.928206e-01 5.816628e-01 3.579645e-01 7.017825e-03
<GCONST> 1.073549e+02
<STATE> 3
<NUMMIXES> 2
<MIXTURE> 1 5.134227e-01
<MEAN> 39
 5.250875e+00 1.918571e+00 9.717339e+00 1.528102e+00 5.740021e-01 -2.095432e+00 -3.776388e+00 -7.258672e+00 -7.752771e+00 7.478747e+00 -3.595206e+00 -3.700509e+00 2.004867e+01 1.918712e-02 1.679016e-01 4.416949e-02 2.407390e-01 1.111883e-01 1.064888e-01 2.995473e-01 1.331144e-02 2.090445e-01 -2.314917e-01 -1.723830e-01 7.197195e-02 7.055202e-03 5.442952e-02 -1.414478e-01 -4.338439e-02 3.241557e-02 -1.356766e-03 9.128193e-02 4.294364e-03 1.991721e-01 3.053413e-02 -1.286091e-01 9.604143e-02 2.108652e-02 7.596118e-04
<VARIANCE> 39
 4.016973e+00 2.552520e+01 1.365841e+01 3.470779e+01 2.349439e+01 4.523816e+01 2.924719e+01 3.882066e+01 3.927153e+01 3.854326e+01 4.679952e+01 3.194268e+01 2.268905e-01 2.610312e-01 8.381895e-01 6.989145e-01 8.839594e-01 9.375123e-01 1.192443e+00 1.249252e+00 1.691062e+00 1.489108e+00 1.621936e+00 1.379029e+00 1.028344e+00 1.204468e-03 4.851336e-02 1.392243e-01 1.287334e-01 1.911730e-01 2.194730e-01 2.652549e-01 2.832573e-01 3.255517e-01 2.962661e-01 2.964681e-01 2.762117e-01 2.184513e-01 1.157253e-04
<GCONST> 7.475478e+01
<MIXTURE> 2 4.865783e-01
<MEAN> 39
 6.050461e+00 2.498761e-01 9.459505e+00 3.002861e+00 7.484651e-01 -2.213581e+00 -3.172673e+00 -5.464856e+00 -8.570697e+00 6.529124e+00 -3.136861e+00 -3.813341e+00 1.995309e+01 -5.541156e-02 -1.477765e-01 -8.221713e-03 -1.123239e-01 -1.557334e-01 -2.618106e-01 -2.785908e-01 -2.268135e-01 -2.637924e-01 2.091336e-01 8.441139e-02 -9.531619e-02 -3.988927e-03 -1.170963e-01 1.287884e-01 -4.971421e-02 -9.921174e-02 -1.414530e-02 -6.422290e-02 -4.406466e-02 -1.331023e-01 1.062697e-01 5.005982e-02 -2.666898e-02 -2.310317e-03 -2.278114e-03
<VARIANCE> 39
 4.527804e+00 2.070607e+01 1.883857e+01 2.824417e+01 1.849255e+01 3.600721e+01 2.896365e+01 3.370623e+01 3.665681e+01 3.474570e+01 3.271228e+01 2.625622e+01 2.268905e-01 3.950532e-01 9.843997e-01 7.842056e-01 1.069917e+00 1.179989e+00 1.736265e+00 1.634732e+00 2.158005e+00 1.502437e+00 1.791189e+00 1.405835e+00 1.156757e+00 1.754782e-03 6.009478e-02 1.547763e-01 1.753881e-01 2.032843e-01 2.277231e-01 2.893120e-01 3.016147e-01 3.304847e-01 3.181513e-01 3.205535e-01 2.822609e-01 1.940172e-01 1.390035e-04
<GCONST> 7.718440e+01
<STATE> 4
<NUMMIXES> 2
<MIXTURE> 1 5.062543e-01
<MEAN> 39
 1.812229e+00 2.960644e+00 8.692766e+00 2.107809e+00 3.398793e+00 -3.023420e+00 -1.064948e+00 -7.765052e+00 -5.958366e+00 6.446807e+00 -6.850685e+00 -1.009572e+00 1.907685e+01 -5.313901e-02 -7.978237e-02 -3.552930e-01 -1.900085e-02 6.810789e-03 6.235813e-01 2.563203e-02 4.266646e-01 7.592693e-01 -5.816922e-01 3.146265e-01 -4.548169e-02 6.554413e-04 2.236086e-01 -1.363786e-01 -1.029148e-01 -1.505196e-01 -8.453758e-02 1.855413e-01 -6.772381e-02 3.841988e-01 -1.883503e-03 1.165940e-01 2.417182e-01 -7.944242e-03 6.937848e-03
<VARIANCE> 39
 8.408608e+00 1.524458e+01 2.811628e+01 4.268288e+01 2.607610e+01 5.036237e+01 3.131626e+01 3.594205e+01 3.512808e+01 5.102294e+01 5.221923e+01 3.300765e+01 9.399876e-01 1.040961e+00 1.571989e+00 2.638667e+00 2.798315e+00 2.517191e+00 2.679875e+00 2.634778e+00 3.352593e+00 3.310970e+00 3.682152e+00 3.339616e+00 1.944749e+00 6.375015e-03 1.998589e-01 3.029741e-01 3.604434e-01 4.833204e-01 5.182754e-01 7.101368e-01 5.819868e-01 5.908469e-01 6.854608e-01 7.947832e-01 5.610335e-01 4.157426e-01 4.948731e-04
<GCONST> 1.023113e+02
<MIXTURE> 2 4.937464e-01
<MEAN> 39
 5.846707e-01 2.435739e+00 6.946159e+00 3.155317e+00 4.522106e+00 -7.492201e-01 -1.446417e+00 -4.677780e+00 -4.605330e+00 4.857848e+00 -4.010929e+00 -7.889255e-01 1.845753e+01 -3.353207e-01 -4.227459e-01 -5.242219e-01 -5.246386e-01 -2.250918e-01 3.593483e-02 -5.007461e-01 2.294130e-01 4.401710e-01 -3.096006e-01 3.405297e-01 -4.576683e-02 -8.427163e-02 -5.120525e-02 -4.081307e-02 7.144410e-02 -2.863577e-02 -1.552542e-01 9.741524e-05 -8.510146e-02 -1.161938e-01 5.842857e-02 -4.096504e-02 -2.380632e-01 -4.400952e-02 -1.370427e-02
<VARIANCE> 39
 3.994165e+01 2.086648e+01 2.623139e+01 3.860720e+01 4.098539e+01 5.439420e+01 3.371564e+01 3.401844e+01 4.250392e+01 4.908511e+01 4.490334e+01 2.934175e+01 2.741007e+00 1.095540e+00 1.391581e+00 1.846831e+00 2.022952e+00 2.680990e+00 3.329121e+00 3.073587e+00 3.479333e+00 4.296875e+00 3.742299e+00 3.124758e+00 2.559103e+00 2.079623e-02 2.044920e-01 2.655490e-01 3.074505e-01 4.387686e-01 5.389075e-01 5.457343e-01 5.845506e-01 6.935847e-01 7.108386e-01 7.996606e-01 6.269252e-01 4.621833e-01 1.074872e-03
<GCONST> 1.075122e+02
<TRANSP> 5
 0.000000e+00 1.000000e+00 0.000000e+00 0.000000e+00 0.000000e+00
 0.000000e+00 7.573093e-01 2.426907e-01 0.000000e+00 0.000000e+00
 0.000000e+00 0.000000e+00 9.441888e-01 5.581123e-02 0.000000e+00
 0.000000e+00 0.000000e+00 0.000000e+00 8.639886e-01 1.360114e-01
 0.000000e+00 0.000000e+00 0.000000e+00 0.000000e+00 0.000000e+00
<ENDHMM>
~h "n"
<BEGINHMM>
<NUMSTATES> 5
<STATE> 2
<NUMMIXES> 2
<MIXTURE> 1 5.012685e-01
<MEAN> 39
 3.221412e+00 -6.206826e-01 6.079289e+00 5.223051e-02 -4.876348e+00 -3.908105e+00 -5.998022e+00 1.586325e+00 -3.142194e+00 6.884935e+00 -2.748680e+00 -3.688541e+00 2.009494e+01 1.685346e-01 5.188097e-01 2.626054e-01 5.560089e-01 3.856702e-01 2.901791e-01 4.666076e-01 -9.441469e-01 2.971157e-01 -1.433132e-01 -5.148731e-01 -2.847617e-03 -7.264914e-03 4.887977e-02 -8.079441e-02 1.112028e-02 8.873578e-02 3.848303e-02 2.775660e-01 4.197897e-02 -3.986749e-02 1.677691e-02 -1.618944e-01 6.314101e-03 -4.491399e-02 2.087588e-03
<VARIANCE> 39
 8.801266e+00 3.250948e+01 5.936218e+01 3.848964e+01 4.963644e+01 5.601889e+01 5.671158e+01 5.353473e+01 4.748699e+01 3.982147e+01 5.443167e+01 4.065896e+01 2.435807e-01 4.316254e-01 1.132299e+00 1.422636e+00 1.408235e+00 1.769189e+00 2.625175e+00 1.975971e+00 3.258703e+00 2.189837e+00 2.108386e+00 1.775558e+00 1.738927e+00 2.487375e-03 7.197118e-02 1.966642e-01 2.084078e-01 2.752017e-01 3.423407e-01 4.508823e-01 4.486907e-01 4.976524e-01 4.003531e-01 3.967053e-01 3.164325e-01 2.947996e-01 2.376483e-04
<GCONST> 9.184787e+01
<MIXTURE> 2 4.987344e-01
<MEAN> 39
 3.476609e+00 -1.545793e+00 6.279127e+00 1.049595e+00 -5.039936e+00 -9.809070e-01 -4.956223e+00 2.358444e+00 -4.712760e+00 4.785999e+00 -2.293284e+00 -4.511180e+00 2.005919e+01 2.235404e-01 -3.357505e-01 -3.288446e-02 3.921989e-02 -7.449784e-02 3.014045e-02 -3.871227e-01 -2.387611e-01 -3.790818e-01 5.349085e-01 3.432465e-02 -2.597571e-01 -7.841151e-03 -7.227582e-02 4.569275e-02 6.601372e-02 -1.088936e-01 -7.383063e-02 -1.727183e-01 -9.246439e-02 -1.019833e-01 1.493066e-01 6.913557e-02 -3.331147e-02 7.185343e-02 -3.073449e-03
<VARIANCE> 39
 9.767881e+00 3.363701e+01 6.151851e+01 3.401157e+01 4.313453e+01 4.834127e+01 5.208334e+01 3.756793e+01 3.412796e+01 3.232631e+01 3.622838e+01 3.394361e+01 2.525915e-01 4.203574e-01 1.047305e+00 1.018013e+00 1.449889e+00 2.031591e+00 2.899306e+00 2.104085e+00 2.538473e+00 1.776940e+00 1.966499e+00 1.612746e+00 1.471578e+00 2.681035e-03 6.218410e-02 2.123031e-01 1.909914e-01 2.403203e-01 3.629025e-01 3.947566e-01 3.970719e-01 3.673657e-01 3.545941e-01 3.619873e-01 3.027596e-01 2.692641e-01 2.763625e-04
<GCONST> 8.826519e+01
<STATE> 3
<NUMMIXES> 2
<MIXTURE> 1 5.182321e-01
<MEAN> 39
 5.881787e+00 7.714344e-01 8.896764e+00 4.495767e+00 -7.176567e-01 5.017662e-02 -8.326336e+00 -8.311740e+00 1.267333e+00 6.049099e+00 -7.802578e+00 -5.492400e+00 2.007143e+01 2.571291e-02 2.674290e-01 -1.250961e-02 8.885042e-02 1.185708e-01 1.387266e-01 2.121507e-01 -3.384622e-02 1.857433e-01 -3.705932e-01 -7.476951e-03 2.061805e-01 -6.479267e-03 3.865544e-03 -6.063901e-02 -2.676286e-02 -3.019792e-02 5.453956e-03 5.394658e-02 7.023890e-02 1.606243e-01 -1.065955e-01 -5.702540e-02 1.148382e-01 -2.303016e-02 -2.007773e-03
<VARIANCE> 39
 3.684931e+00 1.402063e+01 1.389622e+01 1.852699e+01 1.686686e+01 2.903701e+01 3.612263e+01 2.973588e+01 2.984257e+01 3.671856e+01 2.847171e+01 2.530045e+01 2.268905e-01 2.839327e-01 6.996669e-01 6.802065e-01 7.463734e-01 1.008567e+00 1.429898e+00 1.800935e+00 1.571848e+00 1.423924e+00 1.728610e+00 1.381379e+00 1.121319e+00 1.452889e-03 5.244287e-02 1.186831e-01 1.131106e-01 1.404677e-01 1.915944e-01 2.846758e-01 3.566154e-01 3.478717e-01 2.496766e-01 3.119349e-01 2.440905e-01 2.129916e-01 1.053181e-04
<GCONST> 7.147336e+01
<MIXTURE> 2 4.817619e-01
<MEAN> 39
 6.208794e+00 4.027512e-02 9.018372e+00 4.358438e+00 -9.221255e-01 9.303448e-01 -6.610104e+00 -8.029479e+00 -7.191010e-01 6.518853e+00 -7.639092e+00 -7.092494e+00 1.988041e+01 -8.856817e-02 -4.300211e-02 7.467531e-03 -7.793825e-02 -8.077133e-03 -9.611714e-02 -3.092777e-01 -3.726132e-01 5.341800e-03 2.021735e-01 -9.521682e-02 -2.767823e-02 -1.633873e-02 -1.415901e-01 1.327656e-01 -6.971308e-02 -6.077204e-02 2.803711e-02 -2.373277e-01 -1.070349e-02 7.199777e-02 1.258996e-02 2.881002e-02 -1.080807e-02 1.202830e-01 -3.346449e-03
<VARIANCE> 39
 4.635529e+00 1.407857e+01 1.617833e+01 1.683714e+01 1.621552e+01 2.361702e+01 3.646149e+01 2.711418e+01 2.521752e+01 2.648307e+01 1.841020e+01 2.140197e+01 2.268905e-01 4.282876e-01 8.933676e-01 8.091869e-01 9.025928e-01 1.164143e+00 2.054416e+00 2.306786e+00 2.120395e+00 1.589404e+00 1.974889e+00 1.506818e+00 1.378179e+00 2.151993e-03 7.276184e-02 1.403201e-01 1.655245e-01 1.801737e-01 2.328555e-01 3.272385e-01 4.391156e-01 4.040864e-01 3.042786e-01 3.716471e-01 2.889366e-01 2.589585e-01 1.585973e-04
<GCONST> 7.630026e+01
<STATE> 4
<NUMMIXES> 2
<MIXTURE> 1 5.099344e-01
<MEAN> 39
 -2.030457e-01 4.996677e+00 8.987004e+00 5.475535e+00 2.331982e+00 -1.488462e+00 -2.123996e+00 -6.382822e+00 -7.171541e-01 4.896329e+00 -8.133741e+00 -3.469571e+00 1.830551e+01 -3.162976e-01 2.987476e-01 9.742166e-02 2.218458e-01 3.329600e-01 2.140699e-01 4.271094e-01 3.880618e-01 1.842627e-01 -4.752086e-01 1.755417e-01 1.276143e-01 -4.024737e-02 1.331517e-01 -1.437882e-01 -1.217823e-01 -8.361522e-02 -7.584292e-02 1.062868e-01 3.250340e-02 2.087476e-01 7.882927e-03 1.142786e-01 2.020098e-01 1.227154e-02 4.879348e-03
<VARIANCE> 39
