~o
<STREAMINFO> 1 39
<VECSIZE> 39<NULLD><MFCC_E_D_A><DIAGC>
~s "silst"
<MEAN> 39
 -1.367411e+01 -4.322485e-01 -1.009771e+00 4.949799e-01 -5.913929e-03 -5.095235e-01 -1.719168e+00 -6.818937e-01 1.766671e+00 1.515300e+00 -2.361882e-01 -3.746711e-01 1.058822e+01 -3.155185e-02 -4.171622e-02 -4.857576e-02 -3.855045e-02 -4.088834e-02 -1.501406e-02 -1.974814e-02 -2.274901e-02 -3.008943e-02 -2.063446e-02 -5.638631e-03 6.295945e-03 -3.184666e-02 3.629586e-02 9.392161e-02 1.096909e-01 1.130591e-01 6.951978e-02 5.770840e-02 4.269735e-02 3.652212e-02 9.829810e-03 5.592339e-03 2.023470e-02 6.649651e-03 1.120400e-02
<VARIANCE> 39
 1.047943e+01 2.321475e+01 2.329898e+01 2.383556e+01 2.838126e+01 3.238609e+01 3.115104e+01 3.208990e+01 3.474517e+01 3.153809e+01 3.038407e+01 2.451449e+01 1.525141e+00 6.429973e-01 1.333171e+00 1.730395e+00 2.382285e+00 2.763852e+00 3.218577e+00 3.398377e+00 3.536103e+00 3.637104e+00 3.771608e+00 3.405016e+00 2.874208e+00 6.117246e-02 1.365170e-01 2.885735e-01 3.921929e-01 5.405930e-01 6.240003e-01 7.154775e-01 7.544467e-01 7.856672e-01 8.220920e-01 8.487380e-01 7.632443e-01 6.517088e-01 9.808850e-03
<GCONST> 1.074989e+02
~h "@"
<BEGINHMM>
<NUMSTATES> 5
<STATE> 2
<MEAN> 39
 8.760022e-01 -1.676198e+00 4.291734e+00 -2.418616e+00 -4.790370e+00 -4.462355e+00 -1.361638e+01 3.306083e+00 4.742386e+00 4.599784e+00 -4.467578e+00 7.125890e-01 1.990619e+01 4.299965e-03 3.762244e-02 -5.622011e-03 -3.324763e-02 4.397418e-02 -1.706738e-02 1.615322e-02 -2.657550e-02 5.979101e-02 1.032839e-01 -2.050099e-02 1.768695e-02 -1.411564e-02 -4.054628e-02 6.353847e-02 1.076701e-02 3.932459e-02 6.476430e-02 3.153564e-02 1.094413e-01 -6.873111e-02 -2.429266e-02 -2.686243e-02 2.267709e-02 -3.420894e-02 -1.082898e-02
<VARIANCE> 39
 1.012378e+01 2.663038e+01 3.823831e+01 3.266373e+01 3.754802e+01 4.332578e+01 7.151004e+01 3.669328e+01 4.082679e+01 3.803454e+01 3.531375e+01 2.760863e+01 5.278587e-01 6.619226e-01 1.302123e+00 1.084839e+00 1.692365e+00 2.058858e+00 3.040025e+00 3.837033e+00 2.003420e+00 2.918115e+00 2.446827e+00 1.811140e+00 1.509269e+00 6.570206e-03 1.259910e-01 2.247864e-01 2.062514e-01 3.299522e-01 4.028895e-01 6.031863e-01 7.706973e-01 3.626994e-01 5.510558e-01 4.740514e-01 3.491039e-01 2.909406e-01 6.152556e-04
<GCONST> 9.557723e+01
<STATE> 3
<MEAN> 39
 1.489529e+00 5.556898e+00 4.835092e+00 8.041254e-01 3.900372e-01 -1.354775e+00 -1.158794e+01 -4.790212e+00 2.732229e+00 4.138163e+00 -2.720885e+00 -3.128327e-01 1.857703e+01 -2.496988e-01 4.147603e-01 3.442341e-02 2.209250e-01 4.441806e-01 1.397312e-01 6.642174e-01 -2.006774e-01 -2.240762e-01 -2.334208e-01 6.188212e-02 -1.375568e-01 -1.439432e-01 -4.012524e-02 -7.440513e-02 4.444129e-04 2.456665e-02 -1.926777e-02 7.322482e-03 -1.319187e-02 8.180826e-02 -5.332662e-02 -5.543160e-02 5.508149e-03 -1.227158e-02 -6.353548e-03
<VARIANCE> 39
 1.663967e+01 2.859907e+01 2.698592e+01 3.579550e+01 3.772650e+01 4.804596e+01 3.987196e+01 5.695870e+01 4.752756e+01 3.810247e+01 3.505278e+01 2.960427e+01 1.461851e+00 6.667778e-01 1.144379e+00 1.304226e+00 1.935430e+00 2.728751e+00 3.077337e+00 3.950066e+00 2.966611e+00 3.645378e+00 3.492285e+00 2.668087e+00 2.563691e+00 1.835295e-02 1.303096e-01 2.189804e-01 2.736100e-01 3.928386e-01 5.503875e-01 6.445615e-01 7.594277e-01 5.719687e-01 8.223019e-01 7.066168e-01 5.611643e-01 5.121021e-01 1.439601e-03
<GCONST> 1.044951e+02
<STATE> 4
<MEAN> 39
 -2.821584e+00 1.442138e+00 6.435274e-01 3.302283e-01 3.023611e+00 2.515717e-01 -4.368961e+00 -5.890729e-01 3.047342e+00 3.748994e+00 -4.599532e+00 -1.635273e+00 1.762091e+01 -1.188305e-01 -4.243031e-02 -2.849405e-02 3.672635e-02 8.558451e-02 8.293939e-02 1.604860e-01 -5.289863e-02 -1.701794e-01 -1.514367e-01 1.809241e-01 -6.505704e-03 -8.779379e-02 6.050495e-03 -2.517045e-02 1.014970e-02 -5.661758e-02 -9.120003e-02 -4.082365e-02 -1.635547e-01 3.758311e-03 1.582889e-02 6.290606e-02 2.782132e-02 6.028248e-02 -3.919655e-03
<VARIANCE> 39
 2.577132e+01 2.796420e+01 5.253038e+01 6.422665e+01 6.128392e+01 7.030910e+01 6.830551e+01 4.139038e+01 4.545912e+01 5.455568e+01 5.458264e+01 3.293895e+01 3.729173e+00 1.092113e+00 1.035735e+00 1.533607e+00 2.731000e+00 2.708996e+00 3.074242e+00 3.227624e+00 2.926576e+00 3.387717e+00 3.533183e+00 2.637221e+00 2.531885e+00 3.501958e-02 1.746211e-01 2.039937e-01 3.139578e-01 5.863050e-01 5.573216e-01 6.518889e-01 7.487773e-01 6.412513e-01 7.028764e-01 8.022909e-01 5.803636e-01 5.138565e-01 2.289181e-03
<GCONST> 1.116375e+02
<TRANSP> 5
 0.000000e+00 1.000000e+00 0.000000e+00 0.000000e+00 0.000000e+00
 0.000000e+00 8.841727e-01 1.158273e-01 0.000000e+00 0.000000e+00
 0.000000e+00 0.000000e+00 7.711227e-01 2.288774e-01 0.000000e+00
 0.000000e+00 0.000000e+00 0.000000e+00 7.075307e-01 2.924692e-01
 0.000000e+00 0.000000e+00 0.000000e+00 0.000000e+00 0.000000e+00
<ENDHMM>
~h "Q"
<BEGINHMM>
<NUMSTATES> 5
<STATE> 2
<MEAN> 39
 -8.968819e+00 1.227167e+00 1.709896e+00 5.255102e-01 -1.376319e+00 -3.581203e-01 -4.450421e+00 2.224232e-01 1.032390e+00 1.922153e+00 9.369482e-01 -5.463367e-02 1.433043e+01 6.601643e-05 -6.414447e-06 -4.348861e-05 2.207338e-05 -6.183252e-05 3.505594e-04 -2.845397e-05 -1.057293e-04 -3.217392e-04 -2.094190e-04 -1.093453e-04 6.646793e-05 -4.646834e-05 -3.052270e-05 -5.577785e-06 5.118113e-05 5.903988e-05 8.738427e-05 1.239256e-04 1.462678e-04 5.784345e-07 -6.680420e-05 8.540968e-05 -3.584341e-06 -9.608337e-06 3.280207e-06
<VARIANCE> 39
 9.132833e+01 3.750473e+01 5.184167e+01 5.299957e+01 4.542144e+01 5.171822e+01 6.411460e+01 4.173472e+01 3.924054e+01 3.472301e+01 3.778771e+01 3.327573e+01 2.268905e+01 6.444674e-01 1.076510e+00 1.293223e+00 1.883514e+00 2.197024e+00 2.673508e+00 2.949268e+00 2.722457e+00 2.845586e+00 2.895535e+00 2.697424e+00 2.293327e+00 4.128606e-02 9.874837e-02 2.035372e-01 2.576212e-01 3.839478e-01 4.538210e-01 5.496877e-01 6.081111e-01 5.695377e-01 5.939356e-01 6.059731e-01 5.659602e-01 4.834353e-01 5.660130e-03
<GCONST> 1.098248e+02
<STATE> 3
<MEAN> 39
 -8.968819e+00 1.227167e+00 1.709896e+00 5.255102e-01 -1.376319e+00 -3.581203e-01 -4.450421e+00 2.224232e-01 1.032390e+00 1.922153e+00 9.369482e-01 -5.463367e-02 1.433043e+01 6.601643e-05 -6.414447e-06 -4.348861e-05 2.207338e-05 -6.183252e-05 3.505594e-04 -2.845397e-05 -1.057293e-04 -3.217392e-04 -2.094190e-04 -1.093453e-04 6.646793e-05 -4.646834e-05 -3.052270e-05 -5.577785e-06 5.118113e-05 5.903988e-05 8.738427e-05 1.239256e-04 1.462678e-04 5.784345e-07 -6.680420e-05 8.540968e-05 -3.584341e-06 -9.608337e-06 3.280207e-06
<VARIANCE> 39
 9.132833e+01 3.750473e+01 5.184167e+01 5.299957e+01 4.542144e+01 5.171822e+01 6.411460e+01 4.173472e+01 3.924054e+01 3.472301e+01 3.778771e+01 3.327573e+01 2.268905e+01 6.444674e-01 1.076510e+00 1.293223e+00 1.883514e+00 2.197024e+00 2.673508e+00 2.949268e+00 2.722457e+00 2.845586e+00 2.895535e+00 2.697424e+00 2.293327e+00 4.128606e-02 9.874837e-02 2.035372e-01 2.576212e-01 3.839478e-01 4.538210e-01 5.496877e-01 6.081111e-01 5.695377e-01 5.939356e-01 6.059731e-01 5.659602e-01 4.834353e-01 5.660130e-03
<GCONST> 1.098248e+02
<STATE> 4
<MEAN> 39
 -8.968819e+00 1.227167e+00 1.709896e+00 5.255102e-01 -1.376319e+00 -3.581203e-01 -4.450421e+00 2.224232e-01 1.032390e+00 1.922153e+00 9.369482e-01 -5.463367e-02 1.433043e+01 6.601643e-05 -6.414447e-06 -4.348861e-05 2.207338e-05 -6.183252e-05 3.505594e-04 -2.845397e-05 -1.057293e-04 -3.217392e-04 -2.094190e-04 -1.093453e-04 6.646793e-05 -4.646834e-05 -3.052270e-05 -5.577785e-06 5.118113e-05 5.903988e-05 8.738427e-05 1.239256e-04 1.462678e-04 5.784345e-07 -6.680420e-05 8.540968e-05 -3.584341e-06 -9.608337e-06 3.280207e-06
<VARIANCE> 39
 9.132833e+01 3.750473e+01 5.184167e+01 5.299957e+01 4.542144e+01 5.171822e+01 6.411460e+01 4.173472e+01 3.924054e+01 3.472301e+01 3.778771e+01 3.327573e+01 2.268905e+01 6.444674e-01 1.076510e+00 1.293223e+00 1.883514e+00 2.197024e+00 2.673508e+00 2.949268e+00 2.722457e+00 2.845586e+00 2.895535e+00 2.697424e+00 2.293327e+00 4.128606e-02 9.874837e-02 2.035372e-01 2.576212e-01 3.839478e-01 4.538210e-01 5.496877e-01 6.081111e-01 5.695377e-01 5.939356e-01 6.059731e-01 5.659602e-01 4.834353e-01 5.660130e-03
<GCONST> 1.098248e+02
<TRANSP> 5
 0.000000e+00 1.000000e+00 0.000000e+00 0.000000e+00 0.000000e+00
 0.000000e+00 5.000000e-01 5.000000e-01 0.000000e+00 0.000000e+00
 0.000000e+00 0.000000e+00 5.000000e-01 5.000000e-01 0.000000e+00
 0.000000e+00 0.000000e+00 0.000000e+00 5.000000e-01 5.000000e-01
 0.000000e+00 0.000000e+00 0.000000e+00 0.000000e+00 0.000000e+00
<ENDHMM>
~h "a"
<BEGINHMM>
<NUMSTATES> 5
<STATE> 2
<MEAN> 39
 -3.266753e+00 -7.463041e+00 -1.615954e+00 -3.241695e+00 -6.685324e+00 1.481882e-01 -4.637172e+00 8.809226e+00 4.499647e+00 2.770025e+00 -4.275618e+00 -3.859776e+00 1.839606e+01 2.060859e-01 -2.465987e-01 -5.850825e-02 -6.932770e-02 -1.117817e-01 7.569166e-02 1.942684e-02 2.841055e-01 5.020950e-02 -1.046690e-01 2.305001e-02 -1.531295e-01 9.850002e-02 -1.117871e-02 1.722657e-02 -1.497750e-02 1.829963e-02 1.425131e-02 4.420992e-03 1.201578e-02 -4.813249e-02 -9.878359e-03 -1.854193e-02 6.916119e-03 -5.962700e-03 -1.001474e-02
<VARIANCE> 39
 2.685847e+01 3.713194e+01 6.010782e+01 5.287194e+01 4.571590e+01 7.064631e+01 5.825508e+01 6.236092e+01 4.512605e+01 3.608131e+01 4.388656e+01 5.160971e+01 3.117255e+00 1.228758e+00 2.869404e+00 1.747306e+00 3.478551e+00 2.540056e+00 3.147111e+00 4.062546e+00 4.094669e+00 3.582082e+00 2.496403e+00 3.242077e+00 2.693994e+00 9.657205e-02 2.122493e-01 5.620909e-01 3.156492e-01 7.105269e-01 5.009876e-01 6.780562e-01 8.512084e-01 8.141865e-01 7.695454e-01 5.240084e-01 6.903484e-01 5.601670e-01 1.135044e-02
<GCONST> 1.177531e+02
<STATE> 3
<MEAN> 39
 2.337448e+00 -1.130858e+01 -9.847522e+00 1.438877e-01 -5.523287e+00 5.347213e+00 -3.048821e+00 4.610795e+00 5.993007e+00 5.171218e-02 -3.974827e+00 -1.183582e+01 2.052524e+01 2.220382e-02 -1.542486e-02 -2.724608e-02 5.719828e-03 -5.483674e-02 2.090893e-03 -1.247882e-02 -5.097038e-03 -1.884261e-03 3.236797e-02 -1.985168e-02 -1.851987e-02 5.339800e-03 -1.206393e-02 1.931465e-02 3.609307e-02 -1.950277e-02 6.035631e-03 -1.923825e-02 -1.322203e-02 5.681728e-03 -8.149625e-03 2.273196e-02 -6.670750e-04 3.469754e-02 -2.711035e-03
<VARIANCE> 39
 5.545750e+00 2.118776e+01 2.214338e+01 2.742805e+01 1.761269e+01 2.629715e+01 3.582647e+01 4.175106e+01 2.571058e+01 3.056258e+01 2.648441e+01 2.904559e+01 4.112502e-01 4.196943e-01 1.141103e+00 8.388519e-01 1.148273e+00 1.048611e+00 1.092039e+00 1.606966e+00 1.725414e+00 1.929367e+00 1.539613e+00 1.589649e+00 1.593725e+00 2.185549e-03 7.534294e-02 1.729464e-01 1.455780e-01 1.995891e-01 1.924965e-01 1.917375e-01 2.898023e-01 2.873881e-01 3.207007e-01 2.661327e-01 2.769960e-01 2.575467e-01 2.094136e-04
<GCONST> 7.776258e+01
<STATE> 4
<MEAN> 39
 9.017097e-01 -8.270434e+00 1.769023e+00 -1.122167e+00 -9.223923e+00 -3.379497e+00 -3.999753e+00 1.144233e+01 1.595109e+00 1.934839e+00 -3.393960e+00 -4.608276e+00 2.010471e+01 7.766977e-03 1.575289e-01 1.787684e-01 6.555473e-03 6.500489e-02 -1.646901e-01 -8.686594e-02 -3.452769e-02 -1.576732e-01 1.532310e-01 3.217394e-02 1.061926e-01 -8.712167e-04 -5.340497e-03 2.745501e-02 4.971126e-03 1.529766e-02 3.407288e-02 8.566306e-03 5.637242e-03 -4.088803e-02 -5.457512e-03 2.357555e-03 8.861219e-03 -1.175625e-03 -4.196967e-03
<VARIANCE> 39
 5.363278e+00 1.997257e+01 3.323243e+01 2.305665e+01 2.280194e+01 2.709315e+01 4.687849e+01 2.904006e+01 4.109258e+01 2.236553e+01 2.637900e+01 1.985281e+01 3.357088e-01 4.059922e-01 1.177630e+00 8.680830e-01 1.236808e+00 1.464124e+00 1.978872e+00 1.781986e+00 2.133611e+00 2.087829e+00 1.474757e+00 1.435587e+00 1.053768e+00 2.937050e-03 7.978979e-02 1.916719e-01 1.551697e-01 2.342996e-01 2.826662e-01 3.672529e-01 3.200149e-01 3.721705e-01 3.565696e-01 2.633175e-01 2.693492e-01 1.932093e-01 2.494653e-04
<GCONST> 8.056317e+01
<TRANSP> 5
 0.000000e+00 1.000000e+00 0.000000e+00 0.000000e+00 0.000000e+00
 0.000000e+00 9.189540e-01 8.104608e-02 0.000000e+00 0.000000e+00
 0.000000e+00 0.000000e+00 9.459515e-01 5.404849e-02 0.000000e+00
 0.000000e+00 0.000000e+00 0.000000e+00 9.415005e-01 5.849958e-02
 0.000000e+00 0.000000e+00 0.000000e+00 0.000000e+00 0.000000e+00
<ENDHMM>
~h "b"
<BEGINHMM>
<NUMSTATES> 5
<STATE> 2
<MEAN> 39
 -4.656237e+00 -2.558943e+00 2.827242e+00 3.764215e+00 3.801077e+00 5.618326e-01 -5.474425e+00 -4.563372e+00 8.605923e-01 1.959453e+00 1.745559e+00 -9.286076e-01 1.744394e+01 2.093902e+00 1.774730e+00 1.388997e+00 3.166580e-01 1.159256e-01 1.592776e+00 5.187091e-01 3.594973e-01 -9.041099e-01 -1.589052e-01 -8.009883e-01 -1.533020e-03 3.569985e-01 3.269826e-01 1.323784e-01 -1.946170e-01 -5.828055e-01 -7.570073e-01 1.499334e-02 -1.831762e-01 1.921828e-01 -1.926371e-01 4.933363e-03 -6.363714e-02 2.777782e-01 6.521894e-02
<VARIANCE> 39
 2.891721e+01 1.801828e+01 4.036020e+01 5.335481e+01 3.473044e+01 6.292046e+01 2.909023e+01 3.957324e+01 3.296721e+01 4.567490e+01 2.938794e+01 2.615768e+01 1.325274e+00 1.870917e+00 1.791594e+00 2.741581e+00 4.109606e+00 4.039885e+00 6.026049e+00 4.022996e+00 3.436962e+00 2.966116e+00 3.803844e+00 3.067409e+00 2.854947e+00 1.020862e-01 2.523898e-01 3.601831e-01 4.356534e-01 5.992142e-01 6.373829e-01 1.008823e+00 6.588568e-01 6.658558e-01 7.022008e-01 8.097261e-01 6.360313e-01 5.343782e-01 8.569870e-03
<GCONST> 1.149411e+02
<STATE> 3
<MEAN> 39
 1.834013e+00 1.774608e+00 3.080696e+00 -4.647980e-01 -1.139296e+00 3.347271e+00 -5.696209e+00 -3.141964e+00 -1.062431e+00 2.087887e+00 -4.075749e-01 8.820257e-01 1.873864e+01 1.991332e+00 4.416232e-01 -4.331383e-01 -1.869044e+00 -1.728156e+00 8.775551e-01 -1.182860e+00 4.039351e-01 -5.325241e-01 7.249665e-01 1.224013e-01 8.403190e-01 4.171261e-01 -4.972706e-01 -5.417452e-01 -4.077148e-01 -2.372159e-01 -6.899043e-02 -2.821523e-01 -3.623543e-01 -4.913881e-02 2.117908e-01 1.637003e-01 2.820505e-01 9.186912e-03 -5.179432e-02
<VARIANCE> 39
 2.436145e+01 2.326011e+01 6.669956e+01 5.529593e+01 2.600485e+01 7.146999e+01 3.028294e+01 3.718045e+01 2.790501e+01 3.091422e+01 2.974517e+01 3.019684e+01 8.674866e-01 1.371579e+00 2.786578e+00 3.193461e+00 4.030684e+00 3.972626e+00 5.228991e+00 3.784586e+00 3.055562e+00 3.279441e+00 3.642247e+00 3.636704e+00 2.458079e+00 6.629387e-02 1.597310e-01 2.718236e-01 3.196896e-01 5.936748e-01 5.945359e-01 8.291760e-01 5.795954e-01 5.237383e-01 5.421927e-01 6.709127e-01 5.683791e-01 4.167820e-01 5.341151e-03
<GCONST> 1.111546e+02
<STATE> 4
<MEAN> 39
 2.577241e+00 2.491107e+00 1.109164e+00 -2.223020e+00 -2.575741e-01 4.578244e+00 -8.860987e+00 -5.500592e+00 1.205491e+00 5.073096e+00 -1.644606e+00 -3.484386e-01 1.850460e+01 1.663292e-02 -9.582015e-02 -1.144696e-01 -1.496157e-01 -1.959556e-01 -3.350023e-02 -2.420573e-01 6.005998e-02 1.395227e-01 1.200186e-01 2.944450e-02 -2.450923e-02 3.589088e-02 -8.717504e-02 -5.132474e-02 -3.595747e-04 1.113052e-01 5.899153e-02 -6.470995e-02 5.865334e-02 2.975599e-02 1.872222e-02 -6.635855e-02 -1.044786e-02 -4.430854e-02 -1.578138e-02
<VARIANCE> 39
 2.649210e+01 3.320374e+01 5.348982e+01 1.252446e+02 3.636150e+01 7.126743e+01 5.562719e+01 6.032060e+01 4.772533e+01 6.221983e+01 5.105450e+01 4.915086e+01 3.270724e+00 7.088832e-01 1.354114e+00 1.684811e+00 3.195324e+00 2.685305e+00 2.350122e+00 3.174284e+00 2.723744e+00 3.103295e+00 3.779203e+00 3.193572e+00 2.475423e+00 4.462977e-02 1.501350e-01 2.565856e-01 3.203803e-01 6.141514e-01 5.180359e-01 5.149829e-01 6.591800e-01 5.581415e-01 6.319770e-01 7.557915e-01 6.866755e-01 4.923762e-01 3.706896e-03
<GCONST> 1.126913e+02
<TRANSP> 5
 0.000000e+00 1.000000e+00 0.000000e+00 0.000000e+00 0.000000e+00
 0.000000e+00 4.480039e-01 5.519961e-01 0.000000e+00 0.000000e+00
 0.000000e+00 0.000000e+00 5.684596e-01 4.315404e-01 0.000000e+00
 0.000000e+00 0.000000e+00 0.000000e+00 8.675291e-01 1.324710e-01
 0.000000e+00 0.000000e+00 0.000000e+00 0.000000e+00 0.000000e+00
<ENDHMM>
~h "d"
<BEGINHMM>
<NUMSTATES> 5
<STATE> 2
<MEAN> 39
 -3.232217e+00 7.059183e+00 8.102146e+00 3.295744e+00 1.013223e+00 -2.409523e+00 -5.589455e+00 -3.496587e+00 -6.732655e-01 -1.401509e-01 -2.659488e+00 -1.375574e+00 1.726183e+01 -1.456151e+00 -1.006387e+00 -7.033421e-01 -7.879976e-01 7.309071e-01 1.836989e-01 9.964966e-01 -3.647255e-03 -6.587226e-01 -3.530109e-01 4.842793e-01 3.212983e-01 -1.647432e-01 -8.658721e-02 -3.099407e-01 -2.032205e-01 -1.366873e-01 -5.963191e-02 3.215275e-02 -4.881894e-03 1.922569e-01 7.878526e-02 -4.322701e-02 7.369100e-02 8.792560e-02 1.456216e-03
<VARIANCE> 39
 3.277820e+01 3.495735e+01 2.891091e+01 2.888680e+01 3.961180e+01 5.753905e+01 4.562654e+01 3.686819e+01 3.502834e+01 3.235798e+01 3.452002e+01 2.737604e+01 4.489656e+00 2.611657e+00 3.525641e+00 2.312817e+00 2.862849e+00 3.635303e+00 4.875479e+00 4.940763e+00 4.407109e+00 3.592962e+00 3.274065e+00 3.299469e+00 2.530679e+00 3.826417e-02 3.888634e-01 4.520574e-01 3.362685e-01 4.737283e-01 6.196215e-01 7.129153e-01 9.723602e-01 6.604006e-01 6.787632e-01 6.609015e-01 6.048078e-01 5.050184e-01 4.227384e-03
<GCONST> 1.150949e+02
<STATE> 3
<MEAN> 39
 -7.943086e+00 2.396075e+00 4.313214e+00 2.330404e+00 2.346626e+00 -1.058930e+00 -1.369001e+00 -1.486503e+00 -8.403726e-01 -9.033824e-01 -2.162684e+00 -4.263284e-01 1.591947e+01 -5.603219e-01 -3.896153e-01 -6.287659e-01 -4.396322e-01 -1.220404e-01 -2.972094e-01 1.719788e-01 3.239853e-01 5.813859e-02 3.993924e-02 3.901738e-01 3.911851e-01 -1.469579e-01 2.517219e-01 2.356944e-01 1.372800e-01 1.023728e-01 -2.243198e-01 -1.824310e-01 -3.387282e-01 -4.709094e-02 2.043419e-01 1.134934e-01 -6.940344e-02 -1.440790e-03 3.039238e-02
<VARIANCE> 39
 3.554884e+01 2.649129e+01 2.334356e+01 2.434285e+01 3.419656e+01 4.138236e+01 4.874902e+01 4.043467e+01 3.703651e+01 3.644798e+01 3.357095e+01 2.186845e+01 6.921709e+00 1.290846e+00 2.341622e+00 1.824330e+00 2.682711e+00 2.281428e+00 2.754464e+00 2.656558e+00 3.384810e+00 3.090321e+00 3.393214e+00 3.122347e+00 2.296805e+00 5.702989e-02 3.019535e-01 5.109946e-01 3.873393e-01 5.005218e-01 5.784606e-01 6.588444e-01 6.780930e-01 7.059864e-01 7.970456e-01 7.905130e-01 7.064659e-01 4.784308e-01 4.027618e-03
<GCONST> 1.113626e+02
<STATE> 4
<MEAN> 39
 -1.255894e+01 2.205623e+00 3.340686e+00 -1.196387e-01 -8.706707e-01 -5.669720e+00 -4.049676e+00 -1.827017e+00 2.842226e+00 -2.682123e-01 -6.241980e-02 1.302656e+00 1.622286e+01 3.059657e-01 9.869329e-02 2.196370e-01 -2.310457e-02 -2.084441e-01 -2.055421e-01 -5.064704e-01 6.544036e-02 3.028541e-01 8.232073e-02 -1.299952e-01 6.042427e-02 1.835840e-01 1.400403e-01 -1.308171e-02 4.952215e-02 3.489783e-02 -4.369716e-02 6.403445e-02 -9.260898e-02 1.191797e-03 -2.567803e-02 8.135853e-03 -5.058149e-02 -5.040967e-02 1.524254e-02
<VARIANCE> 39
 6.061910e+01 4.394360e+01 4.903970e+01 4.148037e+01 4.754280e+01 4.442768e+01 5.316331e+01 4.337246e+01 3.920241e+01 3.721636e+01 2.871617e+01 2.210078e+01 6.719746e+00 2.666285e+00 3.421540e+00 3.115958e+00 3.344232e+00 3.552812e+00 4.166486e+00 4.814029e+00 3.393427e+00 3.416019e+00 3.252435e+00 2.976830e+00 2.586614e+00 1.690062e-01 3.252679e-01 6.688867e-01 5.746114e-01 6.315817e-01 7.160375e-01 8.324574e-01 9.263346e-01 6.861948e-01 6.936662e-01 6.504914e-01 6.499420e-01 5.571271e-01 2.346289e-02
<GCONST> 1.218655e+02
<TRANSP> 5
 0.000000e+00 1.000000e+00 0.000000e+00 0.000000e+00 0.000000e+00
 0.000000e+00 4.751165e-01 5.248836e-01 0.000000e+00 0.000000e+00
 0.000000e+00 0.000000e+00 6.409934e-01 3.590066e-01 0.000000e+00
 0.000000e+00 0.000000e+00 0.000000e+00 8.015855e-01 1.984144e-01
 0.000000e+00 0.000000e+00 0.000000e+00 0.000000e+00 0.000000e+00
<ENDHMM>
~h "e"
<BEGINHMM>
<NUMSTATES> 5
<STATE> 2
<MEAN> 39
 -1.176175e+00 -5.931531e+00 1.839250e+00 -3.778036e+00 -8.560297e+00 -3.625744e+00 -9.544529e+00 8.802231e+00 6.853185e+00 3.956828e+00 -4.338234e+00 -2.372980e+00 1.922280e+01 2.479268e-01 -4.315282e-01 -2.151711e-01 -1.439102e-01 -2.945784e-01 2.717718e-02 -2.014393e-01 3.279044e-01 2.156207e-01 1.734212e-01 -1.329963e-02 -1.244559e-01 8.503975e-02 -9.942468e-02 1.495571e-02 2.691841e-02 8.094284e-02 9.953783e-02 -4.179949e-03 1.080614e-01 -3.326074e-02 -7.956439e-02 -4.960944e-02 8.256836e-04 -2.518943e-02 -2.392038e-02
<VARIANCE> 39
 1.534804e+01 4.032087e+01 3.817631e+01 3.598168e+01 4.200741e+01 6.031968e+01 6.175148e+01 6.140018e+01 4.347122e+01 3.796984e+01 4.238668e+01 3.622056e+01 2.061294e+00 8.744363e-01 2.542374e+00 1.406051e+00 2.920738e+00 2.786419e+00 3.372671e+00 3.765412e+00 3.937303e+00 4.043222e+00 2.827597e+00 2.464168e+00 2.188905e+00 4.403566e-02 1.788198e-01 4.993029e-01 2.720870e-01 5.778082e-01 5.609010e-01 6.995002e-01 6.989656e-01 7.867829e-01 8.181754e-01 5.504200e-01 5.128791e-01 4.538888e-01 5.185416e-03
<GCONST> 1.117074e+02
<STATE> 3
<MEAN> 39
 1.787148e+00 -9.275613e+00 2.259479e+00 -2.041402e+00 -1.002315e+01 -1.922639e+00 -1.101809e+01 1.110399e+01 4.220283e+00 2.923681e+00 -3.004988e+00 -4.383290e+00 2.075803e+01 5.753076e-03 -7.333338e-03 5.937168e-02 2.338284e-02 5.653668e-03 -7.204032e-02 -2.853747e-02 9.567762e-02 -1.041732e-01 2.691939e-02 -1.821649e-02 6.687679e-02 -9.604010e-04 2.037970e-04 3.673596e-02 1.724902e-03 -6.649746e-05 2.287683e-02 -1.935724e-03 1.785088e-03 -3.739681e-02 -2.949829e-03 2.081646e-03 1.261466e-02 1.103561e-02 -2.674847e-03
<VARIANCE> 39
 4.437450e+00 1.926534e+01 3.402898e+01 1.931097e+01 2.859392e+01 2.611953e+01 4.112321e+01 2.851592e+01 4.065142e+01 2.531084e+01 2.459404e+01 2.732562e+01 2.268905e-01 2.013503e-01 8.629798e-01 5.000229e-01 7.432524e-01 9.528038e-01 1.223184e+00 1.159986e+00 1.379423e+00 2.081554e+00 1.307388e+00 1.080312e+00 8.390406e-01 1.365869e-03 3.023875e-02 9.998732e-02 7.058408e-02 1.105620e-01 1.441317e-01 1.762774e-01 1.799090e-01 2.007801e-01 2.698895e-01 1.863840e-01 1.683957e-01 1.382648e-01 1.232627e-04
<GCONST> 6.705097e+01
<STATE> 4
<MEAN> 39
 1.010885e+00 -4.948766e+00 -4.859205e-01 -9.175540e-01 -5.916769e+00 -4.783829e+00 -9.339546e+00 9.102195e+00 4.591450e+00 3.655214e+00 -5.848685e+00 -1.074164e+00 2.001564e+01 -2.290555e-02 2.308497e-01 8.608065e-02 1.184560e-01 2.469882e-01 -1.530734e-02 9.625384e-02 -3.350375e-01 -1.341871e-01 6.648485e-03 2.782467e-02 4.984343e-02 -2.925041e-02 -1.517805e-02 1.440371e-02 3.755461e-02 1.839519e-02 2.927782e-02 9.055724e-03 3.539049e-02 -6.913271e-02 -2.065090e-02 -1.855170e-02 5.379368e-02 -1.507579e-02 -6.307499e-03
<VARIANCE> 39
 6.583825e+00 1.750664e+01 2.502876e+01 1.827977e+01 2.417025e+01 3.267274e+01 4.509203e+01 3.220195e+01 4.069300e+01 2.584617e+01 2.364186e+01 2.025283e+01 2.268905e-01 6.461639e-01 1.446712e+00 1.027650e+00 1.559794e+00 1.828773e+00 2.789518e+00 3.436172e+00 2.277438e+00 3.601102e+00 2.283874e+00 1.635245e+00 1.405530e+00 3.963958e-03 1.265990e-01 2.591409e-01 1.985390e-01 2.950253e-01 3.516985e-01 5.452869e-01 6.857339e-01 4.033519e-01 6.784738e-01 4.502772e-01 3.156343e-01 2.668837e-01 3.388749e-04
<GCONST> 8.880801e+01
<TRANSP> 5
 0.000000e+00 1.000000e+00 0.000000e+00 0.000000e+00 0.000000e+00
 0.000000e+00 8.646570e-01 1.353430e-01 0.000000e+00 0.000000e+00
 0.000000e+00 0.000000e+00 9.495229e-01 5.047705e-02 0.000000e+00
 0.000000e+00 0.000000e+00 0.000000e+00 8.777140e-01 1.222859e-01
 0.000000e+00 0.000000e+00 0.000000e+00 0.000000e+00 0.000000e+00
<ENDHMM>
~h "f"
<BEGINHMM>
<NUMSTATES> 5
<STATE> 2
<MEAN> 39
 -1.470583e+01 -1.767200e+00 2.986579e+00 3.304462e+00 3.198986e-01 -1.955099e+00 -3.929349e+00 -1.688341e+00 3.101347e+00 3.456656e-01 2.842684e-01 8.543144e-01 1.627052e+01 -8.502899e-01 -3.216115e-01 -1.427767e-01 2.174265e-02 -1.125132e-01 -1.176077e-01 9.490282e-02 -5.733884e-02 -1.266289e-01 -1.252747e-01 3.489940e-02 -1.405115e-01 -1.954753e-01 5.815108e-02 -3.231953e-02 -8.393329e-02 -7.588652e-02 -3.542001e-02 2.208801e-02 -3.233590e-02 1.181925e-02 -2.398996e-02 1.803662e-02 -1.334123e-02 8.537800e-03 1.095919e-02
<VARIANCE> 39
 4.525658e+01 1.587746e+01 3.270481e+01 3.439877e+01 4.373904e+01 4.905465e+01 3.717078e+01 2.958879e+01 3.261366e+01 3.186195e+01 3.339095e+01 3.016809e+01 2.951955e+00 8.661177e-01 9.514807e-01 1.442789e+00 2.297693e+00 2.442714e+00 3.020440e+00 3.303060e+00 2.884001e+00 3.329735e+00 3.786781e+00 3.076286e+00 2.566694e+00 2.542644e-02 1.156778e-01 1.535770e-01 2.809763e-01 4.416283e-01 4.779642e-01 6.091918e-01 6.915116e-01 5.929710e-01 7.166756e-01 8.282752e-01 6.516005e-01 5.612419e-01 2.061520e-03
<GCONST> 1.051298e+02
<STATE> 3
<MEAN> 39
 -2.189727e+01 -8.669176e+00 -3.233740e+00 1.323070e+00 -1.492397e+00 -2.311102e+00 -3.110096e+00 -9.773349e-01 3.042300e+00 1.027210e+00 2.202396e+00 1.273366e+00 1.475035e+01 6.623635e-02 -9.486647e-02 -9.289420e-02 -4.727197e-02 -3.471258e-03 1.646959e-02 2.296718e-02 3.353458e-02 7.673557e-02 1.046667e-01 7.546985e-02 5.566172e-02 -7.119273e-03 6.557372e-02 5.721021e-02 5.208429e-02 8.029737e-03 2.398049e-02 1.138269e-02 1.094648e-02 -1.135956e-02 -5.256355e-03 -1.269000e-02 -2.356937e-02 -4.755626e-03 4.904923e-03
<VARIANCE> 39
 9.886880e+00 1.179073e+01 2.475477e+01 2.476794e+01 3.026186e+01 3.366866e+01 3.153469e+01 3.191804e+01 3.345489e+01 3.079543e+01 3.068016e+01 2.649759e+01 8.661379e-01 4.610942e-01 7.591749e-01 1.303608e+00 1.770596e+00 2.701911e+00 3.219148e+00 3.483968e+00 3.170866e+00 3.401102e+00 3.513359e+00 3.356465e+00 3.018687e+00 1.628470e-02 8.051639e-02 1.608447e-01 2.604045e-01 3.739424e-01 5.731322e-01 6.888733e-01 7.864315e-01 6.916053e-01 7.286955e-01 7.776448e-01 7.389893e-01 6.626723e-01 1.724065e-03
<GCONST> 9.936131e+01
<STATE> 4
<MEAN> 39
 -9.765803e+00 -3.735910e+00 -1.507591e+00 1.208430e+00 -8.721883e-01 -4.363900e-01 -3.671630e+00 -1.797046e+00 2.010849e+00 1.888699e+00 1.330274e+00 -1.576124e-01 1.639151e+01 2.322533e+00 1.002482e+00 1.567606e-01 -2.009362e-01 -3.319106e-01 3.374871e-01 -4.535453e-01 1.102397e-01 -5.875559e-01 -5.358940e-03 -1.132519e-01 3.226874e-02 4.475107e-01 6.226270e-02 -6.793471e-02 -1.867281e-01 -9.726764e-02 -1.621267e-01 -7.689490e-02 -1.741154e-01 9.259512e-02 -3.326081e-02 6.123723e-02 1.423575e-01 1.219165e-01 3.459435e-02
<VARIANCE> 39
 6.884099e+01 2.646626e+01 6.840798e+01 3.712192e+01 4.077589e+01 5.640773e+01 3.463411e+01 3.279756e+01 3.560159e+01 4.139669e+01 3.020325e+01 2.836999e+01 3.801286e+00 2.014327e+00 2.330500e+00 3.095039e+00 3.939350e+00 4.215697e+00 4.242054e+00 4.004464e+00 3.321228e+00 3.537385e+00 4.121110e+00 3.765261e+00 2.992438e+00 1.938298e-01 4.202160e-01 4.723778e-01 5.001698e-01 6.887842e-01 8.105445e-01 8.485817e-01 7.291743e-01 6.398743e-01 7.095155e-01 8.214514e-01 8.080527e-01 5.730881e-01 3.254300e-02
<GCONST> 1.216101e+02
<TRANSP> 5
 0.000000e+00 1.000000e+00 0.000000e+00 0.000000e+00 0.000000e+00
 0.000000e+00 9.242887e-01 7.571124e-02 0.000000e+00 0.000000e+00
 0.000000e+00 0.000000e+00 9.583257e-01 4.167429e-02 0.000000e+00
 0.000000e+00 0.000000e+00 0.000000e+00 8.638091e-01 1.361909e-01
 0.000000e+00 0.000000e+00 0.000000e+00 0.000000e+00 0.000000e+00
<ENDHMM>
~h "g"
<BEGINHMM>
<NUMSTATES> 5
<STATE> 2
<MEAN> 39
 -1.644482e+00 1.636095e+00 1.402424e+00 -1.180960e+00 -1.144365e+00 1.504505e+00 -6.419199e+00 -9.000079e-01 -8.600610e+00 3.631504e+00 3.957524e+00 -3.884069e+00 1.658441e+01 -7.496462e-01 -4.587676e-01 -4.061306e-01 -6.370896e-01 6.611484e-01 5.243135e-01 3.442433e-01 -2.129971e-01 2.635514e-01 3.191557e-01 -3.218733e-01 2.022734e-01 -1.784817e-01 -1.026852e-01 -2.597719e-01 6.967320e-02 2.168609e-01 8.860707e-02 -2.059933e-01 -1.529405e-01 2.747150e-02 2.547590e-01 -8.969256e-02 -1.519789e-01 7.609237e-02 4.630452e-02
<VARIANCE> 39
 2.757357e+01 3.499263e+01 9.041476e+01 4.542204e+01 4.426468e+01 4.792412e+01 6.574267e+01 3.251862e+01 6.330409e+01 6.000972e+01 4.070881e+01 5.009837e+01 2.358808e+00 7.070208e-01 3.260668e+00 3.722886e+00 3.514457e+00 3.078089e+00 4.002942e+00 4.791202e+00 3.114488e+00 4.465487e+00 3.396284e+00 2.825910e+00 3.779351e+00 4.387446e-02 1.177853e-01 6.620455e-01 5.750678e-01 6.611238e-01 4.666556e-01 5.934508e-01 8.344737e-01 5.364490e-01 6.567573e-01 6.636400e-01 6.186689e-01 7.355133e-01 5.548578e-03
<GCONST> 1.170817e+02
<STATE> 3
<MEAN> 39
 -1.195839e+01 1.198149e+00 3.499775e+00 -3.354388e+00 -1.194330e+00 -2.473320e+00 -6.539951e+00 -1.764335e+00 -1.819870e+00 1.981178e+00 7.782639e-01 1.027000e+00 1.584044e+01 -3.796370e-01 -1.397189e-01 1.740838e-01 -3.343457e-01 3.351320e-01 4.384873e-02 4.494666e-02 -1.140064e-01 3.454007e-01 -2.511887e-02 -1.859385e-01 1.238506e-01 7.024831e-02 1.631355e-01 4.090912e-02 6.911471e-02 1.435251e-01 -3.457890e-02 1.163717e-02 4.697289e-02 6.673869e-02 -3.136588e-02 -1.187610e-01 -2.433446e-02 -6.636094e-02 5.588100e-02
<VARIANCE> 39
 4.760695e+01 3.469271e+01 9.764494e+01 4.724982e+01 3.018957e+01 3.603047e+01 4.430294e+01 2.260932e+01 4.121656e+01 3.650834e+01 3.139999e+01 1.945413e+01 3.220800e+00 1.528666e+00 4.054521e+00 3.158149e+00 4.042583e+00 2.371601e+00 3.315324e+00 2.462401e+00 2.059331e+00 3.135494e+00 3.141788e+00 2.844105e+00 2.271940e+00 6.509957e-02 1.508877e-01 5.297363e-01 4.780352e-01 6.481915e-01 4.797965e-01 6.668658e-01 5.473631e-01 3.595978e-01 7.041928e-01 5.954112e-01 6.212035e-01 4.388125e-01 1.178262e-02
<GCONST> 1.127307e+02
<STATE> 4
<MEAN> 39
 -6.667118e+00 -3.443051e+00 7.348579e-01 -1.267532e+00 1.934126e+00 -1.178424e+00 -7.651708e+00 -1.350594e+00 -2.685999e+00 4.120581e+00 2.697797e+00 -5.242857e-01 1.720526e+01 6.251433e-01 3.642851e-01 3.577299e-01 2.109179e-01 -2.873192e-01 -3.078641e-01 -3.850802e-01 1.568500e-01 2.196823e-01 -3.701534e-02 1.808072e-01 -1.022151e-02 2.737482e-01 1.154479e-01 6.106862e-02 -4.963235e-02 -7.202953e-02 -2.293367e-01 -7.988453e-02 -1.208540e-01 7.288144e-02 -4.789335e-02 -2.077957e-02 9.463789e-02 2.121352e-02 2.616634e-03
<VARIANCE> 39
 4.082957e+01 6.290165e+01 1.059724e+02 5.421152e+01 7.286318e+01 6.068599e+01 6.735092e+01 4.807023e+01 3.656164e+01 4.181856e+01 5.370906e+01 2.795711e+01 2.555772e+00 2.331398e+00 4.254097e+00 3.238800e+00 4.460383e+00 5.380480e+00 4.387031e+00 4.175087e+00 3.702321e+00 3.594783e+00 3.580724e+00 3.950910e+00 2.492520e+00 1.033271e-01 2.950594e-01 8.184552e-01 5.748464e-01 8.617554e-01 9.426013e-01 8.712428e-01 7.891380e-01 7.947860e-01 7.119507e-01 7.419949e-01 7.906834e-01 5.239835e-01 1.661212e-02
<GCONST> 1.252791e+02
<TRANSP> 5
 0.000000e+00 1.000000e+00 0.000000e+00 0.000000e+00 0.000000e+00
 0.000000e+00 5.476083e-01 4.523917e-01 0.000000e+00 0.000000e+00
 0.000000e+00 0.000000e+00 7.637388e-01 2.362612e-01 0.000000e+00
 0.000000e+00 0.000000e+00 0.000000e+00 8.512803e-01 1.487197e-01
 0.000000e+00 0.000000e+00 0.000000e+00 0.000000e+00 0.000000e+00
<ENDHMM>
~h "h"
<BEGINHMM>
<NUMSTATES> 5
<STATE> 2
<MEAN> 39
 -1.553895e+01 -7.348868e+00 7.605135e-01 -5.108257e+00 -3.996153e+00 -1.040076e+00 -7.094583e-01 5.570486e-01 2.976460e+00 -7.867731e-01 9.862216e-01 3.272934e+00 1.481973e+01 7.004631e-02 -1.067211e-01 2.158936e-02 2.727478e-02 -2.116258e-02 1.701730e-01 3.594881e-02 5.478241e-02 -6.218364e-02 -1.327168e-01 -5.313844e-02 -3.747929e-02 4.934100e-02 4.911067e-02 7.004185e-02 3.505301e-02 6.566050e-02 4.247691e-02 3.844269e-02 5.883294e-03 8.834862e-03 -1.912496e-02 6.308583e-04 -2.816465e-02 -2.637902e-02 1.600009e-02
<VARIANCE> 39
 4.163307e+01 3.704509e+01 7.830552e+01 4.869014e+01 4.883390e+01 5.562941e+01 3.691700e+01 4.521390e+01 3.397098e+01 3.591050e+01 2.857001e+01 3.118179e+01 3.636434e+00 5.806947e-01 1.053639e+00 1.494217e+00 2.333436e+00 2.647145e+00 3.437183e+00 3.603337e+00 3.789050e+00 3.476760e+00 3.815997e+00 3.176735e+00 2.853558e+00 3.320713e-02 9.737760e-02 1.741788e-01 2.845672e-01 4.512607e-01 5.512447e-01 7.347258e-01 7.831789e-01 7.982674e-01 7.355883e-01 8.067861e-01 6.724255e-01 6.122604e-01 4.692366e-03
<GCONST> 1.104719e+02
<STATE> 3
<MEAN> 39
 -8.280396e+00 -8.232699e+00 -8.277168e-01 6.921085e-01 -2.049085e+00 5.211164e+00 1.935419e+00 3.325296e+00 2.161720e+00 -2.086148e+00 -1.053687e+00 -1.436341e+00 1.755536e+01 5.092800e-01 3.087071e-01 2.017986e-01 2.935709e-01 -7.853354e-02 -2.647974e-02 -1.872013e-01 -4.829894e-02 -9.655501e-02 -5.018884e-02 -8.395579e-03 -1.314965e-01 1.746517e-01 1.537777e-02 -2.891134e-02 -4.813978e-02 -1.177515e-01 -1.257927e-01 -1.114121e-01 -1.023046e-01 -2.152515e-04 1.303908e-02 6.702793e-02 9.158639e-02 3.982276e-02 -2.742531e-03
<VARIANCE> 39
 1.854641e+01 8.438103e+01 9.062688e+01 4.104105e+01 7.540459e+01 4.616137e+01 5.712219e+01 4.476362e+01 3.689912e+01 3.417448e+01 3.043885e+01 3.063947e+01 1.142390e+00 1.022872e+00 1.588152e+00 1.655306e+00 2.583015e+00 3.184992e+00 2.897962e+00 3.061511e+00 3.115044e+00 3.412070e+00 2.932875e+00 3.011281e+00 2.618944e+00 1.064786e-01 9.833064e-02 2.641755e-01 3.023356e-01 4.821370e-01 6.786549e-01 6.299441e-01 6.505047e-01 6.703238e-01 7.685931e-01 6.305505e-01 6.189260e-01 5.568175e-01 5.886395e-03
<GCONST> 1.117301e+02
<STATE> 4
<MEAN> 39
 -3.710611e+00 -4.325218e+00 3.071133e+00 4.204582e+00 -6.045970e+00 6.829997e-01 2.894295e+00 6.080023e+00 6.215166e-01 -1.914615e+00 -1.817253e+00 -1.620871e+00 1.894443e+01 2.308460e-01 3.227142e-02 -1.814555e-01 -1.615317e-01 -1.786163e-01 -1.510130e-01 -1.495273e-01 4.961882e-02 4.665155e-02 1.855748e-01 2.154196e-02 -1.357432e-02 5.882846e-02 -2.508938e-02 -1.946652e-02 -3.423027e-02 -2.233832e-02 2.108635e-02 2.100154e-02 -9.634000e-03 -2.452077e-02 -1.120996e-02 2.264875e-02 -7.114757e-03 -1.326194e-02 -7.394499e-03
<VARIANCE> 39
 1.047073e+01 1.948323e+01 4.371693e+01 2.649630e+01 3.930671e+01 2.833349e+01 4.299487e+01 3.020283e+01 2.786034e+01 2.767401e+01 2.813884e+01 3.149045e+01 3.712976e-01 5.293675e-01 7.482856e-01 9.494224e-01 2.568885e+00 2.011121e+00 2.616621e+00 2.867981e+00 2.329346e+00 2.393125e+00 2.867635e+00 1.875133e+00 1.926851e+00 9.755608e-03 1.080074e-01 1.401024e-01 1.963949e-01 5.286480e-01 4.028025e-01 5.398052e-01 6.090444e-01 4.734993e-01 5.037552e-01 6.042491e-01 3.928098e-01 4.185158e-01 1.092677e-03
<GCONST> 9.374501e+01
<TRANSP> 5
 0.000000e+00 1.000000e+00 0.000000e+00 0.000000e+00 0.000000e+00
 0.000000e+00 9.230096e-01 7.699032e-02 0.000000e+00 0.000000e+00
 0.000000e+00 0.000000e+00 8.859105e-01 1.140895e-01 0.000000e+00
 0.000000e+00 0.000000e+00 0.000000e+00 8.674460e-01 1.325540e-01
 0.000000e+00 0.000000e+00 0.000000e+00 0.000000e+00 0.000000e+00
<ENDHMM>
~h "i"
<BEGINHMM>
<NUMSTATES> 5
<STATE> 2
<MEAN> 39
 -5.826399e+00 1.393548e+00 1.019979e+01 1.407621e+00 -6.978003e+00 -6.018964e+00 -7.716560e+00 1.488718e+00 -6.597987e-04 8.689706e-01 8.147267e-02 2.106391e+00 1.799428e+01 5.568820e-01 -2.809942e-01 2.260296e-01 -2.625033e-01 -4.861189e-01 -1.987572e-01 -5.184362e-01 3.460989e-01 -1.590396e-01 9.706978e-02 2.514481e-01 6.802914e-04 1.832909e-01 -6.961161e-02 -2.651459e-02 -6.082805e-02 -1.190063e-02 4.072217e-02 3.699392e-02 3.159266e-02 3.603994e-04 -5.717858e-03 -1.019997e-02 -1.697181e-03 -1.412516e-02 -2.254364e-02
<VARIANCE> 39
 5.781340e+01 3.474207e+01 4.801546e+01 3.800459e+01 6.096852e+01 5.345859e+01 5.926555e+01 4.177142e+01 4.118381e+01 3.034714e+01 3.799611e+01 3.536660e+01 4.614033e+00 1.421078e+00 2.139949e+00 1.719906e+00 2.789618e+00 2.651526e+00 3.663623e+00 3.795358e+00 2.830289e+00 2.767828e+00 2.616206e+00 2.795241e+00 2.653211e+00 1.011393e-01 1.949466e-01 4.234936e-01 3.270389e-01 5.630904e-01 5.033199e-01 7.223720e-01 7.225349e-01 5.816596e-01 5.705268e-01 5.099968e-01 5.958180e-01 5.500836e-01 7.794468e-03
<GCONST> 1.143093e+02
<STATE> 3
<MEAN> 39
 7.644191e-01 -2.719592e+00 1.060685e+01 9.509967e-01 -9.644949e+00 -7.592645e+00 -1.435300e+01 3.796741e+00 6.351883e-01 -2.528259e-01 1.755550e+00 1.426287e+00 2.048318e+01 1.184394e-02 2.493704e-02 -1.672672e-03 1.977514e-02 3.330253e-02 -1.658914e-02 -3.607723e-02 5.791882e-02 -4.055448e-02 7.386574e-03 -7.201935e-02 1.813431e-02 1.041602e-03 -2.970674e-02 5.503727e-02 -3.032817e-02 9.012308e-03 7.430149e-02 3.450041e-03 7.084211e-02 -6.468906e-02 2.274366e-02 3.015223e-02 -2.941599e-02 -9.652490e-03 -7.809471e-03
<VARIANCE> 39
 6.835217e+00 2.217427e+01 3.764059e+01 2.168761e+01 4.077496e+01 2.916360e+01 5.504071e+01 2.739280e+01 3.893625e+01 2.636826e+01 3.242049e+01 2.823072e+01 4.230350e-01 2.915113e-01 8.560262e-01 6.643034e-01 8.144632e-01 1.333500e+00 1.959397e+00 1.923906e+00 1.436719e+00 1.516132e+00 1.284459e+00 1.242163e+00 1.367150e+00 3.726910e-03 4.808687e-02 1.315127e-01 1.122575e-01 1.490840e-01 2.295098e-01 3.282969e-01 3.261726e-01 2.598405e-01 2.524810e-01 2.345631e-01 2.297247e-01 2.310531e-01 2.217201e-04
<GCONST> 7.789030e+01
<STATE> 4
<MEAN> 39
 -1.905518e-01 5.025640e-01 7.637694e+00 -1.804557e-01 -5.322612e+00 -7.745905e+00 -1.120281e+01 2.355237e+00 2.085210e+00 3.316561e+00 -2.209740e+00 1.564197e+00 1.949034e+01 -2.140469e-01 4.136930e-01 -9.668174e-02 1.000734e-01 4.760672e-01 3.347775e-02 4.871611e-01 -2.519121e-01 7.535608e-02 3.998224e-02 -1.590444e-01 -1.419591e-01 -6.612678e-02 -4.724955e-02 1.348182e-02 9.170326e-03 2.027846e-02 6.558956e-02 8.557720e-02 8.164234e-02 -3.652490e-02 -3.764056e-02 -2.801436e-02 2.305686e-02 -4.502713e-02 -9.219949e-03
<VARIANCE> 39
 1.286445e+01 2.709174e+01 2.818241e+01 3.406242e+01 4.343710e+01 4.925833e+01 7.709353e+01 4.341724e+01 4.569476e+01 3.224030e+01 3.289083e+01 3.263369e+01 6.114128e-01 8.447133e-01 1.426168e+00 1.232947e+00 1.883167e+00 2.746000e+00 3.630673e+00 4.404568e+00 2.466184e+00 3.117498e+00 2.159538e+00 2.100142e+00 2.094109e+00 1.363736e-02 1.359086e-01 2.655486e-01 2.270778e-01 3.763182e-01 5.435580e-01 7.619990e-01 9.093538e-01 4.956466e-01 6.228442e-01 4.456922e-01 4.098684e-01 4.157631e-01 8.649958e-04
<GCONST> 1.012066e+02
<TRANSP> 5
 0.000000e+00 1.000000e+00 0.000000e+00 0.000000e+00 0.000000e+00
 0.000000e+00 8.022991e-01 1.977009e-01 0.000000e+00 0.000000e+00
 0.000000e+00 0.000000e+00 8.945177e-01 1.054823e-01 0.000000e+00
 0.000000e+00 0.000000e+00 0.000000e+00 7.961313e-01 2.038687e-01
 0.000000e+00 0.000000e+00 0.000000e+00 0.000000e+00 0.000000e+00
<ENDHMM>
~h "k"
<BEGINHMM>
<NUMSTATES> 5
<STATE> 2
<MEAN> 39
 -1.682140e+01 -5.934987e+00 3.457555e+00 -6.049007e+00 -6.063112e+00 -5.011705e+00 -3.971853e+00 2.488394e-01 -2.679372e-01 4.225317e+00 1.877285e+00 1.730597e+00 1.560337e+01 -2.154985e-01 8.711249e-02 7.703534e-02 5.683268e-03 2.145434e-01 -6.556981e-02 2.602965e-01 5.976894e-02 4.224807e-01 -1.346806e-01 5.075348e-02 2.556512e-01 -1.923352e-02 6.392706e-02 -5.098225e-02 -2.239381e-02 9.833393e-02 1.182235e-01 6.973086e-02 1.935213e-03 3.102868e-02 -3.412588e-02 -6.221897e-02 -3.256455e-02 -2.588872e-02 1.703590e-02
<VARIANCE> 39
 2.202428e+01 2.224222e+01 2.450553e+01 3.448713e+01 3.630589e+01 5.295842e+01 3.870311e+01 4.260383e+01 3.316384e+01 3.554474e+01 2.931262e+01 2.947570e+01 1.242136e+00 9.845852e-01 1.517417e+00 1.583640e+00 2.199788e+00 2.977584e+00 3.709970e+00 3.233074e+00 3.116216e+00 3.414743e+00 3.882398e+00 3.176397e+00 3.183122e+00 3.967679e-02 1.759725e-01 2.755401e-01 3.384177e-01 4.190833e-01 5.969797e-01 7.835324e-01 6.563973e-01 6.996333e-01 6.831694e-01 8.316945e-01 6.557151e-01 6.971376e-01 6.939662e-03
<GCONST> 1.088276e+02
<STATE> 3
<MEAN> 39
 -1.294243e+01 -8.736874e+00 -8.407826e+00 -3.464354e+00 3.962390e+00 -9.989535e-01 -5.018640e+00 -3.753411e+00 2.687909e+00 5.511350e+00 2.924692e+00 9.186467e-01 1.580741e+01 1.730860e-01 1.837098e-01 1.167156e-01 3.402994e-01 4.188708e-01 6.358923e-01 3.007956e-01 -1.596806e-01 6.879689e-02 -2.420691e-01 -1.670450e-01 -3.380800e-02 5.253401e-02 1.318287e-01 1.254343e-01 1.136219e-01 1.079255e-01 9.022754e-03 6.915162e-02 -3.772577e-02 3.316445e-02 -8.408393e-02 -3.781413e-02 -4.839830e-02 -3.713102e-02 3.925809e-02
<VARIANCE> 39
 1.683585e+01 3.079696e+01 4.192047e+01 4.900810e+01 3.949751e+01 6.886294e+01 4.793023e+01 6.682347e+01 5.430306e+01 4.670385e+01 4.043236e+01 3.434191e+01 9.496689e-01 8.704838e-01 1.150131e+00 1.812838e+00 2.778109e+00 2.814736e+00 3.938878e+00 3.556624e+00 4.064817e+00 3.893091e+00 4.084188e+00 3.779814e+00 3.230284e+00 4.020216e-02 1.338582e-01 1.919550e-01 3.171931e-01 5.236655e-01 5.073345e-01 7.797611e-01 7.812490e-01 8.317891e-01 8.298237e-01 8.623439e-01 8.343459e-01 6.725104e-01 8.740281e-03
<GCONST> 1.128410e+02
<STATE> 4
<MEAN> 39
 -5.949162e+00 -8.698668e-01 3.496051e+00 2.081069e+00 9.698029e-01 1.424200e+00 -4.462336e+00 -3.453732e-01 -7.838625e-01 7.293625e-01 9.104587e-01 5.603532e-01 1.776675e+01 1.514418e+00 9.535401e-01 6.108608e-01 4.058301e-01 -6.771931e-01 -1.056064e-01 -8.353779e-01 2.627329e-01 -2.400285e-01 -4.848192e-01 -1.604461e-03 -2.500109e-01 4.460764e-01 -3.238815e-02 -2.127755e-01 -2.794599e-01 -4.062901e-01 -3.973452e-01 -2.640586e-01 -2.105611e-01 3.652722e-02 8.844265e-02 1.893158e-01 2.116108e-01 2.755003e-02 -1.506901e-02
<VARIANCE> 39
 4.169599e+01 3.828704e+01 8.270068e+01 6.820441e+01 7.274364e+01 1.029120e+02 4.682766e+01 6.114043e+01 4.061195e+01 4.524124e+01 3.720532e+01 2.746310e+01 3.039592e+00 1.754828e+00 2.280375e+00 2.605666e+00 4.042536e+00 4.285898e+00 3.711128e+00 3.562380e+00 3.290828e+00 3.092528e+00 3.583157e+00 3.746845e+00 2.444282e+00 1.302646e-01 2.416565e-01 3.975541e-01 3.650256e-01 6.634960e-01 8.350566e-01 7.852899e-01 7.248088e-01 7.196796e-01 6.314279e-01 7.643476e-01 6.791717e-01 5.169154e-01 1.764150e-02
<GCONST> 1.210331e+02
<TRANSP> 5
 0.000000e+00 1.000000e+00 0.000000e+00 0.000000e+00 0.000000e+00
 0.000000e+00 8.644300e-01 1.355701e-01 0.000000e+00 0.000000e+00
 0.000000e+00 0.000000e+00 8.509925e-01 1.490075e-01 0.000000e+00
 0.000000e+00 0.000000e+00 0.000000e+00 7.720751e-01 2.279249e-01
 0.000000e+00 0.000000e+00 0.000000e+00 0.000000e+00 0.000000e+00
<ENDHMM>
~h "l"
<BEGINHMM>
<NUMSTATES> 5
<STATE> 2
<MEAN> 39
 -8.455783e-01 8.945041e+00 -4.284504e-01 -1.027485e+01 2.752979e+00 7.087812e+00 -9.696962e+00 -5.520404e+00 -2.166413e+00 2.362983e+00 2.665360e+00 2.865018e+00 1.825686e+01 5.831445e-01 1.484522e-01 -2.567697e-01 -7.944384e-01 -8.930151e-02 5.114940e-01 -7.597013e-01 -1.830296e-02 -2.097282e-01 -1.290744e-01 3.115864e-01 2.176974e-01 1.581720e-01 -1.124254e-01 -7.368043e-02 -3.583948e-02 6.600506e-02 8.680885e-03 -2.871321e-02 2.824652e-02 -3.820170e-03 1.210251e-02 -5.891573e-03 6.414987e-02 1.491530e-02 -2.942563e-02
<VARIANCE> 39
 2.166291e+01 3.005124e+01 3.685758e+01 1.018220e+02 2.497692e+01 6.792703e+01 7.560435e+01 4.791692e+01 6.541814e+01 5.185744e+01 4.050475e+01 3.644116e+01 3.362600e+00 1.322450e+00 1.365860e+00 1.927257e+00 5.342693e+00 2.540089e+00 3.912000e+00 5.865185e+00 4.043749e+00 3.216996e+00 3.218524e+00 3.390753e+00 2.715428e+00 7.402365e-02 2.169480e-01 2.676797e-01 4.107118e-01 1.005312e+00 5.536893e-01 8.054391e-01 1.082530e+00 7.450595e-01 6.574388e-01 6.591125e-01 6.840324e-01 5.525845e-01 7.532076e-03
<GCONST> 1.175452e+02
<STATE> 3
<MEAN> 39
 3.124102e+00 9.772280e+00 -2.900851e+00 -1.591367e+01 2.161173e+00 1.069455e+01 -1.646709e+01 -6.204750e+00 -3.641932e+00 -8.657504e-01 8.184917e+00 3.741859e+00 2.003689e+01 -6.277312e-03 -7.862929e-02 -9.473512e-02 -8.940363e-02 -3.403849e-03 5.675763e-02 -2.989046e-02 2.017033e-02 4.611713e-02 1.104581e-01 2.820425e-02 -2.552626e-02 1.238120e-02 -7.819228e-03 -3.470593e-02 1.955480e-03 3.324159e-02 -1.218004e-02 -1.851597e-02 2.282867e-02 2.482160e-02 3.894338e-02 2.443513e-02 -5.435036e-02 -3.401971e-02 6.175850e-04
<VARIANCE> 39
 4.276318e+00 2.851483e+01 1.999356e+01 4.825077e+01 2.059477e+01 3.088883e+01 6.269499e+01 4.558056e+01 4.534657e+01 4.985880e+01 3.164434e+01 3.580328e+01 5.477499e-01 3.670471e-01 8.376349e-01 7.344401e-01 2.115839e+00 1.392378e+00 1.982778e+00 3.193997e+00 2.092773e+00 2.262583e+00 2.177444e+00 2.164588e+00 2.199789e+00 4.081953e-03 7.063039e-02 1.142313e-01 1.340791e-01 3.713245e-01 2.660835e-01 3.741373e-01 5.898945e-01 3.813011e-01 3.841094e-01 3.752167e-01 3.960598e-01 3.580065e-01 2.451136e-04
<GCONST> 8.792751e+01
<STATE> 4
<MEAN> 39
 2.198479e+00 -2.304938e+00 -7.672024e+00 -1.246652e+01 1.013056e-01 1.071800e+01 -1.665885e+01 -6.302435e-01 7.806544e+00 6.513832e+00 -1.011652e+00 -6.303287e+00 2.050336e+01 -7.805542e-02 -4.499899e-01 6.690845e-02 4.367831e-01 -1.946941e-01 -1.676652e-01 1.965984e-01 2.655172e-01 3.670258e-01 -8.596965e-05 -6.340122e-01 -3.839379e-01 6.639040e-03 -3.463094e-03 2.689977e-02 4.723650e-02 1.990167e-02 -4.703229e-03 -2.210621e-02 4.235728e-02 -1.215762e-02 -6.106898e-02 -7.620245e-02 4.017741e-02 6.392698e-02 -3.569981e-03
<VARIANCE> 39
 5.123209e+00 2.453780e+01 3.362533e+01 3.625863e+01 2.158367e+01 3.790140e+01 5.908151e+01 3.221259e+01 3.471111e+01 3.529736e+01 4.363775e+01 2.923475e+01 3.049539e-01 4.510681e-01 9.545816e-01 1.024678e+00 2.126263e+00 1.438949e+00 1.555824e+00 2.326012e+00 1.704734e+00 2.616471e+00 2.491763e+00 2.021873e+00 1.556111e+00 1.599447e-03 8.715288e-02 1.556889e-01 1.847011e-01 3.836245e-01 2.703789e-01 2.767462e-01 4.216880e-01 3.310675e-01 4.560903e-01 4.081471e-01 3.229440e-01 2.775840e-01 2.146326e-04
<GCONST> 8.560419e+01
<TRANSP> 5
 0.000000e+00 1.000000e+00 0.000000e+00 0.000000e+00 0.000000e+00
 0.000000e+00 8.488408e-01 1.511592e-01 0.000000e+00 0.000000e+00
 0.000000e+00 0.000000e+00 9.636800e-01 3.632000e-02 0.000000e+00
 0.000000e+00 0.000000e+00 0.000000e+00 9.203349e-01 7.966514e-02
 0.000000e+00 0.000000e+00 0.000000e+00 0.000000e+00 0.000000e+00
<ENDHMM>
~h "m"
<BEGINHMM>
<NUMSTATES> 5
<STATE> 2
<MEAN> 39
 1.043424e+00 3.909221e+00 6.600825e+00 1.508233e+00 3.398907e+00 1.147801e+00 -2.028427e+00 -4.715331e+00 -4.421735e+00 5.552878e+00 -2.982158e+00 -2.206405e+00 1.818888e+01 6.830998e-01 1.877756e-01 2.820632e-01 1.056429e-01 -9.396683e-02 -2.334752e-01 1.221729e-01 -4.875580e-01 -5.969991e-01 5.384011e-01 -2.427201e-01 -2.056704e-02 2.060625e-01 -7.828668e-02 -6.375265e-02 -3.951591e-02 -6.862900e-02 -8.242606e-02 -3.664795e-02 -7.410200e-02 2.912785e-02 5.059313e-02 -1.740181e-02 5.762905e-02 3.580834e-02 -1.815498e-02
<VARIANCE> 39
 2.782466e+01 3.933517e+01 3.589008e+01 7.059830e+01 2.609349e+01 4.610318e+01 3.568527e+01 3.768747e+01 3.984172e+01 3.832113e+01 3.369546e+01 2.431912e+01 3.793707e+00 1.208628e+00 2.201982e+00 2.436498e+00 3.318787e+00 2.265873e+00 3.007465e+00 3.223114e+00 2.816565e+00 2.945623e+00 2.937689e+00 3.617510e+00 1.944762e+00 9.731554e-02 1.655308e-01 4.158061e-01 3.777621e-01 6.077293e-01 4.494754e-01 5.866315e-01 6.615085e-01 5.563644e-01 5.475822e-01 6.165567e-01 6.564261e-01 3.829521e-01 7.541969e-03
<GCONST> 1.113211e+02
<STATE> 3
<MEAN> 39
 5.684995e+00 1.010437e+00 9.780309e+00 2.179723e+00 5.461230e-01 -1.876893e+00 -3.678484e+00 -6.399127e+00 -7.984428e+00 6.867304e+00 -3.184154e+00 -3.750320e+00 2.000815e+01 -1.547309e-02 2.430732e-02 1.791813e-02 7.173745e-02 -2.270272e-02 -6.131239e-02 2.125874e-02 -1.118880e-01 -6.171899e-03 -2.255442e-02 -5.063197e-02 -1.260091e-02 1.834748e-03 -2.747371e-02 -1.048616e-02 -4.909711e-02 -3.167765e-02 -5.303560e-03 1.213902e-02 -1.592698e-02 3.972957e-02 6.435354e-02 -3.967177e-02 3.264360e-02 1.093469e-02 -7.876325e-04
<VARIANCE> 39
 4.236820e+00 2.453297e+01 1.520507e+01 3.187166e+01 2.114083e+01 3.999599e+01 2.944970e+01 3.748964e+01 3.794895e+01 3.659931e+01 4.031452e+01 2.893190e+01 2.268905e-01 3.194422e-01 9.242058e-01 7.082039e-01 9.785328e-01 1.036713e+00 1.444367e+00 1.481345e+00 1.901910e+00 1.523179e+00 1.739138e+00 1.395994e+00 1.081766e+00 1.484296e-03 5.983189e-02 1.602007e-01 1.448636e-01 1.942149e-01 2.151099e-01 2.747238e-01 2.850232e-01 3.524337e-01 3.055183e-01 3.131991e-01 2.775179e-01 2.019748e-01 1.246283e-04
<GCONST> 7.622886e+01
<STATE> 4
<MEAN> 39
 1.764406e+00 2.762504e+00 7.678585e+00 2.128161e+00 3.742246e+00 -1.527480e+00 -1.494426e+00 -6.364229e+00 -5.064235e+00 5.769060e+00 -5.400267e+00 -1.040748e+00 1.888567e+01 -1.932340e-01 -2.477650e-01 -4.616941e-01 -2.741160e-01 -9.270038e-02 3.010959e-01 -2.043116e-01 3.330121e-01 5.620697e-01 -4.420580e-01 3.415706e-01 -2.609112e-02 -3.781881e-02 7.875039e-02 -8.565824e-02 -1.870861e-02 -8.704651e-02 -1.158996e-01 8.468266e-02 -7.620931e-02 1.259049e-01 1.394880e-02 3.660015e-02 1.527113e-02 -1.508253e-02 -2.879314e-03
<VARIANCE> 39
 1.746479e+01 1.798315e+01 3.024479e+01 4.508183e+01 3.348102e+01 5.602095e+01 3.273578e+01 3.876252e+01 4.102986e+01 5.117836e+01 4.977937e+01 3.000992e+01 1.658347e+00 1.177835e+00 1.535614e+00 2.201506e+00 2.516499e+00 2.676100e+00 3.129245e+00 2.888062e+00 3.383384e+00 3.745460e+00 3.785520e+00 3.315048e+00 2.188806e+00 1.377449e-02 2.298898e-01 2.952767e-01 3.348893e-01 4.695922e-01 5.395848e-01 6.376702e-01 5.667122e-01 6.851495e-01 6.882041e-01 8.131284e-01 6.597810e-01 4.138400e-01 7.679556e-04
<GCONST> 1.062465e+02
<TRANSP> 5
 0.000000e+00 1.000000e+00 0.000000e+00 0.000000e+00 0.000000e+00
 0.000000e+00 7.818270e-01 2.181730e-01 0.000000e+00 0.000000e+00
 0.000000e+00 0.000000e+00 9.432384e-01 5.676156e-02 0.000000e+00
 0.000000e+00 0.000000e+00 0.000000e+00 8.685796e-01 1.314205e-01
 0.000000e+00 0.000000e+00 0.000000e+00 0.000000e+00 0.000000e+00
<ENDHMM>
~h "n"
<BEGINHMM>
<NUMSTATES> 5
<STATE> 2
<MEAN> 39
 3.297979e+00 -1.195131e+00 6.083974e+00 6.442825e-01 -5.012327e+00 -2.541702e+00 -5.615557e+00 2.132953e+00 -3.770093e+00 5.707284e+00 -2.426355e+00 -4.268244e+00 2.009950e+01 1.948407e-01 8.406980e-02 1.092200e-01 2.962264e-01 1.601379e-01 1.502330e-01 3.667882e-02 -5.870101e-01 -4.558351e-02 2.101087e-01 -2.430590e-01 -1.329633e-01 -7.225810e-03 -1.118877e-02 -1.363137e-02 4.016358e-02 -8.427232e-03 -1.540970e-02 5.302311e-02 -2.254528e-02 -7.521010e-02 8.116399e-02 -4.323619e-02 -1.644580e-02 1.465570e-02 -5.836349e-04
<VARIANCE> 39
 9.217081e+00 3.271587e+01 6.052390e+01 3.511530e+01 4.612880e+01 5.398487e+01 5.441513e+01 4.466600e+01 4.169426e+01 3.663658e+01 4.415219e+01 3.791208e+01 2.366975e-01 4.187161e-01 1.269821e+00 1.222016e+00 1.488366e+00 1.979314e+00 2.770282e+00 2.181638e+00 2.920168e+00 2.083218e+00 2.120136e+00 1.750114e+00 1.620476e+00 2.565702e-03 6.973045e-02 2.077392e-01 1.978517e-01 2.650134e-01 3.631624e-01 4.738677e-01 4.235013e-01 4.150401e-01 3.789605e-01 3.846007e-01 3.066314e-01 2.855066e-01 2.662414e-04
<GCONST> 9.078564e+01
<STATE> 3
<MEAN> 39
 6.028798e+00 3.825056e-01 8.942046e+00 4.475407e+00 -7.591290e-01 3.864666e-01 -7.443938e+00 -8.163139e+00 2.244861e-01 6.333600e+00 -7.742179e+00 -6.260105e+00 1.998816e+01 -2.253754e-02 1.178172e-01 3.929094e-03 1.285586e-02 6.161246e-02 2.986867e-02 -4.238996e-02 -1.925108e-01 1.037513e-01 -9.421062e-02 -5.187960e-02 8.967770e-02 -1.022572e-02 -6.444336e-02 3.171445e-02 -4.989245e-02 -4.595035e-02 1.624295e-02 -8.424142e-02 2.927901e-02 1.194566e-01 -5.110299e-02 -1.609675e-02 5.896997e-02 4.461427e-02 -2.549949e-03
<VARIANCE> 39
 4.133034e+00 1.396162e+01 1.506621e+01 1.762261e+01 1.682644e+01 2.715103e+01 3.803195e+01 2.820315e+01 3.011450e+01 3.248321e+01 2.353922e+01 2.409802e+01 2.268905e-01 3.554410e-01 8.126528e-01 7.600757e-01 8.342012e-01 1.087773e+00 1.731019e+00 2.122447e+00 1.838675e+00 1.525078e+00 1.929348e+00 1.449421e+00 1.249839e+00 1.791853e-03 6.732001e-02 1.362625e-01 1.399024e-01 1.613112e-01 2.091354e-01 3.244367e-01 4.009078e-01 3.743506e-01 2.808015e-01 3.387018e-01 2.697225e-01 2.387061e-01 1.320700e-04
<GCONST> 7.470802e+01
<STATE> 4
<MEAN> 39
 -7.590688e-01 4.240224e+00 7.526158e+00 4.606486e+00 1.981138e+00 -1.181947e+00 -1.681453e+00 -5.110337e+00 -8.568037e-01 4.981019e+00 -6.726141e+00 -3.083390e+00 1.794945e+01 -3.558850e-01 8.229925e-02 -9.811340e-02 -1.113654e-01 1.024946e-01 -7.866864e-02 7.836816e-02 2.598442e-01 -3.772155e-03 -2.250289e-01 1.671934e-01 1.310827e-01 -6.478805e-02 1.745665e-02 -5.502708e-02 -1.235811e-02 -1.168461e-02 -4.640839e-02 1.810879e-02 -5.367746e-02 4.650961e-02 1.742646e-02 1.035386e-02 2.602866e-02 -2.317619e-02 -4.990092e-03
<VARIANCE> 39
 3.114209e+01 1.807207e+01 2.679585e+01 3.393207e+01 2.781678e+01 3.925677e+01 4.231186e+01 4.816973e+01 3.494886e+01 4.467167e+01 3.469030e+01 2.419495e+01 4.616518e+00 1.173655e+00 1.289233e+00 1.604795e+00 2.137378e+00 2.517954e+00 3.279383e+00 3.449952e+00 3.848748e+00 2.982634e+00 3.561882e+00 2.784997e+00 2.099223e+00 2.794678e-02 2.080228e-01 2.606113e-01 3.016290e-01 4.190845e-01 5.450885e-01 6.788381e-01 7.371352e-01 7.416762e-01 6.367505e-01 7.644049e-01 5.960367e-01 4.221873e-01 2.602829e-03
<GCONST> 1.073172e+02
<TRANSP> 5
 0.000000e+00 1.000000e+00 0.000000e+00 0.000000e+00 0.000000e+00
 0.000000e+00 9.000053e-01 9.999473e-02 0.000000e+00 0.000000e+00
 0.000000e+00 0.000000e+00 9.212819e-01 7.871806e-02 0.000000e+00
 0.000000e+00 0.000000e+00 0.000000e+00 9.033718e-01 9.662823e-02
 0.000000e+00 0.000000e+00 0.000000e+00 0.000000e+00 0.000000e+00
<ENDHMM>
~h "o"
<BEGINHMM>
<NUMSTATES> 5
<STATE> 2
<MEAN> 39
 -8.968819e+00 1.227167e+00 1.709896e+00 5.255102e-01 -1.376319e+00 -3.581203e-01 -4.450421e+00 2.224232e-01 1.032390e+00 1.922153e+00 9.369482e-01 -5.463367e-02 1.433043e+01 6.601643e-05 -6.414447e-06 -4.348861e-05 2.207338e-05 -6.183252e-05 3.505594e-04 -2.845397e-05 -1.057293e-04 -3.217392e-04 -2.094190e-04 -1.093453e-04 6.646793e-05 -4.646834e-05 -3.052270e-05 -5.577785e-06 5.118113e-05 5.903988e-05 8.738427e-05 1.239256e-04 1.462678e-04 5.784345e-07 -6.680420e-05 8.540968e-05 -3.584341e-06 -9.608337e-06 3.280207e-06
<VARIANCE> 39
 9.132833e+01 3.750473e+01 5.184167e+01 5.299957e+01 4.542144e+01 5.171822e+01 6.411460e+01 4.173472e+01 3.924054e+01 3.472301e+01 3.778771e+01 3.327573e+01 2.268905e+01 6.444674e-01 1.076510e+00 1.293223e+00 1.883514e+00 2.197024e+00 2.673508e+00 2.949268e+00 2.722457e+00 2.845586e+00 2.895535e+00 2.697424e+00 2.293327e+00 4.128606e-02 9.874837e-02 2.035372e-01 2.576212e-01 3.839478e-01 4.538210e-01 5.496877e-01 6.081111e-01 5.695377e-01 5.939356e-01 6.059731e-01 5.659602e-01 4.834353e-01 5.660130e-03
<GCONST> 1.098248e+02
<STATE> 3
<MEAN> 39
 -8.968819e+00 1.227167e+00 1.709896e+00 5.255102e-01 -1.376319e+00 -3.581203e-01 -4.450421e+00 2.224232e-01 1.032390e+00 1.922153e+00 9.369482e-01 -5.463367e-02 1.433043e+01 6.601643e-05 -6.414447e-06 -4.348861e-05 2.207338e-05 -6.183252e-05 3.505594e-04 -2.845397e-05 -1.057293e-04 -3.217392e-04 -2.094190e-04 -1.093453e-04 6.646793e-05 -4.646834e-05 -3.052270e-05 -5.577785e-06 5.118113e-05 5.903988e-05 8.738427e-05 1.239256e-04 1.462678e-04 5.784345e-07 -6.680420e-05 8.540968e-05 -3.584341e-06 -9.608337e-06 3.280207e-06
<VARIANCE> 39
 9.132833e+01 3.750473e+01 5.184167e+01 5.299957e+01 4.542144e+01 5.171822e+01 6.411460e+01 4.173472e+01 3.924054e+01 3.472301e+01 3.778771e+01 3.327573e+01 2.268905e+01 6.444674e-01 1.076510e+00 1.293223e+00 1.883514e+00 2.197024e+00 2.673508e+00 2.949268e+00 2.722457e+00 2.845586e+00 2.895535e+00 2.697424e+00 2.293327e+00 4.128606e-02 9.874837e-02 2.035372e-01 2.576212e-01 3.839478e-01 4.538210e-01 5.496877e-01 6.081111e-01 5.695377e-01 5.939356e-01 6.059731e-01 5.659602e-01 4.834353e-01 5.660130e-03
<GCONST> 1.098248e+02
<STATE> 4
<MEAN> 39
 -8.968819e+00 1.227167e+00 1.709896e+00 5.255102e-01 -1.376319e+00 -3.581203e-01 -4.450421e+00 2.224232e-01 1.032390e+00 1.922153e+00 9.369482e-01 -5.463367e-02 1.433043e+01 6.601643e-05 -6.414447e-06 -4.348861e-05 2.207338e-05 -6.183252e-05 3.505594e-04 -2.845397e-05 -1.057293e-04 -3.217392e-04 -2.094190e-04 -1.093453e-04 6.646793e-05 -4.646834e-05 -3.052270e-05 -5.577785e-06 5.118113e-05 5.903988e-05 8.738427e-05 1.239256e-04 1.462678e-04 5.784345e-07 -6.680420e-05 8.540968e-05 -3.584341e-06 -9.608337e-06 3.280207e-06
<VARIANCE> 39
 9.132833e+01 3.750473e+01 5.184167e+01 5.299957e+01 4.542144e+01 5.171822e+01 6.411460e+01 4.173472e+01 3.924054e+01 3.472301e+01 3.778771e+01 3.327573e+01 2.268905e+01 6.444674e-01 1.076510e+00 1.293223e+00 1.883514e+00 2.197024e+00 2.673508e+00 2.949268e+00 2.722457e+00 2.845586e+00 2.895535e+00 2.697424e+00 2.293327e+00 4.128606e-02 9.874837e-02 2.035372e-01 2.576212e-01 3.839478e-01 4.538210e-01 5.496877e-01 6.081111e-01 5.695377e-01 5.939356e-01 6.059731e-01 5.659602e-01 4.834353e-01 5.660130e-03
<GCONST> 1.098248e+02
<TRANSP> 5
 0.000000e+00 1.000000e+00 0.000000e+00 0.000000e+00 0.000000e+00
 0.000000e+00 5.000000e-01 5.000000e-01 0.000000e+00 0.000000e+00
 0.000000e+00 0.000000e+00 5.000000e-01 5.000000e-01 0.000000e+00
 0.000000e+00 0.000000e+00 0.000000e+00 5.000000e-01 5.000000e-01
 0.000000e+00 0.000000e+00 0.000000e+00 0.000000e+00 0.000000e+00
<ENDHMM>
~h "p"
<BEGINHMM>
<NUMSTATES> 5
<STATE> 2
<MEAN> 39
 -1.331243e+01 -9.613034e+00 -1.757884e+00 -3.712377e-01 9.717131e-01 -1.758797e+00 -2.928691e+00 -8.407393e-01 3.682891e+00 4.925529e+00 5.580867e+00 3.874787e+00 1.592997e+01 1.536669e-02 3.350076e-02 2.834916e-02 1.602999e-01 1.972035e-01 5.546053e-01 4.857813e-01 2.668979e-01 4.939589e-02 -7.473569e-02 -1.095393e-01 -1.143503e-01 -1.138243e-03 1.103857e-01 6.453248e-02 -5.751881e-02 -2.661807e-02 -3.154279e-02 7.155692e-02 8.915043e-03 5.417537e-03 -2.390032e-02 -1.063154e-01 -2.730953e-02 -5.406129e-02 2.877835e-02
<VARIANCE> 39
 2.831958e+01 2.911655e+01 6.957668e+01 5.851455e+01 5.221474e+01 3.162909e+01 4.242282e+01 3.883937e+01 3.535889e+01 3.862870e+01 2.689848e+01 2.439630e+01 8.232070e-01 7.048166e-01 1.535218e+00 1.947862e+00 2.601909e+00 3.181661e+00 4.181902e+00 3.748343e+00 3.734979e+00 3.896530e+00 4.407738e+00 3.097805e+00 2.318615e+00 3.299769e-02 9.522212e-02 2.961276e-01 3.717328e-01 4.987983e-01 6.113883e-01 7.599076e-01 7.495617e-01 8.129156e-01 8.156798e-01 9.456432e-01 6.844388e-01 4.963061e-01 7.278564e-03
<GCONST> 1.105869e+02
<STATE> 3
<MEAN> 39
 -9.102971e+00 -7.779169e+00 -3.651726e+00 -2.261393e+00 1.696133e+00 7.813170e+00 5.224613e+00 4.857302e+00 6.783588e+00 2.980527e+00 4.415552e+00 2.866544e+00 1.691384e+01 2.589028e-01 3.848063e-01 9.220877e-03 1.944309e-01 1.252521e-01 4.523052e-01 9.877051e-02 -8.585432e-02 -2.267536e-01 -3.454164e-01 -2.477469e-01 -2.477997e-01 1.314331e-01 8.498785e-02 1.211536e-01 5.694339e-02 1.880568e-02 -8.767343e-02 -1.518376e-01 -1.763205e-01 -1.157388e-01 -1.206624e-01 -3.973506e-02 -4.812431e-02 -2.868511e-02 2.357413e-02
<VARIANCE> 39
 1.227324e+01 5.525996e+01 3.266358e+01 6.100583e+01 6.658713e+01 5.060004e+01 4.638103e+01 4.992843e+01 4.319557e+01 4.197479e+01 3.200613e+01 3.008442e+01 2.294220e+00 6.286831e-01 1.279117e+00 1.686457e+00 2.312329e+00 2.724069e+00 4.017838e+00 3.606109e+00 3.638599e+00 3.902233e+00 3.760427e+00 3.763606e+00 2.740702e+00 7.100756e-02 8.421433e-02 1.879130e-01 3.112506e-01 4.184925e-01 6.067209e-01 7.502755e-01 7.317218e-01 7.333117e-01 7.897077e-01 7.610596e-01 7.620550e-01 5.983009e-01 9.915377e-03
<GCONST> 1.118496e+02
<STATE> 4
<MEAN> 39
 -2.071492e+00 -4.548063e-01 3.781706e-01 4.673425e+00 9.274788e-01 3.820407e+00 -2.932689e+00 2.126108e-01 1.039087e-01 -6.103488e-01 9.674917e-01 -2.557298e-01 1.846139e+01 1.707149e+00 1.310059e+00 1.750968e-01 -3.610359e-01 -1.273630e+00 -4.791013e-01 -1.349677e+00 1.279548e-01 -6.221384e-01 -1.536871e-01 1.641937e-02 8.756504e-02 4.429135e-01 -1.244677e-01 -3.266625e-01 -3.782772e-01 -4.844843e-01 -2.711390e-01 -2.425558e-01 -1.185784e-01 1.209983e-01 2.173807e-01 3.186427e-01 2.965778e-01 3.006062e-01 -2.888075e-02
<VARIANCE> 39
 2.850444e+01 3.068673e+01 7.373203e+01 6.707003e+01 4.846926e+01 5.970426e+01 9.495585e+01 3.444284e+01 2.965616e+01 2.970713e+01 3.146604e+01 2.652671e+01 2.390859e+00 1.236025e+00 2.067867e+00 2.898596e+00 4.427432e+00 3.152213e+00 3.382683e+00 3.801284e+00 3.554942e+00 3.155923e+00 4.346498e+00 3.206439e+00 3.128222e+00 9.931496e-02 2.021652e-01 3.124376e-01 3.909308e-01 6.546915e-01 7.213489e-01 6.438347e-01 7.517148e-01 6.572288e-01 6.038305e-01 8.240284e-01 6.569648e-01 5.534943e-01 1.238230e-02
<GCONST> 1.167778e+02
<TRANSP> 5
 0.000000e+00 1.000000e+00 0.000000e+00 0.000000e+00 0.000000e+00
 0.000000e+00 8.587383e-01 1.412617e-01 0.000000e+00 0.000000e+00
 0.000000e+00 0.000000e+00 8.761469e-01 1.238531e-01 0.000000e+00
 0.000000e+00 0.000000e+00 0.000000e+00 7.479289e-01 2.520710e-01
 0.000000e+00 0.000000e+00 0.000000e+00 0.000000e+00 0.000000e+00
<ENDHMM>
~h "r"
<BEGINHMM>
<NUMSTATES> 5
<STATE> 2
<MEAN> 39
 7.248799e+00 -7.209421e-01 -7.492614e+00 3.410626e+00 -2.061092e+00 -1.660348e+00 -1.445128e+01 8.512084e-01 -3.267144e+00 1.400012e+00 6.912320e+00 4.111453e+00 1.976333e+01 9.211618e-02 -2.094276e-01 -2.578355e-02 6.455342e-02 -1.262571e-01 -1.950194e-01 -1.766756e-01 1.510519e-01 4.101552e-02 -2.464620e-02 2.479230e-02 1.777461e-02 2.083296e-02 -6.181082e-02 -3.082700e-02 7.271157e-02 7.779129e-03 -8.831082e-03 2.183381e-03 5.061299e-02 1.705863e-02 4.578099e-02 -1.501178e-03 -3.117229e-02 -4.976459e-02 -8.120318e-03
<VARIANCE> 39
 9.788595e+00 2.076622e+01 4.433679e+01 3.334843e+01 2.674946e+01 3.376653e+01 5.899960e+01 3.864358e+01 5.622270e+01 3.730328e+01 5.911860e+01 3.873630e+01 4.792059e-01 5.179913e-01 1.116966e+00 1.348178e+00 1.713907e+00 1.620892e+00 2.163238e+00 3.573035e+00 2.255024e+00 2.535921e+00 2.561795e+00 3.523802e+00 2.190431e+00 8.253432e-03 9.397472e-02 1.891495e-01 2.451990e-01 3.433215e-01 3.042918e-01 4.373307e-01 6.656018e-01 4.322622e-01 4.803031e-01 5.042314e-01 6.425854e-01 4.032553e-01 7.711456e-04
<GCONST> 9.652338e+01
<STATE> 3
<MEAN> 39
 6.013759e+00 -7.939807e+00 -2.185930e+00 4.804543e+00 -8.325435e+00 -3.395570e+00 -1.738103e+01 7.397786e+00 1.477498e+00 1.709017e+00 4.507216e+00 -8.391811e-01 2.068741e+01 -9.435653e-02 -1.991971e-02 2.353121e-01 -1.036283e-02 -8.943067e-02 -5.252137e-02 5.826980e-02 8.045356e-02 1.103886e-02 -3.969014e-02 -8.958929e-02 1.535214e-02 -4.622897e-03 -1.861538e-02 4.251947e-02 9.318400e-03 -1.072394e-02 3.343230e-02 1.970001e-02 4.382873e-02 -3.705737e-02 -6.553108e-03 -8.994648e-03 -6.661445e-03 5.337339e-03 -3.070127e-03
<VARIANCE> 39
 6.903939e+00 2.153795e+01 5.493253e+01 3.844055e+01 2.846028e+01 5.894275e+01 6.065491e+01 4.736852e+01 4.496795e+01 4.004054e+01 5.624283e+01 3.782808e+01 2.782072e-01 2.144511e-01 7.872470e-01 6.480234e-01 7.509941e-01 9.799067e-01 1.884243e+00 1.811923e+00 1.290783e+00 1.820922e+00 1.506228e+00 1.632276e+00 1.142363e+00 2.066883e-03 3.222690e-02 1.021527e-01 8.480082e-02 1.187825e-01 1.505943e-01 2.768691e-01 2.703290e-01 2.025032e-01 2.619411e-01 2.231720e-01 2.218980e-01 1.727869e-01 1.419590e-04
<GCONST> 7.665857e+01
<STATE> 4
<MEAN> 39
 2.494930e+00 -2.255903e+00 -5.964780e-01 8.111067e+00 -1.391087e+00 -6.590556e+00 -1.157489e+01 6.552284e+00 2.962754e+00 -1.529528e+00 -5.476341e-01 2.921093e+00 1.851196e+01 -3.123986e-01 1.783763e-01 2.914526e-01 -8.956901e-02 2.172126e-01 1.433634e-01 5.030303e-01 -2.234099e-01 -2.631297e-02 -8.869392e-02 -1.262355e-01 -6.005228e-02 -1.055068e-01 -2.459780e-02 1.061199e-03 -1.018312e-03 -3.453887e-02 -1.432197e-02 2.049712e-02 2.796909e-02 -2.656769e-02 -4.606204e-03 1.345083e-02 3.062540e-02 -2.973646e-02 -6.225258e-03
<VARIANCE> 39
 1.418738e+01 2.635628e+01 5.177051e+01 4.754663e+01 6.070180e+01 5.865144e+01 8.151942e+01 4.937629e+01 4.724636e+01 4.713307e+01 4.432869e+01 3.628101e+01 2.555380e+00 7.108448e-01 1.056804e+00 1.344637e+00 2.281141e+00 2.739319e+00 3.799220e+00 3.988619e+00 2.555166e+00 3.131331e+00 3.013983e+00 2.569779e+00 2.203465e+00 1.788535e-02 1.374386e-01 1.962983e-01 2.557235e-01 4.820426e-01 5.803094e-01 8.339964e-01 8.641582e-01 5.270659e-01 6.583492e-01 6.445305e-01 5.419038e-01 4.588595e-01 1.486907e-03
<GCONST> 1.073926e+02
<TRANSP> 5
 0.000000e+00 1.000000e+00 0.000000e+00 0.000000e+00 0.000000e+00
 0.000000e+00 8.526985e-01 1.473014e-01 0.000000e+00 0.000000e+00
 0.000000e+00 0.000000e+00 9.115200e-01 8.847999e-02 0.000000e+00
 0.000000e+00 0.000000e+00 0.000000e+00 8.568978e-01 1.431022e-01
 0.000000e+00 0.000000e+00 0.000000e+00 0.000000e+00 0.000000e+00
<ENDHMM>
~h "s"
<BEGINHMM>
<NUMSTATES> 5
<STATE> 2
<MEAN> 39
 -1.745371e+01 5.330682e+00 4.370208e+00 -1.385566e+00 4.053527e+00 -6.295585e+00 -3.413151e+00 2.343413e+00 4.061289e+00 -1.291962e+00 -1.215276e+00 3.606715e+00 1.802194e+01 -1.368302e+00 1.518397e-01 -3.969259e-01 -4.596176e-01 3.089810e-01 -8.175866e-03 3.592227e-01 -1.847693e-02 -1.914282e-01 -2.240911e-01 2.380105e-01 5.991710e-02 -9.893735e-02 6.202433e-02 -4.969072e-02 -1.035357e-01 -4.865919e-02 -1.147391e-01 3.088981e-03 -1.014223e-01 -6.719730e-02 -7.748087e-02 5.298113e-02 2.556454e-02 -2.379005e-02 1.149693e-02
<VARIANCE> 39
 6.336750e+01 3.778272e+01 3.476571e+01 2.557672e+01 4.295189e+01 4.573903e+01 4.867596e+01 3.979705e+01 2.977283e+01 2.947381e+01 3.215145e+01 2.695249e+01 1.389377e+00 1.079904e+00 1.000240e+00 1.517061e+00 1.943317e+00 2.720720e+00 3.071601e+00 3.716207e+00 3.081433e+00 2.888684e+00 3.454214e+00 2.991642e+00 2.737315e+00 2.107901e-02 1.527094e-01 1.710976e-01 2.471878e-01 3.682968e-01 5.320443e-01 6.302182e-01 7.422799e-01 6.544992e-01 5.866945e-01 7.280703e-01 6.446864e-01 5.973525e-01 1.897079e-03
<GCONST> 1.056059e+02
<STATE> 3
<MEAN> 39
 -2.900532e+01 5.440729e+00 -5.505019e+00 -6.633404e+00 4.630762e+00 -7.257124e+00 -1.561620e+00 7.552932e-02 1.692966e+00 -3.992492e-01 1.325508e+00 3.348730e+00 1.715902e+01 -7.213636e-02 -1.179010e-01 -2.505272e-02 -1.012133e-01 -3.148429e-02 3.683997e-02 -7.423563e-03 6.176639e-03 5.038337e-02 8.333122e-02 4.021367e-02 -3.520257e-02 -2.278446e-02 5.495801e-02 -9.323895e-03 6.578957e-02 3.855723e-02 1.073291e-02 2.362698e-02 -2.662929e-03 1.804962e-02 2.822186e-02 -1.358382e-03 -2.116087e-02 -9.962717e-03 -6.103457e-03
<VARIANCE> 39
 7.416478e+00 1.688130e+01 2.479616e+01 2.342286e+01 2.718640e+01 3.217122e+01 3.137784e+01 2.874618e+01 2.673584e+01 2.683817e+01 2.410532e+01 2.277279e+01 1.657492e+00 4.042397e-01 7.599797e-01 1.237367e+00 1.633797e+00 2.217802e+00 2.878123e+00 2.959520e+00 2.960741e+00 2.852778e+00 2.929001e+00 2.841749e+00 2.529462e+00 1.296557e-02 7.428147e-02 1.359651e-01 2.257921e-01 3.522136e-01 4.720065e-01 6.073764e-01 6.405888e-01 6.478614e-01 6.218523e-01 6.390585e-01 6.223575e-01 5.522584e-01 1.290165e-03
<GCONST> 9.523727e+01
<STATE> 4
<MEAN> 39
 -1.931092e+01 2.837831e+00 1.666067e+00 -3.480829e+00 3.955030e+00 -4.786927e+00 -3.828553e+00 5.660256e-01 2.705002e+00 1.537033e+00 -1.254348e-01 2.117454e+00 1.521567e+01 1.220667e+00 1.825993e-01 3.067171e-01 4.426873e-01 -1.004301e-01 1.491675e-01 -2.241469e-01 -1.768672e-01 -1.194425e-01 9.453981e-02 -2.555150e-01 -1.476193e-01 -6.705406e-03 4.541127e-02 -1.144567e-02 -1.093159e-01 -5.831265e-02 -7.818998e-02 -3.048437e-02 -3.195842e-02 -2.477122e-02 -1.626096e-02 2.345778e-02 3.102217e-02 2.162914e-02 3.253337e-02
<VARIANCE> 39
 5.141338e+01 3.995910e+01 3.684550e+01 3.938720e+01 4.632471e+01 5.521081e+01 5.283425e+01 4.112962e+01 3.462244e+01 3.791110e+01 3.269773e+01 2.918772e+01 5.216228e+00 2.165810e+00 2.058670e+00 2.526685e+00 2.883334e+00 3.294333e+00 3.657418e+00 3.834324e+00 3.536255e+00 3.362962e+00 3.801551e+00 3.322381e+00 2.845080e+00 1.691909e-01 2.529378e-01 4.065022e-01 4.508472e-01 5.912929e-01 6.610855e-01 7.230739e-01 7.714927e-01 7.497835e-01 7.107261e-01 8.096535e-01 7.019976e-01 6.092286e-01 1.540393e-02
<GCONST> 1.189454e+02
<TRANSP> 5
 0.000000e+00 1.000000e+00 0.000000e+00 0.000000e+00 0.000000e+00
 0.000000e+00 9.031349e-01 9.686506e-02 0.000000e+00 0.000000e+00
 0.000000e+00 0.000000e+00 9.643239e-01 3.567610e-02 0.000000e+00
 0.000000e+00 0.000000e+00 0.000000e+00 9.194787e-01 8.052132e-02
 0.000000e+00 0.000000e+00 0.000000e+00 0.000000e+00 0.000000e+00
<ENDHMM>
~h "t"
<BEGINHMM>
<NUMSTATES> 5
<STATE> 2
<MEAN> 39
 -1.772048e+01 -8.084799e+00 -1.455519e+00 -2.474553e+00 -5.408107e+00 -7.779002e+00 -4.061498e+00 1.401621e+00 5.464474e+00 3.262043e-01 9.070462e-01 2.326966e+00 1.602746e+01 4.430365e-01 3.510005e-02 -8.669307e-02 4.458026e-01 1.940585e-01 1.457982e-01 -1.291788e-02 1.009163e-01 1.236663e-01 6.319156e-02 -2.117833e-01 -1.644725e-01 -7.123435e-02 9.045729e-02 1.345232e-01 1.143206e-01 1.039692e-01 1.311335e-01 1.547645e-01 5.918353e-02 7.402375e-03 -6.010792e-02 -4.382458e-02 -4.192682e-02 -4.296060e-02 1.716946e-02
<VARIANCE> 39
 6.095490e+01 2.931788e+01 4.048984e+01 4.473361e+01 5.765486e+01 5.198609e+01 4.765658e+01 7.334255e+01 4.614763e+01 4.071379e+01 4.204854e+01 4.384242e+01 2.924860e+00 6.785389e-01 1.233035e+00 1.549029e+00 2.305157e+00 2.524565e+00 3.400035e+00 3.582926e+00 4.140767e+00 3.940391e+00 3.596684e+00 3.409035e+00 2.795606e+00 2.706319e-02 1.226048e-01 2.066928e-01 3.192775e-01 4.910016e-01 5.520288e-01 7.058631e-01 7.375749e-01 8.992242e-01 8.704754e-01 7.670931e-01 7.356064e-01 6.353180e-01 3.882560e-03
<GCONST> 1.126033e+02
<STATE> 3
<MEAN> 39
 -1.403067e+01 -1.367938e+00 3.247162e+00 2.241445e-01 -7.434760e-01 -4.792798e+00 -3.134781e+00 2.641580e+00 4.138880e+00 -6.356285e-01 -1.034128e+00 2.875691e+00 1.631554e+01 1.590209e+00 1.304880e+00 1.389984e+00 1.670883e+00 9.940783e-01 9.062454e-01 4.802050e-02 8.865214e-02 -3.966860e-01 -4.620442e-01 -6.592603e-01 -6.797671e-01 3.185942e-01 3.970855e-01 7.636137e-02 -3.914155e-02 -1.779042e-01 -2.944122e-01 -1.267032e-01 -3.489773e-01 -2.515437e-01 -3.174797e-01 2.280561e-05 1.050212e-01 -1.071959e-01 1.279096e-01
<VARIANCE> 39
 6.027857e+01 3.534027e+01 5.728310e+01 3.892342e+01 5.241315e+01 4.981924e+01 5.486002e+01 4.631016e+01 5.206535e+01 3.945300e+01 3.674976e+01 3.850893e+01 3.537036e+00 1.917338e+00 1.520190e+00 2.129885e+00 2.417300e+00 2.801201e+00 3.079046e+00 3.969687e+00 3.886553e+00 3.768646e+00 3.294142e+00 2.750764e+00 2.853120e+00 1.349957e-01 2.122394e-01 3.115152e-01 3.674608e-01 5.084202e-01 6.160097e-01 6.671613e-01 7.991048e-01 8.053056e-01 7.380422e-01 6.607881e-01 6.476405e-01 6.169379e-01 1.292677e-02
<GCONST> 1.173726e+02
<STATE> 4
<MEAN> 39
 -5.096390e+00 2.778678e+00 6.535107e+00 3.424856e+00 -1.783552e+00 -4.700559e+00 -7.284791e+00 1.016511e+00 1.373330e+00 -1.119564e+00 -1.703115e+00 1.159724e+00 1.850522e+01 1.746263e+00 1.886414e-02 -2.508970e-01 -2.253310e-01 -1.062232e+00 -1.080462e-01 -1.315444e+00 -8.869182e-02 -3.131333e-01 4.930966e-01 3.651772e-01 4.662964e-03 3.659669e-01 -3.679049e-01 -4.120198e-01 -3.250270e-01 -3.766676e-01 -1.967078e-01 -7.165511e-02 -8.551311e-03 1.187513e-01 1.573265e-01 1.760597e-01 1.877474e-01 2.098029e-01 -8.385272e-02
<VARIANCE> 39
 3.988145e+01 3.044267e+01 6.147245e+01 3.412586e+01 4.505711e+01 4.412267e+01 5.015295e+01 3.426149e+01 4.056608e+01 3.384420e+01 2.968051e+01 2.532044e+01 3.985047e+00 2.237791e+00 2.329830e+00 2.119187e+00 2.226012e+00 2.816232e+00 2.962994e+00 3.392979e+00 2.998781e+00 3.206109e+00 2.538831e+00 2.650440e+00 2.803116e+00 1.095658e-01 1.709986e-01 3.960875e-01 4.171540e-01 4.847767e-01 5.487033e-01 6.294816e-01 6.766422e-01 5.544336e-01 5.974838e-01 6.228155e-01 5.159864e-01 5.187550e-01 5.843039e-03
<GCONST> 1.124529e+02
<TRANSP> 5
 0.000000e+00 1.000000e+00 0.000000e+00 0.000000e+00 0.000000e+00
 0.000000e+00 7.866895e-01 2.133105e-01 0.000000e+00 0.000000e+00
 0.000000e+00 0.000000e+00 5.659995e-01 4.340005e-01 0.000000e+00
 0.000000e+00 0.000000e+00 0.000000e+00 6.162852e-01 3.837148e-01
 0.000000e+00 0.000000e+00 0.000000e+00 0.000000e+00 0.000000e+00
<ENDHMM>
~h "u"
<BEGINHMM>
<NUMSTATES> 5
<STATE> 2
<MEAN> 39
 2.951030e+00 -2.094180e+00 -1.246674e+00 -5.552392e+00 -4.395689e+00 2.297696e+00 -2.009851e+01 -3.613372e+00 3.936485e+00 1.179647e+01 2.985735e+00 -5.390127e+00 2.077682e+01 2.625602e-02 -7.009916e-02 1.215618e-01 8.364210e-02 -7.882533e-03 -6.750114e-02 -2.464485e-01 3.308712e-02 1.292839e-01 -9.495442e-02 1.294377e-02 -1.087834e-01 -7.112253e-03 -1.623694e-02 2.805186e-02 2.624770e-02 1.972747e-02 3.982432e-02 -2.135038e-02 3.328220e-02 3.457098e-02 -6.262509e-03 -8.056895e-02 -1.881976e-02 1.017114e-02 -7.571850e-03
<VARIANCE> 39
 7.483841e+00 1.224996e+01 3.214840e+01 4.927713e+01 1.419966e+01 3.481651e+01 3.255706e+01 3.078623e+01 4.745289e+01 7.002182e+01 3.260868e+01 3.727605e+01 3.176925e-01 2.038672e-01 7.875482e-01 8.070320e-01 9.730751e-01 1.174513e+00 1.489201e+00 2.419723e+00 1.413277e+00 2.203091e+00 3.274423e+00 1.278562e+00 1.029291e+00 3.842747e-03 3.443976e-02 1.045158e-01 1.218771e-01 2.076431e-01 2.119822e-01 2.604767e-01 4.079418e-01 2.242777e-01 3.020087e-01 4.046893e-01 2.559144e-01 1.778655e-01 4.515136e-04
<GCONST> 7.966227e+01
<STATE> 3
<MEAN> 39
 4.205117e+00 -5.001422e-01 4.708886e+00 -3.244469e-01 -1.016387e+00 -1.504158e+00 -2.285922e+01 3.478131e-01 6.852777e+00 1.197941e-02 4.291412e+00 -2.696470e+00 1.987075e+01 -2.034067e-01 8.253058e-01 -5.884619e-02 -3.756026e-02 1.125414e+00 -4.398211e-01 1.269376e+00 3.241407e-01 1.626651e-01 -1.932464e-02 -9.538777e-01 4.081410e-01 -2.604469e-01 -6.155643e-02 4.236643e-03 -1.625702e-01 9.354644e-02 -1.089924e-02 1.095387e-01 2.739706e-01 -1.002246e-01 -1.599301e-01 2.531067e-01 -3.558279e-02 -1.607953e-01 -2.795149e-02
<VARIANCE> 39
 1.198712e+01 2.189664e+01 2.315578e+01 5.071608e+01 1.889766e+01 2.948261e+01 3.605313e+01 1.413904e+01 4.487753e+01 2.672577e+01 4.535895e+01 4.001101e+01 8.488281e-01 6.511660e-01 1.149052e+00 8.693234e-01 1.800197e+00 8.027138e-01 1.432725e+00 1.787581e+00 1.490041e+00 2.397674e+00 3.866521e+00 1.729821e+00 2.014274e+00 2.654725e-02 5.757357e-02 2.023553e-01 1.286695e-01 4.668662e-01 2.383559e-01 3.590587e-01 3.985934e-01 3.116768e-01 2.894538e-01 3.219979e-01 3.927774e-01 4.062627e-01 3.768260e-03
<GCONST> 9.082779e+01
<STATE> 4
<MEAN> 39
 -2.377706e+00 3.091885e+00 -2.055074e+00 -5.159811e+00 1.110492e-01 -9.316571e-01 -1.699679e+01 -2.681065e+00 7.638999e+00 8.016268e+00 1.330549e+00 -6.114857e-02 1.760037e+01 1.384368e-02 -1.124737e-01 -2.822795e-01 1.707911e-01 -1.472264e-01 1.537490e-01 1.042239e-01 -3.921315e-02 -2.250507e-01 1.661936e-01 2.792605e-01 -3.409170e-03 -3.196472e-02 1.100080e-02 -5.826442e-02 5.075206e-02 -1.406579e-02 -5.584545e-02 -4.771241e-02 -4.436636e-02 1.892447e-03 1.549542e-02 2.596932e-02 8.821323e-02 3.192342e-02 1.401532e-02
<VARIANCE> 39
 3.070061e+01 3.458613e+01 4.140594e+01 4.987491e+01 3.048505e+01 2.978028e+01 8.456747e+01 1.842728e+01 5.607455e+01 5.306561e+01 3.423287e+01 1.974426e+01 1.701419e+00 1.630731e+00 2.480743e+00 1.427867e+00 2.912822e+00 1.359755e+00 1.966399e+00 3.986653e+00 2.244173e+00 5.469232e+00 4.170806e+00 3.967175e+00 2.742937e+00 6.996188e-02 2.103609e-01 5.003431e-01 2.221105e-01 6.206160e-01 3.048438e-01 3.575640e-01 6.009992e-01 4.577217e-01 1.305039e+00 9.395168e-01 9.243925e-01 6.598443e-01 5.624224e-03
<GCONST> 1.111270e+02
<TRANSP> 5
 0.000000e+00 1.000000e+00 0.000000e+00 0.000000e+00 0.000000e+00
 0.000000e+00 9.664712e-01 3.352884e-02 0.000000e+00 0.000000e+00
 0.000000e+00 0.000000e+00 7.816024e-01 2.183976e-01 0.000000e+00
 0.000000e+00 0.000000e+00 0.000000e+00 9.232565e-01 7.674354e-02
 0.000000e+00 0.000000e+00 0.000000e+00 0.000000e+00 0.000000e+00
<ENDHMM>
~h "v"
<BEGINHMM>
<NUMSTATES> 5
<STATE> 2
<MEAN> 39
 1.352749e+00 8.935745e-01 1.261207e+00 -2.251929e+00 1.888085e-01 3.077895e+00 -9.712572e+00 -4.950064e+00 1.133892e+00 3.713922e+00 6.149585e-01 6.227833e-02 1.888716e+01 3.741173e-01 -3.450829e-02 -3.580225e-01 -3.519233e-01 -2.897753e-01 -7.818569e-03 -4.261973e-01 -7.419561e-01 1.028315e-01 3.736207e-01 4.537348e-01 3.452360e-02 2.020740e-02 -2.576101e-01 3.184451e-02 1.637226e-01 1.204333e-01 -3.110849e-02 -7.916452e-02 8.077765e-02 1.036287e-01 5.464884e-02 -2.338138e-02 4.207473e-02 -2.697423e-02 -2.215747e-02
<VARIANCE> 39
 2.413882e+01 2.208562e+01 4.528165e+01 6.879237e+01 4.282884e+01 5.223814e+01 4.805855e+01 3.236697e+01 2.578013e+01 4.849464e+01 3.119561e+01 1.960142e+01 1.174074e+00 1.782233e+00 9.341627e-01 1.932842e+00 3.593542e+00 3.647993e+00 3.596232e+00 3.824255e+00 2.631504e+00 2.924190e+00 5.077149e+00 3.624825e+00 1.538366e+00 7.731556e-02 2.809635e-01 2.511522e-01 3.739764e-01 7.752403e-01 6.429943e-01 6.560729e-01 8.388957e-01 5.328520e-01 4.579533e-01 1.037568e+00 8.057678e-01 2.495192e-01 3.413290e-03
<GCONST> 1.103712e+02
<STATE> 3
<MEAN> 39
 3.868660e+00 -1.420385e+00 -4.606788e-01 -5.157207e+00 -1.631070e+00 5.884634e+00 -1.251328e+01 -7.910074e+00 1.462383e+00 7.505149e+00 2.885343e+00 2.861935e-01 1.969806e+01 -3.469782e-01 3.380475e-01 2.124989e-01 3.916915e-01 3.922305e-01 -1.464036e-01 5.095062e-01 -6.342947e-02 -1.255484e-01 -3.594535e-01 -2.978350e-02 2.436798e-02 -7.722101e-02 -6.310574e-02 3.878524e-02 6.058798e-02 6.673398e-02 5.826137e-02 -2.981016e-02 1.071786e-01 1.498590e-01 -1.253086e-02 -1.071794e-01 -7.075973e-02 -5.372219e-02 1.316777e-03
<VARIANCE> 39
 8.999704e+00 2.079940e+01 1.861016e+01 4.897955e+01 3.229526e+01 4.354960e+01 5.676161e+01 3.800964e+01 4.879503e+01 4.825579e+01 4.203571e+01 1.856584e+01 6.064560e-01 6.398998e-01 1.388933e+00 8.178274e-01 1.829353e+00 2.149523e+00 1.695486e+00 3.500291e+00 2.399695e+00 2.577727e+00 3.698708e+00 2.481595e+00 1.569998e+00 1.199952e-02 7.020115e-02 2.212224e-01 1.280949e-01 2.796894e-01 4.232033e-01 3.217959e-01 5.959293e-01 4.131661e-01 4.479549e-01 6.163542e-01 4.596699e-01 2.761580e-01 5.123870e-04
<GCONST> 9.365540e+01
<STATE> 4
<MEAN> 39
 -4.511796e+00 4.810398e+00 5.550505e+00 5.598419e+00 2.375139e+00 -3.998609e-01 -5.544625e+00 -4.944900e+00 -2.694997e-01 -1.072162e+00 1.116329e-01 -1.117833e+00 1.783149e+01 -2.947389e-01 1.923069e-02 3.288601e-02 1.633952e-01 1.763200e-02 -1.400565e-01 1.462910e-01 1.906989e-01 8.418836e-02 -1.907082e-01 -7.363837e-02 -4.614975e-02 -4.017793e-02 8.445556e-02 -6.375408e-02 -4.691083e-02 -1.151684e-01 -9.144909e-02 -9.476406e-03 -1.349029e-01 -1.798152e-03 3.208370e-02 9.651192e-02 1.316667e-02 4.033862e-02 1.083529e-02
<VARIANCE> 39
 2.158121e+01 1.914356e+01 2.167518e+01 2.439747e+01 2.458537e+01 4.139056e+01 2.611547e+01 2.108500e+01 2.987998e+01 2.390825e+01 2.780930e+01 1.940988e+01 9.369162e-01 1.314505e+00 1.158520e+00 1.409381e+00 2.060156e+00 2.272367e+00 2.673494e+00 3.347089e+00 2.508693e+00 2.809669e+00 2.780314e+00 2.512188e+00 2.573334e+00 2.156236e-02 1.698431e-01 1.941008e-01 2.526405e-01 3.926089e-01 4.359823e-01 5.233721e-01 6.770349e-01 5.015982e-01 5.708252e-01 5.941789e-01 5.117521e-01 5.869496e-01 8.317852e-04
<GCONST> 9.785261e+01
<TRANSP> 5
 0.000000e+00 1.000000e+00 0.000000e+00 0.000000e+00 0.000000e+00
 0.000000e+00 5.736572e-01 4.263428e-01 0.000000e+00 0.000000e+00
 0.000000e+00 0.000000e+00 8.151906e-01 1.848094e-01 0.000000e+00
 0.000000e+00 0.000000e+00 0.000000e+00 8.915433e-01 1.084567e-01
 0.000000e+00 0.000000e+00 0.000000e+00 0.000000e+00 0.000000e+00
<ENDHMM>
~h "w"
<BEGINHMM>
<NUMSTATES> 5
<STATE> 2
<MEAN> 39
 3.244990e+00 5.677959e+00 8.274733e-01 -6.137421e+00 -3.506364e+00 4.517081e+00 -8.035430e+00 -3.197603e+00 -1.689154e+00 2.067215e+00 -7.859043e-01 1.254902e+00 1.868071e+01 4.168108e-01 1.696230e-01 -5.996963e-02 -3.443784e-01 -3.294056e-01 1.506035e-01 -5.687974e-02 -1.100991e-01 -7.275045e-02 -9.337086e-02 -5.692564e-03 1.090332e-01 9.148242e-02 -4.375117e-02 -3.257316e-02 -7.183783e-03 6.231201e-03 -1.023479e-02 5.654014e-03 1.931024e-02 -1.167490e-02 1.522912e-02 -2.272220e-02 2.612993e-04 5.424929e-03 -1.046614e-02
<VARIANCE> 39
 1.992988e+01 6.083190e+01 3.633241e+01 8.334912e+01 5.449099e+01 7.243941e+01 7.625325e+01 4.806501e+01 5.016622e+01 4.330466e+01 3.250685e+01 4.976408e+01 2.262405e+00 9.013581e-01 1.647555e+00 1.576144e+00 3.117467e+00 2.714882e+00 3.125900e+00 3.500760e+00 2.796395e+00 2.941603e+00 2.774200e+00 2.594065e+00 2.429009e+00 5.161555e-02 1.322096e-01 2.943977e-01 2.984939e-01 5.833514e-01 5.248209e-01 5.937619e-01 6.395555e-01 5.488510e-01 5.716927e-01 5.371397e-01 5.118365e-01 4.596194e-01 3.585520e-03
<GCONST> 1.110871e+02
<STATE> 3
<MEAN> 39
 7.666645e+00 7.184425e+00 -8.090457e-01 -1.497034e+01 -9.057414e+00 1.065852e+01 -7.144052e+00 -5.139691e+00 -2.992559e+00 1.202798e-01 3.653906e-01 4.588657e+00 2.002088e+01 1.195072e-02 -1.904481e-01 -1.117442e-01 -5.997039e-02 1.750390e-03 2.108721e-01 -7.217875e-02 -1.742018e-01 -6.375589e-02 1.073571e-01 1.769315e-01 1.163180e-01 2.851632e-02 -2.340070e-02 -3.325556e-02 9.075306e-03 5.643548e-02 4.401698e-02 -3.867629e-02 -3.894107e-02 1.566859e-02 3.076272e-02 5.516228e-02 1.009420e-03 -4.955339e-02 -1.066415e-03
<VARIANCE> 39
 5.968836e+00 3.184718e+01 3.230690e+01 6.904955e+01 4.226014e+01 5.184183e+01 5.377406e+01 4.214815e+01 4.429459e+01 3.770938e+01 4.191423e+01 3.932293e+01 4.325934e-01 2.919133e-01 1.000409e+00 9.927575e-01 2.763355e+00 2.253952e+00 1.991491e+00 2.336469e+00 2.039480e+00 1.985796e+00 1.943901e+00 2.011153e+00 2.442915e+00 4.019434e-03 5.263218e-02 1.452466e-01 1.726951e-01 4.670650e-01 3.950081e-01 3.528362e-01 3.672487e-01 3.900729e-01 3.583823e-01 3.159218e-01 3.416795e-01 4.112112e-01 2.250167e-04
<GCONST> 9.046499e+01
<STATE> 4
<MEAN> 39
 5.686745e+00 -1.757805e+00 -2.131652e-01 -7.062365e+00 -5.717819e+00 9.341594e+00 -1.681552e+01 -7.058753e+00 -1.807494e+00 7.782328e+00 4.102434e+00 8.323033e-01 2.070398e+01 -1.576968e-01 -1.655655e-01 1.364825e-01 1.880963e-01 2.041770e-01 -3.423171e-01 -3.595063e-01 2.010918e-01 3.730311e-01 2.382520e-01 -1.372614e-01 -3.085686e-01 8.924276e-03 -7.958634e-03 3.049467e-02 2.300122e-02 1.684338e-03 -5.846416e-03 -3.568200e-02 4.954077e-02 6.949649e-02 -9.349132e-03 -9.252806e-02 -5.427459e-02 2.475259e-02 -2.261358e-03
<VARIANCE> 39
 6.887134e+00 2.306159e+01 3.286773e+01 9.594608e+01 2.931408e+01 8.105061e+01 7.749328e+01 5.916351e+01 5.577195e+01 6.379733e+01 5.398226e+01 3.818745e+01 2.381954e-01 2.487186e-01 8.095303e-01 6.984766e-01 1.481849e+00 1.194495e+00 1.704540e+00 2.008767e+00 2.500478e+00 1.966195e+00 2.747678e+00 2.075428e+00 1.639249e+00 1.562625e-03 3.813780e-02 1.049592e-01 1.055344e-01 2.009062e-01 1.912238e-01 2.239632e-01 2.814315e-01 3.439678e-01 2.990326e-01 3.735505e-01 3.062343e-01 2.277336e-01 9.878714e-05
<GCONST> 8.364758e+01
<TRANSP> 5
 0.000000e+00 1.000000e+00 0.000000e+00 0.000000e+00 0.000000e+00
 0.000000e+00 9.303001e-01 6.969994e-02 0.000000e+00 0.000000e+00
 0.000000e+00 0.000000e+00 9.464621e-01 5.353796e-02 0.000000e+00
 0.000000e+00 0.000000e+00 0.000000e+00 9.351101e-01 6.488993e-02
 0.000000e+00 0.000000e+00 0.000000e+00 0.000000e+00 0.000000e+00
<ENDHMM>
~h "y"
<BEGINHMM>
<NUMSTATES> 5
<STATE> 2
<MEAN> 39
 -9.683522e+00 4.951550e+00 1.655000e+01 3.187495e+00 -3.410294e+00 2.584933e+00 -7.049632e+00 8.098847e-01 -3.137307e+00 -7.055951e-01 2.215871e+00 8.897433e-01 1.691121e+01 9.807683e-01 2.063606e-01 7.373450e-01 -1.534715e-02 -9.436768e-01 -5.086641e-01 -9.235519e-01 1.886294e-01 -4.846790e-01 -3.346319e-02 3.338434e-01 3.190095e-01 3.696657e-01 -2.034293e-02 -1.344849e-01 -1.309339e-01 -4.772368e-02 -1.327953e-01 -1.320049e-01 2.363771e-02 3.653482e-02 -2.405662e-02 1.646367e-02 7.505801e-02 6.714433e-02 -1.898466e-02
<VARIANCE> 39
 5.144634e+01 5.104476e+01 3.148490e+01 3.156046e+01 3.795790e+01 5.551854e+01 4.362072e+01 2.891528e+01 2.733605e+01 3.009566e+01 3.189622e+01 2.175073e+01 6.689458e+00 1.510270e+00 2.533806e+00 1.399752e+00 2.306891e+00 3.046358e+00 4.364397e+00 2.771966e+00 2.345622e+00 2.848813e+00 2.886608e+00 3.098855e+00 2.380920e+00 1.170884e-01 2.365683e-01 4.293409e-01 2.178022e-01 4.528618e-01 5.869194e-01 8.076763e-01 5.638251e-01 4.415334e-01 6.081441e-01 6.325122e-01 7.124923e-01 4.068021e-01 9.272108e-03
<GCONST> 1.117197e+02
<STATE> 3
<MEAN> 39
 -2.874778e+00 4.549236e+00 2.039849e+01 2.330659e+00 -1.123372e+01 -5.014676e+00 -1.079322e+01 1.195732e+00 -5.349606e+00 -4.412259e+00 4.023626e+00 5.253879e+00 1.945735e+01 1.425909e-01 -1.546615e-01 -5.023352e-02 6.935883e-02 -1.718437e-01 -1.808449e-02 -4.547851e-02 7.778132e-02 -9.541491e-02 -7.230975e-03 1.299289e-02 -5.992186e-02 2.801291e-02 1.170834e-03 -8.543210e-03 -3.336399e-02 2.731667e-02 4.403311e-02 1.944424e-02 -8.061015e-04 1.931920e-03 3.901069e-02 2.586072e-02 -5.208827e-03 -3.754516e-02 -2.300421e-03
<VARIANCE> 39
 1.304043e+01 2.689683e+01 1.690181e+01 2.502550e+01 3.170712e+01 3.652978e+01 4.428236e+01 2.807527e+01 2.629260e+01 2.045838e+01 1.956263e+01 1.796786e+01 4.441322e-01 5.108291e-01 9.508164e-01 1.096639e+00 1.406456e+00 2.185952e+00 2.566003e+00 3.166428e+00 1.965533e+00 2.242711e+00 1.819151e+00 1.469181e+00 1.344358e+00 4.427389e-03 9.436025e-02 1.682573e-01 1.988895e-01 2.737092e-01 3.989107e-01 5.036891e-01 6.245099e-01 4.046193e-01 4.423053e-01 3.461393e-01 2.841709e-01 2.694985e-01 3.709799e-04
<GCONST> 8.665425e+01
<STATE> 4
<MEAN> 39
 1.649498e+00 -6.989026e-02 1.587025e+01 1.340202e+00 -1.340316e+01 2.636276e+00 -1.493845e+01 4.187443e+00 -7.688408e+00 1.866457e+00 7.213841e+00 -4.396324e+00 2.080763e+01 4.811739e-02 -1.153082e-01 -5.718771e-02 5.151377e-02 -8.300097e-02 -7.334124e-02 -5.781566e-02 1.289820e-01 6.975061e-02 -6.446838e-02 7.256643e-02 -4.776663e-02 8.006915e-03 -6.454393e-03 2.043224e-02 -2.362054e-02 -2.945416e-03 3.718323e-02 -2.529018e-02 2.729029e-02 -2.780712e-02 3.141809e-02 -1.029702e-02 -3.121251e-02 2.227694e-02 -1.854394e-03
<VARIANCE> 39
 9.203724e+00 1.676461e+01 2.812667e+01 5.523593e+01 4.476462e+01 5.687102e+01 5.098829e+01 3.589799e+01 4.049394e+01 4.345105e+01 3.832418e+01 3.499485e+01 2.268905e-01 1.918169e-01 4.090724e-01 6.710972e-01 6.628486e-01 1.239491e+00 1.572834e+00 1.488278e+00 1.196450e+00 1.340248e+00 1.258758e+00 1.169301e+00 9.543490e-01 1.147653e-03 2.936679e-02 6.213693e-02 8.305480e-02 9.838925e-02 1.828130e-01 2.406119e-01 2.388260e-01 1.968847e-01 2.262507e-01 1.960539e-01 1.752260e-01 1.565475e-01 8.131222e-05
<GCONST> 7.093855e+01
<TRANSP> 5
 0.000000e+00 1.000000e+00 0.000000e+00 0.000000e+00 0.000000e+00
 0.000000e+00 7.945374e-01 2.054626e-01 0.000000e+00 0.000000e+00
 0.000000e+00 0.000000e+00 9.450694e-01 5.493064e-02 0.000000e+00
 0.000000e+00 0.000000e+00 0.000000e+00 9.520644e-01 4.793554e-02
 0.000000e+00 0.000000e+00 0.000000e+00 0.000000e+00 0.000000e+00
<ENDHMM>
~h "z"
<BEGINHMM>
<NUMSTATES> 5
<STATE> 2
<MEAN> 39
 -8.049722e+00 9.641641e+00 6.311423e+00 -1.222935e+00 5.164667e+00 -1.027400e+01 -1.141039e+01 -2.095200e+00 4.753732e+00 7.898628e-01 -3.157852e+00 2.199983e+00 1.941839e+01 -1.008298e+00 7.747161e-01 -7.465281e-02 -4.147604e-02 6.579795e-01 -1.510972e-01 5.973793e-01 7.264178e-02 1.415828e-01 -1.872073e-01 -4.344230e-02 2.311829e-03 -1.169300e-01 -2.779804e-02 -7.675494e-02 4.764736e-02 6.377517e-02 -6.214659e-02 1.972435e-01 -3.485121e-02 7.820486e-02 -1.038594e-01 1.432540e-02 3.269066e-02 -5.645027e-02 -5.364324e-03
<VARIANCE> 39
 1.841202e+01 2.236810e+01 2.160774e+01 2.686292e+01 4.089829e+01 3.606078e+01 5.327908e+01 3.339651e+01 3.142445e+01 2.856849e+01 2.819345e+01 2.337913e+01 4.416293e-01 1.262476e+00 1.301763e+00 1.046423e+00 1.444780e+00 2.602841e+00 2.217412e+00 4.554802e+00 2.960513e+00 2.813877e+00 2.251565e+00 2.243784e+00 1.653991e+00 6.258035e-03 1.627850e-01 1.940941e-01 1.811375e-01 2.718966e-01 4.684579e-01 3.969921e-01 8.183506e-01 5.672732e-01 5.309388e-01 4.597364e-01 4.779261e-01 3.436133e-01 2.502417e-04
<GCONST> 9.423883e+01
<STATE> 3
<MEAN> 39
 -1.898676e+01 1.341664e+01 5.346335e+00 -5.199354e-01 8.836162e+00 -6.946596e+00 -5.244662e+00 -8.910834e-01 1.844454e+00 -1.060789e+00 -1.432109e+00 2.218942e+00 1.786023e+01 -4.422149e-01 -1.833528e-01 -1.278940e-01 -5.286854e-02 7.866370e-03 2.607688e-01 1.827808e-01 -3.619759e-02 -1.337177e-01 -4.152267e-02 8.427966e-02 -6.560774e-03 -6.137677e-02 1.206742e-01 -1.031294e-01 -4.426534e-02 -4.377378e-02 -1.121089e-01 -3.905245e-02 -6.705744e-02 -4.290086e-02 1.674283e-02 2.825641e-02 -8.879671e-03 1.204005e-02 9.199039e-03
<VARIANCE> 39
 3.123648e+01 2.022978e+01 3.233589e+01 2.652517e+01 2.916126e+01 3.634572e+01 4.140309e+01 3.170223e+01 2.681301e+01 2.809093e+01 2.787928e+01 2.203076e+01 6.913323e-01 1.110590e+00 7.916216e-01 1.090659e+00 1.508188e+00 2.305773e+00 2.994101e+00 3.247860e+00 2.780364e+00 2.491278e+00 2.619855e+00 2.947297e+00 2.193326e+00 1.295462e-02 1.266770e-01 1.411187e-01 2.180778e-01 2.987966e-01 4.786471e-01 5.962057e-01 6.855814e-01 5.812665e-01 5.066338e-01 5.660133e-01 6.228080e-01 4.580547e-01 7.964192e-04
<GCONST> 9.703094e+01
<STATE> 4
<MEAN> 39
 -2.054722e+01 5.316116e+00 1.672283e+00 -4.400535e+00 5.213313e+00 -5.585807e+00 -5.067195e+00 -1.431067e+00 2.328163e+00 6.302112e-01 -9.532250e-01 1.897771e+00 1.586175e+01 4.582310e-01 -2.765211e-01 -9.591320e-02 -5.157510e-02 -2.272047e-01 -3.802520e-02 -4.500065e-02 -7.238211e-02 -2.416540e-02 1.700191e-01 -5.268576e-02 -1.567861e-02 -7.801820e-02 3.911838e-02 1.133482e-02 5.516617e-03 2.746007e-02 1.741708e-02 -9.768153e-03 1.648642e-03 1.526579e-02 -2.060257e-02 1.411993e-02 -5.416917e-03 -1.253248e-02 8.488283e-04
<VARIANCE> 39
 6.912045e+01 2.979641e+01 4.850161e+01 4.446122e+01 4.166286e+01 4.927942e+01 5.885714e+01 3.593192e+01 3.515857e+01 3.521492e+01 3.157414e+01 2.447979e+01 3.891746e+00 1.184700e+00 1.591753e+00 1.859455e+00 2.211142e+00 2.819384e+00 3.569335e+00 3.621128e+00 3.230601e+00 3.294412e+00 3.509979e+00 3.314985e+00 2.592778e+00 5.786989e-02 1.419823e-01 2.965895e-01 3.336054e-01 4.309447e-01 5.809157e-01 7.507851e-01 7.414057e-01 6.697900e-01 7.134103e-01 7.367240e-01 7.358477e-01 5.664118e-01 4.081496e-03
<GCONST> 1.123073e+02
<TRANSP> 5
 0.000000e+00 1.000000e+00 0.000000e+00 0.000000e+00 0.000000e+00
 0.000000e+00 8.841329e-01 1.158671e-01 0.000000e+00 0.000000e+00
 0.000000e+00 0.000000e+00 9.229394e-01 7.706057e-02 0.000000e+00
 0.000000e+00 0.000000e+00 0.000000e+00 9.333763e-01 6.662374e-02
 0.000000e+00 0.000000e+00 0.000000e+00 0.000000e+00 0.000000e+00
<ENDHMM>
~h "@r"
<BEGINHMM>
<NUMSTATES> 5
<STATE> 2
<MEAN> 39
 5.115315e+00 -7.880275e-01 -6.514273e+00 1.987195e+00 -4.961924e-01 -5.012082e+00 -1.297755e+01 2.199277e+00 -6.382151e-01 6.430230e-01 5.076114e+00 3.548097e+00 1.985132e+01 4.458613e-01 -7.437570e-02 -4.148596e-01 -8.768337e-02 -3.415681e-01 -1.432270e-01 -8.328263e-01 4.164273e-01 -1.161691e-01 3.979931e-02 4.468535e-01 2.458652e-01 8.099359e-02 -1.523822e-01 -4.464841e-03 1.233022e-01 4.175353e-02 3.384805e-02 1.022837e-01 3.928138e-02 -1.510462e-02 1.466070e-02 3.905962e-02 -9.282560e-02 -1.523536e-01 -2.490724e-02
<VARIANCE> 39
 1.488902e+01 2.052179e+01 6.250545e+01 5.325651e+01 4.434858e+01 3.646712e+01 6.422296e+01 3.530563e+01 4.347412e+01 3.920227e+01 4.228898e+01 4.032682e+01 3.957117e-01 8.607125e-01 8.575349e-01 1.583967e+00 1.694421e+00 1.781239e+00 2.643179e+00 3.418040e+00 1.916111e+00 2.514188e+00 2.333634e+00 2.389839e+00 2.107288e+00 1.314194e-02 1.547348e-01 1.617529e-01 2.855338e-01 3.419873e-01 3.439199e-01 5.139366e-01 6.425187e-01 3.372228e-01 4.601471e-01 4.326062e-01 4.298051e-01 4.019534e-01 1.955761e-03
<GCONST> 9.886282e+01
<STATE> 3
<MEAN> 39
 7.670661e+00 -2.944211e+00 -5.821244e+00 3.045035e+00 -4.635746e+00 -2.752731e+00 -1.860342e+01 5.714974e+00 -1.497477e+00 6.587279e-01 8.463126e+00 6.196579e-01 2.077383e+01 2.158245e-02 -2.234168e-02 1.507313e-04 -1.626221e-02 -7.499626e-02 4.765387e-02 -5.475431e-02 5.823983e-02 3.376817e-02 1.428896e-02 -1.409309e-02 -6.131678e-02 6.344372e-03 -1.053108e-02 2.157538e-03 1.648006e-02 -5.113625e-03 1.330423e-02 6.220081e-04 2.993448e-02 -1.979262e-02 6.473222e-03 -5.476591e-03 -2.223432e-02 6.884904e-03 -1.686567e-03
<VARIANCE> 39
 5.121679e+00 1.587719e+01 4.587174e+01 3.763907e+01 2.848428e+01 3.463882e+01 5.288797e+01 3.387162e+01 7.018304e+01 3.926286e+01 4.575012e+01 3.818577e+01 2.445550e-01 1.140600e-01 3.491605e-01 4.965615e-01 5.864428e-01 6.500974e-01 8.646404e-01 1.101803e+00 9.537626e-01 1.228169e+00 1.184233e+00 1.617894e+00 9.920468e-01 1.583589e-03 1.700970e-02 3.990728e-02 7.030883e-02 9.606908e-02 1.035872e-01 1.310353e-01 1.510040e-01 1.673463e-01 1.900325e-01 1.908156e-01 2.160281e-01 1.421553e-01 1.062413e-04
<GCONST> 6.508905e+01
<STATE> 4
<MEAN> 39
 6.218106e+00 -3.220047e+00 -2.072621e+00 7.182027e+00 -6.102127e+00 -7.155028e+00 -1.695186e+01 7.292800e+00 1.729338e+00 7.187418e-02 2.282518e+00 1.476834e+00 2.006900e+01 3.002135e-02 3.080115e-02 9.702008e-02 6.675355e-02 1.120242e-01 -2.891446e-02 8.512422e-02 -1.476257e-01 1.501073e-02 2.237659e-02 -2.134311e-01 6.834613e-02 -9.874287e-03 -5.607377e-03 -1.655101e-02 1.149112e-02 -1.426952e-02 3.173708e-02 -3.179986e-04 6.281585e-02 -4.751157e-02 -2.349437e-02 -1.224087e-02 6.088781e-03 -2.117984e-03 -3.214005e-03
<VARIANCE> 39
 6.511941e+00 2.162621e+01 6.347714e+01 2.417545e+01 4.147354e+01 4.519978e+01 1.079101e+02 3.315218e+01 5.763924e+01 4.586842e+01 3.880660e+01 4.892793e+01 2.510335e-01 2.715089e-01 1.482609e+00 1.026775e+00 8.479011e-01 1.461855e+00 4.189104e+00 3.780129e+00 1.883364e+00 2.488354e+00 2.204145e+00 2.072388e+00 1.717986e+00 1.584618e-03 4.864419e-02 2.653441e-01 1.741029e-01 1.603882e-01 2.855084e-01 7.940640e-01 7.132285e-01 3.587760e-01 4.300041e-01 4.233140e-01 3.602855e-01 3.005596e-01 1.619052e-04
<GCONST> 8.954659e+01
<TRANSP> 5
 0.000000e+00 1.000000e+00 0.000000e+00 0.000000e+00 0.000000e+00
 0.000000e+00 7.894742e-01 2.105258e-01 0.000000e+00 0.000000e+00
 0.000000e+00 0.000000e+00 9.380774e-01 6.192261e-02 0.000000e+00
 0.000000e+00 0.000000e+00 0.000000e+00 8.271958e-01 1.728041e-01
 0.000000e+00 0.000000e+00 0.000000e+00 0.000000e+00 0.000000e+00
<ENDHMM>
~h "aa"
<BEGINHMM>
<NUMSTATES> 5
<STATE> 2
<MEAN> 39
 -9.957531e-01 -3.621350e+00 -9.523322e+00 -9.717880e+00 2.967998e+00 1.096970e+01 -5.210086e+00 -3.723708e+00 4.828746e+00 4.859215e+00 3.352923e-01 -7.757481e+00 1.900404e+01 2.140705e-01 -2.260501e-01 -2.940900e-01 -2.180863e-01 -6.098193e-02 1.982127e-01 -5.553940e-02 6.791180e-02 7.700776e-02 1.255742e-01 9.153588e-02 -3.513899e-01 8.150741e-02 -3.763902e-02 -1.500361e-02 3.701605e-02 6.820939e-02 1.568646e-02 4.650052e-03 2.326150e-02 -3.218070e-04 -3.201786e-02 -5.215849e-02 -1.180214e-02 -2.381472e-03 -1.368653e-02
<VARIANCE> 39
 1.974963e+01 2.871457e+01 3.310491e+01 5.568415e+01 3.804731e+01 7.776814e+01 5.768741e+01 3.927291e+01 3.568526e+01 4.588110e+01 4.473314e+01 3.931906e+01 2.371861e+00 1.025680e+00 2.243611e+00 1.914656e+00 3.595270e+00 2.261953e+00 2.850670e+00 2.770937e+00 2.427426e+00 2.831442e+00 3.165485e+00 2.459122e+00 2.581460e+00 5.833664e-02 2.044870e-01 4.523170e-01 3.800360e-01 6.689121e-01 4.684212e-01 6.016828e-01 5.550619e-01 4.761825e-01 5.684724e-01 6.383305e-01 5.039358e-01 5.600760e-01 6.913373e-03
<GCONST> 1.111240e+02
<STATE> 3
<MEAN> 39
 3.065399e+00 -7.551143e+00 -9.502625e+00 -1.036113e+01 1.555306e-01 1.388264e+01 -8.851792e+00 -1.054627e-01 5.386846e+00 3.918381e+00 -6.037559e-01 -1.130214e+01 2.092644e+01 1.340637e-02 -3.625973e-02 9.552275e-04 6.993914e-02 -6.414398e-02 -3.618416e-02 -9.215058e-03 4.985869e-02 3.971474e-02 3.308498e-02 -5.446267e-02 -3.024152e-02 -2.032833e-04 -7.609920e-03 2.206440e-02 1.591129e-02 8.917764e-03 4.399570e-03 -2.968138e-02 3.245534e-03 -8.960593e-03 -7.436133e-03 9.173364e-03 -2.542033e-03 2.257039e-02 -2.198906e-03
<VARIANCE> 39
 4.120413e+00 2.068090e+01 1.913208e+01 4.267717e+01 2.483017e+01 5.496187e+01 2.996114e+01 3.468142e+01 2.816931e+01 3.699838e+01 3.772098e+01 3.620778e+01 2.268905e-01 2.138343e-01 8.175534e-01 6.757656e-01 1.337060e+00 1.051243e+00 1.528158e+00 1.161586e+00 1.141717e+00 1.559966e+00 1.806690e+00 1.106517e+00 1.267370e+00 1.718297e-03 3.872676e-02 1.165989e-01 1.073648e-01 2.040829e-01 1.795917e-01 2.065564e-01 2.016996e-01 2.004673e-01 2.489033e-01 2.667950e-01 1.848559e-01 1.974272e-01 1.303618e-04
<GCONST> 7.290531e+01
<STATE> 4
<MEAN> 39
 2.254213e-02 -4.343003e+00 -8.074118e+00 -5.427013e+00 1.907322e+00 6.886149e+00 -4.394022e+00 -2.868253e-01 5.635063e+00 4.655861e+00 -6.455811e+00 -6.916587e+00 1.830212e+01 -1.653634e-01 2.094220e-01 2.216643e-01 1.704749e-01 7.059258e-02 -2.914203e-01 2.064690e-01 4.840694e-02 -1.170570e-01 -9.787644e-02 -1.863315e-01 2.024997e-01 -1.372550e-01 -6.686226e-03 -2.239678e-02 3.032143e-02 1.842826e-02 1.093014e-02 -4.837198e-04 1.347314e-02 -4.620590e-03 -4.614934e-02 -3.448932e-02 1.556292e-02 2.711586e-02 -6.492544e-03
<VARIANCE> 39
 1.832285e+01 3.102610e+01 2.402781e+01 3.637079e+01 2.620197e+01 4.110278e+01 4.210171e+01 3.682087e+01 3.869661e+01 5.118589e+01 4.550663e+01 3.963795e+01 5.339662e+00 6.847530e-01 1.224118e+00 1.570096e+00 2.103794e+00 1.661719e+00 2.096937e+00 2.891618e+00 2.874466e+00 3.237889e+00 3.248510e+00 3.173943e+00 3.170355e+00 2.461524e-02 1.387593e-01 2.479409e-01 2.959995e-01 4.202569e-01 3.401935e-01 4.090992e-01 6.105790e-01 5.528421e-01 7.012971e-01 6.848158e-01 6.300818e-01 6.732441e-01 2.280836e-03
<GCONST> 1.050411e+02
<TRANSP> 5
 0.000000e+00 1.000000e+00 0.000000e+00 0.000000e+00 0.000000e+00
 0.000000e+00 9.227865e-01 7.721353e-02 0.000000e+00 0.000000e+00
 0.000000e+00 0.000000e+00 9.747480e-01 2.525205e-02 0.000000e+00
 0.000000e+00 0.000000e+00 0.000000e+00 9.076380e-01 9.236199e-02
 0.000000e+00 0.000000e+00 0.000000e+00 0.000000e+00 0.000000e+00
<ENDHMM>
~h "ae"
<BEGINHMM>
<NUMSTATES> 5
<STATE> 2
<MEAN> 39
 -8.968819e+00 1.227167e+00 1.709896e+00 5.255102e-01 -1.376319e+00 -3.581203e-01 -4.450421e+00 2.224232e-01 1.032390e+00 1.922153e+00 9.369482e-01 -5.463367e-02 1.433043e+01 6.601643e-05 -6.414447e-06 -4.348861e-05 2.207338e-05 -6.183252e-05 3.505594e-04 -2.845397e-05 -1.057293e-04 -3.217392e-04 -2.094190e-04 -1.093453e-04 6.646793e-05 -4.646834e-05 -3.052270e-05 -5.577785e-06 5.118113e-05 5.903988e-05 8.738427e-05 1.239256e-04 1.462678e-04 5.784345e-07 -6.680420e-05 8.540968e-05 -3.584341e-06 -9.608337e-06 3.280207e-06
<VARIANCE> 39
 9.132833e+01 3.750473e+01 5.184167e+01 5.299957e+01 4.542144e+01 5.171822e+01 6.411460e+01 4.173472e+01 3.924054e+01 3.472301e+01 3.778771e+01 3.327573e+01 2.268905e+01 6.444674e-01 1.076510e+00 1.293223e+00 1.883514e+00 2.197024e+00 2.673508e+00 2.949268e+00 2.722457e+00 2.845586e+00 2.895535e+00 2.697424e+00 2.293327e+00 4.128606e-02 9.874837e-02 2.035372e-01 2.576212e-01 3.839478e-01 4.538210e-01 5.496877e-01 6.081111e-01 5.695377e-01 5.939356e-01 6.059731e-01 5.659602e-01 4.834353e-01 5.660130e-03
<GCONST> 1.098248e+02
<STATE> 3
<MEAN> 39
 -8.968819e+00 1.227167e+00 1.709896e+00 5.255102e-01 -1.376319e+00 -3.581203e-01 -4.450421e+00 2.224232e-01 1.032390e+00 1.922153e+00 9.369482e-01 -5.463367e-02 1.433043e+01 6.601643e-05 -6.414447e-06 -4.348861e-05 2.207338e-05 -6.183252e-05 3.505594e-04 -2.845397e-05 -1.057293e-04 -3.217392e-04 -2.094190e-04 -1.093453e-04 6.646793e-05 -4.646834e-05 -3.052270e-05 -5.577785e-06 5.118113e-05 5.903988e-05 8.738427e-05 1.239256e-04 1.462678e-04 5.784345e-07 -6.680420e-05 8.540968e-05 -3.584341e-06 -9.608337e-06 3.280207e-06
<VARIANCE> 39
 9.132833e+01 3.750473e+01 5.184167e+01 5.299957e+01 4.542144e+01 5.171822e+01 6.411460e+01 4.173472e+01 3.924054e+01 3.472301e+01 3.778771e+01 3.327573e+01 2.268905e+01 6.444674e-01 1.076510e+00 1.293223e+00 1.883514e+00 2.197024e+00 2.673508e+00 2.949268e+00 2.722457e+00 2.845586e+00 2.895535e+00 2.697424e+00 2.293327e+00 4.128606e-02 9.874837e-02 2.035372e-01 2.576212e-01 3.839478e-01 4.538210e-01 5.496877e-01 6.081111e-01 5.695377e-01 5.939356e-01 6.059731e-01 5.659602e-01 4.834353e-01 5.660130e-03
<GCONST> 1.098248e+02
<STATE> 4
<MEAN> 39
 -8.968819e+00 1.227167e+00 1.709896e+00 5.255102e-01 -1.376319e+00 -3.581203e-01 -4.450421e+00 2.224232e-01 1.032390e+00 1.922153e+00 9.369482e-01 -5.463367e-02 1.433043e+01 6.601643e-05 -6.414447e-06 -4.348861e-05 2.207338e-05 -6.183252e-05 3.505594e-04 -2.845397e-05 -1.057293e-04 -3.217392e-04 -2.094190e-04 -1.093453e-04 6.646793e-05 -4.646834e-05 -3.052270e-05 -5.577785e-06 5.118113e-05 5.903988e-05 8.738427e-05 1.239256e-04 1.462678e-04 5.784345e-07 -6.680420e-05 8.540968e-05 -3.584341e-06 -9.608337e-06 3.280207e-06
<VARIANCE> 39
 9.132833e+01 3.750473e+01 5.184167e+01 5.299957e+01 4.542144e+01 5.171822e+01 6.411460e+01 4.173472e+01 3.924054e+01 3.472301e+01 3.778771e+01 3.327573e+01 2.268905e+01 6.444674e-01 1.076510e+00 1.293223e+00 1.883514e+00 2.197024e+00 2.673508e+00 2.949268e+00 2.722457e+00 2.845586e+00 2.895535e+00 2.697424e+00 2.293327e+00 4.128606e-02 9.874837e-02 2.035372e-01 2.576212e-01 3.839478e-01 4.538210e-01 5.496877e-01 6.081111e-01 5.695377e-01 5.939356e-01 6.059731e-01 5.659602e-01 4.834353e-01 5.660130e-03
<GCONST> 1.098248e+02
<TRANSP> 5
 0.000000e+00 1.000000e+00 0.000000e+00 0.000000e+00 0.000000e+00
 0.000000e+00 5.000000e-01 5.000000e-01 0.000000e+00 0.000000e+00
 0.000000e+00 0.000000e+00 5.000000e-01 5.000000e-01 0.000000e+00
 0.000000e+00 0.000000e+00 0.000000e+00 5.000000e-01 5.000000e-01
 0.000000e+00 0.000000e+00 0.000000e+00 0.000000e+00 0.000000e+00
<ENDHMM>
~h "ai"
<BEGINHMM>
<NUMSTATES> 5
<STATE> 2
<MEAN> 39
