~o
<STREAMINFO> 1 39
<VECSIZE> 39<NULLD><MFCC_E_D_A><DIAGC>
~s "silst"
<NUMMIXES> 3
<MIXTURE> 1 3.497444e-01
<MEAN> 39
 -1.420096e+01 -4.565739e-01 -5.689577e-01 -3.235518e-02 -1.079780e-01 -1.654083e+00 -1.655157e+00 -4.104087e-01 1.641600e+00 2.310069e+00 4.934270e-01 3.043238e-01 1.109986e+01 3.811998e-02 1.354063e-02 5.342607e-02 1.070531e-01 1.093478e-01 7.477291e-02 4.910721e-03 -2.770122e-02 -7.487733e-02 -8.862135e-02 -8.493416e-02 -5.797368e-02 -1.112557e-03 1.043879e-01 1.641841e-01 1.182649e-01 1.966657e-01 1.453509e-01 1.833344e-01 5.911186e-02 4.401731e-03 -3.453666e-02 -1.106110e-01 -1.132465e-01 -9.173889e-02 7.913936e-03
<VARIANCE> 39
 1.874527e+01 3.274578e+01 3.556644e+01 3.680573e+01 3.683913e+01 4.228930e+01 3.861392e+01 3.810172e+01 3.486378e+01 3.292501e+01 3.334093e+01 2.659660e+01 2.470572e+00 1.179331e+00 2.246882e+00 2.378141e+00 3.100590e+00 3.133490e+00 3.608910e+00 3.646316e+00 3.693657e+00 3.464252e+00 3.653699e+00 3.493823e+00 2.873666e+00 1.196475e-01 2.398274e-01 4.699227e-01 5.534419e-01 7.090834e-01 7.363508e-01 8.174412e-01 8.688115e-01 8.475962e-01 8.142065e-01 8.306092e-01 7.938074e-01 6.618866e-01 1.878804e-02
<GCONST> 1.164353e+02
<MIXTURE> 2 3.787298e-01
<MEAN> 39
 -1.295027e+01 -6.504024e-01 -1.200609e+00 1.065108e+00 5.910987e-01 5.028474e-01 -1.437339e+00 -6.280425e-01 1.896902e+00 9.905760e-01 -1.041233e+00 -8.917515e-01 1.044254e+01 1.538834e-02 1.025245e-01 1.055565e-01 1.279740e-01 1.212730e-01 1.893623e-01 2.289867e-01 2.661080e-01 2.753222e-01 2.599765e-01 2.494601e-01 1.571004e-01 7.183951e-04 -2.745897e-02 1.163423e-02 4.905961e-02 -1.841663e-02 -5.862740e-02 -7.976273e-02 -2.280082e-02 3.254798e-02 5.349260e-02 9.422974e-02 1.301740e-01 7.104285e-02 1.311170e-02
<VARIANCE> 39
 3.997979e+00 1.912202e+01 1.736776e+01 1.704053e+01 2.300256e+01 2.557885e+01 2.709945e+01 2.883242e+01 3.517634e+01 3.088235e+01 2.736162e+01 2.255365e+01 5.177189e-01 3.452526e-01 8.030677e-01 1.255588e+00 1.871192e+00 2.430362e+00 2.893521e+00 3.133481e+00 3.345743e+00 3.867479e+00 3.870466e+00 3.283532e+00 2.897327e+00 2.186322e-02 6.835821e-02 1.649944e-01 2.529532e-01 3.934544e-01 5.070928e-01 5.997050e-01 6.696091e-01 7.326686e-01 8.521941e-01 8.609769e-01 7.143020e-01 6.350014e-01 3.477813e-03
<GCONST> 9.705096e+01
<MIXTURE> 3 2.714927e-01
<MEAN> 39
 -1.299877e+01 -6.880972e-01 -9.562018e-01 7.846260e-01 1.210057e-01 7.557112e-02 -1.957010e+00 -9.700267e-01 2.159721e+00 1.209663e+00 -7.879502e-01 -1.050428e+00 1.048367e+01 -1.820344e-01 -2.987151e-01 -3.760576e-01 -4.318655e-01 -4.505759e-01 -3.964249e-01 -4.165315e-01 -4.404830e-01 -3.893171e-01 -3.350106e-01 -2.671053e-01 -1.319738e-01 -8.131922e-02 -6.745101e-02 -5.956310e-02 -3.692337e-02 -4.161571e-02 -4.623976e-02 -7.333673e-02 -2.410852e-02 1.136539e-02 -2.296867e-02 3.495970e-02 5.601462e-02 6.266530e-02 -2.465550e-02
<VARIANCE> 39
 4.170269e+00 1.790357e+01 1.661742e+01 1.668209e+01 2.360538e+01 2.477633e+01 2.631457e+01 2.844187e+01 3.463108e+01 3.013952e+01 2.778234e+01 2.280798e+01 3.873398e-01 3.943301e-01 8.825846e-01 1.366311e+00 2.036319e+00 2.520266e+00 2.939707e+00 3.154482e+00 3.324855e+00 3.607517e+00 3.781277e+00 3.317197e+00 2.869492e+00 1.979250e-02 7.869676e-02 1.853563e-01 2.906140e-01 4.296742e-01 5.415592e-01 6.308322e-01 6.698822e-01 7.482016e-01 8.163930e-01 8.439929e-01 7.339063e-01 6.351012e-01 3.299503e-03
<GCONST> 9.739993e+01
~h "@"
<BEGINHMM>
<NUMSTATES> 5
<STATE> 2
<NUMMIXES> 3
<MIXTURE> 1 2.398153e-01
<MEAN> 39
 3.137800e-01 -2.139755e+00 4.869730e+00 -3.348323e+00 -6.443223e+00 -7.671844e+00 -1.757823e+01 3.254479e+00 7.065993e+00 6.389505e+00 -3.699534e+00 2.468564e+00 2.003289e+01 -2.828890e-01 7.737660e-01 3.547608e-01 1.986374e-01 2.507908e-01 -2.251228e-01 9.300205e-01 5.709171e-02 8.813099e-01 3.566112e-02 -4.140659e-01 3.514697e-01 -1.932299e-02 8.837912e-02 1.209119e-01 4.376311e-03 2.798787e-01 3.126138e-01 4.949479e-01 4.705391e-01 -4.624980e-02 -3.817284e-01 -3.290644e-01 -5.836323e-02 -2.279701e-01 -4.389012e-03
<VARIANCE> 39
 6.044904e+00 2.415754e+01 4.131801e+01 2.632436e+01 3.672940e+01 3.719133e+01 7.238975e+01 3.588154e+01 3.863934e+01 4.183906e+01 3.410897e+01 2.955592e+01 3.605006e-01 4.957829e-01 8.551376e-01 9.128575e-01 1.407005e+00 1.946656e+00 3.051367e+00 3.134445e+00 1.724722e+00 2.576509e+00 2.122376e+00 1.601964e+00 1.371746e+00 3.588950e-03 7.751843e-02 1.853839e-01 1.827790e-01 2.292235e-01 3.130237e-01 4.149370e-01 5.929126e-01 2.991095e-01 4.119660e-01 3.309676e-01 2.983166e-01 2.326831e-01 3.082325e-04
<GCONST> 8.780547e+01
<MIXTURE> 2 5.242398e-01
<MEAN> 39
 1.542409e+00 -1.784837e+00 3.405761e+00 -1.264480e+00 -3.046329e+00 -1.543072e+00 -1.227642e+01 2.591481e+00 2.789279e+00 3.001266e+00 -4.558089e+00 -1.071976e+00 1.986785e+01 2.461921e-01 -5.557711e-01 -2.446297e-01 -3.567230e-01 -3.115919e-01 -1.232241e-01 -9.959260e-01 7.816873e-02 -3.044562e-01 3.949620e-01 3.093747e-01 -5.068200e-02 -3.895374e-04 -1.481011e-01 1.066720e-01 2.875315e-02 -1.441813e-01 -1.041679e-01 -3.638331e-01 -5.698294e-02 -6.321139e-02 3.068503e-01 2.116272e-01 1.106184e-02 1.542481e-01 -1.507661e-02
<VARIANCE> 39
 8.935726e+00 2.644681e+01 3.182645e+01 2.770820e+01 3.689175e+01 3.863583e+01 7.060928e+01 3.252760e+01 2.945245e+01 2.536516e+01 2.921935e+01 2.063671e+01 5.333129e-01 6.662681e-01 9.627296e-01 1.093585e+00 1.642508e+00 2.061347e+00 2.943429e+00 2.876547e+00 2.040184e+00 2.631831e+00 2.385859e+00 1.620158e+00 1.331536e+00 8.514972e-03 1.223311e-01 2.284421e-01 2.291837e-01 3.230150e-01 4.353561e-01 4.873628e-01 8.039893e-01 3.922740e-01 4.573595e-01 4.317527e-01 3.621203e-01 2.731333e-01 7.276013e-04
<GCONST> 9.282302e+01
<MIXTURE> 3 2.359435e-01
<MEAN> 39
 3.940708e-01 -1.240883e+00 5.221239e+00 -2.292383e+00 -6.183290e+00 -7.123414e+00 -1.479828e+01 4.300519e+00 7.244400e+00 4.894062e+00 -4.793469e+00 2.089005e+00 2.012978e+01 -1.063445e-01 4.209931e-01 1.338006e-01 3.559564e-01 5.063285e-01 5.807767e-01 1.043853e+00 -1.647369e-01 -7.106454e-02 -4.054239e-01 -4.078445e-01 -2.552992e-01 -2.611065e-02 5.027855e-02 -8.588172e-02 -4.036945e-02 1.148073e-01 1.647743e-01 3.353745e-01 4.243019e-02 -1.075322e-01 -3.594229e-01 -1.940310e-01 1.123779e-01 -1.956535e-01 -6.884091e-03
<VARIANCE> 39
 6.874167e+00 2.319251e+01 4.034774e+01 2.619440e+01 3.438460e+01 3.228751e+01 6.799809e+01 3.347452e+01 3.887214e+01 3.777866e+01 4.007285e+01 2.998056e+01 3.331619e-01 5.264496e-01 7.654878e-01 8.095613e-01 1.233814e+00 1.663334e+00 2.861916e+00 2.403315e+00 1.720952e+00 2.670301e+00 1.821290e+00 1.647691e+00 1.611162e+00 3.194904e-03 1.142618e-01 2.105683e-01 1.551912e-01 2.307073e-01 2.931973e-01 3.517105e-01 6.434338e-01 2.769481e-01 3.425231e-01 2.990307e-01 3.128316e-01 1.882118e-01 2.730023e-04
<GCONST> 8.624995e+01
<STATE> 3
<NUMMIXES> 3
<MIXTURE> 1 4.773844e-01
<MEAN> 39
 -3.006813e-01 3.262701e+00 5.186688e+00 -4.289385e-01 -1.675789e+00 -3.876411e+00 -1.300708e+01 -2.968113e+00 5.803259e+00 5.464883e+00 -3.320647e+00 1.909327e+00 1.889368e+01 -4.150196e-01 7.238120e-01 3.494751e-01 7.012095e-01 1.271832e+00 6.093699e-01 1.684273e+00 -2.715045e-02 1.098136e-01 -5.168787e-01 -2.616516e-01 -3.614698e-01 -1.364328e-01 1.453928e-01 -1.185858e-02 -2.299661e-02 9.405465e-02 6.006660e-02 2.899134e-01 1.420936e-01 6.826391e-02 -3.708779e-01 -1.749096e-01 -1.717808e-02 -2.632761e-01 5.740268e-03
<VARIANCE> 39
 1.695736e+01 2.431084e+01 2.775223e+01 3.805004e+01 4.580447e+01 5.497549e+01 5.749144e+01 5.998577e+01 4.789140e+01 4.977882e+01 2.758141e+01 2.455100e+01 9.780619e-01 9.767665e-01 1.671065e+00 1.411699e+00 1.998910e+00 2.473742e+00 2.991187e+00 3.516419e+00 2.812047e+00 4.159573e+00 3.644655e+00 2.566366e+00 2.289580e+00 2.217301e-02 1.587802e-01 2.785611e-01 2.770627e-01 4.736636e-01 6.535314e-01 7.136500e-01 9.556321e-01 5.121063e-01 7.331625e-01 7.232422e-01 4.991995e-01 3.851246e-01 1.443477e-03
<GCONST> 1.059606e+02
<MIXTURE> 2 2.799976e-01
<MEAN> 39
 3.591551e+00 6.346519e+00 4.177279e+00 1.425641e+00 1.279357e+00 1.202199e+00 -1.081329e+01 -6.667178e+00 -4.001557e-01 3.122947e+00 -1.616591e+00 -2.376876e+00 1.852391e+01 -1.327543e-01 3.898875e-01 -5.024337e-02 -9.155019e-02 -9.755128e-03 -1.814832e-01 -4.227686e-02 -1.501391e-01 -2.962074e-03 2.565149e-01 3.656916e-01 2.240970e-01 -1.255042e-01 -7.938316e-02 1.039011e-03 4.877711e-02 -5.243729e-02 -6.979938e-02 -1.517550e-01 -4.546971e-02 1.169062e-01 1.884784e-01 1.685126e-01 6.318887e-02 1.728811e-01 -3.665303e-03
<VARIANCE> 39
 1.039693e+01 3.049339e+01 3.103736e+01 3.611575e+01 3.665029e+01 4.098602e+01 3.514412e+01 5.605892e+01 3.452905e+01 3.269841e+01 3.973978e+01 3.301837e+01 1.494619e+00 3.799407e-01 7.485995e-01 1.072327e+00 1.525666e+00 1.940926e+00 2.372602e+00 2.709292e+00 3.077939e+00 2.978555e+00 3.404386e+00 2.842031e+00 2.747671e+00 1.824760e-02 6.329171e-02 1.753775e-01 2.567715e-01 3.595179e-01 4.878002e-01 5.160579e-01 6.099361e-01 6.488025e-01 6.287158e-01 6.895804e-01 6.570686e-01 5.286247e-01 1.132337e-03
<GCONST> 9.935375e+01
<MIXTURE> 3 2.426154e-01
<MEAN> 39
 1.558075e+00 5.246258e+00 4.976115e+00 2.580962e-01 -1.323087e+00 -1.964750e+00 -1.125199e+01 -3.291597e+00 1.804973e+00 4.692645e+00 -3.211854e+00 -8.682153e-01 1.854223e+01 4.569488e-02 -8.166263e-02 -5.324448e-01 -8.353579e-01 -6.666919e-01 -7.674949e-01 -7.724547e-01 -4.896617e-01 -7.091206e-01 2.596778e-01 2.284989e-01 -3.939922e-03 -9.628703e-02 -3.463746e-01 -1.234142e-01 4.857731e-02 9.031387e-02 -1.048037e-02 -2.387349e-01 2.316018e-02 -7.408570e-02 2.020907e-01 -1.106400e-01 -1.500731e-02 2.522133e-01 -3.758086e-02
<VARIANCE> 39
 1.193859e+01 2.551558e+01 2.248537e+01 3.455924e+01 4.400293e+01 4.109131e+01 3.799755e+01 6.019198e+01 4.617410e+01 3.200340e+01 3.806560e+01 2.786023e+01 1.133658e+00 7.916870e-01 7.850651e-01 1.011472e+00 1.434153e+00 2.321705e+00 3.330936e+00 2.670488e+00 2.335035e+00 2.551998e+00 2.938634e+00 2.537278e+00 2.264978e+00 2.214997e-02 1.153055e-01 2.360568e-01 2.643663e-01 4.628968e-01 6.318129e-01 6.566111e-01 7.685608e-01 5.221807e-01 7.556860e-01 6.905650e-01 6.416212e-01 5.146800e-01 1.219994e-03
<GCONST> 1.014384e+02
<STATE> 4
<NUMMIXES> 3
<MIXTURE> 1 2.489872e-01
<MEAN> 39
 -1.227597e+00 6.700192e-01 -6.967914e-01 -6.125162e+00 1.049801e+00 2.486098e+00 -6.830352e+00 -9.033436e-01 5.384387e+00 8.705923e+00 -4.392362e+00 -3.331463e+00 1.852884e+01 -1.112192e-01 4.489045e-01 5.996671e-01 1.253505e+00 7.921567e-01 5.599262e-01 8.959860e-01 -2.869079e-01 -8.528291e-02 -8.734545e-01 -8.014014e-02 1.387944e-01 -3.969516e-02 1.766827e-01 -6.133981e-03 8.591077e-02 1.703871e-01 -1.196940e-03 1.024060e-01 -4.285831e-02 6.021936e-02 -3.792095e-01 -2.486305e-01 5.366924e-02 1.879510e-01 2.500373e-02
<VARIANCE> 39
 1.641087e+01 2.238840e+01 4.650383e+01 1.173803e+02 4.481658e+01 8.719626e+01 7.123883e+01 5.676695e+01 6.632433e+01 7.618937e+01 7.748267e+01 3.433428e+01 2.341777e+00 8.603348e-01 1.192270e+00 1.278737e+00 3.081267e+00 2.244853e+00 3.172581e+00 2.972807e+00 2.569927e+00 3.758202e+00 3.559999e+00 2.431841e+00 2.485060e+00 2.140193e-02 1.855070e-01 2.676969e-01 3.318146e-01 8.459327e-01 5.379813e-01 7.846119e-01 8.118993e-01 6.331763e-01 8.425140e-01 9.773692e-01 7.021233e-01 4.803683e-01 3.460273e-03
<GCONST> 1.132224e+02
<MIXTURE> 2 4.632228e-01
<MEAN> 39
 -1.208951e+00 -1.698302e-01 -1.781738e+00 -3.737023e+00 3.666729e+00 4.296020e+00 -6.163418e+00 -2.521131e-01 2.710550e+00 6.239896e+00 -5.310207e+00 -2.247757e+00 1.783445e+01 4.917356e-02 -2.758720e-01 -4.214894e-01 -9.584925e-01 -5.403502e-01 -3.788452e-01 -6.542717e-01 9.807681e-02 1.625405e-01 8.069767e-01 3.243596e-01 -1.917065e-02 -5.322712e-02 -1.328422e-01 4.803504e-02 2.266422e-02 2.456888e-02 -2.302011e-02 -1.216312e-01 1.096492e-03 -1.168161e-02 3.590710e-01 6.334113e-02 -6.032729e-02 -7.071984e-02 -2.997706e-02
<VARIANCE> 39
 1.437442e+01 3.031016e+01 3.277534e+01 9.373796e+01 5.500067e+01 6.308727e+01 6.703803e+01 3.936895e+01 3.134376e+01 4.871412e+01 3.420667e+01 3.454106e+01 3.846248e+00 8.530879e-01 1.175279e+00 1.523003e+00 2.684558e+00 2.540855e+00 2.639131e+00 2.946177e+00 2.813493e+00 4.068270e+00 3.735010e+00 2.435330e+00 2.821277e+00 5.375533e-02 1.375486e-01 2.889499e-01 3.293206e-01 7.192694e-01 6.100315e-01 5.592235e-01 6.629752e-01 5.881763e-01 7.234969e-01 8.922644e-01 4.897673e-01 6.306437e-01 2.647474e-03
<GCONST> 1.104913e+02
<MIXTURE> 3 2.877909e-01
<MEAN> 39
 -1.479032e+00 6.982569e-01 1.694316e+00 -3.890004e-01 2.230545e+00 1.216319e+00 -5.460838e+00 1.036900e+00 4.982034e+00 4.338318e+00 -5.376195e+00 -2.677616e+00 1.855787e+01 -4.470187e-02 8.210478e-02 9.623674e-02 6.913565e-01 5.676278e-01 4.420568e-01 7.627541e-01 -4.098222e-01 -8.919175e-01 -8.081295e-01 2.166310e-02 -1.512486e-02 -5.798200e-02 8.988366e-02 -1.329772e-01 -7.575997e-02 -1.903459e-01 -2.071888e-01 -9.730629e-02 -3.439023e-01 -1.556613e-02 -2.348070e-01 1.891767e-01 6.588292e-02 1.304190e-01 5.159290e-03
<VARIANCE> 39
 1.444005e+01 2.431284e+01 4.571163e+01 7.177664e+01 6.688246e+01 6.314730e+01 6.507120e+01 4.445492e+01 4.525566e+01 4.881469e+01 5.681082e+01 2.801610e+01 2.199021e+00 7.108520e-01 9.205887e-01 1.235284e+00 2.143866e+00 2.054700e+00 3.169586e+00 2.562886e+00 2.687144e+00 3.171889e+00 3.042435e+00 2.451077e+00 2.505466e+00 1.891327e-02 1.534103e-01 1.920927e-01 2.977366e-01 6.140395e-01 5.202873e-01 6.216272e-01 8.012854e-01 5.623175e-01 5.880069e-01 8.101144e-01 4.711920e-01 3.852954e-01 1.349952e-03
<GCONST> 1.060755e+02
<TRANSP> 5
 0.000000e+00 1.000000e+00 0.000000e+00 0.000000e+00 0.000000e+00
 0.000000e+00 8.707205e-01 1.292795e-01 0.000000e+00 0.000000e+00
 0.000000e+00 0.000000e+00 7.750237e-01 2.249763e-01 0.000000e+00
 0.000000e+00 0.000000e+00 0.000000e+00 7.451537e-01 2.548463e-01
 0.000000e+00 0.000000e+00 0.000000e+00 0.000000e+00 0.000000e+00
<ENDHMM>
~h "Q"
<BEGINHMM>
<NUMSTATES> 5
<STATE> 2
<NUMMIXES> 3
<MIXTURE> 1 2.500000e-01
<MEAN> 39
 -5.146183e+00 3.676811e+00 4.589942e+00 3.437542e+00 1.319498e+00 2.518495e+00 -1.247557e+00 2.806520e+00 3.538080e+00 4.279202e+00 3.395816e+00 2.252771e+00 1.623575e+01 3.211810e-01 4.150136e-01 4.548363e-01 5.489869e-01 5.928327e-01 6.543852e-01 6.869088e-01 6.598891e-01 6.744329e-01 6.804414e-01 6.568441e-01 6.058159e-01 8.122942e-02 1.256665e-01 1.804548e-01 2.030768e-01 2.479132e-01 2.695524e-01 2.966877e-01 3.120722e-01 3.018714e-01 3.082020e-01 3.114626e-01 3.009177e-01 2.781084e-01 3.009682e-02
<VARIANCE> 39
 9.132833e+01 3.750473e+01 5.184167e+01 5.299957e+01 4.542144e+01 5.171822e+01 6.411460e+01 4.173472e+01 3.924054e+01 3.472301e+01 3.778771e+01 3.327573e+01 2.268905e+01 6.444674e-01 1.076510e+00 1.293223e+00 1.883514e+00 2.197024e+00 2.673508e+00 2.949268e+00 2.722457e+00 2.845586e+00 2.895535e+00 2.697424e+00 2.293327e+00 4.128606e-02 9.874837e-02 2.035372e-01 2.576212e-01 3.839478e-01 4.538210e-01 5.496877e-01 6.081111e-01 5.695377e-01 5.939356e-01 6.059731e-01 5.659602e-01 4.834353e-01 5.660130e-03
<GCONST> 1.098248e+02
<MIXTURE> 2 5.000000e-01
<MEAN> 39
 -1.088014e+01 2.344847e-03 2.698728e-01 -9.305059e-01 -2.724228e+00 -1.796428e+00 -6.051853e+00 -1.069625e+00 -2.204554e-01 7.436283e-01 -2.924860e-01 -1.208336e+00 1.337777e+01 -1.604915e-01 -2.075164e-01 -2.274834e-01 -2.744603e-01 -2.965091e-01 -3.266667e-01 -3.434971e-01 -3.301031e-01 -3.376991e-01 -3.405349e-01 -3.285861e-01 -3.028083e-01 -4.068441e-02 -6.287903e-02 -9.023578e-02 -1.014616e-01 -1.238680e-01 -1.346451e-01 -1.481579e-01 -1.558167e-01 -1.509349e-01 -1.542012e-01 -1.556031e-01 -1.504643e-01 -1.390686e-01 -1.504349e-02
<VARIANCE> 39
 9.132833e+01 3.750473e+01 5.184167e+01 5.299957e+01 4.542144e+01 5.171822e+01 6.411460e+01 4.173472e+01 3.924054e+01 3.472301e+01 3.778771e+01 3.327573e+01 2.268905e+01 6.444674e-01 1.076510e+00 1.293223e+00 1.883514e+00 2.197024e+00 2.673508e+00 2.949268e+00 2.722457e+00 2.845586e+00 2.895535e+00 2.697424e+00 2.293327e+00 4.128606e-02 9.874837e-02 2.035372e-01 2.576212e-01 3.839478e-01 4.538210e-01 5.496877e-01 6.081111e-01 5.695377e-01 5.939356e-01 6.059731e-01 5.659602e-01 4.834353e-01 5.660130e-03
<GCONST> 1.098248e+02
<MIXTURE> 3 2.500000e-01
<MEAN> 39
 -8.968818e+00 1.227167e+00 1.709896e+00 5.255100e-01 -1.376319e+00 -3.581207e-01 -4.450421e+00 2.224237e-01 1.032390e+00 1.922153e+00 9.369479e-01 -5.463338e-02 1.433043e+01 6.604195e-05 -6.392598e-06 -4.352629e-05 2.214313e-05 -6.183982e-05 3.505945e-04 -2.846122e-05 -1.056790e-04 -3.217161e-04 -2.094507e-04 -1.093149e-04 6.648898e-05 -4.647300e-05 -3.052503e-05 -5.573034e-06 5.120039e-05 5.906075e-05 8.741021e-05 1.239479e-04 1.462400e-04 5.513430e-07 -6.683171e-05 8.544326e-05 -3.561378e-06 -9.626150e-06 3.281981e-06
<VARIANCE> 39
 9.132833e+01 3.750473e+01 5.184167e+01 5.299957e+01 4.542144e+01 5.171822e+01 6.411460e+01 4.173472e+01 3.924054e+01 3.472301e+01 3.778771e+01 3.327573e+01 2.268905e+01 6.444674e-01 1.076510e+00 1.293223e+00 1.883514e+00 2.197024e+00 2.673508e+00 2.949268e+00 2.722457e+00 2.845586e+00 2.895535e+00 2.697424e+00 2.293327e+00 4.128606e-02 9.874837e-02 2.035372e-01 2.576212e-01 3.839478e-01 4.538210e-01 5.496877e-01 6.081111e-01 5.695377e-01 5.939356e-01 6.059731e-01 5.659602e-01 4.834353e-01 5.660130e-03
<GCONST> 1.098248e+02
<STATE> 3
<NUMMIXES> 3
<MIXTURE> 1 2.500000e-01
<MEAN> 39
 -5.146183e+00 3.676811e+00 4.589942e+00 3.437542e+00 1.319498e+00 2.518495e+00 -1.247557e+00 2.806520e+00 3.538080e+00 4.279202e+00 3.395816e+00 2.252771e+00 1.623575e+01 3.211810e-01 4.150136e-01 4.548363e-01 5.489869e-01 5.928327e-01 6.543852e-01 6.869088e-01 6.598891e-01 6.744329e-01 6.804414e-01 6.568441e-01 6.058159e-01 8.122942e-02 1.256665e-01 1.804548e-01 2.030768e-01 2.479132e-01 2.695524e-01 2.966877e-01 3.120722e-01 3.018714e-01 3.082020e-01 3.114626e-01 3.009177e-01 2.781084e-01 3.009682e-02
<VARIANCE> 39
 9.132833e+01 3.750473e+01 5.184167e+01 5.299957e+01 4.542144e+01 5.171822e+01 6.411460e+01 4.173472e+01 3.924054e+01 3.472301e+01 3.778771e+01 3.327573e+01 2.268905e+01 6.444674e-01 1.076510e+00 1.293223e+00 1.883514e+00 2.197024e+00 2.673508e+00 2.949268e+00 2.722457e+00 2.845586e+00 2.895535e+00 2.697424e+00 2.293327e+00 4.128606e-02 9.874837e-02 2.035372e-01 2.576212e-01 3.839478e-01 4.538210e-01 5.496877e-01 6.081111e-01 5.695377e-01 5.939356e-01 6.059731e-01 5.659602e-01 4.834353e-01 5.660130e-03
<GCONST> 1.098248e+02
<MIXTURE> 2 5.000000e-01
<MEAN> 39
 -1.088014e+01 2.344847e-03 2.698728e-01 -9.305059e-01 -2.724228e+00 -1.796428e+00 -6.051853e+00 -1.069625e+00 -2.204554e-01 7.436283e-01 -2.924860e-01 -1.208336e+00 1.337777e+01 -1.604915e-01 -2.075164e-01 -2.274834e-01 -2.744603e-01 -2.965091e-01 -3.266667e-01 -3.434971e-01 -3.301031e-01 -3.376991e-01 -3.405349e-01 -3.285861e-01 -3.028083e-01 -4.068441e-02 -6.287903e-02 -9.023578e-02 -1.014616e-01 -1.238680e-01 -1.346451e-01 -1.481579e-01 -1.558167e-01 -1.509349e-01 -1.542012e-01 -1.556031e-01 -1.504643e-01 -1.390686e-01 -1.504349e-02
<VARIANCE> 39
 9.132833e+01 3.750473e+01 5.184167e+01 5.299957e+01 4.542144e+01 5.171822e+01 6.411460e+01 4.173472e+01 3.924054e+01 3.472301e+01 3.778771e+01 3.327573e+01 2.268905e+01 6.444674e-01 1.076510e+00 1.293223e+00 1.883514e+00 2.197024e+00 2.673508e+00 2.949268e+00 2.722457e+00 2.845586e+00 2.895535e+00 2.697424e+00 2.293327e+00 4.128606e-02 9.874837e-02 2.035372e-01 2.576212e-01 3.839478e-01 4.538210e-01 5.496877e-01 6.081111e-01 5.695377e-01 5.939356e-01 6.059731e-01 5.659602e-01 4.834353e-01 5.660130e-03
<GCONST> 1.098248e+02
<MIXTURE> 3 2.500000e-01
<MEAN> 39
 -8.968818e+00 1.227167e+00 1.709896e+00 5.255100e-01 -1.376319e+00 -3.581207e-01 -4.450421e+00 2.224237e-01 1.032390e+00 1.922153e+00 9.369479e-01 -5.463338e-02 1.433043e+01 6.604195e-05 -6.392598e-06 -4.352629e-05 2.214313e-05 -6.183982e-05 3.505945e-04 -2.846122e-05 -1.056790e-04 -3.217161e-04 -2.094507e-04 -1.093149e-04 6.648898e-05 -4.647300e-05 -3.052503e-05 -5.573034e-06 5.120039e-05 5.906075e-05 8.741021e-05 1.239479e-04 1.462400e-04 5.513430e-07 -6.683171e-05 8.544326e-05 -3.561378e-06 -9.626150e-06 3.281981e-06
<VARIANCE> 39
 9.132833e+01 3.750473e+01 5.184167e+01 5.299957e+01 4.542144e+01 5.171822e+01 6.411460e+01 4.173472e+01 3.924054e+01 3.472301e+01 3.778771e+01 3.327573e+01 2.268905e+01 6.444674e-01 1.076510e+00 1.293223e+00 1.883514e+00 2.197024e+00 2.673508e+00 2.949268e+00 2.722457e+00 2.845586e+00 2.895535e+00 2.697424e+00 2.293327e+00 4.128606e-02 9.874837e-02 2.035372e-01 2.576212e-01 3.839478e-01 4.538210e-01 5.496877e-01 6.081111e-01 5.695377e-01 5.939356e-01 6.059731e-01 5.659602e-01 4.834353e-01 5.660130e-03
<GCONST> 1.098248e+02
<STATE> 4
<NUMMIXES> 3
<MIXTURE> 1 2.500000e-01
<MEAN> 39
 -5.146183e+00 3.676811e+00 4.589942e+00 3.437542e+00 1.319498e+00 2.518495e+00 -1.247557e+00 2.806520e+00 3.538080e+00 4.279202e+00 3.395816e+00 2.252771e+00 1.623575e+01 3.211810e-01 4.150136e-01 4.548363e-01 5.489869e-01 5.928327e-01 6.543852e-01 6.869088e-01 6.598891e-01 6.744329e-01 6.804414e-01 6.568441e-01 6.058159e-01 8.122942e-02 1.256665e-01 1.804548e-01 2.030768e-01 2.479132e-01 2.695524e-01 2.966877e-01 3.120722e-01 3.018714e-01 3.082020e-01 3.114626e-01 3.009177e-01 2.781084e-01 3.009682e-02
<VARIANCE> 39
 9.132833e+01 3.750473e+01 5.184167e+01 5.299957e+01 4.542144e+01 5.171822e+01 6.411460e+01 4.173472e+01 3.924054e+01 3.472301e+01 3.778771e+01 3.327573e+01 2.268905e+01 6.444674e-01 1.076510e+00 1.293223e+00 1.883514e+00 2.197024e+00 2.673508e+00 2.949268e+00 2.722457e+00 2.845586e+00 2.895535e+00 2.697424e+00 2.293327e+00 4.128606e-02 9.874837e-02 2.035372e-01 2.576212e-01 3.839478e-01 4.538210e-01 5.496877e-01 6.081111e-01 5.695377e-01 5.939356e-01 6.059731e-01 5.659602e-01 4.834353e-01 5.660130e-03
<GCONST> 1.098248e+02
<MIXTURE> 2 5.000000e-01
<MEAN> 39
 -1.088014e+01 2.344847e-03 2.698728e-01 -9.305059e-01 -2.724228e+00 -1.796428e+00 -6.051853e+00 -1.069625e+00 -2.204554e-01 7.436283e-01 -2.924860e-01 -1.208336e+00 1.337777e+01 -1.604915e-01 -2.075164e-01 -2.274834e-01 -2.744603e-01 -2.965091e-01 -3.266667e-01 -3.434971e-01 -3.301031e-01 -3.376991e-01 -3.405349e-01 -3.285861e-01 -3.028083e-01 -4.068441e-02 -6.287903e-02 -9.023578e-02 -1.014616e-01 -1.238680e-01 -1.346451e-01 -1.481579e-01 -1.558167e-01 -1.509349e-01 -1.542012e-01 -1.556031e-01 -1.504643e-01 -1.390686e-01 -1.504349e-02
<VARIANCE> 39
 9.132833e+01 3.750473e+01 5.184167e+01 5.299957e+01 4.542144e+01 5.171822e+01 6.411460e+01 4.173472e+01 3.924054e+01 3.472301e+01 3.778771e+01 3.327573e+01 2.268905e+01 6.444674e-01 1.076510e+00 1.293223e+00 1.883514e+00 2.197024e+00 2.673508e+00 2.949268e+00 2.722457e+00 2.845586e+00 2.895535e+00 2.697424e+00 2.293327e+00 4.128606e-02 9.874837e-02 2.035372e-01 2.576212e-01 3.839478e-01 4.538210e-01 5.496877e-01 6.081111e-01 5.695377e-01 5.939356e-01 6.059731e-01 5.659602e-01 4.834353e-01 5.660130e-03
<GCONST> 1.098248e+02
<MIXTURE> 3 2.500000e-01
<MEAN> 39
 -8.968818e+00 1.227167e+00 1.709896e+00 5.255100e-01 -1.376319e+00 -3.581207e-01 -4.450421e+00 2.224237e-01 1.032390e+00 1.922153e+00 9.369479e-01 -5.463338e-02 1.433043e+01 6.604195e-05 -6.392598e-06 -4.352629e-05 2.214313e-05 -6.183982e-05 3.505945e-04 -2.846122e-05 -1.056790e-04 -3.217161e-04 -2.094507e-04 -1.093149e-04 6.648898e-05 -4.647300e-05 -3.052503e-05 -5.573034e-06 5.120039e-05 5.906075e-05 8.741021e-05 1.239479e-04 1.462400e-04 5.513430e-07 -6.683171e-05 8.544326e-05 -3.561378e-06 -9.626150e-06 3.281981e-06
<VARIANCE> 39
 9.132833e+01 3.750473e+01 5.184167e+01 5.299957e+01 4.542144e+01 5.171822e+01 6.411460e+01 4.173472e+01 3.924054e+01 3.472301e+01 3.778771e+01 3.327573e+01 2.268905e+01 6.444674e-01 1.076510e+00 1.293223e+00 1.883514e+00 2.197024e+00 2.673508e+00 2.949268e+00 2.722457e+00 2.845586e+00 2.895535e+00 2.697424e+00 2.293327e+00 4.128606e-02 9.874837e-02 2.035372e-01 2.576212e-01 3.839478e-01 4.538210e-01 5.496877e-01 6.081111e-01 5.695377e-01 5.939356e-01 6.059731e-01 5.659602e-01 4.834353e-01 5.660130e-03
<GCONST> 1.098248e+02
<TRANSP> 5
 0.000000e+00 1.000000e+00 0.000000e+00 0.000000e+00 0.000000e+00
 0.000000e+00 5.000000e-01 5.000000e-01 0.000000e+00 0.000000e+00
 0.000000e+00 0.000000e+00 5.000000e-01 5.000000e-01 0.000000e+00
 0.000000e+00 0.000000e+00 0.000000e+00 5.000000e-01 5.000000e-01
 0.000000e+00 0.000000e+00 0.000000e+00 0.000000e+00 0.000000e+00
<ENDHMM>
~h "a"
<BEGINHMM>
<NUMSTATES> 5
<STATE> 2
<NUMMIXES> 3
<MIXTURE> 1 2.529860e-01
<MEAN> 39
 -4.630476e+00 -7.562913e+00 -4.883321e-01 -3.384703e+00 -7.715602e+00 -2.534335e+00 -3.604665e+00 1.143126e+01 5.788911e+00 3.729531e+00 -5.854490e+00 -3.990573e+00 1.806202e+01 8.424447e-02 9.991931e-01 7.838092e-02 1.013603e+00 3.412785e-01 -5.880396e-02 1.100943e+00 -5.772429e-01 2.422719e-01 -3.117457e-01 -2.262798e-01 4.850702e-01 1.677547e-02 1.698048e-01 -2.671687e-02 -5.409579e-02 1.143498e-01 1.131485e-01 3.979556e-01 -6.041474e-02 -3.901571e-01 -3.378974e-01 -1.735035e-01 2.883529e-01 1.234245e-01 1.924215e-02
<VARIANCE> 39
 2.347010e+01 3.134874e+01 7.001875e+01 5.719402e+01 5.580054e+01 8.904195e+01 5.896926e+01 6.531583e+01 4.629947e+01 4.466230e+01 5.847631e+01 6.595735e+01 3.620417e+00 1.351276e+00 1.730695e+00 1.819102e+00 2.202792e+00 2.425247e+00 3.194415e+00 3.597008e+00 2.964773e+00 3.415841e+00 2.026136e+00 2.808446e+00 2.332872e+00 1.137705e-01 1.941732e-01 4.887625e-01 3.200988e-01 7.823046e-01 5.596811e-01 7.250049e-01 8.349223e-01 7.726849e-01 6.319063e-01 4.808230e-01 6.685488e-01 5.938017e-01 1.207160e-02
<GCONST> 1.171997e+02
<MIXTURE> 2 4.982584e-01
<MEAN> 39
 -1.630670e+00 -7.920654e+00 -5.614772e-01 -2.566414e+00 -6.835128e+00 1.285310e+00 -5.372133e+00 8.198359e+00 2.043339e+00 1.456486e+00 -2.803061e+00 -3.728390e+00 1.882177e+01 3.927377e-01 -1.139250e+00 -1.209932e-01 -1.105306e+00 -6.210401e-01 -1.056807e-01 -7.911135e-01 1.099458e+00 2.855194e-01 2.851737e-01 4.523775e-02 -6.321984e-01 1.949117e-01 -1.574021e-01 1.527191e-01 -4.966418e-02 3.004115e-02 -2.988646e-02 -2.499952e-01 2.471475e-01 1.242619e-01 3.440074e-01 8.678748e-02 -2.599051e-01 -3.258507e-02 -4.692197e-02
<VARIANCE> 39
 1.717318e+01 4.096905e+01 5.011700e+01 3.666561e+01 3.087765e+01 4.626950e+01 4.671378e+01 4.342382e+01 2.720900e+01 2.380544e+01 2.637723e+01 3.580878e+01 1.829876e+00 1.087945e+00 2.369061e+00 1.731573e+00 2.425268e+00 2.024182e+00 2.896893e+00 2.649209e+00 3.015715e+00 3.335958e+00 2.105758e+00 3.164175e+00 2.318245e+00 8.048423e-02 1.645208e-01 6.129695e-01 3.111607e-01 6.426630e-01 4.150208e-01 5.389162e-01 6.258021e-01 6.633432e-01 6.084020e-01 4.264988e-01 5.510362e-01 4.809463e-01 8.950957e-03
<GCONST> 1.085351e+02
<MIXTURE> 3 2.487573e-01
<MEAN> 39
 -5.540865e+00 -7.225435e+00 -3.375914e+00 -2.917091e+00 -6.805068e+00 -3.129879e-01 -1.963158e+00 9.058141e+00 6.926469e+00 3.808211e+00 -6.271653e+00 -2.861998e+00 1.768910e+01 -5.842260e-02 3.428969e-01 -1.244744e-01 8.536701e-01 4.787456e-01 6.021512e-01 5.421051e-01 -6.813749e-01 -6.404348e-01 -6.154492e-01 2.385732e-01 1.446869e-01 -2.326398e-02 8.457828e-02 -2.208348e-01 1.028337e-01 -9.585752e-02 3.066996e-02 1.009943e-01 -3.651429e-01 -6.733638e-02 -3.887197e-01 -6.782023e-02 2.563272e-01 -8.344702e-02 3.382630e-02
<VARIANCE> 39
 3.598081e+01 2.731258e+01 6.461987e+01 4.633485e+01 5.268275e+01 8.477391e+01 5.274041e+01 7.994322e+01 4.607191e+01 3.529836e+01 5.341844e+01 6.537742e+01 4.226441e+00 9.545024e-01 1.523225e+00 1.732980e+00 2.208742e+00 2.026320e+00 3.248291e+00 3.604652e+00 4.204463e+00 3.403081e+00 2.179633e+00 3.393794e+00 2.548186e+00 6.245733e-02 1.724171e-01 4.272768e-01 3.310901e-01 6.191881e-01 4.893280e-01 6.357400e-01 7.707099e-01 9.252831e-01 6.566260e-01 4.410284e-01 6.751159e-01 5.653377e-01 9.844406e-03
<GCONST> 1.155018e+02
<STATE> 3
<NUMMIXES> 3
<MIXTURE> 1 4.808037e-01
<MEAN> 39
 2.061119e+00 -1.203875e+01 -1.081568e+01 -1.591991e+00 -5.402427e+00 5.824748e+00 -3.347071e+00 6.681723e+00 8.838737e+00 2.113780e+00 -5.876101e+00 -1.415213e+01 2.066620e+01 -1.920966e-01 6.987648e-01 2.117074e-01 3.761696e-01 3.863126e-01 1.625865e-02 5.512477e-01 -1.547890e-01 3.007776e-02 -2.694885e-01 -4.374080e-01 1.921488e-01 8.732168e-03 4.607182e-02 7.787645e-02 1.225907e-01 1.288330e-01 5.453288e-03 1.050412e-02 -4.935965e-02 -1.958505e-01 -2.800366e-01 -1.291989e-01 2.015918e-01 2.691373e-01 -2.907092e-03
<VARIANCE> 39
 4.558537e+00 2.246982e+01 1.667751e+01 2.588866e+01 1.814643e+01 2.966852e+01 3.758017e+01 4.532001e+01 2.177112e+01 3.398905e+01 2.835260e+01 3.035395e+01 3.703428e-01 3.527943e-01 5.737961e-01 6.513621e-01 8.761355e-01 8.640294e-01 9.629638e-01 1.276862e+00 1.524445e+00 1.822232e+00 1.373079e+00 1.267909e+00 1.428812e+00 1.966516e-03 5.527915e-02 1.577477e-01 1.109303e-01 1.564820e-01 1.695356e-01 1.715134e-01 2.343625e-01 2.128586e-01 2.356338e-01 2.267276e-01 2.193060e-01 1.886621e-01 1.783922e-04
<GCONST> 7.200001e+01
<MIXTURE> 2 2.667009e-01
<MEAN> 39
 1.778058e+00 -9.602771e+00 -8.053719e+00 1.810134e+00 -4.883898e+00 4.577854e+00 -2.001933e+00 2.887572e+00 3.356352e+00 -1.572105e+00 -3.386903e+00 -8.771802e+00 2.036952e+01 2.403201e-01 -3.301082e-01 -6.149418e-02 4.847320e-03 -2.628796e-01 8.057801e-02 -3.785143e-01 -1.860808e-01 -3.803467e-01 7.124282e-02 5.063348e-01 1.028994e-01 7.993194e-03 5.224631e-02 -1.552684e-01 -9.306387e-02 -1.995911e-01 -7.857391e-02 -2.813091e-02 -1.627957e-01 2.169081e-01 1.795767e-01 2.029905e-01 -2.933597e-02 -2.018397e-01 -9.351873e-04
<VARIANCE> 39
 8.465693e+00 1.830522e+01 2.953431e+01 2.681317e+01 1.706553e+01 2.512945e+01 3.809758e+01 2.928443e+01 1.547350e+01 2.237992e+01 1.621272e+01 1.832501e+01 4.732513e-01 3.656269e-01 6.514827e-01 8.653581e-01 1.161170e+00 8.891858e-01 1.270730e+00 1.425865e+00 1.959185e+00 2.082371e+00 1.669327e+00 1.446088e+00 1.699993e+00 3.076562e-03 9.392510e-02 1.748829e-01 1.651962e-01 2.020995e-01 2.089283e-01 2.214705e-01 2.993126e-01 2.509931e-01 2.454273e-01 2.318565e-01 2.293460e-01 2.214368e-01 2.715098e-04
<GCONST> 7.611909e+01
<MIXTURE> 3 2.524970e-01
<MEAN> 39
 3.308626e+00 -1.162501e+01 -1.008116e+01 1.749761e+00 -6.402895e+00 5.395943e+00 -3.256295e+00 2.098655e+00 3.505910e+00 -2.030947e+00 -8.188488e-01 -1.095268e+01 2.035525e+01 2.206268e-01 -1.014447e+00 -4.789206e-01 -6.932855e-01 -6.337452e-01 -1.295738e-01 -6.435693e-01 4.658354e-01 3.239815e-01 5.422156e-01 2.280970e-01 -5.375366e-01 -1.936803e-03 -1.833076e-01 8.967119e-02 -2.748843e-03 -1.133151e-01 9.804897e-02 -5.899608e-02 1.984186e-01 1.912442e-01 2.992623e-01 1.197262e-01 -3.621579e-01 -1.567239e-01 -3.164300e-03
<VARIANCE> 39
 3.521450e+00 1.807107e+01 1.830565e+01 2.208282e+01 1.550828e+01 2.241573e+01 2.650269e+01 2.778184e+01 1.594131e+01 1.929280e+01 1.661602e+01 1.824735e+01 3.653690e-01 4.774089e-01 7.086736e-01 9.036815e-01 9.379203e-01 8.364761e-01 1.179450e+00 1.296572e+00 1.664784e+00 1.760472e+00 1.434743e+00 1.770786e+00 1.499078e+00 1.768456e-03 7.067547e-02 1.662790e-01 1.704239e-01 1.995831e-01 2.128304e-01 2.131338e-01 3.232324e-01 3.306640e-01 3.049656e-01 3.143916e-01 2.441972e-01 2.491236e-01 2.009615e-04
<GCONST> 7.298281e+01
<STATE> 4
<NUMMIXES> 3
<MIXTURE> 1 2.385214e-01
<MEAN> 39
 5.017401e-01 -9.403021e+00 2.786979e+00 -3.151799e+00 -1.084198e+01 -5.786434e+00 -5.137307e+00 1.428697e+01 2.604964e+00 3.931409e+00 -2.752608e+00 -3.922771e+00 2.009845e+01 -7.919902e-02 9.170112e-01 2.623581e-01 3.484811e-01 2.877432e-01 -3.525541e-01 6.405828e-01 -6.290281e-03 5.653247e-01 -4.370401e-02 -6.071833e-01 1.721610e-01 1.765353e-02 4.404784e-02 1.396388e-01 2.330133e-02 2.659774e-01 2.442246e-01 3.309357e-01 1.582960e-01 -3.668279e-01 -2.009002e-01 -1.934189e-01 -6.832521e-03 -5.313129e-02 -1.470771e-03
<VARIANCE> 39
 4.094148e+00 1.969351e+01 3.240218e+01 1.847868e+01 2.153855e+01 2.579713e+01 4.945237e+01 2.588607e+01 4.069157e+01 2.231787e+01 2.720789e+01 2.470946e+01 2.929273e-01 3.590928e-01 6.160178e-01 7.999130e-01 1.078785e+00 1.264684e+00 1.683119e+00 1.392348e+00 2.040622e+00 1.552613e+00 1.248426e+00 1.140415e+00 1.019883e+00 2.174790e-03 5.075184e-02 1.591679e-01 1.186526e-01 1.677968e-01 2.679396e-01 3.076233e-01 2.688383e-01 2.846618e-01 2.837302e-01 2.131910e-01 2.514543e-01 1.907119e-01 1.968478e-04
<GCONST> 7.467973e+01
<MIXTURE> 2 5.193296e-01
<MEAN> 39
 1.210462e+00 -8.074656e+00 1.827364e+00 4.072185e-01 -8.342258e+00 -1.375305e+00 -3.223538e+00 9.145670e+00 -8.488886e-01 1.918369e-01 -2.530822e+00 -5.116949e+00 2.012765e+01 1.202417e-01 -4.539638e-01 6.821361e-02 -2.545553e-01 -1.611939e-01 -1.449768e-01 -6.955050e-01 2.153035e-02 -5.774529e-01 4.058073e-01 5.090212e-01 1.296339e-01 -6.852115e-03 -3.760844e-02 -3.240537e-02 -1.085496e-02 -1.566342e-01 -1.188740e-01 -2.490346e-01 -5.041744e-02 2.114925e-01 2.084559e-01 1.668052e-01 -3.752601e-02 4.474752e-02 -3.855539e-03
<VARIANCE> 39
 5.014761e+00 1.695155e+01 3.122917e+01 1.943227e+01 1.938823e+01 1.657238e+01 4.102885e+01 1.768840e+01 2.654182e+01 1.525550e+01 1.973298e+01 1.530025e+01 2.716493e-01 3.526307e-01 8.077404e-01 7.865236e-01 1.154900e+00 1.443670e+00 2.130125e+00 1.340522e+00 2.010653e+00 1.753404e+00 1.492668e+00 1.192839e+00 1.148221e+00 2.501716e-03 8.130524e-02 1.773230e-01 1.650666e-01 2.106019e-01 2.409494e-01 2.820495e-01 3.424394e-01 2.919228e-01 3.003126e-01 2.434829e-01 2.658858e-01 1.941493e-01 2.161459e-04
<GCONST> 7.473792e+01
<MIXTURE> 3 2.421450e-01
<MEAN> 39
 6.394246e-01 -8.745302e+00 1.001982e+00 -2.358772e+00 -1.013466e+01 -5.782539e+00 -5.137803e+00 1.412941e+01 4.560805e+00 3.793546e+00 -4.542920e+00 -4.399798e+00 2.030501e+01 -1.380756e-01 7.115645e-01 3.527576e-01 2.177091e-01 3.243640e-01 -2.640863e-02 3.638641e-01 -1.858435e-01 4.855368e-02 -2.148471e-01 -3.541455e-01 2.188505e-02 -2.037882e-03 1.459586e-02 5.017471e-02 2.230470e-02 1.509723e-01 1.551873e-01 2.339875e-01 -9.086334e-03 -2.781295e-01 -2.484468e-01 -1.523318e-01 1.191691e-01 -4.675662e-02 -7.972961e-03
<VARIANCE> 39
 6.260665e+00 2.210289e+01 3.456633e+01 2.109553e+01 2.069190e+01 2.646067e+01 4.965178e+01 2.715913e+01 4.627790e+01 2.498842e+01 3.138938e+01 2.445246e+01 2.437522e-01 3.933078e-01 6.825003e-01 8.056204e-01 1.047740e+00 1.126253e+00 1.491588e+00 1.410130e+00 2.035575e+00 2.124265e+00 1.198179e+00 1.078535e+00 8.679918e-01 2.956542e-03 6.174825e-02 1.875555e-01 1.129572e-01 1.481320e-01 1.869224e-01 2.183991e-01 2.422206e-01 2.321433e-01 2.688262e-01 1.985583e-01 2.293987e-01 1.566533e-01 2.114337e-04
<GCONST> 7.478547e+01
<TRANSP> 5
 0.000000e+00 1.000000e+00 0.000000e+00 0.000000e+00 0.000000e+00
 0.000000e+00 9.202847e-01 7.971523e-02 0.000000e+00 0.000000e+00
 0.000000e+00 0.000000e+00 9.486787e-01 5.132125e-02 0.000000e+00
 0.000000e+00 0.000000e+00 0.000000e+00 9.396248e-01 6.037509e-02
 0.000000e+00 0.000000e+00 0.000000e+00 0.000000e+00 0.000000e+00
<ENDHMM>
~h "b"
<BEGINHMM>
<NUMSTATES> 5
<STATE> 2
<NUMMIXES> 3
<MIXTURE> 1 4.364071e-01
<MEAN> 39
 -3.133092e+00 -2.055074e+00 4.660907e-01 1.213755e+00 3.154689e+00 1.495489e+00 -6.618729e+00 -6.859216e+00 2.061419e+00 4.842144e+00 3.677960e+00 4.330089e-01 1.730179e+01 2.740438e+00 2.459710e+00 1.147735e+00 -1.463417e-01 -2.468859e-02 2.739972e+00 9.204683e-01 4.089920e-01 -8.858988e-01 1.534963e-01 -1.178065e+00 2.719162e-01 4.072761e-01 1.563622e-01 1.583952e-01 -1.815143e-01 -5.895900e-01 -6.985056e-01 2.451743e-01 1.467658e-01 5.612521e-01 -2.730262e-01 -2.780356e-01 -2.938363e-01 1.121068e-01 6.926554e-02
<VARIANCE> 39
 8.602364e+00 1.369429e+01 1.802674e+01 2.433108e+01 2.734057e+01 6.328254e+01 2.596241e+01 3.071126e+01 3.058234e+01 3.208902e+01 3.039605e+01 2.083489e+01 5.127875e-01 1.026394e+00 1.503180e+00 2.590338e+00 3.517684e+00 2.789699e+00 6.331312e+00 3.851249e+00 4.080018e+00 2.460648e+00 3.604541e+00 3.277321e+00 2.426243e+00 4.967451e-02 1.935813e-01 3.243635e-01 3.423082e-01 4.542306e-01 3.850909e-01 1.103032e+00 5.221323e-01 4.081519e-01 6.466736e-01 5.525004e-01 5.877848e-01 3.798964e-01 3.704623e-03
<GCONST> 1.037040e+02
<MIXTURE> 2 2.853285e-01
<MEAN> 39
 -7.711716e+00 -3.761947e+00 9.194540e+00 8.772860e+00 3.038605e+00 -2.047033e+00 -3.881060e+00 -2.573468e-01 -6.168723e-01 -3.372736e+00 -1.369651e+00 -1.439414e+00 1.763740e+01 2.084088e+00 1.205121e+00 1.971620e+00 4.391131e-01 -4.295185e-01 7.339424e-01 -1.935957e-01 5.331884e-01 -1.007965e+00 -3.306684e-01 -1.989933e-01 3.700792e-01 4.568420e-01 4.292125e-01 5.430628e-02 -3.908161e-01 -7.709142e-01 -8.822614e-01 -2.434994e-01 -4.805105e-01 -9.279334e-02 8.782709e-02 5.186312e-01 4.295804e-01 5.115441e-01 6.372609e-02
<VARIANCE> 39
 2.263836e+01 1.138369e+01 5.097241e+01 6.316702e+01 5.126692e+01 5.586319e+01 1.893408e+01 3.955910e+01 2.944852e+01 3.583776e+01 1.267206e+01 1.811902e+01 1.277897e+00 1.379040e+00 1.094922e+00 2.754027e+00 4.299493e+00 7.647218e+00 3.621663e+00 2.404978e+00 3.375768e+00 3.052921e+00 4.381720e+00 2.506193e+00 2.636841e+00 8.925097e-02 2.239955e-01 2.308233e-01 3.887006e-01 7.065433e-01 1.022693e+00 5.941267e-01 4.999216e-01 6.527693e-01 6.915549e-01 8.587492e-01 4.176149e-01 4.138752e-01 1.161966e-02
<GCONST> 1.102885e+02
<MIXTURE> 3 2.782647e-01
<MEAN> 39
 -4.898582e+00 -2.596356e+00 4.180520e+00 5.426506e+00 4.251056e+00 9.151157e-01 -4.258859e+00 -1.366068e+00 5.234116e-01 6.188042e-01 2.098586e-01 -3.382449e+00 1.756789e+01 1.355622e+00 7.350183e-01 1.094320e+00 6.833127e-01 -1.220570e-03 1.751995e-01 -1.487774e-01 1.181642e-01 -8.964722e-01 -5.031546e-01 -7.176964e-01 -1.396309e-01 2.452474e-01 2.452901e-01 -1.017735e-01 -2.963909e-01 -5.504368e-01 -7.373547e-01 -2.866261e-01 -5.957947e-01 -2.012305e-01 -2.120123e-01 1.127556e-01 1.423430e-01 5.098425e-01 4.887061e-02
<VARIANCE> 39
 5.239751e+01 2.508696e+01 3.338026e+01 4.505068e+01 2.977628e+01 3.993922e+01 2.000275e+01 4.616829e+01 3.536685e+01 3.061276e+01 2.587657e+01 2.905957e+01 2.414222e+00 2.118918e+00 1.384023e+00 2.804505e+00 3.446032e+00 3.998765e+00 3.509512e+00 5.990218e+00 3.120528e+00 3.278099e+00 3.048652e+00 2.359696e+00 3.941658e+00 1.366437e-01 2.634659e-01 3.252615e-01 4.722295e-01 5.784143e-01 5.688723e-01 7.710912e-01 4.289946e-01 6.305065e-01 5.475924e-01 7.291711e-01 6.373131e-01 6.934682e-01 1.729701e-02
<GCONST> 1.143522e+02
<STATE> 3
<NUMMIXES> 3
<MIXTURE> 1 2.251091e-01
<MEAN> 39
 1.084806e+00 3.443484e+00 2.860566e+00 -7.806148e-02 1.477862e+00 3.900304e+00 -4.266872e+00 -4.234287e+00 -1.278999e+00 1.291817e+00 6.389664e-02 1.979477e+00 1.851386e+01 2.401450e+00 1.475809e+00 -2.880132e-01 -1.800520e+00 -1.616285e+00 1.080374e+00 -4.322655e-01 4.739079e-01 -6.662886e-01 4.437576e-01 -3.665531e-01 7.754307e-01 4.331596e-01 -2.730998e-01 -5.896126e-01 -6.259995e-01 -3.695330e-01 -3.230921e-01 -2.154552e-01 -5.182334e-01 -7.631300e-02 1.837932e-01 3.999863e-01 3.955269e-01 -1.680611e-02 -1.957480e-02
<VARIANCE> 39
 8.167538e+00 1.219877e+01 4.308343e+01 3.597170e+01 2.094080e+01 7.200037e+01 2.454334e+01 2.767028e+01 4.034486e+01 3.829236e+01 4.101911e+01 2.432078e+01 5.089051e-01 1.572484e+00 1.945366e+00 2.274096e+00 3.097893e+00 4.028411e+00 4.801449e+00 3.532727e+00 2.284160e+00 3.591600e+00 3.907655e+00 2.526301e+00 2.002578e+00 5.724241e-02 9.601552e-02 2.171205e-01 2.576678e-01 2.715353e-01 3.505032e-01 8.159748e-01 4.837624e-01 4.682742e-01 6.025295e-01 6.044536e-01 6.092920e-01 3.873281e-01 3.414321e-03
<GCONST> 1.031587e+02
<MIXTURE> 2 5.255232e-01
<MEAN> 39
 4.742993e+00 -4.618658e-01 -8.549445e-02 -5.169104e+00 -4.477997e+00 5.424189e+00 -8.744183e+00 -4.279929e+00 -9.755588e-01 5.093891e+00 6.553998e-01 2.047913e+00 1.937804e+01 1.165657e+00 -4.940521e-01 -9.719250e-01 -1.930969e+00 -1.436995e+00 6.138529e-01 -1.957519e+00 1.502642e-01 -4.092481e-03 1.360080e+00 8.331777e-01 8.308876e-01 3.424995e-01 -6.639457e-01 -1.996514e-01 3.206862e-02 4.068539e-01 3.376052e-01 -3.991771e-01 7.502269e-02 1.128176e-02 2.409970e-01 -1.847990e-01 3.754254e-02 -2.107291e-01 -8.895517e-02
<VARIANCE> 39
 2.255758e+01 3.087240e+01 7.219707e+01 7.555843e+01 2.504577e+01 6.789690e+01 2.692931e+01 5.270903e+01 2.279289e+01 3.749932e+01 2.835998e+01 3.677785e+01 1.091113e+00 1.071998e+00 2.230448e+00 2.370483e+00 3.507559e+00 3.829994e+00 3.620540e+00 2.170361e+00 2.853647e+00 3.016917e+00 3.244364e+00 3.155701e+00 2.749871e+00 4.405110e-02 1.185598e-01 3.299946e-01 3.327564e-01 6.743941e-01 5.509715e-01 8.260846e-01 6.048450e-01 5.163477e-01 5.462142e-01 6.700999e-01 3.602525e-01 3.684537e-01 3.638858e-03
<GCONST> 1.087475e+02
<MIXTURE> 3 2.493675e-01
<MEAN> 39
 2.723466e+00 3.898258e+00 1.607237e+00 -7.404402e-01 -3.179197e-01 5.458094e+00 -3.447769e+00 -4.054189e+00 -6.696376e-01 3.129593e+00 -1.309543e+00 4.041499e-01 1.850344e+01 2.073510e+00 7.659062e-01 -5.611797e-01 -2.054328e+00 -1.682608e+00 1.436173e+00 -5.914997e-01 5.566199e-01 -6.497166e-01 2.638033e-01 -7.486538e-01 4.150376e-01 4.377230e-01 -4.671391e-01 -8.111078e-01 -5.543737e-01 -5.610499e-01 -2.920099e-01 -3.617977e-01 -7.340037e-01 -7.899997e-02 3.287220e-01 2.513042e-01 4.982437e-01 5.754398e-02 -2.304306e-02
<VARIANCE> 39
 8.573575e+00 1.467218e+01 2.791177e+01 3.346057e+01 1.686906e+01 5.893700e+01 1.629955e+01 3.065309e+01 2.193974e+01 2.306399e+01 2.308540e+01 2.668165e+01 4.508909e-01 1.434135e+00 1.868031e+00 2.542063e+00 4.705331e+00 2.969445e+00 5.029284e+00 3.415090e+00 4.094739e+00 3.477582e+00 3.318525e+00 3.490093e+00 2.267736e+00 6.502125e-02 1.188903e-01 1.900053e-01 2.032084e-01 4.989782e-01 3.826540e-01 6.983643e-01 3.334983e-01 6.173359e-01 4.254176e-01 6.105772e-01 5.514708e-01 4.845980e-01 4.176906e-03
<GCONST> 1.017856e+02
<STATE> 4
<NUMMIXES> 3
<MIXTURE> 1 2.627342e-01
<MEAN> 39
 3.906631e+00 4.540488e+00 1.588265e+00 6.269360e-01 6.163992e-01 3.646465e+00 -6.171609e+00 -8.865999e+00 8.884089e-01 5.561710e+00 -3.975933e+00 -1.670636e+00 1.845840e+01 -2.457821e-01 2.859482e-01 5.319711e-01 6.371324e-01 2.859898e-01 2.521631e-02 4.798852e-01 4.620150e-01 4.745723e-01 -4.110638e-01 -2.404302e-01 4.790927e-02 -2.228476e-02 9.964103e-02 -6.613567e-02 -4.529278e-02 1.512841e-02 8.961633e-02 2.727268e-02 -4.438725e-02 1.371474e-01 -1.040767e-02 -1.273951e-02 2.681397e-01 6.067042e-02 1.180589e-02
<VARIANCE> 39
 1.104358e+01 2.734624e+01 3.213155e+01 1.081619e+02 2.220557e+01 5.409963e+01 3.119807e+01 4.728774e+01 4.982267e+01 6.406544e+01 4.518275e+01 5.109790e+01 1.417654e+00 3.772950e-01 7.160829e-01 1.294359e+00 1.878876e+00 2.232632e+00 2.018773e+00 2.764903e+00 3.205502e+00 2.352286e+00 3.854638e+00 3.532427e+00 2.477653e+00 1.325049e-02 6.507175e-02 1.239960e-01 2.445159e-01 4.742840e-01 3.147593e-01 3.858803e-01 6.069340e-01 6.564589e-01 4.824937e-01 9.200908e-01 8.020743e-01 4.688348e-01 1.107521e-03
<GCONST> 1.008102e+02
<MIXTURE> 2 4.540275e-01
<MEAN> 39
 7.707282e-01 1.402190e+00 3.391589e+00 1.017497e+00 -1.522169e+00 1.926221e-01 -9.997929e+00 -1.826130e+00 -5.441727e-01 1.002411e+00 6.206715e-01 1.689304e+00 1.824396e+01 1.843352e-01 -1.750964e-01 -4.049022e-01 -6.013674e-01 -5.501007e-01 -1.888667e-01 -5.978329e-01 -3.401986e-02 2.287732e-01 4.715319e-01 3.184263e-01 1.489111e-01 5.547388e-02 -1.395356e-01 -1.478623e-02 -5.678404e-02 1.368467e-01 1.138171e-01 -2.739222e-02 1.558489e-01 -6.443316e-02 7.209000e-02 -4.186325e-02 -1.450844e-01 -1.256042e-01 -2.288362e-02
<VARIANCE> 39
 3.604834e+01 2.796926e+01 9.044763e+01 8.042577e+01 5.329848e+01 7.227619e+01 7.850683e+01 5.886254e+01 4.959308e+01 4.628216e+01 5.455856e+01 3.049597e+01 4.013169e+00 1.136912e+00 1.759851e+00 1.800503e+00 2.817233e+00 2.644234e+00 3.295189e+00 3.027888e+00 2.639685e+00 2.733003e+00 2.523087e+00 2.486369e+00 2.190295e+00 4.989379e-02 2.457664e-01 3.795001e-01 4.104745e-01 6.684294e-01 6.227523e-01 6.631520e-01 7.437905e-01 6.201860e-01 5.127789e-01 5.670144e-01 6.326286e-01 4.204828e-01 3.066842e-03
<GCONST> 1.142435e+02
<MIXTURE> 3 2.832376e-01
<MEAN> 39
 3.755543e+00 4.703892e+00 1.817125e+00 1.366104e+00 1.885469e+00 4.119986e+00 -5.795380e+00 -8.249116e+00 1.434301e+00 5.347995e+00 -3.683815e+00 -1.174718e+00 1.832581e+01 -1.805747e-01 -2.125206e-02 7.978996e-02 2.896107e-01 3.140431e-02 -1.077443e-01 -4.853428e-02 -5.846207e-02 -3.845571e-01 -3.883309e-01 -4.924834e-01 -3.733864e-01 -3.290937e-02 -1.066432e-01 -8.583726e-02 4.425811e-02 3.010421e-02 -5.802861e-02 -6.617817e-02 -2.443288e-02 8.841294e-02 -8.252656e-02 -1.675863e-01 -7.243562e-02 2.523888e-02 -1.284455e-02
<VARIANCE> 39
 1.871104e+01 2.206524e+01 3.114049e+01 9.977473e+01 2.890508e+01 5.005000e+01 4.128229e+01 4.586830e+01 4.919044e+01 5.876280e+01 4.160021e+01 4.151517e+01 2.089545e+00 3.915821e-01 9.164097e-01 1.335165e+00 2.007968e+00 2.273580e+00 1.777294e+00 3.102268e+00 3.208982e+00 2.271314e+00 3.562134e+00 3.549801e+00 2.136031e+00 1.292630e-02 6.691817e-02 1.373835e-01 2.518272e-01 4.117025e-01 4.743426e-01 4.407407e-01 7.023071e-01 6.253212e-01 5.751284e-01 7.812957e-01 7.168331e-01 4.328824e-01 7.849827e-04
<GCONST> 1.016855e+02
<TRANSP> 5
 0.000000e+00 1.000000e+00 0.000000e+00 0.000000e+00 0.000000e+00
 0.000000e+00 4.736997e-01 5.263003e-01 0.000000e+00 0.000000e+00
 0.000000e+00 0.000000e+00 6.298262e-01 3.701738e-01 0.000000e+00
 0.000000e+00 0.000000e+00 0.000000e+00 8.360546e-01 1.639453e-01
 0.000000e+00 0.000000e+00 0.000000e+00 0.000000e+00 0.000000e+00
<ENDHMM>
~h "d"
<BEGINHMM>
<NUMSTATES> 5
<STATE> 2
<NUMMIXES> 3
<MIXTURE> 1 2.548553e-01
<MEAN> 39
 -2.292961e+00 5.299860e+00 8.172288e+00 9.608397e-01 2.277662e+00 -1.118125e-02 -4.704021e+00 -3.578696e+00 -7.122379e-01 -1.429696e+00 -1.899263e+00 7.157604e-01 1.860641e+01 -8.513297e-01 2.762111e-01 -6.012447e-02 -2.036850e-01 6.563785e-01 -2.652164e-01 8.444303e-01 9.940556e-03 -1.016546e-01 -1.184596e-01 -6.011205e-04 4.772447e-01 -4.622537e-02 1.770989e-01 -6.025783e-02 4.458415e-02 1.453876e-01 -1.485557e-01 -1.022781e-01 -2.912165e-01 1.743085e-01 1.492081e-01 1.766737e-01 -4.734556e-02 -1.255030e-01 7.651095e-03
<VARIANCE> 39
 2.528438e+01 4.515471e+01 2.942144e+01 2.744224e+01 3.830435e+01 1.032782e+02 5.684904e+01 4.032632e+01 3.421890e+01 4.317633e+01 3.304332e+01 2.866620e+01 1.529012e+00 1.821761e+00 3.137860e+00 1.765386e+00 1.667374e+00 2.574159e+00 4.564285e+00 4.554163e+00 4.036440e+00 3.451236e+00 2.957695e+00 2.401608e+00 2.071132e+00 2.172069e-02 3.674633e-01 5.611549e-01 2.963872e-01 3.975464e-01 4.487450e-01 1.059790e+00 8.510258e-01 6.682690e-01 6.941751e-01 7.180861e-01 4.736155e-01 4.818980e-01 1.314088e-03
<GCONST> 1.104707e+02
<MIXTURE> 2 5.101756e-01
<MEAN> 39
 -4.806487e+00 8.136194e+00 8.116890e+00 5.512474e+00 1.003115e+00 -2.554142e+00 -4.659602e+00 -4.554410e+00 -1.276428e+00 -4.021988e-01 -3.433644e+00 -2.227588e+00 1.609576e+01 -2.042489e+00 -1.776550e+00 -1.313525e+00 -1.328829e+00 8.676701e-01 4.510600e-01 1.309106e+00 -1.081276e-01 -7.636203e-01 -5.870618e-01 8.693529e-01 6.053379e-01 -2.387882e-01 -1.812636e-01 -3.966528e-01 -3.131823e-01 -3.203131e-01 -8.433998e-02 -4.298409e-03 1.610443e-01 2.824767e-01 1.789263e-01 -4.717887e-02 1.878367e-01 2.060926e-01 6.631493e-03
<VARIANCE> 39
 3.062283e+01 2.309710e+01 1.811589e+01 1.809644e+01 3.460594e+01 3.155026e+01 2.724279e+01 3.005898e+01 3.102454e+01 2.727451e+01 3.134970e+01 2.346832e+01 3.659537e+00 2.257267e+00 3.385612e+00 1.989096e+00 3.146368e+00 3.738457e+00 3.227701e+00 4.279070e+00 4.348859e+00 3.904840e+00 3.647285e+00 3.932283e+00 2.706533e+00 4.241038e-02 3.423058e-01 4.373341e-01 2.912696e-01 4.519096e-01 6.247872e-01 5.175334e-01 8.216915e-01 6.642077e-01 6.888582e-01 6.223493e-01 6.438780e-01 5.172678e-01 6.894201e-03
<GCONST> 1.109311e+02
<MIXTURE> 3 2.349684e-01
<MEAN> 39
 -1.792097e+00 3.931779e+00 7.521769e+00 9.137762e-01 2.387223e+00 -2.223703e+00 -7.365001e+00 -2.885328e+00 -1.082911e+00 2.215423e-01 -2.599190e+00 -1.871443e+00 1.884200e+01 -1.222611e+00 -7.040175e-01 -1.756966e-01 -3.548247e-01 6.032361e-01 -2.489773e-01 5.728498e-01 2.326698e-01 -4.752525e-01 -1.863128e-02 1.190467e-01 -1.003322e-01 -7.661087e-02 1.825932e-01 -3.942501e-02 -1.482832e-01 5.414121e-02 -2.953290e-01 -4.239221e-02 -3.063611e-01 1.531756e-01 3.132269e-01 1.120728e-01 -1.104575e-02 2.239027e-02 3.298067e-03
<VARIANCE> 39
 3.851368e+01 4.247464e+01 4.719468e+01 3.543246e+01 4.395780e+01 6.403564e+01 7.410223e+01 4.364362e+01 3.282291e+01 3.600938e+01 3.263490e+01 2.298066e+01 1.541049e+00 2.957629e+00 2.819140e+00 2.189683e+00 2.724743e+00 4.308659e+00 8.046885e+00 5.429828e+00 4.772360e+00 3.761135e+00 2.927204e+00 2.612709e+00 2.207512e+00 1.727580e-02 5.094556e-01 4.791594e-01 3.980301e-01 4.846578e-01 7.198268e-01 1.026618e+00 8.951944e-01 5.003215e-01 5.843014e-01 6.482580e-01 4.814008e-01 4.256007e-01 1.173626e-03
<GCONST> 1.139856e+02
<STATE> 3
<NUMMIXES> 3
<MIXTURE> 1 2.252879e-01
<MEAN> 39
 -7.722145e+00 2.716720e+00 5.531148e+00 1.551271e+00 3.587404e+00 -2.010085e+00 -2.415924e+00 -2.779685e+00 -6.833695e-01 -3.750360e-01 -1.122232e+00 -2.590778e-03 1.756868e+01 6.345323e-02 5.500157e-01 -1.892786e-02 1.845312e-01 1.400231e-01 -3.655133e-01 -1.407775e-01 3.711686e-01 4.628113e-01 2.311527e-01 -1.564248e-01 2.187372e-01 2.509255e-02 4.163418e-01 2.694101e-01 2.216123e-01 1.082100e-01 -3.448682e-01 -1.043888e-01 -3.452802e-01 9.986543e-02 2.249207e-01 2.895389e-02 -1.394614e-01 -5.298027e-02 3.655551e-02
<VARIANCE> 39
 3.708290e+01 2.456702e+01 2.698082e+01 1.893917e+01 3.071759e+01 4.376778e+01 5.226046e+01 3.260300e+01 4.058856e+01 3.971653e+01 2.873045e+01 2.387183e+01 3.601882e+00 8.425770e-01 1.786360e+00 1.674801e+00 1.813370e+00 1.537805e+00 3.478028e+00 2.667661e+00 2.670250e+00 2.944200e+00 3.161550e+00 3.005670e+00 2.601902e+00 1.725497e-02 3.022684e-01 6.460602e-01 4.954643e-01 3.519892e-01 4.420786e-01 7.863869e-01 6.789213e-01 4.988557e-01 7.173215e-01 7.479008e-01 5.852184e-01 5.705073e-01 1.181216e-03
<GCONST> 1.059779e+02
<MIXTURE> 2 5.435442e-01
<MEAN> 39
 -8.712272e+00 2.496496e+00 3.003014e+00 2.977512e+00 2.916579e+00 2.837054e-01 6.370554e-01 -6.526124e-01 -1.785758e-01 -4.024279e-01 -3.189056e+00 -8.025129e-01 1.462280e+01 -8.154141e-01 -8.371765e-01 -1.009204e+00 -8.825098e-01 -5.926828e-01 -4.747616e-01 2.189164e-01 3.646910e-01 5.431699e-02 -1.109376e-01 6.770618e-01 5.971743e-01 -2.785646e-01 1.856171e-01 2.589017e-01 2.152808e-01 1.565138e-01 -1.902363e-01 -2.338163e-01 -3.333862e-01 -1.677517e-01 3.342057e-02 5.391214e-02 -2.686491e-03 -1.790382e-03 2.936567e-02
<VARIANCE> 39
 2.085810e+01 2.091651e+01 1.693867e+01 1.901823e+01 2.647940e+01 3.520080e+01 2.932065e+01 3.501426e+01 3.327179e+01 2.703796e+01 3.841838e+01 2.053629e+01 4.219646e+00 1.041432e+00 1.860209e+00 1.641573e+00 2.565102e+00 2.676254e+00 2.717612e+00 3.088763e+00 3.420642e+00 2.885949e+00 3.181564e+00 3.152366e+00 2.576920e+00 5.744988e-02 2.550974e-01 4.731468e-01 3.233220e-01 4.992736e-01 6.395364e-01 6.197630e-01 6.098231e-01 7.669595e-01 8.043998e-01 7.509512e-01 8.735155e-01 5.276459e-01 7.396815e-03
<GCONST> 1.083014e+02
<MIXTURE> 3 2.311663e-01
<MEAN> 39
 -6.717445e+00 3.068928e+00 4.750095e+00 2.035858e+00 1.225088e+00 -3.581090e+00 -4.963946e+00 -1.583177e+00 -1.350623e+00 -7.562261e-01 -1.686441e+00 2.098454e-01 1.659863e+01 -2.552067e-01 5.121444e-02 -2.878436e-01 7.952022e-02 4.468642e-02 -2.250952e-01 4.545859e-02 1.972146e-01 2.706359e-01 1.951489e-01 -9.364308e-02 -1.042674e-01 -5.719216e-02 2.695167e-01 1.637734e-02 -9.307185e-03 -5.196282e-02 -2.799625e-01 -1.237879e-02 -2.876888e-01 6.957997e-02 3.066703e-01 2.859842e-01 -4.484586e-02 -1.286721e-01 2.156100e-02
<VARIANCE> 39
 5.473783e+01 3.202867e+01 3.055659e+01 3.499364e+01 4.982735e+01 4.110829e+01 8.688889e+01 4.564535e+01 3.923103e+01 4.924905e+01 3.611565e+01 2.554665e+01 1.031660e+01 7.354422e-01 1.063438e+00 1.353155e+00 1.949854e+00 1.986895e+00 2.905980e+00 2.550084e+00 2.874131e+00 3.347416e+00 3.510584e+00 2.701575e+00 2.083403e+00 2.326667e-02 2.913693e-01 3.197665e-01 3.451635e-01 4.507957e-01 5.683172e-01 6.510593e-01 7.928455e-01 5.349071e-01 7.707076e-01 7.947369e-01 5.969789e-01 5.532762e-01 1.337470e-03
<GCONST> 1.093587e+02
<STATE> 4
<NUMMIXES> 3
<MIXTURE> 1 2.570816e-01
<MEAN> 39
 -1.369487e+01 4.804327e+00 6.224666e+00 1.116087e+00 5.355950e-01 -5.759836e+00 -3.313550e+00 -1.617272e+00 4.011549e+00 -1.601704e+00 -3.274111e-01 1.950876e+00 1.736800e+01 8.943267e-01 8.942899e-01 1.403248e+00 8.587618e-01 6.944402e-02 1.454106e-01 -6.245049e-01 1.123871e-01 5.162724e-01 -3.841743e-02 -5.169764e-01 -1.064407e-01 2.434126e-01 3.885521e-01 -2.125544e-01 -8.740106e-02 -1.208632e-01 -1.745580e-01 9.352935e-02 -2.007671e-01 -6.417408e-02 -2.162026e-01 4.498673e-02 -2.011157e-02 -7.461145e-02 4.543659e-02
<VARIANCE> 39
 5.311357e+01 3.210231e+01 5.240825e+01 3.801646e+01 3.414842e+01 3.992876e+01 5.366133e+01 4.050288e+01 3.354364e+01 2.867405e+01 3.246212e+01 1.940950e+01 2.012717e+00 1.951406e+00 2.041621e+00 3.173478e+00 2.905225e+00 3.604671e+00 4.163088e+00 5.054935e+00 2.973840e+00 3.345171e+00 3.112254e+00 3.256750e+00 2.570250e+00 5.681047e-02 2.247243e-01 3.779251e-01 5.797125e-01 5.423628e-01 6.845486e-01 7.580434e-01 1.001104e+00 5.913186e-01 5.847625e-01 6.250256e-01 7.045042e-01 4.923421e-01 5.115404e-03
<GCONST> 1.141094e+02
<MIXTURE> 2 4.216478e-01
<MEAN> 39
 -1.329048e+01 -4.432950e-01 -2.585222e-01 -2.604965e+00 -2.845925e+00 -5.663460e+00 -3.261898e+00 -1.828502e+00 1.535144e+00 9.030274e-01 1.049406e+00 1.448952e+00 1.470421e+01 -5.302297e-01 -3.024541e-01 -3.409230e-01 -5.148767e-01 -1.313009e-01 -3.107748e-01 -7.542331e-02 3.245192e-02 3.616409e-01 -2.202363e-02 1.802074e-01 1.585847e-01 1.887456e-01 3.891960e-02 2.848232e-01 2.781200e-01 3.288098e-01 1.891856e-01 7.941221e-02 -7.857174e-04 5.327109e-03 9.083266e-02 -6.307168e-02 -1.710953e-01 -5.860806e-02 1.514951e-02
<VARIANCE> 39
 3.819762e+01 4.487605e+01 2.877247e+01 3.570543e+01 5.519861e+01 4.684496e+01 4.144265e+01 5.031150e+01 4.132359e+01 4.125041e+01 2.228324e+01 2.056481e+01 5.939498e+00 1.935252e+00 4.876707e+00 2.455229e+00 3.458265e+00 3.532563e+00 4.598424e+00 4.551828e+00 4.039700e+00 3.555981e+00 3.469338e+00 2.645200e+00 2.822450e+00 2.964721e-01 3.848422e-01 9.728606e-01 5.714034e-01 7.170033e-01 7.434641e-01 9.945326e-01 9.582258e-01 8.222255e-01 7.537868e-01 7.359222e-01 5.416546e-01 6.012098e-01 4.640060e-02
<GCONST> 1.231026e+02
<MIXTURE> 3 3.212694e-01
<MEAN> 39
 -1.046654e+01 4.344458e+00 6.566059e+00 2.085227e+00 -6.470728e-02 -6.128134e+00 -5.639206e+00 -2.364746e+00 3.840852e+00 -1.156817e+00 -1.369642e+00 9.217897e-01 1.761762e+01 9.582840e-01 -6.719490e-02 3.769200e-02 -1.082181e-01 -5.405151e-01 -3.382369e-01 -9.667645e-01 1.331093e-01 2.766474e-02 1.776617e-01 -1.666977e-01 -3.726599e-02 1.241870e-01 9.895049e-02 -2.561873e-01 -1.702653e-01 -1.715329e-01 -1.326333e-01 9.932954e-02 -1.374391e-01 7.807624e-02 -9.824149e-02 1.174881e-01 8.743906e-02 -6.465241e-02 -1.264310e-02
<VARIANCE> 39
 8.844681e+01 4.003623e+01 4.798813e+01 3.512288e+01 4.427764e+01 3.893742e+01 6.026186e+01 3.642636e+01 3.497273e+01 3.300332e+01 3.027531e+01 2.653309e+01 5.244669e+00 2.070701e+00 1.488493e+00 2.123859e+00 2.163424e+00 3.199783e+00 3.158226e+00 4.146394e+00 2.938805e+00 2.869105e+00 2.948456e+00 2.832442e+00 2.499616e+00 7.502733e-02 1.994407e-01 2.477051e-01 3.875333e-01 3.835124e-01 6.313834e-01 5.875904e-01 8.181005e-01 5.426881e-01 5.726861e-01 5.253387e-01 6.563761e-01 5.608361e-01 3.156394e-03
<GCONST> 1.121129e+02
<TRANSP> 5
 0.000000e+00 1.000000e+00 0.000000e+00 0.000000e+00 0.000000e+00
 0.000000e+00 4.848443e-01 5.151557e-01 0.000000e+00 0.000000e+00
 0.000000e+00 0.000000e+00 6.302469e-01 3.697531e-01 0.000000e+00
 0.000000e+00 0.000000e+00 0.000000e+00 8.065916e-01 1.934084e-01
 0.000000e+00 0.000000e+00 0.000000e+00 0.000000e+00 0.000000e+00
<ENDHMM>
~h "e"
<BEGINHMM>
<NUMSTATES> 5
<STATE> 2
<NUMMIXES> 3
<MIXTURE> 1 3.012136e-01
<MEAN> 39
 2.907560e-01 -5.962004e+00 4.174427e+00 -3.970569e+00 -1.010224e+01 -5.018024e+00 -1.233140e+01 8.256335e+00 6.337657e+00 4.147206e+00 -1.000644e+00 -1.619800e+00 2.013799e+01 2.253835e-01 -1.725426e-01 -2.850560e-01 1.346001e-01 -1.107471e-01 -2.119099e-01 1.796892e-01 4.164406e-01 3.404516e-01 1.462979e-01 -2.818001e-01 -4.976582e-02 7.499579e-02 -6.073414e-02 3.019677e-02 2.058628e-02 2.383206e-01 2.506646e-01 1.969394e-01 2.566493e-01 -1.461113e-01 -3.290765e-01 -2.227152e-01 -5.600544e-02 -5.327551e-02 -2.234944e-02
<VARIANCE> 39
 9.308249e+00 4.019155e+01 5.215663e+01 3.452285e+01 3.948671e+01 7.176237e+01 4.647808e+01 6.224853e+01 4.871264e+01 5.147487e+01 6.376981e+01 3.879117e+01 5.241771e-01 4.333071e-01 1.732188e+00 1.144567e+00 1.697418e+00 2.385527e+00 2.245326e+00 2.275331e+00 2.371937e+00 2.529111e+00 2.417503e+00 1.823925e+00 1.454739e+00 8.596771e-03 6.923322e-02 2.539246e-01 2.157396e-01 3.567727e-01 4.170107e-01 5.327740e-01 4.649955e-01 4.995072e-01 4.747309e-01 4.462599e-01 3.542222e-01 3.444187e-01 1.110300e-03
<GCONST> 9.775482e+01
<MIXTURE> 2 3.967457e-01
<MEAN> 39
 -3.794424e+00 -4.166986e+00 1.099091e+00 -2.932154e+00 -7.190652e+00 -4.484630e+00 -6.117075e+00 8.518310e+00 6.821811e+00 3.411068e+00 -6.589014e+00 -1.925972e+00 1.806887e+01 5.667053e-01 -6.557654e-01 -3.173302e-02 -3.577111e-01 -5.450823e-01 5.173904e-01 -6.373537e-01 2.282657e-01 -6.690295e-02 1.405302e-01 2.404773e-01 -1.038343e-01 1.629886e-01 -1.449364e-01 -1.852921e-01 -6.358179e-04 -1.776871e-01 -8.985945e-02 -1.045980e-01 -1.897187e-01 1.979673e-01 2.035748e-01 8.221427e-02 1.134487e-01 2.308550e-02 -2.520921e-02
<VARIANCE> 39
 1.353457e+01 4.941727e+01 2.261363e+01 3.838727e+01 5.048705e+01 4.292184e+01 5.818035e+01 6.979256e+01 3.556080e+01 2.892770e+01 2.932910e+01 2.337663e+01 2.208326e+00 2.117927e+00 3.245052e+00 1.592670e+00 4.067555e+00 3.392585e+00 4.351370e+00 5.120450e+00 5.558102e+00 4.978578e+00 3.262011e+00 2.897221e+00 2.727008e+00 1.158702e-01 3.425609e-01 7.668722e-01 3.351759e-01 7.363302e-01 6.223923e-01 8.449599e-01 8.080664e-01 1.067053e+00 1.007941e+00 6.242236e-01 6.394496e-01 5.820077e-01 1.192051e-02
<GCONST> 1.183255e+02
<MIXTURE> 3 3.020390e-01
<MEAN> 39
 1.593504e-01 -6.577079e+00 3.105409e+00 -4.292829e+00 -9.371972e+00 -3.595226e+00 -1.194771e+01 9.244329e+00 6.215250e+00 3.847646e+00 -3.326473e+00 -2.045021e+00 1.991138e+01 1.988998e-01 -3.323926e-01 -4.527568e-01 -1.855888e-01 -3.115406e-01 -2.845690e-01 -1.307644e-01 3.321838e-01 3.613730e-01 3.344784e-01 -2.276688e-01 -8.298076e-02 6.114262e-02 -1.338580e-01 1.697023e-01 -1.327608e-05 1.730662e-01 2.347632e-01 -5.022344e-04 3.049130e-01 -1.791550e-01 -1.562368e-01 -8.669934e-02 -3.088090e-02 -9.013053e-03 -3.517953e-02
<VARIANCE> 39
 9.314230e+00 3.939074e+01 3.284447e+01 3.706105e+01 3.732767e+01 7.524678e+01 4.371825e+01 4.916942e+01 4.877950e+01 3.879513e+01 3.953598e+01 2.993887e+01 6.104333e-01 3.795174e-01 2.217124e+00 1.380290e+00 2.231123e+00 2.463571e+00 2.980224e+00 3.178243e+00 3.049208e+00 3.607589e+00 2.425811e+00 2.075402e+00 2.057619e+00 1.474503e-02 8.133780e-02 3.749155e-01 2.420243e-01 4.204030e-01 5.267601e-01 6.353392e-01 5.382522e-01 5.091578e-01 6.187404e-01 4.522740e-01 3.813037e-01 3.858202e-01 1.699551e-03
<GCONST> 1.013176e+02
<STATE> 3
<NUMMIXES> 3
<MIXTURE> 1 2.597385e-01
<MEAN> 39
 1.589390e+00 -1.062669e+01 1.318692e+00 -3.645752e+00 -1.095216e+01 -2.687546e+00 -1.299152e+01 1.341743e+01 7.820539e+00 6.337648e+00 -2.565364e+00 -4.976841e+00 2.079217e+01 1.522148e-02 5.753347e-01 9.203464e-02 9.927728e-02 1.251783e-02 -4.883319e-01 3.553443e-01 2.806517e-01 6.244428e-01 9.286692e-02 -3.999076e-01 2.392832e-01 1.550041e-02 4.043688e-02 1.234629e-01 3.943467e-02 1.206068e-01 1.385230e-01 1.093074e-01 1.145296e-01 -2.251127e-01 -2.214064e-01 -1.852379e-01 -4.672217e-02 3.414191e-02 -1.453118e-03
<VARIANCE> 39
 4.078439e+00 1.702199e+01 3.776095e+01 1.931720e+01 3.207195e+01 2.480072e+01 3.827788e+01 2.620717e+01 4.075027e+01 2.425104e+01 2.784747e+01 3.354466e+01 2.268905e-01 1.384979e-01 3.992921e-01 3.489490e-01 6.272240e-01 7.809030e-01 9.725862e-01 8.865491e-01 1.092337e+00 1.752288e+00 1.161410e+00 8.576332e-01 7.330545e-01 9.217648e-04 2.033441e-02 7.178962e-02 7.182052e-02 9.828662e-02 1.367263e-01 1.436984e-01 1.551335e-01 1.576627e-01 2.168874e-01 1.693867e-01 1.719970e-01 1.225429e-01 1.106732e-04
<GCONST> 6.149156e+01
<MIXTURE> 2 4.824026e-01
<MEAN> 39
 2.121706e+00 -8.677145e+00 1.800963e+00 -5.137765e-01 -8.522307e+00 -3.826637e-01 -9.592350e+00 8.474559e+00 1.639997e+00 4.851914e-01 -3.453894e+00 -4.590887e+00 2.070674e+01 4.045010e-02 -5.998539e-01 9.269504e-02 -8.547220e-02 -8.960626e-02 2.847647e-01 -4.290000e-01 1.938129e-02 -6.371823e-01 1.085404e-02 3.821793e-01 -2.856781e-02 -1.402654e-02 -2.647379e-02 -2.931916e-02 -5.933958e-03 -1.287963e-01 -9.639288e-02 -1.401151e-01 -8.519388e-02 1.514517e-01 2.161587e-01 1.963597e-01 1.040563e-02 2.888283e-02 -1.769962e-03
<VARIANCE> 39
 4.814174e+00 1.570859e+01 3.090482e+01 1.658092e+01 2.298394e+01 1.845349e+01 3.728377e+01 1.757707e+01 2.240021e+01 1.497692e+01 1.509301e+01 1.823707e+01 2.268905e-01 2.078601e-01 6.533291e-01 5.830384e-01 8.160710e-01 1.002405e+00 1.158001e+00 1.091993e+00 1.462646e+00 1.848264e+00 1.484318e+00 9.459700e-01 8.362277e-01 1.237375e-03 3.055344e-02 9.575634e-02 7.390162e-02 9.940673e-02 1.312976e-01 1.578688e-01 1.800949e-01 1.833900e-01 2.370651e-01 1.658253e-01 1.632433e-01 1.460642e-01 1.116968e-04
<GCONST> 6.257876e+01
<MIXTURE> 3 2.578605e-01
<MEAN> 39
 1.505820e+00 -9.745237e+00 2.864296e+00 -3.628132e+00 -1.120690e+01 -3.330187e+00 -1.165934e+01 1.375155e+01 6.332228e+00 4.223821e+00 -3.374765e+00 -3.927523e+00 2.086920e+01 -5.759196e-02 5.241712e-01 -3.935208e-02 1.920789e-01 2.021181e-01 -2.930691e-01 3.258270e-01 1.952319e-02 1.131215e-01 -9.650034e-02 -3.083430e-01 7.205356e-02 1.425659e-03 1.120048e-02 7.084111e-02 -2.620414e-02 1.290276e-01 9.665763e-02 1.144588e-01 4.904328e-02 -1.967628e-01 -1.715040e-01 -1.321630e-01 6.446561e-02 -5.121637e-02 -5.190612e-03
<VARIANCE> 39
 4.323493e+00 2.123268e+01 3.429704e+01 1.736469e+01 2.973439e+01 2.949907e+01 4.489602e+01 2.408560e+01 4.421635e+01 2.408474e+01 3.228513e+01 3.773182e+01 2.268905e-01 2.201528e-01 4.028283e-01 4.814963e-01 7.187368e-01 9.369574e-01 1.059807e+00 9.946042e-01 1.372900e+00 1.897661e+00 1.227388e+00 9.137958e-01 8.921185e-01 1.130233e-03 3.174921e-02 1.093167e-01 6.912319e-02 9.426238e-02 1.242308e-01 1.549883e-01 1.771583e-01 1.495776e-01 2.061839e-01 1.436343e-01 1.532467e-01 1.215736e-01 1.402997e-04
<GCONST> 6.496625e+01
<STATE> 4
<NUMMIXES> 3
<MIXTURE> 1 2.470555e-01
<MEAN> 39
 6.390920e-01 -5.135562e+00 -9.155693e-01 -2.317872e+00 -8.334283e+00 -8.439730e+00 -1.112420e+01 1.095239e+01 8.362799e+00 5.357796e+00 -5.634376e+00 -2.366947e-02 1.999502e+01 -3.212821e-01 1.048530e+00 5.050847e-01 5.925179e-01 3.363533e-01 2.306855e-01 1.272695e+00 -3.780091e-01 7.408442e-01 -4.954839e-01 -3.317737e-01 1.368085e-01 -2.171417e-02 1.229464e-01 7.606582e-02 7.403859e-02 3.007711e-01 3.068846e-01 5.366400e-01 2.675769e-01 -3.557541e-01 -5.791633e-01 -2.804740e-01 6.209834e-02 -1.656534e-01 -2.541274e-03
<VARIANCE> 39
 6.052177e+00 1.985320e+01 2.992765e+01 1.483388e+01 2.061357e+01 2.862484e+01 4.985582e+01 3.050099e+01 3.290942e+01 2.497271e+01 2.508166e+01 2.666738e+01 2.562702e-01 5.743093e-01 8.099090e-01 9.290938e-01 1.477153e+00 1.892718e+00 2.466008e+00 2.372649e+00 1.977593e+00 3.178999e+00 2.012303e+00 1.313588e+00 1.193879e+00 2.737649e-03 9.675322e-02 2.427774e-01 1.910125e-01 2.171399e-01 2.308207e-01 3.696056e-01 6.047413e-01 3.095738e-01 3.902773e-01 3.348143e-01 2.829901e-01 2.448738e-01 3.132003e-04
<GCONST> 8.332333e+01
<MIXTURE> 2 4.992997e-01
<MEAN> 39
 1.759872e+00 -4.896750e+00 -1.601696e+00 -2.143196e-01 -4.741066e+00 -2.438025e+00 -8.876830e+00 7.512585e+00 2.493804e+00 1.988419e+00 -5.625981e+00 -2.141282e+00 1.989709e+01 2.247166e-01 -5.672230e-01 -3.516584e-01 -4.705274e-01 -1.449337e-01 -5.075761e-01 -1.040711e+00 6.984399e-02 -2.894227e-01 6.478880e-01 2.753550e-01 8.753904e-02 -9.499681e-03 -1.672975e-01 6.667343e-02 4.716570e-02 -1.753623e-01 -2.071596e-01 -3.444130e-01 -1.043368e-03 1.718223e-01 5.190454e-01 1.403218e-01 -8.158387e-02 1.260256e-01 -5.934824e-03
<VARIANCE> 39
 4.680648e+00 1.860775e+01 2.475910e+01 1.728311e+01 2.009466e+01 2.159228e+01 3.971481e+01 2.563263e+01 2.497965e+01 1.985509e+01 2.129766e+01 1.632034e+01 2.268905e-01 6.816158e-01 1.177905e+00 9.740421e-01 1.358052e+00 1.674510e+00 2.981789e+00 2.485311e+00 1.858027e+00 3.403316e+00 1.921091e+00 1.577505e+00 1.436045e+00 3.247298e-03 1.099001e-01 2.716826e-01 2.218783e-01 3.405839e-01 3.684331e-01 4.394957e-01 6.692934e-01 3.189298e-01 4.663286e-01 4.642623e-01 3.320829e-01 2.520205e-01 2.947771e-04
<GCONST> 8.434033e+01
<MIXTURE> 3 2.536457e-01
<MEAN> 39
 8.028217e-02 -3.574019e+00 -1.220287e+00 -1.668801e+00 -6.703286e+00 -5.418275e+00 -8.099872e+00 9.957815e+00 8.663743e+00 3.284005e+00 -7.548780e+00 -4.214152e-01 1.995548e+01 -1.748568e-01 7.071517e-01 3.876995e-01 6.474266e-01 6.358929e-01 8.169852e-01 1.075078e+00 -7.328873e-01 -3.545103e-01 -6.985434e-01 -2.847108e-01 -2.647010e-01 -3.695582e-02 1.695286e-01 -1.487616e-01 -1.350007e-02 8.826918e-02 1.634360e-01 2.187896e-01 -1.628561e-01 -2.232389e-01 -5.337266e-01 -3.276147e-02 2.309987e-01 -1.110373e-01 -4.233591e-03
<VARIANCE> 39
 8.392509e+00 2.116310e+01 2.867672e+01 2.227037e+01 1.901385e+01 3.300795e+01 5.020678e+01 2.919015e+01 3.240888e+01 2.431978e+01 2.378157e+01 4.197490e+01 3.368136e-01 6.614376e-01 7.010972e-01 8.789791e-01 1.577166e+00 1.704607e+00 1.895267e+00 1.956697e+00 2.109154e+00 3.729229e+00 1.847906e+00 1.882443e+00 1.313236e+00 3.935375e-03 1.647326e-01 2.902293e-01 2.544169e-01 3.043533e-01 2.570157e-01 5.019398e-01 7.381208e-01 3.152272e-01 4.151441e-01 4.511100e-01 3.182724e-01 2.692178e-01 4.416837e-04
<GCONST> 8.801947e+01
<TRANSP> 5
 0.000000e+00 1.000000e+00 0.000000e+00 0.000000e+00 0.000000e+00
 0.000000e+00 8.727063e-01 1.272938e-01 0.000000e+00 0.000000e+00
 0.000000e+00 0.000000e+00 9.467164e-01 5.328358e-02 0.000000e+00
 0.000000e+00 0.000000e+00 0.000000e+00 8.916038e-01 1.083962e-01
 0.000000e+00 0.000000e+00 0.000000e+00 0.000000e+00 0.000000e+00
<ENDHMM>
~h "f"
<BEGINHMM>
<NUMSTATES> 5
<STATE> 2
<NUMMIXES> 3
<MIXTURE> 1 4.236526e-01
<MEAN> 39
 -8.879720e+00 -7.733005e-01 3.081800e+00 3.533734e+00 2.291499e+00 1.789284e-01 -3.491629e+00 -1.035121e+00 4.388479e+00 1.781327e+00 4.685729e-01 1.325501e+00 1.766324e+01 -1.446391e+00 -2.058530e-01 2.718437e-01 5.475248e-01 1.860823e-01 -3.013252e-01 4.036723e-01 7.073077e-02 4.535458e-03 -1.725158e-01 2.690856e-02 -1.579059e-01 -2.506640e-01 1.129108e-02 -8.171073e-02 -1.332665e-01 -1.402676e-01 -1.537555e-01 -2.789747e-02 -3.869124e-02 2.362479e-03 -5.625627e-02 -3.929678e-02 -7.970627e-02 -3.788137e-02 -1.206970e-02
<VARIANCE> 39
 4.004821e+01 1.317197e+01 4.591296e+01 4.036180e+01 5.050550e+01 6.413000e+01 4.421826e+01 3.248291e+01 2.983722e+01 2.826612e+01 3.735312e+01 3.608027e+01 1.269678e+00 1.173052e+00 1.014942e+00 1.452887e+00 2.253596e+00 2.602533e+00 2.942806e+00 3.073398e+00 3.130746e+00 3.245171e+00 3.499500e+00 3.009997e+00 2.316757e+00 2.038744e-02 1.902714e-01 1.620922e-01 2.768303e-01 4.477201e-01 4.967661e-01 5.889615e-01 7.069420e-01 5.804803e-01 6.551907e-01 7.759862e-01 6.172475e-01 5.152462e-01 1.579750e-03
<GCONST> 1.051856e+02
<MIXTURE> 2 2.991912e-01
<MEAN> 39
 -1.789287e+01 -2.375765e+00 2.276632e+00 3.214500e+00 -4.508987e-01 -2.814849e+00 -4.147761e+00 -2.363843e+00 1.880431e+00 -2.268725e-01 5.588780e-01 7.868583e-01 1.517856e+01 -4.551346e-01 -2.127567e-01 -1.973751e-01 -8.339473e-02 -2.143723e-01 2.866644e-02 5.104516e-02 6.654035e-02 4.365186e-02 1.734062e-01 2.296676e-01 3.614462e-02 -1.493744e-01 7.143579e-02 1.121737e-02 1.861903e-02 4.025083e-02 4.580403e-02 4.226850e-02 -2.206031e-02 7.417566e-02 4.623537e-02 3.923922e-02 1.662259e-02 4.586295e-03 3.624148e-02
<VARIANCE> 39
 1.546033e+01 1.434606e+01 2.304021e+01 2.613338e+01 3.637139e+01 3.508310e+01 3.286202e+01 2.427601e+01 3.193892e+01 2.921125e+01 2.897827e+01 2.361670e+01 2.387012e+00 4.376530e-01 8.848840e-01 1.322701e+00 1.874592e+00 1.953848e+00 3.013087e+00 3.554390e+00 2.639979e+00 3.065347e+00 3.588813e+00 3.229748e+00 2.729429e+00 2.726676e-02 7.954935e-02 1.458364e-01 2.985868e-01 3.971709e-01 4.356172e-01 6.196086e-01 7.131456e-01 5.748916e-01 7.109231e-01 7.471343e-01 6.777580e-01 5.392961e-01 2.125471e-03
<GCONST> 9.991024e+01
<MIXTURE> 3 2.771609e-01
<MEAN> 39
 -1.787379e+01 -2.733668e+00 2.740126e+00 3.897524e+00 -7.419071e-01 -3.546139e+00 -4.126846e+00 -2.234298e+00 1.578528e+00 -1.262910e+00 -1.110937e+00 -5.522835e-01 1.536255e+01 -6.425595e-01 -5.967995e-01 -6.659486e-01 -5.089153e-01 -4.269423e-01 -1.817851e-01 -2.317899e-01 -2.878234e-01 -3.739863e-01 -4.085010e-01 -7.825013e-02 -3.135612e-01 -1.747172e-01 7.781747e-02 -1.293244e-02 -9.768898e-02 -6.933104e-02 1.795004e-02 4.778156e-02 -4.003132e-02 -4.309063e-02 -3.273014e-03 9.614871e-02 1.178425e-01 1.228769e-01 1.870114e-02
<VARIANCE> 39
 1.529592e+01 1.346195e+01 2.679473e+01 3.122469e+01 2.834722e+01 2.781394e+01 2.949776e+01 2.985304e+01 3.072715e+01 3.278095e+01 2.954410e+01 2.494412e+01 2.020231e+00 4.197665e-01 7.504951e-01 1.357502e+00 2.295053e+00 2.164256e+00 2.709317e+00 3.273799e+00 3.102852e+00 3.613243e+00 3.748636e+00 3.282738e+00 2.563653e+00 2.170907e-02 6.841207e-02 1.208309e-01 2.863768e-01 4.689816e-01 4.217384e-01 5.805271e-01 6.758034e-01 7.138075e-01 7.960843e-01 8.578860e-01 7.141113e-01 6.089624e-01 1.135687e-03
<GCONST> 9.944596e+01
<STATE> 3
<NUMMIXES> 3
<MIXTURE> 1 5.309478e-01
<MEAN> 39
 -2.189489e+01 -9.140195e+00 -3.662894e+00 1.301797e+00 -9.883319e-01 -2.028946e+00 -3.269483e+00 -9.892144e-01 3.714360e+00 1.973426e+00 3.000228e+00 2.060283e+00 1.479783e+01 1.612066e-01 5.980524e-02 1.587802e-01 2.290551e-01 3.263252e-01 2.620558e-01 2.347921e-01 2.459591e-01 2.567553e-01 1.273328e-01 -6.478140e-02 -9.640393e-02 2.360119e-03 1.135990e-01 1.309400e-01 1.169773e-01 -2.201088e-02 -6.037413e-02 -1.413774e-02 3.778106e-02 -9.469476e-03 -7.363128e-02 -1.389691e-01 -1.207230e-01 -1.349133e-01 1.776087e-03
<VARIANCE> 39
 1.309604e+01 1.261863e+01 2.834784e+01 2.416930e+01 3.223586e+01 3.670580e+01 3.092915e+01 3.336177e+01 3.571957e+01 2.902872e+01 2.849249e+01 2.505688e+01 1.106519e+00 4.846560e-01 7.688913e-01 1.255621e+00 1.706151e+00 2.730748e+00 3.398782e+00 3.256500e+00 3.187051e+00 3.569657e+00 3.436419e+00 3.054198e+00 2.811777e+00 1.990057e-02 8.913683e-02 1.738253e-01 2.814350e-01 3.699811e-01 5.733192e-01 7.000922e-01 7.648186e-01 7.083313e-01 7.377039e-01 7.504475e-01 7.159276e-01 6.274620e-01 2.520424e-03
<GCONST> 1.006980e+02
<MIXTURE> 2 2.575915e-01
<MEAN> 39
 -2.209764e+01 -7.965615e+00 -2.352343e+00 1.530217e+00 -1.947855e+00 -2.460514e+00 -2.212644e+00 -2.087672e-01 2.534522e+00 -3.685517e-01 9.952027e-01 7.434089e-01 1.485525e+01 -3.136535e-02 -1.298952e-01 -1.627861e-01 -7.332093e-02 -6.845130e-02 -2.332038e-02 2.713714e-02 8.643100e-02 1.748795e-01 4.429842e-01 5.495645e-01 4.207152e-01 -1.489407e-02 1.972588e-02 -3.117578e-02 -1.720280e-02 6.074134e-02 1.328035e-01 5.443339e-02 -8.732422e-03 -3.790411e-02 8.429573e-02 1.823991e-01 1.537285e-01 1.520847e-01 7.360987e-03
<VARIANCE> 39
 6.602677e+00 9.875236e+00 2.132108e+01 2.165333e+01 2.786590e+01 3.122323e+01 3.315138e+01 2.785489e+01 2.635104e+01 3.070035e+01 3.050947e+01 2.856309e+01 6.255430e-01 3.939285e-01 6.647795e-01 1.097145e+00 1.681281e+00 2.442852e+00 2.951087e+00 3.345159e+00 2.837450e+00 2.938249e+00 3.353651e+00 3.272441e+00 3.147226e+00 1.195852e-02 5.519328e-02 1.269329e-01 2.113157e-01 3.698218e-01 5.273660e-01 6.231807e-01 7.614363e-01 6.510928e-01 6.178608e-01 7.897527e-01 7.147174e-01 6.897808e-01 9.412244e-04
<GCONST> 9.455709e+01
<MIXTURE> 3 2.114556e-01
<MEAN> 39
 -2.180900e+01 -8.367941e+00 -2.938121e+00 1.265290e+00 -2.445186e+00 -3.141754e+00 -3.314866e+00 -1.652697e+00 2.189376e+00 2.171346e-01 1.484735e+00 1.313649e-01 1.464911e+01 -9.886260e-02 -4.378989e-01 -5.979687e-01 -6.274429e-01 -6.960219e-01 -5.458713e-01 -5.055634e-01 -5.167625e-01 -4.788004e-01 -2.813147e-01 -9.007213e-02 5.685353e-02 -2.144475e-02 -1.323717e-02 -4.643247e-02 -4.138026e-02 1.102531e-02 1.321582e-01 4.421220e-02 -3.979129e-02 9.462807e-03 5.299395e-02 7.362602e-02 5.990306e-03 9.709743e-02 3.709963e-03
<VARIANCE> 39
 6.678760e+00 1.138831e+01 2.116990e+01 2.675921e+01 3.134146e+01 3.320337e+01 3.081593e+01 2.922572e+01 3.380745e+01 2.947868e+01 3.162281e+01 2.479038e+01 7.887377e-01 3.459102e-01 6.695901e-01 1.136496e+00 1.580854e+00 2.373693e+00 2.822799e+00 3.833384e+00 2.938507e+00 3.035854e+00 3.558187e+00 3.661982e+00 3.170717e+00 1.192327e-02 6.332039e-02 1.417810e-01 2.321834e-01 3.998985e-01 6.039739e-01 7.277704e-01 8.497428e-01 6.836664e-01 7.809337e-01 7.261285e-01 7.533944e-01 6.606901e-01 8.129351e-04
<GCONST> 9.644507e+01
<STATE> 4
<NUMMIXES> 3
<MIXTURE> 1 2.650069e-01
<MEAN> 39
 -1.302980e+01 -5.633749e+00 -1.053685e+00 1.384559e+00 7.124909e-01 -5.886273e-01 -2.395740e+00 -1.086528e+00 3.880506e+00 2.829602e+00 2.571300e+00 9.658149e-01 1.544585e+01 2.356915e+00 1.983996e+00 1.560841e+00 1.369468e+00 1.190200e+00 1.711863e+00 9.055213e-01 3.735347e-01 -6.521581e-01 -4.582298e-01 -5.329880e-01 -6.085373e-01 5.775784e-01 6.228926e-01 3.091540e-01 -6.859927e-02 -2.448422e-02 -4.658276e-01 -1.084101e-01 -3.367538e-01 -9.341481e-02 -4.782392e-01 -1.926046e-01 -1.450514e-01 -7.794670e-02 2.196702e-01
<VARIANCE> 39
 1.460931e+01 1.110118e+01 6.269986e+01 2.666504e+01 4.404422e+01 7.130315e+01 3.156346e+01 3.172891e+01 2.684339e+01 3.086836e+01 3.259600e+01 2.970253e+01 8.791738e-01 1.469403e+00 1.174156e+00 1.607189e+00 2.658106e+00 2.981360e+00 3.274130e+00 2.803927e+00 3.278896e+00 3.540601e+00 3.333592e+00 3.121456e+00 2.191875e+00 1.382279e-01 1.194027e-01 2.862288e-01 4.305407e-01 6.847631e-01 8.193864e-01 9.812695e-01 7.189537e-01 7.135198e-01 5.796613e-01 7.230330e-01 7.660811e-01 5.504648e-01 9.087198e-03
<GCONST> 1.096052e+02
<MIXTURE> 2 4.291571e-01
<MEAN> 39
 -2.301591e+00 -1.080010e-01 -7.926164e-01 2.217200e+00 -1.404319e+00 9.825704e-01 -4.835387e+00 -1.668339e+00 -6.643721e-01 1.126678e+00 3.263063e-01 -9.155717e-01 1.824768e+01 2.869799e+00 4.674221e-01 -1.001759e+00 -1.138882e+00 -1.576579e+00 -3.450271e-01 -1.489155e+00 2.683536e-01 -8.042092e-01 4.209662e-01 3.876977e-01 4.914954e-01 6.351777e-01 -4.979591e-01 -5.122617e-01 -3.740305e-01 -3.012689e-01 -1.443875e-01 -2.481749e-01 -1.557190e-01 2.006295e-01 3.164858e-01 2.667199e-01 3.664002e-01 3.340033e-01 -1.266142e-01
<VARIANCE> 39
 4.950275e+01 2.549331e+01 7.404727e+01 4.332248e+01 3.640782e+01 4.693136e+01 3.413825e+01 2.640809e+01 3.278481e+01 3.750027e+01 2.660148e+01 2.143170e+01 2.187313e+00 1.975485e+00 2.973967e+00 2.174702e+00 3.539892e+00 2.561836e+00 3.235727e+00 2.772262e+00 2.662089e+00 3.569304e+00 4.356776e+00 3.250070e+00 3.414801e+00 1.260622e-01 2.741997e-01 3.702230e-01 4.806418e-01 7.038123e-01 7.385667e-01 5.319791e-01 6.634505e-01 4.580012e-01 5.450282e-01 7.734511e-01 6.626570e-01 4.772717e-01 8.652175e-03
<GCONST> 1.141251e+02
<MIXTURE> 3 3.058363e-01
<MEAN> 39
 -1.639161e+01 -7.086921e+00 -3.803382e+00 -1.599869e-01 -1.384676e+00 -2.328349e+00 -3.396101e+00 -2.218623e+00 4.323586e+00 2.445187e+00 1.931521e+00 -5.368632e-02 1.485365e+01 1.494885e+00 7.718655e-01 4.089200e-01 -3.098193e-01 1.036067e-01 5.177578e-02 -2.562458e-01 -4.417401e-01 -2.182964e-01 -2.414047e-01 -5.082260e-01 -2.174984e-01 8.381999e-02 3.156922e-01 1.888776e-01 4.719447e-02 1.025302e-01 4.888180e-02 2.073638e-01 -5.720038e-03 9.398621e-02 -1.629363e-01 -3.813848e-02 2.927588e-02 4.775124e-03 9.175342e-02
<VARIANCE> 39
 2.199479e+01 1.484061e+01 5.426070e+01 2.987581e+01 3.367507e+01 4.607480e+01 3.308973e+01 3.916412e+01 3.193419e+01 5.459032e+01 2.938692e+01 3.090471e+01 1.020366e+00 1.295298e+00 1.222656e+00 2.044001e+00 1.979314e+00 2.802040e+00 3.841137e+00 3.530716e+00 3.826084e+00 3.094008e+00 3.936074e+00 4.356044e+00 2.361590e+00 1.070317e-01 1.605807e-01 3.181493e-01 4.857241e-01 5.531735e-01 7.404537e-01 1.096605e+00 8.053927e-01 7.545361e-01 6.476943e-01 8.552877e-01 8.459767e-01 5.760213e-01 1.670423e-02
<GCONST> 1.127018e+02
<TRANSP> 5
 0.000000e+00 1.000000e+00 0.000000e+00 0.000000e+00 0.000000e+00
 0.000000e+00 9.254810e-01 7.451900e-02 0.000000e+00 0.000000e+00
 0.000000e+00 0.000000e+00 9.579711e-01 4.202889e-02 0.000000e+00
 0.000000e+00 0.000000e+00 0.000000e+00 8.676145e-01 1.323855e-01
 0.000000e+00 0.000000e+00 0.000000e+00 0.000000e+00 0.000000e+00
<ENDHMM>
~h "g"
<BEGINHMM>
<NUMSTATES> 5
<STATE> 2
<NUMMIXES> 3
<MIXTURE> 1 4.375539e-01
<MEAN> 39
 1.373554e+00 1.446413e+00 -3.783981e+00 -5.980843e+00 2.601947e+00 6.342525e+00 -7.878969e+00 -3.274850e+00 -1.297627e+01 6.182504e+00 6.867620e+00 -6.533822e+00 1.710468e+01 -3.976072e-01 2.627659e-01 8.956727e-02 4.463306e-02 4.267084e-01 -7.450780e-02 4.827710e-01 -1.074269e-02 3.581796e-01 1.136836e-01 -1.399895e-01 2.522575e-02 -1.676160e-01 -2.392643e-02 -5.140358e-02 2.472972e-01 3.965747e-01 3.372063e-02 -1.638634e-01 -9.803180e-02 -1.907315e-03 2.732528e-01 -6.912619e-02 -4.308650e-02 1.708397e-01 2.459114e-02
<VARIANCE> 39
 1.068088e+01 3.652062e+01 5.461327e+01 2.727130e+01 2.183376e+01 3.850634e+01 5.303312e+01 2.090633e+01 5.639608e+01 7.179504e+01 5.415898e+01 3.817075e+01 2.228051e+00 3.630024e-01 8.861603e-01 1.771123e+00 3.445331e+00 2.447961e+00 2.268557e+00 3.692825e+00 2.994366e+00 4.170701e+00 3.484457e+00 3.095709e+00 4.179990e+00 3.628150e-02 7.673308e-02 3.344856e-01 3.885978e-01 5.566545e-01 4.133311e-01 6.062475e-01 8.601742e-01 5.058491e-01 7.629093e-01 5.853578e-01 7.157004e-01 6.990223e-01 5.325804e-03
<GCONST> 1.080049e+02
<MIXTURE> 2 3.073995e-01
<MEAN> 39
 -4.047352e+00 1.952422e+00 8.933208e+00 3.319878e+00 -3.065507e+00 -9.658854e-01 -5.269346e+00 4.999469e-01 -6.975897e+00 1.108469e+00 2.419805e+00 -4.909460e-01 1.664795e+01 -9.024641e-01 -1.772814e+00 -1.630993e+00 -1.428638e+00 9.433761e-01 2.086680e+00 5.488669e-01 -3.059186e-01 5.211639e-01 3.249508e-01 -5.431154e-01 6.322525e-01 -8.955570e-02 -6.446450e-03 -3.071414e-01 -1.603007e-01 6.390855e-03 -9.266081e-02 -1.513395e-01 -7.274482e-02 1.078210e-01 2.170518e-01 5.356208e-02 3.478130e-02 -2.909188e-01 5.528700e-02
<VARIANCE> 39
 2.385507e+01 2.806257e+01 5.805107e+01 3.112135e+01 5.456306e+01 3.359330e+01 5.056764e+01 3.572492e+01 3.594954e+01 4.095860e+01 2.587543e+01 2.806512e+01 1.287037e+00 1.186450e+00 4.090364e+00 3.630215e+00 4.895913e+00 3.185557e+00 3.130799e+00 4.852130e+00 4.289352e+00 3.376853e+00 4.026452e+00 1.956792e+00 3.206067e+00 5.007851e-02 1.206419e-01 8.758963e-01 6.441645e-01 7.141948e-01 5.213439e-01 6.154810e-01 8.083919e-01 7.245715e-01 8.353728e-01 7.395031e-01 4.713969e-01 6.398783e-01 4.638635e-03
<GCONST> 1.143264e+02
<MIXTURE> 3 2.550468e-01
<MEAN> 39
 -4.311364e+00 2.128790e+00 3.559798e+00 2.318742e+00 -2.134012e+00 -1.328530e+00 -5.653369e+00 -1.015042e+00 -5.558600e+00 7.839273e-01 -6.802075e-01 -3.155404e-01 1.534285e+01 -1.092171e+00 -2.429598e+00 -1.709580e+00 -1.667131e+00 7.816646e-01 8.896466e-01 -8.303382e-01 3.058750e-01 -6.138572e-01 5.262971e-02 -1.386083e-01 -1.895292e-02 -1.119104e-01 -1.873984e-01 -4.722846e-01 -1.673923e-01 -2.677535e-01 5.551638e-03 -9.072237e-02 -2.321277e-01 -1.000364e-01 1.685558e-01 2.853133e-01 1.670620e-01 -1.020688e-01 1.021900e-01
<VARIANCE> 39
 2.574529e+01 5.236927e+01 4.733713e+01 2.692407e+01 2.913275e+01 4.108387e+01 4.790991e+01 2.808908e+01 3.394103e+01 2.142422e+01 1.609164e+01 3.263588e+01 1.469377e+00 1.177992e+00 6.827382e+00 5.708901e+00 3.182077e+00 3.481405e+00 5.707613e+00 4.828622e+00 2.458660e+00 7.048503e+00 5.264353e+00 2.485234e+00 2.094768e+00 7.291678e-02 1.454272e-01 1.238517e+00 7.428067e-01 4.580078e-01 5.138264e-01 1.189514e+00 7.104719e-01 4.471757e-01 6.768863e-01 4.764572e-01 2.987922e-01 6.311131e-01 1.077170e-02
<GCONST> 1.148948e+02
<STATE> 3
<NUMMIXES> 3
<MIXTURE> 1 2.130220e-01
<MEAN> 39
 -1.389171e+01 1.008013e+00 8.473504e+00 -2.828359e+00 -2.024712e+00 -7.660096e-01 -2.555658e+00 -3.665046e+00 -2.086926e+00 3.885456e+00 2.235219e+00 2.464276e+00 1.625286e+01 3.927262e-01 1.143658e+00 1.652894e+00 1.474374e+00 1.214608e+00 3.397176e-01 1.486989e-01 -4.531460e-01 8.791249e-03 3.804770e-01 -1.791138e-01 1.975073e-01 2.301930e-01 3.996167e-01 1.214446e-01 3.391521e-01 1.107434e-01 -1.240869e-01 -1.792158e-01 -3.305902e-01 2.593823e-01 -1.156272e-01 -2.677749e-01 -1.021271e-01 -1.891097e-01 9.867003e-02
<VARIANCE> 39
 2.019534e+01 3.831120e+01 6.963239e+01 3.906292e+01 3.597552e+01 2.676038e+01 2.955282e+01 2.453134e+01 2.622069e+01 2.055754e+01 2.474323e+01 1.769102e+01 1.079303e+00 8.014802e-01 1.191424e+00 2.539576e+00 3.316063e+00 3.838067e+00 3.630632e+00 3.258287e+00 2.043245e+00 4.082233e+00 3.067162e+00 2.902593e+00 1.376258e+00 4.995834e-02 1.264292e-01 3.371885e-01 5.395674e-01 5.716832e-01 6.524391e-01 8.243257e-01 6.875954e-01 5.054618e-01 7.305484e-01 6.962426e-01 7.023920e-01 3.386858e-01 1.057058e-02
<GCONST> 1.070009e+02
<MIXTURE> 2 5.205860e-01
<MEAN> 39
 -9.038473e+00 -1.928490e+00 -1.519743e+00 -3.282391e+00 -7.065533e-01 -2.212413e+00 -5.794828e+00 -3.334834e+00 -2.173420e+00 1.817315e+00 -7.606577e-01 -1.415299e-01 1.451785e+01 -7.216628e-01 -1.515604e+00 -9.027916e-01 -1.080935e+00 6.642991e-02 2.074243e-01 -5.390721e-04 2.215444e-02 3.372757e-01 3.054536e-01 -3.745228e-02 1.513318e-01 2.410060e-01 1.152677e-01 1.975523e-01 3.607465e-02 8.734879e-02 -1.436909e-02 -4.605268e-02 -4.095595e-02 3.429675e-02 -3.582912e-02 -6.030523e-02 1.204197e-01 -7.405312e-03 6.717010e-02
<VARIANCE> 39
 2.363836e+01 7.087992e+01 6.500563e+01 5.313950e+01 3.544879e+01 5.110603e+01 6.645256e+01 3.197313e+01 3.101826e+01 3.947768e+01 1.937084e+01 2.272016e+01 3.052666e+00 1.553869e+00 5.681863e+00 3.372871e+00 3.479351e+00 3.281477e+00 4.752413e+00 3.590293e+00 1.950458e+00 2.347341e+00 3.304499e+00 2.074556e+00 2.907121e+00 2.463846e-01 2.834118e-01 1.103323e+00 6.081458e-01 7.127556e-01 5.678777e-01 8.408481e-01 6.781660e-01 3.545570e-01 5.677170e-01 6.993157e-01 4.199744e-01 6.071084e-01 3.647967e-02
<GCONST> 1.187394e+02
<MIXTURE> 3 2.663921e-01
<MEAN> 39
 -1.203031e+01 7.185535e-01 7.617869e+00 -3.085654e+00 -4.757108e+00 -1.790806e+00 -6.596092e+00 -2.469616e+00 -1.806618e+00 3.397895e+00 1.899049e+00 8.803094e-01 1.607024e+01 -4.037921e-01 8.985656e-01 5.527386e-01 -1.582302e-01 3.937036e-01 1.255944e-01 -4.980484e-01 -1.161420e-01 2.159981e-01 -7.154275e-01 -1.057883e-01 3.779229e-02 -1.619744e-02 1.268007e-01 6.848356e-02 1.386086e-01 2.380077e-01 7.761011e-02 -5.686612e-02 1.377344e-01 4.323851e-02 3.048304e-02 -7.907832e-02 -9.254883e-02 -5.770675e-02 1.464061e-02
<VARIANCE> 39
 3.992430e+01 3.261291e+01 5.497194e+01 4.688375e+01 3.131311e+01 2.368609e+01 4.719836e+01 1.750156e+01 2.739650e+01 2.239112e+01 2.977973e+01 1.177520e+01 3.839335e+00 9.658272e-01 1.674873e+00 1.424724e+00 2.026883e+00 1.851985e+00 2.254100e+00 2.432217e+00 2.183962e+00 2.264020e+00 2.371915e+00 2.978176e+00 1.478737e+00 2.834758e-02 9.145463e-02 4.007752e-01 3.150246e-01 5.467091e-01 4.747995e-01 4.281800e-01 7.378925e-01 3.649373e-01 4.553918e-01 5.673693e-01 5.515980e-01 2.684332e-01 4.705374e-03
<GCONST> 1.013010e+02
<STATE> 4
<NUMMIXES> 3
<MIXTURE> 1 2.114271e-01
<MEAN> 39
 -6.275771e+00 -8.670470e-01 2.927293e+00 3.285554e+00 6.892227e+00 5.602453e-01 -7.706609e+00 -3.033021e+00 -1.876219e+00 5.569335e+00 3.522506e+00 -1.593643e+00 1.757337e+01 1.600935e+00 1.753500e+00 1.467991e+00 8.253313e-01 -1.597683e-01 -5.884973e-01 -6.568184e-01 -4.677416e-02 3.207027e-01 -1.640413e-01 -2.933452e-01 -3.432777e-01 4.620809e-01 3.694364e-01 -1.951595e-01 -3.650767e-01 -6.142195e-01 -9.136494e-01 -2.988176e-01 -2.664290e-01 2.787034e-01 -2.191974e-01 -1.766049e-01 1.147487e-01 2.211923e-01 3.741578e-02
<VARIANCE> 39
 3.233430e+01 3.128489e+01 7.488344e+01 4.235293e+01 7.608050e+01 7.216000e+01 5.437231e+01 6.055772e+01 4.358710e+01 3.627859e+01 5.928782e+01 3.454201e+01 1.063020e+00 1.095537e+00 1.614582e+00 1.903608e+00 3.307881e+00 4.581278e+00 3.895060e+00 3.437838e+00 4.108305e+00 3.913527e+00 2.548208e+00 4.773927e+00 2.564197e+00 6.068324e-02 2.047179e-01 5.457624e-01 2.858960e-01 7.977782e-01 9.136328e-01 8.910313e-01 7.389058e-01 7.727347e-01 9.358906e-01 7.264899e-01 1.004964e+00 5.683398e-01 8.830990e-03
<GCONST> 1.182515e+02
<MIXTURE> 2 4.248075e-01
<MEAN> 39
 -6.953870e+00 -9.736629e+00 -7.129868e+00 -4.136556e+00 2.929137e+00 -8.390171e-01 -1.195108e+01 8.731135e-01 -3.340859e+00 4.839347e+00 3.576680e+00 -8.608958e-01 1.696358e+01 -2.765248e-02 4.264737e-01 2.779219e-01 3.276100e-01 3.013716e-01 -5.888463e-01 -1.302990e-01 -5.195053e-02 1.880365e-01 6.734782e-01 4.340693e-01 -1.115241e-01 8.291675e-02 1.090857e-01 5.504701e-01 4.441189e-01 3.744127e-01 3.897344e-02 -5.953873e-02 1.687746e-01 -1.270720e-01 3.769824e-02 -1.463743e-02 -1.010717e-01 -3.365208e-02 -2.045307e-02
<VARIANCE> 39
 2.827465e+01 3.030059e+01 3.125357e+01 3.445826e+01 4.013105e+01 8.043615e+01 6.133606e+01 4.311471e+01 3.989767e+01 5.267266e+01 6.845407e+01 2.562461e+01 1.765729e+00 1.280455e+00 2.676310e+00 2.746266e+00 3.986759e+00 3.234056e+00 3.741898e+00 4.048580e+00 3.571655e+00 3.586121e+00 4.607863e+00 4.741747e+00 1.846517e+00 7.459966e-02 2.898027e-01 5.319629e-01 4.352949e-01 5.466019e-01 6.327102e-01 1.022863e+00 8.713007e-01 8.489811e-01 6.133862e-01 9.652306e-01 9.125182e-01 3.504297e-01 2.234917e-02
<GCONST> 1.187219e+02
<MIXTURE> 3 3.637660e-01
<MEAN> 39
 -2.167786e+00 2.292804e+00 8.099450e+00 1.574745e+00 -2.280313e-01 -3.753972e+00 -9.923824e+00 9.034584e-01 -2.255638e+00 3.436527e+00 3.566610e+00 -1.908895e+00 1.883442e+01 1.479421e+00 1.706669e-01 9.838488e-02 -5.207713e-01 -1.735272e+00 -3.806646e-01 -7.039816e-01 8.473552e-01 -1.416236e-01 -6.210415e-01 5.583157e-01 4.666557e-03 3.337856e-01 -1.212152e-01 -4.486485e-01 -4.845459e-01 -2.620854e-01 -2.236484e-01 7.092836e-02 -3.821975e-02 -1.660003e-03 -6.694635e-03 9.610973e-02 1.768384e-01 1.337625e-01 -4.381922e-02
<VARIANCE> 39
 3.646781e+01 2.257232e+01 7.965430e+01 2.541815e+01 5.483028e+01 3.415409e+01 4.656401e+01 4.769417e+01 4.373577e+01 4.075309e+01 4.902190e+01 3.182095e+01 8.893365e-01 1.035459e+00 1.916770e+00 1.623976e+00 2.316531e+00 3.318458e+00 4.345788e+00 2.618343e+00 3.210593e+00 3.465231e+00 2.906878e+00 4.199441e+00 2.308198e+00 4.480045e-02 1.328675e-01 3.222271e-01 2.579072e-01 5.355697e-01 7.552087e-01 6.822093e-01 3.907176e-01 6.413674e-01 7.737598e-01 6.675709e-01 8.355697e-01 4.349412e-01 3.818955e-03
<GCONST> 1.098308e+02
<TRANSP> 5
 0.000000e+00 1.000000e+00 0.000000e+00 0.000000e+00 0.000000e+00
 0.000000e+00 6.836423e-01 3.163577e-01 0.000000e+00 0.000000e+00
 0.000000e+00 0.000000e+00 8.049065e-01 1.950934e-01 0.000000e+00
 0.000000e+00 0.000000e+00 0.000000e+00 8.497740e-01 1.502260e-01
 0.000000e+00 0.000000e+00 0.000000e+00 0.000000e+00 0.000000e+00
<ENDHMM>
~h "h"
<BEGINHMM>
<NUMSTATES> 5
<STATE> 2
<NUMMIXES> 3
<MIXTURE> 1 3.892159e-01
<MEAN> 39
 -1.458763e+01 -5.571256e+00 3.860557e-01 -5.555994e+00 -2.797585e+00 -1.333062e+00 -2.317985e+00 -5.064886e-01 4.711594e+00 1.565529e+00 1.419774e+00 3.904016e+00 1.495673e+01 2.785340e-01 1.275556e-01 3.358397e-01 4.488800e-01 4.932805e-01 8.120711e-01 5.805237e-01 4.531907e-01 4.955328e-02 -2.657913e-01 -1.352804e-01 -1.162922e-01 8.267074e-02 1.030501e-01 1.227130e-01 1.648375e-01 2.372510e-01 1.875383e-01 2.422278e-01 2.238306e-01 4.407529e-02 -2.919810e-01 -3.217813e-01 -8.996567e-02 -7.677966e-02 3.414914e-02
<VARIANCE> 39
 4.606152e+01 3.119456e+01 8.668450e+01 5.279887e+01 4.902029e+01 6.761101e+01 3.605033e+01 3.113822e+01 2.977788e+01 3.224787e+01 3.197512e+01 3.474215e+01 4.289046e+00 6.821734e-01 1.206687e+00 1.864745e+00 2.428404e+00 2.478405e+00 3.366672e+00 3.723874e+00 3.391819e+00 3.311717e+00 3.803672e+00 2.751469e+00 2.476883e+00 5.062762e-02 9.652739e-02 1.651396e-01 3.071295e-01 5.399170e-01 6.406513e-01 8.310547e-01 7.582922e-01 6.041859e-01 6.680129e-01 7.166679e-01 6.479692e-01 5.919423e-01 8.770618e-03
<GCONST> 1.115067e+02
<MIXTURE> 2 3.358579e-01
<MEAN> 39
 -1.627331e+01 -6.951324e+00 2.789760e+00 -4.452342e+00 -3.854343e+00 -1.308055e+00 2.212487e-02 -3.888147e-01 2.060796e+00 -2.359746e+00 2.981748e-01 3.047537e+00 1.500586e+01 3.381348e-02 -1.119244e-01 2.810370e-02 -1.114964e-01 -2.915248e-01 -5.152994e-02 8.779383e-02 2.896090e-01 2.679901e-01 3.006630e-01 2.853394e-01 1.357606e-01 1.900770e-02 3.613006e-02 5.925303e-02 3.018286e-03 -3.962107e-02 -5.272918e-02 -1.891703e-03 -8.904163e-02 7.926408e-02 1.501867e-01 2.893162e-01 1.715751e-01 7.853227e-02 1.190560e-02
<VARIANCE> 39
 4.868614e+01 2.796812e+01 6.411800e+01 4.640446e+01 4.366680e+01 4.867783e+01 3.640598e+01 3.990149e+01 3.192552e+01 3.242128e+01 2.320394e+01 2.587047e+01 4.035872e+00 4.435829e-01 6.439197e-01 9.026246e-01 1.896685e+00 2.165719e+00 2.478678e+00 3.518187e+00 3.548972e+00 3.102798e+00 3.422540e+00 3.058900e+00 2.494501e+00 1.886098e-02 8.076525e-02 1.533003e-01 2.164351e-01 3.759824e-01 4.689976e-01 5.735949e-01 8.243836e-01 8.239726e-01 6.847248e-01 7.798715e-01 6.215671e-01 5.762804e-01 1.607901e-03
<GCONST> 1.037966e+02
<MIXTURE> 3 2.749279e-01
<MEAN> 39
 -1.673055e+01 -7.654023e+00 2.393912e+00 -5.643766e+00 -4.600892e+00 -1.747151e+00 -2.076716e-01 -5.416764e-02 1.569835e+00 -8.998228e-01 1.761295e+00 4.029602e+00 1.414681e+01 -1.524022e-01 -4.110949e-01 -3.603462e-01 -4.371889e-01 -6.198345e-01 -5.657318e-01 -7.432567e-01 -7.548040e-01 -4.715257e-01 -3.394272e-01 -2.731447e-01 -1.933679e-01 4.584017e-02 8.731242e-03 2.340201e-02 -1.106805e-01 -3.851620e-02 -3.087529e-02 -1.338252e-01 -1.059522e-01 2.326652e-02 1.526484e-01 1.640003e-02 -1.549054e-01 -1.000598e-01 2.815908e-03
<VARIANCE> 39
 3.026231e+01 3.149889e+01 6.786885e+01 4.048220e+01 3.417175e+01 4.337462e+01 3.133615e+01 4.369730e+01 2.933228e+01 3.265157e+01 2.418273e+01 2.590829e+01 2.495977e+00 4.175241e-01 8.481286e-01 1.005983e+00 2.359039e+00 2.333216e+00 3.032765e+00 3.101317e+00 3.284420e+00 3.430320e+00 3.646066e+00 3.504502e+00 3.234543e+00 2.377156e-02 7.624624e-02 1.475340e-01 2.211773e-01 4.206697e-01 4.292311e-01 6.482376e-01 7.379972e-01 9.694425e-01 7.459928e-01 7.064281e-01 6.702575e-01 5.632025e-01 1.865904e-03
<GCONST> 1.041420e+02
<STATE> 3
<NUMMIXES> 3
<MIXTURE> 1 3.114046e-01
<MEAN> 39
 -7.081718e+00 5.420648e-01 6.579135e+00 4.426373e+00 -2.507071e+00 2.114739e+00 -2.894077e+00 1.057042e+00 1.111320e+00 -2.153527e+00 -1.337848e+00 4.147356e-01 1.775632e+01 1.453257e+00 8.068807e-01 6.635923e-01 6.740289e-01 -3.555470e-01 -2.766260e-01 -9.748355e-01 7.468605e-02 -2.891188e-01 -6.942248e-02 -6.970629e-02 -1.493298e-01 5.039834e-01 -5.485501e-02 -2.466747e-01 -2.259593e-01 -4.436969e-01 -3.554361e-01 -2.336842e-01 -1.219602e-01 7.029399e-02 8.436399e-02 1.845438e-01 2.755506e-01 1.323664e-01 -2.493228e-02
<VARIANCE> 39
 2.663367e+01 5.039759e+01 1.195172e+02 3.720788e+01 5.565037e+01 4.802304e+01 4.317073e+01 4.768143e+01 3.136360e+01 2.590997e+01 3.321152e+01 2.565734e+01 2.096808e+00 7.854798e-01 2.238195e+00 1.862790e+00 3.542230e+00 3.754095e+00 2.553449e+00 3.005091e+00 3.114962e+00 2.712478e+00 2.392241e+00 3.179068e+00 2.397573e+00 1.122825e-01 1.476339e-01 3.209915e-01 3.099132e-01 5.175551e-01 6.595820e-01 5.136239e-01 7.684576e-01 6.779271e-01 6.370613e-01 5.204642e-01 5.854309e-01 4.714675e-01 1.354811e-02
<GCONST> 1.123438e+02
<MIXTURE> 2 3.716137e-01
<MEAN> 39
 -7.708683e+00 -1.124585e+01 -4.208714e+00 -3.951956e-01 6.247843e-02 7.059590e+00 3.060246e+00 4.356871e+00 4.202031e+00 -9.009858e-01 -9.466636e-01 -3.095854e+00 1.757147e+01 1.390433e-01 2.065636e-01 6.292572e-02 3.554417e-01 2.102073e-01 2.263451e-01 1.876564e-01 -1.517211e-01 -1.007886e-01 -2.380208e-01 7.420258e-02 -1.512910e-01 2.398791e-02 5.804889e-02 9.275937e-02 3.981467e-02 6.340647e-02 2.162310e-03 -4.649096e-02 -9.747362e-02 -6.611826e-02 -5.304699e-02 -5.712477e-02 -4.479041e-02 6.322475e-02 1.396672e-02
<VARIANCE> 39
 1.060493e+01 2.951950e+01 2.676522e+01 3.966608e+01 7.468966e+01 4.180707e+01 4.637431e+01 3.476892e+01 4.264644e+01 3.807521e+01 2.988906e+01 2.726546e+01 6.891193e-01 4.914491e-01 1.138194e+00 1.199159e+00 2.087227e+00 2.717349e+00 3.014360e+00 3.187912e+00 3.596304e+00 4.464543e+00 3.792457e+00 3.267308e+00 2.772256e+00 2.280910e-02 7.527006e-02 1.864661e-01 2.107121e-01 3.885937e-01 5.987731e-01 6.847280e-01 7.712114e-01 6.521170e-01 8.979773e-01 7.623904e-01 6.948996e-01 5.689852e-01 1.993221e-03
<GCONST> 1.038050e+02
<MIXTURE> 3 3.169810e-01
<MEAN> 39
 -1.167506e+01 -1.676411e+01 -6.882063e+00 -3.186196e+00 -6.523294e+00 5.036406e+00 4.986923e+00 6.116714e+00 2.043550e+00 -2.809350e+00 -5.327038e-01 -1.079700e+00 1.672089e+01 -6.489725e-02 -7.903413e-02 -2.089971e-01 -1.050375e-01 -9.748305e-02 9.265810e-02 1.880673e-01 8.658309e-02 -6.415216e-02 -6.331805e-02 -1.666137e-02 -6.888571e-02 1.258406e-02 2.160672e-02 6.936776e-02 4.431476e-02 6.656241e-02 2.479556e-02 -5.591454e-02 -1.106819e-01 -7.778857e-02 1.536604e-02 6.477371e-02 -2.728825e-02 -5.641308e-02 -7.076938e-04
<VARIANCE> 39
 9.782000e+00 2.224731e+01 2.133379e+01 4.093676e+01 6.931032e+01 3.794796e+01 4.603811e+01 4.340130e+01 3.626924e+01 3.236926e+01 2.724275e+01 3.166780e+01 8.078856e-01 3.897096e-01 9.320233e-01 1.472828e+00 1.867126e+00 3.268380e+00 3.559171e+00 2.577779e+00 3.328215e+00 3.606295e+00 3.403928e+00 2.736182e+00 2.980393e+00 1.670914e-02 7.466186e-02 1.809059e-01 3.339793e-01 4.068767e-01 7.039106e-01 7.616579e-01 5.150863e-01 7.657300e-01 8.085086e-01 6.996064e-01 5.648078e-01 6.745276e-01 2.138390e-03
<GCONST> 1.025017e+02
<STATE> 4
<NUMMIXES> 3
<MIXTURE> 1 2.480395e-01
<MEAN> 39
 -4.151547e+00 -4.150870e+00 3.390446e+00 4.078545e+00 -6.492393e+00 -9.439343e-01 3.965230e+00 7.163404e+00 4.530360e-01 -1.506887e+00 -3.171046e+00 -1.487681e+00 1.890784e+01 -4.806527e-02 2.574543e-01 2.657013e-01 6.953962e-01 4.005406e-01 2.557628e-01 3.856980e-01 -8.521184e-02 5.545302e-02 -4.078895e-01 -9.552228e-02 -3.111787e-02 3.356094e-02 1.448508e-01 -1.087322e-03 -4.570673e-02 -1.255178e-01 5.045208e-02 2.103692e-01 -3.242097e-01 1.001839e-02 9.073255e-02 -4.836604e-04 1.810692e-01 6.423481e-02 8.600384e-03
<VARIANCE> 39
 6.946427e+00 1.366234e+01 3.703227e+01 2.598725e+01 3.941878e+01 2.764648e+01 4.178365e+01 2.722112e+01 3.261259e+01 2.988687e+01 2.880649e+01 3.353539e+01 3.153942e-01 5.500115e-01 5.664950e-01 9.438183e-01 2.032762e+00 1.891787e+00 2.007179e+00 2.773687e+00 2.104100e+00 1.929573e+00 2.368697e+00 1.994055e+00 1.907845e+00 4.688998e-03 1.148931e-01 1.442144e-01 2.026031e-01 5.418291e-01 4.305936e-01 4.764611e-01 6.106579e-01 5.348821e-01 5.092886e-01 6.080372e-01 3.860136e-01 3.915895e-01 3.500509e-04
<GCONST> 8.977663e+01
<MIXTURE> 2 4.377541e-01
<MEAN> 39
 -2.022692e+00 -3.469343e+00 5.985759e+00 2.205702e+00 -8.365541e+00 -2.096650e-01 -2.727013e+00 5.471566e+00 8.667054e-01 -2.573347e+00 8.656700e-01 -1.043953e+00 1.935433e+01 3.194666e-01 -5.391295e-02 -3.222394e-01 -6.672634e-01 -5.287381e-01 -5.666056e-01 -3.761263e-01 1.945229e-01 3.712239e-02 5.822791e-01 1.054807e-01 8.440981e-02 6.216475e-02 -1.668789e-01 -2.358068e-02 3.560714e-03 1.383188e-01 1.306077e-01 -2.513761e-02 2.328598e-01 -8.085258e-02 -1.017144e-01 -4.077705e-02 -1.436919e-01 -2.703764e-03 -1.936632e-02
<VARIANCE> 39
 8.875848e+00 2.436783e+01 1.014028e+02 2.516027e+01 3.907500e+01 3.449828e+01 7.000170e+01 3.832047e+01 2.584103e+01 3.514336e+01 3.481528e+01 2.917870e+01 3.725799e-01 5.129231e-01 1.136873e+00 9.718516e-01 2.104698e+00 1.715893e+00 2.785384e+00 2.776816e+00 1.997601e+00 2.520406e+00 2.531728e+00 1.819821e+00 1.733153e+00 1.281670e-02 7.993035e-02 1.682260e-01 2.022910e-01 4.524974e-01 3.389954e-01 5.353816e-01 5.335297e-01 4.197220e-01 4.831674e-01 5.432471e-01 4.120167e-01 3.154438e-01 1.479318e-03
<GCONST> 9.504823e+01
<MIXTURE> 3 3.142037e-01
<MEAN> 39
 -5.383099e+00 -4.060780e+00 3.722620e+00 5.428117e+00 -2.747974e+00 1.656013e+00 2.520343e+00 5.952374e+00 1.933720e+00 -3.437962e+00 -2.965691e+00 6.900303e-01 1.866668e+01 1.075664e-01 6.934646e-03 -1.390782e-01 -2.954231e-02 -3.682686e-02 1.797331e-01 -5.179439e-02 -1.505089e-01 -2.509438e-02 -5.540477e-02 -4.692256e-02 -6.949735e-02 3.124320e-02 5.764429e-02 -1.114376e-02 -3.624721e-02 -1.267273e-01 -1.681425e-01 -7.931554e-02 -8.993199e-02 -4.554762e-03 2.346473e-02 1.279637e-01 3.839742e-02 -9.276598e-02 1.927890e-03
<VARIANCE> 39
 5.119787e+00 1.517633e+01 3.873209e+01 2.688348e+01 3.909445e+01 3.059254e+01 3.910189e+01 2.611410e+01 2.853974e+01 3.283000e+01 2.807946e+01 3.496229e+01 4.072617e-01 3.139905e-01 5.163630e-01 1.043862e+00 2.029057e+00 2.161889e+00 2.557261e+00 2.641728e+00 2.894170e+00 2.672970e+00 3.048191e+00 2.230495e+00 2.299801e+00 5.826445e-03 4.945248e-02 1.171410e-01 2.036741e-01 3.975078e-01 4.349864e-01 5.558664e-01 5.307898e-01 5.434265e-01 5.317103e-01 6.149843e-01 4.108997e-01 5.548766e-01 2.238095e-04
<GCONST> 8.976114e+01
<TRANSP> 5
 0.000000e+00 1.000000e+00 0.000000e+00 0.000000e+00 0.000000e+00
 0.000000e+00 9.139659e-01 8.603410e-02 0.000000e+00 0.000000e+00
 0.000000e+00 0.000000e+00 8.979084e-01 1.020916e-01 0.000000e+00
 0.000000e+00 0.000000e+00 0.000000e+00 9.007334e-01 9.926670e-02
 0.000000e+00 0.000000e+00 0.000000e+00 0.000000e+00 0.000000e+00
<ENDHMM>
~h "i"
<BEGINHMM>
<NUMSTATES> 5
<STATE> 2
<NUMMIXES> 3
<MIXTURE> 1 4.658912e-01
<MEAN> 39
 -9.439505e+00 3.083533e+00 1.012506e+01 2.400517e+00 -8.210673e+00 -7.074387e+00 -5.450979e+00 1.220779e+00 1.976660e-01 9.266337e-01 1.924830e-01 3.591664e+00 1.650871e+01 3.813718e-01 3.513309e-01 2.587761e-01 4.465618e-01 2.592318e-01 4.875316e-01 4.893440e-01 5.707704e-02 1.076823e-02 -1.736066e-01 -3.625479e-01 -1.759964e-01 1.716647e-01 1.570694e-01 -1.694483e-01 -9.003176e-02 -1.648146e-01 5.373281e-02 1.976650e-01 -1.683807e-01 3.813665e-02 -1.120572e-01 2.631990e-02 1.179322e-02 -1.577825e-01 3.292716e-02
<VARIANCE> 39
 4.196513e+01 2.810087e+01 5.428147e+01 5.839748e+01 8.223808e+01 7.419928e+01 5.985100e+01 4.501705e+01 4.864753e+01 3.868690e+01 5.741340e+01 3.438926e+01 5.232457e+00 1.438728e+00 1.411165e+00 2.027320e+00 2.312387e+00 2.624220e+00 3.670461e+00 3.705998e+00 3.341692e+00 2.824253e+00 2.480677e+00 2.900463e+00 2.674098e+00 1.567808e-01 1.597750e-01 3.360482e-01 3.848048e-01 6.857287e-01 6.319731e-01 8.735174e-01 9.340347e-01 6.817128e-01 6.041360e-01 5.225819e-01 7.376146e-01 5.544869e-01 8.140895e-03
<GCONST> 1.172265e+02
<MIXTURE> 2 3.191728e-01
<MEAN> 39
 -9.820708e-01 -4.107591e-03 1.011262e+01 1.502649e-01 -7.757557e+00 -6.735669e+00 -1.154618e+01 1.872023e+00 8.320972e-01 2.419006e+00 1.695186e+00 1.261764e+00 1.956943e+01 4.856609e-01 -3.847263e-01 2.149665e-01 -3.459489e-01 -8.588270e-01 -5.016190e-01 -8.314512e-01 6.243926e-01 -7.231418e-02 1.239289e-01 4.209051e-01 1.128014e-01 1.361919e-01 -1.838140e-01 1.293745e-01 -1.634155e-02 1.552421e-01 1.958174e-01 1.485578e-01 2.721151e-01 5.292749e-03 -2.335632e-02 -1.932600e-01 -1.850783e-01 -5.109683e-02 -4.630005e-02
<VARIANCE> 39
 1.900070e+01 4.060741e+01 4.507332e+01 2.625745e+01 4.639698e+01 3.816805e+01 5.935066e+01 4.786120e+01 3.825035e+01 2.638537e+01 2.729331e+01 3.225894e+01 1.214105e+00 8.372493e-01 1.358250e+00 1.007565e+00 1.782562e+00 1.915059e+00 3.070687e+00 2.532961e+00 1.938146e+00 2.021882e+00 2.437036e+00 1.782086e+00 2.062476e+00 2.560170e-02 1.300023e-01 3.252596e-01 2.096180e-01 4.048788e-01 3.817979e-01 5.062330e-01 4.846281e-01 4.453448e-01 4.200719e-01 4.028613e-01 3.600721e-01 3.524825e-01 2.684129e-03
<GCONST> 9.946463e+01
<MIXTURE> 3 2.149406e-01
<MEAN> 39
 -4.679343e+00 1.016801e+00 1.149761e+01 4.981773e-01 -7.258914e+00 -5.180529e+00 -7.931537e+00 2.475617e+00 -1.682979e+00 -2.026699e-03 -6.909791e-02 5.755440e-01 1.842471e+01 8.317713e-01 -1.319781e+00 2.265832e-01 -1.579391e+00 -1.293594e+00 -8.632348e-01 -1.891163e+00 7.256014e-01 -5.365561e-01 4.652702e-01 1.070754e+00 -8.383177e-02 2.820309e-01 -3.439748e-01 6.494762e-02 -3.244960e-02 8.796180e-02 -1.183836e-01 -3.255679e-01 1.589317e-01 -5.825294e-02 1.965352e-01 9.711262e-02 1.503481e-01 2.995030e-01 -9.088664e-02
<VARIANCE> 39
