~o
<STREAMINFO> 1 39
<VECSIZE> 39<NULLD><MFCC_E_D_A><DIAGC>
~s "silst"
<NUMMIXES> 5
<MIXTURE> 1 1.307625e-01
<MEAN> 39
 -1.369673e+01 -1.252307e-01 -9.341691e-02 3.185762e-01 9.201507e-02 -1.885884e+00 -1.762247e+00 -4.091446e-01 1.892746e+00 2.522221e+00 -2.348618e-01 -4.142115e-02 1.145573e+01 1.195701e-01 3.667391e-01 3.122118e-01 4.881321e-01 2.714084e-01 3.391995e-01 1.184489e-01 2.587051e-01 2.093814e-01 5.749473e-02 1.645317e-01 6.671179e-02 -1.811101e-02 7.508919e-02 1.105136e-01 5.914076e-02 1.156531e-01 1.236320e-01 1.948762e-01 9.378932e-02 1.292179e-02 -6.410471e-02 -1.307524e-01 -3.482368e-02 -6.101967e-03 1.433374e-02
<VARIANCE> 39
 2.214645e+01 3.470039e+01 4.277275e+01 4.169366e+01 3.933437e+01 5.115604e+01 4.269913e+01 4.288834e+01 3.765846e+01 3.751909e+01 3.860656e+01 3.182683e+01 3.000176e+00 1.035277e+00 1.893569e+00 2.161104e+00 2.828193e+00 2.961280e+00 3.312824e+00 3.684600e+00 3.601917e+00 3.251774e+00 3.613789e+00 3.420729e+00 2.836614e+00 1.081377e-01 2.409378e-01 4.739622e-01 5.861223e-01 7.719419e-01 7.406607e-01 8.523605e-01 8.916580e-01 8.963092e-01 8.173202e-01 8.770611e-01 8.417520e-01 7.275566e-01 2.005189e-02
<GCONST> 1.178783e+02
<MIXTURE> 2 1.868755e-01
<MEAN> 39
 -1.316059e+01 -1.031637e+00 -2.269613e+00 5.819846e-02 -2.118999e-01 -3.776900e-01 -1.976296e+00 -6.375145e-01 1.937424e+00 1.523310e+00 -5.295367e-01 -4.810329e-01 1.021883e+01 1.631262e-01 3.886214e-01 4.697196e-01 4.714309e-01 4.279872e-01 4.404643e-01 4.803186e-01 4.704233e-01 3.864041e-01 3.152131e-01 2.552933e-01 9.631083e-02 5.751117e-02 1.800195e-02 9.506880e-02 1.932990e-01 1.362741e-01 8.653010e-02 6.083808e-02 4.860166e-02 1.637811e-02 1.861093e-02 -1.045265e-02 2.752186e-02 -2.758543e-02 4.490426e-02
<VARIANCE> 39
 3.875674e+00 1.722320e+01 1.751228e+01 1.697107e+01 2.274617e+01 2.551641e+01 2.691329e+01 2.914804e+01 3.475842e+01 2.852545e+01 2.483612e+01 2.205076e+01 4.442155e-01 3.580686e-01 8.105211e-01 1.264462e+00 1.823492e+00 2.396915e+00 2.795192e+00 3.042894e+00 3.203428e+00 3.765071e+00 3.730309e+00 3.299777e+00 2.822993e+00 2.353899e-02 7.319980e-02 1.670176e-01 2.539654e-01 3.852596e-01 5.037852e-01 5.900594e-01 6.625893e-01 7.360499e-01 8.387891e-01 8.064852e-01 6.913118e-01 6.174061e-01 3.996507e-03
<GCONST> 9.647256e+01
<MIXTURE> 3 3.210342e-01
<MEAN> 39
 -1.262599e+01 7.775940e-01 -5.393190e-02 9.770543e-01 -7.849246e-01 -1.064556e+00 -2.275115e+00 -5.476349e-01 2.726606e+00 2.677631e+00 9.194596e-01 -3.148561e-01 1.060849e+01 -1.817047e-01 -2.707872e-01 -3.418372e-01 -3.854083e-01 -3.746584e-01 -2.479105e-01 -2.201370e-01 -2.034372e-01 -1.183513e-01 -5.925907e-02 1.723116e-02 4.892356e-02 -6.947359e-02 -1.244211e-01 -1.589707e-01 -8.387762e-02 3.134674e-03 1.147647e-01 1.228086e-01 9.506197e-02 -5.870872e-03 -1.683045e-01 -2.069621e-01 -1.713567e-01 -1.917850e-02 -2.999967e-02
<VARIANCE> 39
 3.490083e+00 1.922213e+01 1.458738e+01 1.593332e+01 2.070149e+01 2.263573e+01 2.527185e+01 2.802620e+01 3.332849e+01 2.796434e+01 2.588219e+01 2.348563e+01 4.673322e-01 3.792405e-01 8.434555e-01 1.278959e+00 1.929438e+00 2.417880e+00 2.972821e+00 3.206466e+00 3.390199e+00 3.773845e+00 3.886581e+00 3.345831e+00 2.927060e+00 2.084579e-02 7.029378e-02 1.704739e-01 2.681260e-01 4.079705e-01 4.950894e-01 5.814254e-01 6.502739e-01 7.375360e-01 8.193343e-01 7.995588e-01 6.805818e-01 6.527370e-01 3.336892e-03
<GCONST> 9.619527e+01
<MIXTURE> 4 2.209891e-01
<MEAN> 39
 -1.352852e+01 -2.054836e+00 -1.993552e+00 6.819557e-01 1.169164e+00 1.698226e+00 -1.016795e+00 -1.112624e+00 1.179129e+00 -5.931073e-01 -2.555284e+00 -1.578282e+00 1.023277e+01 -1.050503e-02 2.429544e-02 1.732934e-02 6.690951e-02 3.176381e-02 -3.520321e-02 -9.506044e-02 -1.228944e-01 -1.693162e-01 -1.883740e-01 -2.067238e-01 -1.370081e-01 -2.859125e-02 3.996268e-02 1.152502e-01 9.617088e-02 -4.142583e-02 -2.042594e-01 -2.972039e-01 -1.735386e-01 4.370016e-02 2.081660e-01 3.557512e-01 3.513763e-01 1.360211e-01 1.212689e-02
<VARIANCE> 39
 3.858849e+00 1.508359e+01 1.630497e+01 1.709771e+01 2.445375e+01 2.581054e+01 2.817132e+01 2.835815e+01 3.551920e+01 2.900771e+01 2.514111e+01 2.122748e+01 2.918819e-01 3.282413e-01 7.382573e-01 1.183334e+00 1.823575e+00 2.390294e+00 2.830676e+00 3.081247e+00 3.306430e+00 3.674803e+00 3.830240e+00 3.228040e+00 2.805205e+00 1.449780e-02 7.097521e-02 1.603781e-01 2.718812e-01 4.351681e-01 5.396028e-01 6.318772e-01 6.903620e-01 7.461034e-01 7.961633e-01 7.996477e-01 6.697147e-01 6.109204e-01 2.455198e-03
<GCONST> 9.498300e+01
<MIXTURE> 5 1.403080e-01
<MEAN> 39
 -1.444382e+01 -6.755632e-01 1.271893e-01 7.010860e-01 1.411450e+00 -9.561945e-01 -9.741430e-01 -2.877498e-01 8.751585e-01 1.370659e+00 -8.282179e-03 1.407509e-02 1.139015e+01 -9.682044e-02 -4.993299e-01 -3.960597e-01 -4.691758e-01 -2.284332e-01 -3.646237e-01 -2.620329e-01 -4.139916e-01 -3.818341e-01 -2.049869e-01 -3.109767e-01 -1.680943e-01 1.523716e-02 1.141554e-01 1.698275e-01 -1.290031e-03 7.459966e-02 -7.270965e-02 1.911894e-02 -6.873684e-02 -4.213254e-03 8.904170e-02 5.980202e-02 -1.654641e-02 -4.469527e-02 -3.439207e-02
<VARIANCE> 39
 2.179943e+01 3.810506e+01 3.620141e+01 4.022280e+01 3.762233e+01 4.244405e+01 3.869909e+01 3.756352e+01 3.148605e+01 3.069185e+01 3.116327e+01 2.304047e+01 1.928900e+00 1.667835e+00 2.910094e+00 2.782270e+00 3.495263e+00 3.551427e+00 4.072047e+00 3.823020e+00 3.839025e+00 3.537029e+00 3.697439e+00 3.474899e+00 2.922231e+00 1.713168e-01 3.067865e-01 5.798578e-01 5.938345e-01 7.940947e-01 7.780805e-01 8.292561e-01 8.653711e-01 8.142635e-01 7.545716e-01 7.679575e-01 7.475315e-01 6.074475e-01 1.987333e-02
<GCONST> 1.182643e+02
~h "@"
<BEGINHMM>
<NUMSTATES> 5
<STATE> 2
<NUMMIXES> 5
<MIXTURE> 1 1.501954e-01
<MEAN> 39
 5.844640e-01 -2.788375e+00 5.877165e+00 -2.182049e+00 -7.349814e+00 -8.351597e+00 -2.154600e+01 2.323320e+00 7.235574e+00 6.482669e+00 -3.059993e+00 4.314505e+00 2.018667e+01 -1.999997e-01 1.037026e+00 4.212186e-01 3.519448e-02 1.114163e-01 -5.885177e-01 6.803340e-01 6.226142e-02 1.288086e+00 3.884924e-01 -3.599972e-01 6.563617e-01 -1.996315e-02 8.454812e-02 1.878410e-01 -9.579944e-03 2.608181e-01 3.438828e-01 5.406832e-01 7.113581e-01 -3.382260e-03 -4.445618e-01 -3.570268e-01 -1.745289e-02 -3.474131e-01 -8.099494e-03
<VARIANCE> 39
 4.245375e+00 1.700553e+01 3.974502e+01 2.696512e+01 3.308218e+01 3.468267e+01 4.502778e+01 3.271323e+01 3.860229e+01 4.721832e+01 2.978534e+01 2.561728e+01 2.268905e-01 3.445439e-01 7.121326e-01 8.408462e-01 1.189473e+00 1.921800e+00 2.511866e+00 3.063303e+00 1.441299e+00 1.966588e+00 1.783103e+00 1.585883e+00 1.427294e+00 4.478818e-03 4.414718e-02 1.413499e-01 1.591824e-01 2.026877e-01 2.864722e-01 4.052339e-01 4.062403e-01 2.538437e-01 4.172779e-01 3.325498e-01 2.864189e-01 2.395571e-01 2.577862e-04
<GCONST> 8.240023e+01
<MIXTURE> 2 2.078252e-01
<MEAN> 39
 1.996676e+00 -2.881675e+00 4.344222e+00 -8.871980e-01 -4.473172e+00 -1.621580e+00 -1.443145e+01 2.316383e+00 1.283437e+00 1.882851e+00 -2.230230e+00 -1.019891e+00 2.014612e+01 8.498765e-02 -5.943177e-01 -3.880749e-02 -4.661366e-01 -4.991661e-01 -3.695156e-01 -1.165649e+00 1.891499e-01 -2.169744e-02 4.853550e-01 3.318485e-01 2.292180e-01 -2.415828e-03 -1.496100e-01 2.282047e-01 5.898901e-02 -9.572881e-02 -2.954583e-02 -3.206986e-01 9.803246e-02 -6.324416e-02 3.424724e-01 2.422895e-01 -7.689939e-02 1.626664e-01 -1.266489e-02
<VARIANCE> 39
 8.275369e+00 3.186592e+01 4.424817e+01 3.059286e+01 4.196021e+01 3.939270e+01 6.072652e+01 3.329386e+01 2.686402e+01 3.093515e+01 3.059153e+01 2.319382e+01 3.291852e-01 6.750337e-01 7.272404e-01 1.012452e+00 1.233912e+00 1.870370e+00 2.414944e+00 3.101940e+00 2.001643e+00 2.482920e+00 2.128475e+00 1.553908e+00 1.372589e+00 6.267155e-03 7.387333e-02 1.790108e-01 1.998817e-01 2.600858e-01 3.969781e-01 3.764882e-01 6.510541e-01 3.799972e-01 3.868938e-01 3.910276e-01 3.207130e-01 2.805462e-01 4.667448e-04
<GCONST> 8.930907e+01
<MIXTURE> 3 2.909614e-01
<MEAN> 39
 4.641914e-01 -1.163701e-01 5.824870e+00 -1.149203e+00 -5.724470e+00 -6.421825e+00 -1.256499e+01 3.475633e+00 7.196994e+00 3.825377e+00 -5.580553e+00 2.359348e+00 2.021264e+01 2.261816e-01 1.621878e-01 3.694432e-02 5.193592e-01 6.634947e-01 1.217317e+00 9.378306e-01 -1.575532e-01 -9.022731e-01 -7.383501e-01 -2.546131e-01 -5.782247e-01 -1.933601e-02 8.285721e-02 -2.972730e-01 -1.059398e-01 -3.643127e-02 -2.053578e-02 1.845377e-01 -3.468735e-01 -3.866128e-02 -3.784461e-01 -5.258908e-03 2.371203e-01 -1.778096e-01 -6.092609e-03
<VARIANCE> 39
 7.039750e+00 1.861977e+01 3.673598e+01 2.324459e+01 3.432413e+01 3.457940e+01 5.816908e+01 2.761693e+01 3.279525e+01 3.277492e+01 3.364359e+01 2.929867e+01 2.844710e-01 3.005296e-01 6.888754e-01 8.693612e-01 1.082790e+00 1.322275e+00 1.856356e+00 2.294358e+00 1.799693e+00 1.809464e+00 1.502791e+00 1.507742e+00 1.418589e+00 2.464749e-03 1.132798e-01 1.243781e-01 1.406095e-01 1.850628e-01 2.847583e-01 4.159396e-01 4.236613e-01 2.456726e-01 2.794102e-01 2.589287e-01 2.520638e-01 1.911606e-01 2.182405e-04
<GCONST> 8.041960e+01
<MIXTURE> 4 2.043153e-01
<MEAN> 39
 1.909463e+00 -2.356145e+00 3.883457e+00 -6.744799e-01 -3.508867e+00 -7.908126e-01 -1.262618e+01 1.973404e+00 1.833161e+00 2.696327e+00 -4.263335e+00 -1.104030e+00 1.988488e+01 2.394014e-01 -9.385969e-01 -3.849783e-01 -4.735950e-01 -3.987764e-01 4.642621e-02 -1.213814e+00 -1.424057e-01 -5.205813e-01 5.313450e-01 5.528746e-01 -1.662396e-01 5.860954e-03 -2.349124e-01 1.428600e-01 1.659054e-02 -2.076904e-01 -1.361322e-01 -5.084729e-01 -1.621108e-01 -4.013727e-02 5.206105e-01 2.565646e-01 1.864400e-03 2.622857e-01 -2.209464e-02
<VARIANCE> 39
 8.442856e+00 2.264446e+01 3.290815e+01 2.803016e+01 3.405149e+01 3.288820e+01 4.735458e+01 2.890282e+01 2.198550e+01 2.005712e+01 2.023944e+01 1.761139e+01 7.109967e-01 6.976110e-01 8.563585e-01 1.150271e+00 1.662358e+00 1.865233e+00 2.690428e+00 2.492007e+00 1.761263e+00 2.410245e+00 1.901343e+00 1.575089e+00 1.290169e+00 1.331919e-02 8.863553e-02 1.969225e-01 1.934321e-01 2.908391e-01 3.517517e-01 4.567505e-01 6.173236e-01 3.608553e-01 4.017742e-01 3.944552e-01 3.238014e-01 3.191361e-01 1.214531e-03
<GCONST> 8.968086e+01
<MIXTURE> 5 1.467010e-01
<MEAN> 39
 1.301710e+00 -5.600632e+00 3.128375e+00 -4.970991e+00 -6.405207e+00 -4.433929e+00 -1.723267e+01 5.074964e+00 5.452056e+00 7.458727e+00 -2.905552e+00 -5.200897e-01 2.012757e+01 -4.896556e-01 5.483519e-01 1.520017e-01 -2.503977e-01 -3.341254e-01 -1.080105e+00 2.500346e-01 -1.042199e-03 1.471112e+00 6.483810e-01 -5.544302e-01 5.281266e-01 -2.052699e-02 -6.243499e-02 3.778776e-01 8.976893e-02 3.548965e-01 2.588008e-01 2.337139e-01 7.203926e-01 -2.611974e-01 6.255414e-03 -3.838905e-01 -2.376479e-01 -6.134198e-03 -7.373190e-03
<VARIANCE> 39
 5.909998e+00 1.996422e+01 4.262852e+01 2.749556e+01 3.265858e+01 4.304570e+01 5.887293e+01 4.216956e+01 4.166340e+01 2.938250e+01 3.163100e+01 3.824470e+01 2.539850e-01 6.212839e-01 8.189179e-01 8.284868e-01 1.250782e+00 1.570806e+00 1.880085e+00 3.141599e+00 1.689574e+00 1.869452e+00 1.833452e+00 1.652038e+00 1.241025e+00 3.228806e-03 7.695162e-02 1.326617e-01 1.610190e-01 2.209048e-01 3.247554e-01 3.900882e-01 4.368225e-01 3.758376e-01 4.362800e-01 2.653743e-01 3.192879e-01 2.427615e-01 2.461055e-04
<GCONST> 8.492677e+01
<STATE> 3
<NUMMIXES> 5
<MIXTURE> 1 2.364352e-01
<MEAN> 39
 -9.111153e-01 1.889505e+00 5.447890e+00 -1.833130e+00 -5.323799e+00 -7.320702e+00 -1.402263e+01 -2.240133e+00 6.121139e+00 6.642120e+00 -3.113824e+00 2.372015e+00 1.897691e+01 -8.594005e-01 7.138780e-01 3.706416e-01 9.552801e-01 1.424755e+00 4.908125e-01 2.193988e+00 4.369448e-02 8.471237e-01 -5.165165e-01 -1.988293e-01 -1.554971e-01 -1.458264e-01 1.512649e-01 1.174688e-01 7.202610e-02 3.595910e-01 4.834024e-01 6.860010e-01 5.093446e-01 2.354124e-01 -3.531579e-01 -4.339010e-01 -1.445925e-01 -3.197249e-01 6.112995e-03
<VARIANCE> 39
 1.393456e+01 1.834663e+01 2.694098e+01 3.362727e+01 4.224425e+01 4.588777e+01 6.298220e+01 5.164964e+01 4.206802e+01 5.156609e+01 2.621846e+01 2.250068e+01 7.436087e-01 9.193247e-01 2.014811e+00 1.461030e+00 2.343620e+00 2.757529e+00 3.456139e+00 3.245171e+00 2.351492e+00 3.588896e+00 3.474457e+00 2.529324e+00 1.955631e+00 1.967790e-02 1.491903e-01 2.135916e-01 2.520730e-01 3.726342e-01 4.747660e-01 5.404284e-01 7.413090e-01 4.009390e-01 7.060243e-01 6.505286e-01 4.347148e-01 3.128289e-01 1.424065e-03
<GCONST> 1.020681e+02
<MIXTURE> 2 1.211779e-01
<MEAN> 39
 4.501009e+00 6.642112e+00 4.242785e+00 5.353387e-01 3.034360e+00 3.398786e+00 -1.107352e+01 -1.015679e+01 -6.734664e-02 3.814213e+00 -2.151638e+00 -1.203216e+00 1.844105e+01 -2.141975e-01 1.034133e+00 5.056877e-01 5.593498e-01 3.472151e-01 -3.299486e-01 3.963583e-01 1.434807e-01 4.085027e-01 -8.138870e-02 -1.160688e-02 7.221769e-02 -1.617573e-01 3.467190e-02 -3.021420e-02 -4.486138e-02 -8.201215e-02 -1.853051e-01 -5.931966e-02 -1.224498e-01 2.313809e-01 2.065680e-01 2.261114e-01 1.219437e-01 5.285704e-02 2.055785e-02
<VARIANCE> 39
 5.760041e+00 2.029001e+01 2.236838e+01 2.887048e+01 2.633346e+01 3.786089e+01 2.767264e+01 4.356630e+01 2.529879e+01 3.916338e+01 3.736513e+01 3.743419e+01 7.578411e-01 2.837610e-01 1.219148e+00 1.019220e+00 1.502369e+00 2.022697e+00 2.002545e+00 2.916462e+00 3.358939e+00 2.624921e+00 4.187602e+00 3.808314e+00 3.888515e+00 1.046104e-02 5.585531e-02 2.466902e-01 2.677678e-01 4.088049e-01 5.117280e-01 4.403144e-01 6.976688e-01 6.042029e-01 5.690815e-01 8.459468e-01 7.605746e-01 6.885281e-01 1.372649e-03
<GCONST> 9.753076e+01
<MIXTURE> 3 2.790783e-01
<MEAN> 39
 8.031461e-01 2.736845e+00 4.858065e+00 -1.679155e+00 -5.189451e+00 -4.013698e+00 -1.175467e+01 -3.579251e-02 1.998052e+00 4.443645e+00 -2.852958e+00 1.197753e-01 1.904861e+01 1.769942e-01 -1.377973e-02 -4.044935e-01 -1.043672e+00 -8.802915e-01 -1.093368e+00 -9.223583e-01 -3.161519e-01 -2.138760e-01 8.715633e-01 3.300655e-01 2.440030e-01 -4.402072e-02 -3.870572e-01 -6.459533e-02 7.774689e-02 2.288509e-01 1.951206e-01 -1.379610e-01 4.159611e-01 -6.652194e-02 2.767719e-01 -1.064888e-01 -6.081446e-03 1.449143e-01 -3.679799e-02
<VARIANCE> 39
 8.878032e+00 2.692897e+01 3.056802e+01 4.526503e+01 5.471266e+01 4.885770e+01 6.263643e+01 6.755032e+01 6.337178e+01 4.152504e+01 5.410597e+01 2.825204e+01 8.040303e-01 1.013385e+00 9.972235e-01 1.140332e+00 1.658149e+00 2.032245e+00 3.175159e+00 2.383649e+00 2.285367e+00 2.633444e+00 2.306024e+00 2.102313e+00 1.994312e+00 1.822866e-02 1.216008e-01 3.006357e-01 2.619419e-01 6.162762e-01 7.233110e-01 7.862455e-01 7.932039e-01 5.091969e-01 7.309151e-01 6.791533e-01 5.774058e-01 4.632684e-01 1.123084e-03
<GCONST> 1.036423e+02
<MIXTURE> 4 2.330622e-01
<MEAN> 39
 -2.388289e+00 3.148908e+00 5.821038e+00 6.284336e-01 -4.173188e-01 -3.507514e+00 -9.175810e+00 -5.026385e-01 7.038202e+00 3.602042e+00 -4.738378e+00 1.536853e+00 1.891454e+01 8.250865e-02 5.575360e-01 1.108368e-01 5.674405e-01 1.182227e+00 1.092997e+00 1.237429e+00 7.962076e-02 -4.465701e-01 -6.190829e-01 -3.583545e-01 -7.497686e-01 -4.950419e-02 3.146898e-01 -7.426428e-02 -1.717797e-01 -3.346694e-01 -3.603491e-01 -8.554419e-02 -4.629442e-01 -5.554985e-02 -5.412768e-01 1.720168e-01 1.407761e-01 -1.540527e-01 7.399520e-03
<VARIANCE> 39
 1.509345e+01 2.674267e+01 2.687982e+01 3.917718e+01 4.605402e+01 4.665241e+01 5.340126e+01 5.408600e+01 5.698294e+01 3.154652e+01 2.758527e+01 2.255082e+01 8.594281e-01 1.101660e+00 1.389192e+00 1.226683e+00 2.111459e+00 2.352775e+00 2.760702e+00 3.675951e+00 2.677689e+00 3.611566e+00 3.200222e+00 2.452386e+00 1.966992e+00 1.840410e-02 2.021465e-01 3.213944e-01 2.222124e-01 5.064595e-01 5.724447e-01 7.975886e-01 7.023111e-01 4.094213e-01 6.067696e-01 5.793792e-01 4.570137e-01 3.845128e-01 8.795400e-04
<GCONST> 1.028458e+02
<MIXTURE> 5 1.302450e-01
<MEAN> 39
 4.433134e+00 5.410324e+00 3.380510e+00 -7.574295e-02 2.331253e+00 3.377033e+00 -1.190138e+01 -7.792943e+00 2.310832e-01 4.519191e+00 -1.104283e+00 -2.015900e+00 1.879124e+01 -1.583977e-01 1.507367e-01 -4.430570e-01 -3.176782e-01 1.666370e-01 3.446064e-01 2.917146e-01 -5.317582e-01 -1.076343e+00 -7.115023e-01 8.798368e-02 -3.127527e-01 -1.580391e-01 -1.905039e-01 -3.765049e-02 9.189565e-03 -6.348287e-02 -9.789228e-02 -2.905825e-01 -2.038043e-01 9.164429e-02 3.039358e-01 3.654463e-02 -2.604534e-02 2.445741e-01 -1.481035e-02
<VARIANCE> 39
 8.574361e+00 2.150347e+01 2.600836e+01 3.693416e+01 2.543796e+01 4.122051e+01 2.189594e+01 3.577131e+01 3.341110e+01 3.302090e+01 3.342974e+01 3.498776e+01 1.212773e+00 3.445588e-01 6.586582e-01 1.107017e+00 1.660252e+00 2.192078e+00 2.688938e+00 3.071646e+00 2.882566e+00 2.951007e+00 3.748235e+00 2.884798e+00 2.437639e+00 1.377614e-02 5.848605e-02 1.885044e-01 2.684916e-01 2.992585e-01 4.487878e-01 5.594803e-01 5.695201e-01 6.544046e-01 6.254261e-01 7.757009e-01 6.403433e-01 6.258321e-01 1.120930e-03
<GCONST> 9.696409e+01
<STATE> 4
<NUMMIXES> 5
<MIXTURE> 1 2.319495e-01
<MEAN> 39
 -3.074201e-01 -9.347160e-01 -3.509536e+00 -1.080832e+01 3.807793e-01 3.898363e+00 -1.084069e+01 5.756092e-01 8.192649e+00 1.282436e+01 -4.865251e+00 -5.190716e+00 1.863764e+01 -3.758938e-01 6.418455e-01 4.277973e-01 9.417267e-01 6.063359e-01 2.273262e-01 1.048661e+00 -2.825575e-01 1.686488e-01 -8.176925e-01 -3.338379e-01 2.027944e-01 -8.649988e-02 -1.289729e-02 1.894856e-02 2.702907e-01 6.047213e-01 1.592847e-01 2.284082e-01 4.066471e-01 -3.468488e-02 -5.060060e-01 -7.221267e-01 -1.147626e-02 2.898368e-01 8.394442e-03
<VARIANCE> 39
 1.293792e+01 2.475904e+01 2.627596e+01 9.772749e+01 4.546975e+01 9.218163e+01 6.811228e+01 5.930961e+01 5.341156e+01 5.230565e+01 6.972144e+01 3.897071e+01 2.784116e+00 8.434409e-01 1.324329e+00 1.447595e+00 3.170854e+00 2.503703e+00 2.879926e+00 2.915220e+00 3.036072e+00 4.432656e+00 4.350026e+00 2.764758e+00 2.907336e+00 2.886974e-02 1.311935e-01 2.790900e-01 2.543152e-01 6.432850e-01 5.146624e-01 7.033103e-01 7.225347e-01 6.096339e-01 8.114885e-01 7.998193e-01 7.545910e-01 5.869407e-01 4.535939e-03
<GCONST> 1.125014e+02
<MIXTURE> 2 1.788992e-01
<MEAN> 39
 1.135579e-01 7.090699e-01 -3.127437e+00 -8.055491e+00 3.865272e+00 7.916332e+00 -8.467026e+00 -2.089307e+00 1.683939e+00 6.175556e+00 -2.634702e+00 -1.780221e+00 1.875433e+01 3.607268e-01 -1.059452e-01 -4.158739e-01 -9.765028e-01 -6.164378e-01 -3.455057e-01 -9.746227e-01 3.245156e-02 1.055062e-01 7.985041e-01 6.621410e-01 1.695783e-01 1.827421e-02 -7.905380e-02 1.799577e-02 6.218279e-02 -3.295623e-02 -6.823101e-02 -9.400496e-02 4.297611e-02 9.041032e-02 3.379527e-01 2.973182e-02 -6.338818e-02 -7.436376e-02 -1.345078e-02
<VARIANCE> 39
 2.030297e+01 3.360505e+01 1.996641e+01 8.093343e+01 5.330305e+01 4.639344e+01 5.549775e+01 4.391050e+01 2.650215e+01 5.227571e+01 3.532908e+01 3.077104e+01 2.764107e+00 7.557238e-01 1.203955e+00 1.540793e+00 2.936492e+00 2.869511e+00 2.761605e+00 2.668410e+00 3.135128e+00 2.844715e+00 3.546149e+00 2.030959e+00 2.012633e+00 3.386588e-02 1.274645e-01 2.679829e-01 2.991135e-01 6.586874e-01 6.480894e-01 5.735784e-01 6.059855e-01 6.499571e-01 5.132731e-01 7.382869e-01 4.116622e-01 4.317328e-01 1.131424e-03
<GCONST> 1.059821e+02
<MIXTURE> 3 2.139010e-01
<MEAN> 39
 -1.221481e+00 1.412077e-01 3.889161e+00 6.353094e-01 -5.606689e-01 -4.644695e-01 -2.203565e+00 1.639198e+00 3.229695e+00 2.501738e+00 -5.992410e+00 -2.725120e+00 1.883680e+01 1.552610e-01 1.870089e-01 1.798748e-01 9.260013e-01 7.009212e-01 8.258762e-01 6.635046e-01 -3.767625e-01 -5.247530e-01 -3.829323e-01 1.789758e-01 -1.858486e-01 -1.981446e-02 2.865368e-01 -3.331775e-02 -2.075435e-01 -2.292042e-01 -1.630369e-01 -1.280030e-01 -5.454024e-01 1.476858e-02 -1.353631e-01 3.250526e-01 1.819938e-01 1.132240e-01 1.862716e-02
<VARIANCE> 39
 1.464174e+01 2.428456e+01 4.783167e+01 3.775669e+01 6.597796e+01 4.413097e+01 5.368428e+01 4.290445e+01 4.175584e+01 3.284287e+01 6.163864e+01 1.881860e+01 1.015574e+00 6.497106e-01 1.005262e+00 1.186346e+00 2.275267e+00 2.328835e+00 2.522289e+00 2.433150e+00 2.579276e+00 2.620548e+00 2.679969e+00 2.093675e+00 2.079203e+00 9.089478e-03 2.125943e-01 3.259458e-01 3.347158e-01 5.287842e-01 5.948398e-01 5.787176e-01 7.127234e-01 5.495770e-01 4.943841e-01 6.109645e-01 4.264904e-01 2.807906e-01 1.118874e-03
<GCONST> 1.014376e+02
<MIXTURE> 4 1.523627e-01
<MEAN> 39
 -1.857985e+00 -2.071779e+00 -3.745280e+00 -2.392632e+00 4.043329e+00 4.863280e+00 -3.447684e+00 4.374235e-01 3.021973e+00 5.828868e+00 -7.272094e+00 -2.528244e+00 1.690367e+01 -4.217820e-02 -5.484561e-01 -4.820262e-01 -1.325741e+00 -6.508834e-01 -4.054803e-01 -9.473052e-01 2.141270e-01 4.116834e-01 9.776976e-01 2.928269e-01 -1.110293e-01 -5.007147e-02 -1.793077e-01 9.827454e-02 -1.112484e-02 2.096816e-02 2.553327e-02 -1.520518e-01 -4.394452e-02 -4.318521e-02 4.772456e-01 1.527398e-01 -9.665126e-02 -2.490730e-01 -4.027263e-02
<VARIANCE> 39
 1.501857e+01 2.303389e+01 1.884259e+01 8.849185e+01 4.660884e+01 5.536755e+01 6.440579e+01 2.744231e+01 2.966034e+01 4.272418e+01 2.469818e+01 2.690536e+01 4.942962e+00 6.080137e-01 1.317789e+00 1.585947e+00 2.981629e+00 2.689625e+00 2.828339e+00 2.732300e+00 2.632523e+00 4.366012e+00 4.357804e+00 2.881277e+00 3.389052e+00 7.609940e-02 1.442906e-01 3.504855e-01 3.806489e-01 7.256364e-01 5.897002e-01 5.211975e-01 5.469540e-01 6.226172e-01 8.153025e-01 9.049124e-01 6.220851e-01 6.283028e-01 4.651579e-03
<GCONST> 1.103583e+02
<MIXTURE> 5 2.228881e-01
<MEAN> 39
 -1.338868e+00 1.166675e+00 1.799641e+00 2.002001e+00 4.357561e+00 1.046525e+00 -5.543976e+00 1.062856e+00 4.547183e+00 2.586328e+00 -6.286951e+00 -1.092494e+00 1.857207e+01 5.770895e-02 -2.033917e-01 -3.478090e-01 2.455349e-01 4.274630e-01 2.574659e-01 3.899364e-01 -7.038850e-02 -1.097192e+00 -4.622861e-01 1.822203e-01 -3.371962e-02 -6.367634e-02 1.044392e-03 -1.634058e-01 -6.754820e-02 -3.106227e-01 -3.197601e-01 -2.898855e-01 -4.167593e-01 -4.181661e-02 -1.299934e-02 3.903810e-01 -2.747781e-02 -3.760544e-03 -8.314621e-03
<VARIANCE> 39
 1.046788e+01 2.278175e+01 3.054541e+01 4.032161e+01 5.349845e+01 4.473697e+01 5.446748e+01 3.337819e+01 2.895053e+01 2.460095e+01 3.341261e+01 2.678243e+01 1.474882e+00 5.478439e-01 8.669539e-01 1.285461e+00 1.805149e+00 2.018826e+00 2.688076e+00 3.171087e+00 2.502444e+00 2.806914e+00 3.365121e+00 2.200957e+00 2.304514e+00 1.518832e-02 8.925847e-02 1.487030e-01 2.565554e-01 4.140057e-01 4.141121e-01 5.012398e-01 7.171984e-01 5.440264e-01 5.886286e-01 6.304255e-01 4.393998e-01 4.222173e-01 6.868561e-04
<GCONST> 9.781210e+01
<TRANSP> 5
 0.000000e+00 1.000000e+00 0.000000e+00 0.000000e+00 0.000000e+00
 0.000000e+00 8.633861e-01 1.366140e-01 0.000000e+00 0.000000e+00
 0.000000e+00 0.000000e+00 7.731294e-01 2.268706e-01 0.000000e+00
 0.000000e+00 0.000000e+00 0.000000e+00 7.692664e-01 2.307336e-01
 0.000000e+00 0.000000e+00 0.000000e+00 0.000000e+00 0.000000e+00
<ENDHMM>
~h "Q"
<BEGINHMM>
<NUMSTATES> 5
<STATE> 2
<NUMMIXES> 5
<MIXTURE> 1 1.250000e-01
<MEAN> 39
 -3.234866e+00 4.901633e+00 6.029965e+00 4.893558e+00 2.667407e+00 3.956803e+00 3.538748e-01 4.098568e+00 4.790926e+00 5.457726e+00 4.625250e+00 3.406473e+00 1.718841e+01 4.817384e-01 6.225236e-01 6.822762e-01 8.234693e-01 8.892800e-01 9.814025e-01 1.030377e+00 9.898865e-01 1.011810e+00 1.020767e+00 9.853208e-01 9.086906e-01 1.218674e-01 1.885150e-01 2.706850e-01 3.045896e-01 3.718402e-01 4.042849e-01 4.449695e-01 4.680352e-01 4.528068e-01 4.623364e-01 4.671512e-01 4.513784e-01 4.171674e-01 4.514359e-02
<VARIANCE> 39
 9.132833e+01 3.750473e+01 5.184167e+01 5.299957e+01 4.542144e+01 5.171822e+01 6.411460e+01 4.173472e+01 3.924054e+01 3.472301e+01 3.778771e+01 3.327573e+01 2.268905e+01 6.444674e-01 1.076510e+00 1.293223e+00 1.883514e+00 2.197024e+00 2.673508e+00 2.949268e+00 2.722457e+00 2.845586e+00 2.895535e+00 2.697424e+00 2.293327e+00 4.128606e-02 9.874837e-02 2.035372e-01 2.576212e-01 3.839478e-01 4.538210e-01 5.496877e-01 6.081111e-01 5.695377e-01 5.939356e-01 6.059731e-01 5.659602e-01 4.834353e-01 5.660130e-03
<GCONST> 1.098248e+02
<MIXTURE> 2 2.500000e-01
<MEAN> 39
 -8.968823e+00 1.227167e+00 1.709896e+00 5.255102e-01 -1.376319e+00 -3.581203e-01 -4.450421e+00 2.224233e-01 1.032390e+00 1.922153e+00 9.369481e-01 -5.463362e-02 1.433043e+01 6.596744e-05 -6.407499e-06 -4.348159e-05 2.208352e-05 -6.183982e-05 3.505945e-04 -2.843142e-05 -1.057088e-04 -3.217757e-04 -2.094507e-04 -1.093745e-04 6.639957e-05 -4.646555e-05 -3.052503e-05 -5.580485e-06 5.120039e-05 5.903840e-05 8.738041e-05 1.239628e-04 1.462549e-04 5.364418e-07 -6.675720e-05 8.545816e-05 -3.635883e-06 -9.581447e-06 3.278255e-06
<VARIANCE> 39
 9.132833e+01 3.750473e+01 5.184167e+01 5.299957e+01 4.542144e+01 5.171822e+01 6.411460e+01 4.173472e+01 3.924054e+01 3.472301e+01 3.778771e+01 3.327573e+01 2.268905e+01 6.444674e-01 1.076510e+00 1.293223e+00 1.883514e+00 2.197024e+00 2.673508e+00 2.949268e+00 2.722457e+00 2.845586e+00 2.895535e+00 2.697424e+00 2.293327e+00 4.128606e-02 9.874837e-02 2.035372e-01 2.576212e-01 3.839478e-01 4.538210e-01 5.496877e-01 6.081111e-01 5.695377e-01 5.939356e-01 6.059731e-01 5.659602e-01 4.834353e-01 5.660130e-03
<GCONST> 1.098248e+02
<MIXTURE> 3 2.500000e-01
<MEAN> 39
 -8.968818e+00 1.227167e+00 1.709896e+00 5.255100e-01 -1.376319e+00 -3.581207e-01 -4.450421e+00 2.224237e-01 1.032390e+00 1.922153e+00 9.369479e-01 -5.463338e-02 1.433043e+01 6.604195e-05 -6.392598e-06 -4.352629e-05 2.214313e-05 -6.183982e-05 3.505945e-04 -2.846122e-05 -1.056790e-04 -3.217161e-04 -2.094507e-04 -1.093149e-04 6.648898e-05 -4.647300e-05 -3.052503e-05 -5.573034e-06 5.120039e-05 5.906075e-05 8.741021e-05 1.239479e-04 1.462400e-04 5.513430e-07 -6.683171e-05 8.544326e-05 -3.561378e-06 -9.626150e-06 3.281981e-06
<VARIANCE> 39
 9.132833e+01 3.750473e+01 5.184167e+01 5.299957e+01 4.542144e+01 5.171822e+01 6.411460e+01 4.173472e+01 3.924054e+01 3.472301e+01 3.778771e+01 3.327573e+01 2.268905e+01 6.444674e-01 1.076510e+00 1.293223e+00 1.883514e+00 2.197024e+00 2.673508e+00 2.949268e+00 2.722457e+00 2.845586e+00 2.895535e+00 2.697424e+00 2.293327e+00 4.128606e-02 9.874837e-02 2.035372e-01 2.576212e-01 3.839478e-01 4.538210e-01 5.496877e-01 6.081111e-01 5.695377e-01 5.939356e-01 6.059731e-01 5.659602e-01 4.834353e-01 5.660130e-03
<GCONST> 1.098248e+02
<MIXTURE> 4 2.500000e-01
<MEAN> 39
 -1.279146e+01 -1.222477e+00 -1.170150e+00 -2.386522e+00 -4.072136e+00 -3.234735e+00 -7.653285e+00 -2.361673e+00 -1.473301e+00 -4.348964e-01 -1.521920e+00 -2.362038e+00 1.242511e+01 -3.210490e-01 -4.150264e-01 -4.549233e-01 -5.489427e-01 -5.929563e-01 -6.536840e-01 -6.869658e-01 -6.601005e-01 -6.750764e-01 -6.808603e-01 -6.570628e-01 -6.056830e-01 -8.132236e-02 -1.257275e-01 -1.804660e-01 -2.029744e-01 -2.477950e-01 -2.693776e-01 -2.964398e-01 -3.117797e-01 -3.018703e-01 -3.083356e-01 -3.112916e-01 -3.009250e-01 -2.781276e-01 -3.009026e-02
<VARIANCE> 39
 9.132833e+01 3.750473e+01 5.184167e+01 5.299957e+01 4.542144e+01 5.171822e+01 6.411460e+01 4.173472e+01 3.924054e+01 3.472301e+01 3.778771e+01 3.327573e+01 2.268905e+01 6.444674e-01 1.076510e+00 1.293223e+00 1.883514e+00 2.197024e+00 2.673508e+00 2.949268e+00 2.722457e+00 2.845586e+00 2.895535e+00 2.697424e+00 2.293327e+00 4.128606e-02 9.874837e-02 2.035372e-01 2.576212e-01 3.839478e-01 4.538210e-01 5.496877e-01 6.081111e-01 5.695377e-01 5.939356e-01 6.059731e-01 5.659602e-01 4.834353e-01 5.660130e-03
<GCONST> 1.098248e+02
<MIXTURE> 5 1.250000e-01
<MEAN> 39
 -7.057500e+00 2.451989e+00 3.149919e+00 1.981526e+00 -2.841067e-02 1.080187e+00 -2.848989e+00 1.514472e+00 2.285234e+00 3.100677e+00 2.166382e+00 1.099069e+00 1.528309e+01 1.606235e-01 2.075036e-01 2.273964e-01 2.745045e-01 2.963854e-01 3.273679e-01 3.434401e-01 3.298917e-01 3.370556e-01 3.401159e-01 3.283674e-01 3.029412e-01 4.059147e-02 6.281799e-02 9.022461e-02 1.015640e-01 1.239862e-01 1.348199e-01 1.484058e-01 1.561092e-01 1.509359e-01 1.540676e-01 1.557741e-01 1.504571e-01 1.390494e-01 1.505005e-02
<VARIANCE> 39
 9.132833e+01 3.750473e+01 5.184167e+01 5.299957e+01 4.542144e+01 5.171822e+01 6.411460e+01 4.173472e+01 3.924054e+01 3.472301e+01 3.778771e+01 3.327573e+01 2.268905e+01 6.444674e-01 1.076510e+00 1.293223e+00 1.883514e+00 2.197024e+00 2.673508e+00 2.949268e+00 2.722457e+00 2.845586e+00 2.895535e+00 2.697424e+00 2.293327e+00 4.128606e-02 9.874837e-02 2.035372e-01 2.576212e-01 3.839478e-01 4.538210e-01 5.496877e-01 6.081111e-01 5.695377e-01 5.939356e-01 6.059731e-01 5.659602e-01 4.834353e-01 5.660130e-03
<GCONST> 1.098248e+02
<STATE> 3
<NUMMIXES> 5
<MIXTURE> 1 1.250000e-01
<MEAN> 39
 -3.234866e+00 4.901633e+00 6.029965e+00 4.893558e+00 2.667407e+00 3.956803e+00 3.538748e-01 4.098568e+00 4.790926e+00 5.457726e+00 4.625250e+00 3.406473e+00 1.718841e+01 4.817384e-01 6.225236e-01 6.822762e-01 8.234693e-01 8.892800e-01 9.814025e-01 1.030377e+00 9.898865e-01 1.011810e+00 1.020767e+00 9.853208e-01 9.086906e-01 1.218674e-01 1.885150e-01 2.706850e-01 3.045896e-01 3.718402e-01 4.042849e-01 4.449695e-01 4.680352e-01 4.528068e-01 4.623364e-01 4.671512e-01 4.513784e-01 4.171674e-01 4.514359e-02
<VARIANCE> 39
 9.132833e+01 3.750473e+01 5.184167e+01 5.299957e+01 4.542144e+01 5.171822e+01 6.411460e+01 4.173472e+01 3.924054e+01 3.472301e+01 3.778771e+01 3.327573e+01 2.268905e+01 6.444674e-01 1.076510e+00 1.293223e+00 1.883514e+00 2.197024e+00 2.673508e+00 2.949268e+00 2.722457e+00 2.845586e+00 2.895535e+00 2.697424e+00 2.293327e+00 4.128606e-02 9.874837e-02 2.035372e-01 2.576212e-01 3.839478e-01 4.538210e-01 5.496877e-01 6.081111e-01 5.695377e-01 5.939356e-01 6.059731e-01 5.659602e-01 4.834353e-01 5.660130e-03
<GCONST> 1.098248e+02
<MIXTURE> 2 2.500000e-01
<MEAN> 39
 -8.968823e+00 1.227167e+00 1.709896e+00 5.255102e-01 -1.376319e+00 -3.581203e-01 -4.450421e+00 2.224233e-01 1.032390e+00 1.922153e+00 9.369481e-01 -5.463362e-02 1.433043e+01 6.596744e-05 -6.407499e-06 -4.348159e-05 2.208352e-05 -6.183982e-05 3.505945e-04 -2.843142e-05 -1.057088e-04 -3.217757e-04 -2.094507e-04 -1.093745e-04 6.639957e-05 -4.646555e-05 -3.052503e-05 -5.580485e-06 5.120039e-05 5.903840e-05 8.738041e-05 1.239628e-04 1.462549e-04 5.364418e-07 -6.675720e-05 8.545816e-05 -3.635883e-06 -9.581447e-06 3.278255e-06
<VARIANCE> 39
 9.132833e+01 3.750473e+01 5.184167e+01 5.299957e+01 4.542144e+01 5.171822e+01 6.411460e+01 4.173472e+01 3.924054e+01 3.472301e+01 3.778771e+01 3.327573e+01 2.268905e+01 6.444674e-01 1.076510e+00 1.293223e+00 1.883514e+00 2.197024e+00 2.673508e+00 2.949268e+00 2.722457e+00 2.845586e+00 2.895535e+00 2.697424e+00 2.293327e+00 4.128606e-02 9.874837e-02 2.035372e-01 2.576212e-01 3.839478e-01 4.538210e-01 5.496877e-01 6.081111e-01 5.695377e-01 5.939356e-01 6.059731e-01 5.659602e-01 4.834353e-01 5.660130e-03
<GCONST> 1.098248e+02
<MIXTURE> 3 2.500000e-01
<MEAN> 39
 -8.968818e+00 1.227167e+00 1.709896e+00 5.255100e-01 -1.376319e+00 -3.581207e-01 -4.450421e+00 2.224237e-01 1.032390e+00 1.922153e+00 9.369479e-01 -5.463338e-02 1.433043e+01 6.604195e-05 -6.392598e-06 -4.352629e-05 2.214313e-05 -6.183982e-05 3.505945e-04 -2.846122e-05 -1.056790e-04 -3.217161e-04 -2.094507e-04 -1.093149e-04 6.648898e-05 -4.647300e-05 -3.052503e-05 -5.573034e-06 5.120039e-05 5.906075e-05 8.741021e-05 1.239479e-04 1.462400e-04 5.513430e-07 -6.683171e-05 8.544326e-05 -3.561378e-06 -9.626150e-06 3.281981e-06
<VARIANCE> 39
 9.132833e+01 3.750473e+01 5.184167e+01 5.299957e+01 4.542144e+01 5.171822e+01 6.411460e+01 4.173472e+01 3.924054e+01 3.472301e+01 3.778771e+01 3.327573e+01 2.268905e+01 6.444674e-01 1.076510e+00 1.293223e+00 1.883514e+00 2.197024e+00 2.673508e+00 2.949268e+00 2.722457e+00 2.845586e+00 2.895535e+00 2.697424e+00 2.293327e+00 4.128606e-02 9.874837e-02 2.035372e-01 2.576212e-01 3.839478e-01 4.538210e-01 5.496877e-01 6.081111e-01 5.695377e-01 5.939356e-01 6.059731e-01 5.659602e-01 4.834353e-01 5.660130e-03
<GCONST> 1.098248e+02
<MIXTURE> 4 2.500000e-01
<MEAN> 39
 -1.279146e+01 -1.222477e+00 -1.170150e+00 -2.386522e+00 -4.072136e+00 -3.234735e+00 -7.653285e+00 -2.361673e+00 -1.473301e+00 -4.348964e-01 -1.521920e+00 -2.362038e+00 1.242511e+01 -3.210490e-01 -4.150264e-01 -4.549233e-01 -5.489427e-01 -5.929563e-01 -6.536840e-01 -6.869658e-01 -6.601005e-01 -6.750764e-01 -6.808603e-01 -6.570628e-01 -6.056830e-01 -8.132236e-02 -1.257275e-01 -1.804660e-01 -2.029744e-01 -2.477950e-01 -2.693776e-01 -2.964398e-01 -3.117797e-01 -3.018703e-01 -3.083356e-01 -3.112916e-01 -3.009250e-01 -2.781276e-01 -3.009026e-02
<VARIANCE> 39
 9.132833e+01 3.750473e+01 5.184167e+01 5.299957e+01 4.542144e+01 5.171822e+01 6.411460e+01 4.173472e+01 3.924054e+01 3.472301e+01 3.778771e+01 3.327573e+01 2.268905e+01 6.444674e-01 1.076510e+00 1.293223e+00 1.883514e+00 2.197024e+00 2.673508e+00 2.949268e+00 2.722457e+00 2.845586e+00 2.895535e+00 2.697424e+00 2.293327e+00 4.128606e-02 9.874837e-02 2.035372e-01 2.576212e-01 3.839478e-01 4.538210e-01 5.496877e-01 6.081111e-01 5.695377e-01 5.939356e-01 6.059731e-01 5.659602e-01 4.834353e-01 5.660130e-03
<GCONST> 1.098248e+02
<MIXTURE> 5 1.250000e-01
<MEAN> 39
 -7.057500e+00 2.451989e+00 3.149919e+00 1.981526e+00 -2.841067e-02 1.080187e+00 -2.848989e+00 1.514472e+00 2.285234e+00 3.100677e+00 2.166382e+00 1.099069e+00 1.528309e+01 1.606235e-01 2.075036e-01 2.273964e-01 2.745045e-01 2.963854e-01 3.273679e-01 3.434401e-01 3.298917e-01 3.370556e-01 3.401159e-01 3.283674e-01 3.029412e-01 4.059147e-02 6.281799e-02 9.022461e-02 1.015640e-01 1.239862e-01 1.348199e-01 1.484058e-01 1.561092e-01 1.509359e-01 1.540676e-01 1.557741e-01 1.504571e-01 1.390494e-01 1.505005e-02
<VARIANCE> 39
 9.132833e+01 3.750473e+01 5.184167e+01 5.299957e+01 4.542144e+01 5.171822e+01 6.411460e+01 4.173472e+01 3.924054e+01 3.472301e+01 3.778771e+01 3.327573e+01 2.268905e+01 6.444674e-01 1.076510e+00 1.293223e+00 1.883514e+00 2.197024e+00 2.673508e+00 2.949268e+00 2.722457e+00 2.845586e+00 2.895535e+00 2.697424e+00 2.293327e+00 4.128606e-02 9.874837e-02 2.035372e-01 2.576212e-01 3.839478e-01 4.538210e-01 5.496877e-01 6.081111e-01 5.695377e-01 5.939356e-01 6.059731e-01 5.659602e-01 4.834353e-01 5.660130e-03
<GCONST> 1.098248e+02
<STATE> 4
<NUMMIXES> 5
<MIXTURE> 1 1.250000e-01
<MEAN> 39
 -3.234866e+00 4.901633e+00 6.029965e+00 4.893558e+00 2.667407e+00 3.956803e+00 3.538748e-01 4.098568e+00 4.790926e+00 5.457726e+00 4.625250e+00 3.406473e+00 1.718841e+01 4.817384e-01 6.225236e-01 6.822762e-01 8.234693e-01 8.892800e-01 9.814025e-01 1.030377e+00 9.898865e-01 1.011810e+00 1.020767e+00 9.853208e-01 9.086906e-01 1.218674e-01 1.885150e-01 2.706850e-01 3.045896e-01 3.718402e-01 4.042849e-01 4.449695e-01 4.680352e-01 4.528068e-01 4.623364e-01 4.671512e-01 4.513784e-01 4.171674e-01 4.514359e-02
<VARIANCE> 39
 9.132833e+01 3.750473e+01 5.184167e+01 5.299957e+01 4.542144e+01 5.171822e+01 6.411460e+01 4.173472e+01 3.924054e+01 3.472301e+01 3.778771e+01 3.327573e+01 2.268905e+01 6.444674e-01 1.076510e+00 1.293223e+00 1.883514e+00 2.197024e+00 2.673508e+00 2.949268e+00 2.722457e+00 2.845586e+00 2.895535e+00 2.697424e+00 2.293327e+00 4.128606e-02 9.874837e-02 2.035372e-01 2.576212e-01 3.839478e-01 4.538210e-01 5.496877e-01 6.081111e-01 5.695377e-01 5.939356e-01 6.059731e-01 5.659602e-01 4.834353e-01 5.660130e-03
<GCONST> 1.098248e+02
<MIXTURE> 2 2.500000e-01
<MEAN> 39
 -8.968823e+00 1.227167e+00 1.709896e+00 5.255102e-01 -1.376319e+00 -3.581203e-01 -4.450421e+00 2.224233e-01 1.032390e+00 1.922153e+00 9.369481e-01 -5.463362e-02 1.433043e+01 6.596744e-05 -6.407499e-06 -4.348159e-05 2.208352e-05 -6.183982e-05 3.505945e-04 -2.843142e-05 -1.057088e-04 -3.217757e-04 -2.094507e-04 -1.093745e-04 6.639957e-05 -4.646555e-05 -3.052503e-05 -5.580485e-06 5.120039e-05 5.903840e-05 8.738041e-05 1.239628e-04 1.462549e-04 5.364418e-07 -6.675720e-05 8.545816e-05 -3.635883e-06 -9.581447e-06 3.278255e-06
<VARIANCE> 39
 9.132833e+01 3.750473e+01 5.184167e+01 5.299957e+01 4.542144e+01 5.171822e+01 6.411460e+01 4.173472e+01 3.924054e+01 3.472301e+01 3.778771e+01 3.327573e+01 2.268905e+01 6.444674e-01 1.076510e+00 1.293223e+00 1.883514e+00 2.197024e+00 2.673508e+00 2.949268e+00 2.722457e+00 2.845586e+00 2.895535e+00 2.697424e+00 2.293327e+00 4.128606e-02 9.874837e-02 2.035372e-01 2.576212e-01 3.839478e-01 4.538210e-01 5.496877e-01 6.081111e-01 5.695377e-01 5.939356e-01 6.059731e-01 5.659602e-01 4.834353e-01 5.660130e-03
<GCONST> 1.098248e+02
<MIXTURE> 3 2.500000e-01
<MEAN> 39
 -8.968818e+00 1.227167e+00 1.709896e+00 5.255100e-01 -1.376319e+00 -3.581207e-01 -4.450421e+00 2.224237e-01 1.032390e+00 1.922153e+00 9.369479e-01 -5.463338e-02 1.433043e+01 6.604195e-05 -6.392598e-06 -4.352629e-05 2.214313e-05 -6.183982e-05 3.505945e-04 -2.846122e-05 -1.056790e-04 -3.217161e-04 -2.094507e-04 -1.093149e-04 6.648898e-05 -4.647300e-05 -3.052503e-05 -5.573034e-06 5.120039e-05 5.906075e-05 8.741021e-05 1.239479e-04 1.462400e-04 5.513430e-07 -6.683171e-05 8.544326e-05 -3.561378e-06 -9.626150e-06 3.281981e-06
<VARIANCE> 39
 9.132833e+01 3.750473e+01 5.184167e+01 5.299957e+01 4.542144e+01 5.171822e+01 6.411460e+01 4.173472e+01 3.924054e+01 3.472301e+01 3.778771e+01 3.327573e+01 2.268905e+01 6.444674e-01 1.076510e+00 1.293223e+00 1.883514e+00 2.197024e+00 2.673508e+00 2.949268e+00 2.722457e+00 2.845586e+00 2.895535e+00 2.697424e+00 2.293327e+00 4.128606e-02 9.874837e-02 2.035372e-01 2.576212e-01 3.839478e-01 4.538210e-01 5.496877e-01 6.081111e-01 5.695377e-01 5.939356e-01 6.059731e-01 5.659602e-01 4.834353e-01 5.660130e-03
<GCONST> 1.098248e+02
<MIXTURE> 4 2.500000e-01
<MEAN> 39
 -1.279146e+01 -1.222477e+00 -1.170150e+00 -2.386522e+00 -4.072136e+00 -3.234735e+00 -7.653285e+00 -2.361673e+00 -1.473301e+00 -4.348964e-01 -1.521920e+00 -2.362038e+00 1.242511e+01 -3.210490e-01 -4.150264e-01 -4.549233e-01 -5.489427e-01 -5.929563e-01 -6.536840e-01 -6.869658e-01 -6.601005e-01 -6.750764e-01 -6.808603e-01 -6.570628e-01 -6.056830e-01 -8.132236e-02 -1.257275e-01 -1.804660e-01 -2.029744e-01 -2.477950e-01 -2.693776e-01 -2.964398e-01 -3.117797e-01 -3.018703e-01 -3.083356e-01 -3.112916e-01 -3.009250e-01 -2.781276e-01 -3.009026e-02
<VARIANCE> 39
 9.132833e+01 3.750473e+01 5.184167e+01 5.299957e+01 4.542144e+01 5.171822e+01 6.411460e+01 4.173472e+01 3.924054e+01 3.472301e+01 3.778771e+01 3.327573e+01 2.268905e+01 6.444674e-01 1.076510e+00 1.293223e+00 1.883514e+00 2.197024e+00 2.673508e+00 2.949268e+00 2.722457e+00 2.845586e+00 2.895535e+00 2.697424e+00 2.293327e+00 4.128606e-02 9.874837e-02 2.035372e-01 2.576212e-01 3.839478e-01 4.538210e-01 5.496877e-01 6.081111e-01 5.695377e-01 5.939356e-01 6.059731e-01 5.659602e-01 4.834353e-01 5.660130e-03
<GCONST> 1.098248e+02
<MIXTURE> 5 1.250000e-01
<MEAN> 39
 -7.057500e+00 2.451989e+00 3.149919e+00 1.981526e+00 -2.841067e-02 1.080187e+00 -2.848989e+00 1.514472e+00 2.285234e+00 3.100677e+00 2.166382e+00 1.099069e+00 1.528309e+01 1.606235e-01 2.075036e-01 2.273964e-01 2.745045e-01 2.963854e-01 3.273679e-01 3.434401e-01 3.298917e-01 3.370556e-01 3.401159e-01 3.283674e-01 3.029412e-01 4.059147e-02 6.281799e-02 9.022461e-02 1.015640e-01 1.239862e-01 1.348199e-01 1.484058e-01 1.561092e-01 1.509359e-01 1.540676e-01 1.557741e-01 1.504571e-01 1.390494e-01 1.505005e-02
<VARIANCE> 39
 9.132833e+01 3.750473e+01 5.184167e+01 5.299957e+01 4.542144e+01 5.171822e+01 6.411460e+01 4.173472e+01 3.924054e+01 3.472301e+01 3.778771e+01 3.327573e+01 2.268905e+01 6.444674e-01 1.076510e+00 1.293223e+00 1.883514e+00 2.197024e+00 2.673508e+00 2.949268e+00 2.722457e+00 2.845586e+00 2.895535e+00 2.697424e+00 2.293327e+00 4.128606e-02 9.874837e-02 2.035372e-01 2.576212e-01 3.839478e-01 4.538210e-01 5.496877e-01 6.081111e-01 5.695377e-01 5.939356e-01 6.059731e-01 5.659602e-01 4.834353e-01 5.660130e-03
<GCONST> 1.098248e+02
<TRANSP> 5
 0.000000e+00 1.000000e+00 0.000000e+00 0.000000e+00 0.000000e+00
 0.000000e+00 5.000000e-01 5.000000e-01 0.000000e+00 0.000000e+00
 0.000000e+00 0.000000e+00 5.000000e-01 5.000000e-01 0.000000e+00
 0.000000e+00 0.000000e+00 0.000000e+00 5.000000e-01 5.000000e-01
 0.000000e+00 0.000000e+00 0.000000e+00 0.000000e+00 0.000000e+00
<ENDHMM>
~h "a"
<BEGINHMM>
<NUMSTATES> 5
<STATE> 2
<NUMMIXES> 5
<MIXTURE> 1 2.486534e-01
<MEAN> 39
 -2.873266e+00 -9.935332e+00 9.684414e-01 -7.251204e+00 -1.084540e+01 -4.708457e+00 -7.105350e+00 1.581484e+01 7.261292e+00 5.548958e+00 -5.584704e+00 -4.557681e+00 1.894536e+01 -2.051201e-01 1.007190e+00 -3.104233e-01 7.925406e-01 2.011062e-01 -3.684746e-01 1.661538e+00 -2.339669e-01 8.442373e-01 -2.103418e-01 -8.158234e-01 3.610867e-01 -7.155579e-02 -4.484083e-03 2.843477e-01 -7.608029e-02 6.283634e-01 4.046489e-01 5.247816e-01 2.964359e-01 -8.366755e-01 -4.999946e-01 -3.267460e-01 2.309647e-01 2.539324e-01 -3.862951e-02
<VARIANCE> 39
 1.391289e+01 3.323698e+01 6.298822e+01 2.750998e+01 4.194832e+01 8.233461e+01 5.785247e+01 4.514144e+01 4.757859e+01 3.307093e+01 5.766300e+01 7.243326e+01 1.153726e+00 9.029612e-01 1.327966e+00 1.517755e+00 2.267236e+00 2.274279e+00 3.234887e+00 2.828506e+00 3.604050e+00 3.405025e+00 1.962482e+00 2.357440e+00 2.100506e+00 3.638082e-02 1.563021e-01 4.750779e-01 2.923914e-01 3.709807e-01 3.704756e-01 6.926235e-01 7.876487e-01 5.291168e-01 6.574468e-01 3.793111e-01 6.683822e-01 6.113076e-01 4.899291e-03
<GCONST> 1.083883e+02
<MIXTURE> 2 2.247540e-01
<MEAN> 39
 -1.241331e-01 -5.756679e+00 -1.821820e+00 -2.050978e+00 -6.563907e+00 1.812873e+00 -4.611071e+00 6.729741e+00 2.504829e+00 1.294833e+00 -2.819111e+00 -3.332877e+00 1.917378e+01 5.724289e-01 -7.667342e-01 -4.891401e-01 -9.248058e-01 -5.313663e-01 -5.741870e-02 -5.389287e-01 6.399683e-01 2.812802e-01 3.253587e-01 5.608132e-02 -3.401889e-01 1.792075e-01 -2.575934e-01 -8.815203e-02 7.131124e-02 -5.451554e-02 8.047876e-03 -2.023875e-02 1.060303e-01 1.120176e-01 1.583298e-01 2.450676e-02 -4.196275e-02 -1.587690e-01 -3.594346e-02
<VARIANCE> 39
 1.304472e+01 3.246500e+01 4.537278e+01 4.618813e+01 3.014952e+01 6.610297e+01 4.125837e+01 4.311832e+01 2.463031e+01 2.163813e+01 2.614323e+01 3.817254e+01 1.490580e+00 9.898645e-01 1.313423e+00 1.655707e+00 2.828176e+00 1.865632e+00 2.162699e+00 1.954808e+00 2.230021e+00 2.312425e+00 2.159052e+00 2.162844e+00 1.729758e+00 6.108123e-02 1.148553e-01 2.859133e-01 2.658965e-01 5.549582e-01 3.773314e-01 4.269763e-01 3.935911e-01 4.925786e-01 4.515468e-01 4.597258e-01 3.806556e-01 2.938232e-01 4.525797e-03
<GCONST> 1.008866e+02
<MIXTURE> 3 1.847388e-01
<MEAN> 39
 -8.529897e+00 -5.221464e+00 -1.138088e+00 2.540412e+00 -3.999049e+00 6.241530e-01 1.357636e+00 6.531606e+00 2.320384e+00 4.470476e-01 -5.448877e+00 -2.132854e+00 1.606183e+01 6.156794e-01 3.780168e-01 4.170070e-01 6.291903e-01 2.916583e-01 3.551095e-01 -1.381382e-01 -4.726550e-01 -4.757945e-01 -2.697799e-01 3.889845e-01 7.493816e-02 1.932068e-01 3.474116e-01 -3.489164e-01 -3.200554e-02 -5.730355e-01 -3.217380e-01 -3.156845e-02 -3.791886e-01 2.777558e-01 1.409068e-01 2.040339e-01 1.019491e-01 -1.408288e-01 1.141791e-01
<VARIANCE> 39
 2.035813e+01 2.643010e+01 4.889025e+01 3.515323e+01 4.630729e+01 4.226835e+01 3.090990e+01 3.802862e+01 3.800883e+01 3.852260e+01 4.289610e+01 4.257458e+01 4.119393e+00 1.575223e+00 2.226987e+00 1.710818e+00 2.834719e+00 2.752513e+00 3.182861e+00 3.125081e+00 2.828215e+00 2.726807e+00 2.359295e+00 3.061228e+00 2.958441e+00 1.977795e-01 1.866152e-01 5.120972e-01 3.673773e-01 5.613393e-01 6.014907e-01 6.544520e-01 7.533296e-01 6.239164e-01 5.824915e-01 5.033066e-01 6.722233e-01 6.109945e-01 1.552257e-02
<GCONST> 1.140094e+02
<MIXTURE> 4 1.679908e-01
<MEAN> 39
 -2.920145e+00 -1.106076e+01 1.008351e+00 -4.431020e+00 -7.560338e+00 5.017793e-01 -7.291585e+00 9.892825e+00 7.461083e-01 1.712805e+00 -2.434813e+00 -4.154277e+00 1.865148e+01 4.608500e-02 -1.964595e+00 2.640983e-01 -1.707839e+00 -8.053781e-01 -1.827345e-01 -1.358035e+00 1.990474e+00 3.789302e-01 4.252449e-01 4.480370e-02 -1.227192e+00 2.181840e-01 -1.232946e-01 5.466530e-01 -1.874943e-01 2.206290e-01 -6.488016e-02 -5.637373e-01 5.552596e-01 1.515888e-01 6.138216e-01 1.698361e-01 -5.522728e-01 1.294516e-01 -8.544636e-02
<VARIANCE> 39
 1.280919e+01 3.304553e+01 4.755668e+01 2.173499e+01 2.921359e+01 2.421609e+01 4.190445e+01 3.074675e+01 2.317829e+01 1.841319e+01 1.978121e+01 2.898080e+01 1.202498e+00 9.727693e-01 2.697073e+00 1.685109e+00 1.651714e+00 2.069264e+00 3.359051e+00 2.919635e+00 2.853174e+00 3.796626e+00 1.914465e+00 3.727869e+00 2.287108e+00 9.426556e-02 1.972694e-01 6.254680e-01 3.012425e-01 5.067247e-01 4.609883e-01 5.867538e-01 5.564998e-01 6.553928e-01 6.783773e-01 3.959118e-01 6.484953e-01 5.774387e-01 1.165828e-02
<GCONST> 1.057561e+02
<MIXTURE> 5 1.738599e-01
<MEAN> 39
 -4.664677e+00 -6.697617e+00 -5.351133e+00 -3.335166e+00 -5.430369e+00 2.218727e+00 -2.182314e+00 6.162281e+00 7.313992e+00 4.612289e+00 -6.115039e+00 -3.273036e+00 1.808573e+01 -6.423856e-02 -7.723475e-02 3.117358e-02 6.336929e-01 4.264899e-01 8.868168e-01 -7.627997e-03 -5.521845e-01 -1.197760e+00 -8.511578e-01 6.696048e-01 1.517800e-01 -4.913663e-03 4.631297e-02 -3.350603e-01 1.632006e-01 -2.728506e-01 -7.602959e-02 -1.297309e-01 -5.223635e-01 2.547750e-01 -2.939969e-01 -3.835578e-02 2.362117e-01 -1.979439e-01 2.451723e-02
<VARIANCE> 39
 4.033184e+01 2.216561e+01 6.239910e+01 3.940135e+01 4.138100e+01 8.672468e+01 4.817027e+01 7.668447e+01 4.176316e+01 3.390589e+01 5.712676e+01 6.361308e+01 3.840364e+00 7.825348e-01 1.526156e+00 1.571507e+00 2.153645e+00 1.834334e+00 2.904003e+00 2.846970e+00 4.500129e+00 2.879921e+00 2.051307e+00 3.471272e+00 2.839995e+00 4.166005e-02 1.150471e-01 2.970741e-01 3.092451e-01 4.542009e-01 2.948449e-01 4.491480e-01 5.540091e-01 7.386270e-01 5.750034e-01 3.825579e-01 6.297559e-01 4.381487e-01 3.888228e-03
<GCONST> 1.093798e+02
<STATE> 3
<NUMMIXES> 5
<MIXTURE> 1 1.790257e-01
<MEAN> 39
 1.584962e+00 -1.239334e+01 -1.175699e+01 -2.588003e+00 -6.004706e+00 6.020217e+00 -3.053684e+00 5.579383e+00 1.040469e+01 2.364429e+00 -4.553104e+00 -1.549879e+01 2.030859e+01 -4.961531e-01 1.060506e+00 3.324904e-01 5.266535e-01 7.026799e-01 3.084506e-02 1.050765e+00 -5.981994e-02 2.318880e-01 -3.429021e-01 -9.020452e-01 2.240767e-01 8.855809e-03 6.736719e-02 2.399660e-01 2.520400e-01 3.169228e-01 1.005604e-01 4.969720e-02 1.661298e-02 -2.991866e-01 -5.171218e-01 -2.783541e-01 2.334512e-01 4.863016e-01 -1.705595e-03
<VARIANCE> 39
 4.432837e+00 2.339143e+01 1.465196e+01 3.071079e+01 1.990150e+01 4.231118e+01 3.637654e+01 4.603980e+01 2.071804e+01 4.256329e+01 2.882738e+01 3.202617e+01 2.999065e-01 5.275217e-01 6.477917e-01 8.712624e-01 1.057940e+00 1.020265e+00 1.218180e+00 1.479377e+00 1.543095e+00 1.710768e+00 1.462814e+00 1.211646e+00 1.409898e+00 1.780130e-03 6.566942e-02 1.613966e-01 1.371646e-01 1.690095e-01 2.145881e-01 2.171752e-01 2.758673e-01 2.648908e-01 2.494270e-01 2.525220e-01 2.758338e-01 2.021656e-01 1.865784e-04
<GCONST> 7.577011e+01
<MIXTURE> 2 1.427084e-01
<MEAN> 39
 -7.622160e-01 -6.774081e+00 -7.200538e+00 3.114894e+00 -3.768148e+00 3.627678e+00 1.884193e+00 4.571922e+00 5.606645e+00 -3.345214e+00 -5.483614e+00 -9.094936e+00 1.985686e+01 2.288813e-01 5.015386e-01 2.687316e-01 6.988388e-01 2.355486e-01 1.934880e-01 1.426671e-02 -7.830250e-01 -8.304592e-01 -4.089397e-01 6.052707e-01 4.782655e-01 2.331674e-02 2.920903e-01 -3.597355e-01 -1.554319e-01 -2.621124e-01 -2.195988e-01 -4.351066e-02 -4.727338e-01 1.077322e-01 -1.124001e-01 3.107643e-01 2.708741e-01 -7.441171e-02 -8.542872e-04
<VARIANCE> 39
 5.771913e+00 1.256898e+01 3.697167e+01 2.555989e+01 1.936279e+01 3.740387e+01 2.954102e+01 4.188741e+01 2.367696e+01 2.260052e+01 2.142654e+01 2.516342e+01 4.115275e-01 4.692785e-01 7.749857e-01 1.105126e+00 1.346136e+00 1.220309e+00 1.425750e+00 1.935611e+00 2.064988e+00 1.793232e+00 1.530619e+00 1.385635e+00 1.299358e+00 4.061508e-03 1.338262e-01 1.679495e-01 2.276452e-01 2.784268e-01 2.386028e-01 3.058118e-01 3.474579e-01 3.307170e-01 3.159909e-01 2.577478e-01 2.631258e-01 2.431010e-01 4.711326e-04
<GCONST> 8.136694e+01
<MIXTURE> 3 2.968349e-01
<MEAN> 39
 3.560080e+00 -1.300119e+01 -1.034692e+01 3.259748e-02 -6.985924e+00 5.350564e+00 -4.909598e+00 3.172201e+00 3.840207e+00 -5.955831e-01 -1.223571e+00 -1.150050e+01 2.044979e+01 -3.875143e-02 -8.239717e-01 -4.944374e-01 -8.130051e-01 -4.681135e-01 -1.139286e-01 -3.316307e-01 7.830565e-01 8.124565e-01 7.458962e-01 -2.052712e-01 -8.528848e-01 -1.402029e-03 -1.887126e-01 2.553456e-01 5.886472e-02 3.730170e-02 1.779031e-01 -3.306461e-02 2.833376e-01 9.044645e-02 2.331254e-01 1.953833e-02 -3.439802e-01 -4.869561e-02 3.585123e-04
<VARIANCE> 39
 2.888012e+00 1.740631e+01 1.887162e+01 2.302522e+01 1.508555e+01 2.437160e+01 2.679841e+01 2.836527e+01 1.576048e+01 2.260475e+01 1.801992e+01 1.848686e+01 3.353829e-01 3.482307e-01 7.024730e-01 6.813802e-01 7.469561e-01 7.664179e-01 1.055609e+00 1.204726e+00 1.220369e+00 1.244409e+00 1.171850e+00 1.687323e+00 1.213071e+00 1.669140e-03 6.792214e-02 1.272414e-01 1.731784e-01 1.808464e-01 1.972547e-01 2.162295e-01 2.909977e-01 3.133278e-01 3.184020e-01 3.191088e-01 2.473007e-01 2.415707e-01 1.905720e-04
<GCONST> 7.015529e+01
<MIXTURE> 4 2.155078e-01
<MEAN> 39
 2.795735e+00 -1.236972e+01 -1.031733e+01 -1.416388e+00 -4.771848e+00 5.842641e+00 -4.066483e+00 7.781443e+00 7.782551e+00 2.686249e+00 -7.198877e+00 -1.340612e+01 2.108475e+01 1.865948e-02 4.221504e-01 1.396731e-01 2.881094e-01 1.433924e-01 -9.417223e-03 1.885886e-01 -2.389029e-01 -1.625654e-01 -2.836005e-01 -1.484840e-01 2.895649e-01 6.098131e-03 5.954988e-03 -7.903255e-03 4.447538e-02 2.910357e-02 -5.339873e-02 -1.740156e-02 -7.152747e-02 -1.380856e-01 -1.101436e-01 -8.295542e-02 1.814460e-01 1.248847e-01 -4.851137e-03
<VARIANCE> 39
 2.940470e+00 1.668217e+01 1.735653e+01 1.659066e+01 1.533398e+01 1.841125e+01 3.049212e+01 4.325505e+01 2.099193e+01 2.120142e+01 2.251577e+01 2.882287e+01 2.268905e-01 1.412690e-01 3.426318e-01 3.890503e-01 5.301490e-01 5.301067e-01 6.970472e-01 8.731040e-01 1.157370e+00 1.438198e+00 1.093217e+00 8.961382e-01 1.105374e+00 1.918658e-03 1.999445e-02 6.635579e-02 5.765688e-02 8.012381e-02 9.807274e-02 1.004468e-01 1.426961e-01 1.549610e-01 1.331064e-01 1.317542e-01 1.417076e-01 1.144850e-01 1.354170e-04
<GCONST> 5.623967e+01
<MIXTURE> 5 1.659251e-01
<MEAN> 39
 2.321482e+00 -8.635875e+00 -8.678970e+00 3.313754e+00 -4.278887e+00 5.312016e+00 -1.044584e+00 1.502861e+00 3.262097e+00 -2.636803e+00 -2.608248e+00 -8.770041e+00 2.045244e+01 5.364294e-01 -6.503723e-01 -6.669449e-02 3.127524e-02 -4.969074e-01 6.106638e-02 -6.989779e-01 -5.095376e-01 -9.096152e-01 -1.400017e-01 9.128855e-01 4.328791e-01 3.226900e-03 -2.676842e-02 -3.169725e-01 -1.288527e-01 -3.508352e-01 -1.683336e-01 -5.570096e-02 -1.912034e-01 3.106664e-01 2.878304e-01 2.770840e-01 -1.028180e-01 -3.080197e-01 -5.767182e-03
<VARIANCE> 39
 5.355229e+00 1.135940e+01 1.740936e+01 2.113146e+01 1.302197e+01 2.152743e+01 2.362776e+01 2.378292e+01 1.366307e+01 1.689569e+01 1.614882e+01 1.550279e+01 3.319937e-01 3.984815e-01 7.077713e-01 1.092809e+00 9.445478e-01 9.083179e-01 1.339431e+00 1.552386e+00 1.672387e+00 1.635113e+00 1.749433e+00 1.076780e+00 1.588763e+00 2.439651e-03 4.074815e-02 8.196335e-02 1.002692e-01 1.392672e-01 1.354295e-01 1.700855e-01 1.724903e-01 2.111729e-01 1.990666e-01 1.790283e-01 2.006085e-01 1.780826e-01 1.367104e-04
<GCONST> 6.639035e+01
<STATE> 4
<NUMMIXES> 5
<MIXTURE> 1 2.909410e-01
<MEAN> 39
 7.890434e-01 -1.145868e+01 2.451120e+00 -3.171654e+00 -1.135313e+01 -4.371653e+00 -5.603118e+00 1.411414e+01 1.005053e+00 3.966541e+00 -1.389333e+00 -4.880438e+00 2.012483e+01 -1.970498e-01 7.016081e-01 1.846326e-01 -6.079582e-02 -1.127773e-01 -8.151033e-01 4.350807e-01 5.476539e-01 1.023946e+00 2.554857e-01 -6.299410e-01 1.269937e-01 1.391820e-02 -3.282251e-03 3.484147e-01 3.665243e-02 2.890774e-01 3.010710e-01 2.152806e-01 3.097660e-01 -3.316277e-01 -1.841900e-03 -2.640271e-01 -1.745132e-01 -2.987029e-02 -1.880344e-03
<VARIANCE> 39
 4.408005e+00 1.441106e+01 3.451795e+01 1.725245e+01 2.180983e+01 2.362456e+01 4.662535e+01 2.072966e+01 3.516129e+01 2.037776e+01 2.249104e+01 2.128768e+01 2.268905e-01 3.793422e-01 7.319667e-01 7.965078e-01 1.104118e+00 1.107071e+00 1.467685e+00 1.478633e+00 1.745574e+00 1.298501e+00 1.205547e+00 1.102200e+00 1.045605e+00 2.114154e-03 5.267272e-02 1.058987e-01 1.371940e-01 1.588921e-01 2.636242e-01 3.122493e-01 2.295838e-01 2.708958e-01 2.688076e-01 2.094061e-01 2.151784e-01 1.914283e-01 1.716385e-04
<GCONST> 7.202711e+01
<MIXTURE> 2 2.186961e-01
<MEAN> 39
 7.996392e-01 -7.746134e+00 3.559610e+00 2.249971e-01 -8.186718e+00 -1.163167e+00 -1.291185e+00 8.623888e+00 -7.918984e-01 -7.794324e-01 -2.528737e+00 -5.330173e+00 2.020830e+01 1.584550e-01 -3.504910e-01 1.253296e-01 9.014626e-02 2.291165e-01 3.487156e-01 -4.037401e-01 -3.472303e-01 -7.502570e-01 2.103347e-01 3.928114e-01 -1.252284e-02 -3.713816e-04 6.504320e-02 -1.862288e-01 -8.707507e-02 -1.684849e-01 -2.145384e-01 -2.488139e-01 -2.776054e-01 3.015003e-01 3.565437e-02 2.836023e-01 9.033213e-02 5.322254e-02 -1.342969e-03
<VARIANCE> 39
 5.041090e+00 1.670547e+01 2.232470e+01 1.817976e+01 1.842378e+01 1.382533e+01 4.162347e+01 1.298572e+01 2.235925e+01 1.413293e+01 1.907016e+01 1.383025e+01 2.512417e-01 2.765326e-01 6.550550e-01 6.267306e-01 1.000795e+00 1.232218e+00 1.578441e+00 1.079824e+00 1.870711e+00 1.426379e+00 1.393015e+00 1.015136e+00 8.781185e-01 1.519277e-03 7.218582e-02 1.513222e-01 1.487422e-01 1.901261e-01 2.091216e-01 2.400349e-01 2.540431e-01 2.058816e-01 2.009801e-01 1.922215e-01 1.941329e-01 1.538293e-01 1.632349e-04
<GCONST> 6.766412e+01
<MIXTURE> 3 1.357178e-01
<MEAN> 39
 7.034035e-01 -6.598746e+00 2.025989e+00 -2.085403e+00 -1.012148e+01 -7.782651e+00 -4.685343e+00 1.356510e+01 5.976144e+00 3.547114e+00 -5.850590e+00 -2.900667e+00 2.029745e+01 3.792276e-03 9.627057e-01 3.630528e-01 5.719872e-01 7.929040e-01 3.499375e-01 5.196328e-01 -6.813551e-01 -2.905782e-01 -4.917618e-01 -3.232146e-01 8.815318e-02 7.681499e-03 5.837006e-02 -1.767028e-01 1.328150e-02 1.079257e-01 1.268189e-01 4.075579e-01 -1.513880e-01 -2.584153e-01 -4.898620e-01 -1.114167e-01 2.842028e-01 -9.461997e-02 -5.983462e-03
<VARIANCE> 39
 4.313271e+00 1.646100e+01 2.958465e+01 1.936934e+01 1.922911e+01 2.652917e+01 5.084067e+01 2.993205e+01 3.946917e+01 2.883724e+01 2.428069e+01 2.949804e+01 2.793888e-01 2.125463e-01 5.393633e-01 6.959414e-01 8.337975e-01 1.001294e+00 1.195313e+00 1.317376e+00 1.430884e+00 1.224704e+00 1.032480e+00 9.263936e-01 7.023193e-01 1.780554e-03 5.781223e-02 1.126711e-01 9.810314e-02 1.249602e-01 1.861840e-01 2.437197e-01 1.653283e-01 2.705431e-01 2.395416e-01 1.760631e-01 1.976972e-01 1.668935e-01 1.951006e-04
<GCONST> 6.901203e+01
<MIXTURE> 4 2.243147e-01
<MEAN> 39
 1.745455e+00 -8.808198e+00 1.309352e+00 4.079220e-01 -8.546479e+00 -1.460047e+00 -4.891535e+00 8.994456e+00 -1.973674e+00 9.283076e-01 -2.017058e+00 -4.629469e+00 2.003732e+01 1.195144e-01 -8.387888e-01 -7.793297e-02 -5.936787e-01 -6.294329e-01 -6.327254e-01 -1.116037e+00 3.546320e-01 -5.147734e-01 8.138326e-01 8.248008e-01 2.173426e-01 -1.072909e-02 -1.390729e-01 1.272585e-01 3.405173e-02 -1.662443e-01 -8.796426e-02 -3.155726e-01 1.546380e-01 2.446069e-01 4.847340e-01 8.601416e-02 -1.836001e-01 1.193905e-02 -6.606012e-03
<VARIANCE> 39
 3.641754e+00 1.470066e+01 3.145278e+01 1.739439e+01 1.858153e+01 1.682541e+01 3.148702e+01 1.773917e+01 2.315012e+01 1.602712e+01 1.733286e+01 1.518461e+01 2.767743e-01 4.315759e-01 7.615823e-01 8.747576e-01 9.270909e-01 1.427309e+00 2.168753e+00 1.408015e+00 1.772351e+00 1.803742e+00 1.337004e+00 1.148079e+00 1.375882e+00 2.787567e-03 6.502355e-02 1.490182e-01 1.609088e-01 2.093133e-01 2.428390e-01 3.408860e-01 3.141898e-01 3.836634e-01 2.871861e-01 2.637093e-01 2.785541e-01 2.308133e-01 2.576825e-04
<GCONST> 7.419089e+01
<MIXTURE> 5 1.303299e-01
<MEAN> 39
 4.888293e-01 -5.379480e+00 -3.101476e-01 -8.127998e-01 -7.272605e+00 -4.136364e+00 -4.429513e+00 1.235699e+01 6.499133e+00 2.665346e+00 -7.358174e+00 -4.188688e+00 2.034364e+01 7.854835e-02 6.717709e-01 4.662554e-01 4.620624e-01 5.353679e-01 6.395471e-01 -3.736413e-02 -9.687375e-01 -1.019956e+00 -5.900330e-01 7.555939e-02 1.227222e-01 -2.204571e-02 2.212081e-02 -2.606369e-01 1.849736e-02 -9.236535e-02 -2.587536e-02 9.229773e-02 -2.979278e-01 -1.998954e-01 -3.616740e-01 7.323954e-02 3.038077e-01 4.667528e-02 -1.188683e-02
<VARIANCE> 39
 7.046205e+00 1.300916e+01 3.329676e+01 2.910129e+01 2.137469e+01 3.446074e+01 4.653619e+01 4.314542e+01 4.108245e+01 2.446181e+01 2.301569e+01 2.617262e+01 2.505118e-01 2.682991e-01 6.720110e-01 7.325965e-01 9.276612e-01 1.151575e+00 1.227645e+00 1.518488e+00 1.722877e+00 1.724862e+00 1.007107e+00 1.187029e+00 1.139794e+00 4.655016e-03 5.983929e-02 9.380547e-02 1.039955e-01 1.424519e-01 1.632013e-01 2.000808e-01 2.276298e-01 2.466779e-01 2.301985e-01 1.713723e-01 1.751692e-01 1.995219e-01 2.410097e-04
<GCONST> 7.328752e+01
<TRANSP> 5
 0.000000e+00 1.000000e+00 0.000000e+00 0.000000e+00 0.000000e+00
 0.000000e+00 9.219535e-01 7.804647e-02 0.000000e+00 0.000000e+00
 0.000000e+00 0.000000e+00 9.497480e-01 5.025197e-02 0.000000e+00
 0.000000e+00 0.000000e+00 0.000000e+00 9.366915e-01 6.330857e-02
 0.000000e+00 0.000000e+00 0.000000e+00 0.000000e+00 0.000000e+00
<ENDHMM>
~h "b"
<BEGINHMM>
<NUMSTATES> 5
<STATE> 2
<NUMMIXES> 5
<MIXTURE> 1 1.842154e-01
<MEAN> 39
 -2.958959e+00 -1.718771e+00 -3.113146e-01 -8.318686e-01 1.780093e+00 4.965548e+00 -6.184935e+00 -8.392984e+00 3.942756e+00 8.052995e+00 3.730400e+00 4.278569e-01 1.704402e+01 2.661854e+00 2.737770e+00 1.519521e+00 -2.301551e-01 6.439742e-01 3.884439e+00 1.447701e+00 1.994461e-01 -8.012652e-01 1.214828e-01 -1.060994e+00 5.687895e-01 4.376362e-01 1.205472e-01 1.984815e-01 -3.014514e-01 -4.403083e-01 -6.359612e-01 -5.360801e-02 2.043695e-01 6.371908e-01 -5.004136e-01 -6.433736e-01 -3.069711e-01 3.000566e-01 8.842511e-02
<VARIANCE> 39
 4.816910e+00 1.151896e+01 1.379072e+01 1.742093e+01 1.901187e+01 5.566310e+01 2.494111e+01 2.034677e+01 2.594438e+01 1.789765e+01 2.787213e+01 2.904449e+01 4.207429e-01 7.834141e-01 1.618036e+00 1.018118e+00 3.112961e+00 2.109550e+00 4.947675e+00 1.984360e+00 2.438790e+00 2.892304e+00 2.618742e+00 2.090464e+00 1.602497e+00 3.605910e-02 1.186200e-01 2.446803e-01 2.001607e-01 4.099752e-01 3.985213e-01 1.036783e+00 6.431445e-01 2.939739e-01 6.812337e-01 3.596254e-01 4.527608e-01 4.070200e-01 4.223378e-03
<GCONST> 9.440974e+01
<MIXTURE> 2 3.413591e-01
<MEAN> 39
 -5.882842e+00 -3.491792e+00 1.051455e+01 1.111819e+01 2.259659e+00 -3.591692e+00 -5.215362e+00 3.706380e-01 -2.052720e-02 -1.554808e+00 -1.307732e+00 -1.829711e+00 1.794988e+01 2.162160e+00 9.296947e-01 1.758888e+00 2.550254e-01 -1.203154e+00 4.537356e-02 -5.347673e-01 8.306560e-01 -9.434562e-01 -2.458654e-01 9.237678e-02 6.949232e-01 4.951399e-01 2.441930e-01 5.117318e-04 -5.309852e-01 -1.015453e+00 -8.267780e-01 -1.726088e-01 -4.274091e-01 -5.235447e-02 -9.383568e-02 3.312306e-01 4.233731e-01 5.603250e-01 1.638654e-02
<VARIANCE> 39
 1.193707e+01 8.343653e+00 3.402266e+01 3.917261e+01 5.292208e+01 6.288834e+01 3.028800e+01 5.085505e+01 2.752169e+01 3.950481e+01 1.529858e+01 1.728740e+01 7.902390e-01 1.267252e+00 1.228279e+00 3.738796e+00 4.067875e+00 5.742950e+00 3.891006e+00 2.988067e+00 3.902586e+00 3.631118e+00 4.884086e+00 3.678170e+00 2.944256e+00 6.133983e-02 3.044687e-01 2.370636e-01 3.978999e-01 6.291930e-01 9.496992e-01 1.009880e+00 6.132489e-01 7.825003e-01 7.635205e-01 9.169514e-01 4.417810e-01 5.042389e-01 6.512920e-03
<GCONST> 1.107691e+02
<MIXTURE> 3 1.728349e-01
<MEAN> 39
 -8.173779e+00 -5.865314e+00 2.180395e+00 4.175624e+00 2.657322e+00 -1.181458e+00 -3.553967e+00 8.102939e-01 1.663015e+00 6.444408e-01 -9.538156e-02 -2.274965e+00 1.648043e+01 1.105084e+00 6.591498e-01 1.345720e+00 1.410818e+00 1.164327e+00 1.226459e+00 6.666552e-01 4.337663e-01 -3.440394e-01 4.006889e-02 -1.065375e+00 -5.994886e-01 2.843134e-01 4.723328e-01 -5.221264e-02 -1.409736e-01 -7.250648e-02 -3.170865e-01 9.008195e-02 -4.876309e-01 -4.228179e-01 -1.887598e-01 1.778967e-01 2.947790e-01 3.025832e-01 1.465913e-01
<VARIANCE> 39
 1.729595e+01 6.530033e+00 2.216227e+01 3.045465e+01 2.886558e+01 3.246590e+01 1.422322e+01 3.797850e+01 3.657792e+01 2.641485e+01 3.798590e+01 3.333869e+01 1.621147e+00 2.464203e+00 1.061173e+00 2.998852e+00 2.505212e+00 2.534527e+00 3.118784e+00 2.884019e+00 2.339108e+00 2.001812e+00 3.292065e+00 1.830132e+00 3.040383e+00 1.062374e-01 1.811076e-01 1.628741e-01 3.280243e-01 3.157034e-01 4.890769e-01 6.799964e-01 5.984716e-01 5.120435e-01 5.626339e-01 7.105626e-01 1.050314e+00 7.375130e-01 1.790905e-02
<GCONST> 1.055986e+02
<MIXTURE> 4 1.920804e-01
<MEAN> 39
 -2.186432e+00 -1.259394e+00 -3.508484e-01 2.450834e+00 5.839787e+00 1.242000e+00 -6.966607e+00 -7.998149e+00 -8.946162e-01 3.138745e+00 5.195557e+00 1.644264e+00 1.764369e+01 2.880855e+00 2.382231e+00 1.014190e-01 -1.016033e+00 -8.148770e-01 2.204675e+00 -8.718750e-02 7.717399e-02 -8.620923e-01 6.100787e-02 -1.198286e+00 -1.487682e-01 3.746322e-01 1.994113e-01 1.161745e-01 -4.194322e-02 -7.574297e-01 -8.352545e-01 2.833721e-01 6.879468e-02 5.265020e-01 4.637817e-02 -1.493387e-01 -4.455925e-01 -1.328270e-01 5.068329e-02
<VARIANCE> 39
 1.256735e+01 1.443014e+01 1.428556e+01 2.655224e+01 2.205147e+01 2.279617e+01 3.530866e+01 1.428528e+01 2.106786e+01 3.999660e+01 3.336245e+01 1.806030e+01 5.165874e-01 1.075506e+00 1.169392e+00 2.803247e+00 2.214864e+00 1.683757e+00 4.737808e+00 6.286472e+00 4.603176e+00 2.281713e+00 2.626071e+00 5.664198e+00 2.755276e+00 5.909451e-02 1.997819e-01 4.226281e-01 5.020317e-01 3.462926e-01 2.377029e-01 6.332784e-01 5.246670e-01 4.059555e-01 4.600040e-01 6.517977e-01 8.864753e-01 2.594387e-01 2.456262e-03
<GCONST> 1.005982e+02
<MIXTURE> 5 1.095101e-01
<MEAN> 39
 6.771475e-01 -2.670147e-01 1.121977e-01 2.121764e+00 4.723402e+00 2.371716e+00 -4.833785e+00 -3.106348e+00 9.190381e-01 2.819969e+00 4.060619e-01 -2.018981e+00 1.820693e+01 6.247696e-01 1.117833e+00 6.839412e-01 9.472831e-01 3.444397e-01 1.836904e-01 1.019691e+00 1.403514e-01 -1.247337e+00 -1.249992e+00 -1.085891e+00 -1.253435e-01 -9.316378e-02 5.867761e-02 -9.367579e-02 1.709551e-01 -4.285339e-01 -8.228499e-01 -5.724337e-02 -3.365534e-01 -2.100867e-01 -5.006231e-01 6.257317e-02 -9.771136e-02 1.354478e-01 2.403208e-02
<VARIANCE> 39
 5.899139e+01 3.851601e+01 1.479663e+01 2.931631e+01 3.075391e+01 5.226934e+01 1.534005e+01 3.108403e+01 3.107220e+01 3.933578e+01 1.824912e+01 3.240756e+01 2.955284e+00 7.982045e-01 1.905409e+00 1.060407e+00 1.579109e+00 3.692600e+00 2.884224e+00 7.218017e+00 4.573833e+00 1.755158e+00 4.692221e+00 1.528154e+00 3.793804e+00 5.252767e-02 1.540298e-01 5.831107e-01 2.597739e-01 2.827394e-01 7.157423e-01 5.188603e-01 2.616104e-01 6.225674e-01 4.438943e-01 1.085919e+00 3.043726e-01 4.922876e-01 1.488719e-02
<GCONST> 1.066575e+02
<STATE> 3
<NUMMIXES> 5
<MIXTURE> 1 1.913193e-01
<MEAN> 39
 2.557636e-01 1.391904e+00 6.833169e+00 3.521125e+00 -1.975867e-01 -1.592924e+00 -6.422771e+00 -1.103267e+00 -1.665106e+00 -5.441930e-01 3.039052e-01 2.278458e+00 1.866447e+01 2.099475e+00 8.544188e-01 4.130976e-02 -1.261870e+00 -1.992376e+00 7.133592e-02 -8.360497e-01 2.757964e-01 -1.068848e+00 3.829244e-01 3.250264e-01 1.183499e+00 3.745311e-01 -2.574611e-01 -4.651973e-01 -6.492574e-01 -2.632728e-01 -1.630654e-01 -2.708326e-02 -3.616158e-01 -2.725783e-01 9.152257e-02 4.295768e-01 2.611358e-01 -1.519206e-01 -1.883333e-02
<VARIANCE> 39
 1.232707e+01 1.351003e+01 8.212893e+01 3.237067e+01 3.101753e+01 5.270811e+01 2.999654e+01 3.700372e+01 3.930903e+01 3.340068e+01 3.825693e+01 1.746481e+01 5.080510e-01 9.909716e-01 1.887840e+00 2.933734e+00 2.252729e+00 3.875581e+00 2.879812e+00 3.815830e+00 2.407317e+00 3.671523e+00 3.533096e+00 3.069968e+00 2.678120e+00 3.904357e-02 7.845663e-02 2.944964e-01 3.167476e-01 2.064541e-01 3.533353e-01 6.624747e-01 7.289498e-01 3.546736e-01 6.184594e-01 5.420994e-01 6.536995e-01 5.081683e-01 3.117329e-03
<GCONST> 1.034026e+02
<MIXTURE> 2 3.991976e-01
<MEAN> 39
 6.186450e+00 2.460242e+00 -4.567168e+00 -1.215537e+01 -3.570889e+00 1.142123e+01 -9.918707e+00 -7.414135e+00 -4.039814e-01 8.577338e+00 1.496886e+00 4.257111e+00 1.973542e+01 3.714451e-01 -2.579684e-01 -9.738574e-01 -1.195609e+00 -3.202345e-01 4.652680e-01 -1.175431e+00 -1.154850e-01 1.556739e-01 6.410320e-01 4.558160e-01 1.129888e-02 2.506276e-01 -3.482575e-01 -1.735604e-01 1.689598e-01 6.241508e-01 2.835985e-01 -3.723724e-01 2.274147e-01 8.623052e-02 1.393902e-01 -2.784056e-01 -4.912721e-02 -2.724001e-01 -6.623326e-02
<VARIANCE> 39
 4.676437e+00 2.418176e+01 1.928374e+01 6.657857e+01 1.951819e+01 4.088337e+01 2.867661e+01 4.012358e+01 3.458802e+01 4.145404e+01 4.068612e+01 4.282119e+01 5.101335e-01 5.662160e-01 1.326124e+00 1.527966e+00 4.010626e+00 1.720621e+00 2.047992e+00 1.967055e+00 2.214466e+00 2.426405e+00 3.339925e+00 2.748585e+00 2.363952e+00 2.183435e-02 1.277932e-01 2.922409e-01 2.866268e-01 6.319248e-01 4.463823e-01 5.443053e-01 5.090765e-01 4.000377e-01 5.656897e-01 5.343121e-01 4.889435e-01 3.684266e-01 2.115269e-03
<GCONST> 9.867665e+01
<MIXTURE> 3 1.351624e-01
<MEAN> 39
 1.777314e+00 5.051050e+00 1.952922e+00 -2.430671e+00 1.096809e-01 8.708008e+00 -2.527469e+00 -5.056468e+00 9.271375e-01 3.150223e+00 -2.991381e+00 1.128368e+00 1.856750e+01 2.561715e+00 1.111921e+00 -5.514448e-01 -2.692656e+00 -1.573104e+00 1.920410e+00 -7.973234e-01 3.940993e-01 -3.059700e-01 7.086186e-01 -7.434450e-01 5.860656e-01 5.261071e-01 -4.703339e-01 -8.302552e-01 -6.475033e-01 -5.260285e-01 -2.591956e-01 -5.009460e-01 -5.916964e-01 7.879661e-03 1.594489e-01 3.115473e-01 5.563664e-01 2.389617e-01 -5.140790e-02
<VARIANCE> 39
 5.707978e+00 1.083602e+01 6.858756e+00 2.008160e+01 1.762461e+01 5.601134e+01 1.031451e+01 2.307450e+01 2.308130e+01 2.411102e+01 1.780239e+01 2.890504e+01 4.678698e-01 1.644598e+00 2.674739e+00 1.331562e+00 4.638999e+00 4.873735e+00 4.776970e+00 3.589316e+00 2.871228e+00 3.666523e+00 5.055950e+00 2.830859e+00 1.126095e+00 5.520816e-02 1.092128e-01 1.447451e-01 1.074875e-01 5.994396e-01 5.502100e-01 9.090964e-01 3.305687e-01 6.445910e-01 5.472077e-01 7.028474e-01 6.224986e-01 2.787983e-01 3.763694e-03
<GCONST> 9.744756e+01
<MIXTURE> 4 1.525234e-01
<MEAN> 39
 3.795554e+00 -4.678389e+00 3.751506e-01 -2.543635e+00 -5.904036e+00 3.911253e+00 -9.229588e+00 6.773181e-02 -6.756574e-01 4.375638e+00 -2.567805e-01 -1.349125e+00 1.933360e+01 1.244839e+00 -1.332140e+00 -9.920667e-01 -1.884703e+00 -2.160637e+00 5.002610e-01 -2.352699e+00 1.018393e+00 2.373413e-01 1.505386e+00 1.408617e+00 6.263638e-01 3.593131e-01 -7.937242e-01 1.263810e-02 3.090726e-02 2.056308e-01 3.116397e-01 -5.512964e-01 2.181355e-01 -7.659705e-02 3.403913e-01 -3.062726e-01 7.923464e-02 -1.020618e-01 -1.125287e-01
<VARIANCE> 39
 3.038967e+01 2.619910e+01 7.450010e+01 5.422679e+01 2.886475e+01 5.689245e+01 2.883190e+01 3.881301e+01 2.371597e+01 2.047802e+01 2.941489e+01 2.505260e+01 2.249384e+00 1.069218e+00 2.140239e+00 2.870350e+00 2.954788e+00 2.608049e+00 3.936423e+00 2.602715e+00 2.611742e+00 2.603670e+00 3.412369e+00 2.809417e+00 3.340150e+00 8.421278e-02 1.255261e-01 3.697959e-01 3.586263e-01 6.797898e-01 4.325607e-01 7.876966e-01 6.165742e-01 5.887188e-01 3.780662e-01 7.022441e-01 3.774079e-01 4.255515e-01 4.939069e-03
<GCONST> 1.088066e+02
<MIXTURE> 5 1.217973e-01
<MEAN> 39
 5.119503e+00 3.919763e+00 -1.906984e+00 -3.998670e+00 -1.287416e+00 7.736667e+00 -3.474482e+00 -6.142220e+00 -9.999911e-01 4.082814e+00 -4.819756e-02 -9.135381e-01 1.864181e+01 1.954913e+00 5.203030e-01 -1.244864e+00 -2.602499e+00 -2.104545e+00 1.718121e+00 -4.048661e-01 4.823822e-01 -7.361718e-01 3.249749e-01 -7.602588e-01 4.369281e-02 4.112382e-01 -6.456909e-01 -7.888685e-01 -3.322146e-01 -2.343990e-01 -8.549933e-02 -6.080140e-01 -7.967116e-01 1.191524e-01 4.843184e-01 1.634077e-01 4.070687e-01 7.364205e-02 -2.649206e-02
<VARIANCE> 39
 6.166593e+00 1.094480e+01 1.003395e+01 2.330111e+01 1.703655e+01 3.028673e+01 1.647392e+01 2.010247e+01 1.809330e+01 2.235316e+01 2.096713e+01 2.289317e+01 4.609241e-01 1.240261e+00 1.769024e+00 3.108506e+00 2.319470e+00 2.839997e+00 5.207055e+00 2.923939e+00 3.453801e+00 3.027326e+00 3.472096e+00 3.492451e+00 2.696948e+00 5.428834e-02 1.229108e-01 1.246494e-01 1.461760e-01 7.097519e-01 5.160093e-01 7.187684e-01 2.698123e-01 6.661206e-01 2.999414e-01 6.943926e-01 4.001172e-01 3.691389e-01 4.460077e-03
<GCONST> 9.619678e+01
<STATE> 4
<NUMMIXES> 5
<MIXTURE> 1 2.605616e-01
<MEAN> 39
 4.990621e+00 5.225523e+00 2.644612e+00 1.789429e+00 -4.759130e-01 3.136274e+00 -5.767151e+00 -9.911878e+00 -9.472202e-02 6.583777e+00 -3.754156e+00 -3.093229e+00 1.853839e+01 -2.646688e-01 2.291185e-01 7.188436e-01 4.767907e-01 -9.474264e-02 -1.045345e-01 6.334370e-01 5.046545e-01 1.640893e-01 -6.147790e-01 -6.692426e-01 5.807316e-02 -9.755062e-03 6.769229e-02 -1.218030e-01 -1.175893e-01 -1.322586e-01 1.767065e-01 2.991679e-02 -8.801366e-02 1.210341e-01 8.588599e-03 -4.784269e-03 3.016669e-01 1.467319e-01 1.574876e-02
<VARIANCE> 39
 6.612473e+00 2.634797e+01 1.848394e+01 5.755701e+01 2.080203e+01 3.898703e+01 2.497188e+01 4.413518e+01 4.254852e+01 6.582683e+01 4.105334e+01 4.292577e+01 1.062567e+00 2.995201e-01 7.945989e-01 1.020590e+00 1.768248e+00 1.662456e+00 1.934655e+00 2.129973e+00 3.966247e+00 1.910227e+00 4.041925e+00 3.502895e+00 2.769935e+00 9.521449e-03 5.735763e-02 1.369040e-01 1.884612e-01 3.464701e-01 2.558655e-01 2.918332e-01 5.009716e-01 6.810135e-01 4.503771e-01 8.911934e-01 8.326063e-01 4.365633e-01 1.021345e-03
<GCONST> 9.504509e+01
<MIXTURE> 2 2.332457e-01
<MEAN> 39
 4.550354e+00 7.136301e-01 -3.577604e+00 -1.939875e+00 -2.018379e+00 1.864218e+00 -1.440860e+01 -3.445262e+00 1.253531e+00 1.140620e+00 5.098984e+00 1.674886e+00 1.961891e+01 1.263037e-01 -8.055562e-02 -3.730272e-01 1.029851e-01 -1.165073e-01 -1.825941e-02 -2.230458e-05 -1.904851e-01 3.299604e-01 3.678232e-01 3.474252e-02 -1.310178e-01 7.274709e-02 -3.857314e-02 -1.301051e-02 2.220616e-01 3.046995e-01 9.425327e-02 -4.138761e-02 2.049225e-01 1.380616e-01 -5.153752e-02 -4.614528e-02 -2.320279e-01 -4.550134e-02 -2.054012e-02
<VARIANCE> 39
 2.108352e+01 2.252076e+01 6.109613e+01 1.140517e+02 3.143501e+01 8.509993e+01 8.093185e+01 7.939828e+01 5.235061e+01 7.667449e+01 4.619854e+01 3.928537e+01 1.091322e+00 1.294889e+00 1.321798e+00 1.921133e+00 2.946810e+00 2.303181e+00 3.099881e+00 3.121224e+00 2.775706e+00 2.839688e+00 2.579602e+00 1.700898e+00 1.650256e+00 2.454447e-02 2.921723e-01 3.336799e-01 4.259438e-01 5.805918e-01 4.893918e-01 4.724392e-01 5.861142e-01 5.274831e-01 4.948559e-01 6.026697e-01 4.541317e-01 2.970870e-01 1.716898e-03
<GCONST> 1.090061e+02
<MIXTURE> 3 1.607657e-01
<MEAN> 39
 2.030387e+00 4.382244e+00 4.464356e+00 7.247786e+00 3.083431e+00 1.172455e+00 -2.738335e+00 -4.977733e+00 1.643453e+00 1.552725e+00 -6.096322e+00 -1.766859e+00 1.766529e+01 4.404232e-02 1.365143e-01 9.724272e-02 4.661035e-01 6.061873e-01 -4.556473e-02 -4.914775e-01 -2.121636e-01 1.065905e-01 -1.128103e-02 6.137722e-01 2.335853e-02 -4.407246e-02 -3.157172e-02 -1.904380e-02 3.480589e-02 -8.009988e-02 -1.611416e-01 -1.377301e-01 -1.608475e-01 -1.246457e-01 7.789904e-02 1.670486e-01 7.271225e-02 2.380299e-02 2.465636e-03
<VARIANCE> 39
 2.266170e+01 1.471426e+01 2.151633e+01 2.069063e+01 2.027232e+01 3.078863e+01 2.219101e+01 2.926332e+01 5.023269e+01 3.174555e+01 2.874442e+01 3.295185e+01 1.177314e+00 3.690879e-01 8.739625e-01 1.477663e+00 1.474030e+00 2.647239e+00 1.969896e+00 3.207248e+00 2.118166e+00 2.928256e+00 3.053276e+00 3.624551e+00 2.261950e+00 9.003029e-03 5.783735e-02 8.758509e-02 2.981200e-01 3.060529e-01 3.676527e-01 5.151567e-01 8.178735e-01 5.558290e-01 6.435444e-01 7.586901e-01 6.905289e-01 4.561197e-01 5.335689e-04
<GCONST> 9.414772e+01
<MIXTURE> 4 1.735855e-01
<MEAN> 39
 -1.386666e+00 6.219640e-01 9.812899e+00 1.343719e+00 -5.897655e+00 -4.127388e+00 -1.072654e+01 6.466744e-01 -2.696479e+00 6.680687e-01 6.807407e-01 2.531334e+00 1.804300e+01 2.068859e-01 -1.059417e-01 -1.504707e-01 -7.756392e-01 -1.005191e+00 -7.146524e-01 -5.935116e-01 1.850766e-01 1.777591e-01 3.155175e-01 3.264558e-01 2.848585e-01 7.973072e-02 -2.324511e-01 6.557083e-03 -2.342151e-01 2.558477e-01 3.601736e-01 1.124356e-01 2.330795e-01 -1.545483e-01 1.328229e-01 -1.105371e-01 -2.244460e-01 -2.108375e-01 -3.102797e-02
<VARIANCE> 39
 3.900237e+01 3.882708e+01 9.180590e+01 3.443551e+01 6.501642e+01 4.937709e+01 3.628311e+01 3.932111e+01 6.597955e+01 3.216280e+01 2.340348e+01 3.094887e+01 4.298516e+00 1.353118e+00 2.537586e+00 2.207366e+00 3.392765e+00 3.009699e+00 3.771683e+00 2.790596e+00 2.073552e+00 3.328014e+00 2.248254e+00 1.794454e+00 3.029588e+00 5.802228e-02 2.586713e-01 4.134324e-01 3.558256e-01 6.388017e-01 7.278165e-01 8.671151e-01 6.848910e-01 4.138755e-01 5.764371e-01 5.915882e-01 5.043858e-01 5.090433e-01 4.870589e-03
<GCONST> 1.131923e+02
<MIXTURE> 5 1.718401e-01
<MEAN> 39
 -1.131238e+00 4.523353e+00 5.572921e+00 7.668205e+00 4.900384e+00 2.732748e-01 -2.203188e+00 -5.206364e+00 7.589658e-02 2.833995e+00 -6.757985e+00 -1.676226e+00 1.632352e+01 -3.411370e-01 -3.634147e-01 -4.487689e-01 -6.255505e-01 -1.372842e-01 -1.453953e-01 -2.486428e-01 -3.296603e-02 -4.033804e-01 1.707602e-01 -2.223841e-01 -1.185422e-01 -1.473322e-01 -1.453706e-01 5.988864e-03 -2.432807e-02 -6.436108e-02 -1.316010e-01 9.377252e-03 3.646539e-02 6.887202e-02 1.051356e-02 -2.142113e-01 -1.746861e-01 1.638695e-02 -2.804660e-02
<VARIANCE> 39
 2.546631e+01 1.664099e+01 2.028367e+01 1.921213e+01 1.734253e+01 2.418495e+01 3.010883e+01 5.754576e+01 2.010730e+01 4.021104e+01 3.003610e+01 2.640308e+01 1.921232e+00 3.499448e-01 7.762777e-01 1.018953e+00 1.498215e+00 1.676201e+00 2.223165e+00 3.794766e+00 3.242706e+00 2.286111e+00 3.118708e+00 3.748825e+00 2.478794e+00 1.999959e-02 8.536337e-02 1.950614e-01 2.903166e-01 4.295563e-01 4.869553e-01 4.706193e-01 9.073747e-01 8.624569e-01 4.749801e-01 6.164753e-01 8.568471e-01 5.804298e-01 1.031874e-03
<GCONST> 9.774034e+01
<TRANSP> 5
 0.000000e+00 1.000000e+00 0.000000e+00 0.000000e+00 0.000000e+00
 0.000000e+00 5.120628e-01 4.879372e-01 0.000000e+00 0.000000e+00
 0.000000e+00 0.000000e+00 7.098387e-01 2.901613e-01 0.000000e+00
 0.000000e+00 0.000000e+00 0.000000e+00 8.142408e-01 1.857593e-01
 0.000000e+00 0.000000e+00 0.000000e+00 0.000000e+00 0.000000e+00
<ENDHMM>
~h "d"
<BEGINHMM>
<NUMSTATES> 5
<STATE> 2
<NUMMIXES> 5
<MIXTURE> 1 9.821048e-02
<MEAN> 39
 -5.527697e+00 6.819888e+00 1.035093e+01 2.932786e-02 4.262675e+00 8.512877e+00 5.761603e-01 -4.836691e+00 -2.373983e+00 -3.194749e+00 -5.789090e-01 4.045398e+00 1.761178e+01 -1.793309e-01 4.265530e-01 1.222844e-01 -1.859819e-01 8.960071e-02 1.965555e-01 -3.591417e-02 -2.669252e-02 1.076405e-01 7.637689e-02 -7.266182e-02 4.135615e-01 -2.676519e-04 6.078447e-02 6.146396e-02 8.852372e-02 1.639186e-01 2.268586e-02 -2.001718e-01 -2.926269e-01 -8.196153e-02 2.913305e-03 1.182804e-01 4.897501e-02 -1.091594e-01 9.411689e-03
<VARIANCE> 39
 2.297609e+01 3.476090e+01 1.236821e+01 1.493099e+01 1.638767e+01 4.662222e+01 3.142829e+01 2.265340e+01 2.891761e+01 2.113565e+01 1.713275e+01 1.789804e+01 8.542988e-01 6.768507e-01 2.616456e+00 1.409142e+00 2.624046e+00 9.352320e-01 3.346870e+00 3.663418e+00 3.231587e+00 5.315617e+00 2.799492e+00 1.978469e+00 2.467296e+00 2.345930e-02 1.394757e-01 7.794769e-01 2.926369e-01 4.886124e-01 1.089380e-01 8.774173e-01 9.208149e-01 7.796009e-01 1.050536e+00 5.643201e-01 3.407620e-01 5.188095e-01 1.683039e-03
<GCONST> 9.930766e+01
<MIXTURE> 2 2.607860e-01
<MEAN> 39
 -4.769202e+00 8.153543e+00 8.202180e+00 6.014286e+00 3.270884e+00 -1.278025e-01 -4.582806e+00 -6.070734e+00 -1.317175e+00 1.251027e-01 -3.921621e+00 -2.126381e+00 1.628347e+01 -1.876708e+00 -1.571029e+00 -9.461734e-01 -1.243147e+00 8.499617e-01 4.861365e-01 1.681766e+00 4.201433e-01 -5.420513e-01 -3.212305e-01 1.335648e+00 1.109338e+00 -1.829168e-01 -1.435269e-01 -4.298695e-01 -3.684679e-01 -4.474729e-01 -3.196140e-01 -1.909785e-01 2.253574e-01 5.112435e-01 3.041185e-01 -3.107732e-02 3.126124e-01 1.712148e-01 2.402636e-02
<VARIANCE> 39
 3.223826e+01 1.991005e+01 1.545393e+01 1.733815e+01 2.454990e+01 2.960382e+01 2.665759e+01 2.664986e+01 3.602396e+01 2.420065e+01 2.865134e+01 2.207833e+01 3.388913e+00 2.066274e+00 3.609230e+00 2.134431e+00 3.527114e+00 2.663913e+00 3.628726e+00 4.981352e+00 4.236449e+00 4.131135e+00 3.182635e+00 3.754301e+00 2.205819e+00 3.269110e-02 3.603999e-01 4.268245e-01 2.691603e-01 4.635140e-01 5.630231e-01 6.216384e-01 9.306840e-01 6.022807e-01 7.341884e-01 5.393083e-01 5.758212e-01 5.253323e-01 4.937928e-03
<GCONST> 1.089284e+02
<MIXTURE> 3 2.812500e-01
<MEAN> 39
 3.187935e-01 1.177206e+00 7.059911e+00 1.373795e+00 7.863740e-01 -4.246142e+00 -9.715938e+00 -2.267461e+00 3.235622e-01 1.831884e+00 -3.210572e+00 -2.985860e+00 1.953368e+01 -1.250695e+00 -5.723058e-01 1.000455e-01 -5.767896e-01 5.153319e-01 -3.927903e-01 6.103052e-01 9.875967e-02 -6.810009e-01 1.690733e-01 3.484591e-01 5.798793e-02 -1.851065e-02 1.356111e-01 7.138501e-02 -1.943350e-01 -6.812865e-02 -1.441497e-01 1.343282e-01 -3.175292e-01 1.901946e-01 2.462784e-01 9.270122e-02 -3.426788e-02 7.797299e-02 7.722423e-03
<VARIANCE> 39
 2.221041e+01 3.032607e+01 4.686134e+01 3.066004e+01 4.462476e+01 4.430358e+01 8.061654e+01 5.040842e+01 3.504173e+01 3.373557e+01 3.431325e+01 1.694178e+01 7.306645e-01 2.458860e+00 2.505537e+00 1.867221e+00 1.794913e+00 3.495465e+00 6.267776e+00 4.043701e+00 3.942015e+00 3.223489e+00 2.399720e+00 2.001805e+00 2.000875e+00 7.478835e-03 3.408292e-01 3.439209e-01 3.351665e-01 3.616499e-01 5.068784e-01 8.160716e-01 5.895956e-01 3.528981e-01 5.639459e-01 4.053897e-01 3.827355e-01 3.413117e-01 8.061540e-04
<GCONST> 1.045660e+02
<MIXTURE> 4 2.543781e-01
<MEAN> 39
 -4.960869e+00 7.518475e+00 7.741511e+00 4.905659e+00 -5.427937e-01 -4.005829e+00 -4.501876e+00 -3.375351e+00 -7.591780e-01 -9.241572e-01 -3.428728e+00 -2.598998e+00 1.587552e+01 -2.241851e+00 -2.054522e+00 -1.569308e+00 -1.475206e+00 1.093619e+00 4.907659e-01 9.849015e-01 -5.808607e-01 -1.037481e+00 -9.206831e-01 3.953481e-01 5.848047e-02 -2.885253e-01 -1.693578e-01 -3.843098e-01 -2.208651e-01 -1.626829e-01 2.279387e-02 1.090447e-01 2.712657e-02 1.180859e-01 6.138767e-02 -7.894874e-02 1.373825e-01 3.018451e-01 5.500582e-03
<VARIANCE> 39
 2.655582e+01 2.552245e+01 1.881040e+01 1.491056e+01 2.902659e+01 2.628399e+01 2.794158e+01 3.091544e+01 2.624435e+01 2.692234e+01 3.300316e+01 1.851402e+01 3.845207e+00 2.403760e+00 2.954419e+00 1.778207e+00 2.560618e+00 3.962228e+00 2.820472e+00 4.134083e+00 4.193597e+00 3.785464e+00 3.668766e+00 3.801971e+00 2.629307e+00 4.228352e-02 3.096971e-01 4.849618e-01 3.296969e-01 4.384450e-01 5.327384e-01 4.541349e-01 6.888822e-01 6.966055e-01 6.748793e-01 6.975567e-01 7.436951e-01 4.382792e-01 9.148968e-03
<GCONST> 1.095143e+02
<MIXTURE> 5 1.053755e-01
<MEAN> 39
 -5.260275e+00 7.773258e+00 7.366181e+00 -1.785101e+00 3.189590e+00 1.239280e+00 -4.912723e+00 -5.477969e+00 -4.483155e-01 -2.532321e+00 -7.367871e-01 4.189054e+00 1.793596e+01 -1.386877e+00 -1.561947e-01 -4.104235e-01 2.082662e-01 1.120935e+00 -5.688577e-01 1.470231e+00 5.337101e-01 2.807449e-01 -7.859887e-01 -4.854536e-01 3.457544e-01 -1.307480e-01 2.311887e-02 -2.771071e-01 3.732016e-02 3.486222e-01 -1.684596e-01 -3.147942e-01 -2.671329e-02 3.307092e-01 1.293115e-01 3.049131e-01 -1.875653e-01 -4.353032e-01 3.459450e-03
<VARIANCE> 39
 7.423210e+01 2.037330e+01 2.624242e+01 2.880388e+01 3.358778e+01 1.452295e+02 4.399546e+01 4.376639e+01 3.112108e+01 4.772288e+01 3.626423e+01 1.841707e+01 2.344374e+00 1.305596e+00 2.134059e+00 1.628088e+00 1.425025e+00 2.734662e+00 5.371237e+00 4.060434e+00 5.224150e+00 3.562877e+00 5.707039e+00 3.272222e+00 1.733529e+00 2.506006e-02 4.669245e-01 3.357730e-01 2.443598e-01 1.804847e-01 3.523954e-01 1.437548e+00 7.401952e-01 7.264141e-01 4.684358e-01 1.091364e+00 4.698826e-01 3.216175e-01 1.257200e-03
<GCONST> 1.094966e+02
<STATE> 3
<NUMMIXES> 5
<MIXTURE> 1 2.430448e-01
<MEAN> 39
 -8.608673e+00 1.740825e+00 4.800631e+00 1.465036e+00 4.071305e+00 -2.323128e+00 -1.258732e+00 -3.872962e+00 -2.209324e+00 -1.558459e+00 -1.180438e+00 -1.121357e+00 1.782976e+01 -2.328506e-01 4.394205e-03 -5.636837e-01 -4.475520e-01 -2.779136e-01 -5.801603e-01 -3.437410e-01 5.972098e-01 6.045384e-01 2.436344e-01 2.650338e-01 4.457053e-01 5.965361e-02 6.704260e-01 6.020191e-01 4.346792e-01 1.934790e-01 -5.390432e-01 -2.305004e-01 -7.173942e-01 4.553698e-02 5.166147e-01 1.697516e-01 -1.959951e-01 5.783421e-02 4.298784e-02
<VARIANCE> 39
 3.403709e+01 2.286801e+01 2.376276e+01 1.581746e+01 2.567282e+01 3.313988e+01 2.560497e+01 2.523001e+01 2.966552e+01 2.726295e+01 2.467641e+01 1.783764e+01 2.272579e+00 1.594134e+00 3.060276e+00 2.592215e+00 1.908464e+00 2.122788e+00 3.588033e+00 3.330164e+00 3.155499e+00 2.728269e+00 2.432319e+00 2.912847e+00 2.449409e+00 1.414554e-02 4.677232e-01 8.293806e-01 6.400076e-01 3.817268e-01 5.369889e-01 9.259529e-01 7.274021e-01 6.232186e-01 7.746257e-01 7.099035e-01 6.567613e-01 5.493537e-01 1.326888e-03
<GCONST> 1.061610e+02
<MIXTURE> 2 2.406712e-01
<MEAN> 39
 -7.809109e+00 2.556128e+00 2.841370e+00 3.721147e+00 4.496118e+00 2.264892e+00 2.080364e+00 1.297760e-01 9.560374e-01 6.767271e-02 -5.352492e+00 -1.527349e+00 1.458653e+01 -5.833090e-01 -4.592413e-01 -5.524899e-01 -2.953790e-01 -1.135624e-01 -3.846566e-02 4.644668e-01 2.522438e-01 -1.110438e-01 -2.256548e-01 4.869591e-01 3.804564e-01 -2.828800e-01 8.088925e-02 7.472441e-02 1.759730e-01 9.956513e-02 -2.777060e-01 -3.436237e-01 -3.741273e-01 -2.181351e-01 -7.659880e-02 -1.024389e-03 2.011035e-01 9.723644e-02 3.926969e-02
<VARIANCE> 39
 1.642853e+01 2.020936e+01 1.902909e+01 1.461342e+01 2.790244e+01 3.394125e+01 2.984448e+01 2.651875e+01 3.338017e+01 3.304332e+01 3.393005e+01 2.279404e+01 4.273726e+00 6.759984e-01 1.187247e+00 1.361127e+00 1.756684e+00 2.129974e+00 2.622153e+00 2.805560e+00 3.348392e+00 3.278791e+00 2.686063e+00 3.122862e+00 2.752124e+00 4.114232e-02 1.897324e-01 4.650894e-01 3.186197e-01 4.349283e-01 8.019221e-01 6.636565e-01 6.340972e-01 7.485708e-01 8.147227e-01 7.154179e-01 8.326311e-01 5.549975e-01 1.175019e-02
<GCONST> 1.059590e+02
<MIXTURE> 3 1.266467e-01
<MEAN> 39
 -3.062884e+00 1.617881e+00 5.941151e+00 -6.839896e-01 -2.108054e+00 -4.843798e+00 -1.140429e+01 2.753056e-01 1.863934e+00 3.050099e+00 -1.383355e+00 -1.059380e-01 1.824660e+01 -9.714969e-02 2.363937e-01 -7.240507e-02 8.843194e-02 1.775649e-01 3.080610e-01 3.929474e-01 3.416028e-01 1.182004e-02 1.694630e-01 -3.182583e-02 1.843627e-01 -9.763806e-03 1.437600e-01 -3.849236e-02 -1.024725e-01 2.394187e-02 1.018450e-01 2.061485e-01 1.420640e-01 2.740335e-02 -5.505222e-02 -5.288331e-02 3.839164e-03 -1.877001e-01 1.381521e-02
<VARIANCE> 39
 6.639320e+01 3.178448e+01 5.090046e+01 2.632554e+01 3.543869e+01 3.988185e+01 1.046117e+02 5.366789e+01 4.761431e+01 5.155228e+01 4.002847e+01 3.771238e+01 7.833164e+00 7.540439e-01 9.123601e-01 1.141598e+00 1.288446e+00 1.464958e+00 3.040201e+00 2.130842e+00 1.476536e+00 2.087486e+00 2.531554e+00 2.252970e+00 1.174484e+00 1.073138e-02 9.565837e-02 1.372947e-01 1.618884e-01 2.728693e-01 2.189041e-01 4.132283e-01 5.240375e-01 3.529530e-01 3.535608e-01 5.589635e-01 4.663703e-01 4.265270e-01 8.277557e-04
<GCONST> 9.848203e+01
<MIXTURE> 4 2.294056e-01
<MEAN> 39
 -9.065632e+00 2.403457e+00 2.469511e+00 2.074315e+00 2.336653e+00 -3.349815e-01 -5.204354e-01 -1.830831e+00 5.199702e-03 1.972321e-01 -2.369836e+00 -2.366759e-01 1.423375e+01 -9.503300e-01 -1.043588e+00 -1.175197e+00 -1.400432e+00 -1.120515e+00 -1.086797e+00 -2.119358e-01 3.115113e-01 -1.026477e-02 -5.081877e-03 8.675200e-01 7.311221e-01 -3.327656e-01 2.196524e-01 2.651095e-01 2.369920e-01 2.479363e-01 -1.130686e-01 -1.314390e-01 -1.980917e-01 -1.955830e-03 -2.968027e-02 3.319002e-02 -1.049016e-01 -9.615982e-02 2.308500e-02
<VARIANCE> 39
 1.698284e+01 2.034983e+01 1.755977e+01 1.903397e+01 2.132504e+01 2.230690e+01 2.990227e+01 3.519273e+01 2.779289e+01 2.287216e+01 3.680951e+01 1.610991e+01 3.837792e+00 1.310256e+00 2.491854e+00 1.924191e+00 2.938638e+00 3.307838e+00 2.710873e+00 3.535198e+00 3.813962e+00 2.723715e+00 3.825196e+00 3.892487e+00 2.310255e+00 6.347802e-02 1.806933e-01 2.938734e-01 2.466549e-01 4.581888e-01 5.610526e-01 4.602655e-01 5.954653e-01 7.682721e-01 6.192232e-01 7.347077e-01 9.006251e-01 4.709012e-01 6.147685e-03
<GCONST> 1.061476e+02
<MIXTURE> 5 1.602307e-01
<MEAN> 39
 -1.040700e+01 5.265911e+00 5.312452e+00 4.762992e+00 1.106346e+00 -3.559855e+00 -1.862580e+00 -6.631909e-01 -2.085212e+00 -3.750675e+00 -2.327479e+00 1.126351e+00 1.368190e+01 -2.907625e-01 9.817697e-02 -2.492049e-01 2.877907e-01 1.631652e-01 -1.339223e-01 1.247831e-01 -2.910426e-02 -2.105755e-01 -1.014933e-01 -1.205315e-01 -1.971222e-01 -1.507134e-01 3.952936e-02 -6.973150e-02 -2.573765e-01 -2.635779e-01 -6.430237e-02 2.909822e-02 -1.028605e-01 -1.393644e-02 2.901002e-01 5.128515e-01 9.838918e-02 -7.169928e-02 2.175907e-02
<VARIANCE> 39
 3.937281e+01 1.655676e+01 1.659960e+01 2.892028e+01 4.241307e+01 2.770847e+01 3.090163e+01 3.575363e+01 3.934345e+01 2.922871e+01 2.844903e+01 2.428562e+01 6.333808e+00 4.176189e-01 5.209641e-01 1.053858e+00 2.472154e+00 2.486320e+00 2.601990e+00 2.582119e+00 2.423807e+00 3.288528e+00 3.787538e+00 2.856644e+00 2.484319e+00 1.375162e-02 9.144142e-02 1.204956e-01 2.225118e-01 5.427887e-01 5.827813e-01 5.450430e-01 5.740646e-01 4.993819e-01 7.336197e-01 7.149291e-01 6.160076e-01 5.022553e-01 2.229615e-03
<GCONST> 1.002249e+02
<STATE> 4
<NUMMIXES> 5
<MIXTURE> 1 2.026895e-01
<MEAN> 39
 -1.717368e+01 3.876561e+00 6.646594e+00 1.968011e+00 1.112172e+00 -4.146930e+00 -4.096707e-01 -1.097576e+00 4.403161e+00 -3.126001e+00 -5.935057e-01 1.798771e+00 1.687334e+01 7.804051e-01 9.686552e-01 1.627195e+00 1.278554e+00 2.164906e-01 1.294759e-01 -4.003336e-01 -1.079189e-01 2.547757e-01 -3.063448e-01 -8.594673e-01 -2.572017e-01 2.492999e-01 5.218030e-01 -2.143475e-01 -1.894244e-01 -2.276727e-01 -4.749598e-01 -2.007634e-01 -4.596407e-01 -1.848220e-01 -2.007442e-01 2.469832e-01 1.929198e-01 -1.230988e-02 5.291003e-02
<VARIANCE> 39
 3.116290e+01 4.493913e+01 5.329372e+01 3.921108e+01 2.808762e+01 3.179719e+01 3.868298e+01 3.876730e+01 3.458260e+01 2.843506e+01 3.330311e+01 1.860943e+01 1.142439e+00 2.206835e+00 1.880486e+00 2.665849e+00 2.125138e+00 3.880496e+00 3.974182e+00 4.882845e+00 2.843541e+00 3.332976e+00 3.550449e+00 3.101579e+00 3.056315e+00 7.915965e-02 2.039344e-01 4.722498e-01 5.838473e-01 5.804142e-01 6.067189e-01 7.278057e-01 1.045462e+00 5.389981e-01 5.730480e-01 7.079239e-01 8.441896e-01 5.067582e-01 4.783736e-03
<GCONST> 1.129283e+02
<MIXTURE> 2 2.221346e-01
<MEAN> 39
 -1.362097e+01 6.715723e-01 -4.568439e-02 -4.013793e+00 -5.838596e+00 -8.055472e+00 -4.721316e+00 -1.813258e+00 3.485609e+00 1.954302e+00 1.719413e+00 2.404886e+00 1.500449e+01 -4.313468e-01 6.681865e-01 2.656028e-01 2.519908e-01 3.850769e-02 -1.797496e-01 7.734396e-02 3.897025e-01 7.647252e-01 1.798052e-01 3.093141e-01 4.694520e-01 -6.269731e-02 5.074419e-02 1.446270e-01 3.911651e-01 5.616435e-01 6.660322e-01 5.929236e-01 3.139239e-01 9.614249e-02 -1.495153e-01 -2.928586e-01 -3.553771e-01 -2.723663e-01 4.233989e-02
<VARIANCE> 39
 5.139120e+01 3.044346e+01 3.470667e+01 3.155977e+01 6.315621e+01 4.093761e+01 4.400811e+01 5.328619e+01 5.108107e+01 4.749848e+01 2.482226e+01 2.197572e+01 6.107979e+00 1.322105e+00 2.811192e+00 2.390653e+00 2.807501e+00 3.909337e+00 4.345081e+00 4.318622e+00 3.124928e+00 3.801143e+00 3.222521e+00 2.677286e+00 2.639175e+00 9.559635e-02 2.803629e-01 5.471671e-01 5.462792e-01 5.788188e-01 5.840257e-01 7.148528e-01 8.478470e-01 7.956788e-01 7.780780e-01 7.829017e-01 5.643340e-01 5.777444e-01 2.313936e-02
<GCONST> 1.186432e+02
<MIXTURE> 3 2.561957e-01
<MEAN> 39
 -4.084409e+00 6.012020e+00 7.925689e+00 2.498127e+00 -9.375275e-01 -8.240072e+00 -1.030235e+01 -3.394095e+00 4.296294e+00 -9.527302e-01 -1.733027e+00 1.842814e+00 1.935150e+01 1.213640e+00 -3.535626e-01 -6.625777e-02 -2.469061e-01 -6.424937e-01 -2.567719e-01 -1.178361e+00 4.260687e-01 -5.819707e-02 1.320023e-01 -8.614274e-02 2.034844e-01 2.018489e-01 -3.186043e-02 -2.391941e-01 -1.209503e-01 -1.712437e-02 5.066902e-02 2.975082e-01 7.718624e-02 1.523688e-01 -1.979673e-01 1.878698e-03 4.911358e-02 -1.422178e-01 -1.642737e-02
<VARIANCE> 39
 2.556362e+01 2.029158e+01 4.557077e+01 2.858326e+01 3.598361e+01 3.476088e+01 5.988217e+01 3.733437e+01 2.456560e+01 3.777518e+01 2.895612e+01 2.584010e+01 6.497304e-01 8.607607e-01 1.408871e+00 1.491204e+00 1.494247e+00 2.585038e+00 3.125603e+00 4.304147e+00 2.738531e+00 2.217193e+00 2.012736e+00 2.276869e+00 1.856242e+00 1.851004e-02 1.180123e-01 1.733437e-01 2.267451e-01 2.560375e-01 4.540737e-01 4.513224e-01 6.867932e-01 4.754304e-01 3.923595e-01 3.845086e-01 4.823447e-01 3.355315e-01 1.357917e-03
<GCONST> 9.770766e+01
<MIXTURE> 4 1.907031e-01
<MEAN> 39
 -1.453707e+01 -1.360369e+00 4.012652e-02 -1.695635e+00 -1.207328e-01 -3.155077e+00 -1.107917e+00 -2.722456e+00 2.250545e-01 -3.966057e-01 1.408049e+00 9.963182e-01 1.442501e+01 -5.726511e-01 -1.079643e+00 -7.455751e-01 -8.063796e-01 -5.643395e-02 -3.274727e-01 1.237016e-02 -1.173264e-01 2.308464e-02 -3.985618e-01 -5.469828e-02 -2.339533e-01 4.217576e-01 7.998154e-02 3.670360e-01 1.396337e-01 1.537704e-01 -1.383811e-01 -3.068463e-01 -3.334723e-01 -6.614736e-02 2.243195e-01 7.919919e-02 -1.073061e-01 3.735679e-02 -8.109912e-03
<VARIANCE> 39
 3.054222e+01 5.762362e+01 2.481681e+01 3.437846e+01 2.836135e+01 3.780322e+01 2.918407e+01 4.099304e+01 2.858662e+01 2.598109e+01 1.948756e+01 1.821576e+01 5.446481e+00 2.386000e+00 5.689965e+00 2.470850e+00 3.646162e+00 3.041931e+00 4.543213e+00 4.760406e+00 4.659325e+00 3.145720e+00 3.443246e+00 2.707077e+00 2.727564e+00 3.805987e-01 4.332645e-01 1.315140e+00 5.359808e-01 6.942542e-01 5.327221e-01 7.981192e-01 9.186691e-01 8.026627e-01 6.364329e-01 6.870260e-01 5.558299e-01 5.902004e-01 6.362288e-02
<GCONST> 1.206810e+02
<MIXTURE> 5 1.282770e-01
<MEAN> 39
 -9.124885e+00 4.375462e+00 6.050893e+00 1.710221e+00 -3.392024e-01 -4.168533e+00 -5.737918e+00 -8.873160e-01 2.469587e+00 1.374839e-01 -1.654982e+00 -2.149852e-01 1.736001e+01 1.216170e+00 -3.438997e-01 -5.503101e-01 -1.085415e+00 -9.490849e-01 -2.838908e-01 -1.451658e+00 3.627677e-02 -5.342668e-02 9.638928e-01 4.890077e-01 -1.272874e-01 1.563897e-01 -7.011466e-02 -2.533138e-01 -1.912869e-01 -3.119935e-01 -3.238042e-01 -1.782883e-01 -1.143017e-01 4.148389e-02 2.013726e-01 1.553937e-01 5.577413e-02 1.153099e-01 -3.486653e-02
<VARIANCE> 39
 8.502849e+01 2.879158e+01 4.643697e+01 3.292017e+01 4.952087e+01 3.867952e+01 4.902913e+01 3.674530e+01 4.467635e+01 3.118921e+01 2.605096e+01 2.993744e+01 6.501823e+00 2.418401e+00 1.470691e+00 1.793383e+00 2.236141e+00 2.329751e+00 3.470294e+00 3.575930e+00 2.326880e+00 2.371749e+00 2.760820e+00 2.790610e+00 2.309965e+00 9.357622e-02 2.176020e-01 2.009802e-01 3.961115e-01 3.780389e-01 5.625026e-01 7.094817e-01 8.269428e-01 5.248418e-01 6.391917e-01 4.553623e-01 6.829288e-01 7.375106e-01 3.699043e-03
<GCONST> 1.115760e+02
<TRANSP> 5
 0.000000e+00 1.000000e+00 0.000000e+00 0.000000e+00 0.000000e+00
 0.000000e+00 4.476689e-01 5.523312e-01 0.000000e+00 0.000000e+00
 0.000000e+00 0.000000e+00 6.422626e-01 3.577375e-01 0.000000e+00
 0.000000e+00 0.000000e+00 0.000000e+00 8.163317e-01 1.836683e-01
 0.000000e+00 0.000000e+00 0.000000e+00 0.000000e+00 0.000000e+00
<ENDHMM>
~h "e"
<BEGINHMM>
<NUMSTATES> 5
<STATE> 2
<NUMMIXES> 5
<MIXTURE> 1 3.636944e-01
<MEAN> 39
 9.074025e-01 -5.760306e+00 3.710757e+00 -1.797738e+00 -1.021790e+01 -5.523884e+00 -1.031903e+01 7.915789e+00 4.953749e+00 3.526134e+00 -1.221777e+00 -5.438558e-01 2.038226e+01 1.528533e-01 -4.933271e-01 -2.733046e-01 1.253796e-01 3.990710e-03 7.405730e-03 1.685686e-01 1.482722e-01 -2.071992e-01 5.197762e-02 -2.889507e-01 -1.267772e-01 6.067570e-02 -6.775644e-02 -4.262771e-02 9.035345e-02 -2.083741e-02 1.222460e-01 1.882242e-01 -5.146759e-02 5.210679e-02 -1.162042e-01 -1.660053e-01 1.322899e-02 -1.460698e-01 -1.860695e-02
<VARIANCE> 39
 7.607164e+00 2.524651e+01 5.313405e+01 2.412880e+01 4.339322e+01 4.998590e+01 3.347985e+01 3.778936e+01 4.382020e+01 4.277906e+01 5.868754e+01 3.117579e+01 3.721713e-01 4.228420e-01 1.268355e+00 1.239613e+00 1.451619e+00 2.327047e+00 2.200750e+00 1.779423e+00 2.108593e+00 2.155836e+00 2.156391e+00 1.562732e+00 1.349190e+00 4.808253e-03 5.678372e-02 1.524379e-01 1.754612e-01 2.402710e-01 3.474087e-01 3.581009e-01 3.548808e-01 3.200077e-01 4.061928e-01 3.565772e-01 3.071354e-01 2.585576e-01 6.087348e-04
<GCONST> 8.879635e+01
<MIXTURE> 2 1.671891e-01
<MEAN> 39
 -2.340839e+00 -2.454830e-01 1.937864e+00 -2.024137e+00 -6.188895e+00 -7.189241e+00 -7.532036e+00 5.826727e+00 6.852378e+00 4.901431e+00 -7.020657e+00 7.461705e-01 1.871088e+01 9.179364e-01 -5.147272e-01 -3.779248e-01 -1.898326e-01 -6.070634e-01 1.221118e+00 -1.924192e-01 -3.073979e-01 -5.435927e-01 2.202208e-01 3.925071e-01 1.257401e-01 2.081949e-01 -3.367937e-01 -6.715747e-01 8.903890e-02 -3.079557e-01 -3.170589e-02 2.504415e-01 -3.896782e-01 4.362018e-01 5.808106e-02 -1.055663e-01 4.814283e-01 -2.462743e-01 -4.816551e-02
<VARIANCE> 39
 6.737626e+00 2.881050e+01 1.980935e+01 2.466213e+01 4.503541e+01 4.883858e+01 4.915552e+01 4.150723e+01 3.263189e+01 3.074339e+01 2.407079e+01 2.872738e+01 1.290261e+00 1.780751e+00 2.993754e+00 1.421262e+00 3.825877e+00 4.068645e+00 3.272044e+00 5.858973e+00 4.434037e+00 3.792346e+00 3.046701e+00 2.197482e+00 2.304202e+00 1.163575e-01 2.802403e-01 4.101520e-01 2.864283e-01 6.480856e-01 7.508594e-01 8.948111e-01 6.549001e-01 5.752054e-01 1.025974e+00 6.526073e-01 4.349355e-01 4.817083e-01 1.067224e-02
<GCONST> 1.115639e+02
<MIXTURE> 3 1.533199e-01
<MEAN> 39
 -9.103467e-01 -8.731904e+00 3.595483e+00 -8.254686e+00 -9.902715e+00 -4.837490e+00 -1.460529e+01 1.351192e+01 9.762705e+00 6.607770e+00 -4.667941e+00 -3.687899e+00 1.953792e+01 2.112815e-01 7.629673e-01 -4.579494e-01 2.546061e-01 -2.367333e-01 -1.042508e+00 5.880551e-01 5.454197e-01 1.279037e+00 3.944717e-01 -7.864441e-01 3.475358e-01 5.228071e-02 -6.222395e-02 3.222851e-01 -1.492690e-01 6.280939e-01 3.916048e-01 2.316764e-01 7.401056e-01 -7.175283e-01 -5.540708e-01 -3.145185e-01 1.115868e-02 2.264708e-01 -3.408786e-02
<VARIANCE> 39
 9.434311e+00 4.479652e+01 1.783311e+01 3.342344e+01 3.588176e+01 1.005464e+02 5.111837e+01 5.286526e+01 4.951331e+01 3.943401e+01 3.187696e+01 3.876458e+01 6.255106e-01 3.334362e-01 1.877852e+00 1.239743e+00 1.880193e+00 2.367278e+00 2.294281e+00 2.606637e+00 2.514754e+00 2.840396e+00 2.164360e+00 1.920498e+00 1.960232e+00 2.008087e-02 9.705158e-02 3.979911e-01 2.416709e-01 4.130781e-01 5.449957e-01 6.836961e-01 6.035493e-01 4.733120e-01 6.503500e-01 4.224125e-01 3.951946e-01 4.493329e-01 2.671307e-03
<GCONST> 1.008742e+02
<MIXTURE> 4 1.474541e-01
<MEAN> 39
 -5.769655e+00 -7.572049e+00 -1.555740e+00 -3.991441e+00 -9.414594e+00 -4.374728e+00 -1.312547e+00 1.392713e+01 9.795053e+00 3.604033e+00 -9.337675e+00 -3.451136e+00 1.682203e+01 -8.238791e-03 -1.050602e-01 2.068187e-01 3.436351e-01 3.769637e-01 3.087549e-01 2.084671e-01 -2.971675e-01 -4.385720e-01 -2.472909e-01 1.468848e-01 1.572798e-01 3.052704e-02 7.158942e-02 -7.017148e-02 1.073311e-01 -1.017508e-01 -1.100760e-01 6.750987e-02 -2.682971e-01 -5.850659e-02 -7.832176e-02 3.939223e-02 6.268525e-02 6.074540e-03 2.430205e-02
<VARIANCE> 39
 1.682833e+01 2.463912e+01 2.141246e+01 4.807726e+01 5.331128e+01 4.194933e+01 3.995806e+01 6.530781e+01 4.269659e+01 2.484856e+01 2.810307e+01 2.053583e+01 1.738711e+00 1.955719e+00 3.564211e+00 1.754024e+00 4.367218e+00 2.451562e+00 4.192619e+00 3.976565e+00 6.873242e+00 5.537680e+00 3.120913e+00 3.920997e+00 2.913330e+00 1.225910e-01 3.153579e-01 6.110326e-01 3.095188e-01 7.320217e-01 5.291532e-01 7.976468e-01 6.321195e-01 1.661489e+00 1.307172e+00 5.755411e-01 7.115022e-01 6.515138e-01 1.328104e-02
<GCONST> 1.175817e+02
<MIXTURE> 5 1.683414e-01
<MEAN> 39
 -9.531651e-01 -8.754842e+00 2.938310e+00 -4.838902e+00 -8.464490e+00 -2.319252e-01 -1.261858e+01 8.227144e+00 4.113457e+00 1.888228e+00 -2.635261e+00 -3.291920e+00 1.945284e+01 9.673090e-02 -1.469215e+00 5.322624e-02 -1.327114e+00 -1.123902e+00 -2.610681e-01 -1.791866e+00 1.561262e+00 1.029290e+00 6.076328e-01 1.222768e-01 -6.102600e-01 1.097675e-01 -1.200438e-01 5.694115e-01 -1.291200e-01 1.784685e-01 8.918171e-02 -7.264673e-01 5.226622e-01 6.504886e-02 4.258618e-01 2.857187e-01 -4.413508e-01 1.692048e-01 -4.640952e-02
<VARIANCE> 39
 1.146335e+01 4.077022e+01 1.730606e+01 2.567912e+01 2.929573e+01 4.240607e+01 3.525119e+01 2.907247e+01 2.058200e+01 2.146946e+01 1.357255e+01 1.253043e+01 8.327228e-01 4.078306e-01 1.834895e+00 1.062905e+00 1.361652e+00 1.885229e+00 4.117001e+00 2.338451e+00 2.640852e+00 3.323948e+00 2.260817e+00 2.126493e+00 2.362341e+00 1.656161e-02 1.459834e-01 4.455950e-01 2.620965e-01 4.431654e-01 5.963180e-01 4.523877e-01 5.450506e-01 6.119646e-01 4.963060e-01 4.951844e-01 3.365402e-01 4.225184e-01 2.985651e-03
<GCONST> 9.604066e+01
<STATE> 3
<NUMMIXES> 5
<MIXTURE> 1 1.311072e-01
<MEAN> 39
 1.706448e+00 -1.141862e+01 3.622648e-01 -4.236210e+00 -1.049723e+01 -1.630875e+00 -1.362453e+01 1.291083e+01 8.740993e+00 8.092004e+00 -2.475740e+00 -6.133801e+00 2.072072e+01 2.874315e-02 7.370639e-01 7.465278e-02 1.282863e-01 4.818445e-02 -6.920549e-01 4.183245e-01 4.301102e-01 8.651480e-01 1.800700e-01 -5.899838e-01 2.545976e-01 2.191986e-02 5.059585e-02 1.755725e-01 6.464866e-02 1.576407e-01 1.720471e-01 1.078217e-01 1.574457e-01 -2.583788e-01 -2.970694e-01 -2.493284e-01 -8.144391e-02 1.022856e-01 -1.606915e-03
<VARIANCE> 39
 3.994756e+00 1.228720e+01 3.719557e+01 2.403808e+01 2.982206e+01 1.741778e+01 3.543810e+01 2.818326e+01 3.887705e+01 2.381551e+01 2.233330e+01 3.135238e+01 2.268905e-01 1.144737e-01 3.266655e-01 3.154254e-01 5.418877e-01 6.714571e-01 8.276301e-01 7.903965e-01 9.248059e-01 1.453246e+00 9.949151e-01 7.902368e-01 6.840250e-01 7.020247e-04 1.795573e-02 4.060140e-02 6.118527e-02 1.100792e-01 1.457684e-01 1.216971e-01 1.511291e-01 1.801555e-01 1.870085e-01 1.924944e-01 1.695042e-01 1.160491e-01 8.404405e-05
<GCONST> 5.746621e+01
<MIXTURE> 2 2.023057e-01
<MEAN> 39
 3.003765e+00 -7.445202e+00 8.808832e-02 -1.627236e-01 -8.194468e+00 -8.510702e-01 -1.104430e+01 8.754083e+00 1.709235e+00 1.385936e+00 -3.631703e+00 -5.156590e+00 2.081296e+01 2.101302e-02 -3.662516e-01 3.475510e-02 6.696796e-02 -3.410499e-02 1.526800e-01 -2.525701e-01 -7.668671e-02 -6.103162e-01 -1.292597e-01 3.260515e-01 1.537594e-01 -1.386027e-02 -2.665997e-02 -5.632562e-02 4.619429e-02 -1.351800e-01 -2.020350e-02 -8.463345e-02 -7.889939e-02 1.120668e-01 1.279728e-01 1.840402e-01 -1.489287e-02 5.925660e-02 -7.429300e-04
<VARIANCE> 39
 4.174613e+00 1.422435e+01 2.817317e+01 1.820736e+01 2.217281e+01 1.442183e+01 3.711842e+01 2.336793e+01 2.206755e+01 1.231063e+01 1.256510e+01 1.587823e+01 2.268905e-01 1.337323e-01 3.454395e-01 4.825678e-01 6.129082e-01 7.837289e-01 9.083924e-01 8.500556e-01 1.197912e+00 1.555324e+00 1.385141e+00 9.384264e-01 7.512429e-01 9.209405e-04 1.790892e-02 5.669674e-02 5.902218e-02 7.390244e-02 1.095069e-01 1.030706e-01 1.436208e-01 1.749732e-01 1.796240e-01 1.378484e-01 1.471068e-01 1.447455e-01 8.176700e-05
<GCONST> 5.531010e+01
<MIXTURE> 3 3.047863e-01
<MEAN> 39
 1.474235e+00 -6.980883e+00 3.004467e+00 -2.484152e+00 -1.059597e+01 -5.929420e+00 -1.021594e+01 1.320462e+01 7.471050e+00 3.970016e+00 -4.583875e+00 -2.459677e+00 2.082508e+01 7.208100e-02 6.067494e-01 4.988630e-02 5.086225e-01 5.273418e-01 1.541206e-01 4.353393e-01 -5.562009e-01 -5.939091e-01 -5.276049e-01 -2.395569e-01 2.656322e-02 -2.888089e-03 2.179744e-02 -1.316238e-01 2.756878e-02 5.179022e-02 5.089872e-02 2.584796e-01 -1.051397e-01 -1.569233e-01 -3.134984e-01 -9.043088e-02 1.590598e-01 -8.732755e-02 -8.018241e-03
<VARIANCE> 39
 5.274724e+00 1.619614e+01 3.027355e+01 1.807309e+01 3.205954e+01 2.150415e+01 4.401210e+01 2.514075e+01 4.550591e+01 2.581729e+01 3.185617e+01 3.548855e+01 2.268905e-01 1.837078e-01 4.198874e-01 5.831184e-01 6.373658e-01 9.475655e-01 9.831526e-01 1.034181e+00 1.080523e+00 1.394730e+00 9.642440e-01 9.689583e-01 9.886022e-01 1.462195e-03 3.882863e-02 6.983074e-02 7.376307e-02 8.557618e-02 1.228220e-01 1.204842e-01 1.454044e-01 1.440258e-01 1.727378e-01 1.388448e-01 1.357640e-01 1.142412e-01 1.159017e-04
<GCONST> 6.278999e+01
<MIXTURE> 4 1.910055e-01
<MEAN> 39
