~o
<STREAMINFO> 1 39
<VECSIZE> 39<NULLD><MFCC_E_D_A><DIAGC>
~s "silst"
<NUMMIXES> 2
<MIXTURE> 1 4.226765e-01
<MEAN> 39
 -1.404264e+01 -4.636141e-01 -9.480721e-01 1.914121e-01 -1.765237e-01 -1.184160e+00 -1.647487e+00 -4.904737e-01 1.674651e+00 2.022350e+00 2.165293e-01 3.466099e-02 1.075145e+01 1.050573e-01 1.863688e-01 2.510297e-01 3.152756e-01 2.858292e-01 2.729356e-01 2.289374e-01 2.332485e-01 1.720863e-01 1.113137e-01 1.039771e-01 4.403042e-02 2.746540e-02 9.291643e-02 1.659635e-01 1.588487e-01 1.840030e-01 1.346750e-01 1.467098e-01 6.072779e-02 2.029261e-02 -1.111667e-02 -6.599984e-02 -4.939982e-02 -4.887691e-02 2.741550e-02
<VARIANCE> 39
 1.459193e+01 2.744784e+01 2.930133e+01 2.998788e+01 3.231935e+01 3.790429e+01 3.514770e+01 3.515078e+01 3.460388e+01 3.205341e+01 3.128250e+01 2.534716e+01 2.163604e+00 8.801239e-01 1.674068e+00 1.909626e+00 2.604665e+00 2.834795e+00 3.303695e+00 3.480632e+00 3.520206e+00 3.542411e+00 3.718351e+00 3.439272e+00 2.836917e+00 9.245278e-02 1.932643e-01 3.748858e-01 4.645447e-01 6.222534e-01 6.724852e-01 7.603357e-01 8.149148e-01 8.166004e-01 8.312609e-01 8.403744e-01 7.753463e-01 6.529810e-01 1.597392e-02
<GCONST> 1.122266e+02
<MIXTURE> 2 5.772784e-01
<MEAN> 39
 -1.314501e+01 -7.110084e-01 -9.685134e-01 8.418936e-01 3.484626e-01 1.349044e-01 -1.697978e+00 -7.635460e-01 2.075150e+00 1.217425e+00 -7.609225e-01 -8.118693e-01 1.057387e+01 -1.362185e-01 -2.260975e-01 -2.831465e-01 -3.034999e-01 -2.919720e-01 -2.224680e-01 -2.132085e-01 -2.320095e-01 -1.933062e-01 -1.430274e-01 -9.941652e-02 -2.508234e-02 -7.128049e-02 -3.162637e-02 -2.630437e-03 1.398972e-02 -1.116666e-04 -3.013700e-02 -4.967247e-02 -6.196802e-03 2.412592e-02 8.143973e-03 5.089809e-02 6.936761e-02 5.130062e-02 -1.150678e-02
<VARIANCE> 39
 5.915927e+00 2.062844e+01 1.961691e+01 1.921717e+01 2.531597e+01 2.765041e+01 2.825063e+01 2.988475e+01 3.488856e+01 3.108298e+01 2.922367e+01 2.347428e+01 6.169658e-01 4.661183e-01 1.064035e+00 1.499991e+00 2.118899e+00 2.601840e+00 3.076097e+00 3.255085e+00 3.465617e+00 3.735175e+00 3.835602e+00 3.387238e+00 2.925812e+00 3.116861e-02 9.160569e-02 2.172491e-01 3.154933e-01 4.570424e-01 5.635474e-01 6.533616e-01 6.975425e-01 7.535770e-01 8.258364e-01 8.551194e-01 7.462883e-01 6.450912e-01 4.328546e-03
<GCONST> 1.011683e+02
~h "@"
<BEGINHMM>
<NUMSTATES> 5
<STATE> 2
<NUMMIXES> 2
<MIXTURE> 1 5.009708e-01
<MEAN> 39
 2.788048e-01 -1.591903e+00 4.827145e+00 -3.045115e+00 -6.179895e+00 -7.024935e+00 -1.554089e+01 3.556370e+00 6.915880e+00 5.587670e+00 -4.089670e+00 1.881291e+00 2.001109e+01 -2.297868e-01 5.495330e-01 2.479626e-01 2.762311e-01 3.823012e-01 1.479809e-01 9.561327e-01 -2.792680e-02 4.306968e-01 -1.949302e-01 -4.001792e-01 7.946080e-02 -2.406760e-02 6.870665e-02 3.537035e-02 -5.489384e-03 2.094913e-01 2.403407e-01 3.944737e-01 2.513316e-01 -5.793604e-02 -3.474507e-01 -2.477239e-01 1.337799e-02 -1.875543e-01 -4.895429e-03
<VARIANCE> 39
 7.146146e+00 2.522386e+01 4.168243e+01 2.784435e+01 3.667847e+01 3.747783e+01 7.409482e+01 3.727320e+01 4.134229e+01 4.140776e+01 3.814073e+01 3.052024e+01 4.185110e-01 5.715294e-01 9.413280e-01 9.196552e-01 1.391839e+00 1.941110e+00 3.064374e+00 2.962688e+00 1.817355e+00 2.795073e+00 2.169933e+00 1.722959e+00 1.538270e+00 4.141331e-03 1.054508e-01 2.084348e-01 1.807751e-01 2.564091e-01 3.291585e-01 4.227942e-01 6.652279e-01 3.167068e-01 4.027295e-01 3.498650e-01 3.215739e-01 2.263873e-01 3.464351e-04
<GCONST> 9.012969e+01
<MIXTURE> 2 4.990276e-01
<MEAN> 39
 1.390080e+00 -1.622930e+00 3.363610e+00 -1.339385e+00 -3.064691e+00 -1.713224e+00 -1.168143e+01 2.766969e+00 3.091578e+00 3.151816e+00 -4.906152e+00 -1.097030e+00 1.977473e+01 2.630136e-01 -5.499431e-01 -2.862423e-01 -3.424476e-01 -3.095835e-01 -1.285820e-01 -9.796522e-01 6.306902e-02 -3.559975e-01 4.130620e-01 3.302505e-01 -6.957670e-02 -2.706907e-05 -1.498579e-01 8.292729e-02 2.147873e-02 -1.464163e-01 -1.194501e-01 -3.596953e-01 -6.662982e-02 -6.952076e-02 2.932126e-01 2.124293e-01 3.132779e-02 1.393536e-01 -1.520695e-02
<VARIANCE> 39
 9.540150e+00 2.591904e+01 3.211192e+01 2.729122e+01 3.690599e+01 3.728229e+01 7.087186e+01 3.292029e+01 3.321752e+01 2.499909e+01 2.902113e+01 2.114715e+01 5.852370e-01 7.379261e-01 9.892139e-01 1.107348e+00 1.705401e+00 2.123320e+00 3.095999e+00 2.977415e+00 2.143200e+00 2.664790e+00 2.420629e+00 1.683810e+00 1.375263e+00 8.595032e-03 1.458670e-01 2.426257e-01 2.358689e-01 3.420050e-01 4.591108e-01 5.203552e-01 8.554295e-01 4.028795e-01 4.708132e-01 4.620416e-01 3.921010e-01 2.893461e-01 7.670805e-04
<GCONST> 9.432542e+01
<STATE> 3
<NUMMIXES> 2
<MIXTURE> 1 4.918257e-01
<MEAN> 39
 5.073739e-01 4.468187e+00 4.785055e+00 1.820571e-01 -5.193640e-01 -2.683343e+00 -1.253547e+01 -4.559698e+00 4.345746e+00 4.960683e+00 -3.001518e+00 1.143199e+00 1.865984e+01 -4.063022e-01 7.541474e-01 3.869550e-01 7.541858e-01 1.117748e+00 4.433316e-01 1.469622e+00 3.164866e-03 1.891870e-01 -3.525135e-01 -1.527896e-01 -1.896406e-01 -1.480048e-01 1.228811e-01 -2.216619e-02 4.371603e-03 5.724270e-02 3.454793e-02 2.673800e-01 1.446228e-01 1.210804e-01 -2.765360e-01 -1.007810e-01 2.726845e-02 -2.152082e-01 9.052202e-03
<VARIANCE> 39
 1.721377e+01 2.946946e+01 2.782739e+01 3.864475e+01 4.255722e+01 5.436864e+01 5.101117e+01 6.056603e+01 4.924802e+01 5.042805e+01 3.067754e+01 2.770341e+01 1.261654e+00 8.131436e-01 1.440116e+00 1.317877e+00 1.862577e+00 2.429223e+00 2.822075e+00 3.534791e+00 2.849996e+00 3.837044e+00 3.753619e+00 2.711307e+00 2.577115e+00 1.989445e-02 1.299339e-01 2.679386e-01 2.722857e-01 4.419753e-01 6.048980e-01 6.370423e-01 8.773091e-01 5.376440e-01 7.941188e-01 7.698250e-01 5.454943e-01 4.405903e-01 1.354538e-03
<GCONST> 1.057468e+02
<MIXTURE> 2 5.081699e-01
<MEAN> 39
 2.061154e+00 5.872044e+00 4.508511e+00 1.142010e+00 3.092040e-01 -4.846359e-01 -1.087536e+01 -4.378405e+00 1.060808e+00 3.776554e+00 -2.069464e+00 -1.250543e+00 1.844218e+01 -8.535174e-02 7.794923e-02 -3.339029e-01 -4.008918e-01 -2.319239e-01 -2.943443e-01 -2.384927e-01 -3.980571e-01 -5.859021e-01 3.878684e-02 2.360492e-01 -7.794736e-03 -1.213793e-01 -2.063256e-01 -6.524361e-02 3.669854e-02 6.338816e-03 -4.703765e-02 -2.071801e-01 -8.307888e-02 -2.348746e-03 1.424412e-01 -1.691954e-03 -1.760361e-02 1.855187e-01 -2.237233e-02
<VARIANCE> 39
 1.279750e+01 2.948128e+01 2.735546e+01 3.652254e+01 4.153497e+01 4.281249e+01 3.491450e+01 5.576012e+01 4.027752e+01 3.208384e+01 3.562122e+01 2.872412e+01 1.584879e+00 5.803722e-01 8.175125e-01 1.066473e+00 1.620009e+00 2.387109e+00 2.876329e+00 3.060686e+00 2.791354e+00 3.060939e+00 3.255528e+00 2.597300e+00 2.494265e+00 2.074493e-02 1.008008e-01 1.979579e-01 2.741498e-01 4.199141e-01 5.560209e-01 5.570194e-01 6.809842e-01 5.988473e-01 7.485300e-01 6.695574e-01 5.973503e-01 5.175569e-01 1.268928e-03
<GCONST> 1.016154e+02
<STATE> 4
<NUMMIXES> 2
<MIXTURE> 1 5.477605e-01
<MEAN> 39
 -1.758212e+00 7.281764e-01 3.509780e-01 -3.074563e+00 1.976196e+00 2.010086e+00 -6.126659e+00 -2.759278e-01 4.655142e+00 6.542479e+00 -4.670588e+00 -2.435395e+00 1.837883e+01 -7.009811e-02 2.434165e-01 3.583810e-01 8.260775e-01 6.203604e-01 4.585333e-01 6.520177e-01 -2.317290e-01 -3.126827e-01 -6.717534e-01 5.060166e-02 3.730089e-02 -4.267471e-02 1.235857e-01 -5.026135e-02 1.738376e-02 -4.150798e-02 -7.030177e-02 2.142683e-02 -1.822495e-01 5.519073e-02 -2.115562e-01 -4.693974e-02 4.965251e-02 1.064092e-01 1.522304e-02
<VARIANCE> 39
 1.657111e+01 2.409451e+01 5.041031e+01 1.014790e+02 5.796846e+01 8.555834e+01 6.775796e+01 5.248871e+01 5.377937e+01 6.249468e+01 6.393310e+01 3.394700e+01 2.590981e+00 8.837480e-01 9.765144e-01 1.384565e+00 2.918712e+00 2.265757e+00 3.278415e+00 2.973333e+00 2.702573e+00 3.473561e+00 3.348492e+00 2.332961e+00 2.579582e+00 2.795448e-02 1.802638e-01 2.194708e-01 3.288705e-01 7.716543e-01 5.489712e-01 7.446818e-01 8.187111e-01 6.117377e-01 7.096046e-01 8.473792e-01 5.484243e-01 4.821591e-01 2.730737e-03
<GCONST> 1.117276e+02
<MIXTURE> 2 4.522401e-01
<MEAN> 39
 -1.477319e+00 1.382120e-01 -9.628260e-01 -2.586810e+00 3.695662e+00 3.486267e+00 -5.910528e+00 -2.299748e-01 2.617304e+00 5.603999e+00 -5.309299e+00 -2.240952e+00 1.766182e+01 2.446082e-02 -2.789438e-01 -3.689486e-01 -8.894058e-01 -5.498895e-01 -3.956263e-01 -4.897719e-01 9.464160e-02 -8.677388e-03 6.204697e-01 3.034514e-01 -1.647915e-02 -6.995184e-02 -1.294161e-01 2.184962e-02 -6.093356e-03 2.242238e-03 -8.161791e-02 -1.191567e-01 -5.211574e-02 -4.541551e-02 3.002498e-01 1.200519e-01 -2.406513e-02 -3.654561e-02 -3.150471e-02
<VARIANCE> 39
 1.643640e+01 3.322934e+01 3.763658e+01 9.039151e+01 5.651513e+01 6.683744e+01 7.142063e+01 3.986666e+01 3.569651e+01 5.263459e+01 3.448927e+01 3.607871e+01 3.858664e+00 9.602319e-01 1.266317e+00 1.499031e+00 2.770025e+00 2.568387e+00 2.861935e+00 3.197754e+00 2.972807e+00 4.442643e+00 3.959768e+00 2.571086e+00 2.974515e+00 5.455605e-02 1.454694e-01 2.996220e-01 3.104962e-01 7.193854e-01 6.215664e-01 5.881054e-01 7.444577e-01 6.136278e-01 7.888241e-01 9.372764e-01 5.172589e-01 6.597409e-01 2.755719e-03
<GCONST> 1.124845e+02
<TRANSP> 5
 0.000000e+00 1.000000e+00 0.000000e+00 0.000000e+00 0.000000e+00
 0.000000e+00 8.781626e-01 1.218375e-01 0.000000e+00 0.000000e+00
 0.000000e+00 0.000000e+00 7.695510e-01 2.304490e-01 0.000000e+00
 0.000000e+00 0.000000e+00 0.000000e+00 7.440144e-01 2.559856e-01
 0.000000e+00 0.000000e+00 0.000000e+00 0.000000e+00 0.000000e+00
<ENDHMM>
~h "Q"
<BEGINHMM>
<NUMSTATES> 5
<STATE> 2
<NUMMIXES> 2
<MIXTURE> 1 5.000000e-01
<MEAN> 39
 -7.057501e+00 2.451989e+00 3.149919e+00 1.981526e+00 -2.841043e-02 1.080187e+00 -2.848989e+00 1.514472e+00 2.285235e+00 3.100678e+00 2.166382e+00 1.099069e+00 1.528309e+01 1.606235e-01 2.075036e-01 2.273964e-01 2.745045e-01 2.963854e-01 3.273679e-01 3.434402e-01 3.298917e-01 3.370556e-01 3.401160e-01 3.283674e-01 3.029412e-01 4.059147e-02 6.281798e-02 9.022462e-02 1.015640e-01 1.239861e-01 1.348199e-01 1.484058e-01 1.561092e-01 1.509360e-01 1.540676e-01 1.557740e-01 1.504571e-01 1.390494e-01 1.505005e-02
<VARIANCE> 39
 9.132833e+01 3.750473e+01 5.184167e+01 5.299957e+01 4.542144e+01 5.171822e+01 6.411460e+01 4.173472e+01 3.924054e+01 3.472301e+01 3.778771e+01 3.327573e+01 2.268905e+01 6.444674e-01 1.076510e+00 1.293223e+00 1.883514e+00 2.197024e+00 2.673508e+00 2.949268e+00 2.722457e+00 2.845586e+00 2.895535e+00 2.697424e+00 2.293327e+00 4.128606e-02 9.874837e-02 2.035372e-01 2.576212e-01 3.839478e-01 4.538210e-01 5.496877e-01 6.081111e-01 5.695377e-01 5.939356e-01 6.059731e-01 5.659602e-01 4.834353e-01 5.660130e-03
<GCONST> 1.098248e+02
<MIXTURE> 2 5.000000e-01
<MEAN> 39
 -1.088014e+01 2.344847e-03 2.698728e-01 -9.305059e-01 -2.724228e+00 -1.796428e+00 -6.051853e+00 -1.069625e+00 -2.204554e-01 7.436283e-01 -2.924860e-01 -1.208336e+00 1.337777e+01 -1.604915e-01 -2.075164e-01 -2.274834e-01 -2.744603e-01 -2.965091e-01 -3.266667e-01 -3.434971e-01 -3.301031e-01 -3.376991e-01 -3.405349e-01 -3.285861e-01 -3.028083e-01 -4.068441e-02 -6.287903e-02 -9.023578e-02 -1.014616e-01 -1.238680e-01 -1.346451e-01 -1.481579e-01 -1.558167e-01 -1.509349e-01 -1.542012e-01 -1.556031e-01 -1.504643e-01 -1.390686e-01 -1.504349e-02
<VARIANCE> 39
 9.132833e+01 3.750473e+01 5.184167e+01 5.299957e+01 4.542144e+01 5.171822e+01 6.411460e+01 4.173472e+01 3.924054e+01 3.472301e+01 3.778771e+01 3.327573e+01 2.268905e+01 6.444674e-01 1.076510e+00 1.293223e+00 1.883514e+00 2.197024e+00 2.673508e+00 2.949268e+00 2.722457e+00 2.845586e+00 2.895535e+00 2.697424e+00 2.293327e+00 4.128606e-02 9.874837e-02 2.035372e-01 2.576212e-01 3.839478e-01 4.538210e-01 5.496877e-01 6.081111e-01 5.695377e-01 5.939356e-01 6.059731e-01 5.659602e-01 4.834353e-01 5.660130e-03
<GCONST> 1.098248e+02
<STATE> 3
<NUMMIXES> 2
<MIXTURE> 1 5.000000e-01
<MEAN> 39
 -7.057501e+00 2.451989e+00 3.149919e+00 1.981526e+00 -2.841043e-02 1.080187e+00 -2.848989e+00 1.514472e+00 2.285235e+00 3.100678e+00 2.166382e+00 1.099069e+00 1.528309e+01 1.606235e-01 2.075036e-01 2.273964e-01 2.745045e-01 2.963854e-01 3.273679e-01 3.434402e-01 3.298917e-01 3.370556e-01 3.401160e-01 3.283674e-01 3.029412e-01 4.059147e-02 6.281798e-02 9.022462e-02 1.015640e-01 1.239861e-01 1.348199e-01 1.484058e-01 1.561092e-01 1.509360e-01 1.540676e-01 1.557740e-01 1.504571e-01 1.390494e-01 1.505005e-02
<VARIANCE> 39
 9.132833e+01 3.750473e+01 5.184167e+01 5.299957e+01 4.542144e+01 5.171822e+01 6.411460e+01 4.173472e+01 3.924054e+01 3.472301e+01 3.778771e+01 3.327573e+01 2.268905e+01 6.444674e-01 1.076510e+00 1.293223e+00 1.883514e+00 2.197024e+00 2.673508e+00 2.949268e+00 2.722457e+00 2.845586e+00 2.895535e+00 2.697424e+00 2.293327e+00 4.128606e-02 9.874837e-02 2.035372e-01 2.576212e-01 3.839478e-01 4.538210e-01 5.496877e-01 6.081111e-01 5.695377e-01 5.939356e-01 6.059731e-01 5.659602e-01 4.834353e-01 5.660130e-03
<GCONST> 1.098248e+02
<MIXTURE> 2 5.000000e-01
<MEAN> 39
 -1.088014e+01 2.344847e-03 2.698728e-01 -9.305059e-01 -2.724228e+00 -1.796428e+00 -6.051853e+00 -1.069625e+00 -2.204554e-01 7.436283e-01 -2.924860e-01 -1.208336e+00 1.337777e+01 -1.604915e-01 -2.075164e-01 -2.274834e-01 -2.744603e-01 -2.965091e-01 -3.266667e-01 -3.434971e-01 -3.301031e-01 -3.376991e-01 -3.405349e-01 -3.285861e-01 -3.028083e-01 -4.068441e-02 -6.287903e-02 -9.023578e-02 -1.014616e-01 -1.238680e-01 -1.346451e-01 -1.481579e-01 -1.558167e-01 -1.509349e-01 -1.542012e-01 -1.556031e-01 -1.504643e-01 -1.390686e-01 -1.504349e-02
<VARIANCE> 39
 9.132833e+01 3.750473e+01 5.184167e+01 5.299957e+01 4.542144e+01 5.171822e+01 6.411460e+01 4.173472e+01 3.924054e+01 3.472301e+01 3.778771e+01 3.327573e+01 2.268905e+01 6.444674e-01 1.076510e+00 1.293223e+00 1.883514e+00 2.197024e+00 2.673508e+00 2.949268e+00 2.722457e+00 2.845586e+00 2.895535e+00 2.697424e+00 2.293327e+00 4.128606e-02 9.874837e-02 2.035372e-01 2.576212e-01 3.839478e-01 4.538210e-01 5.496877e-01 6.081111e-01 5.695377e-01 5.939356e-01 6.059731e-01 5.659602e-01 4.834353e-01 5.660130e-03
<GCONST> 1.098248e+02
<STATE> 4
<NUMMIXES> 2
<MIXTURE> 1 5.000000e-01
<MEAN> 39
 -7.057501e+00 2.451989e+00 3.149919e+00 1.981526e+00 -2.841043e-02 1.080187e+00 -2.848989e+00 1.514472e+00 2.285235e+00 3.100678e+00 2.166382e+00 1.099069e+00 1.528309e+01 1.606235e-01 2.075036e-01 2.273964e-01 2.745045e-01 2.963854e-01 3.273679e-01 3.434402e-01 3.298917e-01 3.370556e-01 3.401160e-01 3.283674e-01 3.029412e-01 4.059147e-02 6.281798e-02 9.022462e-02 1.015640e-01 1.239861e-01 1.348199e-01 1.484058e-01 1.561092e-01 1.509360e-01 1.540676e-01 1.557740e-01 1.504571e-01 1.390494e-01 1.505005e-02
<VARIANCE> 39
 9.132833e+01 3.750473e+01 5.184167e+01 5.299957e+01 4.542144e+01 5.171822e+01 6.411460e+01 4.173472e+01 3.924054e+01 3.472301e+01 3.778771e+01 3.327573e+01 2.268905e+01 6.444674e-01 1.076510e+00 1.293223e+00 1.883514e+00 2.197024e+00 2.673508e+00 2.949268e+00 2.722457e+00 2.845586e+00 2.895535e+00 2.697424e+00 2.293327e+00 4.128606e-02 9.874837e-02 2.035372e-01 2.576212e-01 3.839478e-01 4.538210e-01 5.496877e-01 6.081111e-01 5.695377e-01 5.939356e-01 6.059731e-01 5.659602e-01 4.834353e-01 5.660130e-03
<GCONST> 1.098248e+02
<MIXTURE> 2 5.000000e-01
<MEAN> 39
 -1.088014e+01 2.344847e-03 2.698728e-01 -9.305059e-01 -2.724228e+00 -1.796428e+00 -6.051853e+00 -1.069625e+00 -2.204554e-01 7.436283e-01 -2.924860e-01 -1.208336e+00 1.337777e+01 -1.604915e-01 -2.075164e-01 -2.274834e-01 -2.744603e-01 -2.965091e-01 -3.266667e-01 -3.434971e-01 -3.301031e-01 -3.376991e-01 -3.405349e-01 -3.285861e-01 -3.028083e-01 -4.068441e-02 -6.287903e-02 -9.023578e-02 -1.014616e-01 -1.238680e-01 -1.346451e-01 -1.481579e-01 -1.558167e-01 -1.509349e-01 -1.542012e-01 -1.556031e-01 -1.504643e-01 -1.390686e-01 -1.504349e-02
<VARIANCE> 39
 9.132833e+01 3.750473e+01 5.184167e+01 5.299957e+01 4.542144e+01 5.171822e+01 6.411460e+01 4.173472e+01 3.924054e+01 3.472301e+01 3.778771e+01 3.327573e+01 2.268905e+01 6.444674e-01 1.076510e+00 1.293223e+00 1.883514e+00 2.197024e+00 2.673508e+00 2.949268e+00 2.722457e+00 2.845586e+00 2.895535e+00 2.697424e+00 2.293327e+00 4.128606e-02 9.874837e-02 2.035372e-01 2.576212e-01 3.839478e-01 4.538210e-01 5.496877e-01 6.081111e-01 5.695377e-01 5.939356e-01 6.059731e-01 5.659602e-01 4.834353e-01 5.660130e-03
<GCONST> 1.098248e+02
<TRANSP> 5
 0.000000e+00 1.000000e+00 0.000000e+00 0.000000e+00 0.000000e+00
 0.000000e+00 5.000000e-01 5.000000e-01 0.000000e+00 0.000000e+00
 0.000000e+00 0.000000e+00 5.000000e-01 5.000000e-01 0.000000e+00
 0.000000e+00 0.000000e+00 0.000000e+00 5.000000e-01 5.000000e-01
 0.000000e+00 0.000000e+00 0.000000e+00 0.000000e+00 0.000000e+00
<ENDHMM>
~h "a"
<BEGINHMM>
<NUMSTATES> 5
<STATE> 2
<NUMMIXES> 2
<MIXTURE> 1 5.116104e-01
<MEAN> 39
 -4.701601e+00 -7.040565e+00 -1.329685e+00 -3.215281e+00 -7.555503e+00 -1.748534e+00 -3.170596e+00 1.037296e+01 6.037189e+00 3.763702e+00 -5.736417e+00 -3.260874e+00 1.798903e+01 9.308054e-02 6.534733e-01 -4.403372e-02 8.135724e-01 3.068879e-01 2.024782e-01 7.934477e-01 -5.472000e-01 -7.787354e-02 -3.988555e-01 -4.859811e-02 3.269841e-01 2.141607e-02 1.034596e-01 -1.217705e-01 5.686494e-04 1.588255e-02 9.028002e-02 2.910275e-01 -1.838225e-01 -2.504485e-01 -3.373588e-01 -1.438596e-01 2.631762e-01 1.320919e-02 1.950357e-02
<VARIANCE> 39
 2.753338e+01 3.060694e+01 6.962019e+01 5.624637e+01 5.420741e+01 8.840916e+01 5.720203e+01 6.929795e+01 4.707163e+01 4.023024e+01 5.500250e+01 6.347519e+01 3.682671e+00 1.290217e+00 1.777734e+00 1.749689e+00 2.561762e+00 2.422277e+00 3.321379e+00 3.608501e+00 3.495258e+00 3.497010e+00 2.221836e+00 2.990474e+00 2.375733e+00 1.066276e-01 1.923137e-01 4.804842e-01 3.309653e-01 7.571402e-01 5.268920e-01 6.695054e-01 8.150454e-01 8.230504e-01 6.478423e-01 4.577895e-01 6.475719e-01 5.669897e-01 1.092059e-02
<GCONST> 1.172358e+02
<MIXTURE> 2 4.883876e-01
<MEAN> 39
 -2.036837e+00 -8.345188e+00 -1.232310e+00 -2.489583e+00 -6.565918e+00 1.657883e+00 -4.959080e+00 7.904490e+00 2.265653e+00 1.445258e+00 -2.897884e+00 -3.928360e+00 1.870805e+01 3.232920e-01 -1.150161e+00 -1.067129e-01 -1.019160e+00 -5.234393e-01 -2.769956e-02 -7.932671e-01 1.076247e+00 1.564372e-01 2.171214e-01 1.079015e-01 -6.662471e-01 1.760255e-01 -1.371801e-01 1.597980e-01 -3.056616e-02 2.034012e-02 -5.215348e-02 -2.938564e-01 2.171067e-01 1.580491e-01 3.359098e-01 1.086919e-01 -2.676783e-01 -3.461596e-02 -4.162622e-02
<VARIANCE> 39
 2.148400e+01 3.999038e+01 5.126123e+01 3.323571e+01 3.102669e+01 4.426603e+01 4.763078e+01 4.668182e+01 2.888621e+01 2.388927e+01 2.773444e+01 3.904093e+01 2.186222e+00 1.015455e+00 2.411292e+00 1.780065e+00 2.555034e+00 2.022382e+00 2.919098e+00 2.776508e+00 3.320685e+00 3.559536e+00 2.105232e+00 3.372284e+00 2.401015e+00 7.626396e-02 1.699573e-01 6.073185e-01 3.109176e-01 6.056769e-01 4.059423e-01 5.218055e-01 6.706557e-01 6.832254e-01 6.282242e-01 4.161446e-01 5.761865e-01 5.060529e-01 9.963488e-03
<GCONST> 1.095952e+02
<STATE> 3
<NUMMIXES> 2
<MIXTURE> 1 4.960289e-01
<MEAN> 39
 1.944381e+00 -1.188087e+01 -1.064479e+01 -1.493989e+00 -5.398181e+00 5.696710e+00 -3.234270e+00 6.700258e+00 8.727345e+00 1.967773e+00 -5.877293e+00 -1.393305e+01 2.064531e+01 -1.769000e-01 6.858289e-01 2.155167e-01 3.994657e-01 3.785869e-01 3.716316e-02 5.463637e-01 -1.836725e-01 1.144666e-02 -2.804918e-01 -4.148518e-01 2.001707e-01 9.852489e-03 5.596264e-02 6.573483e-02 1.155925e-01 1.197678e-01 1.660493e-03 1.150186e-02 -6.158393e-02 -1.852284e-01 -2.755354e-01 -1.159373e-01 2.039034e-01 2.554556e-01 -2.851764e-03
<VARIANCE> 39
 4.849597e+00 2.275809e+01 1.829510e+01 2.660142e+01 1.815316e+01 3.043678e+01 3.869088e+01 4.644960e+01 2.197497e+01 3.450080e+01 2.785799e+01 3.076986e+01 3.867941e-01 3.521516e-01 5.864087e-01 6.581687e-01 9.015054e-01 8.714994e-01 9.860259e-01 1.284680e+00 1.563612e+00 1.807701e+00 1.364650e+00 1.273525e+00 1.423249e+00 2.064157e-03 5.857131e-02 1.609204e-01 1.137697e-01 1.595657e-01 1.707176e-01 1.747891e-01 2.391377e-01 2.191671e-01 2.382678e-01 2.308038e-01 2.188040e-01 1.934461e-01 1.883728e-04
<GCONST> 7.279915e+01
<MIXTURE> 2 5.039765e-01
<MEAN> 39
 2.675607e+00 -1.068296e+01 -9.114064e+00 1.688343e+00 -5.673087e+00 5.073811e+00 -2.889188e+00 2.513144e+00 3.370514e+00 -1.715446e+00 -2.060777e+00 -9.911526e+00 2.038896e+01 2.240049e-01 -6.934176e-01 -2.848998e-01 -3.787531e-01 -4.709337e-01 -2.793934e-02 -5.408752e-01 1.580039e-01 -8.534643e-03 3.249917e-01 3.699232e-01 -2.304040e-01 1.315223e-03 -7.844691e-02 -2.437264e-02 -4.345187e-02 -1.545961e-01 1.461387e-02 -5.117563e-02 3.486853e-02 1.991693e-01 2.484509e-01 1.565995e-01 -2.064778e-01 -1.750531e-01 -2.306320e-03
<VARIANCE> 39
 6.058753e+00 1.918928e+01 2.357335e+01 2.432449e+01 1.678855e+01 2.352286e+01 3.312069e+01 2.854032e+01 1.551132e+01 2.098752e+01 1.788845e+01 1.941957e+01 4.143208e-01 4.110856e-01 7.776030e-01 9.055138e-01 1.111080e+00 8.944607e-01 1.216643e+00 1.349533e+00 1.857119e+00 2.047102e+00 1.571305e+00 1.617553e+00 1.693946e+00 2.276764e-03 8.486257e-02 1.837709e-01 1.667034e-01 2.033377e-01 2.190827e-01 2.125340e-01 3.375398e-01 2.930982e-01 2.740008e-01 2.723285e-01 2.546718e-01 2.347060e-01 2.291550e-04
<GCONST> 7.561069e+01
<STATE> 4
<NUMMIXES> 2
<MIXTURE> 1 5.016246e-01
<MEAN> 39
 5.579641e-01 -8.967484e+00 2.138955e+00 -2.732139e+00 -1.038757e+01 -5.614182e+00 -5.043158e+00 1.398729e+01 3.426195e+00 3.641191e+00 -3.650995e+00 -4.143369e+00 2.019630e+01 -9.580464e-02 7.562740e-01 2.960418e-01 2.798208e-01 2.950950e-01 -1.934775e-01 4.853057e-01 -9.381491e-02 2.928381e-01 -1.003486e-01 -4.634347e-01 1.014995e-01 9.938259e-03 3.618361e-02 8.247089e-02 1.461942e-02 1.983653e-01 1.885345e-01 2.618792e-01 6.732929e-02 -2.972087e-01 -2.202815e-01 -1.493916e-01 5.624339e-02 -4.111252e-02 -3.972030e-03
<VARIANCE> 39
 5.090051e+00 2.126483e+01 3.234871e+01 1.970577e+01 2.189252e+01 2.614005e+01 5.086406e+01 2.642454e+01 4.373666e+01 2.421344e+01 3.067283e+01 2.351089e+01 2.855247e-01 3.564658e-01 6.962554e-01 8.009989e-01 1.090218e+00 1.194475e+00 1.665268e+00 1.403872e+00 2.090003e+00 1.848232e+00 1.261194e+00 1.101281e+00 9.162242e-01 2.487855e-03 5.769134e-02 1.766241e-01 1.209582e-01 1.662500e-01 2.348937e-01 2.779741e-01 2.687404e-01 2.724287e-01 2.784546e-01 2.214555e-01 2.472833e-01 1.731135e-01 2.107922e-04
<GCONST> 7.552065e+01
<MIXTURE> 2 4.983762e-01
<MEAN> 39
 1.242054e+00 -7.950895e+00 1.650677e+00 4.817223e-01 -8.126227e+00 -1.437822e+00 -3.354718e+00 9.102702e+00 -7.341154e-01 3.560461e-01 -2.693959e+00 -5.050434e+00 2.011324e+01 1.212954e-01 -4.513332e-01 7.331926e-02 -2.715296e-01 -1.548828e-01 -1.532606e-01 -7.098716e-01 2.042068e-02 -6.263176e-01 4.033516e-01 5.405614e-01 1.225436e-01 -8.870173e-03 -4.533013e-02 -3.187587e-02 -5.434584e-03 -1.644236e-01 -1.290707e-01 -2.475396e-01 -5.167736e-02 2.140625e-01 2.169662e-01 1.621912e-01 -3.728729e-02 3.616454e-02 -4.546564e-03
<VARIANCE> 39
 5.107411e+00 1.689304e+01 3.269715e+01 1.937466e+01 1.957028e+01 1.773869e+01 4.006676e+01 1.932544e+01 2.819224e+01 1.555455e+01 2.019174e+01 1.568850e+01 2.741576e-01 3.739589e-01 8.565122e-01 8.250718e-01 1.148399e+00 1.479842e+00 2.171147e+00 1.385773e+00 2.055783e+00 1.839227e+00 1.542486e+00 1.231593e+00 1.203814e+00 2.782982e-03 8.317491e-02 1.808115e-01 1.715356e-01 2.128560e-01 2.466818e-01 2.992463e-01 3.446725e-01 3.115487e-01 3.112227e-01 2.471540e-01 2.702748e-01 2.042401e-01 2.329095e-04
<GCONST> 7.603800e+01
<TRANSP> 5
 0.000000e+00 1.000000e+00 0.000000e+00 0.000000e+00 0.000000e+00
 0.000000e+00 9.187459e-01 8.125418e-02 0.000000e+00 0.000000e+00
 0.000000e+00 0.000000e+00 9.488903e-01 5.110967e-02 0.000000e+00
 0.000000e+00 0.000000e+00 0.000000e+00 9.405788e-01 5.942120e-02
 0.000000e+00 0.000000e+00 0.000000e+00 0.000000e+00 0.000000e+00
<ENDHMM>
~h "b"
<BEGINHMM>
<NUMSTATES> 5
<STATE> 2
<NUMMIXES> 2
<MIXTURE> 1 4.866033e-01
<MEAN> 39
 -3.681832e+00 -2.292772e+00 1.573491e+00 2.304698e+00 2.844392e+00 6.311331e-01 -6.281529e+00 -5.901318e+00 2.331489e+00 4.336280e+00 3.154568e+00 6.059040e-02 1.736746e+01 2.708262e+00 2.363831e+00 1.415100e+00 3.945429e-02 -5.214143e-02 2.429157e+00 9.087327e-01 6.992338e-01 -9.370196e-01 -2.301928e-02 -1.028256e+00 3.291699e-01 4.098969e-01 2.081683e-01 1.794032e-01 -1.879979e-01 -6.142564e-01 -6.960506e-01 1.980425e-01 6.682608e-02 4.815741e-01 -3.129079e-01 -2.504950e-01 -2.139233e-01 2.029224e-01 6.438310e-02
<VARIANCE> 39
 9.638006e+00 1.404101e+01 2.803751e+01 3.490542e+01 2.711784e+01 7.568176e+01 2.364777e+01 3.875755e+01 3.245029e+01 3.223674e+01 3.068317e+01 2.130297e+01 5.561049e-01 1.034091e+00 1.573624e+00 2.937356e+00 4.090833e+00 3.040778e+00 6.984322e+00 3.393743e+00 3.766123e+00 2.809035e+00 4.026976e+00 3.493488e+00 2.339790e+00 4.872268e-02 2.144115e-01 3.386385e-01 3.526878e-01 4.561023e-01 3.881286e-01 1.131401e+00 5.337644e-01 4.944758e-01 6.791763e-01 5.477747e-01 5.988150e-01 4.166498e-01 3.833707e-03
<GCONST> 1.063032e+02
<MIXTURE> 2 5.133969e-01
<MEAN> 39
 -6.237041e+00 -2.957261e+00 5.643696e+00 6.170014e+00 4.356649e+00 3.331959e-01 -4.042660e+00 -1.665806e+00 -2.699665e-01 -1.084286e+00 -3.951317e-01 -2.189008e+00 1.752902e+01 1.696314e+00 1.085765e+00 1.364485e+00 4.735193e-01 -7.889507e-02 6.554847e-01 -6.294799e-02 1.565805e-01 -9.085336e-01 -3.355511e-01 -5.965050e-01 -6.463037e-02 3.467398e-01 3.547934e-01 -3.915747e-02 -3.246058e-01 -6.283581e-01 -8.500290e-01 -2.670374e-01 -5.119261e-01 -1.385197e-01 -1.763946e-02 3.125652e-01 2.473474e-01 4.769094e-01 6.490024e-02
<VARIANCE> 39
 4.100171e+01 2.029959e+01 4.901817e+01 5.818482e+01 4.000466e+01 4.333294e+01 2.263096e+01 3.915091e+01 3.223833e+01 4.217212e+01 1.932334e+01 2.623885e+01 1.926762e+00 2.053838e+00 1.325756e+00 2.643934e+00 3.920793e+00 5.539099e+00 3.476436e+00 4.347692e+00 3.511771e+00 2.868199e+00 3.435061e+00 2.480873e+00 3.348717e+00 1.348599e-01 2.410699e-01 3.024852e-01 4.515664e-01 7.082980e-01 8.349499e-01 6.554500e-01 5.205824e-01 6.093386e-01 6.381701e-01 8.792787e-01 5.513414e-01 5.556621e-01 1.404804e-02
<GCONST> 1.145910e+02
<STATE> 3
<NUMMIXES> 2
<MIXTURE> 1 5.393885e-01
<MEAN> 39
 1.971904e+00 3.480411e+00 2.367988e+00 -1.716409e-01 5.116948e-01 3.979699e+00 -4.468298e+00 -3.916747e+00 -9.643038e-01 1.878429e+00 -2.237249e-01 1.943455e+00 1.861939e+01 2.200340e+00 1.049554e+00 -4.113732e-01 -1.816205e+00 -1.577972e+00 1.134011e+00 -6.721292e-01 3.873804e-01 -6.236189e-01 3.860197e-01 -3.902199e-01 6.949453e-01 4.234645e-01 -3.655543e-01 -6.750302e-01 -5.626900e-01 -3.874435e-01 -2.503000e-01 -2.373265e-01 -5.412272e-01 -6.921153e-02 1.976598e-01 3.031599e-01 3.913090e-01 -5.321675e-02 -2.650943e-02
<VARIANCE> 39
 9.744535e+00 1.444896e+01 4.507806e+01 3.957036e+01 2.049648e+01 6.576732e+01 2.403941e+01 3.000990e+01 3.147510e+01 3.325264e+01 3.701418e+01 2.742280e+01 5.265145e-01 1.415677e+00 1.993183e+00 2.599065e+00 3.965312e+00 3.791193e+00 4.490575e+00 3.437092e+00 2.978668e+00 3.466812e+00 3.664099e+00 2.989418e+00 2.197584e+00 5.460352e-02 1.064085e-01 2.159718e-01 2.634713e-01 4.424829e-01 4.194428e-01 7.318947e-01 4.989229e-01 4.801219e-01 5.661929e-01 5.467417e-01 5.949619e-01 4.425006e-01 3.553809e-03
<GCONST> 1.045015e+02
<MIXTURE> 2 4.606118e-01
<MEAN> 39
 3.772755e+00 -6.358981e-01 1.561408e+00 -3.597450e+00 -4.419270e+00 4.618118e+00 -7.815221e+00 -2.970893e+00 -1.045099e+00 3.782427e+00 -8.349662e-03 6.293327e-01 1.913583e+01 1.443295e+00 -4.753786e-01 -8.940275e-01 -2.201360e+00 -1.843802e+00 6.836067e-01 -2.004794e+00 4.431854e-01 -2.471806e-01 1.419646e+00 8.439776e-01 9.473961e-01 3.813606e-01 -7.366189e-01 -2.800707e-01 -1.036714e-01 2.352680e-01 3.286496e-01 -4.670743e-01 -6.060138e-02 -5.305245e-02 2.595557e-01 -1.237772e-01 1.147681e-01 -6.951873e-02 -8.912975e-02
<VARIANCE> 39
 2.622319e+01 3.296525e+01 7.786916e+01 7.459411e+01 2.682109e+01 7.306062e+01 2.829581e+01 5.369426e+01 2.012897e+01 3.071283e+01 2.412463e+01 3.222647e+01 1.151154e+00 1.003297e+00 2.304033e+00 2.807961e+00 3.424107e+00 3.728404e+00 4.758164e+00 2.719781e+00 3.121347e+00 3.106213e+00 3.119359e+00 3.390673e+00 2.847478e+00 5.287732e-02 1.153262e-01 3.425520e-01 3.033232e-01 7.218102e-01 6.113709e-01 8.709235e-01 5.967704e-01 5.918479e-01 5.187948e-01 7.659414e-01 3.905070e-01 4.048282e-01 4.712361e-03
<GCONST> 1.104048e+02
<STATE> 4
<NUMMIXES> 2
<MIXTURE> 1 5.543898e-01
<MEAN> 39
 3.908906e+00 4.218183e+00 6.527776e-01 -6.132609e-01 6.907236e-01 4.353512e+00 -7.651888e+00 -8.291731e+00 1.764988e+00 5.558659e+00 -2.520785e+00 -6.525988e-01 1.866641e+01 -1.566545e-01 1.310832e-01 2.885593e-01 4.369501e-01 9.041457e-02 5.978562e-02 1.880574e-01 1.216634e-01 1.436263e-01 -3.113051e-01 -3.153402e-01 -1.497409e-01 -3.927579e-03 2.084603e-02 -8.321293e-02 1.003251e-02 9.104934e-02 2.723741e-02 -3.531091e-02 5.329448e-03 1.462690e-01 -6.326800e-02 -9.009070e-02 6.241975e-02 2.261842e-02 -2.370898e-03
<VARIANCE> 39
 1.481335e+01 2.640928e+01 3.454877e+01 1.231526e+02 2.624566e+01 6.096168e+01 5.182720e+01 5.345592e+01 4.995671e+01 6.893603e+01 5.275459e+01 5.131206e+01 1.813807e+00 5.334338e-01 8.111062e-01 1.302478e+00 2.143697e+00 2.163628e+00 2.156259e+00 3.007178e+00 3.027794e+00 2.581649e+00 3.719157e+00 3.322305e+00 2.131354e+00 1.740756e-02 1.059736e-01 1.458422e-01 2.646949e-01 4.888642e-01 3.782776e-01 4.454157e-01 6.399294e-01 5.700225e-01 5.452179e-01 8.636860e-01 7.834587e-01 4.336778e-01 1.187398e-03
<GCONST> 1.044840e+02
<MIXTURE> 2 4.456092e-01
<MEAN> 39
 1.062530e+00 1.704919e+00 3.539825e+00 6.030028e-01 -1.098188e+00 1.086364e+00 -8.890585e+00 -2.277682e+00 -8.922440e-01 2.143068e+00 -7.944012e-01 1.429894e+00 1.811093e+01 1.629727e-01 -2.942222e-01 -5.217853e-01 -6.819497e-01 -5.425044e-01 -2.600762e-01 -7.200187e-01 -8.791331e-03 1.467303e-01 5.140927e-01 3.076643e-01 1.018800e-01 4.796975e-02 -2.137524e-01 -9.244055e-03 -1.817074e-02 1.380200e-01 1.015204e-01 -5.382329e-02 1.585984e-01 -1.046471e-01 1.196504e-01 -6.842588e-02 -1.139627e-01 -1.363242e-01 -2.982057e-02
<VARIANCE> 39
 3.722646e+01 2.858571e+01 8.398006e+01 8.725858e+01 5.209171e+01 7.068187e+01 6.528038e+01 5.448308e+01 4.075631e+01 4.160268e+01 4.690221e+01 3.146144e+01 4.186889e+00 9.037697e-01 1.730352e+00 1.826142e+00 2.923341e+00 2.751165e+00 2.978593e+00 2.995058e+00 2.646017e+00 2.740168e+00 2.701007e+00 2.946493e+00 2.467507e+00 5.076559e-02 1.876569e-01 3.401116e-01 3.838665e-01 6.929843e-01 6.104785e-01 6.595706e-01 7.846540e-01 6.309250e-01 4.976880e-01 5.719680e-01 6.255686e-01 4.613133e-01 3.262276e-03
<GCONST> 1.134863e+02
<TRANSP> 5
 0.000000e+00 1.000000e+00 0.000000e+00 0.000000e+00 0.000000e+00
 0.000000e+00 4.641626e-01 5.358374e-01 0.000000e+00 0.000000e+00
 0.000000e+00 0.000000e+00 5.984753e-01 4.015246e-01 0.000000e+00
 0.000000e+00 0.000000e+00 0.000000e+00 8.449859e-01 1.550140e-01
 0.000000e+00 0.000000e+00 0.000000e+00 0.000000e+00 0.000000e+00
<ENDHMM>
~h "d"
<BEGINHMM>
<NUMSTATES> 5
<STATE> 2
<NUMMIXES> 2
<MIXTURE> 1 5.178207e-01
<MEAN> 39
 -2.149996e+00 5.149541e+00 8.028755e+00 1.402173e+00 2.034880e+00 -1.219848e+00 -5.925920e+00 -3.421977e+00 -6.344274e-01 -7.296180e-01 -2.156603e+00 -5.081847e-01 1.852512e+01 -1.088006e+00 -3.644406e-01 -1.563035e-01 -3.596730e-01 5.977836e-01 -1.676814e-01 8.916397e-01 1.943742e-01 -3.955563e-01 -4.350381e-02 2.006781e-01 2.161921e-01 -7.188931e-02 1.141777e-01 -8.505781e-02 -8.076345e-02 3.886333e-02 -1.821095e-01 -5.773291e-02 -2.330215e-01 1.907923e-01 1.678235e-01 1.420720e-01 -1.531211e-02 -4.359838e-02 7.847292e-03
<VARIANCE> 39
 3.288682e+01 4.403057e+01 3.647878e+01 3.179096e+01 4.173975e+01 8.145150e+01 5.918957e+01 4.065952e+01 3.495033e+01 3.594973e+01 3.263301e+01 3.043369e+01 2.023858e+00 2.447194e+00 3.330214e+00 2.121912e+00 2.158544e+00 3.329065e+00 6.172095e+00 5.259145e+00 4.436417e+00 3.425297e+00 2.841963e+00 2.966591e+00 2.228898e+00 2.201688e-02 4.343204e-01 5.115691e-01 3.299257e-01 4.422235e-01 6.107920e-01 1.014806e+00 1.002916e+00 6.126497e-01 6.508682e-01 6.551004e-01 4.920775e-01 5.089850e-01 1.359984e-03
<GCONST> 1.135798e+02
<MIXTURE> 2 4.821795e-01
<MEAN> 39
 -4.766702e+00 7.969151e+00 8.019600e+00 5.379021e+00 7.262149e-01 -3.082052e+00 -4.964198e+00 -4.337980e+00 -1.138406e+00 -4.035771e-01 -3.406857e+00 -2.204129e+00 1.612821e+01 -2.098477e+00 -1.846463e+00 -1.378900e+00 -1.382305e+00 9.219599e-01 4.414693e-01 1.252881e+00 -9.419613e-02 -8.147638e-01 -6.762083e-01 7.609130e-01 5.774094e-01 -2.375493e-01 -1.834068e-01 -3.996505e-01 -3.042257e-01 -2.914433e-01 -5.501477e-02 3.453785e-02 1.551912e-01 2.511729e-01 1.731460e-01 -5.970728e-02 1.615009e-01 2.235978e-01 4.356490e-03
<VARIANCE> 39
 3.199280e+01 2.352979e+01 2.082749e+01 1.793637e+01 3.503796e+01 3.180704e+01 2.972457e+01 3.052162e+01 3.016053e+01 2.865515e+01 3.192774e+01 2.202640e+01 3.902216e+00 2.272060e+00 3.395779e+00 1.927482e+00 3.177119e+00 3.963843e+00 3.384272e+00 4.195436e+00 4.552668e+00 3.769438e+00 3.895157e+00 3.804254e+00 2.788002e+00 4.512911e-02 3.636034e-01 4.296430e-01 3.257588e-01 4.684254e-01 6.259139e-01 4.988340e-01 7.744571e-01 6.722785e-01 6.827651e-01 6.599700e-01 6.726197e-01 5.011078e-01 7.415732e-03
<GCONST> 1.117391e+02
<STATE> 3
<NUMMIXES> 2
<MIXTURE> 1 5.126631e-01
<MEAN> 39
 -7.538457e+00 2.632605e+00 5.003578e+00 1.787382e+00 2.532485e+00 -1.855003e+00 -2.611145e+00 -1.988132e+00 -9.973367e-01 -6.389174e-01 -1.470420e+00 -3.748318e-02 1.682788e+01 -1.798802e-01 2.252679e-01 -1.825103e-01 8.331307e-02 1.357203e-01 -2.229891e-01 -3.367515e-03 2.981826e-01 3.127335e-01 2.122992e-01 -4.934739e-02 1.293153e-01 -3.665672e-02 3.192734e-01 2.045188e-01 1.387623e-01 9.294811e-02 -2.755912e-01 -1.246997e-01 -3.562133e-01 2.035424e-02 2.455084e-01 1.237373e-01 -8.336694e-02 -6.067771e-02 3.368399e-02
<VARIANCE> 39
 4.327641e+01 2.904701e+01 2.854670e+01 2.463780e+01 3.694937e+01 4.477234e+01 6.687977e+01 3.537014e+01 3.834227e+01 4.331551e+01 3.458260e+01 2.413858e+01 6.767737e+00 9.006674e-01 1.718866e+00 1.537388e+00 1.945127e+00 1.775362e+00 3.142905e+00 2.646100e+00 2.915137e+00 3.312816e+00 3.213892e+00 2.867558e+00 2.411956e+00 3.007201e-02 3.138201e-01 5.649490e-01 4.332710e-01 4.073312e-01 5.368617e-01 7.182355e-01 7.321360e-01 5.692294e-01 8.153700e-01 7.991278e-01 6.378281e-01 5.675167e-01 2.046977e-03
<GCONST> 1.097649e+02
<MIXTURE> 2 4.873357e-01
<MEAN> 39
 -8.454183e+00 2.441745e+00 3.052409e+00 2.714559e+00 2.580686e+00 -4.933575e-01 1.048283e-01 -6.496416e-01 -5.884619e-01 -5.373973e-01 -2.990328e+00 -7.185927e-01 1.484647e+01 -8.055148e-01 -8.664533e-01 -1.026940e+00 -9.287466e-01 -6.221269e-01 -4.730361e-01 2.183614e-01 3.887223e-01 7.146517e-02 -4.914747e-02 6.902125e-01 6.526570e-01 -2.745672e-01 1.949713e-01 2.713990e-01 2.014108e-01 1.527909e-01 -1.849190e-01 -1.962831e-01 -3.251234e-01 -1.869000e-01 1.040252e-01 1.070756e-01 -3.203890e-03 8.052524e-03 2.345697e-02
<VARIANCE> 39
 2.862181e+01 2.126619e+01 1.666389e+01 2.309166e+01 3.035776e+01 3.567778e+01 3.176098e+01 3.723596e+01 3.315855e+01 2.808647e+01 3.727794e+01 2.041382e+01 4.979854e+00 1.026266e+00 1.855319e+00 1.686008e+00 2.625927e+00 2.524866e+00 2.459599e+00 2.906451e+00 3.598798e+00 2.842878e+00 3.294668e+00 3.105398e+00 2.480277e+00 6.204029e-02 2.605960e-01 4.708083e-01 3.447085e-01 5.730214e-01 6.522541e-01 5.900611e-01 6.227506e-01 7.862303e-01 7.742270e-01 7.991198e-01 8.199127e-01 4.875362e-01 6.523705e-03
<GCONST> 1.091667e+02
<STATE> 4
<NUMMIXES> 2
<MIXTURE> 1 5.738432e-01
<MEAN> 39
 -1.245175e+01 4.069505e+00 5.679710e+00 1.021170e+00 -2.590033e-01 -6.407715e+00 -4.577516e+00 -2.134390e+00 4.028819e+00 -1.126196e+00 -5.221688e-01 1.684380e+00 1.724850e+01 7.884961e-01 5.707199e-01 7.995877e-01 4.621757e-01 -2.074657e-01 -1.068339e-01 -7.005279e-01 1.566468e-01 3.890482e-01 1.194430e-01 -2.927660e-01 -7.099216e-03 1.633182e-01 2.390003e-01 -1.889253e-01 -5.197306e-02 -6.449985e-02 -6.557350e-02 1.733853e-01 -9.418610e-02 1.233579e-02 -1.770320e-01 3.376298e-02 -3.890594e-03 -1.091959e-01 1.983460e-02
<VARIANCE> 39
 6.868073e+01 3.694497e+01 5.568884e+01 4.050574e+01 4.126316e+01 4.166867e+01 5.752773e+01 3.948717e+01 3.506716e+01 3.284824e+01 3.271272e+01 2.235802e+01 4.024120e+00 2.150480e+00 2.205826e+00 3.003912e+00 2.719080e+00 3.657980e+00 3.770693e+00 4.842892e+00 3.037831e+00 3.279835e+00 2.971877e+00 3.047370e+00 2.480639e+00 7.245285e-02 2.499145e-01 3.644298e-01 5.658809e-01 5.397774e-01 7.389063e-01 7.334281e-01 9.297207e-01 5.996289e-01 5.935929e-01 6.036345e-01 7.122217e-01 5.081095e-01 5.943492e-03
<GCONST> 1.161493e+02
<MIXTURE> 2 4.261566e-01
<MEAN> 39
 -1.241229e+01 -1.660570e-01 6.458624e-01 -1.676704e+00 -2.134751e+00 -4.798518e+00 -3.371488e+00 -1.506284e+00 1.585545e+00 9.953738e-01 5.131936e-01 9.148259e-01 1.494337e+01 -2.986742e-01 -5.688151e-01 -5.324678e-01 -6.973605e-01 -2.706887e-01 -3.557667e-01 -3.030883e-01 -6.864882e-02 1.985271e-01 3.540742e-02 1.602282e-01 8.159666e-02 2.065195e-01 4.210229e-04 2.157103e-01 1.613075e-01 1.780686e-01 2.647850e-02 -5.471957e-02 -6.988671e-02 -4.539545e-03 1.418929e-01 -2.872246e-02 -1.097131e-01 8.391730e-03 6.564431e-03
<VARIANCE> 39
 5.016870e+01 4.653168e+01 3.027704e+01 3.784733e+01 5.596841e+01 4.554884e+01 4.483622e+01 5.059385e+01 4.033706e+01 3.938805e+01 2.364007e+01 2.169574e+01 7.275389e+00 2.469221e+00 4.229319e+00 2.145053e+00 3.260581e+00 3.463127e+00 4.663563e+00 4.647436e+00 3.951102e+00 3.392277e+00 3.579033e+00 2.725359e+00 2.950948e+00 3.020137e-01 3.682167e-01 9.435269e-01 5.152017e-01 6.969445e-01 6.962455e-01 9.272980e-01 9.385136e-01 8.060672e-01 7.269794e-01 6.837054e-01 5.648373e-01 6.230738e-01 4.606167e-02
<GCONST> 1.233905e+02
<TRANSP> 5
 0.000000e+00 1.000000e+00 0.000000e+00 0.000000e+00 0.000000e+00
 0.000000e+00 4.874073e-01 5.125927e-01 0.000000e+00 0.000000e+00
 0.000000e+00 0.000000e+00 6.346073e-01 3.653927e-01 0.000000e+00
 0.000000e+00 0.000000e+00 0.000000e+00 8.019737e-01 1.980263e-01
 0.000000e+00 0.000000e+00 0.000000e+00 0.000000e+00 0.000000e+00
<ENDHMM>
~h "e"
<BEGINHMM>
<NUMSTATES> 5
<STATE> 2
<NUMMIXES> 2
<MIXTURE> 1 5.829177e-01
<MEAN> 39
 4.176336e-02 -5.454172e+00 3.676048e+00 -3.933718e+00 -9.592995e+00 -5.084942e+00 -1.215141e+01 8.657372e+00 6.827566e+00 4.560209e+00 -2.754889e+00 -1.421976e+00 1.988967e+01 2.751315e-01 -1.074809e-01 -4.230773e-01 9.395884e-02 -2.549130e-01 -2.398784e-01 1.729978e-01 2.632984e-01 3.266974e-01 2.021972e-01 -2.197882e-01 3.267605e-02 7.412187e-02 -1.124181e-01 2.777243e-02 2.546093e-02 2.136778e-01 2.630926e-01 1.990957e-01 2.696766e-01 -2.007950e-01 -3.393175e-01 -2.219034e-01 4.619605e-02 -7.096403e-02 -3.049795e-02
<VARIANCE> 39
 1.009754e+01 4.127791e+01 4.436435e+01 3.561283e+01 4.009977e+01 6.844019e+01 4.672181e+01 6.357723e+01 4.909476e+01 4.763826e+01 5.536679e+01 3.893550e+01 7.317981e-01 4.886371e-01 1.953660e+00 1.237019e+00 2.257469e+00 2.599177e+00 2.744296e+00 3.080713e+00 2.745928e+00 3.073552e+00 2.649049e+00 1.966112e+00 1.712799e+00 1.798506e-02 9.249248e-02 3.312267e-01 2.345425e-01 4.329890e-01 4.918855e-01 6.041474e-01 5.410227e-01 5.399102e-01 5.488080e-01 4.793197e-01 3.888957e-01 3.865440e-01 1.904334e-03
<GCONST> 1.027725e+02
<MIXTURE> 2 4.170800e-01
<MEAN> 39
 -3.354120e+00 -5.838999e+00 1.097582e+00 -3.443924e+00 -7.748574e+00 -2.980191e+00 -6.386495e+00 9.093777e+00 6.391711e+00 3.075926e+00 -6.105270e+00 -2.376803e+00 1.823355e+01 3.204207e-01 -9.097067e-01 5.817998e-02 -4.951116e-01 -4.532089e-01 4.285650e-01 -7.716714e-01 4.206091e-01 5.736695e-02 1.745796e-01 2.483826e-01 -2.285112e-01 1.311068e-01 -1.022290e-01 -4.325829e-02 -9.189577e-03 -1.095240e-01 -6.698211e-02 -2.556347e-01 -1.274345e-01 2.162308e-01 2.811404e-01 1.453768e-01 -2.481794e-02 2.381155e-02 -2.173767e-02
<VARIANCE> 39
 1.557185e+01 4.723631e+01 2.241879e+01 3.749543e+01 4.607259e+01 4.534270e+01 6.010167e+01 5.853782e+01 3.604495e+01 2.627496e+01 2.804949e+01 2.059555e+01 2.468191e+00 1.540805e+00 2.979398e+00 1.504684e+00 3.623430e+00 3.157599e+00 4.251193e+00 4.211568e+00 5.616397e+00 4.979236e+00 2.974638e+00 2.833307e+00 2.658796e+00 8.899265e-02 3.082429e-01 7.684212e-01 3.185169e-01 6.866871e-01 5.931590e-01 7.575814e-01 8.081723e-01 1.026823e+00 9.270407e-01 5.526346e-01 6.275016e-01 5.362809e-01 1.097433e-02
<GCONST> 1.159973e+02
<STATE> 3
<NUMMIXES> 2
<MIXTURE> 1 5.162132e-01
<MEAN> 39
 1.610849e+00 -1.013829e+01 2.268971e+00 -3.597858e+00 -1.112399e+01 -3.036005e+00 -1.251599e+01 1.349344e+01 6.819085e+00 5.259908e+00 -2.734925e+00 -4.455900e+00 2.082458e+01 -1.774484e-02 5.247495e-01 2.995734e-02 1.116375e-01 7.586997e-02 -4.198791e-01 3.234800e-01 1.860502e-01 4.079711e-01 2.279513e-02 -3.590371e-01 1.727004e-01 9.759353e-03 2.542410e-02 1.007131e-01 9.602414e-03 1.175292e-01 1.235568e-01 1.108377e-01 9.169246e-02 -2.084692e-01 -1.936003e-01 -1.503466e-01 -7.448252e-03 -4.954576e-03 -3.100532e-03
<VARIANCE> 39
 4.238507e+00 2.005401e+01 3.793892e+01 1.810204e+01 3.106023e+01 2.728514e+01 4.053254e+01 2.524619e+01 4.221653e+01 2.433026e+01 3.051476e+01 3.468460e+01 2.268905e-01 1.767874e-01 4.329962e-01 4.062131e-01 6.613510e-01 8.313184e-01 1.016532e+00 9.330105e-01 1.235776e+00 1.825694e+00 1.197592e+00 8.895006e-01 7.982711e-01 1.091680e-03 2.511191e-02 9.069514e-02 6.961312e-02 9.401716e-02 1.304842e-01 1.530705e-01 1.627302e-01 1.568633e-01 2.134412e-01 1.552907e-01 1.658534e-01 1.231703e-01 1.228989e-04
<GCONST> 6.345334e+01
<MIXTURE> 2 4.837825e-01
<MEAN> 39
 2.100008e+00 -8.546225e+00 2.372907e+00 -6.385869e-01 -8.624089e+00 -6.218340e-01 -9.391142e+00 8.520989e+00 1.435353e+00 5.802698e-01 -3.404337e+00 -4.427898e+00 2.068971e+01 3.471661e-02 -5.744759e-01 8.271004e-02 -6.008005e-02 -6.121186e-02 2.977906e-01 -4.040378e-01 8.836010e-03 -6.589353e-01 -1.170346e-02 3.661471e-01 -5.446109e-02 -1.385818e-02 -2.825624e-02 -2.731639e-02 -9.172718e-03 -1.212996e-01 -9.701680e-02 -1.322508e-01 -9.177397e-02 1.420103e-01 2.118530e-01 1.770708e-01 2.647083e-02 2.812558e-02 -2.175030e-03
<VARIANCE> 39
 4.892278e+00 1.686997e+01 3.121644e+01 1.624820e+01 2.329519e+01 2.042413e+01 3.660137e+01 1.894201e+01 2.368331e+01 1.550121e+01 1.623926e+01 1.845977e+01 2.268905e-01 2.184518e-01 7.173855e-01 6.042014e-01 8.099731e-01 1.064294e+00 1.176597e+00 1.109836e+00 1.469015e+00 1.800186e+00 1.456040e+00 9.998485e-01 8.678934e-01 1.295493e-03 3.312520e-02 1.014818e-01 7.306323e-02 1.007762e-01 1.327912e-01 1.669362e-01 1.804109e-01 1.819651e-01 2.390046e-01 1.687637e-01 1.669731e-01 1.473346e-01 1.218603e-04
<GCONST> 6.370957e+01
<STATE> 4
<NUMMIXES> 2
<MIXTURE> 1 5.037630e-01
<MEAN> 39
 4.205738e-01 -4.457190e+00 -9.384028e-01 -2.050306e+00 -7.458430e+00 -7.052955e+00 -9.766119e+00 1.041292e+01 8.207509e+00 4.403172e+00 -6.471859e+00 -2.951164e-01 1.999531e+01 -2.546550e-01 8.750752e-01 4.344203e-01 5.984507e-01 4.457721e-01 4.415763e-01 1.122029e+00 -5.383691e-01 2.758274e-01 -5.663612e-01 -3.257146e-01 -1.449236e-02 -2.807194e-02 1.383040e-01 -2.007351e-02 4.296997e-02 2.166410e-01 2.290838e-01 3.823977e-01 8.179872e-02 -2.998378e-01 -5.284739e-01 -1.632067e-01 1.291531e-01 -1.317283e-01 -3.686954e-03
<VARIANCE> 39
 7.180826e+00 2.089132e+01 2.906454e+01 1.692007e+01 2.163906e+01 3.046708e+01 5.311391e+01 2.931495e+01 3.485762e+01 2.488424e+01 2.468063e+01 3.404289e+01 2.861904e-01 6.075295e-01 7.880116e-01 8.890347e-01 1.515812e+00 1.854076e+00 2.386521e+00 2.227290e+00 2.119604e+00 3.721804e+00 1.964146e+00 1.506270e+00 1.299851e+00 3.278724e-03 1.279415e-01 2.781474e-01 2.202709e-01 2.564612e-01 2.538986e-01 4.390253e-01 7.109097e-01 3.232563e-01 4.200712e-01 3.980669e-01 3.057996e-01 2.552919e-01 3.676632e-04
<GCONST> 8.639656e+01
<MIXTURE> 2 4.962346e-01
<MEAN> 39
 1.678418e+00 -4.609488e+00 -1.693154e+00 -3.861602e-02 -4.626157e+00 -2.404397e+00 -8.587734e+00 7.424199e+00 2.610091e+00 1.899241e+00 -5.803052e+00 -2.075680e+00 1.988782e+01 2.369651e-01 -5.501201e-01 -3.520305e-01 -4.374029e-01 -8.841644e-02 -4.388343e-01 -1.000689e+00 2.671804e-03 -3.914000e-01 5.990699e-01 3.052821e-01 3.835460e-02 -1.153633e-02 -1.677646e-01 4.351518e-02 4.297212e-02 -1.972304e-01 -2.050141e-01 -3.582908e-01 -3.456128e-02 1.846416e-01 4.982259e-01 1.516498e-01 -6.442859e-02 1.340543e-01 -6.409153e-03
<VARIANCE> 39
 5.082708e+00 1.824888e+01 2.295160e+01 1.664580e+01 1.929714e+01 2.143412e+01 3.828151e+01 2.572635e+01 2.564553e+01 1.966275e+01 2.143319e+01 1.725571e+01 2.268905e-01 6.874672e-01 1.189593e+00 9.965788e-01 1.392942e+00 1.703312e+00 3.002236e+00 2.600053e+00 1.959402e+00 3.348309e+00 1.970602e+00 1.633368e+00 1.421680e+00 3.531424e-03 1.157578e-01 2.725502e-01 2.284032e-01 3.336711e-01 3.650260e-01 4.388045e-01 6.689036e-01 3.179852e-01 4.860802e-01 4.684905e-01 3.440873e-01 2.548630e-01 3.082984e-04
<GCONST> 8.478547e+01
<TRANSP> 5
 0.000000e+00 1.000000e+00 0.000000e+00 0.000000e+00 0.000000e+00
 0.000000e+00 8.648243e-01 1.351757e-01 0.000000e+00 0.000000e+00
 0.000000e+00 0.000000e+00 9.507508e-01 4.924924e-02 0.000000e+00
 0.000000e+00 0.000000e+00 0.000000e+00 8.934245e-01 1.065755e-01
 0.000000e+00 0.000000e+00 0.000000e+00 0.000000e+00 0.000000e+00
<ENDHMM>
~h "f"
<BEGINHMM>
<NUMSTATES> 5
<STATE> 2
<NUMMIXES> 2
<MIXTURE> 1 4.472318e-01
<MEAN> 39
 -1.056176e+01 -1.093413e+00 2.901206e+00 2.946312e+00 1.375719e+00 -7.027633e-01 -4.008202e+00 -9.220626e-01 4.724584e+00 1.989318e+00 1.193974e+00 1.876743e+00 1.732403e+01 -1.265455e+00 -1.124838e-01 3.034394e-01 5.327584e-01 2.080621e-01 -1.294274e-01 4.449026e-01 7.212047e-02 7.018542e-02 -7.093157e-02 5.699651e-02 -1.373841e-01 -2.211005e-01 1.025736e-02 -5.563328e-02 -9.117958e-02 -6.208219e-02 -5.630019e-02 4.191813e-02 2.792232e-02 1.184317e-02 -1.093832e-01 -1.004317e-01 -1.431043e-01 -8.864797e-02 -2.144010e-03
<VARIANCE> 39
 5.213354e+01 1.528810e+01 4.105258e+01 3.750466e+01 5.359299e+01 6.677953e+01 4.467042e+01 3.240224e+01 2.970498e+01 2.833651e+01 3.586581e+01 3.480076e+01 1.991318e+00 1.285990e+00 1.053522e+00 1.404617e+00 2.164508e+00 2.580456e+00 2.910229e+00 3.183595e+00 3.045924e+00 3.189771e+00 3.566298e+00 2.948197e+00 2.371416e+00 2.704681e-02 1.689931e-01 1.588801e-01 2.633525e-01 4.062047e-01 5.124199e-01 5.925360e-01 7.064874e-01 5.337105e-01 6.636384e-01 7.641821e-01 5.867718e-01 5.156060e-01 2.458687e-03
<GCONST> 1.062785e+02
<MIXTURE> 2 5.527685e-01
<MEAN> 39
 -1.723454e+01 -2.245094e+00 3.053833e+00 3.900910e+00 -8.160611e-02 -2.882283e+00 -3.824978e+00 -2.268671e+00 1.673161e+00 -9.102783e-01 -6.287507e-01 -5.813569e-02 1.552293e+01 -6.504546e-01 -4.916986e-01 -4.827643e-01 -3.687629e-01 -3.880884e-01 -2.113920e-01 -1.314925e-01 -1.546030e-01 -2.291853e-01 -1.855421e-01 4.145122e-02 -1.735788e-01 -1.857625e-01 9.032799e-02 -1.480898e-02 -7.147479e-02 -8.747304e-02 -4.689424e-02 4.778713e-03 -7.879912e-02 1.055276e-02 4.863282e-02 1.052347e-01 9.978106e-02 9.630103e-02 2.103710e-02
<VARIANCE> 39
 2.026333e+01 1.443092e+01 2.811025e+01 2.990668e+01 3.396227e+01 3.300747e+01 3.003162e+01 2.667406e+01 3.132488e+01 3.123593e+01 2.983662e+01 2.432051e+01 2.494161e+00 5.032554e-01 8.020709e-01 1.294887e+00 2.124626e+00 2.133776e+00 3.054247e+00 3.268445e+00 2.913397e+00 3.476878e+00 3.878391e+00 3.239540e+00 2.665541e+00 2.318567e-02 8.201445e-02 1.414078e-01 2.954659e-01 4.644896e-01 4.399372e-01 6.173525e-01 6.671379e-01 6.631320e-01 7.549424e-01 8.495937e-01 6.990987e-01 5.709209e-01 1.516389e-03
<GCONST> 1.009946e+02
<STATE> 3
<NUMMIXES> 2
<MIXTURE> 1 4.976878e-01
<MEAN> 39
 -2.196263e+01 -8.798944e+00 -3.254722e+00 1.323488e+00 -1.127171e+00 -1.943679e+00 -2.944463e+00 -6.551869e-01 3.552045e+00 1.598215e+00 2.664286e+00 1.968845e+00 1.479716e+01 1.774030e-01 1.160320e-01 2.042534e-01 2.795288e-01 4.112007e-01 3.133872e-01 2.701647e-01 2.882054e-01 3.195825e-01 2.901057e-01 1.280544e-01 4.407972e-02 1.636791e-03 1.164099e-01 1.119465e-01 1.086094e-01 1.105309e-02 -3.663960e-02 -1.266832e-02 2.421391e-02 -2.086185e-02 -3.767913e-02 -8.679184e-02 -7.616141e-02 -8.631432e-02 6.938209e-03
<VARIANCE> 39
 1.230295e+01 1.286719e+01 2.927073e+01 2.282929e+01 3.113616e+01 3.616990e+01 3.284883e+01 3.213581e+01 3.399005e+01 3.062461e+01 2.937038e+01 2.658685e+01 1.034824e+00 5.025107e-01 7.579632e-01 1.251384e+00 1.684494e+00 2.591019e+00 3.222924e+00 3.258109e+00 3.125512e+00 3.429427e+00 3.430887e+00 3.193264e+00 2.944010e+00 1.845803e-02 8.645785e-02 1.763921e-01 2.890327e-01 3.660398e-01 5.678003e-01 6.936408e-01 7.803271e-01 6.689959e-01 7.248951e-01 7.850627e-01 7.251123e-01 6.556608e-01 2.414822e-03
<GCONST> 1.004701e+02
<MIXTURE> 2 5.023174e-01
<MEAN> 39
 -2.178294e+01 -8.416522e+00 -3.009474e+00 1.380915e+00 -1.945727e+00 -2.833102e+00 -3.216043e+00 -1.285811e+00 2.586636e+00 3.982664e-01 1.658645e+00 6.053731e-01 1.475585e+01 -4.881198e-02 -2.898203e-01 -3.684089e-01 -3.463422e-01 -3.956026e-01 -2.567576e-01 -2.236002e-01 -2.127396e-01 -1.768226e-01 -7.296953e-02 2.656834e-02 8.228872e-02 -1.798958e-02 1.493717e-02 -1.766526e-03 -7.924511e-03 8.041666e-03 9.719098e-02 4.938883e-02 -5.010094e-03 -1.309144e-03 2.487217e-02 6.041645e-02 2.815066e-02 7.071265e-02 2.433092e-03
<VARIANCE> 39
 7.822875e+00 1.126823e+01 2.144081e+01 2.643206e+01 3.039758e+01 3.287917e+01 3.146760e+01 3.092171e+01 3.203720e+01 3.017365e+01 3.121574e+01 2.560028e+01 7.860099e-01 3.895336e-01 6.865263e-01 1.200406e+00 1.681960e+00 2.518434e+00 3.061635e+00 3.603379e+00 3.020883e+00 3.176429e+00 3.551578e+00 3.515382e+00 3.090760e+00 1.427565e-02 6.690542e-02 1.405549e-01 2.302666e-01 3.903192e-01 5.762500e-01 6.837075e-01 7.970268e-01 7.019455e-01 7.159807e-01 7.576727e-01 7.491536e-01 6.618322e-01 1.152700e-03
<GCONST> 9.730662e+01
<STATE> 4
<NUMMIXES> 2
<MIXTURE> 1 5.029225e-01
<MEAN> 39
 -1.398122e+01 -6.142523e+00 -1.830509e+00 9.531901e-01 1.551360e-01 -1.126316e+00 -2.576802e+00 -1.604122e+00 3.964824e+00 2.420664e+00 2.077421e+00 5.440054e-01 1.530326e+01 2.128615e+00 1.602476e+00 1.125261e+00 7.488204e-01 7.526484e-01 1.125091e+00 4.733704e-01 9.911013e-02 -5.156221e-01 -3.641294e-01 -5.916716e-01 -4.614966e-01 4.029421e-01 5.079664e-01 2.491646e-01 -5.244127e-02 9.874267e-03 -3.018575e-01 -3.168884e-03 -2.338781e-01 5.774153e-03 -3.560966e-01 -1.011771e-01 -5.212282e-02 -3.410368e-02 1.731999e-01
<VARIANCE> 39
 1.972402e+01 1.339862e+01 6.196024e+01 2.804730e+01 4.142822e+01 6.396165e+01 3.199209e+01 3.563488e+01 3.031718e+01 3.824885e+01 3.249844e+01 3.082228e+01 1.203453e+00 1.668265e+00 1.372408e+00 1.975563e+00 2.927349e+00 3.149068e+00 3.914707e+00 3.373224e+00 3.687064e+00 3.586651e+00 3.446369e+00 3.684006e+00 2.196897e+00 1.896269e-01 1.491501e-01 3.118728e-01 4.553997e-01 6.680466e-01 8.865142e-01 1.056543e+00 7.882431e-01 7.366827e-01 6.284032e-01 7.655981e-01 8.218719e-01 5.509586e-01 1.471002e-02
<GCONST> 1.137347e+02
<MIXTURE> 2 4.970786e-01
<MEAN> 39
 -4.650141e+00 -1.021134e+00 -1.420185e+00 1.546857e+00 -1.797355e+00 3.217042e-01 -4.966651e+00 -1.896783e+00 -2.184874e-02 1.495274e+00 5.647401e-01 -9.826158e-01 1.767142e+01 2.554565e+00 3.462819e-01 -9.043208e-01 -1.209523e+00 -1.486616e+00 -4.868979e-01 -1.460936e+00 1.156103e-01 -6.644708e-01 3.889333e-01 3.814093e-01 5.376911e-01 5.146615e-01 -4.308599e-01 -4.255595e-01 -3.155205e-01 -2.142070e-01 -4.804309e-02 -1.623773e-01 -8.931410e-02 1.857698e-01 3.048921e-01 2.199913e-01 3.408630e-01 2.948824e-01 -1.116088e-01
<VARIANCE> 39
 7.650100e+01 2.821429e+01 7.494703e+01 4.521651e+01 3.446811e+01 4.462070e+01 3.438064e+01 2.914416e+01 3.352699e+01 4.465683e+01 2.689058e+01 2.377608e+01 3.832772e+00 2.221313e+00 2.592329e+00 2.242713e+00 3.021018e+00 2.656145e+00 3.237429e+00 2.785309e+00 2.914388e+00 3.439471e+00 4.463323e+00 3.319606e+00 3.266644e+00 1.788497e-01 2.847026e-01 4.104792e-01 5.103322e-01 6.917399e-01 6.765501e-01 6.084030e-01 6.585396e-01 5.182617e-01 5.511806e-01 8.134111e-01 6.862074e-01 5.204232e-01 1.100071e-02
<GCONST> 1.166568e+02
<TRANSP> 5
 0.000000e+00 1.000000e+00 0.000000e+00 0.000000e+00 0.000000e+00
 0.000000e+00 9.230175e-01 7.698249e-02 0.000000e+00 0.000000e+00
 0.000000e+00 0.000000e+00 9.591649e-01 4.083506e-02 0.000000e+00
 0.000000e+00 0.000000e+00 0.000000e+00 8.640206e-01 1.359794e-01
 0.000000e+00 0.000000e+00 0.000000e+00 0.000000e+00 0.000000e+00
<ENDHMM>
~h "g"
<BEGINHMM>
<NUMSTATES> 5
<STATE> 2
<NUMMIXES> 2
<MIXTURE> 1 4.548807e-01
<MEAN> 39
 4.156609e-01 9.617925e-01 -3.001733e+00 -5.751025e+00 2.511919e+00 5.351294e+00 -7.895830e+00 -2.479756e+00 -1.303910e+01 6.269521e+00 6.789083e+00 -6.087972e+00 1.712838e+01 -3.912391e-01 3.458945e-01 1.581357e-01 6.311596e-02 5.256145e-01 9.442927e-02 6.145573e-01 -1.311336e-01 2.877745e-01 2.904502e-01 -1.431936e-01 1.120398e-01 -1.711716e-01 8.655941e-03 -5.913108e-02 2.494699e-01 4.123542e-01 -1.402086e-02 -1.226968e-01 -4.597447e-02 3.404679e-02 3.534653e-01 -6.489758e-02 -1.924476e-01 1.349546e-01 3.490463e-02
<VARIANCE> 39
 1.932926e+01 3.868121e+01 6.620190e+01 3.290927e+01 2.682278e+01 4.913063e+01 5.481815e+01 2.478735e+01 6.126048e+01 7.483256e+01 5.600832e+01 4.272198e+01 2.033544e+00 3.832070e-01 1.218896e+00 2.296763e+00 3.926943e+00 2.317999e+00 2.885565e+00 3.699412e+00 3.620993e+00 3.884363e+00 3.770499e+00 3.074700e+00 4.701932e+00 3.378218e-02 9.553389e-02 4.011190e-01 3.879717e-01 6.068619e-01 4.609026e-01 6.046922e-01 8.494005e-01 5.257227e-01 7.898292e-01 6.200534e-01 7.411091e-01 7.348668e-01 6.301921e-03
<GCONST> 1.120198e+02
<MIXTURE> 2 5.451192e-01
<MEAN> 39
 -3.453929e+00 1.630618e+00 5.198182e+00 2.582534e+00 -2.642690e+00 -7.708672e-01 -5.496153e+00 -4.841994e-01 -6.126118e+00 7.284306e-01 8.931595e-01 -4.435928e-01 1.595768e+01 -1.016503e+00 -2.079407e+00 -1.728159e+00 -1.641669e+00 7.643142e-01 1.338704e+00 -3.128768e-01 5.614953e-02 6.499889e-02 2.890076e-01 -4.154397e-01 1.573696e-01 -1.070703e-01 -1.448964e-01 -4.116025e-01 -1.484476e-01 -1.139076e-01 6.563405e-03 -1.400736e-01 -1.656534e-01 2.347680e-02 1.542454e-01 1.451372e-01 1.048062e-01 -1.677384e-01 7.713582e-02
<VARIANCE> 39
 2.414513e+01 4.319236e+01 6.860642e+01 3.049939e+01 3.924881e+01 3.436267e+01 4.613382e+01 3.032085e+01 3.786256e+01 3.062078e+01 2.255371e+01 3.173128e+01 1.727107e+00 1.202957e+00 5.655933e+00 4.711417e+00 3.689315e+00 3.577792e+00 5.105444e+00 5.594340e+00 3.186247e+00 5.852215e+00 4.476136e+00 2.381064e+00 2.495803e+00 5.877114e-02 1.511516e-01 1.064306e+00 7.182272e-01 6.225210e-01 4.794955e-01 9.470830e-01 7.658274e-01 5.573980e-01 7.454346e-01 5.969474e-01 4.069816e-01 6.315901e-01 8.012828e-03
<GCONST> 1.164031e+02
<STATE> 3
<NUMMIXES> 2
<MIXTURE> 1 5.197578e-01
<MEAN> 39
 -1.373204e+01 7.187781e-01 6.592870e+00 -3.893971e+00 -2.764153e+00 -1.778583e+00 -4.980195e+00 -2.561058e+00 -1.826027e+00 3.133891e+00 1.778332e+00 1.898522e+00 1.625077e+01 -1.385145e-02 8.539056e-01 9.735073e-01 5.928496e-01 7.750375e-01 3.627695e-01 1.341820e-02 -2.819872e-01 2.808582e-01 -1.414991e-01 -1.553883e-01 3.775504e-02 9.061640e-02 2.545002e-01 1.026967e-01 1.678605e-01 1.965793e-01 -5.155862e-03 -8.221981e-02 -3.990651e-02 1.459792e-01 -6.438821e-02 -1.802063e-01 -1.233563e-01 -1.095675e-01 5.455351e-02
<VARIANCE> 39
 3.567234e+01 3.409500e+01 8.217983e+01 4.672749e+01 3.439065e+01 2.866442e+01 3.704687e+01 2.125744e+01 3.253836e+01 2.569284e+01 2.691480e+01 1.693208e+01 2.201739e+00 1.138607e+00 2.058490e+00 2.234881e+00 3.634767e+00 2.850312e+00 2.920367e+00 2.830699e+00 2.249744e+00 3.581698e+00 2.979138e+00 2.682303e+00 1.723933e+00 5.011394e-02 1.258593e-01 4.064363e-01 4.422457e-01 5.995262e-01 5.615296e-01 5.930375e-01 6.582397e-01 4.465529e-01 6.884472e-01 6.114553e-01 6.297199e-01 3.766006e-01 9.820448e-03
<GCONST> 1.085064e+02
<MIXTURE> 2 4.802429e-01
<MEAN> 39
 -1.104307e+01 -1.033980e+00 -1.805075e+00 -4.078162e+00 -6.222266e-01 -3.064938e+00 -5.591322e+00 -2.520218e+00 -2.145275e+00 1.274580e+00 -9.392934e-01 2.826612e-03 1.509706e+01 -8.214052e-01 -1.088957e+00 -7.502152e-01 -1.234569e+00 -7.687892e-02 6.696478e-02 1.256015e-01 -1.434431e-02 2.825700e-01 2.890590e-01 -4.750733e-02 2.254013e-01 1.468138e-01 1.088738e-01 1.772713e-01 4.927682e-02 8.935625e-02 -9.051955e-03 3.885239e-02 4.507471e-02 -1.029384e-02 -6.572569e-03 -5.342894e-02 1.228970e-01 1.920301e-02 5.406563e-02
<VARIANCE> 39
 4.204632e+01 6.231966e+01 7.655545e+01 5.700548e+01 3.780349e+01 4.453446e+01 6.727135e+01 3.276570e+01 3.415796e+01 4.718638e+01 2.524568e+01 2.015080e+01 2.998178e+00 1.730707e+00 5.114309e+00 3.352904e+00 3.344031e+00 2.919191e+00 4.386132e+00 3.160659e+00 1.965326e+00 2.632574e+00 3.077387e+00 2.585820e+00 2.935173e+00 1.310334e-01 2.741272e-01 9.447678e-01 5.738981e-01 7.906342e-01 5.390830e-01 6.885318e-01 7.171103e-01 3.823451e-01 6.580973e-01 6.249807e-01 5.548185e-01 5.436870e-01 2.197054e-02
<GCONST> 1.185003e+02
<STATE> 4
<NUMMIXES> 2
<MIXTURE> 1 5.789474e-01
<MEAN> 39
 -5.127126e+00 -1.981546e-01 3.939924e+00 1.855274e+00 4.187045e+00 -1.401013e+00 -8.485393e+00 -1.335017e+00 -1.845963e+00 5.256483e+00 2.868738e+00 -1.546025e+00 1.793758e+01 1.472556e+00 1.159974e+00 1.017776e+00 3.584022e-01 -7.710177e-01 -5.272067e-01 -6.092339e-01 4.567990e-01 1.909064e-01 -4.091155e-01 1.884074e-01 -1.509394e-01 3.827372e-01 1.457263e-01 -2.536992e-01 -2.971395e-01 -3.583705e-01 -5.522947e-01 -8.732238e-02 -1.540218e-01 1.616974e-01 -1.483529e-01 -1.487052e-01 1.691893e-01 1.245314e-01 4.329295e-03
<VARIANCE> 39
 3.834699e+01 3.954311e+01 9.476261e+01 3.823269e+01 6.957240e+01 6.114771e+01 5.313610e+01 5.408054e+01 4.666997e+01 4.251296e+01 5.586148e+01 3.670271e+01 1.390407e+00 1.243195e+00 2.208583e+00 2.039442e+00 3.747844e+00 5.223884e+00 3.990233e+00 3.418423e+00 3.936125e+00 4.065301e+00 3.244303e+00 4.646755e+00 2.483765e+00 6.128440e-02 2.322941e-01 5.333930e-01 4.105432e-01 7.787837e-01 9.325908e-01 8.386196e-01 6.237532e-01 8.138947e-01 9.049084e-01 7.678013e-01 9.140511e-01 5.295486e-01 9.134502e-03
<GCONST> 1.200393e+02
<MIXTURE> 2 4.210527e-01
<MEAN> 39
 -5.815828e+00 -8.113743e+00 -4.919657e+00 -3.952420e+00 1.092039e+00 -4.083813e-01 -1.104753e+01 1.099325e+00 -3.309031e+00 3.548357e+00 3.703887e+00 -6.909789e-01 1.722710e+01 5.817050e-02 -2.550616e-01 -3.592979e-01 -5.602991e-02 -6.746344e-02 -3.418097e-01 -2.719225e-01 -3.183767e-02 -2.684902e-02 4.813423e-01 4.208481e-01 -8.257565e-02 1.430135e-01 5.752055e-03 4.306630e-01 2.652870e-01 3.013959e-01 1.133934e-01 -1.718140e-01 8.264270e-02 -1.395037e-01 8.236142e-02 1.574512e-01 -6.251831e-02 -2.969522e-03 -4.255037e-02
<VARIANCE> 39
 3.299055e+01 4.287909e+01 7.195094e+01 3.755734e+01 4.865021e+01 7.795985e+01 5.885819e+01 3.753281e+01 3.872934e+01 4.386797e+01 6.529530e+01 2.137229e+01 2.713420e+00 1.703373e+00 2.517615e+00 2.410927e+00 3.509642e+00 3.873226e+00 4.493497e+00 3.874568e+00 3.468686e+00 3.023847e+00 4.107349e+00 4.611923e+00 2.017133e+00 1.124619e-01 3.067096e-01 6.466275e-01 5.583941e-01 5.910913e-01 6.589296e-01 1.041960e+00 7.687101e-01 7.579667e-01 5.129305e-01 8.430298e-01 8.228463e-01 4.016609e-01 1.789724e-02
<GCONST> 1.204516e+02
<TRANSP> 5
 0.000000e+00 1.000000e+00 0.000000e+00 0.000000e+00 0.000000e+00
 0.000000e+00 6.671880e-01 3.328120e-01 0.000000e+00 0.000000e+00
 0.000000e+00 0.000000e+00 8.107448e-01 1.892553e-01 0.000000e+00
 0.000000e+00 0.000000e+00 0.000000e+00 8.352724e-01 1.647277e-01
 0.000000e+00 0.000000e+00 0.000000e+00 0.000000e+00 0.000000e+00
<ENDHMM>
~h "h"
<BEGINHMM>
<NUMSTATES> 5
<STATE> 2
<NUMMIXES> 2
<MIXTURE> 1 4.202329e-01
<MEAN> 39
 -1.526397e+01 -5.629048e+00 9.631840e-01 -5.296734e+00 -3.120511e+00 -1.594155e+00 -1.870029e+00 -3.601399e-01 4.215575e+00 4.122888e-01 9.969215e-01 3.684511e+00 1.510364e+01 2.356468e-01 1.808895e-01 3.715944e-01 4.125236e-01 4.268270e-01 6.700444e-01 6.594602e-01 6.574650e-01 2.038781e-01 -5.305323e-02 2.028557e-02 -1.825070e-02 6.864315e-02 1.192171e-01 1.378963e-01 1.626997e-01 1.889022e-01 1.346354e-01 2.447312e-01 1.763121e-01 2.352537e-02 -1.946339e-01 -1.506015e-01 -1.104883e-02 -4.475867e-02 3.098027e-02
<VARIANCE> 39
 5.010361e+01 3.067115e+01 8.615340e+01 5.193591e+01 5.352620e+01 6.501897e+01 3.755767e+01 3.447075e+01 3.225957e+01 3.655499e+01 3.104993e+01 3.258762e+01 4.143237e+00 7.458304e-01 1.110689e+00 1.832519e+00 2.244404e+00 2.402521e+00 3.215570e+00 3.749788e+00 3.372915e+00 3.179606e+00 3.801492e+00 2.779233e+00 2.569682e+00 4.403167e-02 1.128685e-01 1.949047e-01 3.363696e-01 5.077105e-01 6.369890e-01 7.821780e-01 7.784618e-01 6.612260e-01 6.684592e-01 8.144044e-01 6.367429e-01 5.960180e-01 7.958525e-03
<GCONST> 1.119429e+02
<MIXTURE> 2 5.797654e-01
<MEAN> 39
 -1.615594e+01 -7.781293e+00 1.449747e+00 -5.122967e+00 -4.129149e+00 -1.108004e+00 -3.026924e-01 2.145066e-01 2.405155e+00 -1.331868e+00 1.098459e+00 3.321119e+00 1.452533e+01 -6.394932e-02 -3.032432e-01 -2.125669e-01 -2.644086e-01 -3.949741e-01 -2.503445e-01 -3.766684e-01 -3.589839e-01 -2.162489e-01 -1.314339e-01 -9.094629e-02 -6.425503e-02 3.282057e-02 4.290735e-03 2.362655e-02 -6.042305e-02 -2.976444e-02 -2.753016e-02 -7.738574e-02 -7.826842e-02 2.846283e-02 9.409782e-02 8.738533e-02 -3.279226e-02 -1.881671e-02 5.563229e-03
<VARIANCE> 39
 3.628026e+01 3.150910e+01 7.136765e+01 4.581982e+01 4.333699e+01 5.031707e+01 3.504057e+01 4.402684e+01 3.317927e+01 3.352971e+01 2.663228e+01 2.929361e+01 3.180998e+00 4.253199e-01 8.752660e-01 1.043368e+00 2.157344e+00 2.378352e+00 3.139443e+00 3.325126e+00 3.456814e+00 3.386734e+00 3.732624e+00 3.360765e+00 2.877501e+00 2.209946e-02 7.915145e-02 1.613084e-01 2.317083e-01 4.120820e-01 4.541140e-01 6.592161e-01 7.909088e-01 8.782728e-01 7.376152e-01 7.813589e-01 6.802378e-01 5.863835e-01 1.801774e-03
<GCONST> 1.058711e+02
<STATE> 3
<NUMMIXES> 2
<MIXTURE> 1 3.591404e-01
<MEAN> 39
 -7.452493e+00 -4.051110e-01 5.855487e+00 3.904465e+00 -2.209424e+00 2.639639e+00 -2.173148e+00 9.533215e-01 1.409497e+00 -1.988818e+00 -1.359713e+00 9.918146e-02 1.762937e+01 1.362811e+00 9.161825e-01 7.605152e-01 8.469349e-01 -1.603566e-01 -1.000977e-01 -8.112431e-01 -8.081564e-02 -3.096911e-01 -1.614706e-01 -1.336143e-01 -1.632213e-01 4.712145e-01 -7.813562e-03 -2.066638e-01 -2.127755e-01 -3.998877e-01 -3.319255e-01 -2.190129e-01 -1.478201e-01 6.522961e-02 -1.950493e-03 1.338334e-01 2.538126e-01 1.296714e-01 -1.284792e-02
<VARIANCE> 39
 2.551612e+01 5.891093e+01 1.227515e+02 3.814879e+01 5.764535e+01 5.113259e+01 4.501595e+01 4.621535e+01 3.447071e+01 2.778101e+01 3.427634e+01 2.728971e+01 2.174393e+00 8.525648e-01 1.928576e+00 1.801028e+00 3.248783e+00 3.931430e+00 2.768206e+00 3.064681e+00 3.215135e+00 2.829078e+00 2.626512e+00 3.361810e+00 2.457051e+00 1.212042e-01 1.405442e-01 3.276719e-01 2.964316e-01 5.122499e-01 6.897753e-01 5.528694e-01 7.595100e-01 6.636148e-01 6.952699e-01 5.184756e-01 6.195952e-01 4.905555e-01 1.347861e-02
<GCONST> 1.133712e+02
<MIXTURE> 2 6.408580e-01
<MEAN> 39
 -9.612493e+00 -1.379206e+01 -5.144998e+00 -1.729915e+00 -3.352247e+00 6.226257e+00 4.539107e+00 5.341916e+00 2.486105e+00 -2.056187e+00 -4.458939e-01 -2.131837e+00 1.726574e+01 2.511013e-02 -3.139083e-02 -1.140172e-01 -6.874153e-03 1.097523e-02 1.165082e-01 2.197018e-01 2.446248e-02 -5.808440e-02 -6.658304e-02 5.820195e-02 -1.150943e-01 1.248758e-02 3.145365e-02 7.662900e-02 4.837781e-02 6.919134e-02 6.387831e-03 -4.556370e-02 -9.147929e-02 -6.109042e-02 8.249056e-03 1.004481e-02 -3.124111e-02 -1.366881e-02 5.080877e-03
<VARIANCE> 39
 1.362775e+01 3.820988e+01 3.141518e+01 3.697351e+01 8.419949e+01 3.996842e+01 4.635043e+01 4.029779e+01 3.820231e+01 3.699097e+01 2.548724e+01 3.037988e+01 7.509621e-01 4.408374e-01 1.063272e+00 1.325442e+00 1.952310e+00 2.968296e+00 3.215197e+00 2.783923e+00 3.371812e+00 3.953264e+00 3.358462e+00 2.868657e+00 2.853459e+00 1.963020e-02 7.483694e-02 1.902498e-01 2.789916e-01 3.857575e-01 6.600356e-01 7.055068e-01 6.075661e-01 6.999170e-01 8.355754e-01 7.266405e-01 6.104875e-01 6.305295e-01 2.025196e-03
<GCONST> 1.039527e+02
<STATE> 4
<NUMMIXES> 2
<MIXTURE> 1 5.339547e-01
<MEAN> 39
 -4.557734e+00 -3.867446e+00 4.727435e+00 4.317889e+00 -5.386638e+00 -1.140515e-01 2.213921e+00 5.856520e+00 1.080991e+00 -2.810073e+00 -2.510679e+00 -4.563664e-01 1.888186e+01 6.307575e-02 2.167164e-01 1.159173e-01 3.398289e-01 1.568275e-01 2.009078e-01 1.586625e-01 -1.238225e-01 2.793274e-02 -2.220902e-01 -4.528395e-02 1.324668e-02 4.047994e-02 9.060805e-02 -1.589151e-02 -5.548114e-02 -1.419745e-01 -3.383920e-02 1.154982e-01 -2.175557e-01 2.432252e-02 6.052297e-02 5.240948e-02 1.336183e-01 -1.714094e-03 2.975341e-03
<VARIANCE> 39
 7.417252e+00 1.854395e+01 5.654427e+01 2.676434e+01 4.775620e+01 3.479086e+01 5.686122e+01 3.264521e+01 3.263889e+01 3.586697e+01 3.446541e+01 3.572351e+01 4.628596e-01 4.683081e-01 6.477862e-01 9.698814e-01 2.025133e+00 2.150252e+00 2.416298e+00 2.905339e+00 2.427411e+00 2.291134e+00 2.752305e+00 2.069257e+00 2.100492e+00 6.845724e-03 8.236910e-02 1.388490e-01 1.994870e-01 4.645043e-01 4.425327e-01 5.533786e-01 5.943651e-01 5.216845e-01 5.286975e-01 6.186643e-01 3.865862e-01 4.596763e-01 3.919617e-04
<GCONST> 9.356881e+01
<MIXTURE> 2 4.660424e-01
<MEAN> 39
 -2.594612e+00 -4.156500e+00 4.031915e+00 2.820761e+00 -7.111707e+00 1.077680e+00 -4.213138e-01 6.050256e+00 1.047609e+00 -2.454619e+00 -1.137817e-01 -1.385035e+00 1.917371e+01 3.159001e-01 -1.522362e-01 -4.225825e-01 -6.690723e-01 -4.548708e-01 -4.898937e-01 -3.982736e-01 1.645852e-01 4.751708e-02 5.423198e-01 6.129865e-02 -1.821317e-02 5.846556e-02 -1.454901e-01 -1.663620e-02 9.503976e-03 1.260192e-01 6.111278e-02 -1.140803e-01 2.221776e-01 -8.859000e-02 -7.240785e-02 -3.990103e-03 -1.532741e-01 -9.615324e-03 -1.521680e-02
<VARIANCE> 39
 9.922360e+00 2.077748e+01 7.834572e+01 2.453797e+01 3.994099e+01 2.902129e+01 6.136775e+01 3.147291e+01 2.473565e+01 3.114373e+01 3.194390e+01 2.725427e+01 4.077097e-01 4.752977e-01 9.346724e-01 9.302631e-01 2.174380e+00 1.736147e+00 2.799028e+00 2.521712e+00 2.213857e+00 2.650454e+00 2.571581e+00 1.854901e+00 1.850200e+00 1.152023e-02 8.502865e-02 1.511291e-01 2.041845e-01 4.563677e-01 3.714312e-01 5.167403e-01 5.091002e-01 4.238152e-01 4.767164e-01 5.544422e-01 4.064468e-01 3.679664e-01 1.355011e-03
<GCONST> 9.384354e+01
<TRANSP> 5
 0.000000e+00 1.000000e+00 0.000000e+00 0.000000e+00 0.000000e+00
 0.000000e+00 9.176629e-01 8.233713e-02 0.000000e+00 0.000000e+00
 0.000000e+00 0.000000e+00 8.903942e-01 1.096058e-01 0.000000e+00
 0.000000e+00 0.000000e+00 0.000000e+00 8.976364e-01 1.023636e-01
 0.000000e+00 0.000000e+00 0.000000e+00 0.000000e+00 0.000000e+00
<ENDHMM>
~h "i"
<BEGINHMM>
<NUMSTATES> 5
<STATE> 2
<NUMMIXES> 2
<MIXTURE> 1 4.771332e-01
<MEAN> 39
 -8.307527e+00 2.572652e+00 1.052072e+01 2.370222e+00 -7.941395e+00 -6.990824e+00 -6.265760e+00 1.834077e+00 2.319277e-01 1.333708e+00 2.054156e-01 3.366324e+00 1.677617e+01 4.608516e-01 3.961787e-01 3.160402e-01 4.388658e-01 1.473408e-01 3.183089e-01 3.603983e-01 6.233566e-02 9.166210e-03 -8.486702e-02 -2.861278e-01 -9.432090e-02 1.811868e-01 1.471492e-01 -1.254430e-01 -1.378109e-01 -9.333500e-02 9.239871e-02 2.032763e-01 -7.918347e-02 -7.022246e-03 -1.077349e-01 -1.727198e-02 -4.355078e-02 -1.674133e-01 2.493227e-02
<VARIANCE> 39
 3.799375e+01 2.899401e+01 5.203560e+01 4.205640e+01 7.390134e+01 6.405767e+01 6.461705e+01 4.533255e+01 4.800162e+01 3.806937e+01 5.256206e+01 3.791696e+01 5.774983e+00 1.337561e+00 1.257156e+00 1.892076e+00 2.248466e+00 2.721165e+00 3.631819e+00 3.399885e+00 3.154413e+00 2.798000e+00 2.425099e+00 2.916286e+00 2.751984e+00 1.486681e-01 1.533128e-01 3.293949e-01 3.611049e-01 6.401582e-01 6.245998e-01 8.226221e-01 8.610327e-01 6.988812e-01 5.913683e-01 5.236448e-01 7.390662e-01 5.578620e-01 7.966435e-03
<GCONST> 1.158866e+02
<MIXTURE> 2 5.228647e-01
<MEAN> 39
 -3.745763e+00 1.207358e+00 9.537228e+00 6.437415e-01 -6.085393e+00 -5.746017e+00 -8.980705e+00 1.237803e+00 1.672264e-01 9.739993e-01 -5.036337e-03 9.622838e-01 1.891908e+01 6.469843e-01 -8.863541e-01 1.525758e-01 -8.402524e-01 -1.018353e+00 -5.936384e-01 -1.268985e+00 6.356119e-01 -3.000188e-01 2.373220e-01 6.561090e-01 1.156093e-03 1.907295e-01 -2.507486e-01 5.706438e-02 1.959468e-02 5.890582e-02 7.343008e-03 -8.987708e-02 1.162262e-01 1.536783e-02 7.714919e-02 -1.386603e-02 2.472854e-02 1.058324e-01 -6.169358e-02
<VARIANCE> 39
 5.428465e+01 4.480869e+01 4.905674e+01 2.835553e+01 5.501786e+01 4.233763e+01 5.644662e+01 3.847554e+01 3.692562e+01 2.543474e+01 2.797655e+01 2.868503e+01 1.993259e+00 1.441366e+00 2.108681e+00 1.458518e+00 2.534328e+00 2.117569e+00 3.345368e+00 2.995454e+00 2.393578e+00 2.660521e+00 2.719424e+00 2.444840e+00 2.421927e+00 5.850760e-02 1.687034e-01 4.768066e-01 2.654912e-01 4.853153e-01 4.405288e-01 5.985476e-01 6.001227e-01 4.921289e-01 5.186717e-01 4.699935e-01 4.576784e-01 4.776640e-01 4.391122e-03
<GCONST> 1.081543e+02
<STATE> 3
<NUMMIXES> 2
<MIXTURE> 1 5.330891e-01
<MEAN> 39
 6.028736e-01 -3.076032e+00 1.101345e+01 2.004496e-01 -1.067853e+01 -9.271356e+00 -1.654394e+01 4.651658e+00 1.717407e+00 5.619552e-01 2.302259e+00 2.504352e+00 2.065471e+01 -1.167155e-02 4.357867e-01 6.893925e-02 4.040261e-02 3.987747e-02 -2.479621e-01 2.216891e-01 1.336653e-01 3.092751e-01 8.940665e-02 -1.436305e-01 2.789704e-01 7.772319e-03 2.280993e-02 5.404352e-02 -8.729121e-02 8.140343e-02 1.560398e-01 1.978878e-01 2.006724e-01 -1.263233e-01 -3.869824e-02 -3.871413e-02 -6.530254e-02 -1.490857e-01 -7.666233e-03
<VARIANCE> 39
 4.964844e+00 2.274071e+01 4.092152e+01 2.057022e+01 3.993181e+01 2.602590e+01 5.231861e+01 2.911562e+01 4.459109e+01 2.802885e+01 3.441248e+01 3.142009e+01 2.983398e-01 2.213781e-01 5.522645e-01 5.353954e-01 6.649806e-01 1.161379e+00 1.686094e+00 1.758312e+00 1.212668e+00 1.367631e+00 1.139498e+00 1.153305e+00 1.204835e+00 2.517720e-03 3.742986e-02 1.156119e-01 8.884016e-02 1.221965e-01 1.759992e-01 2.232353e-01 2.452236e-01 2.091936e-01 2.113090e-01 2.039092e-01 1.990791e-01 1.834051e-01 1.478222e-04
<GCONST> 7.195747e+01
<MIXTURE> 2 4.669076e-01
<MEAN> 39
 1.122561e+00 -2.560615e+00 9.865497e+00 1.857128e+00 -8.254058e+00 -5.123816e+00 -1.195342e+01 2.789895e+00 -2.369694e-01 -1.033021e+00 1.079787e+00 -3.232363e-01 2.034100e+01 4.896786e-02 -4.918758e-01 -6.835698e-02 -6.482501e-03 2.575393e-03 2.752293e-01 -3.757163e-01 -2.878196e-02 -4.529898e-01 -9.601254e-02 2.245557e-03 -2.845730e-01 -3.367148e-03 -9.012928e-02 5.155271e-02 4.577974e-02 -9.599461e-02 -3.435544e-02 -2.378465e-01 -1.031365e-01 1.632793e-02 8.707117e-02 1.145208e-01 2.931356e-02 1.745609e-01 -8.011340e-03
<VARIANCE> 39
 8.762406e+00 2.091417e+01 3.286255e+01 2.114515e+01 3.430991e+01 2.636645e+01 4.442760e+01 2.386318e+01 3.066195e+01 2.293830e+01 2.638573e+01 2.140191e+01 5.221800e-01 3.332875e-01 7.281573e-01 7.752787e-01 9.679951e-01 1.460380e+00 2.006526e+00 1.843292e+00 1.690364e+00 1.407340e+00 1.437357e+00 1.286779e+00 1.343380e+00 4.797483e-03 4.856142e-02 1.413577e-01 1.178086e-01 1.542011e-01 2.483147e-01 3.192844e-01 3.285851e-01 2.947971e-01 2.793874e-01 2.579077e-01 2.464979e-01 2.192169e-01 3.158581e-04
<GCONST> 7.840133e+01
<STATE> 4
<NUMMIXES> 2
<MIXTURE> 1 5.096968e-01
<MEAN> 39
 -2.846442e-01 2.169814e-01 8.503727e+00 -1.586937e+00 -6.596677e+00 -1.029619e+01 -1.188748e+01 2.581858e+00 2.954980e+00 4.089005e+00 -1.679489e+00 2.887989e+00 1.966969e+01 -3.062868e-01 7.935622e-01 7.154413e-02 4.520246e-01 7.472411e-01 1.969485e-01 1.368751e+00 -3.543199e-01 5.227352e-01 -1.859797e-01 -4.528380e-01 -4.660720e-02 -5.113266e-02 6.812479e-02 -2.898527e-02 -6.333536e-02 1.813063e-01 2.738182e-01 5.373085e-01 2.517967e-01 -9.085559e-03 -2.668896e-01 -1.705039e-01 -4.366427e-02 -2.993706e-01 -3.583960e-03
<VARIANCE> 39
 9.695602e+00 2.596067e+01 2.821865e+01 3.015303e+01 4.151665e+01 4.285810e+01 8.135091e+01 4.788688e+01 4.434421e+01 3.391523e+01 3.485688e+01 3.331108e+01 4.365354e-01 7.532715e-01 1.223931e+00 1.359485e+00 1.708004e+00 2.192434e+00 3.368550e+00 2.881847e+00 2.478891e+00 2.941604e+00 2.017220e+00 2.022488e+00 2.073686e+00 9.544588e-03 1.148193e-01 2.496307e-01 2.256942e-01 3.329516e-01 3.969137e-01 5.199518e-01 7.777764e-01 5.066207e-01 4.918774e-01 3.544415e-01 3.553059e-01 2.828127e-01 5.509508e-04
<GCONST> 9.633869e+01
<MIXTURE> 2 4.903025e-01
<MEAN> 39
 6.003831e-01 3.577113e-01 7.362418e+00 1.110502e-01 -3.162812e+00 -5.168336e+00 -9.292716e+00 2.406582e+00 1.131854e-02 2.330941e+00 -3.104369e+00 3.845158e-02 1.950071e+01 5.721587e-02 -1.342478e-01 -2.397003e-01 -3.671908e-01 -3.203615e-02 -1.892741e-01 -7.114779e-01 -9.969996e-02 -4.413334e-01 3.774434e-01 2.051805e-01 -1.613011e-01 -3.675779e-02 -1.578598e-01 8.159973e-02 6.538288e-02 -1.227385e-01 -1.742011e-01 -4.336285e-01 -8.350392e-02 -9.012473e-02 2.263319e-01 1.672671e-01 9.627032e-02 2.003724e-01 -1.281261e-02
<VARIANCE> 39
 1.304757e+01 2.672640e+01 2.465756e+01 3.246884e+01 4.412687e+01 3.552219e+01 7.739045e+01 3.593661e+01 3.625512e+01 2.522346e+01 2.700938e+01 2.504808e+01 5.717973e-01 6.924041e-01 1.003922e+00 1.116124e+00 1.680689e+00 2.555699e+00 3.958134e+00 3.474342e+00 2.654539e+00 2.537547e+00 1.922654e+00 1.689073e+00 1.782660e+00 9.301333e-03 1.298410e-01 2.540541e-01 2.434051e-01 3.747677e-01 5.104298e-01 5.334640e-01 9.537290e-01 5.303352e-01 5.721214e-01 4.035095e-01 4.076852e-01 3.661999e-01 6.887891e-04
<GCONST> 9.665482e+01
<TRANSP> 5
 0.000000e+00 1.000000e+00 0.000000e+00 0.000000e+00 0.000000e+00
 0.000000e+00 7.952681e-01 2.047319e-01 0.000000e+00 0.000000e+00
 0.000000e+00 0.000000e+00 8.958982e-01 1.041018e-01 0.000000e+00
 0.000000e+00 0.000000e+00 0.000000e+00 7.988812e-01 2.011188e-01
 0.000000e+00 0.000000e+00 0.000000e+00 0.000000e+00 0.000000e+00
<ENDHMM>
~h "k"
<BEGINHMM>
<NUMSTATES> 5
<STATE> 2
<NUMMIXES> 2
<MIXTURE> 1 4.850893e-01
<MEAN> 39
 -1.606040e+01 -7.035533e+00 2.316842e+00 -5.523984e+00 -5.762551e+00 -4.710575e+00 -3.763267e+00 -3.665045e-02 -2.198201e+00 3.193082e+00 1.094756e+00 8.723460e-03 1.571316e+01 -7.149953e-02 4.073707e-01 4.751786e-01 1.883096e-01 2.964555e-01 1.361000e-01 6.162077e-01 3.200831e-01 8.688174e-01 2.418623e-01 1.146718e-01 2.764205e-01 -9.889366e-04 8.419193e-02 9.500706e-02 1.165549e-01 1.599842e-01 8.649930e-02 -1.883581e-02 -7.002960e-02 1.248903e-01 2.200536e-01 1.484198e-01 1.642514e-01 1.979820e-01 2.464486e-02
<VARIANCE> 39
 2.271721e+01 2.156663e+01 2.729683e+01 3.606378e+01 3.690530e+01 5.044560e+01 4.064281e+01 3.942453e+01 3.238503e+01 3.662233e+01 3.030632e+01 2.882615e+01 1.466278e+00 8.798561e-01 1.334257e+00 1.413203e+00 2.346382e+00 2.829687e+00 3.536212e+00 3.723412e+00 2.890003e+00 3.323502e+00 3.517456e+00 3.216865e+00 2.949584e+00 3.675605e-02 2.091586e-01 2.964738e-01 3.512597e-01 4.669627e-01 5.665258e-01 6.925724e-01 6.898214e-01 6.738991e-01 6.536326e-01 7.271864e-01 6.542069e-01 6.687029e-01 1.071055e-02
<GCONST> 1.089525e+02
<MIXTURE> 2 5.149092e-01
<MEAN> 39
 -1.772154e+01 -4.861266e+00 4.714744e+00 -7.165814e+00 -6.781186e+00 -4.750765e+00 -4.071974e+00 3.932173e-02 1.110228e+00 5.224422e+00 2.657115e+00 2.976999e+00 1.556926e+01 -3.480273e-01 -1.296503e-01 -2.229356e-01 -1.567382e-01 1.544078e-01 -2.641305e-01 -4.088137e-02 -1.272292e-01 6.484372e-02 -5.225565e-01 -3.279248e-02 2.234822e-01 -4.068390e-02 5.404819e-02 -1.752322e-01 -1.285973e-01 7.144231e-02 1.561109e-01 1.179470e-01 3.761698e-02 -4.967124e-02 -2.321810e-01 -2.387117e-01 -2.079938e-01 -2.065034e-01 1.151810e-02
<VARIANCE> 39
 2.073786e+01 2.106049e+01 1.772931e+01 2.791086e+01 3.404129e+01 5.241827e+01 3.715569e+01 4.404555e+01 2.697409e+01 3.182220e+01 2.717840e+01 2.603156e+01 9.869213e-01 1.018131e+00 1.629331e+00 1.541182e+00 1.939959e+00 2.944615e+00 3.708540e+00 2.733705e+00 3.127527e+00 3.061444e+00 3.792481e+00 3.220737e+00 3.469638e+00 4.219837e-02 1.548581e-01 2.500628e-01 3.134238e-01 3.716685e-01 5.996918e-01 8.186374e-01 6.279804e-01 7.004313e-01 5.996187e-01 8.009190e-01 6.338862e-01 6.782453e-01 4.129354e-03
<GCONST> 1.059884e+02
<STATE> 3
<NUMMIXES> 2
<MIXTURE> 1 3.762344e-01
<MEAN> 39
 -1.197213e+01 -7.087848e+00 -6.141723e+00 -4.444544e+00 2.092257e+00 1.390767e+00 -2.325023e+00 -2.056580e+00 1.371962e+00 3.184067e+00 2.699556e+00 1.003698e+00 1.571850e+01 6.197778e-01 7.363349e-01 9.625593e-01 1.376634e+00 1.199246e+00 1.289786e+00 5.833789e-01 3.103640e-01 5.426799e-02 -3.173074e-01 -4.258662e-01 2.106596e-02 1.692501e-01 2.565787e-01 2.468671e-01 2.649582e-01 3.801848e-01 5.270659e-02 -9.292296e-02 -2.222967e-01 -3.739831e-02 -1.061521e-01 -6.625809e-02 -1.009215e-01 -1.866665e-02 9.966777e-02
<VARIANCE> 39
 2.169803e+01 3.135098e+01 6.451218e+01 5.598951e+01 4.990644e+01 9.404221e+01 3.845592e+01 6.276456e+01 5.785569e+01 4.028635e+01 3.715897e+01 3.235674e+01 1.264775e+00 8.749078e-01 1.038259e+00 1.494528e+00 2.176672e+00 2.290843e+00 3.773928e+00 2.994168e+00 3.366712e+00 4.099319e+00 4.006124e+00 3.179276e+00 3.166683e+00 5.975326e-02 1.453769e-01 1.961911e-01 3.150440e-01 4.933825e-01 5.701734e-01 8.525035e-01 7.140508e-01 7.389562e-01 8.362232e-01 7.958809e-01 6.809959e-01 6.444799e-01 1.304398e-02
<GCONST> 1.132076e+02
<MIXTURE> 2 6.237661e-01
<MEAN> 39
 -1.335862e+01 -9.491989e+00 -9.174633e+00 -2.937566e+00 4.994206e+00 -2.239996e+00 -6.360553e+00 -4.061934e+00 3.178522e+00 6.836833e+00 3.177351e+00 1.085197e+00 1.588585e+01 -9.474911e-02 -1.492002e-01 -3.984880e-01 -2.417403e-01 -6.480142e-02 2.257064e-01 1.425236e-01 -4.183595e-01 8.649858e-02 -2.075600e-01 -2.638206e-03 1.630882e-03 -9.929006e-03 5.140487e-02 3.838116e-02 6.598599e-03 -6.767452e-02 -2.625429e-02 1.597383e-01 4.611918e-02 3.931176e-02 -9.166225e-02 -2.240550e-02 -1.681822e-02 -7.317680e-02 5.980628e-03
<VARIANCE> 39
 1.318067e+01 2.766709e+01 2.556792e+01 4.285705e+01 3.179564e+01 5.492426e+01 4.698427e+01 6.613113e+01 4.900848e+01 4.854000e+01 3.984591e+01 3.354854e+01 7.310719e-01 6.600129e-01 9.432372e-01 1.325886e+00 2.134944e+00 2.553005e+00 3.702158e+00 3.835517e+00 4.028674e+00 3.707565e+00 4.046307e+00 3.977975e+00 3.260842e+00 2.224393e-02 1.106758e-01 1.851968e-01 3.007404e-01 4.623684e-01 4.801738e-01 7.191934e-01 8.092068e-01 8.251993e-01 8.101227e-01 9.043347e-01 8.723440e-01 6.767020e-01 3.468243e-03
<GCONST> 1.079273e+02
<STATE> 4
<NUMMIXES> 2
<MIXTURE> 1 4.131397e-01
<MEAN> 39
 -9.044615e+00 -3.244120e+00 2.454641e+00 3.345025e+00 4.993165e+00 4.145901e+00 -1.546013e+00 -5.631233e-01 -4.284709e-01 1.383672e+00 6.732076e-01 6.346342e-01 1.701070e+01 2.028003e+00 1.944730e+00 1.579134e+00 1.491393e+00 1.073084e-01 3.606931e-01 -5.710655e-01 -1.442602e-01 -6.881958e-01 -9.077753e-01 -7.628412e-01 -5.995138e-01 6.585622e-01 2.861546e-01 -1.813779e-02 -2.323160e-01 -6.525104e-01 -8.849337e-01 -6.320707e-01 -5.922709e-01 -4.911521e-02 1.985376e-02 1.183949e-01 2.801664e-01 -7.662244e-02 6.767579e-02
<VARIANCE> 39
 2.476461e+01 3.491217e+01 6.792744e+01 5.914147e+01 5.409711e+01 9.310334e+01 3.763464e+01 5.923720e+01 4.021293e+01 4.297834e+01 3.222909e+01 2.897023e+01 1.575019e+00 9.259163e-01 1.147148e+00 1.739837e+00 2.605144e+00 3.085230e+00 3.799438e+00 3.147780e+00 3.147533e+00 3.508817e+00 3.719879e+00 3.106389e+00 2.439765e+00 7.928184e-02 1.317102e-01 3.516264e-01 2.892889e-01 4.856696e-01 4.580374e-01 7.470772e-01 6.567106e-01 7.846220e-01 7.174791e-01 9.087582e-01 5.518798e-01 5.186639e-01 1.349099e-02
<GCONST> 1.133514e+02
<MIXTURE> 2 5.868598e-01
<MEAN> 39
 -3.987245e+00 1.093276e+00 6.305238e+00 2.487196e+00 -1.455846e+00 -1.648724e+00 -6.362459e+00 7.253865e-01 -1.865926e+00 -7.592994e-01 1.578255e+00 6.867664e-02 1.871262e+01 1.250330e+00 2.655236e-01 -6.647754e-02 -3.557857e-01 -1.377455e+00 -6.041378e-01 -1.203182e+00 4.988548e-01 5.874433e-02 -1.485718e-01 6.219951e-01 -1.763004e-02 3.318738e-01 -2.956061e-01 -4.204664e-01 -3.834992e-01 -2.821717e-01 -6.866582e-02 1.932790e-02 1.094667e-01 8.149641e-02 1.357618e-01 2.846060e-01 1.684481e-01 1.277572e-01 -9.104664e-02
<VARIANCE> 39
 4.430857e+01 3.731234e+01 8.538400e+01 5.285422e+01 6.965383e+01 9.820329e+01 4.482740e+01 5.585376e+01 3.931385e+01 3.369119e+01 4.280470e+01 2.365820e+01 2.447835e+00 1.757915e+00 2.265195e+00 2.194540e+00 3.239107e+00 3.653759e+00 2.823472e+00 3.166734e+00 3.085947e+00 2.722137e+00 3.330767e+00 3.273710e+00 2.270416e+00 8.670676e-02 1.272492e-01 3.916424e-01 3.983868e-01 6.267048e-01 7.403291e-01 6.464469e-01 5.732773e-01 6.727271e-01 6.050469e-01 6.303917e-01 7.412422e-01 4.896148e-01 5.598880e-03
<GCONST> 1.156456e+02
<TRANSP> 5
 0.000000e+00 1.000000e+00 0.000000e+00 0.000000e+00 0.000000e+00
 0.000000e+00 8.599992e-01 1.400008e-01 0.000000e+00 0.000000e+00
 0.000000e+00 0.000000e+00 8.601168e-01 1.398831e-01 0.000000e+00
 0.000000e+00 0.000000e+00 0.000000e+00 7.613405e-01 2.386595e-01
 0.000000e+00 0.000000e+00 0.000000e+00 0.000000e+00 0.000000e+00
<ENDHMM>
~h "l"
<BEGINHMM>
<NUMSTATES> 5
<STATE> 2
<NUMMIXES> 2
<MIXTURE> 1 5.081531e-01
<MEAN> 39
 -2.367208e+00 9.496327e+00 7.365631e-01 -1.006496e+01 3.189633e+00 7.305859e+00 -8.614023e+00 -6.950602e+00 -5.097155e+00 2.876624e+00 4.298244e+00 4.646923e+00 1.767339e+01 3.076728e-01 5.068536e-01 1.644380e-01 1.353460e-01 2.032111e-01 1.848554e-01 3.704462e-01 9.620877e-02 -1.636357e-01 -5.173104e-01 -1.163058e-01 1.604019e-01 1.325524e-01 1.144317e-01 2.204915e-02 -7.366749e-02 7.406424e-02 -1.906143e-02 1.070565e-02 -5.486033e-02 1.531510e-01 1.463505e-01 -8.574431e-02 -1.587713e-01 -1.932763e-01 5.204315e-03
<VARIANCE> 39
 2.560720e+01 2.345127e+01 4.266904e+01 1.351083e+02 2.461805e+01 7.207260e+01 8.257592e+01 5.248420e+01 7.273110e+01 5.949783e+01 5.030239e+01 3.183190e+01 4.421896e+00 1.157355e+00 9.746047e-01 1.515133e+00 4.637069e+00 2.437174e+00 3.757307e+00 5.486823e+00 3.646946e+00 3.702085e+00 2.713943e+00 3.197090e+00 2.676719e+00 8.601848e-02 1.778316e-01 1.983958e-01 3.166001e-01 1.132467e+00 4.918660e-01 8.869587e-01 1.302208e+00 6.930669e-01 7.078629e-01 5.799241e-01 6.725491e-01 5.009339e-01 4.630995e-03
<GCONST> 1.164539e+02
<MIXTURE> 2 4.918486e-01
<MEAN> 39
 6.574153e-01 8.947415e+00 -1.404791e+00 -1.029927e+01 2.539118e+00 7.452304e+00 -1.029852e+01 -4.346651e+00 2.593385e-01 1.381212e+00 1.012331e+00 1.115567e+00 1.880724e+01 9.374570e-01 -2.108540e-01 -6.902201e-01 -1.790889e+00 -3.883511e-01 8.009933e-01 -1.949376e+00 -1.133371e-01 -2.862337e-01 2.741449e-01 7.911566e-01 2.956014e-01 2.105728e-01 -3.328328e-01 -1.704465e-01 -2.070431e-02 5.382229e-02 3.384617e-02 -7.163347e-02 1.125017e-01 -1.601617e-01 -9.722529e-02 9.546044e-02 2.893697e-01 2.044418e-01 -6.763862e-02
<VARIANCE> 39
 1.445925e+01 3.312627e+01 2.543809e+01 6.225419e+01 2.470770e+01 5.524158e+01 6.600742e+01 4.187270e+01 4.431882e+01 4.111633e+01 2.409610e+01 3.401800e+01 1.980123e+00 1.249896e+00 1.462236e+00 1.981992e+00 3.906299e+00 2.385765e+00 3.607513e+00 3.597386e+00 4.536631e+00 2.757235e+00 3.160089e+00 2.830166e+00 2.797323e+00 6.077278e-02 1.630622e-01 3.351322e-01 4.748178e-01 8.281866e-01 6.039454e-01 6.435570e-01 8.215118e-01 7.909921e-01 5.670349e-01 6.661590e-01 4.779869e-01 5.359409e-01 8.531122e-03
<GCONST> 1.119716e+02
<STATE> 3
<NUMMIXES> 2
<MIXTURE> 1 5.163794e-01
<MEAN> 39
 3.137559e+00 1.014973e+01 -3.712859e+00 -1.854133e+01 1.876744e+00 1.159867e+01 -1.896291e+01 -7.180626e+00 -4.362986e+00 -9.114172e-01 1.089281e+01 5.806091e+00 2.018994e+01 -1.175121e-01 1.498378e-01 1.317849e-02 1.985192e-01 1.582668e-01 -1.225960e-01 5.727946e-01 -9.241886e-02 3.698062e-01 2.650079e-01 1.943686e-02 1.920313e-01 1.135366e-02 1.059627e-02 -6.508889e-02 8.249522e-02 2.785322e-01 5.242572e-02 -9.133449e-02 2.061987e-01 2.341629e-01 1.374723e-01 -4.410999e-02 -3.007942e-01 -2.744088e-01 1.271134e-03
<VARIANCE> 39
 3.408485e+00 2.412210e+01 1.981490e+01 4.076448e+01 1.986611e+01 2.695796e+01 5.785987e+01 4.916602e+01 5.176387e+01 5.254608e+01 2.551780e+01 3.641791e+01 5.463868e-01 3.021460e-01 6.950163e-01 5.274991e-01 1.738124e+00 1.159666e+00 1.500179e+00 2.563863e+00 1.975613e+00 2.031489e+00 1.706384e+00 2.056924e+00 2.050207e+00 3.654890e-03 4.950372e-02 8.919741e-02 1.095744e-01 2.491600e-01 2.114356e-01 3.096334e-01 4.699244e-01 2.936733e-01 3.361054e-01 3.055180e-01 2.929302e-01 2.892157e-01 2.025245e-04
<GCONST> 8.177579e+01
<MIXTURE> 2 4.836184e-01
<MEAN> 39
 3.134016e+00 9.376277e+00 -2.108519e+00 -1.308782e+01 2.408852e+00 9.767463e+00 -1.371031e+01 -5.092999e+00 -2.852621e+00 -8.434354e-01 5.202701e+00 1.539655e+00 1.987237e+01 1.145077e-01 -3.395287e-01 -2.180029e-01 -4.042747e-01 -1.812747e-01 2.713584e-01 -6.971872e-01 1.497276e-01 -2.872639e-01 -4.025828e-02 2.467864e-02 -2.790990e-01 1.345074e-02 -3.115830e-02 -3.147004e-03 -8.252287e-02 -2.381213e-01 -7.689693e-02 5.605080e-02 -1.799183e-01 -2.049736e-01 -6.208732e-02 1.040133e-01 2.135291e-01 2.253184e-01 -2.558840e-04
<VARIANCE> 39
 5.238286e+00 3.278545e+01 1.916121e+01 4.062414e+01 2.137477e+01 3.415144e+01 5.313196e+01 3.878263e+01 3.662716e+01 4.578473e+01 2.149552e+01 2.649830e+01 4.932172e-01 4.106663e-01 8.915915e-01 9.397663e-01 2.335228e+00 1.561672e+00 2.445731e+00 3.056814e+00 2.200311e+00 2.291045e+00 2.652195e+00 2.318111e+00 2.249875e+00 4.470250e-03 9.376654e-02 1.412123e-01 1.486875e-01 3.568500e-01 3.178805e-01 4.300738e-01 6.380452e-01 3.740301e-01 4.138131e-01 4.353544e-01 3.703319e-01 3.038450e-01 2.958635e-04
<GCONST> 8.913254e+01
<STATE> 4
<NUMMIXES> 2
<MIXTURE> 1 5.213622e-01
<MEAN> 39
 2.163851e+00 -2.446050e+00 -7.592721e+00 -1.437181e+01 -3.108511e-01 1.057012e+01 -1.972412e+01 -7.353724e-01 1.028257e+01 9.420216e+00 3.074525e-01 -6.870501e+00 2.066072e+01 -2.351267e-01 1.588026e-02 1.475484e-01 6.724838e-01 1.865857e-01 -1.570667e-01 6.921802e-01 -9.195027e-03 6.817325e-01 -1.124806e-01 -8.994814e-01 -2.339047e-01 8.974001e-03 2.933637e-02 4.527273e-02 1.731243e-01 2.978131e-01 -9.399795e-03 -6.411725e-02 2.425798e-01 1.832084e-02 -3.744194e-01 -3.744730e-01 6.135112e-03 2.046697e-01 -4.369850e-03
<VARIANCE> 39
 4.962734e+00 2.444520e+01 3.448576e+01 3.825426e+01 1.917037e+01 3.930071e+01 5.758498e+01 3.918599e+01 3.158291e+01 3.358932e+01 5.806112e+01 3.597961e+01 2.860532e-01 3.620584e-01 6.214062e-01 9.219553e-01 1.622587e+00 1.269632e+00 1.491983e+00 1.770723e+00 1.456313e+00 2.273584e+00 2.460685e+00 1.632519e+00 1.078441e+00 1.748810e-03 6.310963e-02 1.180177e-01 1.350408e-01 2.870505e-01 2.093454e-01 2.091054e-01 3.312530e-01 2.944508e-01 3.092422e-01 3.248703e-01 3.019837e-01 2.266314e-01 2.095707e-04
<GCONST> 8.074559e+01
<MIXTURE> 2 4.786375e-01
<MEAN> 39
 2.095911e+00 -2.256756e+00 -8.059175e+00 -1.008364e+01 6.460811e-01 1.092908e+01 -1.235780e+01 -7.437240e-01 5.028585e+00 3.290094e+00 -2.683696e+00 -5.953640e+00 2.026906e+01 1.082387e-01 -9.376310e-01 -2.938817e-02 1.936316e-01 -6.164171e-01 -2.407101e-01 -3.104015e-01 5.540314e-01 1.352503e-02 1.023672e-01 -3.192182e-01 -5.124463e-01 3.582949e-03 -3.480975e-02 7.146139e-03 -1.023642e-01 -2.896152e-01 6.506842e-03 2.388664e-02 -1.880064e-01 -3.016592e-02 2.837599e-01 2.443049e-01 7.065114e-02 -1.006901e-01 -2.348040e-03
<VARIANCE> 39
 5.483680e+00 2.328708e+01 2.976468e+01 2.758152e+01 2.324547e+01 3.316343e+01 4.195320e+01 2.474958e+01 2.191839e+01 1.721321e+01 2.498411e+01 2.342418e+01 2.899268e-01 5.222397e-01 8.150961e-01 1.201153e+00 2.492224e+00 1.364531e+00 1.554515e+00 2.356293e+00 1.756864e+00 2.742412e+00 2.368596e+00 2.284128e+00 2.157647e+00 1.477935e-03 1.234317e-01 1.947439e-01 2.226851e-01 3.240484e-01 3.465451e-01 3.441801e-01 4.310429e-01 3.688361e-01 3.969634e-01 3.046226e-01 3.630433e-01 3.159521e-01 2.241748e-04
<GCONST> 8.425778e+01
<TRANSP> 5
 0.000000e+00 1.000000e+00 0.000000e+00 0.000000e+00 0.000000e+00
 0.000000e+00 8.429313e-01 1.570687e-01 0.000000e+00 0.000000e+00
 0.000000e+00 0.000000e+00 9.638118e-01 3.618824e-02 0.000000e+00
 0.000000e+00 0.000000e+00 0.000000e+00 9.212527e-01 7.874738e-02
 0.000000e+00 0.000000e+00 0.000000e+00 0.000000e+00 0.000000e+00
<ENDHMM>
~h "m"
<BEGINHMM>
<NUMSTATES> 5
<STATE> 2
<NUMMIXES> 2
<MIXTURE> 1 4.161114e-01
<MEAN> 39
 -3.133945e+00 5.741353e+00 8.123474e+00 4.406368e+00 5.415653e+00 2.095284e+00 -9.262781e-01 -5.560408e+00 -4.317842e+00 3.743926e+00 -3.726115e+00 -1.434455e+00 1.669141e+01 9.748545e-01 7.850876e-01 5.770991e-01 6.982245e-01 2.507012e-02 -1.979448e-01 1.476760e-01 -2.319811e-01 -2.427334e-01 3.924682e-02 -3.092691e-01 -1.777156e-01 3.761330e-01 1.510876e-01 -1.473189e-01 -8.900408e-02 -1.947847e-01 -2.821939e-01 -1.904482e-01 -1.477176e-01 1.496842e-01 7.966990e-02 1.443165e-01 1.941476e-01 1.743999e-02 1.934112e-02
<VARIANCE> 39
 2.971903e+01 2.979135e+01 1.728477e+01 7.016878e+01 2.828231e+01 4.033102e+01 3.650830e+01 4.169899e+01 3.252281e+01 4.291937e+01 3.214952e+01 2.612094e+01 5.030039e+00 1.407916e+00 1.819466e+00 1.856264e+00 2.513167e+00 2.469919e+00 3.279451e+00 3.067826e+00 2.659128e+00 2.246160e+00 2.730287e+00 3.661131e+00 1.884168e+00 1.575396e-01 1.257297e-01 3.546461e-01 3.413101e-01 5.851360e-01 5.207486e-01 7.170439e-01 7.054920e-01 5.640039e-01 4.792961e-01 6.669883e-01 7.266012e-01 4.193779e-01 7.147410e-03
<GCONST> 1.101920e+02
<MIXTURE> 2 5.838888e-01
<MEAN> 39
 3.621796e+00 3.634944e+00 7.322391e+00 1.874297e+00 1.691047e+00 -8.015893e-01 -2.208527e+00 -4.432150e+00 -5.600828e+00 6.411508e+00 -1.951753e+00 -2.742024e+00 1.901587e+01 6.014106e-01 -2.221799e-01 -9.630570e-03 -3.082747e-01 -2.499930e-01 -3.371572e-01 2.338679e-01 -6.843160e-01 -9.868832e-01 8.357000e-01 -7.601995e-02 3.283494e-02 1.331921e-01 -2.388014e-01 -6.587569e-02 -4.605209e-02 -3.591817e-02 2.617351e-02 4.746721e-02 -5.448577e-02 -4.327980e-02 2.870754e-02 -8.116386e-02 -1.364840e-02 4.783075e-02 -4.476205e-02
<VARIANCE> 39
 1.250694e+01 4.425527e+01 2.839868e+01 4.298234e+01 2.031391e+01 2.805143e+01 2.883893e+01 2.940273e+01 3.335117e+01 3.258775e+01 2.639443e+01 2.518744e+01 1.246186e+00 1.145648e+00 2.172626e+00 2.397542e+00 2.992857e+00 2.390316e+00 2.733984e+00 3.099306e+00 2.825089e+00 3.197199e+00 2.734453e+00 3.489702e+00 2.116050e+00 5.018011e-02 1.488735e-01 4.674870e-01 3.377453e-01 5.040480e-01 3.962515e-01 4.362896e-01 5.982736e-01 5.172289e-01 5.665635e-01 5.593725e-01 5.467415e-01 3.533526e-01 6.841377e-03
<GCONST> 1.048626e+02
<STATE> 3
<NUMMIXES> 2
<MIXTURE> 1 5.145239e-01
<MEAN> 39
 5.021080e+00 2.329765e+00 9.795420e+00 9.753323e-01 6.664565e-01 -1.885605e+00 -3.859190e+00 -7.922167e+00 -7.539280e+00 8.072303e+00 -3.926759e+00 -3.533343e+00 2.006402e+01 1.667853e-02 2.160474e-01 2.803523e-02 2.562454e-01 1.193478e-01 1.079096e-01 3.254337e-01 2.884535e-02 2.721879e-01 -3.132997e-01 -2.392920e-01 5.777923e-02 5.336543e-03 7.905897e-02 -1.742205e-01 -3.536189e-02 6.435509e-02 -3.737252e-03 1.122162e-01 6.532088e-03 2.522480e-01 2.595156e-02 -1.725376e-01 1.075856e-01 -4.633068e-03 -1.957035e-04
<VARIANCE> 39
 3.908830e+00 2.375637e+01 1.352794e+01 3.479681e+01 2.364968e+01 4.560427e+01 2.900546e+01 3.727695e+01 3.957768e+01 3.810767e+01 4.759502e+01 3.254911e+01 2.268905e-01 2.327354e-01 7.650710e-01 6.904340e-01 8.662184e-01 8.841965e-01 1.134082e+00 1.237271e+00 1.607400e+00 1.437547e+00 1.559978e+00 1.362114e+00 1.003943e+00 1.141717e-03 4.456726e-02 1.277394e-01 1.231740e-01 1.836529e-01 2.151345e-01 2.617445e-01 2.764908e-01 3.027471e-01 2.872600e-01 2.835828e-01 2.717473e-01 2.227719e-01 1.154662e-04
<GCONST> 7.361528e+01
<MIXTURE> 2 4.854754e-01
<MEAN> 39
 6.339552e+00 -1.172869e-01 9.443545e+00 3.631827e+00 7.536545e-01 -2.731280e+00 -3.194164e+00 -4.611098e+00 -9.043311e+00 5.957113e+00 -2.668919e+00 -4.036281e+00 1.994168e+01 -5.780030e-02 -2.005338e-01 8.795734e-03 -1.295643e-01 -1.560581e-01 -2.735453e-01 -3.339439e-01 -2.370021e-01 -3.220772e-01 2.957530e-01 1.629137e-01 -7.537904e-02 -2.741812e-03 -1.446564e-01 1.661405e-01 -5.568966e-02 -1.288587e-01 -7.688108e-03 -8.001738e-02 -4.999489e-02 -2.046007e-01 1.243870e-01 9.737795e-02 -3.909559e-02 2.188298e-02 -1.374679e-03
<VARIANCE> 39
 3.695051e+00 2.013707e+01 1.929047e+01 2.597228e+01 1.842312e+01 3.416105e+01 2.889138e+01 3.262525e+01 3.482845e+01 3.417314e+01 3.109977e+01 2.579845e+01 2.268905e-01 4.424828e-01 1.044537e+00 8.164033e-01 1.104558e+00 1.257458e+00 1.816705e+00 1.621375e+00 2.256412e+00 1.488132e+00 1.788144e+00 1.414254e+00 1.183910e+00 1.863152e-03 5.512629e-02 1.463283e-01 1.836310e-01 2.006144e-01 2.391866e-01 2.922384e-01 3.122265e-01 3.149436e-01 3.292390e-01 3.187950e-01 2.880293e-01 1.921577e-01 1.428687e-04
<GCONST> 7.713625e+01
<STATE> 4
<NUMMIXES> 2
<MIXTURE> 1 5.300575e-01
<MEAN> 39
 2.142557e+00 3.103225e+00 8.563273e+00 1.746753e+00 2.833603e+00 -3.094028e+00 -9.194538e-01 -8.144770e+00 -6.431025e+00 6.879556e+00 -6.537530e+00 -1.479765e+00 1.921146e+01 -6.135317e-02 -1.284015e-01 -5.163692e-01 -1.338093e-01 -3.579019e-02 6.379509e-01 -8.222128e-02 4.300085e-01 9.274059e-01 -6.706917e-01 4.005400e-01 -7.389013e-02 1.309658e-02 2.473266e-01 -1.661993e-01 -1.292205e-01 -1.718071e-01 -8.091360e-02 1.901926e-01 -1.037125e-01 4.099894e-01 1.997841e-02 1.020952e-01 2.253304e-01 1.229770e-02 7.728618e-03
<VARIANCE> 39
 7.180748e+00 1.566974e+01 2.725554e+01 4.095633e+01 2.215325e+01 4.711225e+01 2.973965e+01 3.340635e+01 3.276392e+01 5.143679e+01 5.231447e+01 3.119885e+01 7.389016e-01 1.031017e+00 1.604877e+00 2.814792e+00 2.865395e+00 2.423993e+00 2.646975e+00 2.566351e+00 3.266395e+00 3.383027e+00 3.738926e+00 3.268035e+00 1.852767e+00 5.189066e-03 2.025517e-01 3.018241e-01 3.681147e-01 4.947739e-01 5.017688e-01 6.866986e-01 5.626628e-01 5.544063e-01 6.780198e-01 8.062443e-01 5.302467e-01 3.735774e-01 4.236330e-04
<GCONST> 1.007303e+02
<MIXTURE> 2 4.699403e-01
<MEAN> 39
 -8.411932e-01 2.328301e+00 6.955898e+00 3.705207e+00 5.210597e+00 -4.237363e-01 -1.281575e+00 -4.157983e+00 -3.696348e+00 4.136585e+00 -4.263639e+00 -1.670465e-01 1.809707e+01 -4.279681e-01 -3.587852e-01 -3.245753e-01 -4.054971e-01 -1.795928e-01 -8.338404e-02 -3.777673e-01 1.706624e-01 2.063767e-01 -1.975793e-01 2.463240e-01 3.630808e-02 -1.178468e-01 -8.235633e-02 7.902939e-03 9.826363e-02 -1.490264e-02 -1.652101e-01 -2.664362e-02 -4.843411e-02 -1.712315e-01 2.921004e-02 -4.340931e-02 -2.445113e-01 -5.771742e-02 -1.658120e-02
<VARIANCE> 39
 5.296081e+01 2.021725e+01 2.581028e+01 3.572152e+01 4.427736e+01 5.704225e+01 3.575479e+01 3.235681e+01 4.422819e+01 4.594156e+01 4.611935e+01 2.970256e+01 2.912855e+00 1.144167e+00 1.295237e+00 1.492566e+00 1.880609e+00 2.750449e+00 3.238894e+00 3.306520e+00 3.417792e+00 4.037660e+00 3.552170e+00 3.250453e+00 2.756629e+00 2.162322e-02 1.791389e-01 2.546282e-01 2.851163e-01 4.160981e-01 5.635287e-01 5.656221e-01 6.299320e-01 6.931785e-01 7.494037e-01 7.684894e-01 6.922870e-01 5.286951e-01 1.370177e-03
<GCONST> 1.079944e+02
<TRANSP> 5
 0.000000e+00 1.000000e+00 0.000000e+00 0.000000e+00 0.000000e+00
 0.000000e+00 7.523160e-01 2.476840e-01 0.000000e+00 0.000000e+00
 0.000000e+00 0.000000e+00 9.432550e-01 5.674499e-02 0.000000e+00
 0.000000e+00 0.000000e+00 0.000000e+00 8.664466e-01 1.335534e-01
 0.000000e+00 0.000000e+00 0.000000e+00 0.000000e+00 0.000000e+00
<ENDHMM>
~h "n"
<BEGINHMM>
<NUMSTATES> 5
<STATE> 2
<NUMMIXES> 2
<MIXTURE> 1 4.912280e-01
<MEAN> 39
 3.144585e+00 -5.150671e-01 6.161464e+00 -1.808824e-03 -4.645360e+00 -4.813016e+00 -5.971061e+00 1.690514e+00 -2.807895e+00 7.365073e+00 -3.448893e+00 -3.334045e+00 2.007616e+01 1.641093e-01 6.785060e-01 2.674568e-01 6.560382e-01 4.949684e-01 3.763336e-01 6.118209e-01 -1.113411e+00 3.700365e-01 -2.793767e-01 -6.343632e-01 -2.097845e-02 -1.112534e-02 6.624166e-02 -1.163094e-01 -1.750018e-03 1.287780e-01 4.904295e-02 3.710247e-01 6.753165e-02 -4.352416e-02 -2.242007e-02 -2.050191e-01 1.040203e-02 -8.445703e-02 1.779709e-03
<VARIANCE> 39
 8.725119e+00 3.196832e+01 5.795916e+01 3.658696e+01 5.030939e+01 5.258214e+01 5.665104e+01 5.739909e+01 4.781828e+01 3.957603e+01 4.988605e+01 4.049929e+01 2.445283e-01 4.551346e-01 1.011514e+00 1.537881e+00 1.464702e+00 1.787084e+00 2.638286e+00 1.953151e+00 3.330585e+00 2.293932e+00 2.140586e+00 1.733199e+00 1.824152e+00 2.365596e-03 7.716230e-02 2.056893e-01 2.185902e-01 2.789838e-01 3.519877e-01 4.232233e-01 4.600216e-01 5.314715e-01 4.232594e-01 4.014717e-01 3.210222e-01 2.926643e-01 2.484416e-04
<GCONST> 9.214803e+01
<MIXTURE> 2 5.087667e-01
<MEAN> 39
 3.575960e+00 -1.669267e+00 6.519479e+00 1.336439e+00 -5.265313e+00 -4.588310e-01 -4.976543e+00 2.206154e+00 -5.078242e+00 4.501781e+00 -2.153031e+00 -4.629437e+00 2.006474e+01 2.412029e-01 -4.526671e-01 -2.484670e-02 -3.103768e-02 -1.592576e-01 -2.253509e-02 -5.011243e-01 -1.287354e-01 -4.144984e-01 6.280026e-01 1.223544e-01 -2.281462e-01 -4.654943e-03 -8.123416e-02 6.771153e-02 7.739657e-02 -1.334267e-01 -8.745371e-02 -2.380881e-01 -1.113391e-01 -1.042832e-01 1.862068e-01 9.782797e-02 -3.121333e-02 1.008549e-01 -2.642032e-03
<VARIANCE> 39
 1.013500e+01 3.422203e+01 6.094897e+01 3.402979e+01 4.403448e+01 4.501945e+01 5.194790e+01 3.569316e+01 3.036242e+01 3.151311e+01 3.416804e+01 3.311941e+01 2.534403e-01 4.128532e-01 9.126814e-01 9.606583e-01 1.340329e+00 1.957344e+00 2.904338e+00 1.938781e+00 2.300729e+00 1.694940e+00 1.861811e+00 1.525362e+00 1.381581e+00 2.839566e-03 5.678489e-02 1.964429e-01 1.852733e-01 2.266788e-01 3.582369e-01 3.488403e-01 3.890882e-01 3.557439e-01 3.414910e-01 3.526931e-01 3.027563e-01 2.508579e-01 2.685295e-04
<GCONST> 8.670335e+01
<STATE> 3
<NUMMIXES> 2
<MIXTURE> 1 5.273890e-01
<MEAN> 39
 5.866278e+00 8.610393e-01 8.795843e+00 4.449300e+00 -6.034704e-01 -8.479846e-02 -8.573981e+00 -8.429653e+00 1.699611e+00 5.984247e+00 -7.974584e+00 -5.223438e+00 2.008551e+01 4.389418e-02 2.920752e-01 -5.365273e-02 8.455540e-02 1.005877e-01 1.219254e-01 2.602060e-01 2.124622e-02 1.471621e-01 -4.534899e-01 1.391146e-02 1.923547e-01 -8.454433e-03 2.511793e-02 -8.396005e-02 -2.156659e-03 -1.863025e-02 -1.393100e-02 1.067843e-01 6.701537e-02 1.514330e-01 -1.383810e-01 -4.848380e-02 1.285036e-01 -6.628463e-02 -3.100867e-03
<VARIANCE> 39
 3.610519e+00 1.331908e+01 1.342654e+01 1.835451e+01 1.696522e+01 2.842248e+01 3.552978e+01 2.958823e+01 2.797302e+01 3.704815e+01 2.898256e+01 2.449105e+01 2.268905e-01 2.356238e-01 6.156757e-01 5.943588e-01 6.766638e-01 9.158997e-01 1.288527e+00 1.659515e+00 1.401968e+00 1.351353e+00 1.585597e+00 1.287573e+00 1.040568e+00 1.319461e-03 4.422744e-02 1.049804e-01 9.439333e-02 1.258078e-01 1.696282e-01 2.472985e-01 3.190508e-01 3.051744e-01 2.270758e-01 2.926031e-01 2.333128e-01 1.947051e-01 9.409714e-05
<GCONST> 6.843088e+01
<MIXTURE> 2 4.726026e-01
<MEAN> 39
 6.254968e+00 -1.451249e-01 9.195651e+00 4.420833e+00 -1.021914e+00 1.216356e+00 -6.321569e+00 -7.891222e+00 -1.211431e+00 6.585878e+00 -7.461205e+00 -7.497405e+00 1.985548e+01 -1.089187e-01 -9.130958e-02 5.454708e-02 -7.887716e-02 9.326721e-03 -8.134262e-02 -3.909599e-01 -4.667078e-01 3.256866e-02 3.276432e-01 -1.258295e-01 -3.872138e-02 -1.417849e-02 -1.765006e-01 1.736976e-01 -1.010826e-01 -7.814334e-02 5.368136e-02 -3.171411e-01 -1.154365e-02 8.021928e-02 5.633143e-02 2.543811e-02 -3.067090e-02 1.745352e-01 -2.081139e-03
<VARIANCE> 39
 4.670858e+00 1.423456e+01 1.632808e+01 1.676779e+01 1.590998e+01 2.343415e+01 3.528639e+01 2.651644e+01 2.424410e+01 2.501917e+01 1.710005e+01 2.050341e+01 2.268905e-01 4.838110e-01 9.571569e-01 9.202822e-01 9.982808e-01 1.279914e+00 2.262999e+00 2.378829e+00 2.272681e+00 1.713098e+00 1.953543e+00 1.597723e+00 1.498421e+00 2.425868e-03 7.354289e-02 1.393814e-01 1.865955e-01 1.978996e-01 2.552148e-01 3.261025e-01 4.810827e-01 4.494917e-01 3.287084e-01 3.963406e-01 2.968850e-01 2.677052e-01 1.794993e-04
<GCONST> 7.789648e+01
<STATE> 4
<NUMMIXES> 2
<MIXTURE> 1 5.336558e-01
<MEAN> 39
 3.569830e-01 4.951941e+00 9.133311e+00 5.365493e+00 2.284431e+00 -1.628260e+00 -2.158504e+00 -6.751739e+00 -7.369505e-01 5.370631e+00 -8.349890e+00 -3.498076e+00 1.850104e+01 -3.701675e-01 2.817708e-01 2.675919e-02 1.491040e-01 3.262962e-01 9.193055e-02 4.097690e-01 4.361898e-01 9.678710e-02 -5.212222e-01 1.877023e-01 1.507398e-01 -4.424991e-02 1.168153e-01 -1.581757e-01 -1.202386e-01 -8.229685e-02 -8.518045e-02 1.040440e-01 2.760051e-02 2.192244e-01 -5.924026e-03 7.643902e-02 1.981816e-01 8.162416e-03 1.304107e-03
<VARIANCE> 39
