~o
<STREAMINFO> 1 39
<VECSIZE> 39<NULLD><MFCC_E_D_A><DIAGC>
~s "silst"
<MEAN> 39
 -1.366296e+01 -4.229714e-01 -9.904575e-01 5.071859e-01 -9.060697e-04 -5.021660e-01 -1.711038e+00 -6.902153e-01 1.771821e+00 1.520102e+00 -2.653826e-01 -3.820879e-01 1.059624e+01 -2.766642e-02 -3.436640e-02 -4.017813e-02 -2.980073e-02 -3.271811e-02 -9.556447e-03 -1.557618e-02 -2.012493e-02 -2.897117e-02 -1.977016e-02 -7.001578e-03 3.086590e-03 -2.974855e-02 3.672728e-02 9.363101e-02 1.083662e-01 1.121077e-01 6.864233e-02 5.658567e-02 4.133028e-02 3.609832e-02 9.632912e-03 5.828748e-03 2.078499e-02 6.403387e-03 1.154373e-02
<VARIANCE> 39
 1.058537e+01 2.327245e+01 2.351629e+01 2.406173e+01 2.848838e+01 3.249134e+01 3.123201e+01 3.225916e+01 3.479420e+01 3.161416e+01 3.054455e+01 2.460877e+01 1.558651e+00 6.455144e-01 1.333035e+00 1.732817e+00 2.387236e+00 2.767302e+00 3.221282e+00 3.403604e+00 3.541101e+00 3.639288e+00 3.772476e+00 3.405962e+00 2.877517e+00 6.155852e-02 1.367052e-01 2.887489e-01 3.929894e-01 5.421091e-01 6.252894e-01 7.162294e-01 7.555232e-01 7.862955e-01 8.225564e-01 8.488761e-01 7.633154e-01 6.527070e-01 9.907887e-03
<GCONST> 1.076252e+02
~h "@"
<BEGINHMM>
<NUMSTATES> 5
<STATE> 2
<MEAN> 39
 8.559311e-01 -1.630275e+00 4.388536e+00 -2.324365e+00 -4.890595e+00 -4.570387e+00 -1.356816e+01 3.333266e+00 4.652380e+00 4.545814e+00 -4.368945e+00 7.580451e-01 1.989112e+01 -2.998162e-03 5.067145e-02 -7.178776e-03 -3.398355e-02 5.290155e-02 -1.738602e-02 2.846106e-02 -3.944986e-02 6.345320e-02 1.028853e-01 -1.897894e-02 1.433674e-02 -1.568290e-02 -4.280824e-02 6.495565e-02 1.226279e-02 4.243398e-02 6.769457e-02 3.509191e-02 1.184841e-01 -6.981133e-02 -2.101198e-02 -2.842594e-02 1.890987e-02 -3.599458e-02 -1.138307e-02
<VARIANCE> 39
 1.025961e+01 2.685959e+01 3.807946e+01 3.325663e+01 3.838860e+01 4.292397e+01 7.198256e+01 3.715448e+01 4.143658e+01 3.917053e+01 3.599655e+01 2.755342e+01 5.408908e-01 6.755393e-01 1.314026e+00 1.099824e+00 1.725284e+00 2.090704e+00 3.048849e+00 3.878476e+00 2.045803e+00 2.951503e+00 2.481430e+00 1.817277e+00 1.541706e+00 7.132158e-03 1.261384e-01 2.261047e-01 2.087710e-01 3.404794e-01 4.104216e-01 6.081740e-01 7.814147e-01 3.682964e-01 5.655186e-01 4.838259e-01 3.518232e-01 2.955565e-01 6.481762e-04
<GCONST> 9.620356e+01
<STATE> 3
<MEAN> 39
 1.393342e+00 5.659692e+00 4.905980e+00 8.189002e-01 5.188605e-01 -1.383147e+00 -1.140391e+01 -4.817685e+00 2.678607e+00 4.120753e+00 -2.694879e+00 -3.513842e-01 1.854486e+01 -2.449600e-01 4.072126e-01 3.663307e-02 2.391173e-01 4.435872e-01 1.367611e-01 6.619809e-01 -1.909738e-01 -2.218993e-01 -2.561567e-01 5.607594e-02 -1.436063e-01 -1.428994e-01 -3.081495e-02 -8.106753e-02 -8.645459e-03 1.793412e-02 -2.820126e-02 2.813425e-03 -3.572530e-02 8.607911e-02 -5.311789e-02 -5.307024e-02 4.333653e-03 -8.396810e-03 -5.383849e-03
<VARIANCE> 39
 1.716473e+01 2.809697e+01 2.684512e+01 3.589217e+01 3.723017e+01 4.883661e+01 3.943525e+01 5.641137e+01 4.672100e+01 3.720076e+01 3.563731e+01 2.949754e+01 1.443250e+00 6.686831e-01 1.133487e+00 1.294274e+00 1.985118e+00 2.770104e+00 3.138455e+00 3.953088e+00 2.958985e+00 3.607539e+00 3.465597e+00 2.685895e+00 2.560705e+00 1.854542e-02 1.370877e-01 2.181953e-01 2.749074e-01 4.008350e-01 5.571657e-01 6.487309e-01 7.599340e-01 5.723444e-01 8.073103e-01 7.014328e-01 5.639250e-01 5.122671e-01 1.460907e-03
<GCONST> 1.045752e+02
<STATE> 4
<MEAN> 39
 -2.833782e+00 1.578950e+00 4.869845e-01 4.548766e-01 3.031944e+00 2.777112e-01 -4.393181e+00 -7.386858e-01 3.113669e+00 3.629177e+00 -4.456276e+00 -1.588218e+00 1.749177e+01 -1.359902e-01 -5.349528e-02 -5.991846e-02 1.984148e-02 6.014266e-02 9.495872e-02 1.527196e-01 -4.921988e-02 -1.547144e-01 -1.489717e-01 1.697203e-01 -8.058925e-03 -9.740622e-02 -1.235350e-03 -2.191768e-02 1.567205e-02 -5.805403e-02 -8.224716e-02 -3.705886e-02 -1.616535e-01 7.968226e-03 1.186958e-02 6.084722e-02 2.963427e-02 5.401265e-02 -3.585014e-03
<VARIANCE> 39
 2.586111e+01 2.897667e+01 5.141924e+01 6.315212e+01 6.133294e+01 6.986853e+01 6.659609e+01 4.193805e+01 4.389269e+01 5.352670e+01 5.468533e+01 3.277516e+01 4.016924e+00 1.055714e+00 1.016778e+00 1.505784e+00 2.619545e+00 2.685817e+00 2.939354e+00 3.207311e+00 2.986243e+00 3.347435e+00 3.476491e+00 2.629638e+00 2.510377e+00 3.675951e-02 1.593740e-01 1.977274e-01 3.069199e-01 5.658798e-01 5.640508e-01 6.339277e-01 7.348570e-01 6.475125e-01 7.004415e-01 7.955986e-01 5.775147e-01 5.131639e-01 2.346055e-03
<GCONST> 1.112954e+02
<TRANSP> 5
 0.000000e+00 1.000000e+00 0.000000e+00 0.000000e+00 0.000000e+00
 0.000000e+00 8.839020e-01 1.160980e-01 0.000000e+00 0.000000e+00
 0.000000e+00 0.000000e+00 7.694418e-01 2.305581e-01 0.000000e+00
 0.000000e+00 0.000000e+00 0.000000e+00 7.093422e-01 2.906578e-01
 0.000000e+00 0.000000e+00 0.000000e+00 0.000000e+00 0.000000e+00
<ENDHMM>
~h "Q"
<BEGINHMM>
<NUMSTATES> 5
<STATE> 2
<MEAN> 39
 -8.968819e+00 1.227167e+00 1.709896e+00 5.255102e-01 -1.376319e+00 -3.581203e-01 -4.450421e+00 2.224232e-01 1.032390e+00 1.922153e+00 9.369482e-01 -5.463367e-02 1.433043e+01 6.601643e-05 -6.414447e-06 -4.348861e-05 2.207338e-05 -6.183252e-05 3.505594e-04 -2.845397e-05 -1.057293e-04 -3.217392e-04 -2.094190e-04 -1.093453e-04 6.646793e-05 -4.646834e-05 -3.052270e-05 -5.577785e-06 5.118113e-05 5.903988e-05 8.738427e-05 1.239256e-04 1.462678e-04 5.784345e-07 -6.680420e-05 8.540968e-05 -3.584341e-06 -9.608337e-06 3.280207e-06
<VARIANCE> 39
 9.132833e+01 3.750473e+01 5.184167e+01 5.299957e+01 4.542144e+01 5.171822e+01 6.411460e+01 4.173472e+01 3.924054e+01 3.472301e+01 3.778771e+01 3.327573e+01 2.268905e+01 6.444674e-01 1.076510e+00 1.293223e+00 1.883514e+00 2.197024e+00 2.673508e+00 2.949268e+00 2.722457e+00 2.845586e+00 2.895535e+00 2.697424e+00 2.293327e+00 4.128606e-02 9.874837e-02 2.035372e-01 2.576212e-01 3.839478e-01 4.538210e-01 5.496877e-01 6.081111e-01 5.695377e-01 5.939356e-01 6.059731e-01 5.659602e-01 4.834353e-01 5.660130e-03
<GCONST> 1.098248e+02
<STATE> 3
<MEAN> 39
 -8.968819e+00 1.227167e+00 1.709896e+00 5.255102e-01 -1.376319e+00 -3.581203e-01 -4.450421e+00 2.224232e-01 1.032390e+00 1.922153e+00 9.369482e-01 -5.463367e-02 1.433043e+01 6.601643e-05 -6.414447e-06 -4.348861e-05 2.207338e-05 -6.183252e-05 3.505594e-04 -2.845397e-05 -1.057293e-04 -3.217392e-04 -2.094190e-04 -1.093453e-04 6.646793e-05 -4.646834e-05 -3.052270e-05 -5.577785e-06 5.118113e-05 5.903988e-05 8.738427e-05 1.239256e-04 1.462678e-04 5.784345e-07 -6.680420e-05 8.540968e-05 -3.584341e-06 -9.608337e-06 3.280207e-06
<VARIANCE> 39
 9.132833e+01 3.750473e+01 5.184167e+01 5.299957e+01 4.542144e+01 5.171822e+01 6.411460e+01 4.173472e+01 3.924054e+01 3.472301e+01 3.778771e+01 3.327573e+01 2.268905e+01 6.444674e-01 1.076510e+00 1.293223e+00 1.883514e+00 2.197024e+00 2.673508e+00 2.949268e+00 2.722457e+00 2.845586e+00 2.895535e+00 2.697424e+00 2.293327e+00 4.128606e-02 9.874837e-02 2.035372e-01 2.576212e-01 3.839478e-01 4.538210e-01 5.496877e-01 6.081111e-01 5.695377e-01 5.939356e-01 6.059731e-01 5.659602e-01 4.834353e-01 5.660130e-03
<GCONST> 1.098248e+02
<STATE> 4
<MEAN> 39
 -8.968819e+00 1.227167e+00 1.709896e+00 5.255102e-01 -1.376319e+00 -3.581203e-01 -4.450421e+00 2.224232e-01 1.032390e+00 1.922153e+00 9.369482e-01 -5.463367e-02 1.433043e+01 6.601643e-05 -6.414447e-06 -4.348861e-05 2.207338e-05 -6.183252e-05 3.505594e-04 -2.845397e-05 -1.057293e-04 -3.217392e-04 -2.094190e-04 -1.093453e-04 6.646793e-05 -4.646834e-05 -3.052270e-05 -5.577785e-06 5.118113e-05 5.903988e-05 8.738427e-05 1.239256e-04 1.462678e-04 5.784345e-07 -6.680420e-05 8.540968e-05 -3.584341e-06 -9.608337e-06 3.280207e-06
<VARIANCE> 39
 9.132833e+01 3.750473e+01 5.184167e+01 5.299957e+01 4.542144e+01 5.171822e+01 6.411460e+01 4.173472e+01 3.924054e+01 3.472301e+01 3.778771e+01 3.327573e+01 2.268905e+01 6.444674e-01 1.076510e+00 1.293223e+00 1.883514e+00 2.197024e+00 2.673508e+00 2.949268e+00 2.722457e+00 2.845586e+00 2.895535e+00 2.697424e+00 2.293327e+00 4.128606e-02 9.874837e-02 2.035372e-01 2.576212e-01 3.839478e-01 4.538210e-01 5.496877e-01 6.081111e-01 5.695377e-01 5.939356e-01 6.059731e-01 5.659602e-01 4.834353e-01 5.660130e-03
<GCONST> 1.098248e+02
<TRANSP> 5
 0.000000e+00 1.000000e+00 0.000000e+00 0.000000e+00 0.000000e+00
 0.000000e+00 5.000000e-01 5.000000e-01 0.000000e+00 0.000000e+00
 0.000000e+00 0.000000e+00 5.000000e-01 5.000000e-01 0.000000e+00
 0.000000e+00 0.000000e+00 0.000000e+00 5.000000e-01 5.000000e-01
 0.000000e+00 0.000000e+00 0.000000e+00 0.000000e+00 0.000000e+00
<ENDHMM>
~h "a"
<BEGINHMM>
<NUMSTATES> 5
<STATE> 2
<MEAN> 39
 -3.263354e+00 -7.482450e+00 -1.658465e+00 -3.226903e+00 -6.667734e+00 1.572082e-01 -4.639437e+00 8.806916e+00 4.530318e+00 2.751871e+00 -4.288733e+00 -3.881390e+00 1.839926e+01 2.071484e-01 -2.504107e-01 -5.951800e-02 -7.067666e-02 -1.134348e-01 7.807453e-02 1.882532e-02 2.866988e-01 4.926402e-02 -1.050244e-01 2.379214e-02 -1.529975e-01 9.863868e-02 -1.046373e-02 1.766322e-02 -1.544820e-02 1.833299e-02 1.388581e-02 3.027971e-03 1.132059e-02 -4.730865e-02 -1.015397e-02 -1.777597e-02 6.557629e-03 -5.894191e-03 -1.009632e-02
<VARIANCE> 39
 2.681754e+01 3.720753e+01 5.974649e+01 5.284604e+01 4.534441e+01 7.053149e+01 5.849739e+01 6.242782e+01 4.503512e+01 3.586088e+01 4.376282e+01 5.156861e+01 3.116764e+00 1.228888e+00 2.867979e+00 1.747562e+00 3.470985e+00 2.527462e+00 3.150518e+00 4.077162e+00 4.101687e+00 3.569540e+00 2.490281e+00 3.249840e+00 2.692678e+00 9.660254e-02 2.125213e-01 5.623124e-01 3.155257e-01 7.096139e-01 4.992955e-01 6.779898e-01 8.563521e-01 8.163425e-01 7.669383e-01 5.214179e-01 6.928324e-01 5.604922e-01 1.134799e-02
<GCONST> 1.177267e+02
<STATE> 3
<MEAN> 39
 2.334162e+00 -1.132106e+01 -9.827281e+00 1.506782e-01 -5.542409e+00 5.315800e+00 -3.063618e+00 4.648211e+00 5.991394e+00 4.706248e-02 -3.980261e+00 -1.181277e+01 2.052700e+01 2.171833e-02 -1.429018e-02 -2.630461e-02 5.085432e-03 -5.547712e-02 3.152136e-04 -1.346109e-02 -3.672855e-03 -1.683966e-03 3.302893e-02 -1.983378e-02 -1.754511e-02 5.337264e-03 -1.213634e-02 1.955297e-02 3.627285e-02 -1.911391e-02 6.035388e-03 -1.920024e-02 -1.264197e-02 4.863670e-03 -7.683176e-03 2.249952e-02 -5.331918e-04 3.435641e-02 -2.725796e-03
<VARIANCE> 39
 5.535692e+00 2.112336e+01 2.212165e+01 2.735098e+01 1.762568e+01 2.648332e+01 3.586345e+01 4.190128e+01 2.570494e+01 3.046734e+01 2.648418e+01 2.908763e+01 4.107704e-01 4.183855e-01 1.140725e+00 8.368428e-01 1.144889e+00 1.046702e+00 1.091737e+00 1.605459e+00 1.723010e+00 1.927256e+00 1.533681e+00 1.587181e+00 1.590022e+00 2.180646e-03 7.501453e-02 1.729449e-01 1.453627e-01 1.993420e-01 1.919269e-01 1.917490e-01 2.892435e-01 2.865500e-01 3.198690e-01 2.651064e-01 2.763453e-01 2.565210e-01 2.094414e-04
<GCONST> 7.771142e+01
<STATE> 4
<MEAN> 39
 8.878697e-01 -8.258693e+00 1.854549e+00 -1.150928e+00 -9.267069e+00 -3.382224e+00 -4.048773e+00 1.144723e+01 1.585846e+00 1.963821e+00 -3.369228e+00 -4.559407e+00 2.010498e+01 7.949185e-03 1.598937e-01 1.793498e-01 6.701731e-03 6.510580e-02 -1.627660e-01 -8.433821e-02 -3.652609e-02 -1.580472e-01 1.534383e-01 3.428889e-02 1.031272e-01 -1.061910e-03 -5.151224e-03 2.716623e-02 4.842858e-03 1.533833e-02 3.521024e-02 8.828159e-03 5.144607e-03 -4.009435e-02 -6.033883e-03 9.334555e-04 9.157478e-03 -1.812538e-03 -4.196963e-03
<VARIANCE> 39
 5.355636e+00 1.986792e+01 3.365043e+01 2.309721e+01 2.358469e+01 2.712460e+01 4.715955e+01 2.910305e+01 4.110605e+01 2.238484e+01 2.646320e+01 2.006547e+01 3.393747e-01 4.058131e-01 1.179474e+00 8.684227e-01 1.240089e+00 1.470495e+00 1.984526e+00 1.792290e+00 2.133782e+00 2.103290e+00 1.478947e+00 1.433552e+00 1.056845e+00 2.976860e-03 7.976551e-02 1.918594e-01 1.554631e-01 2.348920e-01 2.835610e-01 3.686302e-01 3.214724e-01 3.731776e-01 3.599423e-01 2.646540e-01 2.691993e-01 1.938352e-01 2.516535e-04
<GCONST> 8.072720e+01
<TRANSP> 5
 0.000000e+00 1.000000e+00 0.000000e+00 0.000000e+00 0.000000e+00
 0.000000e+00 9.188436e-01 8.115641e-02 0.000000e+00 0.000000e+00
 0.000000e+00 0.000000e+00 9.461800e-01 5.381999e-02 0.000000e+00
 0.000000e+00 0.000000e+00 0.000000e+00 9.416850e-01 5.831497e-02
 0.000000e+00 0.000000e+00 0.000000e+00 0.000000e+00 0.000000e+00
<ENDHMM>
~h "b"
<BEGINHMM>
<NUMSTATES> 5
<STATE> 2
<MEAN> 39
 -4.659424e+00 -2.615219e+00 2.625982e+00 3.605653e+00 3.792717e+00 5.526536e-01 -5.560778e+00 -4.770625e+00 8.830373e-01 2.050378e+00 1.864391e+00 -8.986315e-01 1.744025e+01 2.126925e+00 1.796370e+00 1.379729e+00 3.252878e-01 1.034636e-01 1.642955e+00 5.073131e-01 3.225798e-01 -8.962106e-01 -9.982393e-02 -7.705525e-01 -3.077764e-03 3.588803e-01 3.403759e-01 1.602374e-01 -1.717133e-01 -5.664424e-01 -7.557104e-01 2.728426e-02 -1.542092e-01 2.290422e-01 -2.039144e-01 -1.216012e-02 -9.288858e-02 2.703725e-01 6.426878e-02
<VARIANCE> 39
 2.769599e+01 1.773768e+01 3.918831e+01 5.335344e+01 3.493505e+01 6.237097e+01 2.909366e+01 3.889013e+01 3.211577e+01 4.632496e+01 2.926186e+01 2.648569e+01 1.303862e+00 1.740923e+00 1.783029e+00 2.738419e+00 4.173771e+00 3.903616e+00 6.027165e+00 3.962718e+00 3.420258e+00 2.951647e+00 3.785537e+00 3.087393e+00 2.874248e+00 9.931226e-02 2.617456e-01 3.714548e-01 4.452868e-01 6.251940e-01 6.383083e-01 1.022774e+00 6.697415e-01 6.411898e-01 7.078440e-01 8.296893e-01 6.334952e-01 5.401484e-01 8.295169e-03
<GCONST> 1.148036e+02
<STATE> 3
<MEAN> 39
 1.270517e+00 1.672004e+00 4.007920e+00 -5.077271e-02 -9.124541e-01 2.846385e+00 -5.720207e+00 -2.901642e+00 -1.164415e+00 1.961510e+00 -7.078421e-01 7.785712e-01 1.863796e+01 2.000245e+00 5.126274e-01 -3.625330e-01 -1.753916e+00 -1.729579e+00 8.913982e-01 -1.091562e+00 4.239435e-01 -5.330179e-01 7.257126e-01 9.964315e-02 8.482134e-01 4.065005e-01 -4.615754e-01 -5.272752e-01 -4.403018e-01 -2.788183e-01 -1.016667e-01 -2.577817e-01 -3.818154e-01 -5.660469e-02 1.922686e-01 1.513045e-01 3.096752e-01 2.824295e-02 -4.733381e-02
<VARIANCE> 39
 2.537342e+01 2.297353e+01 6.946549e+01 5.446804e+01 2.587676e+01 7.590395e+01 3.209391e+01 3.685017e+01 3.174946e+01 3.198634e+01 2.642382e+01 2.799584e+01 8.978715e-01 1.458959e+00 2.695598e+00 3.244894e+00 4.233406e+00 3.910238e+00 5.576535e+00 3.888139e+00 3.115472e+00 3.243503e+00 3.697838e+00 3.732601e+00 2.439954e+00 7.669626e-02 1.778396e-01 2.719682e-01 3.009594e-01 5.878206e-01 5.880933e-01 9.355919e-01 5.970008e-01 5.484527e-01 5.330949e-01 6.796510e-01 5.925293e-01 4.008230e-01 5.545190e-03
<GCONST> 1.119327e+02
<STATE> 4
<MEAN> 39
 2.839381e+00 2.502082e+00 6.761122e-01 -2.557609e+00 -3.610130e-01 4.889883e+00 -8.855063e+00 -5.606809e+00 1.282928e+00 5.224185e+00 -1.475978e+00 -3.304045e-01 1.858001e+01 3.568723e-02 -1.089355e-01 -1.385487e-01 -1.994878e-01 -2.021515e-01 -2.017963e-02 -2.669458e-01 5.047799e-02 1.197123e-01 1.250339e-01 3.622220e-02 -3.075615e-02 4.635452e-02 -1.001575e-01 -5.999203e-02 7.583175e-03 1.283141e-01 6.839373e-02 -7.877506e-02 5.437558e-02 3.156259e-02 2.003336e-02 -6.305765e-02 -1.585201e-02 -4.719103e-02 -1.746236e-02
<VARIANCE> 39
 2.511159e+01 3.306129e+01 5.163561e+01 1.267666e+02 3.584633e+01 7.075603e+01 5.481700e+01 5.882176e+01 4.606703e+01 6.153241e+01 5.233880e+01 4.984950e+01 3.162596e+00 7.265080e-01 1.383021e+00 1.707699e+00 3.318944e+00 2.702178e+00 2.265783e+00 3.187115e+00 2.688835e+00 3.106906e+00 3.745321e+00 3.161327e+00 2.474589e+00 4.505165e-02 1.519983e-01 2.600318e-01 3.222329e-01 6.192448e-01 5.142852e-01 4.919543e-01 6.473217e-01 5.464155e-01 6.305088e-01 7.544000e-01 6.764466e-01 4.923552e-01 3.743490e-03
<GCONST> 1.124948e+02
<TRANSP> 5
 0.000000e+00 1.000000e+00 0.000000e+00 0.000000e+00 0.000000e+00
 0.000000e+00 4.391946e-01 5.608053e-01 0.000000e+00 0.000000e+00
 0.000000e+00 0.000000e+00 5.636185e-01 4.363816e-01 0.000000e+00
 0.000000e+00 0.000000e+00 0.000000e+00 8.690682e-01 1.309317e-01
 0.000000e+00 0.000000e+00 0.000000e+00 0.000000e+00 0.000000e+00
<ENDHMM>
~h "d"
<BEGINHMM>
<NUMSTATES> 5
<STATE> 2
<MEAN> 39
 -3.072360e+00 7.254366e+00 8.048596e+00 3.213991e+00 7.208278e-01 -2.385856e+00 -5.556474e+00 -3.451913e+00 -5.388131e-01 1.478076e-02 -2.781086e+00 -1.368428e+00 1.723586e+01 -1.374446e+00 -9.055759e-01 -6.440593e-01 -7.310832e-01 6.639247e-01 1.762846e-01 9.249814e-01 -3.346194e-02 -6.328338e-01 -3.500817e-01 4.627472e-01 3.396914e-01 -1.720617e-01 -1.104209e-01 -3.194643e-01 -1.898619e-01 -1.247955e-01 -3.180638e-02 3.775681e-02 7.042892e-03 1.730418e-01 4.817080e-02 -4.587950e-02 8.664811e-02 7.864448e-02 4.660515e-04
<VARIANCE> 39
 3.346997e+01 3.514807e+01 2.933115e+01 2.900916e+01 4.123600e+01 5.813194e+01 4.776827e+01 3.759853e+01 3.539625e+01 3.351672e+01 3.527599e+01 2.838400e+01 4.448323e+00 2.509030e+00 3.326761e+00 2.245625e+00 2.787591e+00 3.687334e+00 4.773504e+00 5.062084e+00 4.176813e+00 3.591757e+00 3.320577e+00 3.283046e+00 2.669658e+00 3.840590e-02 3.604103e-01 4.360711e-01 3.275556e-01 4.640403e-01 6.307747e-01 6.895701e-01 9.761162e-01 6.750795e-01 6.639019e-01 6.868989e-01 6.156225e-01 5.194919e-01 4.250261e-03
<GCONST> 1.151447e+02
<STATE> 3
<MEAN> 39
 -7.907029e+00 2.495214e+00 4.419363e+00 2.393594e+00 2.320075e+00 -1.074857e+00 -1.496141e+00 -1.688381e+00 -9.044024e-01 -9.333323e-01 -2.192256e+00 -4.434510e-01 1.590125e+01 -6.176342e-01 -4.555494e-01 -6.483958e-01 -4.751185e-01 -9.199345e-02 -2.888136e-01 1.920486e-01 3.370852e-01 4.423206e-02 2.828896e-02 4.419875e-01 3.952242e-01 -1.505415e-01 2.547409e-01 2.251900e-01 1.192206e-01 8.932989e-02 -2.299819e-01 -1.831635e-01 -3.316020e-01 -2.746177e-02 2.144778e-01 1.171860e-01 -6.768095e-02 -7.600207e-04 3.042777e-02
<VARIANCE> 39
 3.456948e+01 2.628033e+01 2.349451e+01 2.505719e+01 3.445068e+01 4.179278e+01 4.810967e+01 4.075647e+01 3.783829e+01 3.554247e+01 3.273847e+01 2.167484e+01 6.959402e+00 1.423732e+00 2.474646e+00 1.850504e+00 2.744545e+00 2.306638e+00 2.769940e+00 2.702703e+00 3.403271e+00 3.093608e+00 3.343454e+00 3.159280e+00 2.264002e+00 5.663276e-02 3.022228e-01 4.940194e-01 3.813158e-01 4.974381e-01 5.724134e-01 6.607416e-01 6.723428e-01 7.101792e-01 7.981819e-01 7.777082e-01 7.001294e-01 4.693099e-01 3.965847e-03
<GCONST> 1.114243e+02
<STATE> 4
<MEAN> 39
 -1.258574e+01 2.167628e+00 3.229250e+00 -2.200946e-01 -8.962201e-01 -5.601030e+00 -4.029816e+00 -1.870898e+00 2.776412e+00 -2.349838e-01 1.530114e-02 1.371284e+00 1.621985e+01 2.841915e-01 1.043695e-01 2.098140e-01 -1.947678e-02 -2.037605e-01 -2.013542e-01 -4.778360e-01 6.360114e-02 3.071398e-01 6.996370e-02 -1.409047e-01 6.036255e-02 1.813732e-01 1.449629e-01 -6.919559e-03 5.434105e-02 3.868485e-02 -4.501613e-02 6.279236e-02 -9.837934e-02 1.018821e-03 -2.487547e-02 9.175987e-03 -5.784689e-02 -5.720165e-02 1.595761e-02
<VARIANCE> 39
 6.049974e+01 4.362035e+01 4.900669e+01 4.245444e+01 4.771012e+01 4.509834e+01 5.339982e+01 4.435246e+01 3.980598e+01 3.825646e+01 2.966504e+01 2.269144e+01 6.639597e+00 2.665580e+00 3.418910e+00 3.148775e+00 3.343228e+00 3.531129e+00 4.159332e+00 4.801442e+00 3.461013e+00 3.416582e+00 3.278173e+00 2.997547e+00 2.606499e+00 1.681778e-01 3.282992e-01 6.766462e-01 5.860200e-01 6.358277e-01 7.121075e-01 8.350198e-01 9.261123e-01 6.963733e-01 6.998577e-01 6.528996e-01 6.553469e-01 5.582631e-01 2.341365e-02
<GCONST> 1.221299e+02
<TRANSP> 5
 0.000000e+00 1.000000e+00 0.000000e+00 0.000000e+00 0.000000e+00
 0.000000e+00 4.747271e-01 5.252729e-01 0.000000e+00 0.000000e+00
 0.000000e+00 0.000000e+00 6.443457e-01 3.556543e-01 0.000000e+00
 0.000000e+00 0.000000e+00 0.000000e+00 8.033792e-01 1.966208e-01
 0.000000e+00 0.000000e+00 0.000000e+00 0.000000e+00 0.000000e+00
<ENDHMM>
~h "e"
<BEGINHMM>
<NUMSTATES> 5
<STATE> 2
<MEAN> 39
 -1.135437e+00 -5.827559e+00 1.524193e+00 -3.661685e+00 -8.361583e+00 -3.473632e+00 -9.452134e+00 8.874791e+00 6.804346e+00 3.768891e+00 -4.504509e+00 -2.359277e+00 1.923819e+01 2.362341e-01 -4.210908e-01 -2.140702e-01 -1.199236e-01 -2.807018e-01 6.553018e-03 -1.826313e-01 3.195807e-01 2.097496e-01 1.705698e-01 -2.045316e-02 -1.247882e-01 8.037365e-02 -9.321500e-02 1.665807e-02 2.665690e-02 8.143008e-02 9.243137e-02 -8.671588e-03 1.015892e-01 -3.534457e-02 -7.201225e-02 -4.616312e-02 -3.054416e-03 -1.981034e-02 -2.253931e-02
<VARIANCE> 39
 1.495566e+01 3.936779e+01 3.830994e+01 3.577279e+01 4.155381e+01 5.888004e+01 6.183207e+01 5.915139e+01 4.262346e+01 3.768212e+01 4.156193e+01 3.473663e+01 1.991406e+00 8.605826e-01 2.486844e+00 1.404822e+00 2.977913e+00 2.756507e+00 3.335560e+00 3.722605e+00 3.868474e+00 3.985709e+00 2.806208e+00 2.418074e+00 2.139901e+00 4.207765e-02 1.764193e-01 4.877650e-01 2.719590e-01 5.826744e-01 5.558541e-01 6.919252e-01 7.016683e-01 7.715396e-01 8.122264e-01 5.475505e-01 5.016434e-01 4.429756e-01 4.905834e-03
<GCONST> 1.111026e+02
<STATE> 3
<MEAN> 39
 1.755330e+00 -9.250663e+00 2.248077e+00 -1.939827e+00 -1.003475e+01 -2.008582e+00 -1.107764e+01 1.101652e+01 4.298203e+00 2.890898e+00 -2.997137e+00 -4.302440e+00 2.075157e+01 4.832026e-03 -5.497576e-03 5.632465e-02 2.317842e-02 -7.947508e-04 -7.813626e-02 -3.066910e-02 9.288791e-02 -9.853780e-02 2.933136e-02 -1.776527e-02 6.741995e-02 -3.766114e-04 -4.943461e-04 3.702264e-02 2.562297e-03 -1.227385e-03 2.234005e-02 -9.578823e-04 1.369379e-03 -3.571721e-02 -2.782182e-03 1.400941e-03 1.290621e-02 1.075499e-02 -2.595624e-03
<VARIANCE> 39
 4.457284e+00 1.939614e+01 3.327596e+01 1.954168e+01 2.805696e+01 2.617556e+01 4.069999e+01 2.876067e+01 4.041819e+01 2.519076e+01 2.432284e+01 2.725316e+01 2.268905e-01 2.100966e-01 8.715132e-01 5.015853e-01 7.358312e-01 9.415371e-01 1.252847e+00 1.188648e+00 1.374878e+00 2.092757e+00 1.305497e+00 1.069895e+00 8.414282e-01 1.333360e-03 3.193088e-02 1.017066e-01 7.094570e-02 1.094002e-01 1.436139e-01 1.786460e-01 1.823190e-01 1.988722e-01 2.716276e-01 1.879348e-01 1.675950e-01 1.384565e-01 1.225297e-04
<GCONST> 6.714535e+01
<STATE> 4
<MEAN> 39
 1.137130e+00 -5.048937e+00 -1.761689e-01 -8.257628e-01 -6.127977e+00 -5.108001e+00 -9.649175e+00 9.124698e+00 4.448786e+00 3.871797e+00 -5.525683e+00 -9.688856e-01 2.004541e+01 -3.225721e-02 2.742969e-01 1.021538e-01 1.241645e-01 2.933035e-01 1.122649e-02 1.346280e-01 -3.952563e-01 -1.549011e-01 4.489692e-03 4.223027e-02 5.183482e-02 -3.585354e-02 -1.463750e-02 1.348645e-02 3.964601e-02 1.998370e-02 3.960728e-02 1.769559e-02 4.577638e-02 -7.438130e-02 -3.364946e-02 -2.295810e-02 5.809806e-02 -2.710635e-02 -7.106031e-03
<VARIANCE> 39
 6.679443e+00 1.810833e+01 2.592660e+01 1.918200e+01 2.572074e+01 3.352031e+01 4.541346e+01 3.460183e+01 4.222146e+01 2.603078e+01 2.551733e+01 2.126334e+01 2.268905e-01 6.240707e-01 1.446239e+00 1.020603e+00 1.441666e+00 1.821940e+00 2.777549e+00 3.475085e+00 2.293015e+00 3.687197e+00 2.281426e+00 1.683155e+00 1.472399e+00 4.659170e-03 1.217255e-01 2.562661e-01 1.969821e-01 2.696050e-01 3.450425e-01 5.518480e-01 6.860378e-01 4.089414e-01 6.878248e-01 4.512341e-01 3.193709e-01 2.802794e-01 3.447836e-04
<GCONST> 8.937672e+01
<TRANSP> 5
 0.000000e+00 1.000000e+00 0.000000e+00 0.000000e+00 0.000000e+00
 0.000000e+00 8.706132e-01 1.293869e-01 0.000000e+00 0.000000e+00
 0.000000e+00 0.000000e+00 9.508134e-01 4.918659e-02 0.000000e+00
 0.000000e+00 0.000000e+00 0.000000e+00 8.740458e-01 1.259542e-01
 0.000000e+00 0.000000e+00 0.000000e+00 0.000000e+00 0.000000e+00
<ENDHMM>
~h "f"
<BEGINHMM>
<NUMSTATES> 5
<STATE> 2
<MEAN> 39
 -1.503403e+01 -1.923232e+00 2.900829e+00 3.305534e+00 2.217242e-01 -1.999442e+00 -3.955559e+00 -1.661558e+00 3.006854e+00 2.421254e-01 2.145569e-01 8.478708e-01 1.621835e+01 -8.195347e-01 -3.221299e-01 -1.582479e-01 2.411158e-02 -1.059626e-01 -9.512299e-02 7.885823e-02 -6.115440e-02 -1.239448e-01 -1.207585e-01 3.128697e-02 -1.317447e-01 -1.912819e-01 5.948068e-02 -2.943186e-02 -8.312115e-02 -7.469348e-02 -3.176025e-02 2.181097e-02 -3.124065e-02 1.099080e-02 -1.749849e-02 2.597745e-02 -3.321658e-03 3.988271e-03 1.107298e-02
<VARIANCE> 39
 4.544604e+01 1.618216e+01 3.240712e+01 3.443864e+01 4.334830e+01 4.875315e+01 3.734187e+01 2.948394e+01 3.276772e+01 3.193953e+01 3.338489e+01 3.006461e+01 2.920187e+00 8.557971e-01 9.515023e-01 1.461560e+00 2.285357e+00 2.454773e+00 3.014308e+00 3.320132e+00 2.877106e+00 3.328420e+00 3.794780e+00 3.107808e+00 2.566158e+00 2.562431e-02 1.128351e-01 1.555786e-01 2.879652e-01 4.425183e-01 4.805815e-01 6.093946e-01 7.000104e-01 5.928685e-01 7.171896e-01 8.329287e-01 6.614726e-01 5.633908e-01 2.062509e-03
<GCONST> 1.052024e+02
<STATE> 3
<MEAN> 39
 -2.189342e+01 -8.719372e+00 -3.327937e+00 1.263700e+00 -1.506001e+00 -2.288045e+00 -3.078960e+00 -9.750314e-01 3.072768e+00 1.098704e+00 2.285123e+00 1.284420e+00 1.474225e+01 7.692542e-02 -9.204813e-02 -8.730757e-02 -5.298177e-02 -8.977310e-03 6.060609e-03 2.250667e-02 2.959451e-02 7.806144e-02 1.105181e-01 8.002968e-02 5.685612e-02 -5.096957e-03 6.565551e-02 5.827956e-02 5.491752e-02 1.048475e-02 2.443049e-02 1.165399e-02 1.129311e-02 -1.154316e-02 -6.641838e-03 -1.680906e-02 -2.901633e-02 -3.475569e-03 4.800957e-03
<VARIANCE> 39
 9.908888e+00 1.155628e+01 2.470777e+01 2.454456e+01 3.041007e+01 3.348226e+01 3.124125e+01 3.209595e+01 3.335303e+01 3.081255e+01 3.029593e+01 2.635198e+01 8.502760e-01 4.691327e-01 7.572612e-01 1.295255e+00 1.764853e+00 2.704983e+00 3.225060e+00 3.470033e+00 3.193294e+00 3.403445e+00 3.503469e+00 3.339788e+00 3.022280e+00 1.627874e-02 8.180144e-02 1.599042e-01 2.573259e-01 3.721566e-01 5.761079e-01 6.917799e-01 7.826422e-01 6.961104e-01 7.286262e-01 7.738218e-01 7.342239e-01 6.617726e-01 1.741814e-03
<GCONST> 9.929547e+01
<STATE> 4
<MEAN> 39
 -9.663240e+00 -3.699039e+00 -1.397003e+00 1.205892e+00 -8.072541e-01 -4.003845e-01 -3.615483e+00 -1.780223e+00 2.009568e+00 1.831027e+00 1.276649e+00 -1.670749e-01 1.641150e+01 2.338245e+00 1.018123e+00 1.627872e-01 -1.940023e-01 -3.358175e-01 3.479872e-01 -4.452416e-01 1.208613e-01 -5.977941e-01 -1.492904e-02 -1.237136e-01 2.543262e-02 4.518971e-01 6.129478e-02 -7.259113e-02 -1.928287e-01 -1.009797e-01 -1.689376e-01 -8.268843e-02 -1.814430e-01 9.368760e-02 -3.383171e-02 6.273317e-02 1.463755e-01 1.272032e-01 3.493877e-02
<VARIANCE> 39
 6.864993e+01 2.663493e+01 6.831360e+01 3.745496e+01 4.070848e+01 5.706151e+01 3.454032e+01 3.264556e+01 3.594227e+01 4.134222e+01 3.023225e+01 2.863535e+01 3.809300e+00 2.010930e+00 2.328943e+00 3.077152e+00 3.975183e+00 4.240296e+00 4.267956e+00 4.021600e+00 3.280047e+00 3.550148e+00 4.142870e+00 3.772621e+00 3.006131e+00 1.947538e-01 4.226965e-01 4.754438e-01 4.958157e-01 6.922103e-01 8.060292e-01 8.497266e-01 7.291126e-01 6.301079e-01 7.157128e-01 8.271766e-01 8.121896e-01 5.767383e-01 3.288791e-02
<GCONST> 1.216955e+02
<TRANSP> 5
 0.000000e+00 1.000000e+00 0.000000e+00 0.000000e+00 0.000000e+00
 0.000000e+00 9.263420e-01 7.365806e-02 0.000000e+00 0.000000e+00
 0.000000e+00 0.000000e+00 9.577107e-01 4.228925e-02 0.000000e+00
 0.000000e+00 0.000000e+00 0.000000e+00 8.619725e-01 1.380276e-01
 0.000000e+00 0.000000e+00 0.000000e+00 0.000000e+00 0.000000e+00
<ENDHMM>
~h "g"
<BEGINHMM>
<NUMSTATES> 5
<STATE> 2
<MEAN> 39
 -1.784367e+00 1.505538e+00 1.535367e+00 -1.149394e+00 -1.399227e+00 1.024847e+00 -6.503908e+00 -9.507929e-01 -8.334819e+00 3.797293e+00 4.250535e+00 -3.811984e+00 1.666728e+01 -7.640944e-01 -3.790319e-01 -3.055721e-01 -6.203332e-01 6.468126e-01 3.840165e-01 2.975862e-01 -3.514869e-01 3.504001e-01 4.630057e-01 -2.620794e-01 1.763027e-01 -1.781644e-01 -1.085338e-01 -2.500317e-01 7.219082e-02 2.538439e-01 9.325591e-02 -2.224027e-01 -1.794495e-01 4.685187e-02 2.355814e-01 -1.188790e-01 -1.800703e-01 8.868580e-02 3.968289e-02
<VARIANCE> 39
 3.017318e+01 3.749569e+01 9.237354e+01 4.255993e+01 4.551812e+01 4.110001e+01 6.709300e+01 3.183629e+01 6.849874e+01 6.009070e+01 3.992113e+01 5.044529e+01 2.439285e+00 6.662967e-01 2.855635e+00 3.160297e+00 3.089747e+00 3.216059e+00 3.742087e+00 4.684571e+00 2.711266e+00 4.533439e+00 3.108178e+00 2.966351e+00 3.867090e+00 4.459651e-02 1.177555e-01 6.351374e-01 5.155379e-01 6.274410e-01 5.001612e-01 5.429917e-01 7.696338e-01 5.088292e-01 6.483682e-01 6.385715e-01 6.250119e-01 7.195565e-01 5.049197e-03
<GCONST> 1.160028e+02
<STATE> 3
<MEAN> 39
 -1.184283e+01 1.148426e+00 3.677703e+00 -3.013363e+00 -1.235702e+00 -2.499049e+00 -7.201737e+00 -1.477634e+00 -2.004200e+00 2.094343e+00 1.086311e+00 9.788563e-01 1.589466e+01 -3.959826e-01 -1.749422e-01 1.489298e-01 -3.595884e-01 3.148575e-01 -2.208016e-03 2.445169e-02 -8.065353e-02 3.732020e-01 -6.917459e-04 -1.802526e-01 1.610193e-01 5.446926e-02 1.554142e-01 1.739169e-02 5.270834e-02 1.366155e-01 -2.120277e-02 1.494832e-02 6.939474e-02 6.497771e-02 -1.906831e-02 -1.222533e-01 -4.138119e-02 -8.073995e-02 5.647587e-02
<VARIANCE> 39
 5.169912e+01 3.353934e+01 9.092313e+01 4.412105e+01 3.082412e+01 3.750409e+01 3.858476e+01 2.059600e+01 4.346731e+01 3.728339e+01 3.409138e+01 2.039259e+01 3.379555e+00 1.468595e+00 3.808601e+00 3.015711e+00 3.799005e+00 2.270368e+00 3.160042e+00 2.430287e+00 2.138992e+00 3.086963e+00 2.946187e+00 3.019074e+00 2.225575e+00 6.215183e-02 1.325755e-01 5.359142e-01 4.489808e-01 6.668913e-01 4.543074e-01 6.562831e-01 5.190296e-01 3.694077e-01 7.008366e-01 5.728374e-01 6.418786e-01 4.350623e-01 1.051095e-02
<GCONST> 1.119734e+02
<STATE> 4
<MEAN> 39
 -6.914173e+00 -3.104412e+00 8.639969e-01 -1.780738e+00 1.765632e+00 -9.545744e-01 -6.955091e+00 -1.736244e+00 -2.771742e+00 3.947312e+00 2.624690e+00 -3.621835e-01 1.710810e+01 5.726799e-01 3.222085e-01 3.640347e-01 2.153226e-01 -2.095759e-01 -2.843109e-01 -3.440848e-01 1.269661e-01 1.953707e-01 -4.922293e-02 1.309099e-01 -2.506442e-02 2.681081e-01 1.269994e-01 6.369013e-02 -4.681100e-02 -6.099587e-02 -2.252304e-01 -7.474963e-02 -1.324381e-01 8.206668e-02 -4.969471e-02 -3.279660e-02 9.618790e-02 2.048733e-02 6.863803e-03
<VARIANCE> 39
 4.110947e+01 6.404627e+01 1.112880e+02 5.700412e+01 7.241613e+01 5.730538e+01 6.977591e+01 4.855674e+01 3.517360e+01 4.089458e+01 5.252333e+01 2.729408e+01 2.653430e+00 2.449182e+00 4.550365e+00 3.255322e+00 4.604500e+00 5.391426e+00 4.296929e+00 4.208316e+00 3.640971e+00 3.542202e+00 3.460236e+00 3.865342e+00 2.507447e+00 9.816668e-02 3.046604e-01 8.226101e-01 5.630620e-01 8.403745e-01 9.274457e-01 8.215975e-01 7.949464e-01 7.657599e-01 6.991798e-01 6.983020e-01 7.689698e-01 5.325816e-01 1.628263e-02
<GCONST> 1.251012e+02
<TRANSP> 5
 0.000000e+00 1.000000e+00 0.000000e+00 0.000000e+00 0.000000e+00
 0.000000e+00 4.975216e-01 5.024784e-01 0.000000e+00 0.000000e+00
 0.000000e+00 0.000000e+00 7.453809e-01 2.546191e-01 0.000000e+00
 0.000000e+00 0.000000e+00 0.000000e+00 8.518279e-01 1.481721e-01
 0.000000e+00 0.000000e+00 0.000000e+00 0.000000e+00 0.000000e+00
<ENDHMM>
~h "h"
<BEGINHMM>
<NUMSTATES> 5
<STATE> 2
<MEAN> 39
 -1.548509e+01 -7.462510e+00 6.460666e-01 -5.019381e+00 -4.210315e+00 -8.815393e-01 -6.106045e-01 6.739495e-01 2.859928e+00 -8.762553e-01 9.436079e-01 3.196290e+00 1.483973e+01 8.761611e-02 -8.373915e-02 3.976145e-02 4.702818e-02 -2.588491e-03 1.788081e-01 4.862678e-02 5.636715e-02 -5.153318e-02 -1.153418e-01 -5.711289e-02 -4.135813e-02 5.653307e-02 5.365055e-02 7.233905e-02 3.380452e-02 6.875835e-02 3.959157e-02 3.100574e-02 -2.129407e-03 9.757689e-03 -1.659080e-02 3.874425e-03 -2.665720e-02 -3.060306e-02 1.801573e-02
<VARIANCE> 39
 4.080096e+01 3.851669e+01 7.945293e+01 4.866498e+01 5.084099e+01 5.584276e+01 3.737703e+01 4.555048e+01 3.430845e+01 3.630521e+01 2.895538e+01 3.121074e+01 3.577258e+00 6.012439e-01 1.080753e+00 1.549739e+00 2.389016e+00 2.678421e+00 3.452328e+00 3.568669e+00 3.765719e+00 3.464200e+00 3.838220e+00 3.184801e+00 2.850824e+00 3.712218e-02 9.903421e-02 1.753643e-01 2.903472e-01 4.514937e-01 5.594780e-01 7.322351e-01 7.732427e-01 7.912360e-01 7.344819e-01 8.082453e-01 6.675418e-01 6.078914e-01 5.022333e-03
<GCONST> 1.109109e+02
<STATE> 3
<MEAN> 39
 -8.031388e+00 -8.034012e+00 -6.471428e-01 8.794094e-01 -1.709894e+00 5.205075e+00 1.883528e+00 3.268093e+00 2.243683e+00 -2.040261e+00 -1.097184e+00 -1.501265e+00 1.763492e+01 4.987993e-01 2.894333e-01 1.736015e-01 2.777202e-01 -1.043250e-01 -5.440677e-02 -2.106109e-01 -4.394977e-02 -1.014835e-01 -5.692339e-02 -1.490913e-03 -1.358316e-01 1.678629e-01 9.610982e-03 -3.843905e-02 -5.495017e-02 -1.269573e-01 -1.296622e-01 -1.087076e-01 -9.314257e-02 2.559117e-03 1.722888e-02 7.015254e-02 9.590904e-02 4.716231e-02 -6.029958e-03
<VARIANCE> 39
 1.761885e+01 8.350301e+01 8.900517e+01 4.070650e+01 7.384622e+01 4.652340e+01 5.751271e+01 4.447522e+01 3.692827e+01 3.377073e+01 3.055143e+01 3.092139e+01 1.011527e+00 1.014808e+00 1.574955e+00 1.601966e+00 2.508430e+00 3.142426e+00 2.820361e+00 3.054043e+00 3.105896e+00 3.463342e+00 2.875703e+00 2.973571e+00 2.612919e+00 1.041558e-01 9.506390e-02 2.622692e-01 2.993381e-01 4.787620e-01 6.677961e-01 6.261515e-01 6.572847e-01 6.722886e-01 7.736876e-01 6.243217e-01 6.208501e-01 5.608667e-01 5.237045e-03
<GCONST> 1.111667e+02
<STATE> 4
<MEAN> 39
 -3.666073e+00 -4.237963e+00 3.112567e+00 4.117370e+00 -6.126940e+00 5.638119e-01 2.882899e+00 6.162501e+00 6.262547e-01 -1.795881e+00 -1.820537e+00 -1.604259e+00 1.895916e+01 2.293677e-01 2.949092e-02 -1.789307e-01 -1.697199e-01 -1.848771e-01 -1.530519e-01 -1.452748e-01 4.406047e-02 4.148512e-02 1.885494e-01 1.658848e-02 -6.493360e-03 5.775492e-02 -2.587018e-02 -2.087083e-02 -3.147834e-02 -1.690258e-02 2.794713e-02 2.437360e-02 -1.204029e-02 -2.726291e-02 -1.525461e-02 1.548228e-02 -9.427971e-03 -1.467494e-02 -7.493844e-03
<VARIANCE> 39
 1.048276e+01 1.977345e+01 4.353941e+01 2.669717e+01 3.836104e+01 2.830926e+01 4.322427e+01 2.994559e+01 2.802028e+01 2.796970e+01 2.783443e+01 3.155804e+01 3.603730e-01 5.340480e-01 7.510537e-01 9.542521e-01 2.572691e+00 2.014492e+00 2.664211e+00 2.891279e+00 2.320491e+00 2.383075e+00 2.889401e+00 1.876231e+00 1.930346e+00 9.725108e-03 1.089002e-01 1.406596e-01 1.976032e-01 5.296824e-01 4.014552e-01 5.464813e-01 6.098473e-01 4.722014e-01 4.991139e-01 6.062896e-01 3.893121e-01 4.192226e-01 1.105366e-03
<GCONST> 9.378561e+01
<TRANSP> 5
 0.000000e+00 1.000000e+00 0.000000e+00 0.000000e+00 0.000000e+00
 0.000000e+00 9.250785e-01 7.492155e-02 0.000000e+00 0.000000e+00
 0.000000e+00 0.000000e+00 8.830156e-01 1.169843e-01 0.000000e+00
 0.000000e+00 0.000000e+00 0.000000e+00 8.668349e-01 1.331651e-01
 0.000000e+00 0.000000e+00 0.000000e+00 0.000000e+00 0.000000e+00
<ENDHMM>
~h "i"
<BEGINHMM>
<NUMSTATES> 5
<STATE> 2
<MEAN> 39
 -5.822275e+00 1.377679e+00 1.025062e+01 1.343023e+00 -6.988049e+00 -6.037045e+00 -7.710851e+00 1.478399e+00 -3.099284e-02 8.354166e-01 1.309659e-01 2.087042e+00 1.801036e+01 5.531044e-01 -2.775126e-01 2.254549e-01 -2.611723e-01 -4.787322e-01 -2.025679e-01 -5.184160e-01 3.345524e-01 -1.571137e-01 9.435014e-02 2.557802e-01 7.288394e-03 1.824721e-01 -7.106087e-02 -2.916902e-02 -6.230981e-02 -9.517125e-03 4.199028e-02 3.892109e-02 3.177365e-02 6.713430e-03 -6.893561e-03 -1.417941e-02 -7.531708e-05 -1.534011e-02 -2.254273e-02
<VARIANCE> 39
 5.782299e+01 3.465707e+01 4.758802e+01 3.765287e+01 6.104126e+01 5.357578e+01 5.937698e+01 4.204677e+01 4.103643e+01 2.938903e+01 3.712191e+01 3.539492e+01 4.559250e+00 1.422183e+00 2.151418e+00 1.723064e+00 2.798980e+00 2.659554e+00 3.675674e+00 3.852842e+00 2.848812e+00 2.744656e+00 2.612329e+00 2.810611e+00 2.635201e+00 1.012942e-01 1.956835e-01 4.275606e-01 3.291453e-01 5.618401e-01 5.038440e-01 7.277165e-01 7.367201e-01 5.840984e-01 5.703440e-01 5.099044e-01 5.972594e-01 5.495009e-01 7.809540e-03
<GCONST> 1.143124e+02
<STATE> 3
<MEAN> 39
 7.316304e-01 -2.681150e+00 1.067893e+01 9.303277e-01 -9.646840e+00 -7.624769e+00 -1.430837e+01 3.794077e+00 5.926371e-01 -2.443134e-01 1.729241e+00 1.476156e+00 2.047005e+01 1.127170e-02 2.608227e-02 -6.366654e-03 1.617592e-02 4.063799e-02 -1.906891e-02 -3.235310e-02 5.905690e-02 -4.278250e-02 1.054359e-02 -6.726305e-02 9.544404e-03 1.480570e-03 -3.001846e-02 5.454620e-02 -3.002399e-02 1.035619e-02 7.166065e-02 5.132970e-03 7.269251e-02 -6.387176e-02 2.198291e-02 3.067609e-02 -3.161506e-02 -1.187059e-02 -7.813019e-03
<VARIANCE> 39
 6.820670e+00 2.217627e+01 3.763287e+01 2.189795e+01 4.097857e+01 2.895672e+01 5.623823e+01 2.689056e+01 3.833183e+01 2.611503e+01 3.250221e+01 2.789293e+01 4.273643e-01 2.974541e-01 8.677880e-01 6.742920e-01 8.267952e-01 1.346352e+00 1.987249e+00 1.957221e+00 1.441031e+00 1.513645e+00 1.276042e+00 1.257332e+00 1.385466e+00 3.784099e-03 4.912281e-02 1.346872e-01 1.148906e-01 1.517669e-01 2.331270e-01 3.336072e-01 3.374708e-01 2.604707e-01 2.531826e-01 2.344034e-01 2.331242e-01 2.335475e-01 2.252596e-04
<GCONST> 7.821176e+01
<STATE> 4
<MEAN> 39
 -4.029430e-01 8.190520e-01 7.454350e+00 1.371104e-01 -5.044359e+00 -7.731966e+00 -1.104804e+01 2.035466e+00 2.336185e+00 3.379818e+00 -2.324334e+00 1.472309e+00 1.936928e+01 -2.315539e-01 4.241632e-01 -1.042946e-01 1.314133e-01 4.944253e-01 5.225477e-02 5.280300e-01 -2.540345e-01 6.407938e-02 2.312350e-02 -1.650592e-01 -1.341579e-01 -7.568380e-02 -4.646070e-02 1.118149e-02 1.072558e-02 1.273339e-02 6.293516e-02 8.583015e-02 7.177689e-02 -3.260770e-02 -3.831461e-02 -3.291631e-02 2.552580e-02 -3.660280e-02 -9.566491e-03
<VARIANCE> 39
 1.416097e+01 2.719212e+01 2.870112e+01 3.577320e+01 4.456102e+01 4.994070e+01 7.332735e+01 4.231655e+01 4.752826e+01 3.383556e+01 3.431276e+01 3.335378e+01 8.983458e-01 8.686880e-01 1.377620e+00 1.206382e+00 1.907010e+00 2.826828e+00 3.563089e+00 4.463143e+00 2.490900e+00 3.097708e+00 2.222909e+00 2.123520e+00 2.149752e+00 1.552679e-02 1.347847e-01 2.536446e-01 2.195266e-01 3.837188e-01 5.537376e-01 7.508784e-01 9.093817e-01 5.077365e-01 6.199046e-01 4.553139e-01 4.188452e-01 4.262684e-01 1.020196e-03
<GCONST> 1.022686e+02
<TRANSP> 5
 0.000000e+00 1.000000e+00 0.000000e+00 0.000000e+00 0.000000e+00
 0.000000e+00 8.020443e-01 1.979557e-01 0.000000e+00 0.000000e+00
 0.000000e+00 0.000000e+00 8.956831e-01 1.043170e-01 0.000000e+00
 0.000000e+00 0.000000e+00 0.000000e+00 7.897939e-01 2.102061e-01
 0.000000e+00 0.000000e+00 0.000000e+00 0.000000e+00 0.000000e+00
<ENDHMM>
~h "k"
<BEGINHMM>
<NUMSTATES> 5
<STATE> 2
<MEAN> 39
 -1.675045e+01 -5.959730e+00 3.304497e+00 -5.785580e+00 -5.790694e+00 -5.079245e+00 -4.090566e+00 4.195435e-01 -2.090524e-01 4.235317e+00 1.840260e+00 1.709260e+00 1.557126e+01 -2.135241e-01 6.223917e-02 5.480477e-02 -1.165367e-02 1.870693e-01 -8.242597e-02 2.516007e-01 5.155200e-02 4.020808e-01 -1.209822e-01 6.345017e-02 2.601691e-01 -1.587633e-02 6.450854e-02 -4.391569e-02 -1.967774e-02 9.533753e-02 1.138142e-01 6.917529e-02 -1.839301e-03 1.677085e-02 -3.601944e-02 -5.884328e-02 -3.102128e-02 -3.080885e-02 1.684747e-02
<VARIANCE> 39
 2.174667e+01 2.235192e+01 2.516331e+01 3.656625e+01 3.822429e+01 5.252099e+01 3.866463e+01 4.269685e+01 3.391934e+01 3.536723e+01 2.949765e+01 2.979894e+01 1.288660e+00 9.622815e-01 1.466563e+00 1.604851e+00 2.234569e+00 2.969468e+00 3.660098e+00 3.156140e+00 3.149771e+00 3.434018e+00 3.865475e+00 3.204302e+00 3.198377e+00 3.845980e-02 1.729216e-01 2.749915e-01 3.456806e-01 4.284139e-01 6.005715e-01 7.731554e-01 6.561334e-01 7.123704e-01 6.887054e-01 8.268810e-01 6.696202e-01 7.087937e-01 6.697002e-03
<GCONST> 1.089850e+02
<STATE> 3
<MEAN> 39
 -1.287821e+01 -8.740603e+00 -8.579597e+00 -3.552876e+00 3.979225e+00 -6.992732e-01 -4.943780e+00 -3.997874e+00 2.599699e+00 5.479593e+00 3.016795e+00 9.008852e-01 1.580100e+01 1.826816e-01 2.069456e-01 1.406158e-01 3.608221e-01 4.358155e-01 6.636602e-01 3.111060e-01 -1.524967e-01 5.877156e-02 -2.500429e-01 -1.616411e-01 -3.931522e-02 5.633780e-02 1.344455e-01 1.354640e-01 1.212881e-01 1.099145e-01 9.529936e-03 6.626689e-02 -3.674380e-02 4.106712e-02 -7.764844e-02 -3.795348e-02 -5.023896e-02 -3.161146e-02 4.017271e-02
<VARIANCE> 39
 1.739133e+01 3.099817e+01 4.176573e+01 4.945133e+01 3.935125e+01 6.812661e+01 4.806414e+01 6.572745e+01 5.503235e+01 4.712217e+01 4.051934e+01 3.415429e+01 1.004298e+00 8.748287e-01 1.145813e+00 1.821345e+00 2.775761e+00 2.822444e+00 3.984353e+00 3.551116e+00 4.071452e+00 3.875458e+00 4.049541e+00 3.764077e+00 3.218159e+00 4.096663e-02 1.349939e-01 1.920205e-01 3.106701e-01 5.239443e-01 5.072500e-01 7.838952e-01 7.772206e-01 8.304281e-01 8.296226e-01 8.661445e-01 8.378072e-01 6.726019e-01 8.784139e-03
<GCONST> 1.129495e+02
<STATE> 4
<MEAN> 39
 -6.096918e+00 -5.771684e-01 3.851199e+00 1.998762e+00 8.879439e-01 1.353884e+00 -4.482593e+00 -3.334076e-01 -8.471429e-01 6.682810e-01 1.000596e+00 5.871137e-01 1.777352e+01 1.513574e+00 9.612845e-01 6.152408e-01 3.974337e-01 -6.891550e-01 -1.326819e-01 -8.454605e-01 2.636921e-01 -2.329194e-01 -4.802620e-01 2.258844e-02 -2.439503e-01 4.460068e-01 -3.271067e-02 -2.194394e-01 -2.813170e-01 -4.058219e-01 -3.956567e-01 -2.573644e-01 -2.149449e-01 3.775715e-02 8.921353e-02 1.833979e-01 2.064116e-01 2.962346e-02 -1.568649e-02
<VARIANCE> 39
 4.191604e+01 4.219533e+01 8.552689e+01 6.754478e+01 7.256030e+01 1.010409e+02 4.624979e+01 5.996569e+01 3.993247e+01 4.467804e+01 3.641271e+01 2.720638e+01 3.104091e+00 1.727745e+00 2.400746e+00 2.611764e+00 4.014548e+00 4.256497e+00 3.676465e+00 3.526356e+00 3.291747e+00 3.047815e+00 3.566913e+00 3.744780e+00 2.443533e+00 1.279725e-01 2.393074e-01 4.143672e-01 3.705088e-01 6.579159e-01 8.272693e-01 7.850751e-01 7.152072e-01 7.110887e-01 6.245445e-01 7.602928e-01 6.733423e-01 5.125995e-01 1.734313e-02
<GCONST> 1.209876e+02
<TRANSP> 5
 0.000000e+00 1.000000e+00 0.000000e+00 0.000000e+00 0.000000e+00
 0.000000e+00 8.697566e-01 1.302434e-01 0.000000e+00 0.000000e+00
 0.000000e+00 0.000000e+00 8.475723e-01 1.524277e-01 0.000000e+00
 0.000000e+00 0.000000e+00 0.000000e+00 7.752885e-01 2.247116e-01
 0.000000e+00 0.000000e+00 0.000000e+00 0.000000e+00 0.000000e+00
<ENDHMM>
~h "l"
<BEGINHMM>
<NUMSTATES> 5
<STATE> 2
<MEAN> 39
 -8.603448e-01 8.916822e+00 -4.379775e-01 -1.028545e+01 2.759576e+00 7.078673e+00 -9.703941e+00 -5.513974e+00 -2.139755e+00 2.402832e+00 2.665412e+00 2.861681e+00 1.825836e+01 5.836980e-01 1.489477e-01 -2.519868e-01 -7.934164e-01 -9.047970e-02 5.122313e-01 -7.590194e-01 -1.300979e-02 -2.049123e-01 -1.279465e-01 3.042232e-01 2.169376e-01 1.582614e-01 -1.115554e-01 -7.495911e-02 -3.766716e-02 6.481875e-02 7.540904e-03 -2.681913e-02 2.726417e-02 -3.209685e-03 1.124563e-02 -7.551557e-03 6.546450e-02 1.554786e-02 -2.956331e-02
<VARIANCE> 39
 2.158055e+01 3.016366e+01 3.705384e+01 1.021171e+02 2.496188e+01 6.819463e+01 7.577597e+01 4.801048e+01 6.533828e+01 5.174496e+01 4.059453e+01 3.637682e+01 3.343861e+00 1.328498e+00 1.368561e+00 1.932481e+00 5.363810e+00 2.543786e+00 3.928070e+00 5.876541e+00 4.050200e+00 3.215749e+00 3.222049e+00 3.397712e+00 2.718066e+00 7.433524e-02 2.174959e-01 2.697417e-01 4.137003e-01 1.008841e+00 5.541150e-01 8.095311e-01 1.084758e+00 7.476983e-01 6.564955e-01 6.588964e-01 6.889153e-01 5.528583e-01 7.541848e-03
<GCONST> 1.176220e+02
<STATE> 3
<MEAN> 39
 3.124714e+00 9.792633e+00 -2.894797e+00 -1.589587e+01 2.165480e+00 1.068440e+01 -1.646291e+01 -6.220364e+00 -3.649105e+00 -8.714792e-01 8.182477e+00 3.755349e+00 2.003395e+01 -5.574775e-03 -7.732078e-02 -9.488426e-02 -8.971799e-02 -5.315441e-03 5.737577e-02 -3.063939e-02 1.945552e-02 4.358353e-02 1.108170e-01 3.008069e-02 -2.471924e-02 1.239534e-02 -7.985810e-03 -3.491407e-02 2.103480e-03 3.290451e-02 -1.222837e-02 -1.856321e-02 2.260555e-02 2.489180e-02 3.913099e-02 2.499576e-02 -5.392465e-02 -3.458796e-02 6.359751e-04
<VARIANCE> 39
 4.285811e+00 2.836813e+01 1.996741e+01 4.809941e+01 2.061362e+01 3.089148e+01 6.277568e+01 4.548734e+01 4.537123e+01 4.974826e+01 3.166825e+01 3.578931e+01 5.497513e-01 3.668979e-01 8.362510e-01 7.352584e-01 2.113051e+00 1.393270e+00 1.984334e+00 3.193180e+00 2.094581e+00 2.265212e+00 2.175675e+00 2.164254e+00 2.199861e+00 4.089207e-03 7.059558e-02 1.141349e-01 1.341317e-01 3.712860e-01 2.664142e-01 3.747546e-01 5.903450e-01 3.818953e-01 3.843828e-01 3.754214e-01 3.963511e-01 3.582542e-01 2.459172e-04
<GCONST> 8.793459e+01
<STATE> 4
<MEAN> 39
 2.206789e+00 -2.233895e+00 -7.600514e+00 -1.254618e+01 7.964833e-02 1.072064e+01 -1.680930e+01 -6.273556e-01 7.831830e+00 6.531339e+00 -9.114843e-01 -6.232719e+00 2.050666e+01 -7.716169e-02 -4.528189e-01 6.651740e-02 4.325147e-01 -1.892295e-01 -1.709765e-01 1.933619e-01 2.694024e-01 3.736821e-01 1.957190e-03 -6.356679e-01 -3.872153e-01 6.824342e-03 -3.994377e-03 2.746141e-02 4.745562e-02 2.053438e-02 -4.500505e-03 -2.233030e-02 4.429894e-02 -1.354496e-02 -6.242507e-02 -7.644976e-02 3.943827e-02 6.466102e-02 -3.644625e-03
<VARIANCE> 39
 5.125252e+00 2.422895e+01 3.381793e+01 3.620275e+01 2.154612e+01 3.800760e+01 5.820469e+01 3.241179e+01 3.500148e+01 3.537206e+01 4.361049e+01 2.900225e+01 3.054770e-01 4.484146e-01 9.554561e-01 1.014148e+00 2.143379e+00 1.437450e+00 1.559281e+00 2.325168e+00 1.700690e+00 2.617413e+00 2.501035e+00 2.014270e+00 1.532884e+00 1.614575e-03 8.670799e-02 1.555248e-01 1.824954e-01 3.861004e-01 2.689396e-01 2.769130e-01 4.192365e-01 3.301353e-01 4.564820e-01 4.077748e-01 3.208712e-01 2.715850e-01 2.163581e-04
<GCONST> 8.553224e+01
<TRANSP> 5
 0.000000e+00 1.000000e+00 0.000000e+00 0.000000e+00 0.000000e+00
 0.000000e+00 8.489448e-01 1.510552e-01 0.000000e+00 0.000000e+00
 0.000000e+00 0.000000e+00 9.635797e-01 3.642037e-02 0.000000e+00
 0.000000e+00 0.000000e+00 0.000000e+00 9.199191e-01 8.008099e-02
 0.000000e+00 0.000000e+00 0.000000e+00 0.000000e+00 0.000000e+00
<ENDHMM>
~h "m"
<BEGINHMM>
<NUMSTATES> 5
<STATE> 2
<MEAN> 39
 1.225723e+00 3.890251e+00 6.723592e+00 1.419415e+00 3.295156e+00 1.005514e+00 -2.092818e+00 -4.880121e+00 -4.533271e+00 5.697061e+00 -3.001528e+00 -2.231577e+00 1.828976e+01 6.563379e-01 1.949037e-01 3.126545e-01 1.271453e-01 -8.690996e-02 -2.691724e-01 1.476939e-01 -4.886141e-01 -6.110631e-01 5.611026e-01 -2.638392e-01 6.213972e-03 1.978672e-01 -8.008563e-02 -6.383947e-02 -4.128848e-02 -6.861689e-02 -8.335920e-02 -2.867280e-02 -7.005125e-02 3.384726e-02 4.946478e-02 -2.506106e-02 5.999716e-02 3.748068e-02 -1.827971e-02
<VARIANCE> 39
 2.756965e+01 3.926273e+01 3.266555e+01 7.079376e+01 2.562301e+01 4.367426e+01 3.581515e+01 3.791414e+01 3.889408e+01 3.812159e+01 3.444846e+01 2.434208e+01 3.488974e+00 1.180921e+00 2.178739e+00 2.345822e+00 3.237389e+00 2.258679e+00 2.944787e+00 3.210484e+00 2.792061e+00 2.976983e+00 2.928250e+00 3.645755e+00 1.925772e+00 9.402113e-02 1.609426e-01 4.140956e-01 3.599353e-01 5.935680e-01 4.453127e-01 5.801755e-01 6.619722e-01 5.503325e-01 5.536278e-01 6.116243e-01 6.584166e-01 3.785173e-01 6.955901e-03
<GCONST> 1.106821e+02
<STATE> 3
<MEAN> 39
 5.686412e+00 9.548646e-01 9.788069e+00 2.197495e+00 5.371273e-01 -1.839735e+00 -3.689797e+00 -6.358596e+00 -7.998849e+00 6.900522e+00 -3.199103e+00 -3.781477e+00 2.001266e+01 -1.547878e-02 2.524007e-02 1.951976e-02 6.977264e-02 -2.511217e-02 -5.656585e-02 1.972926e-02 -1.130475e-01 -3.746569e-03 -2.657171e-02 -5.347045e-02 -8.667836e-03 1.554781e-03 -2.730944e-02 -1.056018e-02 -4.900578e-02 -3.171888e-02 -5.514351e-03 1.223488e-02 -1.488665e-02 3.862399e-02 6.361850e-02 -3.881621e-02 3.341461e-02 1.070835e-02 -7.757188e-04
<VARIANCE> 39
 4.680855e+00 2.458602e+01 1.530646e+01 3.160058e+01 2.120164e+01 3.977992e+01 2.958240e+01 3.745085e+01 3.820306e+01 3.652071e+01 4.034971e+01 2.899572e+01 2.268905e-01 3.111250e-01 9.241797e-01 6.976244e-01 9.680496e-01 1.023394e+00 1.424941e+00 1.473126e+00 1.889846e+00 1.496719e+00 1.732155e+00 1.385905e+00 1.076950e+00 1.460362e-03 5.827391e-02 1.593959e-01 1.427036e-01 1.914569e-01 2.122807e-01 2.708124e-01 2.839103e-01 3.506133e-01 3.006694e-01 3.109284e-01 2.756271e-01 2.019852e-01 1.239434e-04
<GCONST> 7.606421e+01
<STATE> 4
<MEAN> 39
 1.837135e+00 2.746201e+00 7.703154e+00 1.985486e+00 3.612044e+00 -1.506387e+00 -1.515697e+00 -6.419664e+00 -5.066689e+00 5.791037e+00 -5.373121e+00 -1.071532e+00 1.891792e+01 -1.863792e-01 -2.473357e-01 -4.619389e-01 -2.755522e-01 -8.843670e-02 2.997188e-01 -1.973983e-01 3.315456e-01 5.555387e-01 -4.341398e-01 3.411082e-01 -2.972288e-02 -3.594344e-02 7.615442e-02 -8.379162e-02 -1.791805e-02 -8.568011e-02 -1.100651e-01 8.322410e-02 -7.628425e-02 1.221871e-01 1.634067e-02 3.315237e-02 1.306367e-02 -1.218829e-02 -2.721717e-03
<VARIANCE> 39
 1.787851e+01 1.809667e+01 3.043303e+01 4.564483e+01 3.375574e+01 5.535069e+01 3.231892e+01 3.908113e+01 4.105413e+01 5.067584e+01 4.976660e+01 3.028852e+01 1.586704e+00 1.184118e+00 1.539628e+00 2.186064e+00 2.519447e+00 2.661136e+00 3.127429e+00 2.873706e+00 3.384277e+00 3.713742e+00 3.750733e+00 3.288236e+00 2.188663e+00 1.326689e-02 2.300627e-01 2.949751e-01 3.354580e-01 4.711829e-01 5.365924e-01 6.363183e-01 5.599957e-01 6.845211e-01 6.770192e-01 8.087338e-01 6.551588e-01 4.124577e-01 7.545153e-04
<GCONST> 1.061040e+02
<TRANSP> 5
 0.000000e+00 1.000000e+00 0.000000e+00 0.000000e+00 0.000000e+00
 0.000000e+00 7.842014e-01 2.157987e-01 0.000000e+00 0.000000e+00
 0.000000e+00 0.000000e+00 9.422510e-01 5.774897e-02 0.000000e+00
 0.000000e+00 0.000000e+00 0.000000e+00 8.702145e-01 1.297855e-01
 0.000000e+00 0.000000e+00 0.000000e+00 0.000000e+00 0.000000e+00
<ENDHMM>
~h "n"
<BEGINHMM>
<NUMSTATES> 5
<STATE> 2
<MEAN> 39
 3.417062e+00 -1.319090e+00 5.865387e+00 7.998729e-01 -4.950807e+00 -2.666967e+00 -5.655328e+00 2.251940e+00 -3.769467e+00 5.775004e+00 -2.499604e+00 -4.357769e+00 2.009697e+01 1.919615e-01 9.076877e-02 1.136824e-01 3.012578e-01 1.667592e-01 1.487109e-01 3.323768e-02 -5.985283e-01 -4.293751e-02 2.090824e-01 -2.438456e-01 -1.341769e-01 -7.895644e-03 -1.166735e-02 -1.253176e-02 4.312070e-02 -8.186551e-03 -1.629556e-02 5.439968e-02 -2.234183e-02 -7.903444e-02 8.437430e-02 -4.315227e-02 -1.656911e-02 1.503185e-02 -5.730813e-04
<VARIANCE> 39
 8.577889e+00 3.246602e+01 5.955339e+01 3.402281e+01 4.549388e+01 5.278460e+01 5.421383e+01 4.333377e+01 4.246838e+01 3.693013e+01 4.277576e+01 3.744987e+01 2.291774e-01 4.158026e-01 1.274368e+00 1.212793e+00 1.486871e+00 1.976218e+00 2.786293e+00 2.170116e+00 2.876629e+00 2.099771e+00 2.145977e+00 1.748194e+00 1.624228e+00 2.517823e-03 6.908743e-02 2.074603e-01 1.944171e-01 2.648463e-01 3.637927e-01 4.750508e-01 4.169495e-01 4.048511e-01 3.771059e-01 3.862446e-01 3.065935e-01 2.846150e-01 2.633009e-04
<GCONST> 9.043248e+01
<STATE> 3
<MEAN> 39
 6.021549e+00 4.097165e-01 8.947712e+00 4.497846e+00 -7.314070e-01 3.897563e-01 -7.458385e+00 -8.194585e+00 2.586378e-01 6.320378e+00 -7.781806e+00 -6.249881e+00 1.998559e+01 -2.295212e-02 1.170543e-01 4.275791e-03 1.121202e-02 6.228838e-02 2.793837e-02 -4.189731e-02 -1.918875e-01 1.021637e-01 -9.156304e-02 -5.132712e-02 8.904585e-02 -1.004373e-02 -6.459079e-02 3.188941e-02 -5.098358e-02 -4.741336e-02 1.594271e-02 -8.521122e-02 2.941076e-02 1.217116e-01 -5.129264e-02 -1.550772e-02 5.882170e-02 4.541977e-02 -2.558623e-03
<VARIANCE> 39
 3.898405e+00 1.404738e+01 1.509339e+01 1.743639e+01 1.680683e+01 2.711036e+01 3.791749e+01 2.819437e+01 2.978531e+01 3.226021e+01 2.319983e+01 2.413535e+01 2.268905e-01 3.630996e-01 8.198436e-01 7.714273e-01 8.412170e-01 1.091111e+00 1.739285e+00 2.138090e+00 1.855304e+00 1.527420e+00 1.920906e+00 1.449050e+00 1.253739e+00 1.829287e-03 6.834199e-02 1.378277e-01 1.414569e-01 1.628953e-01 2.093344e-01 3.272503e-01 4.045742e-01 3.789122e-01 2.822461e-01 3.375302e-01 2.710262e-01 2.387736e-01 1.337198e-04
<GCONST> 7.480550e+01
<STATE> 4
<MEAN> 39
 -2.846705e-01 4.258836e+00 7.598368e+00 4.448142e+00 1.996002e+00 -1.264669e+00 -1.542805e+00 -5.004500e+00 -1.052199e+00 5.121299e+00 -6.775511e+00 -3.034528e+00 1.816360e+01 -3.620171e-01 8.003876e-02 -1.019101e-01 -1.119089e-01 1.036806e-01 -8.020751e-02 8.845375e-02 2.671877e-01 -1.811771e-03 -2.245752e-01 1.646630e-01 1.351335e-01 -6.511457e-02 1.742666e-02 -5.764900e-02 -1.267946e-02 -9.700835e-03 -4.572067e-02 2.407071e-02 -5.488867e-02 4.627448e-02 1.906298e-02 7.131950e-03 2.465687e-02 -2.348242e-02 -5.327929e-03
<VARIANCE> 39
 2.447530e+01 1.812316e+01 2.693725e+01 3.474928e+01 2.805540e+01 4.021586e+01 4.216892e+01 4.924561e+01 3.476809e+01 4.451960e+01 3.341091e+01 2.377629e+01 3.411387e+00 1.157220e+00 1.282303e+00 1.599605e+00 2.132235e+00 2.535737e+00 3.312491e+00 3.431467e+00 3.902693e+00 2.950721e+00 3.555427e+00 2.736264e+00 2.058496e+00 2.143078e-02 2.088983e-01 2.602242e-01 3.018648e-01 4.191831e-01 5.472358e-01 6.868352e-01 7.378327e-01 7.494449e-01 6.285463e-01 7.607913e-01 5.838663e-01 4.147910e-01 1.800646e-03
<GCONST> 1.060848e+02
<TRANSP> 5
 0.000000e+00 1.000000e+00 0.000000e+00 0.000000e+00 0.000000e+00
 0.000000e+00 8.980795e-01 1.019205e-01 0.000000e+00 0.000000e+00
 0.000000e+00 0.000000e+00 9.214214e-01 7.857858e-02 0.000000e+00
 0.000000e+00 0.000000e+00 0.000000e+00 9.020088e-01 9.799110e-02
 0.000000e+00 0.000000e+00 0.000000e+00 0.000000e+00 0.000000e+00
<ENDHMM>
~h "o"
<BEGINHMM>
<NUMSTATES> 5
<STATE> 2
<MEAN> 39
 -8.968819e+00 1.227167e+00 1.709896e+00 5.255102e-01 -1.376319e+00 -3.581203e-01 -4.450421e+00 2.224232e-01 1.032390e+00 1.922153e+00 9.369482e-01 -5.463367e-02 1.433043e+01 6.601643e-05 -6.414447e-06 -4.348861e-05 2.207338e-05 -6.183252e-05 3.505594e-04 -2.845397e-05 -1.057293e-04 -3.217392e-04 -2.094190e-04 -1.093453e-04 6.646793e-05 -4.646834e-05 -3.052270e-05 -5.577785e-06 5.118113e-05 5.903988e-05 8.738427e-05 1.239256e-04 1.462678e-04 5.784345e-07 -6.680420e-05 8.540968e-05 -3.584341e-06 -9.608337e-06 3.280207e-06
<VARIANCE> 39
 9.132833e+01 3.750473e+01 5.184167e+01 5.299957e+01 4.542144e+01 5.171822e+01 6.411460e+01 4.173472e+01 3.924054e+01 3.472301e+01 3.778771e+01 3.327573e+01 2.268905e+01 6.444674e-01 1.076510e+00 1.293223e+00 1.883514e+00 2.197024e+00 2.673508e+00 2.949268e+00 2.722457e+00 2.845586e+00 2.895535e+00 2.697424e+00 2.293327e+00 4.128606e-02 9.874837e-02 2.035372e-01 2.576212e-01 3.839478e-01 4.538210e-01 5.496877e-01 6.081111e-01 5.695377e-01 5.939356e-01 6.059731e-01 5.659602e-01 4.834353e-01 5.660130e-03
<GCONST> 1.098248e+02
<STATE> 3
<MEAN> 39
 -8.968819e+00 1.227167e+00 1.709896e+00 5.255102e-01 -1.376319e+00 -3.581203e-01 -4.450421e+00 2.224232e-01 1.032390e+00 1.922153e+00 9.369482e-01 -5.463367e-02 1.433043e+01 6.601643e-05 -6.414447e-06 -4.348861e-05 2.207338e-05 -6.183252e-05 3.505594e-04 -2.845397e-05 -1.057293e-04 -3.217392e-04 -2.094190e-04 -1.093453e-04 6.646793e-05 -4.646834e-05 -3.052270e-05 -5.577785e-06 5.118113e-05 5.903988e-05 8.738427e-05 1.239256e-04 1.462678e-04 5.784345e-07 -6.680420e-05 8.540968e-05 -3.584341e-06 -9.608337e-06 3.280207e-06
<VARIANCE> 39
 9.132833e+01 3.750473e+01 5.184167e+01 5.299957e+01 4.542144e+01 5.171822e+01 6.411460e+01 4.173472e+01 3.924054e+01 3.472301e+01 3.778771e+01 3.327573e+01 2.268905e+01 6.444674e-01 1.076510e+00 1.293223e+00 1.883514e+00 2.197024e+00 2.673508e+00 2.949268e+00 2.722457e+00 2.845586e+00 2.895535e+00 2.697424e+00 2.293327e+00 4.128606e-02 9.874837e-02 2.035372e-01 2.576212e-01 3.839478e-01 4.538210e-01 5.496877e-01 6.081111e-01 5.695377e-01 5.939356e-01 6.059731e-01 5.659602e-01 4.834353e-01 5.660130e-03
<GCONST> 1.098248e+02
<STATE> 4
<MEAN> 39
 -8.968819e+00 1.227167e+00 1.709896e+00 5.255102e-01 -1.376319e+00 -3.581203e-01 -4.450421e+00 2.224232e-01 1.032390e+00 1.922153e+00 9.369482e-01 -5.463367e-02 1.433043e+01 6.601643e-05 -6.414447e-06 -4.348861e-05 2.207338e-05 -6.183252e-05 3.505594e-04 -2.845397e-05 -1.057293e-04 -3.217392e-04 -2.094190e-04 -1.093453e-04 6.646793e-05 -4.646834e-05 -3.052270e-05 -5.577785e-06 5.118113e-05 5.903988e-05 8.738427e-05 1.239256e-04 1.462678e-04 5.784345e-07 -6.680420e-05 8.540968e-05 -3.584341e-06 -9.608337e-06 3.280207e-06
<VARIANCE> 39
 9.132833e+01 3.750473e+01 5.184167e+01 5.299957e+01 4.542144e+01 5.171822e+01 6.411460e+01 4.173472e+01 3.924054e+01 3.472301e+01 3.778771e+01 3.327573e+01 2.268905e+01 6.444674e-01 1.076510e+00 1.293223e+00 1.883514e+00 2.197024e+00 2.673508e+00 2.949268e+00 2.722457e+00 2.845586e+00 2.895535e+00 2.697424e+00 2.293327e+00 4.128606e-02 9.874837e-02 2.035372e-01 2.576212e-01 3.839478e-01 4.538210e-01 5.496877e-01 6.081111e-01 5.695377e-01 5.939356e-01 6.059731e-01 5.659602e-01 4.834353e-01 5.660130e-03
<GCONST> 1.098248e+02
<TRANSP> 5
 0.000000e+00 1.000000e+00 0.000000e+00 0.000000e+00 0.000000e+00
 0.000000e+00 5.000000e-01 5.000000e-01 0.000000e+00 0.000000e+00
 0.000000e+00 0.000000e+00 5.000000e-01 5.000000e-01 0.000000e+00
 0.000000e+00 0.000000e+00 0.000000e+00 5.000000e-01 5.000000e-01
 0.000000e+00 0.000000e+00 0.000000e+00 0.000000e+00 0.000000e+00
<ENDHMM>
~h "p"
<BEGINHMM>
<NUMSTATES> 5
<STATE> 2
<MEAN> 39
 -1.332662e+01 -9.641409e+00 -1.761145e+00 -3.415904e-01 9.778702e-01 -1.759169e+00 -2.944077e+00 -8.348466e-01 3.685612e+00 4.939662e+00 5.594576e+00 3.849509e+00 1.592894e+01 1.880156e-02 3.307452e-02 2.059028e-02 1.546567e-01 1.910353e-01 5.433691e-01 4.740222e-01 2.603474e-01 4.863197e-02 -6.463826e-02 -1.017693e-01 -1.095790e-01 -1.270173e-04 1.091533e-01 6.504107e-02 -5.645274e-02 -2.808913e-02 -3.121319e-02 7.195961e-02 8.887200e-03 3.875209e-03 -2.616402e-02 -1.068319e-01 -2.755104e-02 -5.175383e-02 2.803645e-02
<VARIANCE> 39
 2.833665e+01 2.906145e+01 6.941570e+01 5.845827e+01 5.222331e+01 3.165317e+01 4.235819e+01 3.889274e+01 3.547704e+01 3.868651e+01 2.699740e+01 2.437792e+01 8.235393e-01 6.896260e-01 1.515708e+00 1.928244e+00 2.595631e+00 3.160097e+00 4.170253e+00 3.736118e+00 3.735908e+00 3.899396e+00 4.401424e+00 3.097597e+00 2.312010e+00 3.287369e-02 9.532055e-02 2.947738e-01 3.671359e-01 4.979542e-01 6.071712e-01 7.639785e-01 7.515355e-01 8.142219e-01 8.181547e-01 9.475074e-01 6.890127e-01 4.947511e-01 7.134266e-03
<GCONST> 1.104976e+02
<STATE> 3
<MEAN> 39
 -9.160958e+00 -7.852236e+00 -3.637719e+00 -2.312095e+00 1.702503e+00 7.761325e+00 5.177411e+00 4.874570e+00 6.806937e+00 2.995697e+00 4.413554e+00 2.940390e+00 1.689706e+01 2.560913e-01 3.800059e-01 1.178836e-02 1.940910e-01 1.304745e-01 4.638719e-01 1.088085e-01 -8.105587e-02 -2.212139e-01 -3.504401e-01 -2.483271e-01 -2.507223e-01 1.320377e-01 8.570388e-02 1.213496e-01 5.769631e-02 2.157119e-02 -8.750193e-02 -1.506543e-01 -1.738429e-01 -1.153248e-01 -1.209368e-01 -4.081195e-02 -5.010201e-02 -3.244859e-02 2.396638e-02
<VARIANCE> 39
 1.191774e+01 5.466240e+01 3.303001e+01 6.120482e+01 6.682914e+01 5.080450e+01 4.620330e+01 5.015776e+01 4.333651e+01 4.196789e+01 3.188284e+01 2.979995e+01 2.230967e+00 6.279783e-01 1.285035e+00 1.692225e+00 2.319655e+00 2.740781e+00 4.031960e+00 3.622410e+00 3.617467e+00 3.915869e+00 3.759874e+00 3.734609e+00 2.752145e+00 7.020026e-02 8.446706e-02 1.902575e-01 3.136004e-01 4.194220e-01 6.100330e-01 7.507386e-01 7.322279e-01 7.296894e-01 7.933235e-01 7.560874e-01 7.525095e-01 5.995060e-01 9.948054e-03
<GCONST> 1.118183e+02
<STATE> 4
<MEAN> 39
 -2.122153e+00 -4.641215e-01 2.899286e-01 4.642203e+00 9.446162e-01 3.959105e+00 -2.638590e+00 2.368998e-01 1.732941e-01 -5.861731e-01 1.016090e+00 -3.357643e-01 1.845924e+01 1.695775e+00 1.316153e+00 1.802858e-01 -3.355527e-01 -1.258309e+00 -4.673378e-01 -1.337785e+00 1.132752e-01 -6.365325e-01 -1.680343e-01 -9.401158e-03 7.205890e-02 4.371746e-01 -1.160055e-01 -3.146302e-01 -3.738154e-01 -4.858385e-01 -2.778473e-01 -2.439017e-01 -1.280099e-01 1.176589e-01 2.129453e-01 3.171575e-01 2.965479e-01 3.033286e-01 -2.724973e-02
<VARIANCE> 39
 2.824841e+01 3.079087e+01 7.268393e+01 6.631673e+01 4.832702e+01 6.058287e+01 9.689963e+01 3.431205e+01 2.982367e+01 2.986032e+01 3.169618e+01 2.662946e+01 2.408841e+00 1.252247e+00 2.049686e+00 2.893224e+00 4.388711e+00 3.154454e+00 3.412599e+00 3.787970e+00 3.585880e+00 3.118951e+00 4.349418e+00 3.271843e+00 3.115483e+00 1.034754e-01 2.021100e-01 3.167574e-01 3.954195e-01 6.506258e-01 7.190862e-01 6.496834e-01 7.528584e-01 6.688672e-01 6.013319e-01 8.303850e-01 6.736249e-01 5.525005e-01 1.258739e-02
<GCONST> 1.169452e+02
<TRANSP> 5
 0.000000e+00 1.000000e+00 0.000000e+00 0.000000e+00 0.000000e+00
 0.000000e+00 8.578581e-01 1.421419e-01 0.000000e+00 0.000000e+00
 0.000000e+00 0.000000e+00 8.752565e-01 1.247435e-01 0.000000e+00
 0.000000e+00 0.000000e+00 0.000000e+00 7.504071e-01 2.495929e-01
 0.000000e+00 0.000000e+00 0.000000e+00 0.000000e+00 0.000000e+00
<ENDHMM>
~h "r"
<BEGINHMM>
<NUMSTATES> 5
<STATE> 2
<MEAN> 39
 7.222999e+00 -7.025998e-01 -7.492503e+00 3.408274e+00 -2.054013e+00 -1.662369e+00 -1.443841e+01 8.558922e-01 -3.320383e+00 1.397249e+00 6.937173e+00 4.123993e+00 1.976243e+01 9.761059e-02 -2.117029e-01 -2.851694e-02 6.377299e-02 -1.284465e-01 -1.981838e-01 -1.820082e-01 1.474341e-01 3.821056e-02 -2.495884e-02 2.840419e-02 1.935468e-02 2.169564e-02 -6.247584e-02 -3.119316e-02 7.390105e-02 6.485474e-03 -6.937311e-03 3.898424e-03 4.826368e-02 1.572172e-02 4.873091e-02 1.127030e-03 -3.204167e-02 -5.095391e-02 -8.337490e-03
<VARIANCE> 39
 9.769357e+00 2.094076e+01 4.453599e+01 3.314475e+01 2.710814e+01 3.362518e+01 5.833162e+01 3.871557e+01 5.511355e+01 3.736725e+01 5.895753e+01 3.882793e+01 4.724229e-01 5.223812e-01 1.125405e+00 1.349315e+00 1.711971e+00 1.626461e+00 2.152346e+00 3.565984e+00 2.249204e+00 2.532251e+00 2.552453e+00 3.529160e+00 2.208002e+00 8.498808e-03 9.485532e-02 1.894974e-01 2.453226e-01 3.433158e-01 3.074743e-01 4.354279e-01 6.669530e-01 4.303073e-01 4.800337e-01 5.006887e-01 6.421372e-01 4.048904e-01 7.912276e-04
<GCONST> 9.657475e+01
<STATE> 3
<MEAN> 39
 6.037680e+00 -7.811556e+00 -2.177826e+00 4.898894e+00 -8.319916e+00 -3.462430e+00 -1.746675e+01 7.363697e+00 1.371482e+00 1.795669e+00 4.392761e+00 -6.764776e-01 2.067422e+01 -9.365515e-02 -2.461016e-02 2.418016e-01 -9.879488e-03 -9.277343e-02 -4.674423e-02 5.235521e-02 7.949171e-02 1.489003e-02 -3.420871e-02 -9.553829e-02 1.534592e-02 -4.666660e-03 -1.897649e-02 4.295089e-02 1.004730e-02 -1.031837e-02 3.388235e-02 2.065827e-02 4.542004e-02 -3.851060e-02 -5.159345e-03 -8.208480e-03 -8.812985e-03 5.849934e-03 -3.087722e-03
<VARIANCE> 39
 6.641676e+00 2.113816e+01 5.460931e+01 3.869059e+01 2.855934e+01 5.900851e+01 6.025848e+01 4.675464e+01 4.405633e+01 3.904656e+01 5.628423e+01 3.921761e+01 2.744714e-01 2.155395e-01 8.103038e-01 6.412386e-01 7.533820e-01 9.968156e-01 1.948910e+00 1.846635e+00 1.284482e+00 1.849538e+00 1.516698e+00 1.631312e+00 1.170524e+00 2.072486e-03 3.246469e-02 1.064459e-01 8.573177e-02 1.195766e-01 1.532301e-01 2.885119e-01 2.764290e-01 2.023284e-01 2.677402e-01 2.266073e-01 2.235764e-01 1.777260e-01 1.418515e-04
<GCONST> 7.692306e+01
<STATE> 4
<MEAN> 39
 2.484623e+00 -2.254674e+00 -4.861351e-01 8.138517e+00 -1.501796e+00 -6.669085e+00 -1.164125e+01 6.620743e+00 2.922745e+00 -1.484698e+00 -5.681715e-01 2.948729e+00 1.852459e+01 -3.129041e-01 1.798761e-01 2.981848e-01 -8.769223e-02 2.142117e-01 1.431767e-01 5.048751e-01 -2.301503e-01 -1.496680e-02 -8.839315e-02 -1.295967e-01 -5.555994e-02 -1.058116e-01 -2.595411e-02 1.077756e-03 -1.033913e-03 -3.537248e-02 -1.192491e-02 2.031701e-02 2.773032e-02 -2.861197e-02 -3.481830e-03 1.076188e-02 3.242531e-02 -2.930265e-02 -6.193043e-03
<VARIANCE> 39
 1.379144e+01 2.679989e+01 5.186673e+01 4.627829e+01 6.099411e+01 5.854309e+01 8.126641e+01 4.919068e+01 4.710768e+01 4.709978e+01 4.403452e+01 3.614484e+01 2.515718e+00 7.073469e-01 1.057516e+00 1.342416e+00 2.267569e+00 2.722359e+00 3.829490e+00 3.981402e+00 2.546883e+00 3.150126e+00 3.003994e+00 2.518089e+00 2.170671e+00 1.778269e-02 1.363581e-01 1.954462e-01 2.539820e-01 4.797735e-01 5.761661e-01 8.411059e-01 8.616757e-01 5.248552e-01 6.636157e-01 6.441426e-01 5.331851e-01 4.537437e-01 1.472685e-03
<GCONST> 1.072093e+02
<TRANSP> 5
 0.000000e+00 1.000000e+00 0.000000e+00 0.000000e+00 0.000000e+00
 0.000000e+00 8.517646e-01 1.482355e-01 0.000000e+00 0.000000e+00
 0.000000e+00 0.000000e+00 9.117465e-01 8.825348e-02 0.000000e+00
 0.000000e+00 0.000000e+00 0.000000e+00 8.576649e-01 1.423351e-01
 0.000000e+00 0.000000e+00 0.000000e+00 0.000000e+00 0.000000e+00
<ENDHMM>
~h "s"
<BEGINHMM>
<NUMSTATES> 5
<STATE> 2
<MEAN> 39
 -1.772758e+01 5.371312e+00 4.391832e+00 -1.489814e+00 4.118283e+00 -6.334925e+00 -3.314718e+00 2.366086e+00 3.937471e+00 -1.410303e+00 -1.105190e+00 3.682540e+00 1.802392e+01 -1.372997e+00 1.440839e-01 -4.137762e-01 -4.728362e-01 2.955396e-01 -1.788367e-02 3.429282e-01 -1.838857e-02 -1.933046e-01 -2.223472e-01 2.408958e-01 5.507413e-02 -9.802303e-02 6.480211e-02 -4.894470e-02 -1.037806e-01 -4.776234e-02 -1.154080e-01 4.632805e-03 -1.022325e-01 -7.151933e-02 -7.601894e-02 5.509881e-02 2.591961e-02 -2.558270e-02 1.171147e-02
<VARIANCE> 39
 6.227976e+01 3.786272e+01 3.457084e+01 2.539961e+01 4.287547e+01 4.570237e+01 4.860635e+01 4.013702e+01 2.952218e+01 2.880990e+01 3.181337e+01 2.668419e+01 1.363783e+00 1.070915e+00 1.003353e+00 1.520962e+00 1.940722e+00 2.742864e+00 3.080870e+00 3.673820e+00 3.092235e+00 2.901824e+00 3.463126e+00 3.003888e+00 2.751538e+00 2.115876e-02 1.530091e-01 1.720780e-01 2.479283e-01 3.715025e-01 5.349176e-01 6.348906e-01 7.356165e-01 6.561669e-01 5.915140e-01 7.323162e-01 6.491091e-01 6.003571e-01 1.858723e-03
<GCONST> 1.055626e+02
<STATE> 3
<MEAN> 39
 -2.901716e+01 5.444848e+00 -5.521091e+00 -6.647248e+00 4.637882e+00 -7.256628e+00 -1.563499e+00 6.450021e-02 1.701613e+00 -3.861936e-01 1.322233e+00 3.343437e+00 1.715575e+01 -6.903484e-02 -1.180397e-01 -2.066551e-02 -9.857006e-02 -3.041649e-02 3.858284e-02 -7.728426e-03 6.476862e-03 5.277080e-02 8.407300e-02 3.987613e-02 -3.582123e-02 -2.312527e-02 5.473410e-02 -9.403603e-03 6.602062e-02 3.894679e-02 1.096597e-02 2.409181e-02 -1.985998e-03 1.836609e-02 2.764718e-02 -1.916477e-03 -2.149987e-02 -9.717396e-03 -6.195229e-03
<VARIANCE> 39
 7.378583e+00 1.683383e+01 2.465266e+01 2.339024e+01 2.713452e+01 3.216636e+01 3.138442e+01 2.862183e+01 2.672102e+01 2.683778e+01 2.405714e+01 2.277547e+01 1.664798e+00 4.036871e-01 7.597082e-01 1.234261e+00 1.633911e+00 2.213129e+00 2.877228e+00 2.955571e+00 2.951236e+00 2.846690e+00 2.925924e+00 2.842574e+00 2.528068e+00 1.300517e-02 7.431117e-02 1.360179e-01 2.259590e-01 3.524825e-01 4.710981e-01 6.072457e-01 6.395302e-01 6.460915e-01 6.204730e-01 6.381530e-01 6.225540e-01 5.522405e-01 1.290097e-03
<GCONST> 9.519872e+01
<STATE> 4
<MEAN> 39
 -1.931483e+01 2.854130e+00 1.664769e+00 -3.436983e+00 3.935632e+00 -4.776672e+00 -3.795249e+00 5.655822e-01 2.673767e+00 1.528764e+00 -1.018689e-01 2.102696e+00 1.518602e+01 1.218130e+00 1.768883e-01 3.002508e-01 4.379016e-01 -9.978780e-02 1.480193e-01 -2.194673e-01 -1.775083e-01 -1.172326e-01 8.925707e-02 -2.570887e-01 -1.512811e-01 -4.002566e-03 4.604078e-02 -1.484555e-02 -1.106622e-01 -6.209647e-02 -7.989957e-02 -3.087373e-02 -3.377728e-02 -2.551935e-02 -1.466591e-02 2.516236e-02 3.205916e-02 2.223529e-02 3.348077e-02
<VARIANCE> 39
 5.099306e+01 3.994842e+01 3.659633e+01 3.938422e+01 4.627696e+01 5.505122e+01 5.257337e+01 4.098341e+01 3.468848e+01 3.777148e+01 3.275466e+01 2.930715e+01 5.262476e+00 2.172000e+00 2.078197e+00 2.525319e+00 2.892179e+00 3.301969e+00 3.655252e+00 3.829459e+00 3.528552e+00 3.374526e+00 3.790587e+00 3.315717e+00 2.844962e+00 1.706262e-01 2.518369e-01 4.092722e-01 4.508335e-01 5.924768e-01 6.638125e-01 7.229293e-01 7.701560e-01 7.475971e-01 7.136394e-01 8.081000e-01 7.022049e-01 6.107345e-01 1.557267e-02
<GCONST> 1.189700e+02
<TRANSP> 5
 0.000000e+00 1.000000e+00 0.000000e+00 0.000000e+00 0.000000e+00
 0.000000e+00 9.025944e-01 9.740563e-02 0.000000e+00 0.000000e+00
 0.000000e+00 0.000000e+00 9.642194e-01 3.578065e-02 0.000000e+00
 0.000000e+00 0.000000e+00 0.000000e+00 9.198815e-01 8.011851e-02
 0.000000e+00 0.000000e+00 0.000000e+00 0.000000e+00 0.000000e+00
<ENDHMM>
~h "t"
<BEGINHMM>
<NUMSTATES> 5
<STATE> 2
<MEAN> 39
 -1.765390e+01 -7.939189e+00 -1.263503e+00 -2.475891e+00 -5.672779e+00 -7.936644e+00 -4.218922e+00 1.480146e+00 5.389472e+00 3.843406e-01 1.013884e+00 2.493353e+00 1.596664e+01 4.245559e-01 3.062864e-02 -8.250061e-02 4.479480e-01 1.935639e-01 1.385147e-01 -9.690032e-03 9.618078e-02 1.272528e-01 6.624289e-02 -2.012839e-01 -1.619481e-01 -7.515413e-02 8.721247e-02 1.313390e-01 1.095969e-01 1.038120e-01 1.376079e-01 1.634956e-01 6.767501e-02 5.280752e-03 -6.603944e-02 -4.731062e-02 -4.850012e-02 -4.395949e-02 1.677363e-02
<VARIANCE> 39
 6.059698e+01 3.019035e+01 4.039235e+01 4.463054e+01 5.927552e+01 5.283590e+01 4.721709e+01 7.127809e+01 4.660503e+01 4.086172e+01 4.160213e+01 4.196490e+01 3.055176e+00 6.902812e-01 1.225027e+00 1.548418e+00 2.255387e+00 2.528241e+00 3.447427e+00 3.523522e+00 4.073651e+00 3.932853e+00 3.572319e+00 3.375578e+00 2.769227e+00 2.708135e-02 1.201934e-01 2.050183e-01 3.158773e-01 4.849560e-01 5.517692e-01 7.230901e-01 7.246376e-01 8.835068e-01 8.625931e-01 7.637831e-01 7.300403e-01 6.257783e-01 3.770747e-03
<GCONST> 1.124459e+02
<STATE> 3
<MEAN> 39
 -1.405947e+01 -1.448233e+00 3.237329e+00 1.487358e-01 -8.543656e-01 -4.790854e+00 -3.133310e+00 2.649086e+00 4.239201e+00 -6.109003e-01 -9.854730e-01 2.863345e+00 1.631532e+01 1.568926e+00 1.297978e+00 1.381260e+00 1.677474e+00 1.038370e+00 9.254711e-01 7.249239e-02 1.028647e-01 -4.036454e-01 -4.780069e-01 -6.598717e-01 -6.705099e-01 3.119959e-01 3.985206e-01 8.802369e-02 -3.452519e-02 -1.746832e-01 -2.820417e-01 -1.232560e-01 -3.427694e-01 -2.558258e-01 -3.390121e-01 -6.619255e-03 9.918644e-02 -1.035717e-01 1.288058e-01
<VARIANCE> 39
 6.072527e+01 3.561658e+01 5.821253e+01 3.905383e+01 5.276163e+01 5.025438e+01 5.516854e+01 4.622631e+01 5.142395e+01 3.916070e+01 3.671812e+01 3.831083e+01 3.490663e+00 1.929458e+00 1.504274e+00 2.120047e+00 2.382569e+00 2.733021e+00 3.072574e+00 3.929675e+00 3.887074e+00 3.776466e+00 3.268310e+00 2.745742e+00 2.849433e+00 1.343139e-01 2.137360e-01 3.066831e-01 3.665467e-01 5.074391e-01 6.167728e-01 6.694031e-01 8.074488e-01 8.040887e-01 7.282325e-01 6.566513e-01 6.446438e-01 6.179729e-01 1.277562e-02
<GCONST> 1.172793e+02
<STATE> 4
<MEAN> 39
 -5.159618e+00 2.766563e+00 6.580390e+00 3.477397e+00 -1.699802e+00 -4.713223e+00 -7.191890e+00 1.062294e+00 1.348880e+00 -1.183534e+00 -1.678917e+00 1.156739e+00 1.848271e+01 1.744984e+00 3.828366e-02 -2.358768e-01 -2.283901e-01 -1.026947e+00 -8.842998e-02 -1.295894e+00 -9.973880e-02 -3.598726e-01 4.706112e-01 3.501120e-01 -1.490189e-03 3.673595e-01 -3.612997e-01 -4.146855e-01 -3.261846e-01 -3.887207e-01 -2.168813e-01 -7.318308e-02 -1.591298e-02 1.156032e-01 1.602011e-01 1.825539e-01 1.944584e-01 2.132886e-01 -8.276778e-02
<VARIANCE> 39
 3.940176e+01 3.101575e+01 6.175629e+01 3.464170e+01 4.512479e+01 4.407553e+01 5.052571e+01 3.496045e+01 4.033379e+01 3.342914e+01 2.995616e+01 2.494992e+01 3.953094e+00 2.298536e+00 2.335333e+00 2.121272e+00 2.248151e+00 2.839168e+00 3.025688e+00 3.482465e+00 3.002009e+00 3.241429e+00 2.551552e+00 2.640707e+00 2.821131e+00 1.132992e-01 1.740511e-01 3.932779e-01 4.128381e-01 4.810484e-01 5.441601e-01 6.409376e-01 6.821190e-01 5.570100e-01 6.023950e-01 6.181234e-01 5.158715e-01 5.166309e-01 5.961980e-03
<GCONST> 1.126551e+02
<TRANSP> 5
 0.000000e+00 1.000000e+00 0.000000e+00 0.000000e+00 0.000000e+00
 0.000000e+00 7.892459e-01 2.107541e-01 0.000000e+00 0.000000e+00
 0.000000e+00 0.000000e+00 5.674450e-01 4.325550e-01 0.000000e+00
 0.000000e+00 0.000000e+00 0.000000e+00 6.183910e-01 3.816090e-01
 0.000000e+00 0.000000e+00 0.000000e+00 0.000000e+00 0.000000e+00
<ENDHMM>
~h "u"
<BEGINHMM>
<NUMSTATES> 5
<STATE> 2
<MEAN> 39
 2.910699e+00 -2.034651e+00 -9.192415e-01 -5.358702e+00 -4.251709e+00 2.067749e+00 -2.033732e+01 -3.505832e+00 4.088910e+00 1.139738e+01 2.929086e+00 -5.378597e+00 2.075946e+01 2.439488e-02 -6.080766e-02 1.187775e-01 6.922869e-02 2.250642e-02 -9.857017e-02 -2.298404e-01 7.065523e-02 1.094828e-01 -1.035139e-01 4.123862e-03 -8.644137e-02 -1.271273e-02 -1.742095e-02 2.676878e-02 2.358446e-02 8.235021e-03 4.770176e-02 -1.367410e-02 4.663362e-02 3.559158e-02 9.167289e-04 -6.950261e-02 -2.871351e-02 1.114915e-02 -9.406827e-03
<VARIANCE> 39
 7.451992e+00 1.265005e+01 3.295807e+01 4.936684e+01 1.467428e+01 3.407946e+01 3.412334e+01 2.972627e+01 4.779850e+01 7.278650e+01 3.209533e+01 3.694072e+01 3.239053e-01 2.097203e-01 8.150000e-01 7.924170e-01 9.945166e-01 1.165335e+00 1.476242e+00 2.454596e+00 1.408569e+00 2.203383e+00 3.317698e+00 1.271880e+00 1.044299e+00 4.800603e-03 3.583350e-02 1.053983e-01 1.193785e-01 2.117274e-01 2.082040e-01 2.546344e-01 4.206689e-01 2.198982e-01 3.088935e-01 4.007913e-01 2.509960e-01 1.800705e-01 5.452097e-04
<GCONST> 8.029775e+01
<STATE> 3
<MEAN> 39
 4.430223e+00 -8.860295e-01 4.309124e+00 -7.548411e-01 -9.930794e-01 -9.656693e-01 -2.199091e+01 1.156571e+00 6.815557e+00 -9.916952e-02 4.352377e+00 -1.734143e+00 1.978876e+01 -1.474669e-01 9.734015e-01 -9.891213e-02 1.034968e-01 1.445693e+00 -3.584570e-01 1.514625e+00 1.588211e-01 2.449584e-01 -1.065243e-02 -9.214793e-01 4.338037e-01 -2.905586e-01 -4.046191e-02 5.379845e-02 -2.483009e-01 1.772680e-01 -4.136737e-02 1.106960e-01 2.206388e-01 -1.620213e-01 -2.534656e-01 2.676829e-01 1.127528e-01 -2.744664e-01 -1.598081e-02
<VARIANCE> 39
 1.172310e+01 2.344439e+01 2.705317e+01 6.777637e+01 1.906364e+01 4.002518e+01 3.514334e+01 1.443562e+01 4.490508e+01 3.397231e+01 4.649098e+01 4.350462e+01 7.212031e-01 7.448990e-01 1.017144e+00 1.122432e+00 1.966899e+00 5.146605e-01 1.780777e+00 1.229564e+00 1.662157e+00 2.470317e+00 4.154703e+00 1.940546e+00 2.243941e+00 3.200223e-02 5.017396e-02 1.984951e-01 1.420121e-01 5.047315e-01 2.551491e-01 4.711175e-01 3.536257e-01 3.605448e-01 2.000198e-01 3.998553e-01 4.228314e-01 4.177077e-01 4.580179e-03
<GCONST> 9.272032e+01
<STATE> 4
<MEAN> 39
 -2.177570e+00 3.085947e+00 -1.994439e+00 -5.047259e+00 1.240507e-01 -9.867756e-01 -1.700754e+01 -2.616981e+00 7.625429e+00 7.887852e+00 1.401962e+00 -1.855720e-01 1.761724e+01 -2.633739e-03 -7.329710e-02 -2.890075e-01 1.472704e-01 -1.599003e-01 1.528810e-01 1.466711e-01 -2.586414e-02 -2.203567e-01 1.776420e-01 2.257212e-01 -3.565324e-02 -3.598540e-02 7.161452e-03 -6.601229e-02 5.288338e-02 6.909193e-03 -6.625313e-02 -4.493344e-02 -3.967315e-02 -4.067609e-03 1.236719e-02 1.792785e-02 7.725112e-02 4.215027e-02 1.245942e-02
<VARIANCE> 39
 3.203837e+01 3.406360e+01 4.052050e+01 4.964882e+01 2.983254e+01 2.948114e+01 8.290214e+01 1.832888e+01 5.533232e+01 5.288568e+01 3.422692e+01 1.988814e+01 1.693987e+00 1.607509e+00 2.450076e+00 1.402050e+00 2.908449e+00 1.326497e+00 1.927177e+00 3.999238e+00 2.188362e+00 5.353467e+00 4.134656e+00 4.035732e+00 2.730967e+00 6.940436e-02 2.073053e-01 4.993095e-01 2.176492e-01 6.245615e-01 3.073851e-01 3.568741e-01 5.935293e-01 4.566215e-01 1.284337e+00 9.183809e-01 9.225993e-01 6.524613e-01 5.659482e-03
<GCONST> 1.108336e+02
<TRANSP> 5
 0.000000e+00 1.000000e+00 0.000000e+00 0.000000e+00 0.000000e+00
 0.000000e+00 9.674121e-01 3.258783e-02 0.000000e+00 0.000000e+00
 0.000000e+00 0.000000e+00 6.835805e-01 3.164196e-01 0.000000e+00
 0.000000e+00 0.000000e+00 0.000000e+00 9.247209e-01 7.527911e-02
 0.000000e+00 0.000000e+00 0.000000e+00 0.000000e+00 0.000000e+00
<ENDHMM>
~h "v"
<BEGINHMM>
<NUMSTATES> 5
<STATE> 2
<MEAN> 39
 1.346524e+00 9.004284e-01 1.258792e+00 -2.263129e+00 1.833205e-01 3.037742e+00 -9.605067e+00 -4.912501e+00 1.176472e+00 3.711893e+00 5.479331e-01 1.127716e-01 1.888277e+01 3.622443e-01 -2.861974e-02 -3.490893e-01 -3.374180e-01 -2.873154e-01 1.060252e-02 -3.902092e-01 -7.472390e-01 6.132247e-02 3.573064e-01 4.348565e-01 3.536411e-02 1.740238e-02 -2.552784e-01 3.335553e-02 1.661471e-01 1.214096e-01 -3.712840e-02 -6.640231e-02 6.516435e-02 9.576585e-02 5.047758e-02 -1.947935e-02 4.803386e-02 -2.589801e-02 -2.138199e-02
<VARIANCE> 39
 2.438634e+01 2.217739e+01 4.504452e+01 6.819902e+01 4.299347e+01 5.196699e+01 4.800348e+01 3.189383e+01 2.549527e+01 4.889567e+01 3.101213e+01 1.932896e+01 1.146969e+00 1.781053e+00 9.232877e-01 1.946465e+00 3.608933e+00 3.645765e+00 3.581288e+00 3.877010e+00 2.574248e+00 3.007590e+00 5.103279e+00 3.624062e+00 1.540006e+00 7.646646e-02 2.824045e-01 2.495088e-01 3.747625e-01 7.708851e-01 6.423392e-01 6.512775e-01 8.504435e-01 5.311432e-01 4.574894e-01 1.042579e+00 8.050121e-01 2.483019e-01 3.408331e-03
<GCONST> 1.103109e+02
<STATE> 3
<MEAN> 39
 3.844285e+00 -1.321087e+00 -4.234859e-01 -5.096061e+00 -1.612241e+00 5.858519e+00 -1.240039e+01 -8.095803e+00 1.369113e+00 7.471385e+00 2.947954e+00 3.266670e-01 1.969075e+01 -3.632747e-01 3.405922e-01 2.137776e-01 3.888297e-01 3.857186e-01 -1.468782e-01 5.061674e-01 -5.211799e-02 -1.088552e-01 -3.605984e-01 -2.412332e-02 1.184595e-02 -7.786223e-02 -6.469663e-02 3.761946e-02 6.494225e-02 6.760031e-02 5.813431e-02 -3.276142e-02 1.011969e-01 1.541790e-01 -8.231862e-03 -1.052179e-01 -6.758761e-02 -5.249133e-02 1.264538e-03
<VARIANCE> 39
 9.149704e+00 2.061078e+01 1.898418e+01 4.940440e+01 3.287914e+01 4.370963e+01 5.685018e+01 3.731192e+01 4.840872e+01 4.887611e+01 4.255412e+01 1.878231e+01 6.215498e-01 6.425256e-01 1.392044e+00 8.229771e-01 1.837876e+00 2.130033e+00 1.704438e+00 3.526708e+00 2.424631e+00 2.517541e+00 3.703468e+00 2.490592e+00 1.583131e+00 1.207937e-02 7.090903e-02 2.209761e-01 1.290519e-01 2.819729e-01 4.236434e-01 3.253653e-01 6.043952e-01 4.204356e-01 4.426655e-01 6.211052e-01 4.622933e-01 2.788199e-01 4.880776e-04
<GCONST> 9.380731e+01
<STATE> 4
<MEAN> 39
 -4.526289e+00 4.809227e+00 5.552970e+00 5.597638e+00 2.387746e+00 -3.961266e-01 -5.549835e+00 -4.949884e+00 -2.677144e-01 -1.063491e+00 1.278144e-01 -1.114784e+00 1.782841e+01 -2.981062e-01 1.859322e-02 3.444692e-02 1.655978e-01 1.876683e-02 -1.486876e-01 1.411579e-01 1.938343e-01 8.633204e-02 -1.894922e-01 -6.739018e-02 -4.447823e-02 -4.045726e-02 8.479656e-02 -6.428201e-02 -4.778755e-02 -1.156405e-01 -9.129745e-02 -9.366098e-03 -1.329479e-01 -1.285455e-03 3.163412e-02 9.512167e-02 1.172685e-02 4.034632e-02 1.084585e-02
<VARIANCE> 39
 2.153231e+01 1.914144e+01 2.163335e+01 2.436120e+01 2.475625e+01 4.139088e+01 2.614096e+01 2.110633e+01 2.985227e+01 2.398001e+01 2.787310e+01 1.943402e+01 9.355516e-01 1.312424e+00 1.159096e+00 1.409090e+00 2.057612e+00 2.270346e+00 2.690272e+00 3.341934e+00 2.512031e+00 2.806957e+00 2.767876e+00 2.519330e+00 2.579341e+00 2.161566e-02 1.697830e-01 1.936599e-01 2.534321e-01 3.920965e-01 4.358972e-01 5.243649e-01 6.750732e-01 5.012573e-01 5.700101e-01 5.918599e-01 5.109199e-01 5.878990e-01 8.312825e-04
<GCONST> 9.785608e+01
<TRANSP> 5
 0.000000e+00 1.000000e+00 0.000000e+00 0.000000e+00 0.000000e+00
 0.000000e+00 5.780130e-01 4.219870e-01 0.000000e+00 0.000000e+00
 0.000000e+00 0.000000e+00 8.108470e-01 1.891530e-01 0.000000e+00
 0.000000e+00 0.000000e+00 0.000000e+00 8.914901e-01 1.085098e-01
 0.000000e+00 0.000000e+00 0.000000e+00 0.000000e+00 0.000000e+00
<ENDHMM>
~h "w"
<BEGINHMM>
<NUMSTATES> 5
<STATE> 2
<MEAN> 39
 3.318913e+00 5.710069e+00 8.309650e-01 -6.219911e+00 -3.553462e+00 4.514795e+00 -7.982819e+00 -3.210316e+00 -1.752682e+00 2.102576e+00 -8.036451e-01 1.292081e+00 1.869879e+01 4.105392e-01 1.637884e-01 -6.208536e-02 -3.468101e-01 -3.252441e-01 1.466326e-01 -6.014880e-02 -1.085984e-01 -6.743553e-02 -8.631438e-02 -1.446415e-02 1.068991e-01 8.971604e-02 -4.370518e-02 -3.383084e-02 -6.556166e-03 8.756948e-03 -1.115664e-02 6.026193e-03 1.994375e-02 -1.280887e-02 1.718824e-02 -2.190399e-02 5.823316e-04 3.420960e-03 -1.037773e-02
<VARIANCE> 39
 1.959696e+01 6.030858e+01 3.613077e+01 8.348164e+01 5.449353e+01 7.223501e+01 7.549851e+01 4.797829e+01 5.035774e+01 4.354964e+01 3.286362e+01 4.942597e+01 2.191798e+00 8.963599e-01 1.637177e+00 1.577428e+00 3.123671e+00 2.727456e+00 3.109337e+00 3.496418e+00 2.789662e+00 2.944042e+00 2.776430e+00 2.605151e+00 2.419291e+00 5.046831e-02 1.317406e-01 2.928232e-01 2.986961e-01 5.891297e-01 5.300325e-01 5.934311e-01 6.374288e-01 5.490825e-01 5.706817e-01 5.357768e-01 5.149593e-01 4.581409e-01 3.488074e-03
<GCONST> 1.109700e+02
<STATE> 3
<MEAN> 39
 7.680723e+00 7.174518e+00 -8.450817e-01 -1.499796e+01 -9.093136e+00 1.072361e+01 -7.170714e+00 -5.128629e+00 -2.993178e+00 6.687992e-02 4.157121e-01 4.599591e+00 2.002987e+01 1.190566e-02 -1.912863e-01 -1.135704e-01 -5.544584e-02 1.568530e-03 2.122485e-01 -6.896293e-02 -1.762543e-01 -7.031384e-02 1.051345e-01 1.865173e-01 1.177025e-01 2.835637e-02 -2.414680e-02 -3.347315e-02 9.895209e-03 5.480168e-02 4.504016e-02 -3.863837e-02 -4.074353e-02 1.676317e-02 3.249432e-02 5.533806e-02 -1.660369e-04 -4.918762e-02 -1.074969e-03
<VARIANCE> 39
 5.934559e+00 3.198528e+01 3.250807e+01 6.945182e+01 4.205425e+01 5.167084e+01 5.388600e+01 4.208393e+01 4.431668e+01 3.731175e+01 4.194306e+01 3.946409e+01 4.331244e-01 2.882928e-01 9.983028e-01 9.872946e-01 2.750479e+00 2.234176e+00 1.983984e+00 2.330182e+00 2.036778e+00 1.968207e+00 1.938966e+00 1.989918e+00 2.451208e+00 3.999187e-03 5.182751e-02 1.435764e-01 1.709546e-01 4.629007e-01 3.900763e-01 3.513538e-01 3.663920e-01 3.880666e-01 3.545331e-01 3.143010e-01 3.372942e-01 4.117760e-01 2.213073e-04
<GCONST> 9.028380e+01
<STATE> 4
<MEAN> 39
 5.658414e+00 -1.766835e+00 -1.593511e-01 -7.018873e+00 -5.671486e+00 9.270526e+00 -1.685912e+01 -7.079858e+00 -1.740924e+00 7.814158e+00 4.032821e+00 8.231558e-01 2.069818e+01 -1.596141e-01 -1.633613e-01 1.390948e-01 1.844059e-01 2.070520e-01 -3.451876e-01 -3.603894e-01 2.070621e-01 3.759238e-01 2.297300e-01 -1.417994e-01 -3.082340e-01 8.732875e-03 -7.166728e-03 3.261657e-02 2.148167e-02 1.327563e-03 -5.837170e-03 -3.569262e-02 5.037784e-02 6.810517e-02 -1.278588e-02 -8.921813e-02 -5.176764e-02 2.516289e-02 -2.273894e-03
<VARIANCE> 39
 6.890075e+00 2.299399e+01 3.286008e+01 9.482932e+01 2.920397e+01 8.074499e+01 7.752992e+01 5.894157e+01 5.567150e+01 6.345005e+01 5.388249e+01 3.794722e+01 2.418648e-01 2.495138e-01 8.226744e-01 6.997836e-01 1.479314e+00 1.193849e+00 1.710249e+00 2.022242e+00 2.506033e+00 1.981248e+00 2.756589e+00 2.072858e+00 1.633526e+00 1.557724e-03 3.857111e-02 1.072740e-01 1.061994e-01 2.019741e-01 1.907461e-01 2.248880e-01 2.837958e-01 3.450577e-01 3.034283e-01 3.755217e-01 3.064524e-01 2.276960e-01 9.872847e-05
<GCONST> 8.373396e+01
<TRANSP> 5
 0.000000e+00 1.000000e+00 0.000000e+00 0.000000e+00 0.000000e+00
 0.000000e+00 9.308246e-01 6.917538e-02 0.000000e+00 0.000000e+00
 0.000000e+00 0.000000e+00 9.460261e-01 5.397385e-02 0.000000e+00
 0.000000e+00 0.000000e+00 0.000000e+00 9.357702e-01 6.422974e-02
 0.000000e+00 0.000000e+00 0.000000e+00 0.000000e+00 0.000000e+00
<ENDHMM>
~h "y"
<BEGINHMM>
<NUMSTATES> 5
<STATE> 2
<MEAN> 39
 -9.719543e+00 4.928874e+00 1.653761e+01 3.176880e+00 -3.392627e+00 2.636719e+00 -7.027838e+00 8.183393e-01 -3.146993e+00 -7.103000e-01 2.205953e+00 8.481399e-01 1.690175e+01 9.834222e-01 2.117087e-01 7.465633e-01 -1.208986e-02 -9.395432e-01 -5.119136e-01 -9.236438e-01 1.965967e-01 -4.822381e-01 -4.176462e-02 3.238074e-01 3.150547e-01 3.711066e-01 -1.983341e-02 -1.334768e-01 -1.302886e-01 -4.808846e-02 -1.343889e-01 -1.358300e-01 2.121692e-02 3.508716e-02 -2.061588e-02 1.954604e-02 7.720589e-02 7.309770e-02 -1.868841e-02
<VARIANCE> 39
 5.161584e+01 5.112579e+01 3.140923e+01 3.154977e+01 3.779688e+01 5.518916e+01 4.375834e+01 2.917160e+01 2.752895e+01 3.013709e+01 3.178837e+01 2.168875e+01 6.650799e+00 1.513922e+00 2.533341e+00 1.409444e+00 2.320086e+00 3.062805e+00 4.367903e+00 2.773770e+00 2.343461e+00 2.845419e+00 2.892891e+00 3.144195e+00 2.374150e+00 1.171936e-01 2.380070e-01 4.297868e-01 2.179183e-01 4.511555e-01 5.880306e-01 8.080131e-01 5.618909e-01 4.408035e-01 6.106311e-01 6.291478e-01 7.135477e-01 4.057532e-01 9.301140e-03
<GCONST> 1.117562e+02
<STATE> 3
<MEAN> 39
 -2.892247e+00 4.582127e+00 2.039939e+01 2.340765e+00 -1.121494e+01 -5.022266e+00 -1.077921e+01 1.183997e+00 -5.348230e+00 -4.418108e+00 4.017923e+00 5.258543e+00 1.945168e+01 1.427911e-01 -1.532680e-01 -4.828400e-02 6.889712e-02 -1.731298e-01 -2.002323e-02 -4.229610e-02 7.546249e-02 -9.661325e-02 -8.199807e-03 1.103487e-02 -5.699256e-02 2.800683e-02 1.948702e-03 -9.551029e-03 -3.312698e-02 2.759385e-02 4.372127e-02 2.007027e-02 -3.329566e-04 1.892980e-03 3.898525e-02 2.546334e-02 -5.758928e-03 -3.850104e-02 -2.333223e-03
<VARIANCE> 39
 1.305159e+01 2.675888e+01 1.684350e+01 2.489863e+01 3.171110e+01 3.651784e+01 4.432787e+01 2.810663e+01 2.627123e+01 2.036815e+01 1.956906e+01 1.793969e+01 4.413350e-01 5.131869e-01 9.499673e-01 1.094073e+00 1.407729e+00 2.187854e+00 2.571205e+00 3.176218e+00 1.968292e+00 2.243313e+00 1.821792e+00 1.470482e+00 1.347089e+00 4.478517e-03 9.486824e-02 1.682031e-01 1.991566e-01 2.741010e-01 3.999135e-01 5.053375e-01 6.274897e-01 4.056419e-01 4.432227e-01 3.467273e-01 2.854193e-01 2.704181e-01 3.740122e-04
<GCONST> 8.669695e+01
<STATE> 4
<MEAN> 39
 1.652936e+00 -8.107645e-02 1.585507e+01 1.420041e+00 -1.342064e+01 2.574081e+00 -1.498931e+01 4.216530e+00 -7.697125e+00 1.817106e+00 7.178271e+00 -4.321587e+00 2.080443e+01 4.929893e-02 -1.157763e-01 -6.167831e-02 4.943926e-02 -7.845255e-02 -7.157245e-02 -6.410921e-02 1.297462e-01 7.120714e-02 -6.013186e-02 7.164317e-02 -5.165486e-02 8.372694e-03 -6.933419e-03 2.042138e-02 -2.408041e-02 -3.237544e-03 3.781632e-02 -2.523093e-02 2.770845e-02 -2.909167e-02 3.238168e-02 -1.071892e-02 -3.007141e-02 2.100562e-02 -1.869904e-03
<VARIANCE> 39
 9.161320e+00 1.681425e+01 2.826630e+01 5.617696e+01 4.458279e+01 5.700215e+01 5.111282e+01 3.578986e+01 4.030006e+01 4.342834e+01 3.817502e+01 3.531715e+01 2.268905e-01 1.918361e-01 4.140259e-01 6.725202e-01 6.646909e-01 1.240584e+00 1.576979e+00 1.496787e+00 1.195233e+00 1.338601e+00 1.262385e+00 1.166328e+00 9.546767e-01 1.164982e-03 2.915718e-02 6.241784e-02 8.331270e-02 9.884024e-02 1.821449e-01 2.414247e-01 2.398828e-01 1.972295e-01 2.254229e-01 1.982152e-01 1.750945e-01 1.563801e-01 8.179512e-05
<GCONST> 7.101832e+01
<TRANSP> 5
 0.000000e+00 1.000000e+00 0.000000e+00 0.000000e+00 0.000000e+00
 0.000000e+00 7.941172e-01 2.058829e-01 0.000000e+00 0.000000e+00
 0.000000e+00 0.000000e+00 9.449155e-01 5.508444e-02 0.000000e+00
 0.000000e+00 0.000000e+00 0.000000e+00 9.525959e-01 4.740411e-02
 0.000000e+00 0.000000e+00 0.000000e+00 0.000000e+00 0.000000e+00
<ENDHMM>
~h "z"
<BEGINHMM>
<NUMSTATES> 5
<STATE> 2
<MEAN> 39
 -8.000936e+00 9.592524e+00 6.343798e+00 -1.228772e+00 5.091010e+00 -1.028588e+01 -1.142445e+01 -2.097801e+00 4.756063e+00 7.522998e-01 -3.165222e+00 2.220406e+00 1.942807e+01 -1.006768e+00 7.766963e-01 -7.791086e-02 -4.609539e-02 6.613602e-01 -1.572466e-01 5.921097e-01 7.484785e-02 1.536729e-01 -1.906517e-01 -4.487025e-02 6.941704e-03 -1.164417e-01 -2.960974e-02 -7.442606e-02 4.712185e-02 6.509967e-02 -5.899046e-02 1.964597e-01 -3.615285e-02 8.029630e-02 -1.030956e-01 1.732814e-02 3.455890e-02 -5.662851e-02 -5.537423e-03
<VARIANCE> 39
 1.806469e+01 2.230060e+01 2.160717e+01 2.687228e+01 4.072929e+01 3.605662e+01 5.360751e+01 3.332045e+01 3.136111e+01 2.837182e+01 2.824986e+01 2.337479e+01 4.376037e-01 1.259817e+00 1.308805e+00 1.043059e+00 1.443979e+00 2.594463e+00 2.203978e+00 4.560933e+00 2.961998e+00 2.795284e+00 2.237981e+00 2.240047e+00 1.653564e+00 6.242068e-03 1.620932e-01 1.939141e-01 1.805134e-01 2.710045e-01 4.638672e-01 3.956280e-01 8.171350e-01 5.674787e-01 5.252063e-01 4.568534e-01 4.777534e-01 3.430434e-01 2.459215e-04
<GCONST> 9.411236e+01
<STATE> 3
<MEAN> 39
 -1.887546e+01 1.346661e+01 5.413981e+00 -5.067780e-01 8.872598e+00 -6.968302e+00 -5.327774e+00 -8.900100e-01 1.867886e+00 -1.030355e+00 -1.459356e+00 2.216323e+00 1.788024e+01 -4.475750e-01 -1.744702e-01 -1.201287e-01 -4.555206e-02 1.459865e-02 2.675264e-01 1.901834e-01 -3.741142e-02 -1.373471e-01 -4.248373e-02 8.803229e-02 -7.030794e-03 -6.294014e-02 1.203060e-01 -1.045077e-01 -4.441362e-02 -4.276508e-02 -1.128804e-01 -3.712686e-02 -6.611196e-02 -4.476156e-02 1.409895e-02 2.720082e-02 -8.434377e-03 1.116704e-02 9.194454e-03
<VARIANCE> 39
 3.103514e+01 2.007948e+01 3.172891e+01 2.639267e+01 2.925338e+01 3.638426e+01 4.135963e+01 3.174372e+01 2.680431e+01 2.831617e+01 2.781967e+01 2.206361e+01 6.785787e-01 1.124256e+00 7.945015e-01 1.090635e+00 1.509170e+00 2.318357e+00 3.001757e+00 3.229781e+00 2.782745e+00 2.478099e+00 2.624279e+00 2.927263e+00 2.185756e+00 1.295579e-02 1.278117e-01 1.411786e-01 2.178458e-01 2.990606e-01 4.815122e-01 5.976903e-01 6.808980e-01 5.803448e-01 5.040705e-01 5.662204e-01 6.161789e-01 4.556756e-01 7.856610e-04
<GCONST> 9.696683e+01
<STATE> 4
<MEAN> 39
 -2.065640e+01 5.366220e+00 1.709069e+00 -4.312222e+00 5.300104e+00 -5.685491e+00 -5.057224e+00 -1.435175e+00 2.357428e+00 6.078059e-01 -9.189893e-01 1.849745e+00 1.588934e+01 4.517163e-01 -2.836417e-01 -1.000087e-01 -5.633614e-02 -2.281857e-01 -4.286027e-02 -4.883659e-02 -7.535336e-02 -2.803933e-02 1.715897e-01 -5.338224e-02 -1.371421e-02 -7.713780e-02 3.989805e-02 1.033476e-02 5.614436e-03 2.460535e-02 1.582562e-02 -9.583837e-03 3.278453e-03 1.639052e-02 -2.103321e-02 1.305393e-02 -7.575078e-03 -1.153904e-02 7.508568e-04
<VARIANCE> 39
 6.817767e+01 2.983405e+01 4.820800e+01 4.400492e+01 4.088650e+01 4.802568e+01 5.881820e+01 3.593530e+01 3.499272e+01 3.501264e+01 3.147308e+01 2.410364e+01 3.816160e+00 1.191746e+00 1.584005e+00 1.853097e+00 2.190536e+00 2.808759e+00 3.546542e+00 3.622889e+00 3.222489e+00 3.287266e+00 3.500222e+00 3.317956e+00 2.580545e+00 5.741935e-02 1.418966e-01 2.958677e-01 3.317971e-01 4.257726e-01 5.791395e-01 7.445021e-01 7.417421e-01 6.701621e-01 7.097270e-01 7.350460e-01 7.385638e-01 5.646486e-01 4.030842e-03
<GCONST> 1.120936e+02
<TRANSP> 5
 0.000000e+00 1.000000e+00 0.000000e+00 0.000000e+00 0.000000e+00
 0.000000e+00 8.828040e-01 1.171960e-01 0.000000e+00 0.000000e+00
 0.000000e+00 0.000000e+00 9.225050e-01 7.749502e-02 0.000000e+00
 0.000000e+00 0.000000e+00 0.000000e+00 9.336426e-01 6.635752e-02
 0.000000e+00 0.000000e+00 0.000000e+00 0.000000e+00 0.000000e+00
<ENDHMM>
~h "@r"
<BEGINHMM>
<NUMSTATES> 5
<STATE> 2
<MEAN> 39
 5.083863e+00 -7.586824e-01 -6.420936e+00 1.958415e+00 -4.747706e-01 -5.057087e+00 -1.293018e+01 2.166207e+00 -5.942988e-01 5.661665e-01 5.051288e+00 3.597238e+00 1.984519e+01 4.514016e-01 -6.975583e-02 -4.135763e-01 -9.138745e-02 -3.433188e-01 -1.446600e-01 -8.382540e-01 4.205582e-01 -1.006973e-01 4.809992e-02 4.442746e-01 2.464469e-01 8.175588e-02 -1.524043e-01 -4.537796e-03 1.216561e-01 4.433981e-02 3.181929e-02 1.052008e-01 3.932353e-02 -1.157776e-02 8.728675e-03 4.368445e-02 -9.393085e-02 -1.545176e-01 -2.507758e-02
<VARIANCE> 39
 1.514225e+01 2.007402e+01 6.392688e+01 5.334486e+01 4.446958e+01 3.628965e+01 6.418058e+01 3.538525e+01 4.381551e+01 3.947297e+01 4.261636e+01 4.023209e+01 3.952052e-01 8.663553e-01 8.601449e-01 1.597647e+00 1.698197e+00 1.796814e+00 2.643523e+00 3.409806e+00 1.925867e+00 2.512707e+00 2.327571e+00 2.393322e+00 2.116591e+00 1.334519e-02 1.565849e-01 1.630174e-01 2.885656e-01 3.429869e-01 3.468362e-01 5.121011e-01 6.422963e-01 3.405713e-01 4.580827e-01 4.335302e-01 4.308065e-01 4.034264e-01 1.992302e-03
<GCONST> 9.901958e+01
<STATE> 3
<MEAN> 39
 7.650449e+00 -2.945534e+00 -5.853989e+00 3.064646e+00 -4.625656e+00 -2.800364e+00 -1.862088e+01 5.732215e+00 -1.519012e+00 6.511774e-01 8.487762e+00 6.043116e-01 2.077437e+01 2.195129e-02 -2.420619e-02 -3.562179e-03 -1.407746e-02 -7.752547e-02 4.709606e-02 -5.624138e-02 6.420792e-02 2.511824e-02 2.016145e-02 -9.968678e-03 -6.468539e-02 6.504967e-03 -1.069529e-02 2.547150e-03 1.619752e-02 -4.965376e-03 1.177579e-02 2.766211e-04 3.122732e-02 -1.916069e-02 4.931911e-03 -5.029273e-03 -2.128690e-02 7.138902e-03 -1.704003e-03
<VARIANCE> 39
 5.217187e+00 1.573967e+01 4.560334e+01 3.783739e+01 2.840223e+01 3.489114e+01 5.307249e+01 3.396404e+01 6.994254e+01 3.916379e+01 4.558998e+01 3.816119e+01 2.455184e-01 1.154559e-01 3.519903e-01 4.975590e-01 5.901044e-01 6.541246e-01 8.677130e-01 1.108280e+00 9.626214e-01 1.222816e+00 1.197091e+00 1.619970e+00 9.939026e-01 1.585458e-03 1.725750e-02 4.043636e-02 7.017780e-02 9.605458e-02 1.037678e-01 1.320951e-01 1.515043e-01 1.674010e-01 1.898438e-01 1.913695e-01 2.163452e-01 1.418846e-01 1.064680e-04
<GCONST> 6.520932e+01
<STATE> 4
<MEAN> 39
 6.171987e+00 -2.676501e+00 -2.837505e+00 6.758491e+00 -5.088187e+00 -7.157123e+00 -1.568893e+01 6.854245e+00 1.876463e+00 -1.966061e-02 2.779729e+00 2.203409e-01 2.003047e+01 3.406988e-02 6.273790e-02 6.233586e-02 5.993534e-02 1.313763e-01 -3.465492e-02 1.407415e-01 -1.278612e-01 -2.486851e-02 4.693135e-02 -2.600476e-01 7.838155e-02 -1.044765e-02 -7.630928e-03 -2.770143e-02 1.604773e-02 -1.781037e-02 3.708876e-02 -1.245636e-02 7.519009e-02 -4.599186e-02 -3.603705e-02 -2.864130e-02 9.922171e-03 4.283631e-03 -3.205434e-03
<VARIANCE> 39
 7.209212e+00 2.127506e+01 7.044935e+01 2.625249e+01 3.881288e+01 4.565972e+01 1.124709e+02 3.715754e+01 6.734816e+01 5.183371e+01 4.301512e+01 4.097408e+01 2.800046e-01 2.882225e-01 1.369931e+00 1.160707e+00 9.510716e-01 1.502208e+00 4.087287e+00 3.908665e+00 2.134499e+00 2.418734e+00 2.387709e+00 2.195842e+00 1.525634e+00 1.687007e-03 5.230522e-02 2.551523e-01 1.953801e-01 1.797518e-01 3.001449e-01 7.841559e-01 7.546023e-01 4.160149e-01 4.236321e-01 4.587766e-01 3.833670e-01 2.674392e-01 1.874162e-04
<GCONST> 9.132498e+01
<TRANSP> 5
 0.000000e+00 1.000000e+00 0.000000e+00 0.000000e+00 0.000000e+00
 0.000000e+00 7.898042e-01 2.101958e-01 0.000000e+00 0.000000e+00
 0.000000e+00 0.000000e+00 9.381151e-01 6.188486e-02 0.000000e+00
 0.000000e+00 0.000000e+00 0.000000e+00 8.014144e-01 1.985856e-01
 0.000000e+00 0.000000e+00 0.000000e+00 0.000000e+00 0.000000e+00
<ENDHMM>
~h "aa"
<BEGINHMM>
<NUMSTATES> 5
<STATE> 2
<MEAN> 39
 -1.047791e+00 -3.648808e+00 -9.432889e+00 -9.663568e+00 3.025286e+00 1.084086e+01 -5.263390e+00 -3.613915e+00 4.784932e+00 4.917677e+00 3.033454e-01 -7.740592e+00 1.898113e+01 2.176451e-01 -2.240110e-01 -2.916192e-01 -2.202126e-01 -6.269878e-02 2.099170e-01 -5.400518e-02 5.676610e-02 8.000486e-02 1.227675e-01 9.513332e-02 -3.510663e-01 8.341421e-02 -3.865966e-02 -1.553984e-02 3.570355e-02 6.966603e-02 1.383907e-02 6.310479e-03 2.671043e-02 -7.123938e-03 -3.262734e-02 -5.407396e-02 -8.953767e-03 -4.949066e-03 -1.388625e-02
<VARIANCE> 39
 1.977619e+01 2.885347e+01 3.349424e+01 5.571328e+01 3.854404e+01 7.928036e+01 5.839714e+01 3.950943e+01 3.636044e+01 4.670995e+01 4.516157e+01 3.919023e+01 2.383238e+00 1.037031e+00 2.265248e+00 1.918984e+00 3.623657e+00 2.280747e+00 2.861873e+00 2.781860e+00 2.408337e+00 2.828791e+00 3.194378e+00 2.461306e+00 2.603866e+00 5.955417e-02 2.070275e-01 4.566545e-01 3.825871e-01 6.743062e-01 4.735836e-01 6.030945e-01 5.594504e-01 4.737128e-01 5.678537e-01 6.446647e-01 5.061129e-01 5.653723e-01 7.022724e-03
<GCONST> 1.114086e+02
<STATE> 3
<MEAN> 39
 3.057021e+00 -7.515709e+00 -9.532704e+00 -1.043074e+01 1.926225e-01 1.395596e+01 -8.817480e+00 -1.632421e-01 5.377790e+00 3.877663e+00 -5.744308e-01 -1.129271e+01 2.092600e+01 1.513941e-02 -3.970386e-02 -9.516465e-05 7.009257e-02 -6.596639e-02 -3.394124e-02 -4.451747e-03 4.824290e-02 4.090584e-02 2.989862e-02 -5.261749e-02 -3.659106e-02 1.959655e-04 -7.295628e-03 2.132641e-02 1.610328e-02 8.322678e-03 4.434877e-03 -3.031140e-02 1.499718e-03 -5.632926e-03 -8.685581e-03 1.041987e-02 -3.545080e-03 2.449412e-02 -2.179088e-03
<VARIANCE> 39
 4.149721e+00 2.084744e+01 1.915350e+01 4.255247e+01 2.453596e+01 5.417236e+01 2.996535e+01 3.473836e+01 2.815063e+01 3.668764e+01 3.760809e+01 3.633944e+01 2.268905e-01 2.157441e-01 8.200941e-01 6.790362e-01 1.342553e+00 1.052204e+00 1.529708e+00 1.159127e+00 1.143487e+00 1.554245e+00 1.794519e+00 1.106585e+00 1.254897e+00 1.710202e-03 3.899178e-02 1.177461e-01 1.078591e-01 2.052849e-01 1.794648e-01 2.073375e-01 2.013962e-01 2.001729e-01 2.481232e-01 2.650548e-01 1.853455e-01 1.964242e-01 1.308176e-04
<GCONST> 7.290136e+01
<STATE> 4
<MEAN> 39
 1.046718e-01 -4.372531e+00 -8.012056e+00 -5.381536e+00 1.833762e+00 6.880061e+00 -4.542927e+00 -2.481722e-01 5.659513e+00 4.714539e+00 -6.421592e+00 -6.957966e+00 1.837757e+01 -1.655908e-01 2.090336e-01 2.261561e-01 1.682105e-01 6.805763e-02 -3.036211e-01 1.836020e-01 6.386185e-02 -1.230624e-01 -8.238899e-02 -2.032661e-01 2.161798e-01 -1.346767e-01 -6.541506e-03 -2.075866e-02 2.855646e-02 1.807566e-02 1.261930e-02 1.453640e-03 1.661158e-02 -1.296662e-02 -4.477801e-02 -3.643740e-02 1.483101e-02 2.473024e-02 -6.669560e-03
<VARIANCE> 39
 1.807740e+01 3.095068e+01 2.392457e+01 3.642344e+01 2.624752e+01 4.122926e+01 4.262383e+01 3.717110e+01 3.838010e+01 5.143120e+01 4.537812e+01 3.976860e+01 5.126278e+00 6.822180e-01 1.215869e+00 1.562320e+00 2.100899e+00 1.633013e+00 2.089664e+00 2.892851e+00 2.836363e+00 3.238339e+00 3.272740e+00 3.163755e+00 3.170822e+00 2.441044e-02 1.381935e-01 2.465826e-01 2.952193e-01 4.200863e-01 3.334156e-01 4.061105e-01 6.095443e-01 5.393834e-01 7.005235e-01 6.873922e-01 6.282241e-01 6.668191e-01 2.231285e-03
<GCONST> 1.048524e+02
<TRANSP> 5
 0.000000e+00 1.000000e+00 0.000000e+00 0.000000e+00 0.000000e+00
 0.000000e+00 9.216151e-01 7.838488e-02 0.000000e+00 0.000000e+00
 0.000000e+00 0.000000e+00 9.747510e-01 2.524896e-02 0.000000e+00
 0.000000e+00 0.000000e+00 0.000000e+00 9.087757e-01 9.122424e-02
 0.000000e+00 0.000000e+00 0.000000e+00 0.000000e+00 0.000000e+00
<ENDHMM>
~h "ae"
<BEGINHMM>
<NUMSTATES> 5
<STATE> 2
<MEAN> 39
 -8.968819e+00 1.227167e+00 1.709896e+00 5.255102e-01 -1.376319e+00 -3.581203e-01 -4.450421e+00 2.224232e-01 1.032390e+00 1.922153e+00 9.369482e-01 -5.463367e-02 1.433043e+01 6.601643e-05 -6.414447e-06 -4.348861e-05 2.207338e-05 -6.183252e-05 3.505594e-04 -2.845397e-05 -1.057293e-04 -3.217392e-04 -2.094190e-04 -1.093453e-04 6.646793e-05 -4.646834e-05 -3.052270e-05 -5.577785e-06 5.118113e-05 5.903988e-05 8.738427e-05 1.239256e-04 1.462678e-04 5.784345e-07 -6.680420e-05 8.540968e-05 -3.584341e-06 -9.608337e-06 3.280207e-06
<VARIANCE> 39
 9.132833e+01 3.750473e+01 5.184167e+01 5.299957e+01 4.542144e+01 5.171822e+01 6.411460e+01 4.173472e+01 3.924054e+01 3.472301e+01 3.778771e+01 3.327573e+01 2.268905e+01 6.444674e-01 1.076510e+00 1.293223e+00 1.883514e+00 2.197024e+00 2.673508e+00 2.949268e+00 2.722457e+00 2.845586e+00 2.895535e+00 2.697424e+00 2.293327e+00 4.128606e-02 9.874837e-02 2.035372e-01 2.576212e-01 3.839478e-01 4.538210e-01 5.496877e-01 6.081111e-01 5.695377e-01 5.939356e-01 6.059731e-01 5.659602e-01 4.834353e-01 5.660130e-03
<GCONST> 1.098248e+02
<STATE> 3
<MEAN> 39
 -8.968819e+00 1.227167e+00 1.709896e+00 5.255102e-01 -1.376319e+00 -3.581203e-01 -4.450421e+00 2.224232e-01 1.032390e+00 1.922153e+00 9.369482e-01 -5.463367e-02 1.433043e+01 6.601643e-05 -6.414447e-06 -4.348861e-05 2.207338e-05 -6.183252e-05 3.505594e-04 -2.845397e-05 -1.057293e-04 -3.217392e-04 -2.094190e-04 -1.093453e-04 6.646793e-05 -4.646834e-05 -3.052270e-05 -5.577785e-06 5.118113e-05 5.903988e-05 8.738427e-05 1.239256e-04 1.462678e-04 5.784345e-07 -6.680420e-05 8.540968e-05 -3.584341e-06 -9.608337e-06 3.280207e-06
<VARIANCE> 39
 9.132833e+01 3.750473e+01 5.184167e+01 5.299957e+01 4.542144e+01 5.171822e+01 6.411460e+01 4.173472e+01 3.924054e+01 3.472301e+01 3.778771e+01 3.327573e+01 2.268905e+01 6.444674e-01 1.076510e+00 1.293223e+00 1.883514e+00 2.197024e+00 2.673508e+00 2.949268e+00 2.722457e+00 2.845586e+00 2.895535e+00 2.697424e+00 2.293327e+00 4.128606e-02 9.874837e-02 2.035372e-01 2.576212e-01 3.839478e-01 4.538210e-01 5.496877e-01 6.081111e-01 5.695377e-01 5.939356e-01 6.059731e-01 5.659602e-01 4.834353e-01 5.660130e-03
<GCONST> 1.098248e+02
<STATE> 4
<MEAN> 39
 -8.968819e+00 1.227167e+00 1.709896e+00 5.255102e-01 -1.376319e+00 -3.581203e-01 -4.450421e+00 2.224232e-01 1.032390e+00 1.922153e+00 9.369482e-01 -5.463367e-02 1.433043e+01 6.601643e-05 -6.414447e-06 -4.348861e-05 2.207338e-05 -6.183252e-05 3.505594e-04 -2.845397e-05 -1.057293e-04 -3.217392e-04 -2.094190e-04 -1.093453e-04 6.646793e-05 -4.646834e-05 -3.052270e-05 -5.577785e-06 5.118113e-05 5.903988e-05 8.738427e-05 1.239256e-04 1.462678e-04 5.784345e-07 -6.680420e-05 8.540968e-05 -3.584341e-06 -9.608337e-06 3.280207e-06
<VARIANCE> 39
 9.132833e+01 3.750473e+01 5.184167e+01 5.299957e+01 4.542144e+01 5.171822e+01 6.411460e+01 4.173472e+01 3.924054e+01 3.472301e+01 3.778771e+01 3.327573e+01 2.268905e+01 6.444674e-01 1.076510e+00 1.293223e+00 1.883514e+00 2.197024e+00 2.673508e+00 2.949268e+00 2.722457e+00 2.845586e+00 2.895535e+00 2.697424e+00 2.293327e+00 4.128606e-02 9.874837e-02 2.035372e-01 2.576212e-01 3.839478e-01 4.538210e-01 5.496877e-01 6.081111e-01 5.695377e-01 5.939356e-01 6.059731e-01 5.659602e-01 4.834353e-01 5.660130e-03
<GCONST> 1.098248e+02
<TRANSP> 5
 0.000000e+00 1.000000e+00 0.000000e+00 0.000000e+00 0.000000e+00
 0.000000e+00 5.000000e-01 5.000000e-01 0.000000e+00 0.000000e+00
 0.000000e+00 0.000000e+00 5.000000e-01 5.000000e-01 0.000000e+00
 0.000000e+00 0.000000e+00 0.000000e+00 5.000000e-01 5.000000e-01
 0.000000e+00 0.000000e+00 0.000000e+00 0.000000e+00 0.000000e+00
<ENDHMM>
~h "ai"
<BEGINHMM>
<NUMSTATES> 5
<STATE> 2
<MEAN> 39
